{"version": "0.5.1", "metadata": {"date": {"year": 2023, "month": 4, "day": 29, "hour": 18, "minute": 17, "second": 47}, "loudness": -12.888832092285156, "gain": 0.3459921294009899, "name": null, "modeled_by": null, "gear_type": null, "gear_make": null, "gear_model": null, "tone_type": null}, "architecture": "WaveNet", "config": {"layers": [{"input_size": 1, "condition_size": 1, "head_size": 8, "channels": 16, "kernel_size": 3, "dilations": [1, 2, 4, 8, 16, 32, 64, 128, 256, 512], "activation": "Tanh", "gated": false, "head_bias": false}, {"input_size": 16, "condition_size": 1, "head_size": 1, "channels": 8, "kernel_size": 3, "dilations": [1, 2, 4, 8, 16, 32, 64, 128, 256, 512], "activation": "Tanh", "gated": false, "head_bias": true}], "head": null, "head_scale": 0.02}, "weights": [-0.008185364305973053, 0.46601057052612305, -0.645089328289032, -0.6382818818092346, -0.19819580018520355, 0.3039255440235138, 0.01980075240135193, 0.6916568279266357, 0.0068909297697246075, 0.08652474731206894, -0.04542122408747673, -0.07496864348649979, -0.9686776399612427, -0.5764976143836975, -0.24630281329154968, -0.01736346259713173, -0.010520288720726967, 0.1769694834947586, -0.1634688526391983, -0.21994757652282715, 0.18694229423999786, 0.09590347856283188, 0.12068392336368561, -0.008679707534611225, -0.0005376964691095054, 0.17029006779193878, 0.016421478241682053, -0.11002165079116821, 0.061176467686891556, -0.14360277354717255, -0.034607961773872375, -0.03570353239774704, 0.01954580284655094, -0.08858658373355865, -0.06041906028985977, -0.2169128805398941, -0.1062237098813057, -0.035152263939380646, 0.1768673211336136, 0.04267702251672745, 0.19920797646045685, -0.1943349838256836, 0.14860743284225464, -0.28112995624542236, 0.03740835562348366, -0.1105307936668396, 0.24247930943965912, -0.051203906536102295, -0.027819421142339706, 0.1323489248752594, -0.03979451209306717, 0.1592770367860794, 0.21446026861667633, -0.10317690670490265, 0.12532955408096313, 0.07175540924072266, -0.08883338421583176, -0.0861135721206665, 0.057039499282836914, -0.18349674344062805, 0.09459365904331207, -0.05119071900844574, 0.021415244787931442, -0.032679662108421326, 0.0840211808681488, -0.08351544290781021, 0.04304936155676842, 0.02970108762383461, 0.12271478772163391, 0.21001742780208588, -0.11470545083284378, -0.10617249459028244, -0.012739358469843864, 0.11708001792430878, 0.07537400722503662, 0.056667350232601166, 0.022099127992987633, -0.16578619182109833, -0.05279459059238434, -0.08199033886194229, -0.08486847579479218, 0.1986638456583023, 0.08913907408714294, -0.10919410735368729, -0.0628787949681282, -0.020056698471307755, 0.027490505948662758, 0.006586132571101189, 0.04547804966568947, -0.057067811489105225, -0.01748446561396122, 0.07955318689346313, 0.11691253632307053, 0.1178392842411995, -0.15440651774406433, -0.1078607365489006, 0.00011353319860063493, 0.024102555587887764, -0.1314581036567688, -0.1527635157108307, 0.13761761784553528, 0.047330643981695175, -0.13498859107494354, -0.03869182989001274, -0.1881731152534485, -0.07287859171628952, -0.1185358390212059, -0.15417541563510895, -0.08229747414588928, 0.058594752103090286, -0.07472240179777145, 0.14711076021194458, -0.06697487831115723, 0.22560438513755798, -0.014897901564836502, -0.11785800755023956, 0.14284631609916687, -0.11678611487150192, 0.006550035439431667, -0.13287705183029175, 0.18857711553573608, 0.00025342279695905745, -0.23514588177204132, 0.2009487897157669, -0.14730268716812134, -0.2476876676082611, 0.09474170953035355, -0.0690375342965126, 0.12091058492660522, -0.26803237199783325, 0.02838924713432789, -0.070669025182724, -0.06950133293867111, -0.0002785597462207079, 0.27121201157569885, -0.15296399593353271, 0.06438876688480377, -0.12341691553592682, 0.16095580160617828, 0.08945339918136597, 0.2808358073234558, -0.03495897352695465, 0.1443571150302887, -0.16660824418067932, 0.00045763925299979746, -0.06929586827754974, -0.06779185682535172, 0.1030815988779068, -0.07911278307437897, -0.2856000065803528, -0.004250550642609596, -0.1278526484966278, -0.19289903342723846, 0.2145214080810547, 0.0785226821899414, -0.29730314016342163, 0.2261749804019928, -0.16487804055213928, 0.08677708357572556, -0.2454240918159485, -0.008672443218529224, 0.09504605084657669, 0.021173255518078804, -0.25890612602233887, 0.005649344064295292, 0.09187010675668716, 0.07238937169313431, 0.02891651727259159, -0.23141038417816162, 0.12808077037334442, 0.10088791698217392, -0.15880392491817474, 0.2614264488220215, 0.030317192897200584, -0.23425503075122833, -0.04418863728642464, 0.0079055679962039, 0.05200664699077606, 0.12903465330600739, -0.10638542473316193, -0.04011388495564461, -0.17030225694179535, 0.12311502546072006, 0.14053219556808472, 0.17110587656497955, 0.00922884326428175, -0.07049919664859772, -0.14560171961784363, -0.06866740435361862, 0.16965042054653168, 0.233315572142601, 0.06471312046051025, -0.1909567415714264, 0.11602182686328888, -0.1367499977350235, -0.16952206194400787, 0.05455832928419113, 0.02444680966436863, -0.18091563880443573, 0.1338525116443634, -0.02014760859310627, -0.007908659987151623, 0.021201346069574356, -0.11781007051467896, -0.18304228782653809, 0.05607200786471367, -0.03714951127767563, 0.22620917856693268, 0.0953819751739502, -0.16120007634162903, -0.11959744244813919, 0.21886442601680756, 0.018784331157803535, -0.017787737771868706, -0.2442348152399063, 0.011751792393624783, -0.1156640350818634, -0.32018786668777466, 0.11036335676908493, -0.12068740278482437, -0.24948707222938538, 0.13279156386852264, 0.05422601103782654, 0.24734900891780853, -0.12375344336032867, 0.05861451104283333, -0.11457350850105286, 0.0484563410282135, 0.07572875171899796, 0.22595812380313873, 0.014414931647479534, 0.12343159317970276, -0.20287606120109558, 0.19974975287914276, 0.04980268329381943, 0.13378912210464478, 0.035602785646915436, -0.09475637972354889, -0.28823161125183105, 0.06360933184623718, 0.045425135642290115, -0.10402259230613708, -0.03196677193045616, -0.004396356642246246, -0.1734427660703659, -0.1461484730243683, 0.09277939796447754, -0.36404144763946533, -0.0022148173302412033, -0.0264359712600708, -0.31172895431518555, 0.007105357013642788, 0.11889035999774933, 0.07354684174060822, -0.18128009140491486, -0.13948655128479004, -0.2038181573152542, 0.0740647166967392, -0.1301107555627823, -0.16691994667053223, -0.05344758555293083, 0.14482322335243225, 0.12583708763122559, 0.07624144107103348, -0.011639462783932686, 0.007315505295991898, -0.06739573925733566, -0.018588153645396233, 0.17198342084884644, 0.013980861753225327, -0.123020701110363, -0.12862440943717957, -0.11668746173381805, 0.08023841679096222, 0.015218520537018776, -0.07000653445720673, 0.20675194263458252, -0.14786095917224884, 0.015087593346834183, 0.10383116453886032, 0.12830358743667603, -0.11235875636339188, -0.12218576669692993, 0.04665176570415497, 0.059269580990076065, 0.16752657294273376, 0.023661211133003235, 0.010174436494708061, -0.07810795307159424, 0.07490208745002747, -0.09841684252023697, 0.018600190058350563, 0.10653557628393173, -0.035127606242895126, -0.09561628103256226, -0.03315062075853348, 0.06795204430818558, -0.17002175748348236, 0.11594835668802261, -0.0787605345249176, -0.12340489029884338, -0.03399733826518059, -0.05523873493075371, -0.05654460936784744, 0.08894452452659607, -0.07467512786388397, 0.003681145142763853, 0.10662470757961273, 0.03259248659014702, -0.09139028936624527, -0.17417286336421967, 0.0019665579311549664, 0.1336582601070404, -0.10372474789619446, 0.08373699337244034, 0.18038640916347504, -0.12531203031539917, 0.02398199401795864, 0.14164115488529205, 0.058757681399583817, -0.01454930193722248, -0.078108049929142, -0.10370808839797974, -0.022574426606297493, 0.09991560876369476, 0.17994625866413116, 0.057299789041280746, -0.06878156214952469, 0.08643604815006256, -0.04096771404147148, -0.05562031269073486, -0.09101496636867523, 0.11066070199012756, 0.017704499885439873, -0.12754938006401062, 0.0797126442193985, 0.18374934792518616, 0.10923200100660324, 0.1445201337337494, 0.171407088637352, -0.0824802815914154, -0.024800289422273636, 0.20008325576782227, 0.03130367770791054, -0.058819226920604706, 0.21477282047271729, 0.027428220957517624, 0.1050877645611763, -0.005258004181087017, 0.014399231411516666, -0.05169348046183586, 0.005000306759029627, -0.026473915204405785, 0.005216222256422043, 0.021519262343645096, 0.2317945510149002, -0.02819332852959633, 0.12455786764621735, -0.27146852016448975, 0.012156692333519459, -0.1351863145828247, -0.3116011619567871, -0.13573430478572845, 0.07478248327970505, -0.08601868152618408, 0.10757925361394882, 0.07856900990009308, 0.035024646669626236, -0.07421810179948807, 0.002835754305124283, -0.03876429796218872, 0.059978216886520386, -0.1277327984571457, 0.0997060239315033, -0.11460284143686295, -0.044138118624687195, -0.00469123013317585, 0.13272617757320404, 0.012598088011145592, 0.26230838894844055, 0.1214723214507103, 0.010966464877128601, -0.08292365819215775, 0.12072844058275223, 0.0026049241423606873, -0.0016606600256636739, 0.05637487396597862, 0.0336591862142086, -0.22247444093227386, 0.047497428953647614, -0.02987389639019966, -0.2025267779827118, -0.09959237277507782, -0.1182384118437767, -0.2697860300540924, 0.07226458936929703, 0.06530889123678207, -0.009554131887853146, -0.07947356253862381, 0.10594555735588074, 0.09239894896745682, 0.21113203465938568, -0.21310202777385712, 0.1458078920841217, 0.34877219796180725, -0.2154783308506012, 0.11423222720623016, -0.15980611741542816, 0.06257390975952148, 0.06316645443439484, -0.3505200445652008, 0.09303663671016693, 0.10400451719760895, -0.2581612467765808, 0.013435246422886848, -0.03864442557096481, 0.2375037968158722, -0.1609564870595932, 0.07224538922309875, -0.054354991763830185, 0.06687170267105103, -0.07286833971738815, 0.27941516041755676, -0.05209357291460037, 0.13332541286945343, -0.3485317528247833, 0.10702352225780487, -0.09946290403604507, 0.19279736280441284, -0.060052528977394104, -0.10460163652896881, -0.21397416293621063, 0.2391851544380188, 0.0007227466558106244, -0.3667370676994324, 0.040867891162633896, 0.014531118795275688, -0.39128461480140686, 0.185183584690094, -0.14658638834953308, -0.40598994493484497, -0.021731290966272354, -0.0377240926027298, -0.16217169165611267, -0.01414414495229721, 0.08343557268381119, 0.17516639828681946, -0.1533101350069046, -0.009611215442419052, -0.16274794936180115, 0.1965082585811615, -0.04285041615366936, 0.032124292105436325, 0.10430918633937836, 0.014664094895124435, 0.2190428078174591, -0.04079990088939667, 0.1788760870695114, -0.012758980505168438, -0.0880129411816597, -0.03196120262145996, 0.050897251814603806, -0.015485772863030434, -0.2155003845691681, -0.06518314778804779, 0.1317616105079651, 0.1018175482749939, 0.0884147584438324, -0.09652267396450043, -0.15268626809120178, -0.03834092244505882, 0.19123663008213043, 0.21171297132968903, 0.061890166252851486, 0.03386048972606659, -0.25867897272109985, -0.20448891818523407, 0.10833244770765305, 0.03159293904900551, 0.16377927362918854, -0.1446915566921234, 0.0539272278547287, -0.0021671580616384745, 0.056851428002119064, 0.09985842555761337, 0.21535943448543549, 0.0489453561604023, 0.1898331344127655, 0.10203905403614044, -0.09425165504217148, 0.07560224086046219, 0.11634104698896408, 0.022077126428484917, -0.1199171245098114, 0.04905639961361885, 0.05067189410328865, -0.104035884141922, -0.0160105898976326, 0.2774544656276703, 0.0024371196050196886, -0.07541272789239883, 0.20475924015045166, 0.19757609069347382, 0.0252558421343565, 0.010096712037920952, 0.04954969137907028, -0.011936478316783905, -0.05272096395492554, 0.07906384021043777, 0.002327282913029194, -0.15217936038970947, -0.0263883825391531, 0.014113900251686573, 0.07179156690835953, 0.06184835359454155, 0.0993788093328476, -0.1724499613046646, -0.1143975779414177, 0.13733302056789398, 0.09706871956586838, 0.1542046070098877, -0.09291903674602509, -0.010596447624266148, -0.22498764097690582, -0.008092942647635937, 0.02671106718480587, 0.24951855838298798, -0.09391292184591293, -0.09849178045988083, 0.040179960429668427, 0.09261198341846466, 0.03991461545228958, 0.020274946466088295, -0.17734050750732422, -0.2161790281534195, 0.1280931830406189, -0.09810642153024673, -0.2078769952058792, 0.07081793993711472, -0.024479754269123077, -0.184953972697258, 0.007957757450640202, -0.015071889385581017, 0.03284169360995293, 0.03779783099889755, 0.0597858652472496, -0.0685667172074318, 0.09626796841621399, -0.15123829245567322, 0.032823290675878525, -0.20621369779109955, -0.04003659635782242, 0.2542489767074585, -0.16784042119979858, 0.11876387149095535, 0.09671258181333542, -0.1014024019241333, 0.05416560545563698, 0.19473713636398315, 0.08820626884698868, -0.22612516582012177, -0.18690010905265808, -0.06921052187681198, 0.09712905436754227, -0.06956643611192703, 0.21323682367801666, -0.12443479895591736, -0.13413596153259277, -0.02017706073820591, 0.15214534103870392, 0.11609940975904465, 0.16329915821552277, -0.14804834127426147, -0.1784272938966751, -0.09417837858200073, 0.21933697164058685, 0.03494907170534134, -0.21914517879486084, 0.1448245644569397, 0.23058375716209412, -0.12384811788797379, -0.021699216216802597, -0.020995985716581345, -0.04121413826942444, 0.0836518406867981, 0.035152874886989594, -0.04704593867063522, 0.14344942569732666, 0.21221739053726196, 0.14208126068115234, -0.09764339029788971, -0.0777410939335823, -0.08464149385690689, 0.12952905893325806, 0.14679685235023499, 0.027083441615104675, -0.21942803263664246, 0.1601732075214386, 0.1616949886083603, 0.20917929708957672, -0.1622822880744934, -0.028055796399712563, -0.015509386546909809, 0.09848784655332565, -0.036822084337472916, 0.02019135281443596, 0.037415605038404465, -0.08231940120458603, -0.16185139119625092, 0.03392377495765686, 0.03214304521679878, 0.05322348698973656, 0.1492244005203247, -0.08733265846967697, -0.03390851616859436, 0.1660800725221634, 0.12749190628528595, 0.07832928746938705, 0.10791080445051193, -0.017489617690443993, -0.13054697215557098, 0.1695411205291748, 0.07029447704553604, -0.061330314725637436, -0.07464619725942612, -0.055142976343631744, 0.2227230668067932, -0.037460807710886, -0.10245733708143234, 0.07768797874450684, 0.05666608735918999, 0.06301926076412201, 0.12460469454526901, -0.027951065450906754, 0.07581739872694016, 0.04520193859934807, -0.09813582897186279, -0.12759540975093842, -0.1829768419265747, 0.08351849019527435, -0.06260930746793747, 0.07918041944503784, 0.19231785833835602, -0.09789731353521347, -0.14074039459228516, 0.25668081641197205, 0.026747597381472588, 0.1621323823928833, -0.24599513411521912, 0.07378580421209335, 0.12151510268449783, -0.18919971585273743, 0.2237814962863922, -0.0551801361143589, -0.25254011154174805, -0.1663600206375122, -0.02294670045375824, 0.2798297107219696, -0.10217440128326416, 0.11044994741678238, -0.07597396522760391, -0.1411389410495758, 0.058341458439826965, 0.020399749279022217, 0.0773179680109024, 0.14081446826457977, -0.09521330147981644, 0.017768368124961853, -0.0612841472029686, 0.2356843650341034, -0.04819563031196594, 0.010856110602617264, -0.14473895728588104, 0.1321379691362381, 0.09133253246545792, 0.0004424156213644892, 0.08866862207651138, 0.041472479701042175, -0.027108563110232353, 0.06884242594242096, 0.16857905685901642, -0.22801360487937927, 0.08367456495761871, 0.035235896706581116, -0.06718364357948303, 0.11206979304552078, -0.04417668655514717, -0.0002311853168066591, 0.02811761386692524, -0.05759165436029434, -0.031250376254320145, 0.06402513384819031, 0.08470050990581512, 0.12379453331232071, -0.1482362300157547, -0.12809179723262787, 0.12793032824993134, -0.26573291420936584, 0.0415322370827198, 0.04587515443563461, -0.21806763112545013, 0.055257342755794525, -0.09945198148488998, 0.18578024208545685, -0.09803907573223114, -0.056043174117803574, 0.09427750110626221, 0.10925807803869247, -0.04794640094041824, 0.2535894513130188, -0.01962931454181671, -0.09372185170650482, -0.20472152531147003, -0.10044340044260025, 0.11196490377187729, 0.09742064774036407, -0.024943556636571884, 0.020098485052585602, -0.03202717751264572, 0.1390617936849594, 0.13393926620483398, -0.22751906514167786, -0.0007901681819930673, -0.066342793405056, -0.24197572469711304, 0.03971901908516884, 0.1544061154127121, -0.2735345661640167, 0.09536917507648468, -0.049010999500751495, -0.17639964818954468, 0.1173195093870163, -0.005049379076808691, 0.00011171317601110786, -0.09636873006820679, 0.07179664075374603, 0.0109475739300251, -0.11085645854473114, 0.1318390667438507, -0.15397483110427856, -0.20744183659553528, 0.058307185769081116, 0.15556499361991882, 0.038531579077243805, 0.005106968339532614, 0.16470830142498016, 0.1778516322374344, -0.1373792290687561, 0.026010403409600258, 0.0417868047952652, -0.17599868774414062, -0.03024209663271904, 0.019857803359627724, 0.19263584911823273, 0.030888820067048073, 0.18544910848140717, -0.05577687546610832, 0.07037800550460815, -0.14262554049491882, -0.03547309339046478, 0.07116120308637619, 0.1431078165769577, -0.16929741203784943, 0.08142808824777603, -0.011361871846020222, -0.045327503234148026, 0.014902036637067795, 0.20302028954029083, -0.1681039184331894, 0.015163426287472248, 0.1465800553560257, -0.1566527783870697, 0.12311236560344696, 0.16070975363254547, 0.032634805887937546, -0.052835892885923386, 0.22095710039138794, -0.1507687270641327, 0.1812685877084732, -0.05934195965528488, -0.19206498563289642, 0.09757876396179199, -0.059381771832704544, 0.07478512823581696, -0.012230640277266502, -0.0466955341398716, -0.20017948746681213, -0.14540697634220123, 0.1239357590675354, 0.017433030530810356, -0.09640827775001526, -0.043943922966718674, 0.06934162974357605, 0.12733164429664612, 0.05942707136273384, 0.037507154047489166, -0.06906174123287201, -0.05431586503982544, -0.06216166540980339, -0.17929857969284058, 0.41902998089790344, -0.35580459237098694, 0.6698649525642395, -0.6074892282485962, 0.01508284267038107, 0.9676971435546875, 0.9141058921813965, -0.5336909294128418, 0.06828974187374115, 0.1608206182718277, -0.36189478635787964, -0.4618295729160309, 0.3060166537761688, -0.5712789297103882, 0.1473088562488556, 0.4903959631919861, -0.09420671314001083, 0.07076523452997208, -0.10267291963100433, 0.1832898110151291, 0.3658933937549591, -0.11132455617189407, 0.1685355007648468, -0.019371220842003822, -0.1347118467092514, -0.08306662738323212, 0.08328486979007721, -0.00753908883780241, 0.1314932107925415, 0.06916027516126633, 0.2045123279094696, -0.09040751308202744, -0.11071431636810303, -0.06717466562986374, -0.2867145538330078, 0.04882263019680977, 0.13687081634998322, 0.031796470284461975, -0.03424965962767601, 0.11453007906675339, -0.18332231044769287, 0.3473794460296631, -0.12835803627967834, 0.06338007003068924, 0.3636171519756317, -0.002308232942596078, 0.07374594360589981, 0.5219836831092834, 0.12160025537014008, 0.18509501218795776, 0.17227669060230255, 0.15764304995536804, -0.23578250408172607, 0.014228099025785923, 0.17917244136333466, -0.24897810816764832, 0.07362290471792221, -0.13431954383850098, 0.15532535314559937, -0.4345502257347107, 0.15291792154312134, 0.16646113991737366, 0.05161414295434952, 0.038152262568473816, 0.2979567050933838, 0.0017375657334923744, 0.013138415291905403, -0.1373452991247177, -0.16126275062561035, 0.19494682550430298, 0.048452720046043396, -0.11296860873699188, -0.14351047575473785, 0.11121904104948044, 0.0028160999063402414, -0.1475534290075302, 0.13901159167289734, 0.15946459770202637, -0.25364577770233154, -0.02763596922159195, -0.18436624109745026, -0.11051327735185623, -0.21179521083831787, 0.19953779876232147, 0.0023006510455161333, 0.13514083623886108, 0.06987481564283371, -0.2059115320444107, 0.015643857419490814, 0.3144025206565857, -0.146497905254364, 0.1822420060634613, 0.043764449656009674, 0.1808769553899765, -0.19723887741565704, 0.16981275379657745, -0.22970250248908997, -0.05462845042347908, 0.1780162751674652, -0.03692835569381714, 0.42700186371803284, 0.28184935450553894, 0.3413885533809662, 0.25493940711021423, 0.2886642813682556, -0.13921374082565308, -0.2811126410961151, -0.07455550134181976, -0.006327360402792692, -0.22538508474826813, 0.31547510623931885, 0.011376890353858471, 0.43771156668663025, 0.0996311604976654, 0.5482292771339417, 0.27506402134895325, -0.7016884088516235, -0.2888529300689697, 0.13983413577079773, -0.21661277115345, 0.15139704942703247, -0.43546783924102783, 0.04695231094956398, -0.06591884046792984, -0.06478605419397354, -0.2615051865577698, -0.07324185967445374, -0.3474632799625397, 0.2877420485019684, 0.13983400166034698, 0.3352816700935364, -0.1993483155965805, -0.27116718888282776, 0.15854430198669434, 0.1378088742494583, 0.05969664826989174, 0.36933085322380066, -0.19585756957530975, 0.2134488821029663, -0.3230131268501282, 0.08928249776363373, -0.15989305078983307, -0.1174655631184578, 0.0034778814297169447, -0.41123300790786743, 0.039814360439777374, -0.39157718420028687, -0.3867526948451996, 0.30692216753959656, -0.2665821313858032, -0.048950497061014175, 0.19748997688293457, -0.5288138389587402, -0.3997618556022644, 0.03321243077516556, 0.40593409538269043, -0.04334922134876251, -0.1660921275615692, 0.2943321764469147, -0.05243100970983505, -0.11400742828845978, -0.19096750020980835, 0.28696510195732117, -0.21142756938934326, -0.27612295746803284, 0.08449535816907883, 0.1954057514667511, -0.12772855162620544, 0.09443780779838562, 0.22534874081611633, 0.1246439591050148, -0.016110358759760857, 0.2853500247001648, 0.2036837488412857, -0.1527571678161621, 0.04265621304512024, 0.1651216447353363, 0.1966543048620224, -0.23813825845718384, 0.12893472611904144, -0.18527579307556152, -0.10384698212146759, 0.11567056179046631, -0.14153409004211426, -0.04079485684633255, -0.11291948705911636, -0.1107373833656311, -0.1303579956293106, -0.01610488072037697, 0.14106953144073486, 0.008949936367571354, 0.3154968321323395, 0.13925908505916595, -0.09689000248908997, 0.23216399550437927, -0.023127496242523193, -0.11520890146493912, -0.22489343583583832, -0.02053450234234333, -0.01312502846121788, 0.012582276947796345, -0.3382054567337036, 0.11659017950296402, -0.20856519043445587, -0.3598558306694031, 0.05701500177383423, -0.1458568572998047, -0.41468068957328796, -0.15459482371807098, -0.044248297810554504, 0.02324794791638851, -0.07009017467498779, 0.2869541347026825, -0.368435800075531, 0.027055593207478523, 0.33468878269195557, 0.10785625129938126, -0.34616416692733765, -0.24193306267261505, 0.28254085779190063, -0.10915347933769226, -0.23357658088207245, 0.09978312999010086, -0.21885564923286438, 0.0038394718430936337, -0.16072037816047668, -0.059239841997623444, 0.05943594127893448, -0.13249318301677704, 0.27611199021339417, 0.3674585223197937, 0.06813666969537735, -0.07753909379243851, -0.1163601279258728, 0.0031069680117070675, -0.03125002235174179, -0.16340529918670654, -0.11575130373239517, -0.1403486728668213, 0.2043735682964325, -0.293218195438385, 0.07954191416501999, -0.14435064792633057, -0.19462130963802338, 0.12221235036849976, 0.041975438594818115, 0.2087743580341339, 0.2287987619638443, -0.470851331949234, 0.10678274929523468, -0.12661407887935638, -0.05239787697792053, 0.14783549308776855, 0.17806486785411835, -0.16010764241218567, 0.07637879997491837, 0.11023284494876862, 0.031408730894327164, 0.18143726885318756, -0.14532993733882904, 0.03996153175830841, 0.16286417841911316, 0.07241438329219818, 0.253354549407959, -0.11652661114931107, -0.1443544179201126, -0.20008964836597443, -0.10972823947668076, 0.12532274425029755, 0.17280744016170502, 0.16496016085147858, -0.022435730323195457, 0.07205688208341599, -0.00026603825972415507, 0.2064751535654068, -0.1885605901479721, -0.17873193323612213, -0.07343357056379318, 0.1813230812549591, -0.007299334276467562, 0.040207915008068085, -0.0628916546702385, 0.14300216734409332, 0.004987817257642746, -0.11756075173616409, 0.19357050955295563, 0.13128332793712616, -0.044886477291584015, 0.15703028440475464, -0.02899239957332611, -0.16644731163978577, -0.03586582839488983, -0.2621000111103058, 0.15061773359775543, -0.26509350538253784, 0.05449981614947319, 0.15301792323589325, -0.2786732017993927, 0.052877552807331085, 0.07571470737457275, -0.21964889764785767, -0.06574282050132751, 0.1795499622821808, 0.37746095657348633, -0.18044506013393402, -0.10016286373138428, 0.029551569372415543, 0.15107068419456482, 0.2120828479528427, 0.24433985352516174, -0.21219484508037567, -0.2105814814567566, -0.21189460158348083, 0.27738022804260254, -0.2604001462459564, -0.06895952671766281, -0.08429361879825592, 0.16468419134616852, -0.3427714705467224, 0.05543924868106842, 0.14469856023788452, -0.14503388106822968, 0.2607561945915222, -0.02458537183701992, -0.18047387897968292, 0.5716047286987305, -0.22359059751033783, -0.25649207830429077, 0.14390897750854492, -0.03997359797358513, -0.3521345257759094, 0.11730612069368362, 0.05123742297291756, 0.3175126314163208, -0.14289288222789764, -0.21912236511707306, -0.004219822585582733, 0.009961040690541267, 0.07449451088905334, -0.20609207451343536, -0.039436958730220795, -0.01276637427508831, -0.009740580804646015, -0.056690581142902374, 0.17938879132270813, -0.15344104170799255, 0.004239478148519993, -0.11425258219242096, 0.09099814295768738, -0.06525515019893646, 0.11522124707698822, -0.2222144603729248, -0.1852782964706421, -0.09059025347232819, 0.11156383156776428, -0.3006044030189514, 0.07245156168937683, 0.06186007335782051, -0.09303329139947891, -0.005706357304006815, -0.10566448420286179, 0.1289713829755783, -0.10605482012033463, 0.02961970865726471, -0.08673606812953949, -0.1429048627614975, 0.08344237506389618, 0.043239906430244446, 0.023260965943336487, 0.056713756173849106, -0.0981425866484642, 0.2624755799770355, 0.005551016423851252, -0.032137978821992874, 0.011035098694264889, 0.014403408393263817, 0.06555728614330292, 0.04857860505580902, 0.008409950882196426, 0.053780775517225266, 0.005713341291993856, -0.11902529746294022, 0.03863443806767464, -0.22165952622890472, -0.08689316362142563, -0.1345187872648239, -0.07683738321065903, 0.08247601985931396, 0.23469305038452148, -0.24674880504608154, 0.009620031341910362, 0.006018016487360001, 0.07569292932748795, 0.13518975675106049, -0.026825156062841415, -0.08433162420988083, 0.15036019682884216, 0.03396589308977127, 0.07882963865995407, -0.13248930871486664, 0.0438845269382, 0.14907823503017426, 0.04071355238556862, -0.32193443179130554, 0.2158122956752777, -0.17310620844364166, -0.10816855728626251, 0.13945595920085907, 0.06599175184965134, -0.011989057064056396, -0.16383275389671326, -0.07724976539611816, -0.001252845861017704, -0.15233197808265686, -0.06813183426856995, -0.13123616576194763, 0.06496898084878922, 0.15046636760234833, -0.25147873163223267, 0.3911271095275879, 0.18521776795387268, -0.02720843069255352, 0.09364796429872513, -0.03538798913359642, -0.08327902853488922, 0.06404289603233337, -0.060323815792798996, 0.1468936651945114, -0.0714971125125885, -0.1396084874868393, 0.08498919755220413, 0.15631404519081116, -0.26133444905281067, -0.07744710147380829, 0.06663140654563904, 0.02765522710978985, 0.12879560887813568, 0.17308348417282104, 0.259878009557724, -0.1880916804075241, -0.1916789412498474, 0.2051020860671997, 0.025613369420170784, -0.1343783289194107, 0.0887698233127594, -0.11431413143873215, -0.06735397130250931, -0.20644846558570862, 0.20280197262763977, 0.07133292406797409, 0.10935966670513153, 0.10958036780357361, 0.0003218172932974994, -0.2945084273815155, 0.19409751892089844, 0.06770994514226913, 0.048283468931913376, -0.2955975830554962, 0.07870258390903473, 0.11186563223600388, -0.15457671880722046, -0.11312774568796158, 0.25000229477882385, -0.20979870855808258, -0.032168567180633545, 0.07912056893110275, 0.039775483310222626, 0.08373316377401352, 0.05251016095280647, -0.12521901726722717, -0.0968874916434288, 0.27334439754486084, -0.19906435906887054, -0.1175120547413826, 0.060870252549648285, -0.160781130194664, 0.1272689551115036, -0.012370463460683823, 0.1940261423587799, 0.17507223784923553, -0.19049593806266785, -0.1380220353603363, -0.051302723586559296, 0.09829214215278625, 0.37022799253463745, -0.13937194645404816, 0.0250095184892416, 0.09023958444595337, -0.03329329565167427, -0.01212754100561142, 0.11084917932748795, 0.07883575558662415, 0.07261598855257034, 0.07586850970983505, -0.12443891912698746, -0.19290673732757568, 0.0734623521566391, 0.011851657181978226, -0.015689345076680183, -0.46447715163230896, 0.34020477533340454, -0.08635028451681137, 0.1310439258813858, 0.20070578157901764, 0.21806305646896362, -0.01626209169626236, -0.18543720245361328, -0.12537546455860138, 0.01270214095711708, -0.04714764282107353, 0.2068050354719162, -0.0287584587931633, -0.05481824651360512, -0.05815448984503746, -0.36016201972961426, 0.418653279542923, -0.08454376459121704, -0.5706607699394226, 0.1488221138715744, 0.09618354588747025, -0.05019306764006615, 0.013103863224387169, 0.08315770328044891, -0.01261181477457285, -0.270764023065567, 0.02137867733836174, -0.028423402458429337, -0.012427658773958683, 0.1470535695552826, 0.04236424341797829, -0.1456356644630432, -0.2890871465206146, 0.27209702134132385, 0.1020723357796669, -0.31532615423202515, -0.014842560514807701, 0.14388269186019897, -0.19957084953784943, 0.18247990310192108, 0.13603350520133972, -0.26690369844436646, 0.14117559790611267, 0.07094155997037888, 0.337066113948822, -0.18062710762023926, -0.12856131792068481, 0.016428522765636444, -0.7865561246871948, 0.017520606517791748, 0.28579849004745483, -0.37966790795326233, 0.11520011723041534, 0.010164001025259495, 0.6371787190437317, -0.2738061547279358, 0.0860002338886261, -0.21248112618923187, 0.23769134283065796, -0.15408697724342346, 0.14871954917907715, 0.13323874771595, 0.18193280696868896, -0.30999675393104553, 0.16829341650009155, 0.1203603744506836, 0.45666953921318054, -0.09357110410928726, -0.30249300599098206, -0.02173600159585476, 0.13972128927707672, -0.305992990732193, 0.4313843250274658, -0.23206615447998047, 0.14376839995384216, -0.12603479623794556, -0.008281762711703777, 0.006568291690200567, 0.06499365717172623, -0.008479318581521511, -0.008877124637365341, 0.16532465815544128, -0.04850024729967117, 0.07857946306467056, -0.06988157331943512, 0.1060614287853241, 0.20914854109287262, 0.027588726952672005, -0.052538130432367325, 0.005595392547547817, 0.2111298143863678, 0.0002764374657999724, 0.05044791102409363, 0.059800561517477036, 0.1970953345298767, 0.017048971727490425, -0.3470860421657562, -0.07304118573665619, -0.14410234987735748, 0.0002548338088672608, 0.054002221673727036, -0.034864261746406555, -0.04860246181488037, -0.33711084723472595, 0.056711554527282715, -0.0665106400847435, 0.07739964872598648, 0.14508788287639618, -0.05281100794672966, -0.0020722183398902416, -0.06630031764507294, -0.15133608877658844, -0.08898625522851944, 0.13468481600284576, 0.15671803057193756, -0.04701010137796402, 0.0353206992149353, 0.10449154675006866, -0.17974123358726501, -0.08419667929410934, 0.08339808881282806, -0.12129661440849304, -0.13126474618911743, -0.08535884320735931, 0.016750117763876915, -0.1372138410806656, 0.021671321243047714, 0.09527624398469925, 0.0912732183933258, -0.30705904960632324, -0.03371109440922737, -0.09254804998636246, 0.0826537013053894, 0.15921548008918762, -0.13811199367046356, -0.12266195565462112, -0.09700250625610352, -0.10072998702526093, -0.25808435678482056, -0.14127571880817413, 0.16920076310634613, -0.07691086828708649, -0.08473396301269531, 0.1304461508989334, 0.24132731556892395, -0.04633333161473274, 0.08190195262432098, -0.04116659238934517, -0.025443430989980698, 0.0036765902768820524, -0.18495135009288788, 0.16015098989009857, 0.09301242232322693, 0.05139446258544922, -0.06188007816672325, 0.09368149936199188, -0.12841565907001495, 0.02649574540555477, -0.17068658769130707, 0.2761799991130829, -0.2123054414987564, -0.18161994218826294, 0.07732468098402023, -0.25817590951919556, -0.026857610791921616, 0.09961491823196411, -0.0188142117112875, 0.11177919805049896, -0.020627526566386223, 0.2222205251455307, -0.09845700114965439, -0.024161551147699356, -0.04115138575434685, 0.09562148153781891, 0.12284863740205765, -0.11521124094724655, 0.04729318618774414, -0.11883097887039185, 0.018383240327239037, 0.02364921383559704, 0.01831444539129734, 0.10333805531263351, 0.15181493759155273, 0.044400159269571304, -0.03566429018974304, 0.11650000512599945, 0.0462736114859581, 0.08293075114488602, 0.014063219539821148, 0.12450260668992996, -0.062363091856241226, -0.0012033120729029179, 0.2775181829929352, -0.017808822914958, -7.854615978430957e-05, -0.08787905424833298, 0.009180154651403427, -0.1643131673336029, -0.1672849804162979, 0.25070497393608093, 0.1299162060022354, 0.19716201722621918, -0.04419023171067238, 0.0037760864943265915, -0.0770292580127716, -0.02067393809556961, -0.2529425621032715, 0.1435788869857788, -0.0467037707567215, -0.2521103322505951, 0.17179442942142487, 0.031588952988386154, -0.11357336491346359, -0.16457019746303558, -0.18350417912006378, -0.09715409576892853, -0.2038298100233078, 0.05883445218205452, 0.12470774352550507, 0.06389905512332916, -0.08216067403554916, 0.05966319516301155, 0.1694135218858719, 0.012890709564089775, -0.11346295475959778, 0.01210817415267229, 0.1175546646118164, -0.06323392689228058, -0.04018985480070114, -0.04085405170917511, -0.041275039315223694, 0.10084209591150284, -0.07196556031703949, 0.06597953289747238, -0.1146414577960968, -0.08956734091043472, -0.10023678839206696, -0.03801392763853073, 0.06181870400905609, 0.2681015133857727, 0.18715859949588776, 0.0735006034374237, -0.0830233246088028, 0.08267489075660706, 0.15274474024772644, -0.14378774166107178, -0.010517948307096958, -0.05298391357064247, -0.005259398370981216, -0.01561168022453785, 0.1367819756269455, -0.05177890136837959, 0.00027651130221784115, 0.1145603358745575, -0.0019824597984552383, 0.10992814600467682, -0.19235731661319733, -0.150466188788414, -0.06044904142618179, -0.2024436891078949, -0.07461274415254593, -0.013532190583646297, -0.025315629318356514, -0.09729055315256119, -0.25325900316238403, 0.07731863856315613, -0.059283070266246796, 0.06082390621304512, -0.07022164762020111, -0.15526020526885986, 0.03498233109712601, -0.01725359447300434, 0.022145168855786324, 0.0945897251367569, -0.04377712309360504, 0.13786691427230835, 0.01655697263777256, 0.0026501694228500128, -0.01890108548104763, -0.03081541880965233, -0.035650841891765594, 0.11861464381217957, 0.0051284292712807655, -0.1714170277118683, -0.14327935874462128, 0.11027311533689499, 0.09139135479927063, -0.15946471691131592, 0.18498551845550537, -0.04989159107208252, -0.20054756104946136, 0.23251239955425262, 0.14418797194957733, 0.04181741550564766, -0.1755370944738388, 0.16677339375019073, -0.0900970920920372, -0.08444249629974365, -0.09755674004554749, 0.2765258848667145, -0.07584226131439209, -0.13636714220046997, 0.02038169838488102, -0.028467942029237747, -0.2071741670370102, 0.08865297585725784, -0.25204843282699585, 0.01760750077664852, 0.12949690222740173, -0.08345583826303482, -0.004424456972628832, 0.1959538757801056, -0.057779524475336075, -0.055110618472099304, -0.15016625821590424, -0.08913766592741013, 0.09187885373830795, 0.13888335227966309, 0.04871523752808571, 0.03660828620195389, -0.1152752935886383, -0.152725487947464, -0.27121490240097046, -0.10256247222423553, 0.21135607361793518, 0.06839589774608612, 0.016414182260632515, 0.11148190498352051, -0.013060394674539566, 0.012738168239593506, 0.04256919026374817, -0.08341959118843079, 0.03382754698395729, 0.08373534679412842, 0.009705987758934498, -0.08989931643009186, -0.06641001999378204, -0.06393766403198242, 0.16846680641174316, 0.07312218099832535, -0.005807016976177692, -0.06084105744957924, -0.1686180680990219, -0.005859232507646084, -0.20491476356983185, -0.016953539103269577, -0.1527957320213318, -0.1271371692419052, 0.05999964848160744, -0.08946678787469864, -0.21664737164974213, 0.1775497943162918, 0.07404503971338272, -0.16222259402275085, 0.12926732003688812, 0.2355032116174698, 0.07786950469017029, 0.09659197181463242, -0.11615220457315445, -0.025741521269083023, -0.020956547930836678, -0.15419672429561615, -0.059502940624952316, 0.03311556950211525, 0.0876862034201622, -0.04790274426341057, 0.10131894052028656, -0.05380341410636902, 0.07262978702783585, 0.12105780094861984, -0.09421646595001221, 0.1597868800163269, 0.043086010962724686, -0.06181136518716812, 0.011439626105129719, -0.02019697055220604, -0.09548843652009964, 0.18366797268390656, -0.04681459441781044, -0.1727784126996994, -0.13681919872760773, -0.11205804347991943, 0.15602612495422363, -0.20136064291000366, -0.327851265668869, 0.10544909536838531, -0.14719389379024506, -0.02662762813270092, 0.1347818225622177, -0.07092197239398956, 0.07078215479850769, 0.04315926879644394, -0.10394196212291718, -0.07058446109294891, -0.26751112937927246, 0.1590668261051178, 0.1183401569724083, 0.0027230081614106894, 0.1465042382478714, -0.3113388121128082, 0.1878080815076828, 0.1370617151260376, -0.22370024025440216, 0.19473540782928467, 0.003423932706937194, -0.07699388265609741, -0.11874295026063919, 0.1326342076063156, -0.051574788987636566, -0.08118658512830734, 0.024087728932499886, 0.1213671863079071, 0.06817670911550522, 0.026636481285095215, -0.023052360862493515, 0.06509232521057129, -0.19054417312145233, 0.20676292479038239, 0.041965603828430176, 0.0680733397603035, -0.136432483792305, 0.07440399378538132, -0.11152496188879013, -0.025088168680667877, -0.023110948503017426, -0.13347911834716797, 0.022829122841358185, 0.08202052861452103, -0.012487703002989292, 0.015244945883750916, -0.09574705362319946, 0.30551669001579285, 0.12093203514814377, 0.24745821952819824, 0.16989915072917938, 0.027374781668186188, 0.026879683136940002, -0.016316257417201996, -0.07752155512571335, 0.0399862676858902, 0.11938751488924026, -0.02582293190062046, 0.2428460717201233, -0.08033856004476547, 0.05039437115192413, -0.03545065224170685, 0.11988917738199234, -0.11121140420436859, -0.12695391476154327, -0.05790511146187782, -0.21359172463417053, -0.20165912806987762, 0.06334632635116577, 0.08814914524555206, -0.12080852687358856, -0.1389208287000656, -0.0290286373347044, -0.17498041689395905, 0.07734695076942444, -0.049632538110017776, 0.10827770084142685, -0.19131004810333252, -0.025148974731564522, -0.09401482343673706, 0.005552701186388731, 0.08859948813915253, -0.14557106792926788, 0.10053257644176483, 0.2109702080488205, 0.03719520568847656, 0.06054919585585594, -0.0018603595672175288, -0.06851138919591904, 0.06251302361488342, 0.0987514778971672, -0.0633135586977005, 0.0020010233856737614, -0.1371787190437317, 0.009660379029810429, 0.08565176278352737, 0.2615998685359955, 0.18452532589435577, -0.0514017678797245, -0.04314419627189636, 0.0013757966225966811, -0.11874805390834808, -0.2599307894706726, -0.19693200290203094, -0.039910688996315, -0.13454608619213104, 0.09832195192575455, 0.08467752486467361, 0.14418070018291473, 0.029475407674908638, 0.0039413562044501305, 0.21335454285144806, 0.11543221771717072, -0.07185480743646622, 0.03793918341398239, -0.0020969852339476347, 0.050439685583114624, 0.04260839521884918, -0.06102070212364197, -0.11423872411251068, -0.02323014661669731, -0.2355647087097168, 0.08344682306051254, -0.036445070058107376, 0.06675230711698532, -0.006795814726501703, 0.1613491028547287, -0.017118040472269058, 0.13134653866291046, 0.03591481223702431, 0.023350363597273827, 0.014894574880599976, 0.05833348259329796, 0.0013569224392995238, 0.09675993025302887, 0.13451918959617615, -0.16081395745277405, 0.013394148088991642, 0.10867738723754883, -0.04086601361632347, -0.04243042692542076, -0.15396013855934143, 0.09591044485569, -0.2286263406276703, -0.07143080234527588, -0.26552510261535645, 0.06678088754415512, -0.2521124482154846, 0.0005699637695215642, -0.24517253041267395, 0.03928852453827858, -0.16915816068649292, 0.006416275165975094, 0.03466816619038582, 0.29781073331832886, -0.019708795472979546, 0.12609772384166718, -0.20383672416210175, -0.1462973952293396, -0.07026628404855728, -0.030394157394766808, -0.17673344910144806, 0.010225405916571617, -0.055475860834121704, -0.06459783017635345, 0.1352318674325943, -0.22236761450767517, -0.009515395388007164, -0.014458744786679745, -0.1302088052034378, 0.10588845610618591, 0.14270907640457153, 0.2696385979652405, 0.03677646443247795, 0.10868413001298904, -0.06938184797763824, 0.1620919406414032, -0.052141547203063965, 0.06147155538201332, 0.14155462384223938, 0.3639148771762848, -0.1460794359445572, -0.07513582706451416, 0.0629664808511734, 0.06044045835733414, 0.1059703677892685, 0.05357341840863228, 0.09485016018152237, -0.17912094295024872, -0.48196136951446533, 0.2108863890171051, 0.2852059304714203, -0.48718756437301636, 0.22019751369953156, -0.8904466032981873, -0.2231576144695282, -0.3957068622112274, 0.8443678021430969, -0.8738760352134705, -0.4818861782550812, -1.0885732173919678, 0.24333037436008453, -0.6463724374771118, 0.28412920236587524, -0.6146016716957092, -0.27095848321914673, -0.04936114326119423, 0.15937374532222748, 0.15858887135982513, 0.22851739823818207, -0.200472891330719, -0.24111492931842804, -0.14947780966758728, -0.09813987463712692, -0.009657911024987698, 0.04160548374056816, 0.0786583200097084, 0.18328525125980377, 0.21868054568767548, 0.024273168295621872, -0.030523087829351425, 0.32389768958091736, -0.19118374586105347, -0.1558501273393631, 0.09337740391492844, -0.3784983158111572, 0.2295330911874771, -0.07961899042129517, -0.12529808282852173, 0.130436509847641, -0.21211057901382446, 0.2716062366962433, 0.26980555057525635, 0.017272647470235825, -0.08442683517932892, -0.021858947351574898, 0.16461865603923798, 0.018743032589554787, -0.3272644281387329, -0.17417894303798676, 0.23923209309577942, 0.02562486007809639, 0.37953102588653564, -0.07548699527978897, 0.20889613032341003, 0.03365412354469299, 0.11463028192520142, -0.13355182111263275, -0.23386883735656738, -0.1302947849035263, 0.05590255558490753, 0.1400151550769806, -0.05536097288131714, 0.17011232674121857, 0.13820071518421173, -0.21674135327339172, -0.05303160846233368, -0.2528029978275299, 0.09257780015468597, -0.0654500424861908, 0.008118138648569584, -0.0786549523472786, 0.1697741001844406, 0.18778502941131592, 0.38148581981658936, 0.03336188942193985, -0.1857670694589615, 0.0488167442381382, -0.02555156871676445, 0.4599599540233612, -0.12416842579841614, -0.3354828953742981, -0.15704794228076935, 0.01789906993508339, 0.2541150450706482, -0.20945316553115845, 0.35966622829437256, 0.1548706740140915, 0.06324038654565811, -0.03480535000562668, 0.33565792441368103, -0.3233022391796112, -0.14570969343185425, -0.16084527969360352, -0.2241879105567932, -0.4018142819404602, -0.13742314279079437, -0.1414993852376938, -0.0941302627325058, 0.19018447399139404, -0.36792564392089844, -0.06733734905719757, -0.1266700029373169, 0.20106367766857147, 0.177541583776474, -0.1107950285077095, -0.16911886632442474, -0.08510395139455795, -0.05845816805958748, 0.08593335002660751, -0.015412683598697186, -0.05514229089021683, -0.04665525630116463, 0.26119038462638855, -0.19522486627101898, 0.18991167843341827, 0.427568644285202, -0.0643041655421257, -0.14672820270061493, 0.05485169589519501, -0.04291997849941254, -0.17729142308235168, -0.0007787087233737111, 0.23754863440990448, -0.15129339694976807, 0.07239536195993423, 0.37308070063591003, 0.26526692509651184, 0.0685233324766159, -0.0824756994843483, -0.03678303211927414, 0.0798063650727272, 0.2334488332271576, -0.10639475286006927, 0.07436887919902802, -0.10998328030109406, 0.2979959547519684, -0.26192453503608704, 0.13176630437374115, -0.17197588086128235, 0.0697832852602005, 0.35972005128860474, 0.1275198608636856, 0.0724702700972557, 0.025133466348052025, -0.18026866018772125, -0.16282525658607483, -0.16550959646701813, -0.22222813963890076, -0.1119123324751854, -0.1536218225955963, 0.1106308326125145, -0.03741776943206787, 0.1911822408437729, -0.08020384609699249, -0.08175133913755417, 0.1918751299381256, -0.24535366892814636, 0.21526217460632324, -0.5140144228935242, -0.07829518616199493, 0.16499260067939758, 0.24906855821609497, 0.3263550400733948, -0.4887990355491638, 0.13030245900154114, -0.030007924884557724, -0.017446378245949745, 0.09886037558317184, 0.274036705493927, 0.1552657186985016, 0.21265743672847748, 0.10141963511705399, 0.29488399624824524, -0.06061791628599167, 0.08393356949090958, -0.19714778661727905, -0.2000339925289154, 0.09293171018362045, -0.008502990938723087, -0.024291833862662315, -0.2510263919830322, 0.07095282524824142, 0.32039156556129456, 0.250359445810318, -0.2979293763637543, -0.0038319190498441458, -0.07197342813014984, -0.05517972633242607, -0.05572103336453438, 0.03733328357338905, 0.24270857870578766, 0.04448530077934265, -0.2775975465774536, 0.006640630774199963, -0.15053780376911163, -0.17891930043697357, -0.1869640201330185, 0.24590888619422913, 0.07237473875284195, 0.039642333984375, 0.09605618566274643, 0.04500260576605797, -0.1292293220758438, 0.08156342059373856, 0.21811380982398987, -0.05032981559634209, -0.22110135853290558, -0.12346486747264862, -0.11735913157463074, 0.12578974664211273, 0.1425798088312149, -0.05393160879611969, -0.2532753646373749, 0.18955668807029724, 0.030490702018141747, 0.009660627692937851, -0.3634273111820221, 0.02299242652952671, 0.15454347431659698, 0.009312888607382774, -0.022134041413664818, -0.0640396848320961, 0.0576285794377327, -0.034133683890104294, -0.3539813756942749, 0.5094403028488159, -0.27674758434295654, 0.03448054939508438, -0.23174142837524414, 0.02802106738090515, 0.2630331218242645, 0.42458590865135193, 0.2732735872268677, -0.1255854219198227, -0.01894996128976345, 0.2692067325115204, 0.031298693269491196, -0.1919403076171875, 0.18869230151176453, 0.12916623055934906, -0.026133758947253227, 0.09974676370620728, -0.32664865255355835, -0.3733484148979187, 0.02738010510802269, -0.1236647516489029, 0.005470671225339174, 0.06291480362415314, -0.14547207951545715, -0.24400827288627625, -0.1061657965183258, 0.09423904865980148, 0.2626284956932068, 0.2450179159641266, 0.20612184703350067, -0.1590447723865509, -0.20479165017604828, 0.010855377651751041, -0.12624922394752502, 0.1920545995235443, -0.3386037051677704, 0.19176456332206726, 0.2275395393371582, -0.25211137533187866, 0.18907314538955688, -0.014897281304001808, -0.1917935460805893, 0.19441264867782593, -0.2748968005180359, -0.2972966134548187, -0.1161978617310524, 0.09401556104421616, 0.007162978406995535, -0.07665606588125229, -0.14555111527442932, -0.016600852832198143, 0.12553928792476654, 0.11811944097280502, 0.1434442102909088, 0.062368061393499374, 0.0673602968454361, -0.15759816765785217, 0.03377636894583702, -0.23814092576503754, -0.10247247666120529, -0.07572285830974579, -0.04909832030534744, -0.120449498295784, -0.11013522744178772, 0.0669986680150032, -0.18431448936462402, -0.04512079805135727, 0.14070561528205872, -0.0011505518341436982, 0.026267632842063904, 0.11585640907287598, -0.18483789265155792, -0.108037069439888, 0.17479807138442993, -0.012690604664385319, -0.09119578450918198, 0.019672956317663193, 0.15213677287101746, -0.050333600491285324, -0.0615425743162632, -0.1604900062084198, -0.13715316355228424, -0.010620617307722569, 0.09829077124595642, -0.09286056458950043, -0.09614726901054382, 0.017026148736476898, -0.025205163285136223, -0.09408745169639587, 0.18673527240753174, -0.01085657998919487, 0.003173777600750327, 0.11544608324766159, -0.0726628378033638, -0.06914659589529037, -0.22887568175792694, -0.05814113840460777, -0.13622282445430756, -0.26586344838142395, -0.22466833889484406, 0.08813945204019547, -0.12117264419794083, 0.06854251027107239, 0.1396685242652893, 0.10423026233911514, -0.04516131803393364, 0.0951605886220932, -0.15873651206493378, -0.03408198803663254, -0.03397953882813454, -0.0832023099064827, 0.05745784565806389, -0.09330770373344421, -0.03939146175980568, -0.1074652150273323, 0.2284250408411026, 0.007244735024869442, 0.11719098687171936, 0.04848543182015419, -0.1048903837800026, -0.15074093639850616, 0.14971773326396942, -0.10670129209756851, 0.03512432053685188, -0.13027755916118622, 0.11955379694700241, 0.042366303503513336, 0.17027834057807922, -0.17338697612285614, -0.11067609488964081, -0.23012879490852356, -0.09043276309967041, 0.002762779127806425, -0.0971781387925148, -0.17280372977256775, -0.17377309501171112, 0.18152140080928802, 0.2692699134349823, -0.07682643085718155, 0.16360917687416077, 0.13265982270240784, -0.01055203564465046, -0.2814774811267853, 0.041474588215351105, -0.11962222307920456, -0.07152018696069717, 0.07453781366348267, 0.07860355824232101, 0.08071986585855484, -0.14369291067123413, -0.10828794538974762, -0.02120528370141983, 0.228854700922966, 0.07114089280366898, 0.0808248296380043, -0.03011767379939556, 0.12956950068473816, 0.05301452428102493, -0.07795003801584244, 0.038648054003715515, 0.1314171999692917, 0.01390792801976204, -0.29235613346099854, 0.10774103552103043, 0.12220725417137146, 0.025826346129179, -0.21898987889289856, -0.008862631395459175, 0.04434098303318024, -0.03608207404613495, -0.02633436769247055, -0.039596959948539734, 0.2699531614780426, 0.169050395488739, -0.09271693229675293, 0.011062425561249256, -0.008708047680556774, 0.09872985631227493, 0.13233457505702972, 0.1523633450269699, 0.021282676607370377, 0.07837387174367905, 0.013143072836101055, 0.007397734560072422, -0.13759149610996246, 0.06433705985546112, 0.045141179114580154, -0.12615226209163666, 0.29912540316581726, -0.1724681407213211, 0.11931829899549484, 0.17797598242759705, 0.08035557717084885, 0.06058008223772049, 0.20197731256484985, 0.11136946827173233, -0.004833977669477463, 0.24068251252174377, -0.010411492548882961, 0.11640898138284683, -0.06802397221326828, -0.017689146101474762, 0.0030807459261268377, 0.0018594146240502596, -0.07655613124370575, -0.1753275841474533, -0.05682278051972389, 0.10055647045373917, -0.2066696286201477, -0.04402346909046173, -0.07319716364145279, 0.1621214598417282, 0.04606034234166145, -0.09261064231395721, 0.2788240313529968, 0.05530023202300072, -0.10426400601863861, 0.06098097562789917, -0.09877313673496246, 0.020627807825803757, -0.29244670271873474, -0.09780140966176987, 0.16468465328216553, 0.35742878913879395, -0.030651994049549103, 0.0001218943580170162, -0.1707790344953537, -0.0180178452283144, 0.12247587740421295, -0.22759923338890076, 0.08504729717969894, -0.06812572479248047, -0.03464832156896591, -0.10842560976743698, -0.3439764678478241, -0.06608647108078003, -0.03128860890865326, 0.005707758944481611, -0.011708577163517475, 0.17042434215545654, -0.08368466794490814, 0.0187777578830719, 0.09841767698526382, 0.16142351925373077, 0.07488326728343964, -0.07074818015098572, 0.08949846029281616, -0.11883087456226349, 0.007047008723020554, -0.05692103132605553, -0.18977747857570648, -0.0033582092728465796, 0.1149064153432846, -0.007564803585410118, -0.10167587548494339, -0.06042621657252312, -0.01020539365708828, -0.015574480406939983, 0.21704129874706268, 0.06930425763130188, 0.12873034179210663, 0.08088105171918869, 0.04677828401327133, 0.1275654286146164, -0.2245813012123108, -0.17400869727134705, 0.070510134100914, -0.07021595537662506, -0.07639046013355255, 0.24576997756958008, -0.04158589988946915, -0.020921848714351654, -0.17105937004089355, 0.07462720572948456, -0.13769544661045074, -0.03166346624493599, 0.26716357469558716, 0.0887935534119606, -0.1617625504732132, 0.011424504220485687, 0.07209006696939468, 0.2592562437057495, 0.05216986685991287, -0.10656024515628815, 0.15771301090717316, -0.04883286729454994, -0.17452676594257355, 0.3108452558517456, -0.4511723518371582, -0.45421499013900757, 0.24085721373558044, -0.35777413845062256, -0.09571639448404312, 0.02021905593574047, 0.10619105398654938, 0.30779561400413513, 0.07336084544658661, 0.1425478309392929, -0.14876513183116913, -0.10821636021137238, 0.031932130455970764, 0.20586666464805603, -0.030864926055073738, -0.018888654187321663, -0.05595502629876137, -0.12117734551429749, 0.0029703574255108833, -0.009505555033683777, -0.2290625274181366, -0.11974779516458511, 0.06422985345125198, -0.06889977306127548, 0.07697070389986038, -0.010252431966364384, -0.08499372005462646, 0.08668126910924911, -0.21001183986663818, -0.15527862310409546, 0.10184333473443985, 0.07400035113096237, 0.13322408497333527, -0.0221092626452446, -0.18004505336284637, -0.18574558198451996, 0.09727334976196289, -0.03816827014088631, 0.031989339739084244, -0.08331847190856934, 0.15766657888889313, 0.0030930477660149336, -0.022746490314602852, 0.1388808786869049, -0.040093619376420975, 0.045945942401885986, 0.09501991420984268, 0.06044924259185791, -0.022782348096370697, 0.06607753783464432, -0.10839831084012985, -0.035818226635456085, -0.029421934857964516, -0.09430605173110962, -0.009392296895384789, 0.07133400440216064, 0.09523135423660278, -0.11634179204702377, -0.04082069173455238, -0.11806704849004745, 0.05096374452114105, -0.11175260692834854, -0.10995928198099136, -0.11079822480678558, -0.01119578443467617, -0.04457378387451172, -0.01684964820742607, 0.04759311303496361, -0.13241705298423767, -0.05664905160665512, -0.09238854795694351, 0.10995595902204514, 0.09973762929439545, -0.0005035714129917324, -0.07909099757671356, 0.03600335121154785, -0.006015470717102289, 0.12381959706544876, 0.014694619923830032, 0.09983528405427933, -0.012809627689421177, 0.06748449057340622, 0.2549965977668762, 0.10420291125774384, -0.10961338877677917, -0.1287047117948532, 0.03336859121918678, -0.003365053329616785, -0.17280100286006927, 0.06998364627361298, 0.04528568312525749, -0.22799021005630493, -0.03026759624481201, -0.138478085398674, 0.21265308558940887, 0.1952168345451355, -0.038294095546007156, -0.0007798612932674587, -0.007727272342890501, -0.07670719921588898, -0.059642989188432693, -0.03895026817917824, 0.03945918381214142, -0.30274710059165955, -0.018903153017163277, 0.06347230821847916, 0.2914654612541199, -0.05295169726014137, -0.08644656091928482, 0.15667575597763062, 0.0314234234392643, -0.11807921528816223, -0.07430266588926315, 0.008828380145132542, 0.056467022746801376, -0.2099064141511917, 0.18977949023246765, 0.01981397718191147, -0.21059930324554443, 0.07239795476198196, 0.06816684454679489, -0.26261404156684875, 0.09104842692613602, -0.13420149683952332, 0.1231015995144844, -0.0012374932412058115, -0.026145977899432182, -0.001953297294676304, -0.0700683444738388, -0.03198786824941635, -0.0930156484246254, 0.061942603439092636, -0.02957843244075775, 0.015198173932731152, 0.046883475035429, -0.04557935148477554, 0.012905020266771317, 0.049845319241285324, 0.040962185710668564, -0.01336244773119688, -0.08165621012449265, 0.09315630793571472, -0.17688652873039246, 0.1284773349761963, -0.08841102570295334, 0.18348188698291779, 0.09909466654062271, 0.09564486145973206, -0.31005343794822693, -0.05503818765282631, 0.06405149400234222, -0.12370272725820541, -0.021043336018919945, 0.06271679699420929, -0.18073053658008575, -0.16233700513839722, -0.16134952008724213, -0.0005819823709316552, -0.14984171092510223, -0.069338858127594, -0.16061601042747498, -0.13826334476470947, 0.06931544840335846, -0.15702609717845917, 0.03717377036809921, -0.08150174468755722, -0.1482061743736267, 0.11480662971735, 0.15490548312664032, -0.33548665046691895, 0.012786731123924255, 0.007754166144877672, 0.13758577406406403, -6.860874418634921e-05, -0.1905083954334259, 0.28144708275794983, -0.12678997218608856, 0.010001638904213905, 0.19243839383125305, -0.09815952181816101, -0.035975728183984756, -0.07377555966377258, -0.20502018928527832, 0.009728403761982918, 0.10553386807441711, 0.10570774972438812, 0.21456898748874664, -0.15624919533729553, 0.014626534655690193, -0.17210152745246887, 0.07346417009830475, 0.0022865973878651857, -0.023986510932445526, -0.10856074094772339, 0.16001743078231812, -0.07730168104171753, -0.17731672525405884, -0.07849673181772232, 0.153705433011055, -0.058174315840005875, 0.1944197714328766, 0.003870503045618534, 0.0482478104531765, 0.024800533428788185, -0.08531155437231064, -0.12087368965148926, -0.0627194419503212, -0.14015689492225647, 0.16095112264156342, 0.10616650432348251, -0.06515619158744812, 0.08426954597234726, -0.12559255957603455, -0.013965843245387077, 0.020183846354484558, -0.05435914173722267, -0.20087522268295288, 0.04201521351933479, -0.033445943146944046, 0.01385421585291624, -0.22686293721199036, 0.04058167710900307, 0.06289931386709213, -0.3793204724788666, -0.19124490022659302, -0.3570619821548462, -0.09683302044868469, -0.2108496129512787, 0.05469438433647156, 0.058207083493471146, -0.08634079247713089, -0.1159229576587677, 0.12039753049612045, -0.018326332792639732, -0.04878980666399002, 0.17383921146392822, 0.05164824053645134, -0.16991516947746277, -0.051220931112766266, 0.002916429191827774, 0.04739576578140259, -0.0801524817943573, -0.155388742685318, -0.12334638088941574, 0.2278817594051361, -0.3534778952598572, -0.0426316000521183, 0.08082865178585052, 0.1669040471315384, -0.2119894176721573, 0.11196634918451309, -0.003929772414267063, 0.03231123834848404, 0.0038988268934190273, -0.07167122513055801, -0.02493043802678585, -0.07469362765550613, 0.10245923697948456, 0.011058135889470577, 0.05193447694182396, -0.05108184367418289, 0.06701420992612839, -0.11441504955291748, 0.06935412436723709, 0.15597058832645416, 0.13211143016815186, -0.14870485663414001, 0.07688669860363007, 0.008430150337517262, -0.15931987762451172, -0.039508797228336334, -0.06343982368707657, 0.1851465404033661, -0.013941381126642227, 0.14792239665985107, -0.008842877112329006, -0.08860749751329422, 0.051101408898830414, 0.3516334593296051, 0.020077485591173172, -0.07978624850511551, -0.11380375921726227, -0.03819933161139488, 0.016976621001958847, -0.12731245160102844, 0.07453709095716476, 0.0804830864071846, -0.06742674857378006, 0.17466609179973602, 0.18273943662643433, -0.025372425094246864, 0.14115174114704132, 0.1947689652442932, -0.26396313309669495, -0.13939568400382996, -0.28514814376831055, 0.0335003137588501, -0.2844885587692261, 0.22607633471488953, -0.09098773449659348, -0.08984623849391937, -0.19020190834999084, -0.07690272480249405, 0.08501353859901428, 0.18240806460380554, -0.029628321528434753, 0.06083810701966286, 0.2302538901567459, -0.07313786447048187, 0.04946543276309967, -0.000709383690264076, 0.055473536252975464, 0.13092434406280518, 0.045457277446985245, -0.05485498160123825, 0.02211001329123974, -0.27077892422676086, -0.11712049692869186, -0.0745953842997551, 0.17095185816287994, -0.01051709521561861, 0.20605924725532532, 0.0667235404253006, -0.0472487136721611, -0.18160726130008698, -0.20951172709465027, 0.00020236715499777347, -0.12685123085975647, -0.14258503913879395, 0.211196169257164, -0.08697027713060379, -0.07297240942716599, 0.03178661689162254, -0.16548539698123932, -0.29464125633239746, 0.13434633612632751, -0.19693835079669952, -0.4378679096698761, 0.00966748595237732, 0.057849206030368805, 0.2076440304517746, 0.09633834660053253, 0.2975943684577942, 0.09635993093252182, -0.01037136185914278, 0.15247611701488495, -0.14498689770698547, -0.24995733797550201, -0.2352772355079651, -0.23000839352607727, -0.0595601350069046, 0.20024028420448303, 0.3527050018310547, 0.13610830903053284, -0.1572440266609192, 0.014959456399083138, -0.13119909167289734, 0.054294686764478683, 0.1335906982421875, -0.050098009407520294, -0.05407661572098732, 0.41122254729270935, 0.07386527210474014, 0.08004797995090485, -0.11788095533847809, -0.03446716442704201, 0.04933922737836838, -0.42870834469795227, 0.097756527364254, -0.13842684030532837, -0.028650350868701935, -0.16160131990909576, -0.02949080616235733, 0.43141356110572815, -0.003037168877199292, -0.020490480586886406, -0.38611724972724915, -0.05193404108285904, -0.18288467824459076, 0.39938944578170776, 0.016172118484973907, 0.019762884825468063, 0.3321865499019623, -0.28114405274391174, -0.06344212591648102, 0.14316833019256592, -0.03302402421832085, -0.0704568400979042, 0.4044700562953949, 0.02011682651937008, -0.05175844207406044, 0.2770679295063019, -0.04446157440543175, -0.19158482551574707, 0.20011234283447266, 0.032207660377025604, 0.07954137772321701, -0.08452918380498886, -0.031194088980555534, -0.04359046742320061, -0.16170811653137207, 0.041689757257699966, -0.13772986829280853, 0.22196067869663239, -0.14330744743347168, -0.17901195585727692, -0.24183616042137146, -0.151953786611557, 0.047838933765888214, -0.5356909036636353, -0.021584700793027878, 0.13191673159599304, -0.0426003523170948, -0.031990159302949905, 0.07290272414684296, 0.11556003242731094, 0.19375215470790863, -0.24618054926395416, 0.3813519775867462, 0.15404842793941498, 0.020636683329939842, -1.520342469215393, 0.39489081501960754, -0.045210931450128555, 0.6523899435997009, -0.1994307041168213, -0.034446652978658676, -0.12191677838563919, -0.08800804615020752, -0.056498933583498, -0.3534832298755646, -0.131699338555336, -0.13727955520153046, -1.0817745923995972, -0.10631531476974487, -0.13960014283657074, -0.10823774337768555, -0.01744898408651352, -0.3129364252090454, -0.06763460487127304, 0.10231642425060272, -0.063139908015728, -0.32255005836486816, -0.024371886625885963, 0.1475311517715454, 0.24789252877235413, 0.18388114869594574, 0.1584394872188568, -0.023154567927122116, 0.1074887067079544, 0.06642332673072815, -0.16418857872486115, 0.051620785146951675, 0.10875815153121948, -0.1698935627937317, -0.0903937816619873, 0.10320831835269928, -0.16182047128677368, -0.01037587784230709, -0.1238008439540863, 0.2312302440404892, -0.024750471115112305, -0.23666197061538696, -0.20499125123023987, 0.01811033859848976, 0.051681190729141235, -0.021464742720127106, -0.11071353405714035, -0.05979820340871811, 0.12186780571937561, -0.09915465116500854, -0.022628178820014, 0.197846919298172, -0.022406570613384247, 0.18985040485858917, -0.12848927080631256, 0.12184906750917435, 0.14515313506126404, -0.08178319782018661, -0.21815282106399536, -0.08175299316644669, 0.011330957524478436, -0.12207376211881638, -0.05579516664147377, -0.10202165693044662, -0.11899427324533463, 0.11750682443380356, 0.1420079916715622, -0.07461922615766525, 0.1288112998008728, -0.096701979637146, 0.05258335918188095, -0.21063151955604553, -0.09786897897720337, 0.39427536725997925, 0.1427288055419922, 0.1966087371110916, -0.35955387353897095, 0.020365849137306213, -0.12371707707643509, -0.1020524725317955, 0.03887688368558884, 0.014697480946779251, -0.16305887699127197, 0.03369073197245598, -0.009856762364506721, -0.34368696808815, -0.11820685118436813, -0.013895240612328053, 0.15736527740955353, -0.05904955789446831, 0.16856712102890015, 0.2965695858001709, -0.043737802654504776, -0.1529984176158905, 0.09071261435747147, 0.14499150216579437, 0.033857110887765884, -0.3691876530647278, 0.01901271566748619, -0.028112655505537987, 0.6391913890838623, 0.014717422425746918, -0.1828068643808365, -0.578264057636261, -0.13557679951190948, -0.13923700153827667, -0.3141469657421112, 0.2679147720336914, -0.3166709542274475, 0.04182427003979683, -0.20537550747394562, 0.03725428879261017, -0.27645358443260193, -0.0749870017170906, 0.14548541605472565, -0.3865528702735901, 0.05970778316259384, -0.26275500655174255, -0.212413489818573, 0.1213093101978302, 0.13955073058605194, -0.09454066306352615, 0.019114259630441666, -0.1093100756406784, 0.11009930819272995, -0.02341037429869175, -0.0630672499537468, 0.07882101833820343, 0.05237702652812004, 0.08349989354610443, 0.1763523668050766, -0.02146737463772297, -0.1373327076435089, 0.06704752147197723, -0.09025770425796509, 0.02305787056684494, -0.24990667402744293, -0.439721941947937, 0.5215853452682495, 0.3019053637981415, -0.36206212639808655, 0.07645954191684723, -0.06750944256782532, -0.11668352782726288, 0.37597939372062683, -0.638329803943634, 0.9949893951416016, 0.6953875422477722, 0.01918896473944187, -0.2790275812149048, -0.09098302572965622, -0.6564388275146484, 0.19966040551662445, -0.15836764872074127, -0.151536762714386, -0.2925322949886322, 0.19599497318267822, 0.37935155630111694, 0.08871208131313324, 0.025854406878352165, 0.22236022353172302, 0.09075336158275604, 0.32436591386795044, 0.21382157504558563, -0.28491532802581787, -0.30565837025642395, -0.005089848302304745, -0.1502830684185028, 0.182180717587471, 0.06855244189500809, 0.04135945066809654, 0.29511862993240356, 0.0744723379611969, 0.14203521609306335, 0.12404312193393707, -0.3167770504951477, -0.3767924904823303, 0.2114390879869461, 0.014760579913854599, -0.04937375709414482, 0.2560061812400818, 0.42306452989578247, -0.05398270860314369, 0.10377854108810425, -0.2114514708518982, -0.21761177480220795, 0.2724287509918213, -0.06438125669956207, -0.047810908406972885, -0.20242659747600555, -0.0030881178099662066, -0.17177030444145203, -0.14568102359771729, -0.1308555006980896, -0.14263039827346802, 0.10649041086435318, 0.16470575332641602, -0.2885260283946991, -0.08579017221927643, 0.02170860581099987, 0.08625110238790512, -0.10394831746816635, 0.26094338297843933, -0.03679719567298889, -0.17479947209358215, 0.03826078772544861, -0.12010497599840164, 0.2209421545267105, 0.2846788167953491, -0.07645732164382935, 0.12201808393001556, 0.20084016025066376, -0.05176665633916855, 0.2850363254547119, 0.10207823663949966, 0.010880212299525738, 0.06812720000743866, -0.14686234295368195, 0.3045894503593445, -0.23750469088554382, 0.21108829975128174, -0.05721810832619667, 0.04872605949640274, 0.1318637579679489, 0.0981997698545456, -0.014525607228279114, -0.11315042525529861, 0.08955470472574234, -0.16920486092567444, -0.06180514022707939, 0.30042511224746704, 0.08933965116739273, 0.06668054312467575, 0.0139307901263237, -0.01789167895913124, 0.03367344290018082, -0.09505892544984818, -0.1479184776544571, 0.2931205630302429, -0.028719861060380936, -0.12034698575735092, -0.09362362325191498, 0.0445636548101902, 0.12045910954475403, 0.2382936179637909, 0.24343131482601166, 0.07800794392824173, -0.06516560912132263, -0.14109663665294647, 0.11280383169651031, -0.0778796374797821, 0.17513006925582886, 0.03263047710061073, -0.14176368713378906, 0.18107634782791138, -0.1472555696964264, -0.23459969460964203, 0.134459987282753, 0.19576089084148407, -0.047391850501298904, 0.1898370385169983, 0.19851388037204742, -0.07217158377170563, 0.19706839323043823, 0.2994559407234192, 0.31116217374801636, -0.3135738670825958, 0.0479651540517807, -0.041450850665569305, -0.14456422626972198, 0.3288666605949402, -0.04883081093430519, 0.14419116079807281, 0.07476094365119934, 0.14850591123104095, 0.2540457248687744, -0.06668948382139206, 0.05922642722725868, -0.0984780490398407, -0.37765073776245117, -0.19086021184921265, 0.13922956585884094, -0.09113090485334396, -0.025214359164237976, -0.00713720079511404, 0.03007429465651512, -0.3079797923564911, 0.16296997666358948, 0.02943885512650013, -0.0929979458451271, 0.01392779778689146, 0.3755075931549072, -0.3839336931705475, 0.045695580542087555, 0.20120877027511597, 0.006410835776478052, 0.20240162312984467, -0.010465229861438274, -0.2591887414455414, 0.3692755699157715, 0.04173634573817253, 0.1713966429233551, -0.25220823287963867, -0.2837935984134674, -0.25688597559928894, 0.1391935497522354, 0.1025182232260704, -0.10788463801145554, 0.20461267232894897, 0.12831227481365204, -0.007146692834794521, -0.02064829133450985, 0.2015266865491867, -0.08453654497861862, -0.05631564185023308, -0.1033768281340599, 0.2951907813549042, -0.184899240732193, 0.11153551191091537, -0.015801914036273956, 0.23084944486618042, 0.02607077918946743, -0.1973380148410797, 0.06702004373073578, -0.045091237872838974, -0.07325690239667892, 0.07645092904567719, 0.28818216919898987, 0.23937024176120758, 0.1614338904619217, -0.050110239535570145, 0.14598602056503296, 0.24732543528079987, 0.20977745950222015, 0.250273197889328, 0.1485588550567627, 0.0027609821408987045, -0.2803194224834442, -0.22578392922878265, 0.20017145574092865, -0.24821631610393524, -0.17989525198936462, 0.22506093978881836, -0.04581402987241745, -0.1509184092283249, -0.29706528782844543, -0.10237246006727219, -0.1468682438135147, 0.33349817991256714, -0.01724710687994957, -0.22657276690006256, -0.2049107402563095, 0.31281593441963196, -0.2551996111869812, -0.330737441778183, 0.10241290181875229, -0.1452193260192871, -0.15224693715572357, 0.26586848497390747, 0.18186399340629578, -0.15340879559516907, 0.280898779630661, -0.011330078355967999, 0.13710267841815948, 0.11904096603393555, 0.0597192756831646, 0.07155205309391022, -0.11034365743398666, -0.00965910218656063, 0.10054606944322586, 0.08505761623382568, -0.37432897090911865, 0.03139405697584152, 0.126002237200737, -0.2859798073768616, -0.04387350752949715, 0.11660586297512054, 0.2968583106994629, -0.10474129766225815, 0.17328229546546936, -0.029413508251309395, -0.032188914716243744, 0.21747130155563354, -0.45925024151802063, 0.05574226379394531, 0.23715227842330933, 0.2085242122411728, 0.33262038230895996, 0.12430932372808456, -0.11154301464557648, -0.15048639476299286, -0.31461384892463684, 0.016562113538384438, -0.0861024335026741, 0.04163925349712372, -0.17662563920021057, -0.09783746302127838, -0.25341877341270447, 0.026313278824090958, -0.3334432542324066, 0.02723122015595436, 0.18118023872375488, 0.3079109489917755, 0.2828644812107086, 0.013166893273591995, -0.06835313886404037, 0.005550612695515156, 0.18202151358127594, 0.03909929096698761, 0.08846025913953781, 0.14559441804885864, 0.1165376529097557, -0.04190170764923096, 0.0812968760728836, 0.10916366428136826, -0.053368374705314636, -0.1446826457977295, -0.1359051913022995, 0.08363977819681168, 0.11059360951185226, 0.08552166819572449, 0.1768823266029358, 0.122335284948349, -0.0070761023089289665, 0.10060471296310425, 0.14759930968284607, 0.19853265583515167, -0.04291507229208946, -0.11754541844129562, 0.24364468455314636, 0.21460144221782684, -0.038660284131765366, 0.072397880256176, -0.10322485864162445, -0.2597983479499817, 0.12994006276130676, 0.044033266603946686, -0.2791856825351715, -0.18945373594760895, 0.01869230531156063, 0.12689590454101562, -0.09470310807228088, 0.1445988565683365, 0.13396334648132324, 0.15737350285053253, -0.05815639719367027, 0.06899286061525345, 0.10765503346920013, 0.13518273830413818, 0.04460371285676956, 0.0758465826511383, 0.03153170272707939, -0.0023939418606460094, 0.10138897597789764, -0.03949900344014168, -0.08015523105859756, 0.13853149116039276, 0.0128335515037179, -0.18277791142463684, -0.018816396594047546, -0.1371304839849472, 0.09508711099624634, -0.13848909735679626, -0.11158815026283264, -0.4109637439250946, -0.08993209153413773, 0.02592669241130352, -0.16388235986232758, 0.16227203607559204, -0.06920131295919418, 0.147502601146698, -0.014003947377204895, -0.07356342673301697, -0.15571366250514984, -0.22710154950618744, 0.1661127358675003, -0.11170833557844162, -0.20099665224552155, 0.17093981802463531, 0.18221841752529144, 0.12512311339378357, 0.07939834147691727, 0.22464047372341156, -0.016041139140725136, -0.06549107283353806, 0.08413918316364288, 0.1401698738336563, -0.11284571886062622, -0.20960992574691772, 0.16695339977741241, 0.034529659897089005, 0.21985289454460144, -0.02760750986635685, -0.22744892537593842, 0.13320375978946686, -0.05612039566040039, 0.08545137941837311, -0.1372847855091095, -0.2215789258480072, 0.1249910220503807, 0.15159127116203308, -0.06419949233531952, -0.19630688428878784, -0.10389214009046555, -0.19502076506614685, -0.02420942485332489, -0.2304883748292923, -0.42801159620285034, 0.07329069823026657, -0.21665890514850616, 0.07465630769729614, -0.04768163710832596, 0.20952826738357544, -0.021787919104099274, 0.1475045382976532, 0.14539004862308502, -0.09705793112516403, -0.292888343334198, -0.09426950663328171, 0.13601869344711304, 0.02848736196756363, -0.07977017015218735, 0.03442564979195595, 0.006225480232387781, 0.07623711228370667, -0.07029139250516891, -0.3692801594734192, -0.22720855474472046, 0.045343901962041855, -0.06646236777305603, 0.18407048285007477, 0.03101186640560627, 0.11236976832151413, 0.004580812994390726, 0.13630172610282898, -0.04047638922929764, -0.22347210347652435, -0.01726429909467697, 0.05991468206048012, 0.016335763037204742, -0.1507156789302826, 0.003030699212104082, -0.14078080654144287, 0.10555466264486313, -0.10881175845861435, 0.13413165509700775, 0.13731256127357483, 0.12916532158851624, -0.02941463515162468, -0.052993979305028915, 0.16100355982780457, 0.29812729358673096, 0.12283923476934433, 0.0069826520048081875, -0.07247604429721832, -0.0649980753660202, -0.08443310111761093, -0.0068593742325901985, -0.018102720379829407, -0.2733917534351349, 0.07556004077196121, -0.08624731004238129, -0.07746797800064087, -0.24680376052856445, -0.1381232738494873, -0.11338259279727936, -0.13412848114967346, 0.03580089658498764, -0.046763915568590164, -0.005109699442982674, -0.08167339116334915, -0.06533148884773254, 0.29306674003601074, 0.31795334815979004, 0.11434216052293777, 0.14240552484989166, 0.0985955148935318, -0.041361577808856964, 0.17061112821102142, -0.13423751294612885, 0.16919471323490143, 0.3561055660247803, -0.02716635726392269, 0.20480908453464508, -0.2719275951385498, 0.10646673291921616, 0.0657932236790657, -0.2843445837497711, -0.05281103774905205, 0.07431424409151077, -0.3733142018318176, -0.04471477493643761, -0.1198810338973999, 0.08564803004264832, -0.11609204113483429, -0.20297522842884064, -0.10430951416492462, 0.1350158005952835, -0.12432979792356491, 0.23990148305892944, 0.05968629941344261, 0.07743993401527405, -0.14113512635231018, 0.015631360933184624, -0.09816264361143112, 0.0674033984541893, -0.15485569834709167, 0.19857832789421082, 0.4352322816848755, -0.15431196987628937, -0.16367888450622559, 0.18304406106472015, -0.04322030395269394, 0.18884341418743134, -0.11308988928794861, -0.020253002643585205, 0.13148753345012665, 0.3690583407878876, -0.033940549939870834, 0.15409986674785614, -0.17304888367652893, 0.023006422445178032, 0.018843945115804672, -0.1532047986984253, -0.03985130414366722, 0.19700905680656433, -0.19268637895584106, 0.10501973330974579, 0.05129934102296829, -0.3445567786693573, -0.08715243637561798, -0.2865452468395233, 0.2710220515727997, 0.09516891837120056, -0.022159142419695854, -0.14267808198928833, 0.005480342078953981, 0.021491289138793945, -0.1094813346862793, 0.05857512727379799, -0.015425148420035839, 0.18027114868164062, -0.10986925661563873, -0.06997484713792801, 0.017682017758488655, 0.027686430141329765, -0.00911039300262928, -0.24375019967556, 0.014789411798119545, -0.037719227373600006, -0.35027170181274414, 0.027030928060412407, -0.057359661906957626, 0.16300643980503082, -0.12328536808490753, -0.08287836611270905, -0.34703779220581055, 0.04371240735054016, 0.11399068683385849, -0.10547441244125366, 0.028817374259233475, -0.04906342178583145, -0.11796203255653381, -0.021600255742669106, -0.16228894889354706, 0.014440203085541725, -0.3089188039302826, -0.06195593252778053, -0.36163443326950073, -0.02829316444694996, -0.0037902744952589273, 0.10524558275938034, 0.2407667189836502, -0.01067946758121252, 0.1447020322084427, -0.22995714843273163, 0.11087924987077713, -0.11663711816072464, -0.06831452250480652, -0.14086735248565674, -0.12614759802818298, 0.09010826051235199, 0.11858958750963211, 0.009743737056851387, -0.014894942753016949, -0.015106565319001675, -0.08237186074256897, -0.07248397916555405, -0.20034989714622498, -0.145957812666893, -0.13766734302043915, -0.08252611756324768, 0.029869453981518745, -0.06866858899593353, 0.03160231187939644, -0.6833813786506653, -0.08938075602054596, -0.08380371332168579, -0.5071320533752441, 0.13129675388336182, -0.03414330631494522, -0.0004252844082657248, -0.13509537279605865, -0.05204750970005989, -0.389548659324646, 0.17432785034179688, 0.012904515489935875, -0.05912850424647331, -0.0074508944526314735, 0.1301550567150116, -0.15903791785240173, 0.034950051456689835, 0.05462571978569031, -0.06346699595451355, -0.12794414162635803, -0.10398983210325241, 0.10912515223026276, 0.04510144144296646, -0.07710926979780197, 0.29988381266593933, 0.05809089541435242, -0.13087773323059082, 0.06919262558221817, -0.05687543377280235, -0.049191828817129135, 0.21439529955387115, 0.02973841316998005, 0.03181979060173035, -0.23639126121997833, 0.02663109079003334, -0.16272908449172974, -0.2891024053096771, -0.10080520808696747, 0.24776239693164825, -0.1198219507932663, -0.15318971872329712, -0.12405925989151001, 0.21647627651691437, -0.026345763355493546, -0.09217752516269684, -0.07477892190217972, -0.01968061923980713, 0.04010048136115074, 0.30592241883277893, 0.10674995183944702, 0.0275843758136034, 0.09247336536645889, -0.04589478299021721, 0.15366485714912415, -0.07328975200653076, 0.046293169260025024, 0.0643114224076271, 0.38679203391075134, -0.14878815412521362, -0.14243923127651215, 0.2160940021276474, -0.023132041096687317, 0.3168804347515106, 0.0399666428565979, -0.12866322696208954, -0.10372457653284073, -0.14662307500839233, -0.061403095722198486, 0.06434787809848785, -0.07626581192016602, 0.12051644176244736, -0.1529380977153778, 0.04388854280114174, 0.2920611500740051, -0.13759538531303406, 0.244964599609375, -0.1620011329650879, 0.050918079912662506, 0.16038429737091064, -0.03838754817843437, 0.05098884180188179, -0.22744496166706085, -0.08539115637540817, -0.012544998899102211, -0.06811390072107315, -0.1419101506471634, 0.10506299883127213, 0.08749432116746902, -0.09682559221982956, -0.00519353523850441, -0.16582147777080536, -0.04597479850053787, -0.23290659487247467, -0.12336205691099167, 0.006458605639636517, -0.045687466859817505, -0.32746702432632446, 0.03137768805027008, -0.011676610447466373, -0.2007623016834259, 0.01715993508696556, 0.001258093281649053, -0.1475718468427658, 0.10677379369735718, 0.031381625682115555, -0.46205398440361023, -0.05949879065155983, -0.1237349584698677, -0.041829902678728104, -0.055553290992975235, 0.12240954488515854, -0.15477868914604187, -0.12546764314174652, -0.09179070591926575, 0.35515978932380676, 0.08137035369873047, 0.07467987388372421, -0.12372853606939316, 0.08247136324644089, 0.03486863151192665, -0.2971839904785156, 0.10458558797836304, 0.07186630368232727, -0.18392160534858704, 0.0816715657711029, -0.12115988880395889, -0.20422782003879547, -0.007684704847633839, -0.13917286694049835, 0.44103294610977173, -0.02496477961540222, 0.02752131037414074, -0.2945769429206848, 0.06085138022899628, -0.06388482451438904, -0.10379254072904587, -0.11359107494354248, 0.02340063638985157, 0.05516448989510536, -0.011945883743464947, 0.17004114389419556, 0.34006139636039734, 0.022711507976055145, 0.0047364309430122375, -0.07919445633888245, -0.1552623063325882, 0.13224539160728455, 0.08796201646327972, -0.15230147540569305, 0.22578777372837067, 0.05855116993188858, -0.07500124722719193, -0.03799833729863167, 0.5220176577568054, -0.03666508570313454, 0.08179106563329697, 0.0847693681716919, 0.031444061547517776, -0.12401475012302399, 0.054894592612981796, 0.23544026911258698, 0.03772416338324547, -0.013548070564866066, -0.0031265560537576675, 0.01235777884721756, -0.09734337031841278, 0.022136088460683823, -0.10990143567323685, 0.05967585742473602, -0.19110596179962158, -0.009158685803413391, -0.29481586813926697, 0.16406135261058807, -0.2242012917995453, 0.11364518851041794, -0.036659661680459976, -0.0005570237408392131, 0.2838919758796692, -0.07389087975025177, -0.09366945177316666, -0.24606171250343323, 0.2897767424583435, -0.0028670858591794968, 0.5528597831726074, -0.059207625687122345, 0.15023814141750336, 0.07160601764917374, 0.18372823297977448, 0.07614833116531372, 0.026844007894396782, 0.11292895674705505, -0.3035264313220978, -0.03579450771212578, -0.06781918555498123, 0.1010279431939125, -0.04511062428355217, -0.013112657703459263, 0.17575952410697937, -0.14558395743370056, -0.022161593660712242, -0.21252889931201935, 0.31208696961402893, -0.04597942903637886, 0.21572871506214142, 0.008466565050184727, 0.011155584827065468, -0.06635870784521103, 0.15373340249061584, -0.018904438242316246, 0.0982891097664833, 0.3077884912490845, 0.28689414262771606, 0.0011660211021080613, -0.29024189710617065, 0.07320387661457062, 0.03485472500324249, -0.17429307103157043, 0.11198531836271286, 0.09701912850141525, -0.18159779906272888, -0.15800833702087402, -0.16251830756664276, -0.4189644157886505, -0.0975382924079895, 0.052150577306747437, 0.28726640343666077, 0.05625567212700844, 0.112310491502285, -0.021218283101916313, -0.20460961759090424, -0.0253571979701519, 0.02025236375629902, 0.28364601731300354, -0.11481712758541107, 0.11552508175373077, 0.08826912939548492, -0.04763597622513771, 0.13226589560508728, -0.01942279562354088, 0.22827553749084473, -0.21415965259075165, 0.14233779907226562, -0.008994516916573048, -0.2832937240600586, -0.08300959318876266, 0.020779084414243698, 0.0878768265247345, 0.04162873700261116, 0.12405398488044739, -0.18803247809410095, -0.28767040371894836, -0.04631481319665909, -0.04838156700134277, 0.11209425330162048, -0.1840043067932129, -0.07657165825366974, 0.11556427925825119, -0.06947635114192963, -0.045732446014881134, 0.0697934627532959, -0.07128602266311646, 0.12950998544692993, 0.03544605150818825, -0.062478676438331604, 0.024904336780309677, 0.05463432893157005, -0.1241256520152092, -0.07093920558691025, 0.11730669438838959, -0.006800922565162182, -0.11113014817237854, 0.055758628994226456, 0.18603134155273438, -0.14686986804008484, -0.14285871386528015, -0.07478727400302887, -0.09472960233688354, -0.10002029687166214, 0.10933637619018555, 0.03748838230967522, 0.051256295293569565, -0.1986456662416458, -0.0010205339640378952, 0.19387036561965942, -0.22323006391525269, 0.059943314641714096, 0.2453272044658661, -0.03662903234362602, 0.028590206056833267, 0.007775325793772936, -0.11555572599172592, 0.0644703134894371, 0.09386828541755676, 0.03996742516756058, 0.008672887459397316, -0.05637294054031372, 0.21393901109695435, 0.10473575443029404, 0.239008828997612, -0.2096754014492035, -0.17936304211616516, 0.005060501396656036, 0.2844347655773163, 0.014493151567876339, -0.06329049915075302, 0.01587899774312973, -0.1966199278831482, 0.017146533355116844, -0.10402993112802505, 0.03881019726395607, 0.03741258755326271, 0.022798050194978714, 0.337370902299881, -0.09426012635231018, -0.20048774778842926, 0.17216169834136963, -0.15858589112758636, 0.04060960188508034, 0.317190945148468, -0.11558607965707779, 0.29354238510131836, -0.29167428612709045, -0.14503327012062073, -0.12381087988615036, 0.17091700434684753, -0.04220786318182945, 0.17264579236507416, 0.16788485646247864, 0.06375192850828171, -0.14411477744579315, 0.039217155426740646, 0.011096433736383915, -0.23311391472816467, -0.11336760222911835, -0.013795808888971806, -0.037161000072956085, 0.0507737472653389, -0.06471192091703415, -0.1053503230214119, 0.09604295343160629, 0.2058905065059662, 0.11666116118431091, -0.10871231555938721, 0.022937070578336716, 0.08504151552915573, 0.028522467240691185, 0.03450591117143631, -0.1608545035123825, 0.006010732613503933, 0.12026985734701157, 0.2912085950374603, 0.12920069694519043, 0.006569910328835249, 0.1313377171754837, -0.11839094758033752, 0.18959209322929382, 0.020913321524858475, 0.10342273861169815, -0.12083231657743454, -0.1982252597808838, 0.10496725887060165, -0.09378272294998169, -0.03295450657606125, 0.17510835826396942, 0.10933036357164383, -0.0071041155606508255, 0.03385373204946518, 0.006835799664258957, 0.2560420334339142, -0.11467816680669785, 0.06721159815788269, -0.10647212713956833, 0.29033562541007996, 0.11695139855146408, 0.10606815665960312, 0.21074466407299042, 0.09121893346309662, -0.08002270013093948, 0.02886713482439518, 0.10311081260442734, -0.06070753559470177, -0.35344719886779785, 0.0300322063267231, 0.15358611941337585, 0.04509678855538368, 0.06762430816888809, 0.1738511025905609, 0.1415088027715683, -0.009595751762390137, 0.04407260939478874, -0.009115575812757015, 0.055014971643686295, -0.10941369831562042, -0.32233113050460815, 0.14002710580825806, -0.109245665371418, -0.13504986464977264, 0.10698369145393372, 0.24034789204597473, 0.1344188004732132, -0.08450080454349518, 0.18599152565002441, 0.31786996126174927, 0.3324006199836731, 0.031501077115535736, 0.0972486138343811, -0.08178365230560303, -0.034916430711746216, 0.1179744303226471, 0.1346416473388672, 0.0028615931514650583, 0.3569240868091583, -0.011668196879327297, -0.148087278008461, -0.0806722640991211, -0.02029956504702568, -0.11085448414087296, -0.5705937743186951, -0.02947213314473629, 0.047383084893226624, 0.028603101149201393, -0.0921766459941864, -0.04258440434932709, -0.0681525468826294, 0.08163277804851532, 0.016411036252975464, -0.05049914866685867, -0.019491303712129593, -0.029632387682795525, 0.130606010556221, -0.13883118331432343, -0.1010308787226677, -0.11810651421546936, 0.3136730194091797, 0.12926284968852997, -0.19028407335281372, -0.08682894706726074, -0.09687215834856033, -0.11563478410243988, -0.09363938868045807, -0.06905072182416916, -0.030956923961639404, -0.027597740292549133, 0.010437815450131893, 0.37054234743118286, -0.1971932351589203, -0.10464590787887573, -0.15250803530216217, 0.26719629764556885, -0.12752394378185272, 0.09542249143123627, 0.09681776165962219, -0.105345718562603, 0.1598712056875229, 0.1345672756433487, -0.057793259620666504, 0.14666436612606049, -0.16482079029083252, 0.08230804651975632, 0.453677773475647, 0.16228783130645752, 0.025318529456853867, 0.3281567096710205, 0.017417391762137413, 0.022720234468579292, -0.36784136295318604, -0.09003059566020966, 0.07702113687992096, -0.15290939807891846, 0.02293330989778042, -0.1317383050918579, -0.13968832790851593, -0.062258657068014145, -0.13912072777748108, 0.002273015445098281, -0.0651545599102974, -0.1450963169336319, -0.05143753066658974, 0.1452672928571701, -0.15924997627735138, 0.07968565076589584, -0.04145941510796547, 0.1265123039484024, -0.20341399312019348, 0.0022491933777928352, -0.04347437992691994, -0.1872786283493042, 0.003258812241256237, 0.12523460388183594, 0.37295129895210266, -0.10872002691030502, 0.0452355332672596, 0.2546558976173401, 0.03645831346511841, 0.18294061720371246, -0.18850870430469513, -0.01029199454933405, 0.01232425682246685, -0.05743439868092537, 0.12626437842845917, -0.17005230486392975, 0.12264126539230347, 0.06471674889326096, -0.029539380222558975, -0.1400962471961975, 0.13336080312728882, 0.08134528994560242, 0.05569026991724968, -0.06041383370757103, 0.09389111399650574, 0.15776485204696655, 0.13959188759326935, 0.14456172287464142, 0.25156816840171814, 0.4144870936870575, 0.5772919058799744, -0.82371985912323, -0.5934919714927673, -0.01616479456424713, 0.33630838990211487, 0.05813901871442795, 0.18567611277103424, 0.15872250497341156, -0.9545862078666687, 0.3172668218612671, -0.07431242614984512, -0.5616891384124756, 0.26380065083503723, -0.15124958753585815, -0.14016100764274597, -0.419902503490448, 0.23112021386623383, -0.1830231100320816, 0.08144712448120117, 0.13619668781757355, -0.015386278741061687, -0.30771175026893616, -0.049284521490335464, -0.1361902356147766, 0.01975877769291401, 0.08557169139385223, 0.12630292773246765, -0.007014485541731119, 0.31333833932876587, 0.058236222714185715, -0.2884790897369385, -0.029879359528422356, -0.02867175079882145, 0.011123202741146088, -0.08606982976198196, 0.0769401341676712, 0.31388357281684875, -0.08049535751342773, -0.3901459276676178, 0.21107913553714752, -0.12788572907447815, 0.022651415318250656, 0.03529902547597885, 0.15054990351200104, 0.13251852989196777, 0.2738161087036133, -0.06728752702474594, 0.26905640959739685, -0.3377695083618164, -0.12058921903371811, -0.2276824712753296, -0.03665526956319809, -0.05020902305841446, -0.07826784253120422, 0.1393398642539978, 0.0816366970539093, -0.14863882958889008, -0.30879655480384827, -0.0021436840761452913, 0.10382764786481857, -0.15394897758960724, 0.12610697746276855, -0.23279744386672974, 0.28779900074005127, -0.13430653512477875, 0.10852459818124771, 0.14428715407848358, 0.2220066636800766, 0.1005190908908844, 0.12924045324325562, -0.12300951033830643, -0.10578876733779907, 0.01695304363965988, -0.32051703333854675, 0.0783303752541542, 0.05783892422914505, 0.12076831609010696, -0.2621333599090576, 0.11672788113355637, -0.0170424971729517, -0.16738781332969666, 0.1362861692905426, 0.18351468443870544, -0.14354753494262695, 0.07077095657587051, -0.24292676150798798, 0.34147074818611145, 0.39418652653694153, 0.16341760754585266, -0.08972977846860886, -0.2844533622264862, -0.2200813889503479, -0.27942827343940735, -0.11601638793945312, -0.18841253221035004, 0.2165418565273285, 0.1442050337791443, 0.238950714468956, -0.06811138242483139, 0.3672466278076172, 0.015547539107501507, -0.010952218435704708, -0.044029414653778076, 0.23015666007995605, -0.05832132697105408, 0.22018565237522125, 0.06856662034988403, 0.09340604394674301, -0.21094368398189545, 0.16727004945278168, -0.20058274269104004, -0.20062322914600372, 0.0855604037642479, 0.20563215017318726, -0.17018361389636993, -0.23931337893009186, 0.374305784702301, 0.09406930953264236, -0.41269001364707947, -0.011365614831447601, 0.048240579664707184, 0.0875120684504509, 0.12213825434446335, 0.04957946017384529, 0.049733005464076996, 0.030505074188113213, -0.006711549591273069, 0.14651751518249512, -0.15938502550125122, 0.11170320957899094, 0.17979677021503448, 0.11917297542095184, -0.11318425834178925, -0.16422253847122192, -0.19460856914520264, 0.20257866382598877, 0.09222520142793655, -0.08578502386808395, 0.07454638928174973, 0.06428490579128265, 0.1821720451116562, 0.015383942984044552, 0.1559048295021057, -0.020138204097747803, 0.15801449120044708, -0.10421079397201538, 0.2320919781923294, -0.1088145449757576, -0.07015003263950348, -0.5856170058250427, 0.196633443236351, 0.12012965232133865, 0.007787959650158882, -0.37390145659446716, 0.16306248307228088, 0.15070058405399323, -0.17325738072395325, -0.01665475219488144, -0.05529234558343887, 0.29870691895484924, 0.21910573542118073, 0.22606363892555237, -0.23590630292892456, 0.16625934839248657, -0.04201087728142738, 0.1430862545967102, -0.30617383122444153, -0.05211073160171509, 0.03232242166996002, -0.2717213034629822, 0.13604770600795746, -0.13220110535621643, 0.26184070110321045, 0.23392656445503235, -0.23259194195270538, 0.35649925470352173, 0.1576140820980072, -0.4351176917552948, -0.2736258804798126, -0.3477040231227875, -0.26899391412734985, -0.26452961564064026, 0.40122655034065247, -0.017974844202399254, -0.33203813433647156, -0.09521597623825073, -0.12490622699260712, 0.062020741403102875, 0.024774039164185524, 0.036639176309108734, 0.22530968487262726, 0.3064967095851898, 0.014087078161537647, -0.17363442480564117, -0.03786797821521759, -0.3319963812828064, -0.23340804874897003, 0.0953674465417862, -0.326843798160553, 0.06035128980875015, 0.13859541714191437, 0.15572141110897064, -0.04660411551594734, 0.07599318772554398, -0.4640646278858185, -0.043240610510110855, 0.2881048023700714, 0.1695602685213089, 0.2383558601140976, 0.021460892632603645, -0.1382816880941391, -0.15645743906497955, -0.2984570264816284, 0.3858501613140106, 0.22196854650974274, -0.31187868118286133, -0.40503835678100586, 0.07436806708574295, -0.21776309609413147, 0.19139927625656128, 0.38598236441612244, -0.11564214527606964, -0.074469655752182, 0.38268616795539856, 0.024805834516882896, 0.058243609964847565, 0.14507313072681427, 0.4435001611709595, -0.06408827006816864, 0.051606327295303345, 0.16941392421722412, 0.25500836968421936, 0.1069369837641716, -0.4501451551914215, -0.45419150590896606, -0.46841126680374146, 0.056404467672109604, -0.06401984393596649, 0.16726748645305634, -0.08785533159971237, 0.16881197690963745, 0.27124616503715515, -0.35691770911216736, -0.24601764976978302, 0.19233357906341553, 0.0966005027294159, -0.3070376217365265, -0.07395856082439423, -0.2815820872783661, 0.12315065413713455, 0.21399620175361633, 0.13831526041030884, -0.047616489231586456, 0.15380822122097015, -0.03341628238558769, -0.043218232691287994, -0.034869737923145294, -0.029394522309303284, -0.2761189341545105, -0.3731285035610199, 0.24007727205753326, -0.11337699741125107, -0.25905826687812805, 0.2704395353794098, -0.13248947262763977, -0.0471261590719223, 0.09527073055505753, -0.1478235125541687, 0.07754173874855042, 0.12371507287025452, -0.19936023652553558, 0.0009698424837552011, 0.12454012781381607, -0.057011064141988754, 0.09229119122028351, -0.029359951615333557, 0.028230873867869377, 0.032164327800273895, -0.14802676439285278, 0.13753162324428558, 0.15238946676254272, 0.07090835273265839, 0.02453787997364998, -0.18730968236923218, -0.08104323595762253, -0.05948799103498459, -0.2975376844406128, -0.10775288939476013, -0.14123453199863434, 0.05428549647331238, 0.13926076889038086, -0.19392302632331848, 0.31613221764564514, 0.19136358797550201, 0.005701280664652586, 0.11387751251459122, 0.17299693822860718, 0.03984152153134346, 0.058653607964515686, -0.06723298132419586, -0.07769854366779327, -0.039088521152734756, -0.042529117316007614, 0.2319815754890442, 0.04048766940832138, -0.0909794494509697, 0.23116637766361237, 0.06704450398683548, 0.14313183724880219, -0.09296316653490067, 0.030590523034334183, -0.10716437548398972, -0.11996801197528839, 0.12180069833993912, 0.003442153101786971, -0.13407643139362335, 0.005778317805379629, -0.29763293266296387, -0.055433664470911026, 0.07383561879396439, -0.12969720363616943, 0.06962884962558746, -0.08377566188573837, -0.02271157130599022, 0.18895253539085388, 0.15383857488632202, 0.07010246068239212, -0.041267432272434235, 0.17284157872200012, 0.006290175020694733, -0.05404970049858093, -0.3262465000152588, -0.1634492129087448, 0.08964940905570984, -0.1270635575056076, -0.13304373621940613, 0.009395471774041653, -0.03807654604315758, 0.02558165043592453, 0.015355190262198448, -0.1510460078716278, -0.0605669803917408, 0.08800333738327026, 0.06273119896650314, 0.004305901937186718, -0.0745488703250885, 0.10520342737436295, -0.052808020263910294, 0.10277368128299713, 0.07573635876178741, -0.06509117037057877, -0.011191868223249912, 0.1073259636759758, 0.22611281275749207, 0.018826697021722794, -0.34267717599868774, -0.3105742335319519, 0.08357204496860504, -0.32683858275413513, 0.050283029675483704, 0.04050031676888466, -0.1359531432390213, 0.0035940001253038645, -0.0194107498973608, 0.35373204946517944, 0.36430639028549194, 0.17009872198104858, -0.08311568200588226, 0.03665676340460777, 0.015767820179462433, 0.054887525737285614, 0.0425071120262146, -0.13680216670036316, -0.07645462453365326, -0.044214047491550446, -0.05583677068352699, 0.13194940984249115, 0.07536638528108597, 0.08927338570356369, -0.30504533648490906, -0.17034319043159485, -0.12827260792255402, -0.2028823047876358, 0.004421448800712824, -0.10671516507863998, -0.020862510427832603, 0.0041162362322211266, 0.19378621876239777, -0.22966912388801575, -0.2508111596107483, 0.010747799649834633, 0.049441445618867874, -0.1542593389749527, 0.21854069828987122, -0.0550997294485569, -0.1880500763654709, -0.1151188313961029, 0.12262401729822159, 0.1337282806634903, -0.07602714002132416, -0.00783146359026432, -0.03854009881615639, -0.1611008495092392, -0.1607428938150406, 0.05244215577840805, -0.0948675125837326, -0.15681973099708557, -0.2159474790096283, 0.060816455632448196, -0.12892621755599976, -0.20969600975513458, 0.19092325866222382, 0.08515603840351105, 0.3113197386264801, -0.01571068912744522, 0.06520175188779831, -0.06920214742422104, -0.22630570828914642, -0.02294299006462097, -0.01663161627948284, 0.022748330608010292, -0.18417663872241974, -0.07950758934020996, 0.35776203870773315, -0.06074943020939827, -0.07672099769115448, 0.06330813467502594, 0.04280414432287216, -0.01570274494588375, -0.11841525882482529, 0.02730775997042656, 0.012348857708275318, 0.05118153989315033, -0.056444983929395676, 0.10555174201726913, 0.085356205701828, -0.06456571072340012, -0.05540086328983307, 0.27340859174728394, -0.01914958655834198, -0.13924913108348846, 0.043546292930841446, -0.014694343321025372, 0.03312365338206291, -0.05736153945326805, 0.20217061042785645, 0.09792184084653854, 0.06585756689310074, -0.024716615676879883, -0.0996793881058693, 0.2855108380317688, 0.06111777946352959, 0.08494969457387924, -0.13175652921199799, -0.11683637648820877, -0.12541580200195312, 0.03214580938220024, -0.2531752586364746, 0.04080533981323242, 0.17437081038951874, -0.06631013751029968, -0.000838826468680054, -0.1082184761762619, -0.04516245797276497, 0.053126052021980286, -0.1234482005238533, 0.1421375423669815, 0.005800367798656225, -0.14376837015151978, -0.07781700789928436, -0.02748684585094452, -0.1926984190940857, -0.03214395046234131, -0.10605260729789734, 0.3645269274711609, 0.1918124109506607, 0.030168306082487106, 0.17518773674964905, 0.031472042202949524, 0.09348979592323303, 0.021860212087631226, 0.06102806329727173, 0.00013878878962714225, -0.13825014233589172, 0.03397493436932564, 0.07609446346759796, -0.017827017232775688, 0.02410189062356949, 0.12903492152690887, 0.07969741523265839, 0.060519032180309296, -0.04080761596560478, 0.2825518846511841, -0.09691218286752701, -0.06847445666790009, -0.01230312418192625, 0.09890926629304886, 0.039534732699394226, -0.1700422167778015, -0.06813336163759232, -0.07211589813232422, -0.15177462995052338, 0.18006838858127594, 0.12179207056760788, 0.047260552644729614, 0.15217579901218414, 0.1680813580751419, -0.062104713171720505, -0.13906686007976532, 0.1759522706270218, -0.1272047758102417, 0.018224794417619705, -0.010248992592096329, -0.20748241245746613, -0.21217593550682068, 0.14157909154891968, 0.15385381877422333, 0.06037338450551033, 0.17635478079319, -0.05328052118420601, 0.061845920979976654, -0.003998379223048687, -0.26073065400123596, -0.18792566657066345, 0.023124486207962036, 0.09183456748723984, -0.1398625522851944, 0.012509162537753582, -0.16879619657993317, -0.01635718159377575, 0.0275192279368639, 0.06092334911227226, 0.10989263653755188, -0.0007529336726292968, -0.1476430743932724, 0.13924464583396912, 0.09908803552389145, 0.018517710268497467, -0.09479229897260666, -0.06503700464963913, 0.1461242437362671, -0.2719646692276001, -0.2776183485984802, 0.14266221225261688, 0.07533781975507736, 0.015175405889749527, -0.07212366163730621, -0.05588611960411072, -0.11594387143850327, 0.12358774244785309, 0.10630974173545837, -0.012819773517549038, -0.0027963081374764442, 0.031586796045303345, 0.10214406251907349, -0.19725029170513153, 0.01682036742568016, 0.14876052737236023, -0.2106063961982727, 0.004194452427327633, -0.05637674033641815, -0.12450782209634781, -0.0157094057649374, 0.02767467312514782, -0.39159125089645386, 0.04682756960391998, 0.11886537075042725, -0.15652894973754883, 0.10608882457017899, 0.12861016392707825, -0.18808944523334503, -0.14357861876487732, -0.08320308476686478, 0.13635627925395966, -0.14000162482261658, -0.14975488185882568, -0.15526482462882996, -0.06057796627283096, -0.028765182942152023, 0.044215187430381775, -0.1441689431667328, -0.12580141425132751, 0.20992663502693176, -0.08277464658021927, -0.11795084178447723, -0.05618463084101677, 0.10636783391237259, 0.12703920900821686, -0.0868937224149704, 0.15685342252254486, 0.20618224143981934, 0.06867892295122147, 0.04561832174658775, 0.2006111741065979, 0.17654064297676086, -0.1294403225183487, -0.02718822844326496, 0.21725912392139435, -0.1649659425020218, -0.04653146490454674, 0.2257886379957199, -8.894979691831395e-05, 0.05896566063165665, 0.04293592646718025, -0.03844649717211723, 0.16665053367614746, 