{"version": "0.5.1", "metadata": {"date": {"year": 2023, "month": 4, "day": 29, "hour": 22, "minute": 0, "second": 14}, "loudness": -12.08442497253418, "gain": 0.7226395856184188, "name": null, "modeled_by": null, "gear_type": null, "gear_make": null, "gear_model": null, "tone_type": null}, "architecture": "WaveNet", "config": {"layers": [{"input_size": 1, "condition_size": 1, "head_size": 8, "channels": 16, "kernel_size": 3, "dilations": [1, 2, 4, 8, 16, 32, 64, 128, 256, 512], "activation": "Tanh", "gated": false, "head_bias": false}, {"input_size": 16, "condition_size": 1, "head_size": 1, "channels": 8, "kernel_size": 3, "dilations": [1, 2, 4, 8, 16, 32, 64, 128, 256, 512], "activation": "Tanh", "gated": false, "head_bias": true}], "head": null, "head_scale": 0.02}, "weights": [-0.00985974445939064, 0.35697802901268005, -0.7482651472091675, -0.7305464148521423, -0.1951720118522644, -0.03275250643491745, 0.030265672132372856, 0.720613420009613, 0.007034012116491795, 0.1383650004863739, -0.32297125458717346, -0.0965624526143074, -0.8256834745407104, -0.6104692220687866, -0.26690587401390076, -0.015175467357039452, 0.09230612218379974, 0.15666541457176208, -0.11156629025936127, -0.1701810657978058, 0.16656959056854248, 0.041362226009368896, 0.08473073691129684, -0.012423882260918617, 0.059029288589954376, 0.1352701634168625, 0.007841053418815136, -0.048233725130558014, 0.02494477666914463, -0.15708096325397491, 0.026029592379927635, 0.11392979323863983, 0.03984261304140091, -0.13061384856700897, -0.06064882129430771, -0.19936561584472656, -0.06928661465644836, 0.00424366258084774, 0.18297052383422852, -0.015829967334866524, 0.035048842430114746, -0.086581289768219, 0.09756765514612198, -0.24498820304870605, 0.009767381474375725, -0.15986837446689606, 0.2064286768436432, -0.02484646625816822, 0.024869374930858612, 0.08137457817792892, -0.022342659533023834, 0.22062823176383972, 0.17489103972911835, -0.10234899073839188, 0.18162290751934052, 0.035400617867708206, -0.09228525310754776, -0.02479943260550499, 0.015714218840003014, -0.18797016143798828, 0.1488516926765442, 0.02781716361641884, -0.034177515655756, -0.10035734623670578, -0.06263360381126404, -0.21280400454998016, -0.026736272498965263, 0.041397567838430405, -0.009417212568223476, 0.17824967205524445, -0.1375562995672226, 0.03621562942862511, 0.0034805801697075367, 0.09247244149446487, 0.21875308454036713, 0.07452647387981415, 0.008627098053693771, -0.028646809980273247, -0.030007844790816307, -0.13308311998844147, -0.2611269950866699, 0.17838312685489655, 0.08943984657526016, -0.09423653036355972, -0.06817477196455002, 0.0045766145922243595, -0.11331997066736221, -0.013408620841801167, 0.09050627052783966, -0.031385306268930435, -0.020333323627710342, 0.07887628674507141, -0.000830619188491255, 0.09106485545635223, -0.17663757503032684, -0.018542040139436722, 0.004200906492769718, 0.03775743395090103, -0.019370228052139282, -0.13776090741157532, 0.10905242711305618, 0.1889011412858963, -0.11580649018287659, -0.0649561658501625, -0.04778460040688515, -0.05681590735912323, -0.13910217583179474, -0.02862260304391384, -0.06122968718409538, -0.09675679355859756, -0.2642897665500641, 0.049670711159706116, -0.10597770661115646, 0.04211314395070076, 0.1279355138540268, -0.23809757828712463, 0.06270893663167953, -0.05541778355836868, 0.13828197121620178, -0.08143038302659988, 0.1424877643585205, 0.13531936705112457, -0.1850321888923645, 0.15844528377056122, -0.008606935851275921, -0.19039154052734375, 0.05383141711354256, -0.12879987061023712, 0.005699738394469023, -0.21344952285289764, 0.05785141885280609, 0.09666283428668976, -0.1904442012310028, -0.1300194263458252, 0.21678104996681213, -0.10416978597640991, 0.12699075043201447, 0.1152583584189415, 0.020746447145938873, -0.03977290168404579, 0.2282419204711914, 0.016284653916954994, 0.2503829002380371, -0.11612827330827713, -0.03647809475660324, 0.031099457293748856, 0.006943517830222845, 0.06779561936855316, 0.051187559962272644, -0.22540663182735443, -0.04762505367398262, 0.0037814988754689693, -0.14117223024368286, 0.1704561859369278, 0.2029009759426117, -0.24060295522212982, 0.1798332780599594, -0.11699230223894119, -0.041768286377191544, -0.27095815539360046, -0.02886701002717018, 0.005193115212023258, -0.3088751435279846, -0.014326555654406548, -0.08043798804283142, -0.0010392937110736966, -0.17013171315193176, 0.13152213394641876, -0.14366409182548523, -0.1234724149107933, 0.19902285933494568, -0.07761619985103607, 0.011676957830786705, 0.11397711932659149, -0.1548745185136795, 0.10831300914287567, -0.0877714604139328, -0.07748736441135406, 0.026448527351021767, -0.18447035551071167, 0.13921308517456055, 0.07949023693799973, 0.02955835498869419, 0.059103354811668396, 0.04054757207632065, 0.0447336882352829, 0.07921886444091797, 0.09627240151166916, -0.16240398585796356, 0.0931166559457779, 0.013859327882528305, 0.1724969893693924, -0.11720027774572372, -0.09141591936349869, -0.04622829705476761, -0.0675058513879776, -0.19444525241851807, 0.12273985147476196, -0.10230249166488647, -0.11584442853927612, 0.0772232860326767, 0.07285293191671371, -0.2206403911113739, -0.034722261130809784, -0.10420344769954681, 0.05477704852819443, -0.1276196390390396, 0.11466795206069946, 0.006191483233124018, -0.0747152715921402, -0.24004331231117249, 0.11503449082374573, 0.11918861418962479, -0.07219457626342773, -0.12555792927742004, -0.0710337832570076, -0.0504072904586792, -0.1987473964691162, 0.021795839071273804, -0.056247610598802567, -0.1351945996284485, 0.04093080013990402, 0.10085847973823547, 0.07791001349687576, -0.0690624937415123, -0.02004902809858322, -0.09722114354372025, -0.0487736277282238, 0.06016794219613075, 0.10248614102602005, 0.0938124805688858, 0.05923287943005562, -0.0504910945892334, 0.11577195674180984, 0.12455346435308456, 0.0540117472410202, 0.18230190873146057, -0.13434390723705292, -0.18418286740779877, -0.03360067680478096, 0.12321881949901581, -0.03340930864214897, -0.1253816783428192, 0.06805668026208878, -0.04991527646780014, -0.23353199660778046, 0.16358582675457, -0.24179121851921082, -0.0909452885389328, 0.03653266280889511, -0.20081745088100433, -0.07491728663444519, 0.1726156622171402, -0.06422881782054901, -0.13979506492614746, -0.2438850998878479, -0.08102580159902573, 0.04147518426179886, -0.12711741030216217, -0.06598823517560959, 0.013478019274771214, 0.1200333684682846, 0.04485296085476875, 0.008857748471200466, 0.040431275963783264, -0.07267659157514572, -0.13957472145557404, 0.03332522138953209, 0.09940527379512787, -0.05494599789381027, -0.08131321519613266, -0.04315655678510666, -0.10981228947639465, -0.08793642371892929, 0.04358428716659546, 0.07364778965711594, 0.30020955204963684, -0.06622163951396942, 0.08337412029504776, 0.05203280225396156, 0.07799266278743744, 0.010843406431376934, -0.0944138765335083, 0.1349828839302063, 0.12184260040521622, 0.15608195960521698, -0.08112995326519012, -0.050153642892837524, -0.034715913236141205, -0.03992112725973129, -0.1650349348783493, 0.03777465969324112, 0.018809210509061813, -0.10355792939662933, -0.04440179467201233, -0.1134413480758667, 0.0019176275236532092, -0.11644118279218674, 0.03459138795733452, -0.14167369902133942, -0.08251623809337616, 0.071309894323349, -0.1066112220287323, -0.1533060520887375, -0.037998829036951065, -0.1681949943304062, 0.031742729246616364, -0.09313715994358063, 0.09928887337446213, -0.10155227035284042, 0.03504055365920067, -0.08336043357849121, 0.13934235274791718, 0.10830289125442505, -0.00407104566693306, 0.18924541771411896, 0.08407127112150192, -0.05174698308110237, 0.15377666056156158, -0.0560162328183651, 0.06335961818695068, -0.05515256151556969, -0.06056978553533554, -0.027867130935192108, -0.004329600837081671, -0.029203826561570168, 0.14244091510772705, -0.0750211849808693, 0.1769980937242508, 0.020271524786949158, -0.06640588492155075, -0.2878936529159546, 0.1780899465084076, -0.005010249558836222, 0.0503690242767334, -0.0010676251258701086, 0.19753803312778473, 0.2727367877960205, 0.07720548659563065, 0.17662450671195984, 0.12452395260334015, -0.11000461876392365, 0.21060870587825775, 0.24093693494796753, -0.1442791372537613, 0.22380931675434113, 0.22638162970542908, 0.025532465428113937, 0.0025721872225403786, -0.033821940422058105, -0.07707593590021133, -0.06829315423965454, -0.03573928028345108, 0.10129819810390472, 0.08153675496578217, 0.01660607010126114, 0.1429542750120163, 0.17344853281974792, -0.04667115584015846, -0.17211690545082092, -0.1894528865814209, -0.08312712609767914, -0.3212611675262451, 0.022235359996557236, 0.1324644535779953, -0.06554850935935974, 0.02063014730811119, -0.12508757412433624, 0.04688667133450508, 0.026957206428050995, -0.06955586373806, 0.025424495339393616, -0.21368755400180817, -0.1292760968208313, 0.06362960487604141, 0.007346001453697681, 0.1288011372089386, 0.06882815808057785, -0.012268699705600739, 0.06576866656541824, 0.3233412504196167, 0.07110626995563507, 0.12054391950368881, -0.06656645983457565, -0.0352841317653656, 0.16999351978302002, -0.10836035013198853, -0.009615377523005009, 0.006043616682291031, -0.1356728971004486, -0.07510580867528915, 0.02500614896416664, -0.28398019075393677, -0.17094989120960236, -0.05614681914448738, -0.10069384425878525, 0.010708605870604515, -0.04835085943341255, -0.04229268059134483, 0.040726955980062485, 0.0849136933684349, -0.054749682545661926, 0.014697471633553505, 0.10854734480381012, 0.1359715759754181, -0.135957270860672, 0.1633487194776535, 0.01585242711007595, -0.009640163742005825, 0.11366041749715805, -0.17524878680706024, 0.024137426167726517, 0.160302072763443, -0.07830506563186646, -0.052510082721710205, -0.05115262791514397, 0.009083238430321217, -0.08781737089157104, 0.03793533146381378, 0.10896558314561844, -0.1643982082605362, -0.11895353347063065, 0.09924013912677765, 0.022588901221752167, 0.09407787024974823, -0.028529051691293716, -0.0011839560465887189, -0.14834991097450256, 0.004634707700461149, 0.0055978805758059025, -0.08245282620191574, -0.03239424526691437, 0.16893573105335236, 0.014796343632042408, -0.1712275892496109, -0.02834342047572136, 0.061043787747621536, -0.20370341837406158, 0.11607412993907928, -0.09876370429992676, -0.22943124175071716, -0.09192150831222534, 0.004630882292985916, 0.016429966315627098, -0.08659990131855011, 0.15368375182151794, -0.0415794774889946, -0.09187382459640503, 0.036577258259058, -0.11694329231977463, 0.13876911997795105, 0.1432569921016693, -0.00021748340805061162, 0.07577995210886002, -0.16879022121429443, 0.27869340777397156, -0.0018050200305879116, -0.008929765783250332, 0.043719105422496796, -0.050639864057302475, -0.21582701802253723, 0.09956434369087219, 0.02292444556951523, -0.11816871166229248, -0.09417897462844849, 0.08903253078460693, 0.07352936267852783, 0.06683062016963959, 0.04785150662064552, 0.033380068838596344, -0.09377387911081314, 0.15426023304462433, 0.10898228734731674, 0.031949661672115326, 0.09870538860559464, -0.07428614795207977, -0.2648763656616211, 0.07379155606031418, -0.15345951914787292, 0.2201845645904541, -0.1164369136095047, -0.10287006944417953, 0.02869974449276924, 0.08732632547616959, -0.09071008116006851, 0.2695814073085785, 0.07945326715707779, 0.001660468871705234, 0.16104820370674133, -0.05665929242968559, -0.10931070148944855, 0.16925835609436035, 0.05786292627453804, -0.11000170558691025, 0.04255146533250809, 0.08728267252445221, 0.011966138146817684, 0.016936257481575012, 0.16560280323028564, 0.1755755990743637, -0.13004426658153534, 0.18441911041736603, 0.01917942240834236, 0.09271135926246643, 0.04271688684821129, -0.13560311496257782, 0.05545102432370186, -0.023871062323451042, -0.0937095507979393, 0.05988231673836708, -0.12380407750606537, 0.0952061340212822, -0.05415618047118187, 0.03790136054158211, 0.08941077440977097, 0.2137409895658493, 0.08224163204431534, 0.06710586696863174, 0.0749729573726654, 0.06582996249198914, 0.057385753840208054, -0.14637455344200134, -0.06598227471113205, -0.048435259610414505, -0.0744067132472992, 0.030133608728647232, 0.0840839296579361, -0.03682493418455124, -0.07617634534835815, -0.0920337438583374, 0.1466192901134491, 0.06640397757291794, -0.16318875551223755, -0.10712099820375443, -0.19066980481147766, -0.057086627930402756, -0.02821195125579834, -0.1771729290485382, -0.10146795958280563, 0.032535817474126816, -0.15450012683868408, 0.09480606764554977, 0.016211047768592834, 0.09691008925437927, 0.009662832133471966, 0.18274344503879547, -0.09634048491716385, 0.06819627434015274, -0.17434091866016388, 0.14631438255310059, -0.19817858934402466, 0.00025582010857760906, 0.1221679076552391, -0.15960289537906647, 0.16455388069152832, -0.03543700650334358, -0.10047735273838043, 0.09696172177791595, 0.06889763474464417, -0.012846782803535461, -0.24475370347499847, -0.07972612231969833, -0.0799328088760376, 0.04540649428963661, -0.02254984714090824, 0.20267042517662048, -0.16774024069309235, -0.0014938755193725228, 0.06214498355984688, 0.017259914427995682, 0.17469410598278046, 0.15359900891780853, -0.1617521494626999, -0.0852709412574768, -0.0705634355545044, 0.2505684196949005, -0.07344724237918854, -0.17677225172519684, 0.17735475301742554, 0.1415456086397171, -0.10652133822441101, 0.017765559256076813, -0.152702197432518, -0.032171256840229034, 0.12352348864078522, -0.09749936312437057, -0.03716403618454933, 0.1832406371831894, 0.09188301116228104, 0.09290898591279984, -0.022852405905723572, 0.02134745754301548, -0.11559168249368668, 0.15738458931446075, 0.20619268715381622, -0.058547042310237885, -0.22947415709495544, 0.170342817902565, 0.23692622780799866, 0.21977990865707397, -0.1832241415977478, 0.042601440101861954, -0.004342827945947647, 0.07664451748132706, 0.03634919971227646, 0.03595907241106033, 0.02774868905544281, -0.11814653128385544, -0.1441749483346939, 0.05432933568954468, -0.04096509516239166, -0.09118513017892838, 0.055797137320041656, -0.16227415204048157, -0.04051985964179039, 0.18456806242465973, 0.1394183337688446, 0.05166250839829445, 0.08803540468215942, -0.09738075733184814, -0.18536575138568878, 0.16784152388572693, 0.13119150698184967, -0.06654961407184601, -0.11561789363622665, 0.019566910341382027, 0.2111218124628067, -0.08713398873806, -0.0322682186961174, 0.08479978144168854, 0.03220106288790703, 0.13355609774589539, 0.13785302639007568, -0.0472550205886364, 0.15070733428001404, 0.055387403815984726, -0.11260371655225754, -0.1554628610610962, -0.13263729214668274, 0.16381341218948364, -0.0675673559308052, 0.13724422454833984, 0.021602846682071686, 0.04097498580813408, -0.20051206648349762, 0.17944422364234924, -0.117020383477211, 0.2407485544681549, -0.17937356233596802, -0.07603282481431961, 0.19969120621681213, -0.12705235183238983, 0.07632339000701904, 0.015677435323596, -0.18554529547691345, -0.06428048014640808, -0.01747124083340168, 0.22321665287017822, -0.13513965904712677, -0.02174299582839012, 0.05539942905306816, 0.006700253114104271, -0.014080587774515152, -0.0442793108522892, 0.005147574003785849, 0.0556611567735672, 0.021701307967305183, 0.1557784080505371, -0.14793163537979126, 0.16507834196090698, -0.16889698803424835, 0.08893068879842758, -0.09860752522945404, 0.02928057126700878, 0.14720822870731354, 0.056597717106342316, -0.059598397463560104, 0.11619886755943298, 0.033502258360385895, -0.0800032988190651, 0.24521209299564362, -0.1650925725698471, -0.055749040096998215, 0.10323642939329147, -0.0004634787328541279, 0.07550055533647537, 0.007956048473715782, 0.05280247703194618, 0.0006284287665039301, -0.11389704793691635, -0.1466033160686493, -0.039783794432878494, 0.15759657323360443, 0.0592181459069252, -0.029628397896885872, -0.19776183366775513, 0.20046082139015198, -0.14274068176746368, -0.03138431906700134, 0.12196779251098633, -0.09830977022647858, -0.016276778653264046, -0.037528228014707565, -0.005078715272247791, -0.05665729567408562, -0.1001446396112442, 0.05992002412676811, 0.14334967732429504, -0.01656455732882023, 0.13144460320472717, 0.044762030243873596, -0.16789396107196808, -0.11307737976312637, -0.12947167456150055, 0.17533719539642334, 0.004629365634173155, 0.08234109729528427, -0.03442107513546944, 0.054058995097875595, 0.07288237661123276, 0.22307105362415314, -0.15228398144245148, -0.06285874545574188, 0.012129823677241802, -0.12124211341142654, -0.03101576305925846, 0.2339937835931778, -0.15154746174812317, 0.024660935625433922, 0.025831937789916992, -0.06550773233175278, 0.05170973390340805, 0.060731176286935806, -0.036646824330091476, -0.19132457673549652, -0.08607389777898788, -0.05548097938299179, -0.14813710749149323, 0.14449338614940643, -0.23184458911418915, -0.34959062933921814, 0.0805034413933754, 0.2366735190153122, 0.19937430322170258, -0.029625730589032173, 0.24031054973602295, 0.33951255679130554, -0.1731254905462265, 0.09690412878990173, 0.19490626454353333, -0.20421694219112396, -0.08357640355825424, -0.06099039688706398, 0.24512457847595215, 0.00361219746991992, 0.13902881741523743, -0.04995592311024666, -0.009105183184146881, -0.30022701621055603, -0.0023920293897390366, 0.0719170942902565, 0.1121436357498169, -0.14981621503829956, 0.009952769614756107, -0.19015687704086304, -0.03294439986348152, 0.09284860640764236, 0.35101258754730225, -0.2224469631910324, 0.10013207048177719, 0.2676299512386322, -0.2150842398405075, 0.1969934105873108, 0.3170910179615021, -0.0066432165913283825, 0.023420576006174088, 0.3837895691394806, -0.1843176782131195, 0.2584317922592163, 0.09236413985490799, -0.22249020636081696, -0.023883743211627007, -0.12695321440696716, 0.1564045399427414, -0.13058389723300934, -0.08897469192743301, -0.05772814899682999, -0.0077428072690963745, 0.04212980344891548, 0.14104607701301575, -0.05392713472247124, 0.06305950880050659, 0.05803941562771797, 0.15436720848083496, -0.054776184260845184, 0.11950144916772842, -0.08218656480312347, -0.0416683554649353, -0.04259407892823219, -0.06276333332061768, 0.3642871081829071, -0.3818912208080292, 0.7139424085617065, -0.6853278875350952, -0.05057678371667862, 0.9163703918457031, 0.9014920592308044, -0.4824698269367218, 0.13534563779830933, 0.1251317858695984, -0.3868984580039978, -0.3264727294445038, 0.3227613866329193, -0.6348882913589478, 0.07079103589057922, 0.5224629640579224, -0.1442214846611023, 0.1432160884141922, -0.1321742832660675, 0.24168269336223602, 0.34814319014549255, -0.08154885470867157, -0.05371794477105141, -0.03736940026283264, -0.12844499945640564, 0.04850894212722778, 0.2085641473531723, 0.051792655140161514, -0.0768251046538353, 0.11633208394050598, 0.19398528337478638, -0.1633482128381729, 0.011080458760261536, -0.09950831532478333, -0.22360669076442719, 0.10044330358505249, -0.05613714084029198, -0.10098272562026978, -0.1389743685722351, 0.041816435754299164, -0.028173903003335, 0.14170190691947937, -0.03650042787194252, 0.08445268869400024, 0.11863980442285538, -0.07686327397823334, 0.1272585541009903, 0.42503342032432556, 0.11785715818405151, -0.0018511834787204862, 0.21741820871829987, 0.029378008097410202, -0.03083984926342964, -0.041113995015621185, 0.20090961456298828, 0.006821193732321262, 0.1409924179315567, -0.2941584587097168, 0.13713516294956207, -0.4198751449584961, 0.06311789155006409, 0.044501908123493195, 0.2595411539077759, -0.07935640215873718, 0.24742168188095093, -0.10805416852235794, 0.055246978998184204, -0.3211590349674225, -0.12624399363994598, 0.035302139818668365, 0.14155474305152893, 0.04244405776262283, -0.04295896738767624, -0.07057580351829529, -0.2131255567073822, -0.09150570631027222, 0.1393386423587799, 0.06189236789941788, -0.12172769755125046, -0.0035558254458010197, -0.18185488879680634, -0.2001304179430008, -0.23857161402702332, 0.14658722281455994, 0.169004425406456, 0.13483105599880219, 0.08853204548358917, -0.027470024302601814, 0.0686175599694252, 0.1946413666009903, -0.14644290506839752, 0.23940107226371765, -0.04164508357644081, 0.18361058831214905, -0.06286637485027313, 0.04637228697538376, -0.22545954585075378, -0.07430808246135712, 0.024987636134028435, 0.10528600215911865, 0.23825673758983612, 0.20219731330871582, 0.19725731015205383, 0.03689581900835037, 0.12274698168039322, -0.004939381964504719, -0.28469961881637573, -0.0663406103849411, -0.07194134593009949, -0.0869671031832695, 0.02024940215051174, -0.023952148854732513, -0.01531609520316124, 0.1279674768447876, 0.25862810015678406, 0.07801872491836548, -0.25458836555480957, -0.29602235555648804, 0.09094459563493729, 0.17352214455604553, 0.12711390852928162, -0.4100147783756256, -0.19109372794628143, 0.11556132137775421, 0.10796940326690674, -0.23497384786605835, 0.0949012041091919, -0.380837619304657, 0.21023260056972504, 0.05441302806138992, 0.31575584411621094, -0.21651148796081543, -0.19465871155261993, 0.15378431975841522, 0.24720917642116547, 0.15545086562633514, 0.15831734240055084, -0.30482470989227295, 0.18369412422180176, -0.2842188775539398, 0.05569709464907646, -0.1540692150592804, -0.14614659547805786, -0.07701319456100464, -0.052949484437704086, -0.05062951520085335, -0.03609984368085861, -0.2681433856487274, 0.0702441930770874, -0.16490842401981354, -0.0941099002957344, 0.0379980094730854, -0.0655720978975296, -0.24390186369419098, 0.10745088756084442, -0.0029382798820734024, -0.030456652864813805, -0.2599893808364868, 0.2795754075050354, 0.12226713448762894, -0.22918474674224854, 0.05548824369907379, 0.1600508838891983, -0.17074255645275116, -0.3293059468269348, 0.026676464825868607, 0.059742145240306854, -0.1968746930360794, -0.019364604726433754, 0.3008330762386322, 0.08555470407009125, 0.05530201643705368, 0.28520774841308594, 0.19088846445083618, -0.1979779601097107, 0.2604953348636627, 0.12829037010669708, 0.22618649899959564, -0.27965936064720154, 0.15645205974578857, -0.13223673403263092, -0.24855512380599976, -0.04567403718829155, -0.0941905528306961, -0.001401176443323493, -0.15782810747623444, -0.10407818853855133, 0.0006835814565420151, -0.07534904032945633, 0.1469898521900177, 0.0718153640627861, 0.3720495104789734, -0.06558265537023544, 0.014744807966053486, 0.10771398991346359, -0.0374075323343277, -0.04677407816052437, -0.2116892784833908, -0.05948466807603836, 0.031663309782743454, 0.007958756759762764, -0.2399982213973999, 0.04503050073981285, -0.17406897246837616, -0.17605270445346832, 0.11725834757089615, -0.20271018147468567, -0.24833980202674866, 0.1039448231458664, -0.157375305891037, 0.24411235749721527, -0.1848268359899521, 0.14425261318683624, -0.02762521617114544, 0.17450356483459473, 0.18516966700553894, 0.3118111789226532, -0.09037460386753082, -0.060884419828653336, -0.03530671447515488, 0.19436103105545044, -0.3361107409000397, -0.0505765825510025, 0.090546153485775, 0.05567867308855057, -0.14977335929870605, -0.0558042898774147, 0.028015047311782837, -0.18340741097927094, 0.19306984543800354, 0.21906572580337524, 0.0852029025554657, 0.01519896648824215, -0.1888296753168106, 0.033927470445632935, -0.015726132318377495, -0.10846671462059021, -0.13504689931869507, -0.11099540442228317, 0.3192690312862396, -0.11454155296087265, 0.20393215119838715, 0.01887882500886917, -0.22829174995422363, 0.06794014573097229, 0.060736075043678284, 0.22184820473194122, 0.17725920677185059, -0.14855998754501343, 0.09532748907804489, -0.07155592739582062, -0.2029949277639389, 0.21179331839084625, 0.11515272408723831, -0.2255544811487198, 0.06080552563071251, 0.30498483777046204, -0.040001872926950455, 0.33174261450767517, -0.12520581483840942, -0.017572948709130287, 0.24345506727695465, 0.254716694355011, 0.22539319097995758, -0.013987536542117596, -0.24896617233753204, -0.22020688652992249, -0.30614086985588074, 0.019800245761871338, 0.10785497725009918, 0.042112141847610474, -0.2437981367111206, 0.16822049021720886, -0.03821633756160736, 0.15928728878498077, -0.13153164088726044, -0.1296580731868744, 0.01689237169921398, 0.07833416014909744, -0.04394492506980896, 0.06278777867555618, -0.08684329688549042, 0.08814370632171631, 0.050045836716890335, 0.017389776185154915, 0.1264447271823883, 0.06903238594532013, -0.0426928848028183, 0.24770872294902802, -0.06770078092813492, -0.05712796002626419, -0.03455615043640137, 0.038089461624622345, 0.09648706018924713, -0.28079965710639954, -0.1496252566576004, 0.19601792097091675, -0.303191602230072, -0.06414654105901718, 0.10985486954450607, -0.18792089819908142, -0.24856223165988922, 0.1503094583749771, 0.32902294397354126, 0.020265337079763412, -0.023864468559622765, -0.10589599609375, -0.13566173613071442, 0.2702198624610901, 0.20133958756923676, 0.08143903315067291, -0.2708394229412079, -0.14637938141822815, 0.10763119161128998, -0.023804988712072372, -0.28194987773895264, 0.21449755132198334, -0.1093674972653389, -0.3428782820701599, -0.1531801074743271, 0.09718210250139236, -0.0928381159901619, -0.28029799461364746, 0.24997076392173767, -0.2795771360397339, -0.2697872519493103, 0.4506946802139282, -0.2728022336959839, 0.00379595416598022, 0.007304499391466379, -0.36905407905578613, -0.003379833186045289, 0.12491285800933838, 0.31423497200012207, 0.029971009120345116, -0.18087735772132874, 0.002093069488182664, -0.08628580719232559, 0.19923755526542664, -0.26824939250946045, 0.1517188549041748, 0.018521005287766457, -0.13218167424201965, 0.05694228410720825, 0.09025809913873672, -0.2523025870323181, 0.1965879648923874, -0.1194850504398346, -0.06084063649177551, -0.02783931978046894, 0.01119915395975113, -0.04436393082141876, -0.33427971601486206, -0.02879367023706436, 0.23479944467544556, -0.1022842675447464, 0.030742378905415535, 0.21304775774478912, -0.26802656054496765, 0.09843524545431137, -0.0589323528110981, -0.07561711221933365, -0.022269774228334427, 0.021743856370449066, 0.13671208918094635, -0.07845937460660934, -0.07384408265352249, 0.26392045617103577, -0.04909355193376541, -0.14353512227535248, 0.05965249985456467, 0.22142009437084198, -0.1733691692352295, 0.04856295511126518, 0.05830938741564751, -0.12610048055648804, 0.19804412126541138, -0.04000770300626755, -0.12305127829313278, 0.06196155399084091, -0.044712066650390625, 0.06230666860938072, -0.10473476350307465, -0.10465249419212341, -0.07856949418783188, -0.09551475197076797, 0.35212719440460205, 0.41558030247688293, 0.05588923767209053, -0.2768388092517853, -0.01851014234125614, 0.1689043641090393, -0.16515539586544037, 0.2911907434463501, 0.0636727586388588, -0.2433842569589615, 0.36300402879714966, 0.009797309525310993, 0.05521435663104057, -0.37088075280189514, 0.004722490906715393, 0.259667307138443, -0.34332746267318726, -0.09315630793571472, -0.3868374526500702, -0.40846899151802063, -0.1638580858707428, 0.2815846800804138, 0.014882446266710758, 0.04824654757976532, -0.21809358894824982, 0.2787253260612488, 0.007697068154811859, -0.27862268686294556, 0.20571866631507874, -0.0538768470287323, -0.08643297106027603, -0.046992868185043335, -0.004223949275910854, -0.020379573106765747, -0.21406397223472595, 0.11625487357378006, -0.26645228266716003, 0.21171146631240845, 0.058233629912137985, -0.07375649362802505, 0.17663128674030304, 0.07799096405506134, -0.1103058010339737, -0.5214781165122986, 0.06356918811798096, 0.28807690739631653, -0.3043862283229828, -0.18962471187114716, -0.15163344144821167, 0.10307077318429947, -0.10313756763935089, 0.09760576486587524, 0.14077426493167877, -0.22676114737987518, -0.18833892047405243, 0.24942991137504578, -0.002658145036548376, -0.09507594257593155, 0.15065138041973114, -0.22032779455184937, 0.01608164981007576, -0.23420625925064087, 0.2746463716030121, -0.010462626814842224, -0.11886033415794373, 0.2431136965751648, 0.04740283265709877, -0.2577045261859894, 0.2930418848991394, 0.08493738621473312, 0.009782902896404266, -0.02612057887017727, 0.12054186314344406, 0.3206463158130646, -0.2635359764099121, -0.03133227676153183, 0.2830411195755005, -0.33491265773773193, -0.0014322049682959914, -0.11593320220708847, -0.025520287454128265, 0.06711283326148987, 0.029316596686840057, 0.038941383361816406, -0.20427899062633514, 0.22158938646316528, -0.30624204874038696, -0.14817410707473755, 0.0812131017446518, -0.18259559571743011, 0.06261981278657913, -0.09600701183080673, 0.3427988886833191, 0.13291780650615692, -0.19355355203151703, 0.053924303501844406, -0.04131234809756279, 0.14804509282112122, -0.16159988939762115, 0.014500548131763935, 0.05210632458329201, 0.11240873485803604, 0.04549730196595192, -0.008623294532299042, -0.023835476487874985, 0.11994777619838715, 0.05609465762972832, -0.09884810447692871, 0.020730338990688324, -0.20493173599243164, 0.20071470737457275, -0.13296090066432953, 0.03230803832411766, 0.04397288337349892, -0.021439166739583015, -0.06328443437814713, 0.22349217534065247, 0.016153637319803238, 0.026848608627915382, 0.1173764318227768, -0.02203945256769657, 0.004339392762631178, -0.35954800248146057, -0.027272000908851624, 0.2343500852584839, -0.2157157063484192, 0.06630676239728928, -0.1585533171892166, 0.1226770281791687, 0.05433133244514465, -0.07046785205602646, -0.037242308259010315, 0.04691954702138901, 0.1566687822341919, -0.11187641322612762, 0.09157290309667587, 0.0681135281920433, -0.19469083845615387, -0.04113316908478737, 0.0030981781892478466, 0.1728106290102005, -0.15476006269454956, 0.12776769697666168, -0.11414588987827301, -0.038557689636945724, -0.17554724216461182, 0.28489744663238525, 0.042248744517564774, -0.28767961263656616, -0.038064345717430115, -0.03546392545104027, -0.15512241423130035, 0.09773194044828415, 0.003331338055431843, -0.18497060239315033, 0.026130562648177147, -0.17519454658031464, 0.22848224639892578, -0.1262325942516327, 0.04709266871213913, -0.034163281321525574, -0.1980636864900589, -0.04935052618384361, 0.2125834971666336, -0.1265920251607895, 0.2541438341140747, 0.0618850439786911, 0.05299593508243561, 0.015335313975811005, 0.06808821111917496, 0.15608035027980804, 0.05871204659342766, -0.06603215634822845, 0.14396128058433533, 0.012890790589153767, -0.03171307593584061, -0.0770518034696579, -0.08578368276357651, -0.2275976538658142, 0.046766024082899094, 0.10612740367650986, -0.21209381520748138, -0.09407056868076324, 0.03304620832204819, -0.18985292315483093, 0.1484469771385193, -0.19059139490127563, 0.08229102939367294, -0.09393879026174545, 0.12910102307796478, 0.044851306825876236, -0.13684198260307312, 0.19127878546714783, -0.08371973037719727, 0.3622127175331116, -0.21397057175636292, -0.028956802561879158, -0.04531057924032211, -0.0340091697871685, 0.07323770225048065, 0.16557542979717255, -0.10973471403121948, -0.12815307080745697, 0.13720205426216125, -0.06128855422139168, 0.1823449432849884, -0.09345445781946182, 0.2265137881040573, 0.19580914080142975, -0.18734346330165863, 0.0029205179307609797, -0.03680209815502167, -0.07007696479558945, 0.1200132966041565, 0.2667531371116638, 0.031165555119514465, 0.01079519186168909, -0.018795901909470558, 0.23867249488830566, -0.06806664168834686, 0.03545665368437767, 0.1585225760936737, -0.10242366790771484, 0.025888582691550255, -0.013669312000274658, 0.005614663008600473, 0.14397554099559784, 0.12786699831485748, -0.007195739075541496, -0.10654470324516296, 0.2058095932006836, -0.3006135821342468, -0.14155195653438568, 0.111135333776474, -0.2189079374074936, -0.03257772698998451, -0.24330545961856842, 0.10090982168912888, 0.025911634787917137, -0.04249996319413185, -0.24316202104091644, 0.23451288044452667, 0.0737905353307724, 0.08471107482910156, -0.5084918141365051, -0.18566660583019257, 0.12182137370109558, -0.1574404090642929, -0.19660018384456635, 0.006420294288545847, 0.11433234065771103, -0.3063889741897583, -0.11316364258527756, 0.15946844220161438, 0.05422086641192436, -0.13545748591423035, -0.3030227720737457, -0.28085505962371826, -0.09489479660987854, 0.0035028369165956974, 0.11695161461830139, -0.10818089544773102, -0.11946753412485123, -0.180101215839386, 0.29655176401138306, 0.10879029333591461, 0.33009207248687744, 0.15605996549129486, 0.039335377514362335, -0.29093432426452637, 0.09625176340341568, -0.0966159775853157, -0.2534674406051636, -0.06896214187145233, -0.490530401468277, -0.23347559571266174, -0.03174861893057823, -0.2280988097190857, -0.15068916976451874, -0.03143921494483948, -0.06460639834403992, 0.00936463475227356, 0.2627670168876648, -0.16115884482860565, 0.08895132690668106, -0.1366897076368332, 0.33335039019584656, -0.05274959281086922, -0.12091932445764542, -0.42753925919532776, 0.21031668782234192, -0.1023164764046669, 0.26650187373161316, -0.2413690984249115, 0.28031694889068604, 0.14143092930316925, 0.0932346060872078, 0.03161801025271416, 0.2459159642457962, 0.16145390272140503, 0.13651937246322632, -0.019648762419819832, -0.09996131807565689, -0.12022355198860168, 0.4267745316028595, -0.5859673023223877, 0.23576216399669647, -0.11516544222831726, -0.16457326710224152, -0.011625725775957108, -0.24517792463302612, -0.4107573926448822, -0.13113458454608917, -0.30772584676742554, 0.430936336517334, -0.15674114227294922, -0.06112530827522278, 0.09909337013959885, 0.006202444899827242, 0.4740924835205078, -0.7533680200576782, 0.5054361820220947, 0.5220552086830139, -0.2804359197616577, 0.2137613743543625, -0.10175906121730804, 0.029877914115786552, -0.08581621199846268, -0.192496657371521, -0.029550373554229736, 0.02278064377605915, 0.207527294754982, -0.2197238802909851, -0.11046253144741058, 0.2179594784975052, 0.05411170423030853, 0.12367364764213562, -0.15857626497745514, 0.24597933888435364, -0.05229983851313591, -0.25429484248161316, 0.03988746181130409, -0.17219853401184082, -0.16156774759292603, 0.24456049501895905, -0.17176786065101624, 0.03471725806593895, 0.02786288969218731, -0.2913907468318939, -0.020524775609374046, -0.18867802619934082, 0.20744776725769043, -0.009345713071525097, -0.09790834039449692, 0.1028834879398346, -0.06268341094255447, -0.10517238080501556, 0.35038667917251587, 0.2052842378616333, 0.24911664426326752, 0.20144392549991608, -0.21245498955249786, 0.05046059936285019, 0.013771194964647293, -0.14277875423431396, 0.22418490052223206, -0.05540918558835983, -0.07118843495845795, -0.021587463095784187, -0.03899277374148369, -0.3067443072795868, -0.09318583458662033, -0.17994505167007446, -0.22352387011051178, 0.1485002338886261, -0.13460172712802887, -0.12600262463092804, -0.05249199643731117, -0.10106250643730164, -0.016833290457725525, -0.19477689266204834, 0.09842991083860397, -0.2957373559474945, 0.05677817761898041, -0.22553466260433197, -0.026604628190398216, -0.1147596687078476, -0.02502940595149994, 0.26648104190826416, -0.059793680906295776, 0.06218113750219345, 0.01938742585480213, -0.097940593957901, 0.039367176592350006, 0.08936146646738052, -0.032888684421777725, -0.0019418435404077172, -0.006046847440302372, 0.1751851886510849, 0.0011248012306168675, 0.11872970312833786, 0.1305362433195114, 0.009131446480751038, -0.07595709711313248, 0.20615167915821075, 0.029268302023410797, -0.002426000079140067, -0.1920260637998581, -0.1591608077287674, 0.048055339604616165, -0.3311261236667633, -0.03758517652750015, 0.16713270545005798, -0.19922809302806854, -0.08656304329633713, 0.2594935894012451, -0.03955387324094772, -0.28875333070755005, 0.34186941385269165, 0.026771828532218933, -0.12876078486442566, 0.16420213878154755, -0.14092227816581726, 0.04273930937051773, 0.15640786290168762, -0.013585137203335762, -0.019077539443969727, -0.03364628925919533, 0.005867599043995142, 0.0029983429703861475, -0.08113876730203629, 0.04767892137169838, 0.038113243877887726, -0.11930829286575317, -0.06635349988937378, -0.32821691036224365, -0.018343549221754074, 0.4231044352054596, 0.23182980716228485, 0.020576821640133858, 0.1794995218515396, 0.0022476257290691137, -0.18264879286289215, 0.18702679872512817, -0.14330701529979706, 0.04224725067615509, 0.0369357131421566, 0.09851916134357452, -0.029278619214892387, -0.061491258442401886, 0.14231860637664795, 0.22671310603618622, -0.055542394518852234, 0.10543506592512131, 0.2872023284435272, -0.13064445555210114, 0.08206745237112045, -0.1609676480293274, 0.03289831802248955, -0.08285394310951233, -0.12880060076713562, 0.18000996112823486, -0.1570865362882614, -0.2738485634326935, 0.2969525456428528, 0.11863382160663605, 0.06799682229757309, 0.05175985395908356, 0.1998807042837143, 0.10594639182090759, 0.12838292121887207, -0.0813538208603859, 0.14475952088832855, 0.08940083533525467, -0.16432535648345947, 0.011506745591759682, -0.07553071528673172, 0.20709103345870972, -0.10950148850679398, 0.06584060192108154, -0.03117353841662407, 0.13553637266159058, -0.13270248472690582, -0.08231457322835922, 0.03999923914670944, 0.3831477761268616, -0.02909613773226738, -0.05177190154790878, 0.05611492320895195, -0.085650235414505, 0.18035389482975006, -0.013663040474057198, -0.10065466165542603, -0.09899117797613144, -0.11323432624340057, 0.14582765102386475, -0.248801589012146, 0.37897300720214844, -0.011094649322330952, -0.14948458969593048, -0.13263456523418427, 0.09030906856060028, -0.008239402435719967, 0.35626453161239624, 0.20715568959712982, -0.010733583942055702, -0.18634380400180817, -0.22081249952316284, 0.13300050795078278, 0.15010732412338257, 0.002316080266609788, -0.024501675739884377, 0.3072127103805542, 0.0742880329489708, -0.26043182611465454, 0.2415393590927124, 0.06018500030040741, -0.026843950152397156, -0.004605142865329981, -0.10547183454036713, 0.13117167353630066, -0.10378779470920563, -0.059514120221138, -0.0360097698867321, 0.13880524039268494, 0.04993833974003792, -0.07385220378637314, -0.18924708664417267, 0.2112644463777542, 0.016499673947691917, 0.17343300580978394, -0.09169068187475204, 0.05779881775379181, -0.17968857288360596, -0.041490282863378525, -0.03178294748067856, -0.006577812135219574, -0.08640051633119583, 0.038199618458747864, -0.0053552258759737015, 0.13087551295757294, -0.13379298150539398, 0.0384274497628212, -0.001791083486750722, -0.030375784263014793, 0.12650364637374878, 0.08981180191040039, 0.043547265231609344, 0.10307879745960236, 0.07231515645980835, -0.10553470253944397, -0.2755599319934845, -0.03086528740823269, 0.0823221504688263, 0.022967765107750893, -0.054522838443517685, 0.0412663109600544, 0.005122421309351921, -0.17502999305725098, -0.0273848008364439, -0.00019225964206270874, 0.04312029480934143, -0.1271326094865799, -0.17433127760887146, -0.17540068924427032, 0.113225057721138, 0.09099441021680832, -0.23136989772319794, 0.0007526191184297204, -0.12410906702280045, -0.353672593832016, -0.11881007254123688, -0.10624892264604568, 0.16361874341964722, -0.13964538276195526, -0.07446155697107315, 0.09827111661434174, -0.107782743871212, 0.29791104793548584, -0.1895289272069931, -0.14842186868190765, 0.2047347128391266, -0.05605979263782501, -0.17585419118404388, 0.10218507796525955, -0.07642178237438202, -0.17056117951869965, 0.22102463245391846, -0.036788586527109146, 0.18691015243530273, -0.2876759171485901, 0.018790217116475105, -0.0597805455327034, 0.02921946346759796, 0.08866360783576965, 0.10187460482120514, -0.2601521611213684, 0.01724128983914852, 0.12221015244722366, -0.052181415259838104, -0.05038941651582718, -0.103213369846344, -0.022965941578149796, 0.018581274896860123, -0.06866826117038727, 0.3806992769241333, 0.009386934340000153, -0.14868992567062378, 0.10408682376146317, -0.004142325837165117, -0.08803018927574158, 0.10389123111963272, 0.014822491444647312, -0.14166373014450073, 0.1605294942855835, -0.11042450368404388, -0.13759414851665497, 0.1411852389574051, -0.26606687903404236, 0.16565774381160736, -0.3226838707923889, 0.10139438509941101, -0.042567186057567596, -0.02468930557370186, 0.02400794066488743, -0.025555839762091637, 0.25083276629447937, -0.09330485016107559, -0.01359983067959547, 0.09069918841123581, -0.04260654002428055, 0.00913972221314907, 0.243229940533638, -0.18161438405513763, -0.02727952040731907, 0.07512306421995163, -0.08499495685100555, -0.023874515667557716, -0.29203006625175476, 0.10301750153303146, 0.005214050877839327, 0.02270127274096012, -0.13719229400157928, 0.08142054080963135, -0.2580738961696625, 0.05059274658560753, -0.3467344045639038, -0.17178921401500702, -0.2188475877046585, -0.13707929849624634, 0.3132912516593933, 0.052349064499139786, -0.0303095281124115, 0.3047182559967041, -0.25185123085975647, -0.08411651104688644, -0.0790296122431755, 0.046323731541633606, -0.0865277498960495, -0.06576582044363022, 0.017594102770090103, -0.06122945249080658, 0.21226269006729126, -0.2645234167575836, 0.024702876806259155, 0.00876088347285986, -0.18101508915424347, 0.049084439873695374, -0.02729073539376259, 0.31144222617149353, 0.13123270869255066, 0.031026320531964302, -0.020802194252610207, -0.001783543499186635, -0.049008239060640335, 0.11122870445251465, 0.05628545954823494, 0.1439843475818634, -0.1356198489665985, -0.06366682052612305, 0.04773520678281784, 0.12922947108745575, 0.1618269979953766, 0.028199097141623497, 0.05825119838118553, -0.20241349935531616, -0.5105070471763611, 0.33452603220939636, 0.47137826681137085, -0.551523745059967, 0.03484274074435234, -0.6564407348632812, -0.16744981706142426, -0.4541337788105011, 0.7399168610572815, -0.7088898420333862, -0.6196371912956238, -0.9692455530166626, 0.21753017604351044, -0.6821703314781189, 0.3725954294204712, -0.5463262796401978, -0.2666983902454376, -0.07817119359970093, -0.011629890650510788, 0.6090555787086487, 0.26607295870780945, -0.1702435314655304, -0.2614190876483917, -0.07385357469320297, -0.05019450932741165, -0.13468672335147858, 0.1969725638628006, 0.09811602532863617, 0.07105513662099838, 0.12679973244667053, -0.23584453761577606, -0.0872092917561531, -0.07175302505493164, -0.18163755536079407, 0.11402533203363419, -0.16046550869941711, -0.23239080607891083, 0.1258198320865631, 0.022417942062020302, -0.1893768161535263, -0.07197017967700958, -0.19830217957496643, 0.19529321789741516, 0.2565366327762604, 0.09056969732046127, 0.04198813810944557, 0.13240060210227966, 0.30517739057540894, 0.0076843975111842155, -0.29193443059921265, -0.05668100342154503, 0.10633876919746399, -0.014634461142122746, 0.21250443160533905, 0.204332634806633, 0.22881394624710083, -0.055256109684705734, 0.10028397291898727, -0.3120000660419464, -0.328488826751709, -0.03796664625406265, 0.3323695659637451, 0.0008843076648190618, -0.027834950014948845, 0.21316631138324738, 0.1343536227941513, -0.1558198779821396, -0.46697574853897095, -0.11799614876508713, 0.12863631546497345, -0.19021405279636383, -0.0112290158867836, -0.1578519344329834, 0.09039893746376038, 0.12838006019592285, 0.2949638366699219, 0.1620735228061676, -0.22855889797210693, 0.1549832671880722, 0.05572580173611641, 0.5676148533821106, -0.0489666685461998, -0.22759760916233063, -0.20065873861312866, 0.26125288009643555, 0.17469751834869385, -0.24146036803722382, 0.2335815578699112, 0.1446547508239746, -0.0547538623213768, -0.022248636931180954, 0.24247707426548004, -0.17055684328079224, -0.23854544758796692, -0.09308864176273346, -0.2170255184173584, -0.3250587284564972, -0.00940529815852642, -0.26673761010169983, 0.11648322641849518, 0.0823555588722229, -0.3350062072277069, -0.04572482779622078, -0.4704507887363434, 0.546522855758667, 0.19680529832839966, 0.1388927549123764, 0.1789545714855194, -0.26262107491493225, -0.3593617379665375, 0.10555461049079895, 0.04412911459803581, -0.0003791565541177988, -0.2953968048095703, 0.2015799731016159, -0.2828192710876465, 0.3239378333091736, 0.16189101338386536, -0.30474403500556946, -0.18454989790916443, 0.04469281807541847, -0.33861246705055237, 0.19317640364170074, 0.08309365808963776, 0.08543478697538376, -0.06365334242582321, -0.1601177453994751, 0.192284494638443, -0.02714552730321884, -0.05568838492035866, 0.08258125185966492, 0.25341445207595825, 0.22120781242847443, -0.22620294988155365, -0.0748325064778328, 0.22918322682380676, -0.4797569811344147, 0.2900390923023224, -0.29038113355636597, 0.004060953855514526, 0.07574329525232315, 0.0932759940624237, 0.12937146425247192, 0.03620505705475807, -0.029235918074846268, 0.09385005384683609, -0.156059131026268, -0.4754638373851776, -0.26342692971229553, -0.12959791719913483, 0.07466665655374527, -0.29982447624206543, 0.5030378699302673, -0.08684903383255005, 0.07048660516738892, -0.14817368984222412, -0.06590843945741653, 0.008515320718288422, 0.060343995690345764, 0.28277522325515747, -0.27103444933891296, 0.020401839166879654, 0.0861123576760292, 0.19974783062934875, 0.05431754142045975, -0.22631005942821503, 0.24184471368789673, -0.12524782121181488, 0.03065653331577778, -0.0825481042265892, 0.3420252799987793, 0.3158426284790039, 0.19105727970600128, 0.11941796541213989, 0.13026383519172668, -0.050499770790338516, -0.06916175782680511, -0.14262133836746216, -0.08604829758405685, -0.04020243138074875, 0.024394799023866653, -0.03176818788051605, 0.025657353922724724, 0.12051517516374588, 0.04247981682419777, 0.22668945789337158, -0.2247660607099533, -0.03144083917140961, 0.04015202820301056, 0.1416056752204895, -0.06168406829237938, 0.1391529142856598, 0.010587156750261784, 0.20424410700798035, -0.339423805475235, 0.05637209862470627, -0.05780771002173424, -0.16311590373516083, 0.2656765580177307, 0.268419086933136, -0.3052903711795807, 0.1672414094209671, 0.38659289479255676, -0.010152149014174938, -0.07420695573091507, 0.20501023530960083, 0.03289176896214485, -0.005259459372609854, -0.07997872680425644, -0.054583366960287094, -0.3032306134700775, 0.4342389404773712, 0.1433904767036438, -0.2112385481595993, -0.13301369547843933, -0.021756459027528763, -0.13512812554836273, -0.17314180731773376, -0.09648475050926208, -0.23676049709320068, 0.159481018781662, -0.22902816534042358, -0.004745428450405598, -0.047709155827760696, 0.2415008395910263, -0.035957030951976776, -0.12870150804519653, 0.1167258694767952, -0.09591062366962433, 0.09191716462373734, -0.06844888627529144, 0.0010937252081930637, -0.09744211286306381, -0.047636061906814575, 0.24632804095745087, -0.09312582015991211, 0.13096891343593597, 0.13747969269752502, 0.011057833209633827, -0.10382382571697235, -0.010958877392113209, 0.17810645699501038, 0.09462859481573105, -0.1905093491077423, -0.28159666061401367, -0.14034686982631683, 0.2952456772327423, 0.032915376126766205, -0.06314210593700409, 0.060531143099069595, -0.1636064052581787, -0.0146484998986125, 0.020171435549855232, 0.17926765978336334, 0.23562711477279663, 0.2460305243730545, 0.4928313195705414, -0.2879241704940796, -0.31219616532325745, 0.18213437497615814, -0.04963739216327667, 0.022346967831254005, -0.25407320261001587, 0.12030550837516785, 0.3243497610092163, -0.3417990207672119, 0.38720789551734924, 0.16238689422607422, -0.18905197083950043, 0.12221597880125046, -0.2842772901058197, -0.3583717346191406, -0.03861761465668678, 0.015906119719147682, -0.022474737837910652, -0.04060564190149307, -0.14965201914310455, 0.12422630935907364, 0.015095922164618969, 0.07891816645860672, 0.03319060057401657, 0.10477177798748016, 0.06099165976047516, -0.048160649836063385, 0.11062823235988617, -0.21108612418174744, -0.0968196913599968, -0.05768338590860367, 0.23740994930267334, -0.10242410749197006, -0.13093946874141693, 0.02713126502931118, 0.012514445930719376, -0.09521102160215378, 0.3564494252204895, -0.2685331106185913, 0.062265921384096146, 0.0665837749838829, -0.019266070798039436, -0.055082399398088455, 0.10542194545269012, -0.02234511263668537, 0.056748293340206146, 0.008529989048838615, 0.17380395531654358, 0.03483140468597412, 0.12000777572393417, -0.17237438261508942, -0.263481467962265, -0.06536951661109924, -0.03086644597351551, -0.11445373296737671, -0.08410515636205673, 0.27574557065963745, 0.037622567266225815, 0.006554700899869204, 0.1771959811449051, -0.14243857562541962, -0.05588652938604355, 0.15332560241222382, -0.09350071847438812, 0.001666658790782094, -0.11843299120664597, 0.08101870119571686, 0.08980324864387512, -0.21142727136611938, 0.10719792544841766, -0.0981450229883194, 0.05852064490318298, -0.043927643448114395, 0.15322145819664001, 0.1992521435022354, -0.1644437164068222, 0.13113334774971008, -0.3013383448123932, 0.08225483447313309, -0.05259719863533974, -0.42469021677970886, 0.05374728515744209, -0.22823593020439148, 0.21539822220802307, -0.1468385010957718, 0.0821940004825592, 0.1582605093717575, 0.007981542497873306, -0.07904933393001556, 0.03696993365883827, -0.10591495782136917, 0.3147720694541931, -0.09401670843362808, -0.002306215465068817, 0.03709780424833298, -0.030840858817100525, -0.04855555668473244, 0.03148655965924263, -0.10201161354780197, -0.11866339296102524, -0.03157983720302582, -0.1519348919391632, -0.09105658531188965, -0.012231595814228058, 0.17645850777626038, -0.09651575237512589, -0.09713775664567947, 0.2001531422138214, 0.05333326384425163, 0.028618892654776573, 0.14336241781711578, -0.004496150184422731, 0.09190414100885391, -0.17502079904079437, -0.1634882539510727, 0.11092107743024826, -0.1757497489452362, -0.0034839187283068895, -0.06412554532289505, 0.05019495263695717, -0.08476826548576355, -0.1379150003194809, 0.2743285298347473, 0.07847301661968231, 0.30946820974349976, -0.11474303156137466, 0.046101976186037064, 0.030962606891989708, 0.3432542383670807, -0.12476163357496262, 0.257057249546051, -0.17419224977493286, -0.03139527514576912, 0.026552649214863777, 0.006476054899394512, 0.11684408783912659, -0.14119026064872742, -0.12510758638381958, 0.2213881015777588, -0.2201789915561676, 0.03224832937121391, 0.18755656480789185, 0.0857655331492424, 0.06563429534435272, -0.05456070601940155, -0.04068484157323837, 0.06030016019940376, 0.1008467748761177, -0.055969756096601486, 0.15849445760250092, 0.03244103863835335, 0.09313132613897324, -0.33569785952568054, -0.041930314153432846, 0.16335375607013702, -0.11667544394731522, -0.12564027309417725, -0.0636560395359993, -0.08502678573131561, -0.01664499007165432, -0.35451239347457886, 0.3108971416950226, 0.1947799026966095, -0.08060428500175476, 0.42108532786369324, 0.13152717053890228, -0.010355491191148758, -0.05291164293885231, 0.17197616398334503, 0.2154952883720398, -0.31835246086120605, 0.00508322985842824, -0.2981469929218292, 0.10987165570259094, 0.02585059218108654, -0.028045523911714554, -0.4402010142803192, 0.14866739511489868, -0.13538746535778046, 0.25029247999191284, 0.005311926826834679, -0.22239217162132263, 0.3242853581905365, -0.12103245407342911, -0.043315339833498, 0.3617185354232788, -0.03268367797136307, 0.08113615214824677, -0.08830743283033371, -0.013443333096802235, -0.011036363430321217, -0.2390192747116089, 0.18424542248249054, -0.11687556654214859, 0.24985069036483765, -0.09779052436351776, 0.029528165236115456, -0.046480488032102585, 0.030791446566581726, -0.10006342828273773, 0.17164352536201477, 0.036182332783937454, -0.1677035689353943, -0.028165481984615326, -0.2117099165916443, -0.07532328367233276, 0.17574968934059143, 0.0006615063175559044, -0.13226863741874695, 0.1534438133239746, -0.020906759425997734, 0.030194446444511414, -0.06904803216457367, 0.16004513204097748, 0.015284636057913303, 0.09915906190872192, 0.201897993683815, -0.060084421187639236, 0.13766495883464813, 0.03498132526874542, 0.0018350961618125439, -0.15945835411548615, 0.10753948241472244, 0.3976323902606964, 0.2814093828201294, -0.03463486582040787, -0.0019477917812764645, 0.14405131340026855, -0.015528359450399876, 0.34016773104667664, -0.2296987622976303, -0.011053347028791904, 0.1344013661146164, 0.14681744575500488, -0.10702639818191528, -0.05738597363233566, -0.04350252076983452, 0.09126576036214828, -0.08271469175815582, 0.24666206538677216, 0.19276641309261322, -0.17556703090667725, -0.06629650294780731, -0.004874665755778551, -0.3045198321342468, -0.22981339693069458, 0.06937730312347412, 0.04255867004394531, -0.417412132024765, 0.2078963965177536, 0.14284510910511017, 0.3648379147052765, -0.14389349520206451, 0.10270315408706665, 0.09049312025308609, -0.03294563665986061, 0.14051780104637146, -0.024060072377324104, -0.027012143284082413, 0.12225435674190521, 0.4279291033744812, -0.0012114607961848378, 0.11878148466348648, -0.10861273854970932, 0.07158578187227249, 0.05106595531105995, -0.18569083511829376, 0.0830380767583847, 0.03713598474860191, -0.20115643739700317, 0.05080266296863556, 0.16215668618679047, 0.5159944295883179, -0.09106732904911041, 0.14380314946174622, -0.19494584202766418, -0.040617767721414566, 0.2090144157409668, -0.07513266056776047, -0.17070254683494568, 0.1210404559969902, -0.571312665939331, 0.07128994166851044, -0.1223137378692627, 0.04003205895423889, 0.1335342973470688, -0.10583705455064774, -0.10393639653921127, 0.21544012427330017, 0.02242446318268776, -0.34846562147140503, -0.050479739904403687, -0.18592439591884613, -0.20024895668029785, 0.05317704379558563, 0.220269113779068, -0.19061706960201263, 0.01854240708053112, 0.03784497082233429, -0.14645761251449585, -0.05882462114095688, 0.20467141270637512, -0.06093563884496689, -0.0035690651275217533, 0.1632903516292572, -0.17518016695976257, -0.15062955021858215, 0.32071003317832947, -0.3535557687282562, -0.15956786274909973, 0.18199333548545837, -0.1517004519701004, 0.013503032736480236, 0.1602470725774765, -0.17363077402114868, -0.06915558129549026, 0.005969863384962082, 0.06525246053934097, 0.021026508882641792, 0.019611984491348267, -0.04416926950216293, 0.060100410133600235, -0.06350643932819366, -0.051550060510635376, -0.02228356897830963, 0.02615867555141449, -0.16044734418392181, -0.13511592149734497, -0.09615933895111084, 0.08026174455881119, 0.03433877229690552, 0.1239214837551117, -0.14612136781215668, -0.05757635086774826, 0.11656995862722397, 0.16280916333198547, -0.02151777409017086, 0.0630040317773819, -0.11847875267267227, -0.06983278691768646, 0.17939002811908722, 0.08624732494354248, -0.14185400307178497, -0.11151325702667236, -0.039123568683862686, 0.0795782282948494, -0.19432467222213745, 0.17331480979919434, -0.00024952396051958203, -0.2668246626853943, 0.018620600923895836, -0.06270169466733932, -0.020364781841635704, -0.3962258994579315, -0.16180072724819183, -0.04699202626943588, -0.18063242733478546, 0.1383063644170761, -0.13142645359039307, -0.1187567487359047, 0.02238951437175274, -0.2805023193359375, 0.0024869299959391356, 0.09175683557987213, 0.29926925897598267, -0.08660127967596054, -0.022325100377202034, 0.04078441858291626, 0.6421946883201599, -0.1196446418762207, 0.16320458054542542, -0.11190033704042435, 0.07240025699138641, 0.012571671046316624, 0.12513218820095062, 0.035394296050071716, -0.05970289930701256, -0.28161272406578064, 0.12263346463441849, -0.28818410634994507, 0.04239562153816223, 0.013752071186900139, 0.05519145727157593, 0.3473680317401886, 0.089713916182518, -0.06388850510120392, 0.09617937356233597, 0.13142293691635132, -0.11194828897714615, 0.1986350268125534, -0.012196618132293224, 0.0604543574154377, -0.1889612227678299, -0.07671103626489639, 0.06935303658246994, -0.022504135966300964, -0.15594370663166046, 0.18894749879837036, -0.29123473167419434, -0.033050499856472015, -0.1268971860408783, 0.004124141298234463, -0.060403358191251755, -0.08048783987760544, 0.26939722895622253, 0.03961139917373657, -0.0546625517308712, -0.26892948150634766, 0.02945868857204914, 0.1117318868637085, -0.26370951533317566, -0.10031714290380478, -0.28815460205078125, 0.07650914788246155, -0.02741505391895771, -0.16045141220092773, 0.17406341433525085, -0.13171662390232086, 0.253173291683197, -0.24865314364433289, 0.06624665856361389, 0.025891229510307312, -0.08719159662723541, -0.011597033590078354, 0.041214246302843094, 0.0024275730829685926, 0.15971605479717255, -0.3855595588684082, 0.13340210914611816, 0.06672108173370361, -0.0934542715549469, -0.01049999613314867, -0.20484772324562073, 0.1974833607673645, -0.30309948325157166, 0.08958081156015396, 0.03828170523047447, -0.00020832341397181153, 0.04372981935739517, 0.08555595576763153, -0.37762829661369324, -0.037158988416194916, 0.23784863948822021, -0.015316545031964779, 0.10348869860172272, 0.14128319919109344, -0.13422061502933502, -0.1093437597155571, -0.20380035042762756, 0.3565584421157837, 0.06502492725849152, -0.3924816846847534, 0.5369725227355957, -0.10761241614818573, 0.06344641745090485, -0.09883449226617813, 0.1194646805524826, 0.2838030457496643, -0.11133741587400436, 0.007813372649252415, -0.10904932022094727, 0.24216420948505402, -0.027748864144086838, -0.32813775539398193, -0.4600920081138611, -0.07753495872020721, 0.1147158294916153, 0.3647337257862091, 0.08180428296327591, -0.30777159333229065, 0.06675969064235687, -0.06398943811655045, 0.02223849855363369, 0.2505727708339691, -0.15753783285617828, 0.06282790750265121, -0.09246189892292023, -0.006562526803463697, -0.25684475898742676, -0.30289363861083984, -0.035718705505132675, -0.11997726559638977, 0.24599437415599823, 0.01832319237291813, 0.00920108798891306, -0.2146005630493164, -0.06948515772819519, -0.12080463021993637, -0.110383041203022, 0.027941428124904633, 0.0729832872748375, 0.08840872347354889, 0.03738129138946533, 0.06116252765059471, 0.20299305021762848, -0.09065034985542297, -0.37701404094696045, 0.12136581540107727, -0.19368787109851837, -0.03832913190126419, -0.1305338591337204, 0.055062878876924515, 0.014801625162363052, 0.03758984059095383, -0.024295106530189514, -0.031573791056871414, 0.3444191813468933, -0.1253131479024887, 0.15423926711082458, -0.20992828905582428, -0.03464585542678833, 0.007116539403796196, -0.27107158303260803, 0.09157954901456833, -0.1690325289964676, 0.2185538411140442, 0.14198608696460724, -0.013244793750345707, 0.14617761969566345, 0.08399974554777145, -0.000186689110705629, 0.22058041393756866, 0.10787641257047653, 0.27331873774528503, -0.23480641841888428, -0.034245844930410385, 0.045916106551885605, -0.10924862325191498, -0.008337193168699741, -0.03573019057512283, 0.19299595057964325, -0.10450271517038345, 0.07132123410701752, -0.04103134199976921, -0.0929185077548027, -0.06028125807642937, 0.30136638879776, 0.030668694525957108, -0.21298575401306152, 0.09815457463264465, 0.12069214880466461, -0.10356836766004562, 0.1460406631231308, 0.07846206426620483, 0.24096089601516724, -0.14632755517959595, 0.10918092727661133, 0.18875668942928314, -0.27527010440826416, -0.023331142961978912, 0.03269626200199127, -0.03922940045595169, -0.045462824404239655, -0.20847250521183014, 0.3206707239151001, -0.13544708490371704, 0.23086702823638916, -0.31668707728385925, -0.013453742489218712, -0.18953175842761993, 0.020703623071312904, 0.11193890124559402, -0.08339715003967285, -0.04708608239889145, 0.11657735705375671, -0.049853574484586716, -0.022962646558880806, 0.004473929759114981, -0.10264115780591965, -0.04868234694004059, 0.09838701039552689, 0.15828433632850647, -0.11145869642496109, -0.07214370369911194, 0.056229785084724426, -0.02021869644522667, -0.07173261791467667, -0.010782552883028984, 0.17796871066093445, 0.023773234337568283, 0.17276620864868164, -0.005503020249307156, -0.16537976264953613, -0.022316694259643555, 0.0010400558821856976, -0.10261037200689316, -0.3455924689769745, -0.0659594014286995, 0.025599516928195953, -0.13853313028812408, -0.15985332429409027, -0.0051160817965865135, 0.14915141463279724, -0.16830983757972717, 4.5132161176297814e-05, -0.020559236407279968, -0.025715963914990425, -0.0745926946401596, -0.16354116797447205, -0.1535220891237259, 0.14942289888858795, -0.12059066444635391, -0.20550356805324554, 0.20121529698371887, 0.07474096119403839, -0.07084434479475021, -0.2055581510066986, -0.21695221960544586, -0.41083967685699463, 0.025602078065276146, 0.10435908287763596, 0.18191206455230713, -0.09330424666404724, -0.21184757351875305, -0.017077064141631126, -0.08901745826005936, 0.020421303808689117, 0.22007930278778076, 0.09293632209300995, 0.13990865647792816, 0.02860724739730358, 0.04716268926858902, -0.10639765858650208, -0.2197255939245224, 0.037708133459091187, -0.06537260115146637, 0.23490865528583527, 0.07380875945091248, 0.09194199740886688, -0.20315392315387726, -0.017989331856369972, -0.013216669671237469, 0.01848277449607849, 0.07163901627063751, -0.1591240018606186, 0.11862904578447342, -0.053459230810403824, 0.04427969083189964, 0.2811112701892853, 0.03888828679919243, -0.17278364300727844, 0.051436882466077805, 0.06470467150211334, -0.10304946452379227, -0.12628889083862305, 0.06480807811021805, 0.12801314890384674, 0.22173592448234558, 0.22495576739311218, -0.014558568596839905, 0.27155187726020813, -0.1744527518749237, 0.18263664841651917, -0.21614550054073334, 0.09442649036645889, -0.09215244650840759, -0.2587473690509796, -0.034529704600572586, 0.11722488701343536, 0.08218428492546082, -0.07863833010196686, -0.2585892081260681, 0.187702938914299, -0.17281626164913177, -0.11521024256944656, 0.11839612573385239, 0.09072460979223251, -0.10211281478404999, -0.07467347383499146, 0.09120509773492813, -0.02869478054344654, -0.12372897565364838, 0.02335968241095543, -0.03687746822834015, 0.31147268414497375, -0.050701823085546494, 0.08970414847135544, 0.0835287794470787, -0.008349149487912655, -0.06882429122924805, 0.1487971395254135, -0.01713508367538452, 0.06018780916929245, 0.10116932541131973, 0.054303597658872604, -0.06327273696660995, 0.07114768773317337, -0.2089555263519287, -0.22378264367580414, 0.15084119141101837, -0.0250466950237751, -0.10137274861335754, -0.002974908798933029, -0.11188986897468567, -0.025113001465797424, 0.13556288182735443, -0.16722501814365387, -0.0887320265173912, 0.18084783852100372, -0.10091103613376617, -0.02030821330845356, -0.22769691050052643, 0.037445101886987686, 0.4884958863258362, 0.34409889578819275, 0.21744073927402496, 0.05021527409553528, 0.09277507662773132, 0.2271442860364914, 0.6426258087158203, 0.17648661136627197, 0.42265427112579346, -0.030447591096162796, 0.004219421185553074, 0.014768069609999657, 0.07012853771448135, -0.13450400531291962, -0.2892240881919861, -0.10762657225131989, 0.17568129301071167, 0.03631405532360077, -0.36375924944877625, 0.12107749283313751, 0.25149205327033997, -0.2977339029312134, -0.1261327862739563, 0.04492390528321266, 0.20131562650203705, 0.19691011309623718, 0.3732694983482361, 0.06268733739852905, 0.08646539598703384, 0.17945517599582672, 0.1352350413799286, 0.19700787961483002, 0.15120837092399597, 0.6443904042243958, -0.05248299986124039, -0.19037432968616486, 0.09589751064777374, -0.1692364364862442, -0.21449404954910278, 0.20193523168563843, -0.10068430751562119, 0.19316984713077545, 0.13926924765110016, 0.04275636374950409, 0.26880618929862976, -0.0409531369805336, 0.04417815059423447, -0.17566564679145813, -0.054326947778463364, -0.18059344589710236, 0.0624627023935318, 0.10775244235992432, 0.0809980258345604, 0.06186741963028908, -0.09328174591064453, 0.21348845958709717, -0.015868933871388435, -0.06108834967017174, 0.19631551206111908, 0.022691670805215836, -0.06883435696363449, 0.17213097214698792, 0.12818506360054016, 0.051130060106515884, 0.07253620028495789, -9.02787214727141e-05, 0.27061012387275696, 0.2600610554218292, -0.24284560978412628, -0.022788051515817642, 0.07083151489496231, 0.17021292448043823, 0.0015194714069366455, 0.14812639355659485, -0.03207457810640335, -0.0010763929458335042, 0.013926098123192787, -0.1542021632194519, 0.05688714236021042, -0.06770987808704376, -0.004891568794846535, -0.21242159605026245, 0.18384519219398499, -0.017835160717368126, -0.12378498166799545, 0.37571045756340027, 0.00977795384824276, -0.0291752927005291, 0.12208504229784012, -0.14159150421619415, 0.18058276176452637, 6.624623347306624e-05, -0.15244616568088531, -0.17768636345863342, -0.11540587246417999, 0.19013582170009613, 0.0097950529307127, 0.033647291362285614, -0.04198811948299408, -0.19005268812179565, 0.06859272718429565, -0.007975511252880096, -0.049969449639320374, -0.1664256751537323, 0.06104854494333267, 0.1402895152568817, 0.04805254563689232, 0.10309905558824539, -0.16796281933784485, 0.026677563786506653, -0.20472727715969086, 0.08291702717542648, -0.03558111935853958, -0.3822297155857086, 0.6324760317802429, 0.4356202781200409, -0.3272259533405304, 0.05188506096601486, -0.15259963274002075, -0.16912886500358582, 0.4239141643047333, -0.6278939247131348, 0.9993358850479126, 0.6193208694458008, 0.13959990441799164, -0.17567455768585205, 0.13658908009529114, -0.6386576890945435, 0.2876471281051636, -0.128284752368927, 0.15249110758304596, -0.679204523563385, 0.33210092782974243, 0.9577735066413879, 0.02029247395694256, 0.3924263119697571, 0.09332392364740372, -0.20507188141345978, 0.2449488639831543, 0.14201071858406067, -0.6015306711196899, -0.27623024582862854, 0.2680969834327698, -0.5236145257949829, 0.2288721650838852, 0.0915301963686943, 0.05672371760010719, 0.24011459946632385, 0.1961401253938675, 0.01357618160545826, -0.06466791778802872, -0.3451002538204193, -0.4715256690979004, 0.20093649625778198, 0.27254223823547363, -0.3664117157459259, 0.3621242940425873, 0.32817593216896057, -0.029190046712756157, 0.17931324243545532, -0.08928565680980682, -0.030178872868418694, -0.06353719532489777, -0.12151286751031876, -0.08336213231086731, 0.21345174312591553, -0.08259616792201996, -0.4736703336238861, 0.06426955759525299, 0.19238708913326263, -0.43616196513175964, 0.1414428949356079, 0.3586863577365875, -0.2585020661354065, -0.26866647601127625, -0.1160786896944046, 0.22779695689678192, -0.017428910359740257, 0.16885119676589966, -0.1575908660888672, -0.03813020512461662, 0.33867961168289185, -0.2862801253795624, 0.29275426268577576, 0.17807626724243164, -0.09661763906478882, -0.20417305827140808, 0.1875876784324646, -0.03253556787967682, 0.04635489732027054, 0.10211222618818283, -0.06976182013750076, -0.08050234615802765, -0.3093813955783844, 0.3303881287574768, -0.28673020005226135, -0.015464961528778076, 0.0288718082010746, 0.10725840926170349, 0.22318369150161743, 0.3878251016139984, -0.1279367059469223, -0.6170732378959656, 0.21818143129348755, -0.34446224570274353, -0.21762539446353912, 0.1547287404537201, -0.12722158432006836, -0.2786528170108795, -0.15695087611675262, -0.07829221338033676, 0.1201927438378334, -0.21139760315418243, -0.456488698720932, 0.3211477994918823, -0.0008323718793690205, -0.089844711124897, -0.1185278594493866, 0.0076331282034516335, 0.2842698097229004, 0.0733666941523552, 0.22966599464416504, 0.23479962348937988, 0.2208707630634308, 0.1101112961769104, 0.24290460348129272, -0.19823557138442993, 0.2047111839056015, 0.2475786805152893, -0.36184677481651306, 0.04705560952425003, -0.3427991569042206, -0.3771500289440155, 0.27127793431282043, 0.5110296010971069, -0.257735013961792, 0.3493916392326355, 0.14063240587711334, -0.10335585474967957, 0.2682717442512512, 0.3006686270236969, 0.2607506811618805, -0.32266345620155334, 0.05336124449968338, 0.11449594050645828, -0.3196641802787781, 0.1490672528743744, -0.296657919883728, -0.1809590458869934, 0.20402266085147858, 0.5091400146484375, 0.18029311299324036, 0.1727113574743271, 0.12112362682819366, -0.008016492240130901, -0.10960326343774796, -0.37682226300239563, -0.05015628784894943, 0.024363914504647255, 0.3986857235431671, -0.08390691131353378, -0.7235894799232483, -0.14505836367607117, -0.07044398784637451, 0.21354763209819794, 0.23247505724430084, -0.4048989713191986, 0.2664230763912201, 0.028060853481292725, 0.3051585555076599, -0.27583572268486023, 0.3347117304801941, 0.39005962014198303, -0.10227802395820618, -0.07441367954015732, 0.19839447736740112, 0.45515650510787964, 0.03759274259209633, -0.376191645860672, -0.11032798141241074, -0.058073244988918304, 0.026499692350625992, 0.1547718495130539, -0.5783098340034485, -7.390791142825037e-05, 0.10173825174570084, 0.29794415831565857, 0.25755801796913147, 0.3111683428287506, -0.19372953474521637, -0.006409794557839632, -0.25221651792526245, 0.22913500666618347, -0.04772565886378288, 0.05519922450184822, 0.006129613611847162, 0.43480145931243896, 0.03688405081629753, -0.5534080862998962, -0.07517046481370926, -0.015287699177861214, -0.21299301087856293, -0.06818146258592606, 0.20496045053005219, 0.16314393281936646, 0.3812801241874695, -0.2732880413532257, -0.13351288437843323, -0.0075345286168158054, 0.6119071841239929, 0.4230212867259979, 0.0915641114115715, -0.7854155898094177, -0.20988227427005768, 0.13904835283756256, 0.3917081952095032, -0.26672810316085815, -0.5133499503135681, 0.0006154107395559549, -0.03570185974240303, -0.40088191628456116, -0.18862999975681305, -0.07535229623317719, -0.36050134897232056, 0.26230543851852417, 1.0669647455215454, -0.2953975200653076, 0.015735285356640816, -0.29598134756088257, -0.16980808973312378, 0.19295953214168549, 0.13353212177753448, -0.4231865704059601, -0.15632513165473938, 0.4158528745174408, -0.6709263920783997, -0.3111485540866852, 0.09484263509511948, -0.07102307677268982, -0.2079339623451233, 0.05074258893728256, -0.5237715840339661, -0.01731145568192005, -0.06778020411729813, 0.18101219832897186, 0.007064447272568941, -0.27392715215682983, -0.39332637190818787, -0.04122231528162956, 0.22781723737716675, -0.18180540204048157, 0.48207488656044006, 0.06911423802375793, 0.3095972537994385, -0.1670200526714325, 0.05797901004552841, -0.032967470586299896, -0.08924444019794464, 0.16178575158119202, -0.45329082012176514, -0.062429431825876236, 0.29173514246940613, 0.4515203833580017, 0.17595988512039185, 0.159140944480896, 0.029878225177526474, -0.08910934627056122, -0.2116423100233078, -0.16697156429290771, -0.10175734758377075, -0.12927116453647614, -0.11110753566026688, -0.3043627142906189, -0.1391521394252777, 0.11866239458322525, -0.27736958861351013, -0.03845668211579323, 0.05652747303247452, 0.2609286308288574, 0.43274790048599243, -0.18745791912078857, -0.17401787638664246, -0.06033704802393913, 0.059631675481796265, 0.15082725882530212, -0.018003934994339943, -0.048416297882795334, 0.14344081282615662, -0.10647562891244888, 0.17696994543075562, 0.07744025439023972, -0.01857522316277027, -0.14491239190101624, -0.06421514600515366, 0.05721242353320122, 0.1184595450758934, 0.14608414471149445, 0.10373897850513458, 0.009300289675593376, -0.09111978113651276, 0.19141866266727448, -0.02697589248418808, 0.04340319335460663, -0.1648801565170288, -0.03986478969454765, 0.1580711007118225, 0.05726255103945732, -0.08467186242341995, -0.07195914536714554, -0.0778348445892334, 0.08525115251541138, 0.3067193925380707, 0.14753825962543488, -0.14608445763587952, -0.20659732818603516, 0.23059238493442535, 0.016451768577098846, 0.026386110112071037, 0.059655070304870605, -0.02320759743452072, 0.1165580302476883, 0.0364898256957531, 0.07265839725732803, 0.13032270967960358, 0.10392305254936218, -0.10185927897691727, -0.2464461624622345, -0.113267682492733, 0.06570769101381302, 0.0820586085319519, -0.15073256194591522, -0.1515037715435028, 0.2855434715747833, 0.14875607192516327, -0.19693295657634735, -0.20159438252449036, -0.15550413727760315, -0.03326176851987839, 0.03131873160600662, -0.08806701749563217, -0.03948795422911644, 0.16256354749202728, -0.15850131213665009, -0.2258918285369873, -0.11358369886875153, 0.09609729796648026, -0.03889724239706993, -0.07469961047172546, 0.06492286175489426, 0.08461543172597885, 0.1471998244524002, 0.31558510661125183, -0.056718092411756516, -0.2950737476348877, -0.12723365426063538, -0.11339947581291199, 0.12018364667892456, 0.01655217818915844, 0.1975744068622589, 0.04737860709428787, -0.01563618890941143, 0.11549064517021179, 0.32681557536125183, -0.10426408797502518, -0.21387061476707458, -0.16704699397087097, 0.045438092201948166, 0.17766417562961578, -0.2514796853065491, -0.23921982944011688, 0.006191568449139595, -0.23290951550006866, -0.13860578835010529, 0.041336145251989365, -0.23049414157867432, 0.2530011832714081, 0.1967637985944748, -0.011752286925911903, 0.09630657732486725, 0.10284485667943954, -0.15738435089588165, -0.04305430129170418, 0.0681982934474945, 0.14602883160114288, -0.06731142848730087, -0.193052738904953, 0.14576204121112823, 0.03777974471449852, 0.17757029831409454, -0.480260968208313, -0.019435258582234383, 0.10476762801408768, -0.15653283894062042, -0.20527325570583344, 0.11855435371398926, 0.13767370581626892, -0.05933073163032532, -0.02721935138106346, -0.10220355540513992, 0.09162144362926483, 0.05270000174641609, -0.23169904947280884, -0.08984777331352234, -0.40540680289268494, -0.10616292804479599, -0.0813627764582634, 0.10458797216415405, 0.11525139957666397, 0.1191895455121994, -0.05990982800722122, 0.1015968769788742, -0.08266954869031906, -0.23361602425575256, 0.10039472579956055, 0.048488494008779526, 0.01613844372332096, -0.1492769867181778, -0.10651611536741257, -0.01973920688033104, -0.12029823660850525, -0.25041696429252625, -0.3068002760410309, 0.5210244059562683, 0.10849657654762268, 0.03187856078147888, -0.11969244480133057, 0.05089779198169708, 0.1398882418870926, -0.18832676112651825, -0.18612967431545258, -0.2647922933101654, -0.07942701876163483, 0.018659116700291634, -0.1643061339855194, -0.3397669196128845, 0.034816816449165344, -0.04751523584127426, 0.1451655924320221, 0.07332520931959152, -0.024965178221464157, -0.23048342764377594, -0.12688273191452026, -0.1264796108007431, 0.10005607455968857, 0.28148993849754333, 0.32203590869903564, 0.2186092883348465, -0.1537383496761322, -0.05290950834751129, 0.17417992651462555, -0.004550025798380375, -0.1873973160982132, -0.11175406724214554, -0.07960133254528046, 0.10215726494789124, -0.1087116226553917, 0.09423887729644775, 0.18399222195148468, -0.2268703132867813, 0.037345755845308304, -0.08622006326913834, -0.05788175016641617, 0.07959745079278946, -0.05619051307439804, 0.10609735548496246, 0.14999878406524658, -0.234548881649971, 0.08631808310747147, -0.27050620317459106, -0.1231473907828331, -0.4933890700340271, -0.17193320393562317, -0.02166353352367878, 0.18920937180519104, -0.14597593247890472, 0.1601661741733551, 0.004173132125288248, 0.1646801382303238, 0.253338098526001, -0.042995333671569824, 0.21848538517951965, 0.12084782868623734, 0.35750067234039307, 0.04183096066117287, 0.16314797103405, -0.04868631437420845, -0.3096737563610077, -0.09595440328121185, -0.08715902268886566, 0.07189102470874786, 0.10863622277975082, -0.1679486185312271, 0.06109105423092842, -0.017306111752986908, -0.00936706643551588, 0.1935907006263733, 0.07187538594007492, -0.05295195057988167, -0.38906776905059814, -0.008240400813519955, 0.05898565798997879, -0.016308404505252838, -0.08935581147670746, 0.03665738180279732, 0.006045174319297075, -0.10032143443822861, 0.004541708622127771, -0.10357928276062012, -0.03629665821790695, 0.22407425940036774, -0.06102628633379936, -0.08757609128952026, -0.05934210121631622, 0.05168590694665909, -0.012873446568846703, -0.029477166011929512, -0.13776132464408875, 0.021324286237359047, -0.1900232881307602, -0.0917217880487442, -0.06186014786362648, -0.09185654670000076, 0.10995221883058548, 0.10076354444026947, -0.11080779880285263, -0.26917311549186707, -0.11237600445747375, 0.10276816785335541, -0.0442202091217041, -0.041029348969459534, 0.057791806757450104, -0.10962434858083725, -0.012143936939537525, -0.25653907656669617, -0.014854539185762405, 0.0008243892225436866, 0.036541666835546494, -0.009576301090419292, -0.17046934366226196, 0.0574585385620594, -0.14034497737884521, -0.09247112274169922, -0.148390993475914, 0.07356376945972443, 0.03006647154688835, -0.18353119492530823, -0.049332939088344574, 0.2891070544719696, 0.17464688420295715, 0.03492932394146919, 0.17985908687114716, -0.21879659593105316, 0.01747533306479454, -0.18282663822174072, -0.05530707165598869, -0.20138053596019745, -0.15965692698955536, 0.12638890743255615, 0.07542725652456284, 0.038838211447000504, -0.025665657594799995, -0.05161173269152641, -0.05931665375828743, 0.15888264775276184, -0.09179269522428513, 0.05262120068073273, 0.015201278030872345, 0.07080192863941193, 0.13515661656856537, -0.14448171854019165, 0.07996949553489685, -0.055599626153707504, -0.23942646384239197, -0.0764915719628334, -0.15707121789455414, 0.26244044303894043, 0.052771128714084625, 0.07014302164316177, -0.48334845900535583, 0.060269515961408615, -0.03059014491736889, -0.14599186182022095, 0.07720410078763962, 0.07530323415994644, -0.1335771232843399, -0.11676236242055893, 0.02097013033926487, 0.1466037929058075, -0.12138477712869644, 0.048251502215862274, -0.019968630746006966, -0.0799916535615921, 0.011752947233617306, 0.07103153318166733, -0.032376449555158615, -0.012894797138869762, 0.3846476078033447, -0.022083131596446037, -0.008264865726232529, -0.13337863981723785, 0.041251637041568756, -0.06942960619926453, -0.074180968105793, 0.08566804975271225, -0.17763344943523407, -0.02509644441306591, -0.2015434354543686, -0.045915767550468445, 0.02138150855898857, 0.2474427968263626, -0.011115148663520813, -0.20384378731250763, 0.2730955481529236, 0.2005762904882431, -0.0416109561920166, -0.07367486506700516, 0.01391918957233429, 0.07353978604078293, -0.003205271204933524, -0.03963835537433624, 0.10732653737068176, -0.06819658726453781, 0.08844397217035294, 0.14714133739471436, 0.09488584846258163, -0.15748770534992218, 0.06278836727142334, -0.1487145721912384, -0.11436791718006134, 0.046132687479257584, 0.0016669969772920012, 0.20919331908226013, 0.05664145201444626, 0.1296139359474182, -0.09376130253076553, -0.1431194394826889, 0.05047759413719177, -0.11364657431840897, -0.15796494483947754, -0.05106979236006737, -0.0817558690905571, 0.24627947807312012, -0.22720664739608765, -0.2884036898612976, 0.20285062491893768, -0.30949118733406067, -0.01471952348947525, -0.08280986547470093, -0.018242981284856796, 0.24594885110855103, -0.1402314156293869, -0.027012420818209648, -0.06944756954908371, -0.1987341344356537, -0.07851673662662506, -0.19408956170082092, 0.16446416079998016, -0.046272311359643936, 0.06941662728786469, 0.06118757277727127, 0.001291004940867424, -0.07461544871330261, 0.07826506346464157, -0.09237095713615417, -0.16464251279830933, 0.13561846315860748, -0.24560604989528656, -0.1791534423828125, -0.14431114494800568, 0.04509161785244942, 0.14140477776527405, 0.05261320620775223, -0.0023213871754705906, -0.17736655473709106, -0.07536138594150543, -0.021256325766444206, -0.20608103275299072, -0.0252218060195446, -0.25023117661476135, -0.16370731592178345, 0.12960784137248993, 0.10103394091129303, 0.04452499374747276, -0.04308918118476868, -0.05544222891330719, 0.2801089584827423, 0.008933588862419128, 0.18935929238796234, -0.06887906789779663, -0.08498050272464752, -0.11160941421985626, -0.1946682333946228, 0.10003671795129776, 0.042073216289281845, -0.16251930594444275, 0.13914795219898224, -0.1495664268732071, -0.05999009311199188, 0.22146959602832794, -0.1315978318452835, 0.19548600912094116, 0.08753073960542679, -0.015406868420541286, -0.1018582284450531, -0.2041957974433899, -0.1431857794523239, 0.19014185667037964, -0.1592036932706833, -0.06717810034751892, 0.14065685868263245, 0.011601102538406849, 0.17612259089946747, 0.16452811658382416, -0.2041315883398056, 0.1802978217601776, -0.2101779580116272, 0.03269509971141815, -0.03892923519015312, -0.1614169180393219, -0.02621808648109436, 0.23047398030757904, 0.12997181713581085, -0.12565931677818298, -0.04094088077545166, 0.034807492047548294, 0.03883712738752365, 0.07732169330120087, 0.0318773090839386, -0.15352581441402435, -0.12005049735307693, -0.09061723202466965, 0.2002771943807602, -0.10861862450838089, 0.05442136526107788, -0.41222742199897766, 0.21306462585926056, -0.15545834600925446, -0.1108960509300232, -0.08018210530281067, -0.33042943477630615, 0.21232402324676514, 0.2535897493362427, -0.2495587170124054, 0.06277584284543991, -0.029538530856370926, 0.025034958496689796, 0.09913984686136246, -0.17489853501319885, 0.16404080390930176, -0.16235844790935516, 0.049499936401844025, -0.24611343443393707, 0.06762169301509857, -0.1200469508767128, 0.3287520706653595, 0.08374164998531342, -0.13867788016796112, -0.18792089819908142, 0.16086840629577637, 0.07338756322860718, -0.01141287200152874, -0.14834512770175934, 0.060391105711460114, -0.22625693678855896, -0.0590759813785553, -0.1970912665128708, -0.5565060973167419, -0.4583984315395355, 0.043027330189943314, 0.008080333471298218, -0.165497824549675, -0.002843479858711362, -0.4033050239086151, 0.35446789860725403, 0.1302720308303833, 0.08266166597604752, -0.2112458348274231, -0.1402134895324707, 0.00746902683749795, 0.19106557965278625, 0.04526429995894432, 0.007707798387855291, 0.11472172290086746, 0.11633764207363129, -0.058016445487737656, 0.04347972571849823, 0.23518060147762299, -0.07749035954475403, 0.0922580361366272, 0.15862157940864563, 0.01914166659116745, -0.14222072064876556, -0.2375892847776413, -0.09460436552762985, 0.024470960721373558, -0.06472074240446091, -0.018658407032489777, 0.09625567495822906, 0.20539695024490356, 0.0433843731880188, -0.19182857871055603, -0.2324875295162201, -0.034575022757053375, 0.12811359763145447, 0.049896687269210815, -0.015289203263819218, 0.24074895679950714, 0.008051869459450245, 0.030304450541734695, -0.11795927584171295, 0.19318927824497223, 0.126571387052536, -0.1277388334274292, -0.012222129851579666, -0.0024453531950712204, -0.010335168801248074, 0.09359676390886307, 0.007694435305893421, 0.2998288869857788, 0.15582242608070374, -0.12918329238891602, -0.1670452505350113, 0.03591734543442726, 0.09135250002145767, 0.10454094409942627, -0.02743600122630596, 0.013169671408832073, 0.07537567615509033, 0.04542570188641548, 0.021174076944589615, -0.08288520574569702, -0.0022015434224158525, 0.05320453643798828, -0.057065896689891815, 0.02296931855380535, -0.07649679481983185, 0.3330675959587097, -0.1335292011499405, -0.013492489233613014, 0.0011146040633320808, -0.0464022271335125, -0.08293857425451279, -0.004282974172383547, 0.06273346394300461, -0.01926487311720848, -0.24101586639881134, -0.06234404072165489, -0.10997706651687622, -0.019512943923473358, 0.07388182729482651, 0.011651061475276947, 0.20954114198684692, -0.012044081464409828, 0.04987645149230957, 0.1639152616262436, -0.14365513622760773, 0.07234591990709305, 0.18995963037014008, 0.03872255980968475, -0.2572961747646332, 0.2000819891691208, 0.1316535621881485, -0.2035195380449295, -0.24439162015914917, 0.04736293479800224, 0.09197011590003967, -0.24690034985542297, 0.04266724735498428, -0.1605847030878067, 0.35889166593551636, -0.15228484570980072, -0.24254393577575684, -0.13510116934776306, 0.12656937539577484, -0.0011306448141112924, 0.0599975623190403, 0.06664668023586273, 0.05404266342520714, -0.023854505270719528, -0.0987316220998764, -0.07305962592363358, -0.018981697037816048, -0.04348103702068329, -0.035607997328042984, -0.07839751243591309, -0.09549672901630402, -0.032738134264945984, -0.07379939407110214, 0.0087907575070858, 0.06900407373905182, -0.08521293103694916, 0.2085416316986084, -0.024730447679758072, -0.19077545404434204, -0.19529232382774353, 0.043511711061000824, -0.04162783920764923, 0.17859509587287903, 0.03529100865125656, -0.16859076917171478, 0.03997556492686272, -0.0840090811252594, -0.22595272958278656, -0.09263239800930023, 0.08576875180006027, 0.09355681389570236, -0.1838313192129135, -0.022771799936890602, -0.06151749566197395, -0.07745049148797989, 0.07636623084545135, -0.046550996601581573, 0.02861558087170124, -0.03399176150560379, 0.02119983732700348, 0.03560280799865723, -0.010463469661772251, 0.2817891836166382, -0.03984702378511429, -0.0042276750318706036, -0.05374699458479881, 0.16777874529361725, 0.09987141937017441, -0.03359709307551384, 0.03904803842306137, -0.09317409247159958, 0.038577355444431305, -0.02943965420126915, 0.07784086465835571, 0.10786757618188858, -0.1745818704366684, -0.0026789929252117872, 0.38219907879829407, -0.07473956793546677, 0.026403123512864113, 0.12476544827222824, 0.14207172393798828, 0.07390382885932922, 0.10975117981433868, 0.2187323272228241, 0.02542955055832863, -0.35809874534606934, -0.1342994123697281, -0.04119160771369934, 0.17529548704624176, 0.09959310293197632, -0.16148339211940765, -0.31950390338897705, 0.00332011841237545, -0.02220110222697258, -0.19820472598075867, -0.08843626081943512, -0.18209683895111084, 0.15272201597690582, -0.11238633096218109, 0.061970021575689316, 0.2798464596271515, 0.22483639419078827, 0.03186162933707237, -0.1496569663286209, 0.016224030405282974, -0.043112508952617645, 0.018510913476347923, -0.18924854695796967, -0.10623946040868759, 0.21895942091941833, -0.1251717507839203, -0.07350392639636993, 0.20273561775684357, 0.13936308026313782, 0.108815997838974, -0.00532164704054594, -0.06787817180156708, -0.14743159711360931, 0.29889628291130066, -0.19899868965148926, 0.037147942930459976, 0.08038167655467987, 0.04330115392804146, 0.33397167921066284, -0.0013658079551532865, -0.13792994618415833, 0.333035409450531, 0.08214203268289566, 0.01216466911137104, -0.11712659895420074, -0.16296905279159546, 0.10148986428976059, -0.17122600972652435, -0.06564828008413315, -0.02144198678433895, -0.00787158403545618, 0.12401427328586578, 0.059886954724788666, -0.13133811950683594, 0.0521259680390358, -0.20666956901550293, 0.19021663069725037, -0.07488436251878738, -0.2531709671020508, 0.07896582782268524, 0.11624140292406082, -0.16924376785755157, 0.06405743211507797, 0.052520666271448135, 0.1592554897069931, 0.1159556433558464, -0.1203487291932106, -0.07069224119186401, 0.17522971332073212, 0.048186544328927994, -0.1130688413977623, 0.36823660135269165, -0.1000552549958229, -0.12772059440612793, 0.2583719789981842, -0.08086758852005005, 0.1042100191116333, -0.01467034313827753, -0.03744640573859215, -0.007646089885383844, 0.17733919620513916, 0.10885478556156158, -0.19363361597061157, 0.0228022001683712, 0.1409086436033249, 0.03586185723543167, -0.26761502027511597, -0.06135087087750435, -0.01603125035762787, -0.04965189844369888, 0.13986794650554657, -0.01454155519604683, 0.10124722123146057, -0.024316472932696342, -0.0404297411441803, 0.015512553974986076, -0.10333037376403809, -0.04119781777262688, -0.04455104470252991, -0.016825247555971146, 0.05129300802946091, 0.1259804666042328, -0.1904425173997879, 0.14291596412658691, -0.022265031933784485, -0.1404634416103363, -0.14510385692119598, -0.043703313916921616, 0.23883883655071259, -0.22601304948329926, 0.008550794795155525, -0.05368167906999588, 0.15362684428691864, -0.06081872060894966, -0.29315683245658875, -0.13937413692474365, -0.04990936815738678, -0.07280727475881577, -0.20590728521347046, 0.011590659618377686, 0.2953053414821625, 0.05263781175017357, 0.03063971735537052, 0.03021775744855404, 0.05083345249295235, 0.0654967650771141, 0.07612552493810654, 0.12754304707050323, -0.2152760922908783, 0.12626565992832184, -0.05328921973705292, 0.15348385274410248, 0.06269022822380066, -0.03351340815424919, -0.19956600666046143, 0.09281747043132782, 0.07287037372589111, -0.036691032350063324, -0.08406826853752136, 0.0835416167974472, -0.0027677053585648537, 0.08076121658086777, 0.10181121528148651, 0.6288924813270569, 0.4563438594341278, 0.47940948605537415, -0.8190059661865234, -0.5823536515235901, 0.09293241053819656, -0.03793581575155258, -0.08930408954620361, 0.27291443943977356, 0.444943368434906, -0.96412193775177, 0.3986167907714844, -0.006826451513916254, -0.8494870066642761, 0.0035014571622014046, -0.1636989712715149, -0.10032671689987183, -0.20424716174602509, 0.26056867837905884, -0.1145489364862442, 0.02257438190281391, 0.05699997767806053, 0.04017746075987816, -0.21034716069698334, -0.2990436255931854, 0.21925723552703857, -0.17232342064380646, 0.08458221703767776, 0.15844586491584778, -0.016497280448675156, 0.2841101586818695, 0.03309608995914459, -0.044922567903995514, -0.1821899712085724, 0.08874846249818802, -0.1331823617219925, -0.025470081716775894, -0.12097707390785217, 0.29102832078933716, -0.02096695266664028, -0.12082716822624207, -0.018900953233242035, -0.19960549473762512, 0.18494462966918945, -0.042516838759183884, 0.18865172564983368, 0.02421138994395733, 0.18222807347774506, -0.14609622955322266, -0.06247221678495407, -0.19377388060092926, 0.06491230428218842, -0.09778104722499847, -0.010599395260214806, -0.4133128225803375, -0.053804151713848114, 0.032436199486255646, -0.19436590373516083, 0.03855816274881363, -0.053767263889312744, -0.005465595051646233, 0.21134892106056213, -0.15737125277519226, 0.0906016007065773, -0.231549471616745, 0.07428501546382904, -0.14179976284503937, 0.1951225847005844, 0.22329233586788177, 0.06015981361269951, 0.21651604771614075, 0.17952845990657806, -0.1837899386882782, -0.20049206912517548, 0.09486091136932373, -0.25732332468032837, 0.1325000822544098, 0.16709153354167938, 0.03925208002328873, -0.29124948382377625, 0.1104210838675499, -0.07040812075138092, -0.10306085646152496, 0.06777600198984146, 0.06390227377414703, -0.1735198199748993, -0.057406265288591385, -0.20401564240455627, 0.19959880411624908, 0.25364285707473755, 0.16674339771270752, 0.11315255612134933, -0.27903109788894653, -0.08335990458726883, -0.15305495262145996, -0.10232692956924438, -0.07288985699415207, 0.10353191941976547, 0.05997038260102272, 0.22634316980838776, -0.15001553297042847, 0.23736484348773956, 0.04730672761797905, 0.17057634890079498, 0.07693830877542496, 0.20040825009346008, -0.22443312406539917, 0.1681729257106781, 0.05364641547203064, 0.015947213396430016, -0.28034770488739014, 0.16700191795825958, -0.15910577774047852, -0.23824693262577057, -0.17018470168113708, 0.10256961733102798, -0.04003845155239105, -0.15360544621944427, 0.1792016476392746, 0.12247172743082047, -0.22754666209220886, -0.11691789329051971, 0.10032428056001663, -0.035336170345544815, 0.023713521659374237, 0.01565081626176834, 0.06461071223020554, -0.18169766664505005, -0.1316281259059906, 0.1239624172449112, -0.06790012121200562, 0.13310332596302032, 0.20996493101119995, -0.0691169872879982, -0.15209561586380005, 0.1463424116373062, 0.10346425324678421, 0.050245657563209534, 0.032526858150959015, 0.09159588068723679, -0.14779454469680786, -0.1297866404056549, 0.02212611213326454, -0.13740448653697968, -0.15653295814990997, -0.29711756110191345, 0.0035820945631712675, -0.15120667219161987, 0.1726711094379425, 0.07260875403881073, -0.3628959059715271, -0.1385977864265442, 0.06736470013856888, -0.1617272049188614, -0.13371509313583374, -0.2566569149494171, 0.12721028923988342, 0.10680790990591049, 0.05799742043018341, 0.0009686995181255043, -0.02741503342986107, 0.21893484890460968, 0.03328462317585945, 0.0034826621413230896, -0.06756716221570969, 0.13913258910179138, -0.25746339559555054, 0.10836708545684814, -0.1778375208377838, -0.03919941186904907, 0.17818836867809296, -0.0942743793129921, 0.0784805566072464, -0.11597377806901932, 0.06926827132701874, 0.008870149962604046, -0.2168498933315277, 0.1540927141904831, -0.21373215317726135, -0.15624548494815826, -0.19872990250587463, 0.0243612602353096, -0.010895755141973495, -0.1297791302204132, 0.19036154448986053, 0.07547398656606674, -0.13028673827648163, 0.06357000768184662, -0.06688717752695084, 0.13015151023864746, 0.008183371275663376, -0.04345959424972534, -0.36093470454216003, 0.25851938128471375, -0.18150053918361664, 0.08415737748146057, -0.11271852999925613, -0.13019844889640808, 0.009717141278088093, 0.25980082154273987, -0.3789067566394806, 0.17200705409049988, 0.37711843848228455, 0.04301800951361656, -0.1460973471403122, 0.17039725184440613, -0.13582152128219604, -0.07922707498073578, 0.014861194416880608, 0.3631601631641388, 0.20453175902366638, 0.4044041633605957, -0.029245780780911446, 0.16528017818927765, -0.08851739019155502, -0.06752081960439682, -0.22872038185596466, 0.3243121802806854, -0.1615331619977951, -0.052888453006744385, -0.16353046894073486, 0.101626455783844, 0.17860926687717438, -0.22090110182762146, -0.33833545446395874, 0.07196377962827682, 0.08536366373300552, 0.04264000430703163, 0.15528157353401184, 0.10251607745885849, -0.2487867772579193, -0.04191455617547035, 0.004873793572187424, 0.21513023972511292, 0.3289170563220978, -0.2784546911716461, -0.46691083908081055, -0.2835693061351776, -0.19163858890533447, -0.16791437566280365, 0.28472092747688293, -0.1257564276456833, 0.08852015435695648, 0.21007312834262848, -0.18844148516654968, -0.24634398519992828, 0.20031049847602844, 0.11591485887765884, 0.002850983291864395, -0.10809547454118729, -0.2695991098880768, 0.005915545858442783, 0.10450238734483719, 0.06060147285461426, -0.043651748448610306, 0.12896256148815155, -0.04737158864736557, 0.04043739289045334, -0.2148357778787613, -0.17810609936714172, -0.3110610544681549, -0.05065141245722771, 0.07612133771181107, -0.14944006502628326, -0.19247019290924072, 0.047471776604652405, -0.34913739562034607, -0.06738661229610443, 0.1914317011833191, -0.1349307745695114, 0.15098363161087036, 0.05119558051228523, -0.1797548085451126, -0.07042353600263596, -0.09695848077535629, -0.02863539382815361, 0.05129381641745567, 0.04898878186941147, -0.05896827206015587, 0.03588627278804779, -0.1302012950181961, 0.15080322325229645, 0.0616878867149353, 0.1601942628622055, 0.07028565555810928, -0.16884653270244598, -0.09349275380373001, -0.032569486647844315, -0.020717540755867958, -0.01579362154006958, -0.08051960170269012, 0.0052321660332381725, 0.18899132311344147, -0.36370065808296204, -0.04902678355574608, 0.08094324916601181, 0.03399845212697983, 0.27366694808006287, 0.18901728093624115, 0.04478977620601654, -0.0007368237129412591, -0.1191658079624176, 0.10537838190793991, -0.103669174015522, -0.1582397222518921, 0.3568442463874817, 0.1659235805273056, 0.019444765523076057, 0.07030002772808075, -0.07418923079967499, 0.17171797156333923, -0.1019415408372879, 0.09753056615591049, 0.22927719354629517, 0.12451503425836563, 0.23283298313617706, -0.04227073863148689, -0.0975426733493805, 0.09129422158002853, 0.09773986786603928, -0.15600544214248657, 0.27484285831451416, -0.2849186360836029, 0.07265233993530273, -0.15887075662612915, -0.04627082124352455, 0.14758767187595367, 0.20563828945159912, -0.24706842005252838, -0.0008334473241120577, -0.15875647962093353, -0.0891949012875557, -0.29330477118492126, -0.14399564266204834, -0.010086730122566223, 0.1890675276517868, -0.07608931511640549, -0.009388403967022896, 0.25065064430236816, -0.12720391154289246, -0.1320551037788391, 0.1227351725101471, -0.2862509787082672, 0.1965525597333908, -0.529496967792511, -0.21396999061107635, 0.3246991038322449, -0.06942260265350342, 0.03821715712547302, 0.30634889006614685, -0.22184215486049652, 0.19321681559085846, -0.04986950755119324, -0.12170310318470001, -0.2664584517478943, -0.029583873227238655, 0.08291121572256088, 0.08302750438451767, -0.9731655716896057, -0.33870193362236023, -0.3358449339866638, -0.059459831565618515, -0.12022417038679123, -0.1470179259777069, -0.052067238837480545, 0.2366420328617096, -0.143044576048851, -0.09165254235267639, 0.13111497461795807, 0.019250545650720596, -0.03229718655347824, -0.14798881113529205, -0.19301952421665192, -0.23389491438865662, 0.07772129029035568, -0.1808435320854187, -0.056456778198480606, -0.05314375087618828, 0.1332230120897293, -0.08894320577383041, -0.07193994522094727, 0.05464772880077362, -0.06788242608308792, -0.19272127747535706, 0.2780637741088867, -0.5020009279251099, -0.005680167581886053, -0.06788064539432526, -0.13104133307933807, 0.029602058231830597, 0.03111456148326397, 0.2567313313484192, 0.27213621139526367, -0.1784835308790207, -0.011542540043592453, -0.153360977768898, -0.3459332287311554, 0.07221880555152893, -0.04528465494513512, -0.12578774988651276, 0.44728314876556396, -0.12639175355434418, -0.04629188030958176, -0.16552840173244476, -0.13623560965061188, 0.3634447753429413, 0.4265193045139313, -0.16955427825450897, 0.17460472881793976, -0.06913445144891739, -0.13917821645736694, 0.35495725274086, -0.25895512104034424, -0.03829532861709595, -0.06677757948637009, -0.07117890566587448, 0.011178729124367237, -0.10373653471469879, 0.5813350081443787, -0.07748306542634964, 0.21335479617118835, 0.021179553121328354, -0.028088858351111412, 0.2941736876964569, 0.36379989981651306, 0.07619111984968185, -0.2019033282995224, 0.0642489567399025, 0.2486175149679184, -0.10614759474992752, -0.04158146679401398, 0.10670098662376404, -0.016980672255158424, -0.09013460576534271, -0.07625991851091385, -0.08622819930315018, -0.05709841102361679, 0.15851286053657532, 0.14137980341911316, 0.23418006300926208, 0.009838957339525223, -0.00972877349704504, -0.014958660118281841, 0.2205459177494049, 0.09271484613418579, 0.023591330274939537, -0.2831382751464844, 0.016534417867660522, -0.018777113407850266, -0.05052260309457779, 0.022265732288360596, -0.10829050093889236, 0.39315348863601685, 0.05020454153418541, 0.049454767256975174, 0.024069270119071007, 0.08600006252527237, 0.06658095866441727, 0.1688249111175537, -0.2163802832365036, -0.02020150236785412, 0.22343824803829193, -0.0751722976565361, 0.018179235979914665, 0.10250239819288254, -0.12187496572732925, 0.07737215608358383, -0.2868148684501648, 0.004558999091386795, -0.04624387249350548, -0.20894023776054382, -0.17443715035915375, -0.04635424539446831, 0.020299753174185753, 0.08365551382303238, 0.023711416870355606, 0.2575867176055908, 0.24282345175743103, 0.1290643960237503, -0.12028657644987106, -0.09119628369808197, 0.022441476583480835, 0.1695239245891571, 0.0616283155977726, 0.2042490541934967, -0.16249655187129974, 0.06847499310970306, 0.045991040766239166, 0.03572750464081764, -0.01868838258087635, 0.12813007831573486, -0.08237847685813904, 0.10584782063961029, -0.05261017009615898, 0.33284661173820496, 0.04452492296695709, -0.01970229670405388, 0.04401190206408501, 0.14293019473552704, 0.029710175469517708, -0.26983389258384705, -0.10191170126199722, 0.07653430849313736, -0.26863202452659607, -0.008884209208190441, -0.08699846267700195, 0.22943243384361267, 0.14351123571395874, 0.1966991275548935, -0.08157865703105927, 0.08062166720628738, 0.12880848348140717, -0.21735095977783203, 0.02380211651325226, -0.29605183005332947, -0.09139198064804077, -0.029765555635094643, 0.027644308283925056, -0.041022103279829025, 0.17004741728305817, 0.08822185546159744, -0.19442667067050934, -0.06704474985599518, 0.069212406873703, -0.018853774294257164, -0.23643141984939575, -0.10085488110780716, 0.25735604763031006, -0.2113325297832489, -0.02939031645655632, -0.19577178359031677, 0.09718392044305801, 0.16993921995162964, -0.07181017845869064, 0.20167605578899384, 0.05484776198863983, -0.0029701432213187218, 0.06007472425699234, 0.09736406803131104, -0.3427579700946808, -0.14622336626052856, -0.023298421874642372, 0.16416731476783752, -0.2756384313106537, -0.1645594984292984, 0.26668763160705566, 0.22449137270450592, -0.04104843735694885, -0.23011480271816254, -0.1671326756477356, -0.21149712800979614, 0.04299212992191315, 0.03265594318509102, -0.008556586690247059, 0.1757863312959671, 0.09076525270938873, 0.14945559203624725, -0.23935292661190033, 0.2858368158340454, 0.23532946407794952, -0.14385177195072174, -0.26701951026916504, 0.027381742373108864, -0.07741933315992355, 0.02677815407514572, -0.040093399584293365, -0.7160395383834839, 0.1626008301973343, 0.07028881460428238, -0.16823609173297882, -0.03336111828684807, 0.18262642621994019, -0.07148944586515427, -0.1380791813135147, -0.03181041032075882, 0.1483161598443985, -0.066666379570961, -0.054728955030441284, -0.08391131460666656, -0.007031471934169531, -0.07569420337677002, 0.08684638142585754, -0.056143034249544144, 0.0865812599658966, -0.03832872211933136, -0.08713391423225403, -0.08814199268817902, 0.05571760609745979, 0.09106212854385376, 0.22340995073318481, -0.12861526012420654, 0.17698952555656433, 0.11782608926296234, -0.03982735425233841, -0.08298615366220474, 0.13348102569580078, 0.12730184197425842, 0.03308361768722534, 0.14878509938716888, 0.1154944971203804, -0.08771660178899765, 0.023157130926847458, 0.16616444289684296, -0.031449489295482635, 0.06524771451950073, 0.1401662528514862, -0.19025485217571259, 0.00370235089212656, 