{"version": "0.5.1", "metadata": {"date": {"year": 2023, "month": 4, "day": 30, "hour": 0, "minute": 27, "second": 1}, "loudness": -12.358606338500977, "gain": 0.7717713887364444, "name": null, "modeled_by": null, "gear_type": null, "gear_make": null, "gear_model": null, "tone_type": null}, "architecture": "WaveNet", "config": {"layers": [{"input_size": 1, "condition_size": 1, "head_size": 8, "channels": 16, "kernel_size": 3, "dilations": [1, 2, 4, 8, 16, 32, 64, 128, 256, 512], "activation": "Tanh", "gated": false, "head_bias": false}, {"input_size": 16, "condition_size": 1, "head_size": 1, "channels": 8, "kernel_size": 3, "dilations": [1, 2, 4, 8, 16, 32, 64, 128, 256, 512], "activation": "Tanh", "gated": false, "head_bias": true}], "head": null, "head_scale": 0.02}, "weights": [-0.037759024649858475, 0.4346882700920105, -0.9363647103309631, -0.8734521865844727, -0.5664694905281067, 0.17353974282741547, 0.007893162779510021, 0.7993110418319702, 0.04594692587852478, 0.2114819586277008, -0.39646202325820923, 0.0038658478297293186, -0.8345996737480164, -0.7068504691123962, -0.2704150676727295, 0.03883565962314606, -0.02766927145421505, -0.009791310876607895, -0.29264235496520996, 0.010848858393728733, 0.06487300992012024, -0.03439601883292198, -0.11447279155254364, 0.09052774310112, 0.136485293507576, -0.06757118552923203, 0.11747859418392181, 0.030718116089701653, -0.17530019581317902, -0.056029822677373886, 0.10132449865341187, 0.20882590115070343, -0.06843134760856628, -0.21789124608039856, -0.12169715017080307, -0.1223495677113533, 0.08672887086868286, 0.20575223863124847, 0.080131396651268, -0.08966980129480362, -0.04101061075925827, -0.048358410596847534, 0.19000671803951263, -0.04688688740134239, -0.0774134024977684, -0.21771705150604248, 0.010959568433463573, 0.07379298657178879, 0.1036040261387825, -0.07262527942657471, 0.03277655690908432, 0.16934680938720703, -0.019522611051797867, 0.006463058292865753, 0.25646620988845825, -0.16618208587169647, 0.013012690469622612, 0.050024162977933884, -0.17256774008274078, -0.08713685721158981, 0.22181132435798645, 0.09295230358839035, -0.10194817930459976, -0.13784447312355042, -0.011441431008279324, 0.07229878008365631, 0.011110775172710419, -0.1205182746052742, 0.23985539376735687, 0.1974804848432541, 0.04671585559844971, -0.20032140612602234, 0.0024865013547241688, 0.27621990442276, -0.026730084791779518, 0.0676870197057724, 0.19307246804237366, -0.27101248502731323, -0.038117632269859314, -0.23483462631702423, 0.020343592390418053, 0.18986408412456512, 0.15918618440628052, -0.3882136046886444, -0.14068153500556946, -0.18139927089214325, 0.1233106479048729, -0.01210848893970251, 0.17677955329418182, -0.19148124754428864, 0.013148397207260132, -0.0968366265296936, 0.22813911736011505, 0.09034011512994766, 0.012611547484993935, -0.24543018639087677, 0.013660729862749577, 0.1481378823518753, -0.20426002144813538, -0.0837184339761734, 0.28874674439430237, -0.05215414613485336, -0.12082720547914505, 0.12160804867744446, -0.28633221983909607, -0.059353817254304886, 0.04654676839709282, -0.25371238589286804, -0.06089816987514496, -0.11438698321580887, 0.08366940170526505, 0.12655231356620789, -0.1549226939678192, 0.148323655128479, -0.014437285251915455, -0.25328540802001953, 0.023808497935533524, -0.026909474283456802, 0.14655250310897827, -0.027032310143113136, 0.11250194162130356, 0.14055456221103668, -0.12917768955230713, 0.12387888133525848, 0.0014433616306632757, -0.13676457107067108, 0.021538851782679558, -0.1852741688489914, 0.018599573522806168, -0.17962433397769928, 0.09381229430437088, -0.06294497847557068, -0.09138966351747513, -0.1330057680606842, 0.16316650807857513, -0.07076919078826904, 0.13436825573444366, 0.009406889788806438, 0.11483641713857651, -0.04691566526889801, 0.17567946016788483, 0.02015908621251583, 0.27053871750831604, -0.06262852996587753, -0.061433374881744385, 0.02157651074230671, 0.07515044510364532, 0.025076894089579582, 0.05578664317727089, -0.16995669901371002, -0.08425652235746384, 0.011342912912368774, -0.08423079550266266, 0.13655534386634827, 0.21046890318393707, -0.1885242909193039, 0.14819753170013428, -0.2304604947566986, 0.001452360418625176, -0.1921219825744629, 0.013295331969857216, 0.06359162926673889, -0.08751311153173447, -0.07238814979791641, -0.008795812726020813, -0.13025906682014465, -0.10398440808057785, 0.04888136312365532, -0.01647457480430603, -0.05556768178939819, 0.11816441267728806, 0.05796917900443077, 0.07831943035125732, 0.028446946293115616, -0.023639051243662834, 0.12445306032896042, -0.011869753710925579, -0.16095082461833954, 0.016589807346463203, -0.18413808941841125, 0.08020351082086563, 0.00890276487916708, 0.11003872752189636, -0.0719984620809555, 0.0036796554923057556, 0.0007646558224223554, 0.025154944509267807, 0.018268810585141182, -0.10060331225395203, -0.019853297621011734, 0.07033967971801758, 0.08528159558773041, 0.00224998383782804, -0.04566587507724762, -0.15978103876113892, 0.019462762400507927, -0.12727662920951843, 0.04201358184218407, 0.03156653046607971, -0.0498645082116127, -0.0052633630111813545, 0.2064206898212433, -0.1553080976009369, -0.11341817677021027, 0.02368725650012493, 0.11735238879919052, -0.03712170571088791, 0.08504617214202881, -0.0012595482403412461, -0.20036590099334717, -0.13103646039962769, 0.02182668074965477, -0.13403970003128052, 0.014189548790454865, -0.056644078344106674, 0.1701531857252121, -0.1543709933757782, -0.12702813744544983, 0.2709871232509613, -0.15839643776416779, -0.06384322047233582, 0.3016001284122467, 0.009580065496265888, 0.047745995223522186, -0.29025328159332275, 0.09063806384801865, -0.06244887039065361, 0.20220081508159637, 0.03225673362612724, 0.03379068151116371, -0.15003085136413574, 0.1601662039756775, -0.02112100087106228, 0.18748725950717926, 0.03548112139105797, -0.025270486250519753, -0.06710747629404068, -0.052066151052713394, -0.1089525893330574, 0.20171934366226196, 0.011522202752530575, 0.07056374847888947, 0.055996380746364594, -0.06552530080080032, 0.02124994806945324, 0.009491853415966034, 0.061322979629039764, -0.1712127923965454, 0.1545604020357132, -0.06600474566221237, -0.1345735639333725, 0.15836523473262787, 0.07212822139263153, 0.0016922703944146633, -0.2575911581516266, -0.04955548793077469, -0.13216017186641693, -0.005022251978516579, -0.1588924676179886, -0.05214761197566986, -0.08443836122751236, 0.06727875769138336, 0.016962703317403793, 0.10246202349662781, 0.08226298540830612, -0.10023550689220428, -0.043224602937698364, 0.07366325706243515, 0.06869155168533325, 0.039382677525281906, -0.035432614386081696, -0.011082397773861885, -0.1348314881324768, -0.016597287729382515, -0.0372224859893322, -0.037236448377370834, 0.23820850253105164, -0.03607377037405968, -0.010349415242671967, 0.01066744327545166, 0.018756691366434097, -0.02589484117925167, -0.06253015995025635, 0.17132574319839478, 0.03107050433754921, 0.08639457076787949, -0.09905021637678146, 0.04443523660302162, 0.008667501620948315, -0.031092016026377678, -0.06232872232794762, 0.01089116744697094, -0.006505399942398071, -0.007051271852105856, -0.00521212350577116, -0.14006535708904266, 0.09775044023990631, -0.07572031766176224, 0.007449994329363108, -0.05136823654174805, -0.03973262757062912, 0.07795476913452148, -0.09604158997535706, -0.06491424888372421, -0.042068254202604294, -0.06371711939573288, -0.17176681756973267, -0.03428445756435394, 0.1925133764743805, -0.1458144187927246, -0.009365771897137165, -0.14665421843528748, 0.19828574359416962, 0.05719215050339699, -0.07149390131235123, 0.24293601512908936, 0.034275371581315994, -0.12489071488380432, 0.20487302541732788, -0.08325008302927017, 0.1433856040239334, -0.12740008533000946, -0.10655182600021362, -0.2110251635313034, 0.12219296395778656, 0.021984759718179703, 0.2082192748785019, -0.1289694458246231, 0.20720313489437103, -0.10102831572294235, 0.08213264495134354, -0.24928778409957886, 0.25102752447128296, -0.06789292395114899, 0.0171052198857069, -0.060721833258867264, 0.26613372564315796, 0.22512003779411316, 0.03713671863079071, 0.2578112781047821, 0.07285938411951065, -0.17578572034835815, 0.26160457730293274, 0.19196772575378418, -0.21035055816173553, 0.2770070433616638, 0.17917099595069885, -0.03967584669589996, 0.05563407018780708, -0.08572328835725784, 0.02401548996567726, -0.09648317843675613, -0.0006005470058880746, 0.07025804370641708, 0.08693888783454895, 0.14373908936977386, -0.007608749903738499, 0.19813060760498047, -0.19120614230632782, -0.014210826717317104, -0.2290991246700287, -0.22924372553825378, -0.15976296365261078, -0.015646036714315414, -0.01268130075186491, 0.08901545405387878, -0.017985830083489418, -0.043540798127651215, -0.05469576269388199, 0.09993833303451538, -0.12615178525447845, 0.09553835541009903, -0.1746743619441986, 0.01782502606511116, -0.0941719263792038, 0.04740848392248154, 0.05498668551445007, 0.07902345806360245, 0.0237642340362072, 0.20894022285938263, 0.1873941719532013, 0.10222389549016953, -0.020509054884314537, 0.08753709495067596, -0.07839478552341461, 0.08342994749546051, 0.0418149009346962, -0.004132008645683527, -0.1364058405160904, 0.024203889071941376, -0.11232957243919373, -0.12137562036514282, -0.12625539302825928, -0.21072910726070404, -0.19861528277397156, 0.048207975924015045, -0.02806107886135578, 0.03876432776451111, -0.06403134763240814, 0.2032034546136856, 0.12693101167678833, 0.024126645177602768, -0.06446808576583862, 0.13701753318309784, 0.10824243724346161, -0.005571856163442135, 0.12279659509658813, 0.05778283625841141, -0.1387382298707962, 0.0714385062456131, -0.1315750926733017, -0.11177443712949753, 0.1196139007806778, -0.03176677227020264, -0.1838688850402832, -0.0288079883903265, 0.012199844233691692, 0.04315369203686714, 0.032165367156267166, 0.09685776382684708, -0.07958377152681351, -0.07471313327550888, 0.05808563902974129, 0.1542312353849411, 0.10590729117393494, -0.11493756622076035, -0.0478154793381691, -0.10469908267259598, -0.028491156175732613, 0.11992961168289185, -0.1130967065691948, 0.00860514398664236, 0.04359149560332298, 0.011751576326787472, -0.10239612311124802, -0.11327570676803589, 0.02074061520397663, -0.1606936901807785, -0.017963126301765442, -0.13905984163284302, -0.1852485090494156, -0.2259499877691269, -0.034049324691295624, 0.05645732209086418, -0.21465586125850677, 0.15267851948738098, -0.022721050307154655, 0.059548381716012955, 0.15499991178512573, -0.11146365106105804, 0.27220630645751953, 0.049660127609968185, -0.009777195751667023, 0.1461062729358673, -0.08588703721761703, 0.258119136095047, -0.0766855925321579, 0.08320990204811096, 0.026072287932038307, -0.1258954107761383, -0.1246594488620758, 0.09173762798309326, -0.047771427780389786, -0.1253288984298706, -0.09836646169424057, 0.14669673144817352, 0.11635570973157883, 0.1435064971446991, -0.07286036014556885, -0.054657887667417526, -0.0748506709933281, 0.22569693624973297, 0.0832243487238884, 0.060307569801807404, -0.06129792705178261, -0.14985421299934387, -0.2550985813140869, 0.151542529463768, -0.07427798211574554, 0.20436882972717285, -0.1919107288122177, -0.021396789699792862, 0.04350045323371887, 0.03696716949343681, -0.001209745416417718, 0.2492918223142624, 0.005508142989128828, 0.09386751055717468, 0.14466425776481628, -0.12958399951457977, -0.025588469579815865, 0.14786292612552643, -0.017407376319169998, -0.04725116118788719, 0.03897349163889885, 0.10864553600549698, 0.16581018269062042, -0.12468282133340836, 0.2138449102640152, 0.4419671893119812, -0.2360491007566452, 0.09590549021959305, -0.2622220814228058, 0.17299909889698029, 0.11324578523635864, -0.40952765941619873, 0.13946397602558136, 0.053442519158124924, -0.38139039278030396, 0.1353025734424591, -0.04730001091957092, 0.4153180420398712, -0.13491669297218323, -0.05891092121601105, -0.19440945982933044, 0.2500626742839813, 0.09160242229700089, 0.3423670530319214, -0.006182831712067127, -0.00808015838265419, -0.21326521039009094, 0.10098093748092651, 0.05106804892420769, 0.23476560413837433, -0.15712635219097137, -0.044987183064222336, -0.20129595696926117, 0.05185219272971153, -0.008981319144368172, -0.33181270956993103, 0.22110047936439514, 0.05831361189484596, -0.4309993386268616, -0.02362785115838051, -0.11293861269950867, -0.3314867317676544, 0.05508589372038841, -0.10075835138559341, -0.37301328778266907, 0.11573328822851181, -0.08336906880140305, 0.3506672978401184, -0.11874528229236603, -0.06123298034071922, 0.039729055017232895, 0.24521049857139587, 0.01306254044175148, -0.03835442289710045, -0.014404253102838993, 0.14485344290733337, -0.07469774782657623, -0.16859254240989685, 0.1293005794286728, -0.03535926342010498, -0.006959980353713036, -0.025057325139641762, 0.02232079766690731, -0.07395316660404205, 0.07474814355373383, -0.05122823640704155, -0.1042800098657608, -0.05367811769247055, -0.08345965296030045, -0.04295182228088379, -0.1956804096698761, 0.07587305456399918, -0.0006705783889628947, -0.011769147589802742, 0.1298103928565979, 0.027425386011600494, 0.11844686418771744, 0.02351268380880356, -0.019638273864984512, -0.08451313525438309, 0.045479875057935715, 0.08265368640422821, -0.06725854426622391, -0.09024245291948318, 0.05178812891244888, 0.19978532195091248, 0.013976984657347202, -0.1509704291820526, -0.14133773744106293, 0.09086822718381882, -0.04554614797234535, -0.08624296635389328, 0.08480554074048996, 0.02588726207613945, 0.10521513968706131, 0.05408419296145439, 0.0213460773229599, -0.06255801767110825, -0.08039900660514832, 0.20311477780342102, 0.2155618518590927, -0.06183602288365364, -0.19766153395175934, 0.2079872488975525, 0.26115575432777405, 0.20443163812160492, -0.19735518097877502, 0.06806481629610062, -0.028348086401820183, 0.05648461729288101, 0.06899523735046387, 0.01459785457700491, 0.002759350463747978, -0.17654818296432495, -0.13683722913265228, 0.07497299462556839, 0.008699350990355015, -0.1399194896221161, -0.06883788108825684, -0.18754202127456665, -0.022824019193649292, 0.20061635971069336, 0.0763179212808609, -0.01765904761850834, 0.026726800948381424, -0.1123899519443512, -0.1595592498779297, 0.19107386469841003, 0.15325714647769928, -0.070217564702034, -0.12104497104883194, -0.02559344470500946, 0.18750053644180298, -0.04166679456830025, -0.010753645561635494, 0.06263726204633713, 0.014232993125915527, 0.16055914759635925, 0.1192394495010376, -0.062794528901577, 0.1796751171350479, 0.044388771057128906, -0.12390905618667603, -0.20137618482112885, -0.15802069008350372, 0.1555403470993042, -0.050032708793878555, 0.09117287397384644, 0.08809756487607956, 0.05959651246666908, -0.05241205170750618, 0.020234107971191406, -0.12337425351142883, 0.07999061793088913, -0.014454779215157032, -0.08088746666908264, 0.03740297630429268, 0.04281946271657944, 0.06990378350019455, -0.1513473093509674, -0.021752076223492622, -0.028316276147961617, 0.06301219016313553, 0.04656592011451721, -0.17075215280056, -0.02468632534146309, 0.03433353826403618, 0.008578633889555931, 0.145724356174469, -0.21184603869915009, -0.04889414831995964, 0.11882836371660233, 0.025991667062044144, 0.15769730508327484, 0.001325116609223187, 0.02892279252409935, -0.18515253067016602, -0.06766106933355331, 0.06571698188781738, -0.011907150968909264, -0.027112562209367752, 0.14968076348304749, -0.06439515203237534, -0.04425828531384468, 0.20292332768440247, -0.08587247878313065, 0.08355925232172012, 0.00370033155195415, -0.059950582683086395, -0.05030791833996773, 0.16188083589076996, 0.12183451652526855, 0.03649258241057396, -0.14919036626815796, -0.07450293749570847, 0.031474918127059937, -0.12491190433502197, -0.1560523957014084, 0.16941426694393158, 0.11778697371482849, 0.08220887184143066, -0.210691899061203, 0.13362324237823486, -0.03471631184220314, -0.04033874720335007, 0.05425642058253288, 0.008367788046598434, -0.02856249362230301, -0.09795782715082169, -0.04194251447916031, -0.015071195550262928, -0.05334780737757683, 0.10614866763353348, 0.045127272605895996, -0.0447385273873806, 0.022949211299419403, 0.05681171640753746, -0.10033630579710007, -0.03233931586146355, -0.14575976133346558, 0.21322189271450043, -0.10861682891845703, 0.07807239890098572, 0.008536813780665398, 0.17396947741508484, 0.05253276973962784, 0.1576448231935501, -0.012527416460216045, -0.03803708404302597, -0.03599829599261284, -0.013095318339765072, -0.03967295214533806, 0.164917454123497, -0.04239458218216896, 0.015300650149583817, -0.041875164955854416, 0.04103615880012512, 0.04186811298131943, -0.003349750768393278, -0.10105367004871368, -0.06621158123016357, 0.031018566340208054, 0.06116383522748947, -0.2968631088733673, 0.2859140932559967, -0.11956913769245148, -0.48062852025032043, 0.029870454221963882, 0.1412353813648224, 0.3328329026699066, 0.02677924558520317, 0.14490772783756256, 0.46723711490631104, -0.11595185101032257, 0.0024619672913104296, 0.3327830731868744, -0.1595815271139145, -0.027938665822148323, -0.259326308965683, 0.1702127605676651, -0.021923240274190903, 0.3576921224594116, -0.1318240910768509, 0.0842699483036995, -0.42952659726142883, -0.05928988382220268, -0.060617510229349136, 0.276572048664093, -0.3195764720439911, 0.10719572007656097, -0.3046332597732544, -0.05960243195295334, -0.01589788869023323, 0.48956403136253357, -0.1646214872598648, -0.06587767601013184, 0.3056918680667877, -0.1786876618862152, 0.09998997300863266, 0.4396412670612335, 0.053499385714530945, -0.07287326455116272, 0.5106980204582214, -0.12667632102966309, 0.16257667541503906, 0.21821312606334686, -0.1675684154033661, 0.09680556505918503, -0.28815340995788574, 0.1264209896326065, -0.072390116751194, -0.10361889749765396, -0.004407685250043869, -0.364618182182312, -0.07225057482719421, 0.10493586212396622, -0.010425498709082603, -0.06616844236850739, 0.24845103919506073, 0.053961507976055145, -0.03161633387207985, -0.0024075666442513466, -0.026076970621943474, -0.08162915706634521, -0.023370595648884773, 0.1554756760597229, 0.286647766828537, -0.3719336688518524, 0.748450756072998, -0.8252692818641663, 0.04933696240186691, 0.8774439096450806, 0.8507694005966187, -0.4446481168270111, 0.2721270024776459, 0.2016879767179489, -0.4585823118686676, -0.3392738699913025, 0.34330710768699646, -0.8046979308128357, 0.13881053030490875, 0.4649343490600586, -0.13423961400985718, 0.2976233959197998, 0.03921904414892197, 0.12085660547018051, 0.18160030245780945, -0.09847541898488998, 0.12245780229568481, -0.12091842293739319, -0.05491402745246887, 0.01820339635014534, -0.05188920721411705, -0.034286756068468094, 0.15537597239017487, -0.024216191843152046, 0.027561184018850327, -0.28098490834236145, -0.02391451969742775, -0.35868895053863525, -0.27971550822257996, 0.15937642753124237, 0.18684659898281097, -0.0034574682358652353, -0.35253214836120605, 0.12753906846046448, -0.07860449701547623, 0.26323696970939636, 0.35560593008995056, 0.0161273330450058, 0.12691648304462433, -0.042368631809949875, 0.01020856760442257, 0.5255811214447021, 0.13743379712104797, 0.06815335154533386, 0.10682757943868637, 0.29481807351112366, -0.23076778650283813, -0.22397057712078094, 0.22882212698459625, -0.01080753467977047, -0.076127789914608, -0.3169693350791931, 0.284695565700531, -0.23127450048923492, 0.024914788082242012, 0.31379225850105286, 0.22078445553779602, -0.08505360037088394, 0.0846986249089241, -0.1425265222787857, -0.07303432375192642, -0.08922930806875229, -0.13551008701324463, -0.01463205274194479, -0.1281052529811859, -0.05679154768586159, -0.2541125416755676, 0.03442363068461418, -0.03310833498835564, 0.06172177195549011, 0.09232471138238907, 0.23130181431770325, -0.22616255283355713, 0.12694959342479706, -0.06046276539564133, -0.3439137637615204, -0.3069826662540436, 0.36953863501548767, 0.01168857328593731, -0.0832122340798378, 0.062058303505182266, -0.039341628551483154, -0.07614770531654358, 0.048188745975494385, -0.01045751292258501, 0.28413963317871094, -0.1858982890844345, 0.37390628457069397, -0.07257600128650665, 0.03841625526547432, -0.22167983651161194, -0.07427040487527847, -0.12006454169750214, 0.07660112529993057, 0.22241581976413727, 0.20042812824249268, 0.016615627333521843, 0.03410255163908005, 0.08803503215312958, 0.03388730064034462, -0.17340056598186493, 0.12188799679279327, 0.014497756026685238, -0.05510126054286957, 0.011424249969422817, 0.07032592594623566, -0.06789541989564896, 0.3185576796531677, 0.297519713640213, 0.10286311060190201, -0.4327000379562378, -0.29237914085388184, 0.2737092077732086, 0.08195269107818604, 0.12331802397966385, -0.3679685592651367, -0.5204662084579468, 0.14057117700576782, 0.043916668742895126, -0.2238733023405075, 0.06707046926021576, -0.1925603449344635, 0.2131776362657547, 0.11253142356872559, 0.07222485542297363, -0.14798042178153992, -0.1850130707025528, 0.043856602162122726, 0.11990012973546982, 0.08518635481595993, 0.030772890895605087, -0.2507883310317993, 0.31962692737579346, -0.11104051023721695, 0.11947070062160492, -0.0042510367929935455, -0.12449367344379425, -0.0005178662831895053, -0.0037420829758048058, -0.031048087403178215, -0.09588553756475449, -0.13352788984775543, 0.3409273028373718, 0.05186160281300545, -0.27992352843284607, 0.038395002484321594, -0.23624184727668762, -0.05109218880534172, 0.1383296549320221, -0.18056327104568481, 0.08556413650512695, -0.2565646469593048, 0.005296595860272646, 0.07695674151182175, -0.4099333882331848, 0.15985393524169922, 0.24106337130069733, -0.36716875433921814, -0.20647764205932617, 0.10809656232595444, 0.032190509140491486, -0.25939667224884033, 0.13791535794734955, 0.34166958928108215, -0.1655338704586029, 0.03740254417061806, 0.40658560395240784, 0.02845202572643757, -0.24303381145000458, 0.12308596074581146, 0.13475093245506287, 0.1698179394006729, -0.22723513841629028, 0.21874111890792847, -0.1279638111591339, -0.23423276841640472, 0.06774722784757614, -0.022118905559182167, -0.02242233045399189, -0.22185389697551727, -0.10890330374240875, -0.02173426002264023, -0.1444350630044937, 0.15630027651786804, 0.09220413118600845, 0.2858101427555084, -0.012181276455521584, -0.16544516384601593, 0.06841295957565308, 0.04727573320269585, 0.032092589884996414, -0.10044186562299728, -0.1019207164645195, -0.18644371628761292, -0.10688086599111557, -0.05821504443883896, 0.21653173863887787, -0.06042017787694931, -0.03316684067249298, 0.18863129615783691, -0.16794565320014954, -0.20279374718666077, -0.007744809612631798, 0.14330823719501495, 0.2998516857624054, -0.15932945907115936, 0.3279424011707306, 0.07360613346099854, -0.023199040442705154, 0.08298134803771973, 0.3860439658164978, 0.16461829841136932, -0.5546789765357971, -0.1423434466123581, 0.3632839024066925, -0.47095787525177, -0.03789355978369713, 0.1378110945224762, 0.02397281304001808, -0.18941594660282135, -0.014940020628273487, 0.19914716482162476, -0.12823596596717834, 0.16462846100330353, 0.2797155976295471, 0.22820384800434113, -0.03773769363760948, -0.18606308102607727, 0.08654307574033737, -0.041927408427000046, -0.24730585515499115, -0.07799278199672699, 0.007105209399014711, 0.1521064192056656, -0.12010667473077774, 0.2550489902496338, 0.05197547376155853, -0.13434499502182007, -0.044822171330451965, 0.09139765053987503, 0.3180209696292877, 0.2197696417570114, -0.18985876441001892, 0.09940747916698456, -0.014483864419162273, -0.17095327377319336, 0.18720313906669617, 0.1405014991760254, -0.13533249497413635, -0.01815839856863022, 0.4061976969242096, -0.006893065292388201, 0.1503022313117981, -0.08456694334745407, 0.042470067739486694, 0.18938817083835602, 0.08497926592826843, 0.34175029397010803, -0.10066711902618408, -0.23201076686382294, 0.28962090611457825, -0.14218513667583466, -0.03875265643000603, 0.2642606198787689, 0.12935659289360046, -0.3791983425617218, 0.11021577566862106, -0.03568556532263756, 0.11338883638381958, -0.14575167000293732, -0.21550990641117096, 0.0003839038254227489, 0.06095924973487854, -0.003361649578437209, -0.0010160761885344982, -0.11234124004840851, 0.05822432413697243, 0.061097756028175354, -0.17453309893608093, 0.07734417170286179, 0.044487643986940384, -0.07543480396270752, 0.1262887716293335, 0.16303680837154388, -0.12021028995513916, -0.0031212661415338516, -0.21447300910949707, 0.1540972739458084, -0.20755934715270996, -0.126187264919281, 0.24420563876628876, -0.26883846521377563, -0.0976676270365715, 0.11835938692092896, -0.21434836089611053, -0.20646290481090546, 0.20696976780891418, 0.27987921237945557, 7.032856956357136e-05, -0.15472209453582764, -0.06262946873903275, 0.04586717486381531, 0.12541763484477997, 0.13261790573596954, 0.0027450411580502987, -0.34091562032699585, 0.03740214183926582, -0.04703155905008316, -0.21730390191078186, 0.021958131343126297, 0.21973173320293427, -0.26307111978530884, -0.2643330693244934, -0.1294415444135666, 0.20106442272663116, -0.10862090438604355, -0.029869379475712776, -0.04248788207769394, -0.10214478522539139, 0.2589842677116394, -0.14305812120437622, -0.19048428535461426, 0.0013740869471803308, 0.09652379900217056, -0.20757868885993958, 0.07529479265213013, 0.1662965714931488, 0.2142944633960724, -0.01805501990020275, -0.24992427229881287, 0.03800462931394577, -0.10176966339349747, -0.1057014912366867, -0.13228946924209595, 0.18447987735271454, 0.6028639078140259, 0.022644218057394028, 0.24332433938980103, 0.2007281631231308, -0.11383482068777084, 0.2434043139219284, 0.016339853405952454, 0.11186245828866959, 0.13093158602714539, 0.3015410006046295, -0.10962941497564316, -0.26556456089019775, -0.18500198423862457, 0.05535680055618286, -0.06334766000509262, 0.07850112020969391, 0.09170816838741302, -0.23332108557224274, -0.1552257537841797, -0.013883729465305805, -0.022126805037260056, 0.11775147914886475, 0.048819441348314285, -0.02426922880113125, 0.09937267750501633, 0.07550002634525299, 0.2372685968875885, 0.19888676702976227, -0.0327950194478035, 0.02234995737671852, -0.11108119040727615, -0.12741528451442719, -0.05881916359066963, 0.11504681408405304, -0.0009446933981962502, 0.18820428848266602, 0.05499907210469246, 0.008361422456800938, 0.011531387455761433, 0.15401440858840942, -0.05504962056875229, 0.03618556633591652, -0.41197454929351807, -0.11104680597782135, 0.12607476115226746, 0.1420411318540573, 0.20521597564220428, 0.11343787610530853, -0.3153093457221985, 0.1667417287826538, 0.1317591518163681, -0.027612745761871338, 0.2790451645851135, 0.0641578659415245, -0.1999731957912445, 0.30713576078414917, 0.06688734889030457, 0.018758585676550865, -0.17989806830883026, 0.021162400022149086, 0.18718484044075012, 0.1982365995645523, -0.08313388377428055, -0.20448170602321625, -0.2281884253025055, -0.15058952569961548, 0.2767423987388611, 0.16204138100147247, -0.02121087908744812, -0.26652583479881287, -0.04393341764807701, 0.06394529342651367, -0.4062785506248474, 0.060342852026224136, -0.09693939238786697, -0.08352510631084442, -0.070586197078228, -0.16523730754852295, 0.22133606672286987, 0.3573633134365082, -0.03888794407248497, -0.2670011520385742, 0.16156475245952606, 0.02471793442964554, -0.04221585765480995, 0.047201357781887054, 0.07055282592773438, -0.040862079709768295, -0.2725299000740051, 0.07584725320339203, 0.3234943151473999, -0.11941864341497421, -0.036899421364068985, 0.12232466042041779, -0.035732537508010864, 0.2465798258781433, 0.09597396105527878, 0.047375623136758804, -0.11123017966747284, -0.22520190477371216, 0.11394843459129333, 0.17835314571857452, -0.09681087732315063, 0.002636105287820101, 0.03740465268492699, -0.05035059526562691, -0.02282862924039364, 0.03537384420633316, 0.10140994936227798, 0.07035022974014282, -0.16650500893592834, 0.08163050562143326, -0.17000417411327362, 0.014819953590631485, 0.12761299312114716, 0.08059763163328171, -0.08595757186412811, 0.12508752942085266, 0.22356067597866058, -0.11465421319007874, 0.033871423453092575, 0.11317245662212372, -0.09308185428380966, -0.08206117898225784, 0.09141454100608826, 0.18845470249652863, 0.14694906771183014, 0.1957464963197708, 0.01692322827875614, -0.36927762627601624, 0.09684282541275024, -0.11809411644935608, -0.15958957374095917, -0.11451885849237442, -0.13585300743579865, -0.027110815048217773, -0.020500099286437035, 0.06683557480573654, 0.20389366149902344, -0.08146277070045471, -0.2090921700000763, -0.11273057758808136, -0.12323499470949173, 0.20172441005706787, -0.1249479204416275, -0.07335030287504196, 0.04859264940023422, 0.0018032327061519027, -0.09794432669878006, 0.1571349799633026, 0.14489546418190002, -0.0665518268942833, 0.016219519078731537, -0.06936601549386978, -0.050555311143398285, 0.09574281424283981, -0.1195807009935379, 0.24994461238384247, -0.16718880832195282, 0.07601163536310196, 0.02449847012758255, 0.023593753576278687, 0.10407999902963638, 0.09870941191911697, 0.33600476384162903, -0.12545619904994965, -0.1675523817539215, -0.024412700906395912, -0.05048447102308273, 0.1021413654088974, -0.012206689454615116, 0.010854799300432205, -0.17696180939674377, -0.029624873772263527, 0.046335142105817795, -0.04243786260485649, 0.15467359125614166, 0.025715643540024757, 0.0015536714345216751, 0.001843867008574307, 0.07743268460035324, 0.04427750036120415, -0.043811697512865067, -0.021097077056765556, 0.1322234570980072, -0.09318581968545914, -0.027441004291176796, 0.03723873198032379, 0.059331320226192474, -0.1570635735988617, -0.08395680785179138, 0.007906373590230942, 0.0819980651140213, -0.16785380244255066, -0.23003484308719635, 0.14152182638645172, -0.06429044157266617, -0.06824368983507156, 0.10216523706912994, -0.15766482055187225, -0.13564139604568481, 0.010171664878726006, 0.23564240336418152, 0.10579054802656174, -0.07290617376565933, 0.12610645592212677, -0.20115548372268677, -0.11812750995159149, 0.1318272203207016, 0.03841638192534447, 0.055876702070236206, 0.19718964397907257, 0.14610984921455383, 0.013922743499279022, 0.39551272988319397, 0.1495596319437027, -0.09246625751256943, 0.04302431643009186, -0.08353600651025772, 0.16399738192558289, 0.08745919167995453, 0.01995074935257435, 0.17656585574150085, 0.12592090666294098, 0.29299500584602356, 0.17248250544071198, -0.12023922055959702, -0.2669241428375244, 0.21646444499492645, -0.03145555034279823, 0.11916792392730713, -0.10615453124046326, -0.06016027182340622, 0.047682520002126694, -0.016845617443323135, 0.024677008390426636, 0.057779889553785324, -0.02234782464802265, 0.008058464154601097, 0.20100291073322296, -0.09869790822267532, 0.053906116634607315, -0.04644334316253662, -0.002833350095897913, 0.15332375466823578, -0.023401645943522453, -0.17787566781044006, -0.028975574299693108, 0.1280701905488968, -0.1013793796300888, 0.06851863861083984, 0.09395882487297058, 0.2995321750640869, 0.22916670143604279, -0.34535446763038635, -0.3179078698158264, -0.15215007960796356, 0.09981788694858551, 0.15817153453826904, 0.11176334321498871, 0.014848402701318264, -0.031132258474826813, 0.09328322857618332, -0.09976249188184738, -0.12376481294631958, 0.19308996200561523, -0.08785095810890198, -0.1285506784915924, -0.22465936839580536, 0.09199917316436768, 0.16105516254901886, 0.3366107642650604, -0.17937208712100983, -0.19474069774150848, 0.0967288389801979, 0.11158756166696548, -0.24564474821090698, -0.045049846172332764, -0.09270293265581131, -0.1755668967962265, -0.25949743390083313, -0.01852077804505825, 0.1189931333065033, -0.14149872958660126, -0.023178044706583023, 0.0257133636623621, 0.01519700326025486, -0.11195210367441177, -0.0843885987997055, -0.19461211562156677, -0.04484977200627327, 0.15549688041210175, -0.15159714221954346, -0.12106743454933167, -0.021658211946487427, -0.13570775091648102, -0.22762838006019592, -0.11299741268157959, 0.17691254615783691, -0.03983589634299278, -0.10140638053417206, -0.0457993820309639, 0.07619417458772659, 0.19832418859004974, 0.1816950887441635, -0.02110520750284195, -0.09436913579702377, -0.14375214278697968, -0.20756593346595764, 0.1412094086408615, 0.09024982899427414, 0.19150961935520172, 0.06394132971763611, -0.022918077185750008, -0.14792105555534363, 0.07420991361141205, 0.055018357932567596, -0.12784293293952942, -0.08959946781396866, -0.33726969361305237, 0.08106417208909988, 0.1161254271864891, -0.19724780321121216, -0.05543851852416992, -0.06811951845884323, -0.010172465816140175, 0.0867689773440361, 0.20874735713005066, 0.0709051862359047, 0.0017068048473447561, -0.09680234640836716, 0.12829408049583435, -0.056939829140901566, -0.35208094120025635, -0.3555450439453125, -0.1222854033112526, -0.08817753940820694, 0.12685060501098633, -0.02348676696419716, 0.26237156987190247, 0.03382595255970955, -0.03031403012573719, -0.005928555503487587, -0.00580088933929801, 0.015765884891152382, 0.07147069275379181, -0.06548279523849487, 0.17300641536712646, -0.1122947707772255, -0.16991783678531647, 0.00013260827108751982, 0.2880380153656006, -0.06817102432250977, -0.09495212882757187, -0.102759450674057, -0.22845663130283356, 0.03487406671047211, 0.3661489188671112, -0.16492342948913574, 0.15507076680660248, -0.119540736079216, -0.06795360893011093, -0.08168553560972214, 0.09754424542188644, 0.34123969078063965, 0.34768491983413696, 0.038110796362161636, -0.15029530227184296, 0.635150134563446, 0.26144298911094666, -0.036022912710905075, -0.09951034188270569, -0.0034303145948797464, -0.05296335741877556, 0.022639889270067215, 0.2595303952693939, 0.20222990214824677, -0.08091986924409866, -0.24605099856853485, -0.07671769708395004, -0.17243759334087372, 0.2707737386226654, -0.08113918453454971, 0.6282941699028015, -0.052496496587991714, -0.016208115965127945, -0.16888001561164856, -0.14963197708129883, -0.0374470129609108, 0.09253355115652084, -0.1431342214345932, 0.13758353888988495, -0.0300238486379385, -0.14613866806030273, -0.1466241180896759, 0.17700378596782684, 0.2618368864059448, 0.09081953018903732, -0.46933841705322266, 0.022023187950253487, -0.14148235321044922, 0.0723731517791748, 0.2374410182237625, -0.0595831535756588, 0.5087442398071289, -0.1664619892835617, -0.36131206154823303, -0.049404602497816086, 0.019919993355870247, -0.031170574948191643, -0.01820489391684532, -0.03419727459549904, 0.03532250225543976, -0.08984947949647903, 0.07706427574157715, -0.04706336557865143, -0.10954149067401886, 0.033168893307447433, -0.03615858405828476, 0.0003389894845895469, -0.06894181668758392, 0.0335833840072155, -0.09732823073863983, 0.09990295022726059, -0.0464535690844059, -0.07750871032476425, -0.012779716402292252, -0.039020173251628876, -0.09780379384756088, -0.19887669384479523, -0.12456933408975601, 0.054195914417505264, -0.08394880592823029, -0.042326271533966064, 0.11898328363895416, -0.01179564744234085, -0.16034583747386932, -0.02142191492021084, -0.06638365238904953, -0.02813914604485035, 0.0341494157910347, -0.20322871208190918, 0.03366384282708168, -0.002490687882527709, 0.10144295543432236, 0.15607713162899017, 0.22314980626106262, 0.17334343492984772, -0.03387008234858513, 0.019046494737267494, 0.10932079702615738, -0.06575895100831985, -0.2722490429878235, -0.13431428372859955, -0.020689217373728752, -0.3389410674571991, -0.012781688943505287, 0.08944981545209885, 0.009893979877233505, -0.12075459212064743, -0.11947426944971085, -0.15422280132770538, -0.08608967810869217, -0.06577793508768082, -0.30293548107147217, 0.09099729359149933, 0.049487803131341934, 0.05608896538615227, 0.033622559159994125, 0.22522108256816864, 0.09429877996444702, -0.015031781047582626, -0.10396914184093475, -0.11305645108222961, -0.0162770077586174, -0.1509888619184494, -0.10826009511947632, -0.02122572250664234, -0.04007198289036751, -0.23271360993385315, -0.3980751633644104, 0.003122243331745267, 0.17786186933517456, -0.0011120743583887815, 0.09710752218961716, 0.06051614508032799, -0.06498492509126663, 0.10556034743785858, 0.060462646186351776, -0.15888933837413788, -0.09981575608253479, 0.10759798437356949, 0.15513812005519867, -0.22502560913562775, -0.052960917353630066, 0.057900309562683105, 0.04297725856304169, 0.12827132642269135, 0.1294955462217331, 0.35166236758232117, -0.18366572260856628, -0.14387892186641693, -0.41780078411102295, -0.11471541225910187, -0.1061914712190628, -0.034098610281944275, -0.005959236063063145, -0.21686451137065887, -0.10481016337871552, 0.004799813963472843, 0.09667232632637024, -0.0540076307952404, -0.1251506805419922, 0.26390546560287476, 0.23854824900627136, 0.08801336586475372, -0.11927571892738342, 0.1691318154335022, 0.1123904287815094, -0.08625604957342148, -0.13938552141189575, 0.06575866043567657, 0.17453435063362122, -0.24290698766708374, 0.0299269687384367, -0.1699330061674118, 0.116702601313591, 0.07440097630023956, -0.0232082549482584, 0.12729381024837494, 0.15893273055553436, -0.08346173167228699, 0.012930150143802166, 0.06076784431934357, -0.07736802846193314, 0.20456917583942413, 0.023900162428617477, -0.12546515464782715, -0.1358736902475357, -0.22134776413440704, 0.1247606948018074, -0.031182365491986275, -0.04394287243485451, -0.11423635482788086, -0.15330633521080017, -0.12694717943668365, 0.0994785726070404, -0.14487098157405853, -0.14140239357948303, 0.15687021613121033, -0.0671389251947403, -0.18508324027061462, -0.23225367069244385, 0.16320335865020752, 0.1863507479429245, -0.0013094929745420814, 0.06881385296583176, -0.2824013829231262, -0.02229868620634079, 0.2735927700996399, -0.5907048583030701, -0.00856715440750122, 0.006656328681856394, 0.024307385087013245, -0.1211666464805603, 0.1422889083623886, -0.06323765963315964, -0.02784983068704605, 0.00396168977022171, 0.10739056766033173, 0.0793931633234024, -0.22159767150878906, 0.23675580322742462, 0.30462244153022766, 0.36733871698379517, 0.30285364389419556, 0.06931845843791962, 0.20400671660900116, -0.17543205618858337, -0.020844824612140656, -0.0006252764142118394, -0.07887046039104462, -0.10865835845470428, 0.08910610526800156, 0.030076514929533005, 0.05068499967455864, -0.144906148314476, 0.1259010285139084, 0.04104200005531311, -0.36478298902511597, -0.1314149647951126, -0.23761136829853058, 0.03305158019065857, 0.08346627652645111, 0.10249554365873337, 0.12641370296478271, 0.0800359845161438, 0.24928931891918182, -0.10550598055124283, -0.12209562957286835, 0.08131752908229828, 0.08078033477067947, -0.06300210952758789, -0.21459044516086578, 0.013808324933052063, -0.1080697774887085, -0.06913966685533524, -0.17831404507160187, -0.16367743909358978, -0.05766952037811279, 0.24192558228969574, 0.03784698247909546, -0.21561528742313385, -0.002172397682443261, -0.011896724812686443, -0.20007668435573578, -0.12484635412693024, -0.09943775832653046, 0.14113950729370117, -0.29587897658348083, 0.14745596051216125, 0.21605123579502106, 0.1564646065235138, 0.24383725225925446, -0.11204419285058975, 0.16533413529396057, 0.1926242560148239, 0.0008702361956238747, 0.0034517955500632524, -0.07276406139135361, -0.1494922786951065, 0.08900827914476395, 0.1258426457643509, -0.08808135986328125, -0.05395984649658203, -0.09522173553705215, 0.06162773817777634, -0.10627806186676025, -0.09315356612205505, -0.16854111850261688, -0.08411970734596252, -0.006844148971140385, 0.05630768835544586, 0.1979120671749115, 0.09917579591274261, 0.04154977574944496, -0.2615431845188141, -0.246608167886734, -0.09595175087451935, 0.16688913106918335, 0.1205257698893547, -0.041578322649002075, 0.14141352474689484, 0.08430852741003036, 0.2959825098514557, 0.05535440519452095, -0.2770116925239563, -0.29359087347984314, 0.22056223452091217, 0.103831946849823, -0.05534033104777336, -0.10230305045843124, 0.03066117875277996, -0.1580449342727661, -0.02508547157049179, -0.07559625059366226, 0.14466506242752075, -0.13101999461650848, 0.01559404470026493, -0.00761646730825305, 0.07939555495977402, 0.270993173122406, 0.017263324931263924, 0.09089740365743637, 0.06043727323412895, 0.027300477027893066, 0.19439777731895447, 0.12726618349552155, -0.14990757405757904, 0.10573495179414749, 0.10419445484876633, -0.003366949502378702, -0.09470193833112717, -0.1339401751756668, 0.05084335431456566, 0.14893050491809845, -0.08320853859186172, -0.3380630612373352, -0.07278256863355637, -0.14198419451713562, -0.012548316270112991, -0.06874486058950424, 0.12088118493556976, -0.09646245837211609, -0.030446188524365425, 0.16519352793693542, 0.11343244463205338, 0.1069752424955368, 0.11478815972805023, -0.18731240928173065, -0.07542911916971207, 0.010955591686069965, 0.18074241280555725, 0.1492561250925064, -0.0723191425204277, -0.010314399376511574, 0.06494349241256714, 0.1059986799955368, -0.16868698596954346, 0.05943775922060013, -0.21254795789718628, -0.1326570212841034, -0.10289119184017181, 0.11680791527032852, 0.26753610372543335, 0.20788373053073883, -0.014152984134852886, -0.05634192004799843, 0.05532136932015419, -0.07842428982257843, 0.1834360808134079, 0.17170287668704987, 0.18141251802444458, 0.01665293052792549, -0.016619939357042313, 0.14817923307418823, 0.1270514577627182, 0.08057945966720581, 0.04676502197980881, 0.14366625249385834, -0.17490237951278687, -0.5054467916488647, 0.31954798102378845, 0.34852325916290283, -0.49910449981689453, 0.08256296068429947, -0.8975264430046082, -0.19237536191940308, -0.3985224664211273, 0.6808366179466248, -0.8667670488357544, -0.4996689260005951, -0.9794552326202393, 0.19823044538497925, -0.6346288919448853, 0.345760703086853, -0.6495250463485718, -0.24933798611164093, -0.03786626085639, -0.13584017753601074, -0.05734981596469879, -0.025824841111898422, 0.00892720464617014, -0.323188841342926, -0.031753722578287125, 0.1272224485874176, -0.3278440833091736, 0.14953383803367615, 0.30167898535728455, 0.2048250287771225, -0.23014241456985474, -0.04510669410228729, -0.0597073994576931, 0.07829943299293518, -0.1903323531150818, 0.14301720261573792, 0.052776701748371124, -0.2335057556629181, 0.12656977772712708, 0.049446623772382736, -0.28824493288993835, 0.038360558450222015, -0.2490023374557495, 0.018885012716054916, 0.27511653304100037, -0.028078634291887283, 0.46277230978012085, 0.26537927985191345, 0.23511482775211334, 0.04547978937625885, -0.2811698913574219, -0.05777144804596901, 0.2841918468475342, 0.12066426128149033, 0.1527475267648697, 0.02313164435327053, 0.0748310536146164, -0.17056964337825775, 0.052712976932525635, -0.1288791298866272, -0.1688133031129837, -0.08568169921636581, 0.10018359869718552, 0.1202348843216896, 0.016738152131438255, 0.1410178542137146, 0.09717785567045212, -0.14107947051525116, -0.21478040516376495, -0.2246028035879135, 0.0017135186353698373, -0.01884870044887066, -0.09546969085931778, 0.025720227509737015, 0.041728854179382324, 0.08657269179821014, 0.3276449143886566, 0.16690988838672638, 0.129336878657341, 0.13057343661785126, 0.11157967895269394, 0.5281087160110474, -0.034397099167108536, -0.5507813096046448, -0.265241414308548, 0.1937979757785797, 0.015700271353125572, -0.1637459546327591, 0.28787127137184143, 0.22377173602581024, 0.010788336396217346, -0.019949739798903465, 0.20157253742218018, -0.22405526041984558, -0.17620743811130524, -0.13346673548221588, -0.1940009593963623, -0.25621896982192993, 0.007595141883939505, -0.23768949508666992, -0.09152063727378845, 0.011950474232435226, -0.2169327586889267, -0.0400838628411293, -0.0736343115568161, 0.29039549827575684, 0.18834099173545837, -0.09668534994125366, 0.12650251388549805, -0.08449780195951462, 0.0011794690508395433, 0.05847696214914322, 0.05179653316736221, 0.04802299663424492, -0.20559363067150116, 0.31250473856925964, -0.15316562354564667, 0.12064827978610992, 0.25740504264831543, -0.28197935223579407, -0.14777103066444397, -0.07291286438703537, -0.07938806712627411, 0.024742046371102333, 0.12718234956264496, -0.060961224138736725, -0.08633529394865036, -0.2804635763168335, 0.18559199571609497, 0.06285267323255539, 0.20967121422290802, 0.05032109096646309, 0.14970314502716064, 0.1376238763332367, -0.053968701511621475, -0.04223113879561424, 0.01677236519753933, -0.14309169352054596, 0.35122984647750854, -0.35866779088974, 0.1700093299150467, -0.10104794055223465, 0.20357811450958252, 0.24426330626010895, 0.13204997777938843, -0.05525051802396774, 0.08793405443429947, -0.16876550018787384, -0.13440589606761932, 0.03157229349017143, -0.2054997980594635, 0.006594030186533928, -0.2032458782196045, -0.036487579345703125, -0.16154450178146362, 0.3536277413368225, -0.2844793498516083, -0.16953431069850922, -0.18568696081638336, -0.023672251030802727, 0.3243549168109894, -0.2891918420791626, -0.07042407989501953, 0.4225497245788574, 0.051516879349946976, -0.017941463738679886, -0.09046438336372375, 0.22327187657356262, -0.09514696896076202, 0.13587446510791779, 0.037220560014247894, 0.11515605449676514, 0.36743730306625366, 0.2213267982006073, 0.15506276488304138, 0.13767431676387787, -0.043583035469055176, -0.06699395924806595, -0.18966665863990784, -0.15783974528312683, 0.07713152468204498, 0.14545993506908417, -0.12105359882116318, 0.005720979068428278, -0.09636314958333969, 0.09022506326436996, 0.3113706707954407, -0.07660190761089325, 0.06556209176778793, -0.0075005777180194855, 0.1276453584432602, -0.07660776376724243, 0.1687258929014206, -0.11762043833732605, 0.2783406376838684, -0.2810494601726532, -0.16144847869873047, -0.12632815539836884, -0.1548774540424347, -0.03605387732386589, 0.31523850560188293, -0.5963029265403748, 0.2988469898700714, 0.25057584047317505, -0.10725191235542297, 0.32326480746269226, 0.2774036228656769, 0.44886064529418945, -0.24056531488895416, -0.2153758555650711, -0.03498940169811249, -0.3163716495037079, -0.05754990503191948, 0.026683541014790535, 0.09684307128190994, -0.38481220602989197, 0.2060500681400299, -0.25865718722343445, 0.04808412864804268, -0.266336590051651, -0.24893073737621307, 0.2372499704360962, 0.0783107653260231, -0.0761663019657135, -0.09760868549346924, 0.2328522950410843, 0.011555823497474194, -0.23137147724628448, 0.14699016511440277, -0.3416428864002228, 0.14863796532154083, 0.06860486418008804, -0.04807746782898903, -0.05303794890642166, 0.10995524376630783, 0.14039097726345062, -0.11432299762964249, 0.06582774221897125, 0.14711996912956238, 0.14147362112998962, -0.038746096193790436, 0.022764792665839195, 0.18672654032707214, 0.12009695172309875, 0.03080582059919834, -0.13608190417289734, -0.15716306865215302, 0.25017979741096497, -0.09607526659965515, -0.15290416777133942, -0.1423661857843399, -0.07565197348594666, -0.10921450704336166, -0.12027342617511749, -0.15198376774787903, 0.06822369247674942, 0.2168889194726944, 0.28532859683036804, -0.15886877477169037, -0.2937505841255188, -0.033044394105672836, -0.2743813693523407, 0.07942114770412445, -0.31964173913002014, 0.2966040074825287, 0.04491639509797096, -0.1839587688446045, 0.20245757699012756, 0.07840166985988617, -0.2635144293308258, 0.06894942373037338, -0.20752042531967163, -0.3072715401649475, 0.03599439933896065, 0.030339043587446213, -0.059128500521183014, 0.07966528832912445, -0.1843530237674713, 0.04898690804839134, 0.11680027842521667, 0.04541892930865288, 0.24336357414722443, 0.06922644376754761, 0.0635920912027359, -0.14098520576953888, -0.01610725000500679, -0.12989062070846558, -0.027468759566545486, -0.16572105884552002, 0.034133680164813995, -0.2018377184867859, -0.21389172971248627, -0.034989990293979645, -0.13449212908744812, -0.13245970010757446, 0.47151005268096924, 0.014623160474002361, 0.04006461426615715, 0.18993264436721802, -0.03817806392908096, -0.06289059668779373, 0.32694950699806213, 0.05922059714794159, 0.018461838364601135, -0.3454170227050781, 0.026167962700128555, -0.06310749799013138, -0.03580685704946518, -0.04369639232754707, -0.05969321355223656, -0.21914421021938324, 0.10114548355340958, -0.143453449010849, -0.08684432506561279, 0.3015495836734772, 0.07600365579128265, -0.1766606569290161, 0.04679219052195549, -0.07240991294384003, 0.026072464883327484, 0.12557974457740784, -0.1094042956829071, -0.05338851362466812, -0.002828381722792983, 0.086463063955307, -0.18314729630947113, -0.12368662655353546, 0.046783506870269775, 0.29815781116485596, 0.29405444860458374, -0.03339588642120361, 0.06383520364761353, 0.024684065952897072, -0.2356663942337036, 0.16117101907730103, -0.19096732139587402, 0.005014787428081036, -0.08574572950601578, -0.15643157064914703, 0.009178539738059044, -0.13976798951625824, 0.20109593868255615, -0.05365663766860962, 0.30925068259239197, 0.19076856970787048, 0.04937334731221199, -0.003714368212968111, -0.08995631337165833, -0.04991639778017998, 0.3923909068107605, -0.14647632837295532, 0.0010905067902058363, -0.1637994796037674, 0.04378471523523331, -0.07267359644174576, 0.008893611840903759, -0.05362165719270706, 0.13234984874725342, -0.10756181925535202, -0.04812173917889595, -0.0922919437289238, 0.07003387063741684, -0.06929854303598404, -0.11113684624433517, -0.07401616871356964, 0.21994781494140625, 0.07159674167633057, 0.20154134929180145, 0.15464745461940765, 0.060835693031549454, 0.058583881705999374, -0.3160964548587799, -0.16058045625686646, 0.12036867439746857, 0.005394994281232357, 0.23791885375976562, 0.11440527439117432, 0.04085496813058853, -0.07115064561367035, -0.08987893909215927, 0.17669430375099182, 0.046128857880830765, 0.19754371047019958, -0.13914231956005096, -0.02151389978826046, -0.046571243554353714, -0.020481890067458153, -0.030825112015008926, -0.060385532677173615, -0.08443063497543335, 0.03914189711213112, 0.05657011643052101, 0.002233928069472313, 0.023655034601688385, -0.3790145218372345, -0.013080070726573467, 0.13769210875034332, -0.07273443043231964, -0.04570338875055313, -0.0027475901879370213, -0.02030441164970398, 0.06491775810718536, -0.04656610265374184, 0.04168718308210373, 0.060033369809389114, 0.14244738221168518, 0.29407384991645813, 0.05056432634592056, -0.0357162207365036, 0.21375879645347595, 0.1462782323360443, 0.19960752129554749, -0.07623536139726639, -0.09719734638929367, 0.012645808979868889, -0.3868294060230255, 0.11516983807086945, 0.06045909598469734, 0.1384175419807434, 0.1237296611070633, -0.0881064161658287, 0.045502595603466034, 0.09621429443359375, 0.028261149302124977, -0.04333142563700676, 0.04706967622041702, 0.15022431313991547, -0.017464492470026016, -0.3333093523979187, 0.0826619490981102, 0.0033720810897648335, 0.10580210387706757, -0.08794696629047394, -0.0500238798558712, -0.13466450572013855, 0.10299147665500641, -0.03020636923611164, -0.08865069597959518, -0.07573789358139038, 0.13910865783691406, 0.19152674078941345, -0.11417330801486969, 0.2844288647174835, 0.126628115773201, -0.10796327143907547, 0.03886329010128975, -0.06073988601565361, 0.03198304772377014, -0.05898527055978775, -0.2303142100572586, 0.13040846586227417, 0.2446240782737732, 0.10122444480657578, -0.06837297976016998, -0.2360849678516388, -0.06463371962308884, 0.08076965063810349, -0.15335170924663544, 0.11874962598085403, 0.07029816508293152, -0.12396901845932007, -0.1025640219449997, -0.30556467175483704, 0.27051886916160583, 0.10166896879673004, -0.05283181741833687, 0.07490823417901993, 0.018201317638158798, -0.039408620446920395, 0.038270048797130585, 0.16927270591259003, 0.09915013611316681, 0.23020444810390472, 0.07465791702270508, 0.1310621201992035, 0.04923049360513687, -0.08800617605447769, -0.08352894335985184, -0.1556963324546814, -0.1738836020231247, 0.1234574243426323, 0.059996433556079865, -0.24883873760700226, 0.1861676573753357, 0.15859214961528778, -0.09727557003498077, -0.14687278866767883, 0.11303911358118057, 0.10018690675497055, -0.08940046280622482, 0.10502312332391739, 0.17121495306491852, -0.12495950609445572, -0.11540378630161285, 0.10823454707860947, 0.03075375035405159, -0.04143808037042618, 0.023371683433651924, 0.0517558716237545, -0.02691839262843132, -0.11325351893901825, -0.0707135871052742, -0.24144984781742096, -0.07819429039955139, 0.04900868237018585, -0.03815029188990593, -0.1317005306482315, 0.0636412724852562, 0.1913517415523529, 0.08686831593513489, -0.08304113894701004, 0.08675283938646317, -0.07704823464155197, -0.0391588993370533, -0.20776204764842987, 0.20190304517745972, 0.009998561814427376, 0.06220491603016853, 0.14910338819026947, -0.014459640718996525, -0.02700089104473591, -0.08746568858623505, 0.042335230857133865, 0.1689848154783249, -0.07143860310316086, 0.10805515199899673, -0.13262388110160828, -0.1273798793554306, -0.021185632795095444, -0.006297425366938114, -0.15464621782302856, -0.07541333884000778, -0.02114999108016491, -0.044696733355522156, -0.022238684818148613, -0.30384090542793274, -0.09937021136283875, 0.0049554635770618916, -0.16911689937114716, -0.20141784846782684, 0.13121260702610016, -0.25903335213661194, -0.046363379806280136, -0.0655549019575119, -0.051735252141952515, 0.042273711413145065, 0.09709610044956207, -0.1269536167383194, -0.06535841524600983, 0.1540452092885971, 0.06867965310811996, 0.01453385315835476, 0.15229299664497375, 0.1426498144865036, -0.02973099611699581, -0.11100777983665466, 0.013938618823885918, -0.050988104194402695, 0.09552928060293198, -0.06045939773321152, 0.06624656915664673, 0.1471150517463684, 0.03928473964333534, 0.1287917047739029, -0.0011013876646757126, -0.03008032962679863, -0.195373997092247, -0.28963106870651245, -0.12931880354881287, -0.03947083652019501, 0.06913451105356216, 0.0361909344792366, -0.17018307745456696, 0.005173530895262957, 0.06987237930297852, 0.01993168704211712, -0.1422240436077118, 0.06287820637226105, -0.2866629958152771, -0.24184808135032654, -0.13710522651672363, 0.0909259095788002, 0.08702447265386581, -0.07844842970371246, -0.09807603061199188, -0.037561528384685516, -0.12647579610347748, 0.06426586210727692, 0.12707708775997162, -0.011119228787720203, -0.1725553572177887, 0.13032299280166626, -0.0383007749915123, 0.18757614493370056, -0.1344899833202362, -0.12393718212842941, -0.15594932436943054, -0.09296716749668121, 0.2153415083885193, 0.16352738440036774, -0.18132488429546356, -0.07050610333681107, -0.051486726850271225, 0.25095242261886597, -0.18486590683460236, 0.1431112289428711, -0.013401217758655548, -0.29815319180488586, 0.020383326336741447, 0.0383148267865181, 0.20105154812335968, -0.3140111267566681, -0.05430629476904869, -0.001996600301936269, -0.383443146944046, 0.254533588886261, -0.10750886797904968, -0.13423578441143036, 0.12787914276123047, -0.36058181524276733, -0.02005971223115921, 0.0991828590631485, 0.3464820683002472, -0.052409082651138306, -0.09693079441785812, 0.07885480672121048, 0.06567066162824631, -0.08145933598279953, 0.2070149928331375, 0.06315544247627258, 0.13711294531822205, -0.31845346093177795, 0.28677836060523987, 0.004011527635157108, -0.17955981194972992, -0.011017927899956703, 0.05664148926734924, -0.19581805169582367, 0.12171045690774918, -0.10533595085144043, 0.25266319513320923, 0.0953507348895073, 0.10047319531440735, -0.2508350908756256, -0.054539717733860016, 0.047747883945703506, 0.02032768353819847, 0.0860016793012619, 0.006507451646029949, -0.05844663828611374, -0.19677291810512543, -0.15937669575214386, 0.0006766847800463438, 0.0055589834228158, -0.08624399453401566, 0.011434786953032017, -0.14045123755931854, 0.03216820955276489, -0.054443273693323135, 0.15375995635986328, -0.20052435994148254, 0.08993585407733917, 0.18705278635025024, 0.11210248619318008, -0.26400256156921387, -0.1161889135837555, -0.00926830805838108, -0.02076355367898941, -0.14707592129707336, -0.056389711797237396, -0.12110700458288193, 0.04815133661031723, -0.04562966525554657, -0.0444960817694664, -0.04565650224685669, -0.1486765444278717, 0.11590106785297394, -0.27046361565589905, 0.05337667465209961, -0.2567686140537262, 0.06067271530628204, -0.0993514433503151, -0.10656525194644928, 0.08893243968486786, 0.18651077151298523, -0.2617233097553253, 0.06321649253368378, 0.013602005317807198, 0.05583485960960388, -0.0860045775771141, -0.11205219477415085, 0.04697318747639656, -0.036666158586740494, -0.08594309538602829, 0.1337701827287674, -0.0668477937579155, -0.04164614900946617, 0.16107594966888428, -0.09399479627609253, 0.1823805719614029, 0.13863469660282135, 0.013019703328609467, 0.15162327885627747, -0.07867217808961868, -0.08481945842504501, -0.034120041877031326, -0.019490277394652367, 0.27659478783607483, -0.11685822904109955, -0.027248812839388847, 0.09026845544576645, -0.19316044449806213, -0.08703679591417313, -0.0831565409898758, 0.1686202734708786, 0.12985144555568695, 0.060097936540842056, 0.04861535504460335, 0.05850451812148094, 0.18568509817123413, -0.08162648975849152, -0.0008584993192926049, -0.03278249502182007, 0.02139904350042343, 0.05944949761033058, 0.22781793773174286, 0.0061754705384373665, 0.2242722064256668, 0.07222289592027664, -0.020743366330862045, 0.04624006524682045, -0.049592189490795135, -0.16211533546447754, 0.18607643246650696, -0.09774154424667358, 0.06915134936571121, -0.13491398096084595, 0.02247452735900879, 0.022670697420835495, -0.020290425047278404, 0.20061729848384857, -0.15726488828659058, -0.14621397852897644, -0.11225606501102448, -0.08208943158388138, -0.027376893907785416, -0.2662016749382019, -0.03314947709441185, 0.036553122103214264, 0.06091098487377167, 0.007024901919066906, 0.24208343029022217, 0.12153486162424088, -0.11212491989135742, -0.13610799610614777, -0.11933696269989014, -0.08105770498514175, 0.1877034455537796, -0.20056910812854767, 0.15787622332572937, 0.0265402402728796, -0.15779276192188263, -0.10166016966104507, -0.0090389559045434, 0.2211926430463791, -0.14281371235847473, 0.09436911344528198, -0.15598346292972565, -0.0365368090569973, -0.0922091007232666, 0.05408286675810814, 0.09772925823926926, -0.13082587718963623, 0.1261661797761917, 0.11284099519252777, 0.07631722092628479, 0.09432245045900345, 0.09068945795297623, 0.05386469513177872, 0.0813353881239891, 0.09004276245832443, 0.3395710289478302, -0.17654898762702942, 0.13702797889709473, -0.07872134447097778, 0.04256107285618782, 0.022432222962379456, -0.062308419495821, 0.170465350151062, -0.08271268755197525, 0.0373251810669899, 0.07764148712158203, -0.030444728210568428, 0.04234924539923668, 0.048835448920726776, -0.0984952449798584, -0.2694978415966034, 0.054058823734521866, 0.03814864903688431, 0.029836149886250496, 0.07957106828689575, 0.08315851539373398, 0.3448239862918854, -0.28020179271698, -0.003247276647016406, -0.007394556421786547, -0.17130844295024872, 0.027582285925745964, 0.14937244355678558, -0.11749230325222015, -0.08549138903617859, -0.15906481444835663, 0.12224605679512024, -0.2304324209690094, 0.12661419808864594, -0.22291815280914307, 0.022893324494361877, 0.006615340709686279, -0.011426667682826519, 0.37014228105545044, -0.09559790790081024, 0.02158639021217823, 0.08002138137817383, 0.05027199909090996, 0.076597198843956, -0.138478621840477, -0.17063364386558533, 0.029044155031442642, 0.17981721460819244, 0.10306533426046371, 0.0025711737107485533, -0.08142076432704926, -0.10049150884151459, -0.14504274725914001, 0.034420982003211975, -0.19613100588321686, 0.21408399939537048, 0.13520555198192596, 0.1390351951122284, -0.06685595959424973, -0.20990347862243652, -0.12500441074371338, 0.016903096809983253, 0.06187893822789192, -0.23285584151744843, -0.006230222061276436, 0.23027174174785614, -0.1468660533428192, -0.0476030595600605, 0.0820118710398674, 0.274029016494751, -0.1651957780122757, 0.0722842738032341, 0.17316804826259613, -0.09206177294254303, 0.40497079491615295, -0.11139851808547974, -0.07681164890527725, 0.19896624982357025, -0.3038378357887268, -0.17632833123207092, 0.27997225522994995, 0.27056050300598145, -0.05104045569896698, -0.3325747549533844, 0.07038963586091995, -0.19461137056350708, 0.10684719681739807, 0.052685026079416275, -0.0037063774652779102, -0.2047552615404129, 0.06249473989009857, -0.15016382932662964, -0.14016523957252502, 0.10949894785881042, 0.04304584115743637, -0.10181208699941635, 0.22066666185855865, 0.037202611565589905, 0.04713674262166023, -0.145314559340477, -0.11789459735155106, 0.04170587286353111, -0.1587081104516983, 0.2106727659702301, -0.057456403970718384, -0.05709497258067131, -0.08964849263429642, 0.03930604085326195, 0.13484320044517517, -0.004845683462917805, 0.09612566232681274, -0.2769705355167389, 0.043218620121479034, -0.10408202558755875, 0.1637459099292755, 0.2153485119342804, -0.08985336869955063, 0.1461070477962494, -0.02294975146651268, 0.10744908452033997, -0.006930255331099033, 0.16618596017360687, 0.08063811808824539, 0.2793191969394684, 0.2383606880903244, 0.03415677696466446, -0.018828293308615685, 0.09228105843067169, -0.2454732209444046, 0.1635129302740097, -0.14455440640449524, 0.12342405319213867, 0.045650381594896317, -0.2539871335029602, 0.023360038176178932, 0.09486124664545059, -0.021954918280243874, -0.09197938442230225, 0.19938777387142181, 0.11438784748315811, -0.13545005023479462, 0.06900867819786072, 0.03180417791008949, 0.08572458475828171, 0.025516489520668983, -0.049724552780389786, 0.10806595534086227, -0.10612943768501282, -0.17276611924171448, 0.020278796553611755, 0.09687422215938568, 0.08268100768327713, 0.039450112730264664, -0.25333184003829956, 0.0652056634426117, -0.0297752283513546, -0.011520463041961193, 0.031596578657627106, -0.0824035108089447, -0.02517707087099552, 0.10282178968191147, 0.09678187221288681, 0.26340609788894653, 0.15474848449230194, -0.1574641913175583, -0.033614564687013626, -0.018147416412830353, 0.0050477320328354836, 0.0063945334404706955, 0.055325813591480255, -0.06758949905633926, 0.18538875877857208, 0.23137448728084564, -0.13169057667255402, -0.04093541204929352, 0.12488891184329987, -0.15398482978343964, -0.10879364609718323, -0.3872636556625366, 0.04997539520263672, 0.21241283416748047, 0.04083193466067314, 0.3102659583091736, 0.12116028368473053, -0.07923824340105057, 0.008834839798510075, -0.034337420016527176, 0.21267400681972504, 0.11858757585287094, -0.08610881119966507, -0.023298468440771103, -0.009284144267439842, -0.33427196741104126, 0.18285349011421204, -0.5424101948738098, 0.12519176304340363, -0.1536417305469513, -0.08704746514558792, 0.05608939379453659, -0.03183628246188164, 0.03638831898570061, -0.03496038541197777, -0.10416916012763977, 0.04413526877760887, 0.06865739077329636, 0.040395330637693405, 0.06490645557641983, 0.2685086727142334, -0.13175174593925476, 0.11772023886442184, -0.003916184417903423, 0.08193174004554749, 0.036053940653800964, -0.3625035881996155, 0.5054212808609009, -0.3634556233882904, -0.09295031428337097, 0.41071510314941406, -0.27625420689582825, -0.08295467495918274, -0.018582256510853767, 0.003377821296453476, 0.16638395190238953, -0.03987184166908264, 0.12449879944324493, -0.1692635864019394, 0.04365599527955055, -0.14823734760284424, -0.09372895956039429, 0.2573448121547699, 0.10321080684661865, 0.15678001940250397, -0.058404095470905304, 0.050992000848054886, 0.27028998732566833, 0.077948197722435, -0.02344733476638794, -0.03317210450768471, 0.10486508160829544, 0.01873665116727352, -0.02220882847905159, 0.42141178250312805, 0.044017523527145386, -0.07146687805652618, -0.11380916088819504, 0.00898820161819458, 0.3192753493785858, -0.046045057475566864, -0.219499871134758, -0.07186359912157059, -0.03658409044146538, 0.12038099765777588, 0.02773415297269821, 0.02773466520011425, -0.015295512042939663, 0.015959177166223526, -0.19578754901885986, -0.18486547470092773, 0.10182316601276398, -0.12691666185855865, -0.0703185647726059, -0.2798707187175751, 0.18505516648292542, 0.19157081842422485, -0.09369472414255142, 0.14891894161701202, -0.07767921686172485, 0.05013081431388855, 0.15587450563907623, -0.1583542674779892, 0.3067598342895508, -0.044098615646362305, -0.05350351706147194, -0.19232097268104553, -0.05395752191543579, 0.24121084809303284, 0.1763329654932022, 0.013286525383591652, 0.3163461685180664, -0.06381437182426453, -0.0029760231263935566, 0.09474556893110275, 0.004309593699872494, -0.10778592526912689, 0.18086311221122742, -0.055962689220905304, 0.0500263050198555, 0.1004173532128334, -0.048867542296648026, 0.05411476641893387, -0.004351806826889515, -0.013893346302211285, -0.12261519581079483, -0.42863476276397705, 0.6291797757148743, 0.4267396628856659, -0.3988450765609741, -0.04915519803762436, -0.3005039095878601, -0.19895650446414948, 0.28606265783309937, -0.5911821126937866, 0.992509126663208, 0.509949803352356, 0.23880784213542938, -0.20917052030563354, 0.11902860552072525, -0.6541981101036072, 0.0007591402973048389, -0.16105832159519196, 0.16514354944229126, -0.43478038907051086, 0.08054082840681076, 0.2964820861816406, 0.22750845551490784, 0.10920047760009766, 0.2770664393901825, 0.015043213032186031, 0.17207136750221252, 0.15227855741977692, -0.3753378093242645, -0.09900958091020584, -0.02070572040975094, -0.24056734144687653, 0.34593862295150757, 0.1560966819524765, -0.3062282204627991, 0.42843687534332275, 0.27361172437667847, -0.02093353495001793, -0.010777809657156467, -0.3788835108280182, -0.424479603767395, 0.2849627733230591, 0.1471863090991974, -0.09939727932214737, 0.16364769637584686, 0.4254913926124573, 0.05892350152134895, -0.025114664807915688, 0.05117950215935707, -0.013357121497392654, -0.0998576208949089, -0.13738536834716797, 0.06327789276838303, -0.38563424348831177, 0.07829321920871735, -0.4238004684448242, -0.4523826539516449, 0.14275778830051422, 0.25044670701026917, 0.20529316365718842, 0.354047954082489, -0.2754609286785126, -0.3793754577636719, 0.32729318737983704, -0.06342203170061111, -0.15231463313102722, 0.1542905867099762, -0.2765658497810364, 0.030638884752988815, 0.3248446583747864, -0.2691349387168884, 0.5070309638977051, 0.338616281747818, -0.09249914437532425, -0.02905326336622238, 0.3386605978012085, -0.2253217250108719, 0.10032771527767181, 0.1794867217540741, -0.009265976026654243, -0.01647598296403885, -0.09998153150081635, 0.3250230848789215, -0.388363778591156, 0.26334917545318604, 0.07926980406045914, 0.29258111119270325, 0.014797921292483807, 0.2677913010120392, -0.06877966970205307, -0.41698920726776123, 0.308628648519516, -0.22121745347976685, -0.12615394592285156, 0.3536545932292938, 0.10625838488340378, 0.1446056067943573, -0.0353933610022068, 0.10037364065647125, 0.10373172909021378, -0.2597121596336365, -0.19267292320728302, 0.21447722613811493, -0.0827394649386406, -0.23547080159187317, -0.26100048422813416, -0.15970465540885925, 0.19462156295776367, 0.27220460772514343, 0.14707255363464355, 0.31052157282829285, 0.02576129324734211, 0.27133285999298096, 0.1950344741344452, -0.23985075950622559, 0.1495344638824463, 0.3040253221988678, -0.24526391923427582, 0.01143092941492796, -0.15626774728298187, -0.2669786810874939, 0.21066468954086304, 0.30822402238845825, -0.1561688631772995, 0.2828969657421112, 0.19955290853977203, -0.0020948091987520456, 0.15087376534938812, 0.42389827966690063, 0.29275915026664734, -0.28121882677078247, -0.015843205153942108, 0.04881312698125839, -0.030667388811707497, 0.3279561698436737, -0.14171862602233887, -0.09266916662454605, 0.1063939779996872, 0.42863988876342773, 0.44560930132865906, 0.16294515132904053, 0.11594367027282715, -0.00506687443703413, -0.2616288363933563, -0.3658681809902191, 0.18588311970233917, -0.025394607335329056, 0.04437810182571411, 0.1483774483203888, 0.24007879197597504, -0.14648500084877014, 0.17797629535198212, 0.03481435030698776, -0.034186530858278275, 0.019460264593362808, 0.29483720660209656, -0.47362586855888367, -0.1954115778207779, -0.06162047013640404, -0.08414340764284134, 0.2051437795162201, -0.08637668937444687, -0.28311851620674133, 0.2947434186935425, 0.126687690615654, 0.03166280686855316, -0.4374264180660248, -0.16717106103897095, -0.10494788736104965, 0.08458633720874786, -0.007368798833340406, -0.2877723276615143, -0.04017140716314316, 0.0390518419444561, 0.29938116669654846, 0.033097781240940094, 0.2153117060661316, -0.23587611317634583, -0.15084519982337952, -0.20472650229930878, 0.20440773665905, -0.16708935797214508, 0.08249920606613159, -0.06438165158033371, 0.24471233785152435, 0.06248544901609421, -0.5034134387969971, 0.25503456592559814, -0.028345586732029915, -0.2506933808326721, 0.029246173799037933, 0.4864947497844696, 0.0777684897184372, 0.2512113153934479, -0.08425464481115341, 0.030688095837831497, -0.16387856006622314, 0.152472123503685, 0.35835498571395874, -0.0184114258736372, -0.29797035455703735, -0.16842392086982727, -0.06861048936843872, 0.10669543594121933, -0.3177649676799774, -0.2814768850803375, -0.052738141268491745, 0.12903158366680145, -0.4640374779701233, -0.3766733407974243, 0.04384232684969902, -0.266681969165802, 0.21556249260902405, 0.10958100110292435, -0.38191670179367065, -0.0899806097149849, 0.37198734283447266, -0.09449378401041031, -0.40556028485298157, -0.17355650663375854, -0.45054763555526733, 0.06369742751121521, 0.2653281092643738, -0.04998529329895973, -0.3627488911151886, 0.009252559393644333, -0.21405541896820068, -0.024134213104844093, 0.16196684539318085, 0.010910607874393463, 0.12769266963005066, -0.10071855783462524, 0.26629745960235596, 0.032250769436359406, -0.00315540237352252, -0.2674783170223236, -0.26050373911857605, 0.21966101229190826, -0.09599535167217255, 0.13899724185466766, 0.12951864302158356, 0.3811142146587372, -0.13672727346420288, 0.10419420152902603, -0.06623627990484238, -0.10356767475605011, 0.18144120275974274, -0.32608452439308167, 0.04076956957578659, 0.25849342346191406, 0.530278205871582, 0.27725133299827576, 0.08275248855352402, 0.11646369844675064, -0.13539239764213562, -0.272279292345047, -0.08555717021226883, 0.015078643336892128, 0.03215783089399338, -0.24373632669448853, -0.2957826554775238, 0.002319939201697707, 0.0937485471367836, -0.29984092712402344, -0.05551425740122795, 0.04023955389857292, 0.22783255577087402, 0.18318511545658112, -0.15797999501228333, -0.2435801774263382, -0.09276548027992249, -0.040684252977371216, 0.08082058280706406, 0.09737414121627808, -0.05945646017789841, 0.16946493089199066, -0.10141463577747345, -0.0903540551662445, 0.11141859740018845, -0.08646319806575775, 0.06466498970985413, -0.03726450353860855, 0.04129695147275925, 0.03673359751701355, 0.17634372413158417, 0.2840043604373932, 0.06089014932513237, -0.13201682269573212, 0.21147038042545319, -0.0561474971473217, -0.06988698989152908, -0.12344816327095032, 0.02244453877210617, 0.18277359008789062, 0.08697208017110825, -0.11086195707321167, 0.02942010574042797, -0.07258408516645432, -0.008501064032316208, 0.15036417543888092, 0.04549267515540123, -0.11645298451185226, -0.16026628017425537, 0.1344335824251175, 0.10635463893413544, 0.0405559167265892, 0.04092301055788994, -0.0912972092628479, 0.1043001189827919, -0.02993817813694477, 0.18962852656841278, 0.02061939612030983, -0.14500996470451355, 0.06984835118055344, -0.22120365500450134, -0.04560798406600952, 0.09122440218925476, 0.06832101196050644, -0.24228963255882263, -0.16383542120456696, 0.19254069030284882, 0.07623740285634995, -0.16892509162425995, -0.38457807898521423, -0.10972627997398376, 0.1375441700220108, -0.06154004484415054, -0.04234590753912926, -0.10610544681549072, -0.006980241276323795, -0.1632857769727707, -0.2288494110107422, -0.03271215781569481, 0.07872949540615082, 0.040030281990766525, -0.08864140510559082, -0.047205958515405655, 0.22074851393699646, 0.012824482284486294, 0.1713142991065979, -0.13388057053089142, -0.18746574223041534, 0.1314993053674698, -0.03252944350242615, 0.2274961620569229, 0.033292729407548904, 0.18842434883117676, 0.04117901995778084, -0.016636542975902557, -0.03238183632493019, 0.07182396203279495, -0.146257683634758, 0.03463063761591911, -0.12285098433494568, -0.0011965995654463768, 0.12733544409275055, -0.12957945466041565, -0.11641709506511688, 0.008763485588133335, 0.20015007257461548, 0.4276420474052429, 0.06449435651302338, -0.017563926056027412, 0.15271654725074768, 0.23462730646133423, 0.042830124497413635, 0.1754942387342453, 0.1144518256187439, -0.23350274562835693, 0.04227377101778984, 0.043388281017541885, 0.035799454897642136, -0.1033804789185524, -0.18770335614681244, -0.23688827455043793, -0.036725740879774094, 0.10270211100578308, -0.22261905670166016, 0.11671318113803864, 0.15199114382266998, 0.010714063420891762, -0.1372915655374527, -0.03585566207766533, 0.14194652438163757, -0.12877775728702545, -0.09062967449426651, 0.12536710500717163, 0.12770886719226837, -0.004082303959876299, -0.21409566700458527, -0.20880858600139618, -0.4143499433994293, 0.0905696451663971, -0.013170610181987286, -0.029315050691366196, -0.050701748579740524, 0.06231826916337013, -0.10184725373983383, 0.04252569377422333, -0.06510751694440842, 0.0008706020307727158, 0.0540577657520771, 0.041073765605688095, 0.07573504745960236, -0.20988179743289948, 0.0843188464641571, 0.08264399319887161, -0.07659859210252762, 0.03173486515879631, 0.20023152232170105, 0.09339215606451035, 0.16198435425758362, 0.022851724177598953, -0.0181695818901062, 0.031641922891139984, -0.043221235275268555, -0.09277449548244476, -0.10840001702308655, -0.14641064405441284, -0.02377955988049507, 0.06226622685790062, 0.25935813784599304, 0.02708851918578148, -0.09914351254701614, -0.10302013903856277, -0.13936755061149597, 0.09876518696546555, -0.18054264783859253, -0.13482725620269775, -0.13790515065193176, 0.033119991421699524, 0.0787670686841011, 0.1174125224351883, 0.22644302248954773, -0.026191672310233116, -0.15008604526519775, -0.01581484079360962, 0.13873714208602905, 0.08282018452882767, 0.19215579330921173, -0.05133935809135437, -0.04342455044388771, 0.15532055497169495, -0.029231766238808632, 0.1350444108247757, 0.19109989702701569, -0.13709519803524017, 0.11257324367761612, -0.11242540925741196, -0.08949460089206696, 0.0407252237200737, -0.030638569965958595, 0.08318309485912323, 0.09152388572692871, -0.023285282775759697, 0.17403338849544525, -0.11637961119413376, -0.08596107363700867, -0.06533017754554749, -0.2134246677160263, -0.10240314155817032, 0.051495615392923355, -0.11133990436792374, 0.22458341717720032, -0.03153516352176666, 0.15118058025836945, 0.27230387926101685, 0.036457743495702744, -0.025688612833619118, 0.03169909864664078, -0.1017371267080307, -0.014359399676322937, 0.17228242754936218, 0.03970073536038399, -0.2525891959667206, 0.10489792376756668, 0.006257857196033001, 0.058277517557144165, 0.06491798907518387, -0.13523544371128082, 0.09168057143688202, -0.06607262790203094, -0.06288143247365952, 0.013384747318923473, 0.16071736812591553, 0.03921743854880333, -0.12390919774770737, -0.06120273098349571, -0.09789574146270752, 0.10059880465269089, -0.11575426161289215, 0.13422289490699768, 0.34535372257232666, -0.48322322964668274, 0.025273069739341736, -0.09526728093624115, 0.10661492496728897, -0.05844057351350784, -0.13074693083763123, -0.00898049771785736, 0.09505272656679153, -0.0444260872900486, 0.128667950630188, -0.45320799946784973, -0.1566143035888672, -0.035463351756334305, -0.23650501668453217, -0.21233685314655304, 0.009401004761457443, -0.022534942254424095, 0.010268598794937134, -0.33319157361984253, 0.012863170355558395, 0.2884294390678406, -0.32241371273994446, -0.0001434794394299388, -0.07930045574903488, -0.0517612025141716, 0.18858709931373596, -0.1586902141571045, -0.1660873144865036, -0.06397054344415665, -0.04319575056433678, 0.14710722863674164, -0.022953588515520096, 0.13647876679897308, -0.23806238174438477, -0.06747198849916458, -0.22316306829452515, -0.18166223168373108, -0.024331441149115562, 0.07912912964820862, 0.05076739564538002, -0.15293371677398682, -0.021263878792524338, 0.15541455149650574, 0.4964449405670166, 0.017526106908917427, -0.008455426432192326, -0.16656367480754852, 0.01402315404266119, -0.2483525425195694, -0.04905646666884422, -0.22127951681613922, -0.1828434020280838, 0.1119283065199852, 0.06625111401081085, 0.08297953009605408, -0.04613826796412468, -0.0633690282702446, -0.1382530927658081, 0.16919562220573425, 0.08921381831169128, -0.11685284227132797, -0.23846560716629028, 0.11774866282939911, 0.18337631225585938, -0.06288262456655502, 0.10282785445451736, -0.15028221905231476, -0.1291947364807129, -0.0998583659529686, -0.20565097033977509, 0.16476333141326904, 0.07008007913827896, -0.1020064726471901, -0.34587207436561584, 0.08615899085998535, -0.04271215572953224, -0.18446597456932068, 0.06974822282791138, -0.020382678136229515, -0.1153554916381836, -0.120663121342659, 0.07302608340978622, 0.09876440465450287, 0.1853451132774353, 0.11090850085020065, -0.16665250062942505, -0.13723714649677277, -0.09529836475849152, 0.09377477318048477, -0.005432669073343277, 0.23014818131923676, 0.12492220848798752, -0.2676638960838318, -0.013421962037682533, -0.13392825424671173, -0.03432288020849228, 0.2190173864364624, -0.03326307609677315, -0.10985323786735535, -0.12785612046718597, -0.07604200392961502, -0.18497872352600098, -0.1693972498178482, -0.03043130226433277, 0.18191903829574585, -0.10484940558671951, 0.05618195980787277, -0.16100572049617767, 0.2798541486263275, 0.10956516116857529, -0.04623423516750336, -0.07262399792671204, 0.06347689032554626, -0.01351579837501049, 0.1392127275466919, 0.05755532905459404, -0.037759844213724136, -1.875418638519477e-05, -0.06720457226037979, 0.0540032759308815, -0.1504622846841812, -0.20022128522396088, -0.2433445155620575, 0.03095213882625103, -0.033820319920778275, -0.12370388954877853, 0.1727856695652008, 0.1635114550590515, 0.1585702747106552, 0.01688329130411148, -0.2045406848192215, 0.031815703958272934, -0.03774755820631981, -0.09585445374250412, 0.030209442600607872, -0.04340535029768944, 0.20212087035179138, -0.4410892426967621, -0.30061104893684387, 0.03690769523382187, -0.14588002860546112, 0.29587069153785706, -0.029322968795895576, -0.15144307911396027, 0.3415933847427368, -0.1351684331893921, -0.2165260910987854, 0.07037785649299622, -0.38311833143234253, -0.018096942454576492, -0.2207675725221634, 0.08870844542980194, -0.5826672911643982, -0.23410263657569885, -0.06834927946329117, 0.15085271000862122, 0.2317054569721222, 0.03526633232831955, -0.11134681105613708, -0.17937512695789337, 0.026477618142962456, -0.16966891288757324, 0.13822059333324432, -0.21334689855575562, -0.05101662874221802, -0.03203659877181053, -0.005463809240609407, 0.4867357015609741, 0.3634040653705597, 0.10648313164710999, 0.10666915774345398, -0.0416877306997776, 0.11702568829059601, -0.1575118601322174, -0.10958542674779892, 0.029506996273994446, 0.0012142873601987958, -0.11627963930368423, -0.02164463698863983, -0.1500800997018814, 0.0831310898065567, 0.1742757260799408, 0.1983650028705597, -0.01616390235722065, -0.047938115894794464, -0.07639885693788528, -0.24491901695728302, 0.04347020015120506, 0.05272664874792099, -0.21775281429290771, 0.027335474267601967, -0.22096100449562073, -0.1512308567762375, 0.1590009480714798, -0.2229558825492859, 0.0820140689611435, 0.08994574844837189, 0.015516571700572968, -0.06877867132425308, -0.177988663315773, -0.03820233792066574, 0.14416612684726715, -0.11961639672517776, 0.18311382830142975, -0.15486320853233337, -0.09833791106939316, 0.19248999655246735, 0.23203401267528534, -0.154788076877594, 0.11315394937992096, -0.3183722496032715, -0.04382698982954025, 0.09036590158939362, -0.03855579346418381, 0.02314894273877144, 0.16694794595241547, -0.02062610536813736, -0.025885436683893204, -0.010979038663208485, 0.03123200498521328, -0.11085932701826096, 0.12046477198600769, 0.008243066258728504, -0.12255128473043442, -0.06590689718723297, -0.008736025542020798, 0.2248729020357132, -0.2565346658229828, -0.289395272731781, -0.12120601534843445, 0.2828372120857239, -0.06944163888692856, 0.08699673414230347, -0.07858336716890335, 0.1634947508573532, 0.08881939202547073, 0.24869535863399506, -0.5581007599830627, 0.11121752113103867, -0.16709136962890625, 0.07317660748958588, 0.25955161452293396, 0.01465611346065998, -0.6673168540000916, 0.26224058866500854, 0.13279859721660614, -0.008549406193196774, 0.13180020451545715, -0.11017146706581116, -0.16885428130626678, 0.21790184080600739, 0.3024948537349701, -0.30464184284210205, -0.13448306918144226, 0.18913641571998596, -0.10106931626796722, -0.02650747261941433, -0.003560272278264165, -0.4066137969493866, 0.20492324233055115, -0.2745029032230377, -0.09149618446826935, -0.020168274641036987, 0.12064686417579651, -0.1849798560142517, -0.15402503311634064, -0.1464490443468094, 0.15199065208435059, -0.19911552965641022, 0.18639975786209106, -0.18693596124649048, -0.0596391037106514, -0.20420794188976288, 0.542014479637146, 0.09683080017566681, -0.056447021663188934, -0.11504790931940079, 0.19709153473377228, 0.12853142619132996, -0.05618961900472641, 0.03619220480322838, -0.11399173736572266, -0.04183322191238403, 0.059969283640384674, 0.10767381638288498, 0.08713103830814362, -0.11747059226036072, -0.25560489296913147, -0.14056119322776794, -0.09244628995656967, -0.12067484110593796, -0.020204169675707817, 0.12786033749580383, 0.18769969046115875, 0.025613058358430862, -0.17094093561172485, -0.039212144911289215, -0.08722987771034241, 0.0541352704167366, 0.15300102531909943, 0.0813676193356514, 0.3149094879627228, 0.00010072437726194039, -0.04302027076482773, -0.09826867282390594, 0.11943358927965164, 0.05985155701637268, -0.1049213856458664, 0.04936518147587776, 0.13456371426582336, -0.0555240735411644, 0.12547898292541504, -0.12108408659696579, 0.11974217742681503, 0.22107551991939545, 0.03074466995894909, -0.009106205776333809, 0.014911727979779243, 0.08623652160167694, 0.06581119447946548, -0.048318613320589066, 0.014316131360828876, 0.07602635025978088, 0.09245778620243073, 0.1682462841272354, -0.12486103177070618, -0.01319317426532507, -0.005653723143041134, 0.04610403999686241, 0.10252302885055542, 0.10121078789234161, 0.12451695650815964, -0.05275379866361618, -0.19916684925556183, 0.029755733907222748, -0.07992704212665558, -0.08556630462408066, -0.01646047830581665, 0.023416703566908836, -0.1304001659154892, -0.10136666148900986, -0.016436126083135605, -0.05659748986363411, 0.02585914544761181, 0.03196502849459648, 0.026998575776815414, 0.138557568192482, -0.11300278455018997, 0.010891132056713104, -0.07047215104103088, -0.17068129777908325, 0.05861096456646919, 0.23445254564285278, 0.02779286354780197, -0.1700427085161209, 0.19094491004943848, 0.09814838320016861, 0.004306938499212265, -0.03453906625509262, 0.0485701747238636, 0.16374137997627258, -0.07786782830953598, 0.20006480813026428, -0.0858093649148941, 0.24587871134281158, -0.08915430307388306, -0.24561786651611328, -0.14107638597488403, 0.09506533294916153, 0.2087756246328354, 0.014097057282924652, 0.1212252750992775, 0.045714788138866425, -0.10635846853256226, -0.09294764697551727, -0.03757292777299881, -0.01721978560090065, 0.02012113854289055, 0.12321915477514267, -0.15174691379070282, -0.19187110662460327, 0.09274648874998093, -0.12995384633541107, 0.06689202040433884, 0.17621949315071106, -0.059808049350976944, 0.1912088394165039, -0.2101769596338272, -0.2452435940504074, -0.17405758798122406, 0.09650754183530807, -0.04304042458534241, 0.03049607202410698, 0.08194679021835327, -0.30684247612953186, -0.2580857574939728, 0.15392209589481354, -0.13607026636600494, -0.13043838739395142, 0.049480948597192764, 0.07524552941322327, -0.1435157060623169, 0.12776780128479004, -0.03696543350815773, -0.10761700570583344, 0.013689904473721981, 0.006506104022264481, 0.07269925624132156, 0.011669858358800411, 0.02887583337724209, 0.0924082100391388, 0.0664985403418541, 0.17564323544502258, -0.06653686612844467, 0.08553560078144073, 0.0318608395755291, 0.17622624337673187, 0.038066182285547256, -0.07819478958845139, 0.12229276448488235, -0.015645019710063934, 0.02366507798433304, -0.02768951840698719, 0.0780298262834549, 0.06960603594779968, -0.07984283566474915, 0.1798710823059082, 0.0036449667531996965, -0.035551417618989944, 0.11755979806184769, 0.05273909866809845, 0.14579497277736664, 0.0960746482014656, 0.03893227502703667, 0.21623745560646057, -0.07325050234794617, 0.10224307328462601, -0.16169612109661102, 0.05721816420555115, 0.2128705382347107, 0.11859426647424698, -0.30294468998908997, 0.008501468226313591, -0.21287673711776733, 0.13876737654209137, 0.21041187644004822, -0.10279100388288498, -0.21719543635845184, 0.15558142960071564, -0.018273713067173958, 0.11019694060087204, 0.21488608419895172, 0.1261768341064453, 0.047774527221918106, -0.12985792756080627, -0.14518147706985474, 0.03159235045313835, -0.030351296067237854, -0.17540942132472992, -0.00567548768594861, 0.15319828689098358, -0.08053045719861984, -0.0606132410466671, 0.19165179133415222, 0.10273689031600952, 0.0816824808716774, 0.01950826868414879, 0.029382793232798576, 0.03447425737977028, 0.1568443328142166, -0.12315333634614944, 0.12096142768859863, -0.05216900259256363, -0.17214281857013702, 0.02577228471636772, 0.13668881356716156, -0.12231114506721497, 0.18266917765140533, 0.03078335151076317, -0.039658304303884506, 0.011557075195014477, -0.07882273942232132, 0.03330915421247482, 0.09051153063774109, 0.026116255670785904, 0.07385166734457016, -0.14695098996162415, -0.017151160165667534, -0.160135418176651, 0.07737606763839722, 0.141197070479393, -0.12241241335868835, 0.3350294828414917, 0.3367716372013092, -0.11619026213884354, 0.07501839846372604, 0.009735853411257267, -0.054789792746305466, 0.19506441056728363, -0.041793715208768845, -0.08810164779424667, -0.21983562409877777, -0.014852011576294899, -0.18608061969280243, -0.1142798438668251, -0.1810939759016037, -0.04702240601181984, 0.23492935299873352, -0.031232284381985664, -0.2631383240222931, 0.1878419667482376, -0.09534004330635071, 0.1029503121972084, -0.28933006525039673, 0.08662582188844681, 0.01761789619922638, 0.19610074162483215, 0.00995800830423832, -0.2068762630224228, 0.03158821538090706, 0.17907235026359558, -0.2227654755115509, 0.14688415825366974, -0.04388624429702759, -0.005995125975459814, 0.17709195613861084, 0.11653520166873932, 0.035101693123579025, 0.3512948751449585, -0.07783229649066925, -0.018190782517194748, -0.07597411423921585, -0.01533030066639185, -0.055070407688617706, -0.05952462553977966, 0.018748220056295395, 0.015195642597973347, -0.02383279800415039, 0.18124011158943176, -0.07998029887676239, 0.054916173219680786, 0.11124637722969055, -0.19708123803138733, -0.1614236831665039, 0.172984778881073, -0.2516574561595917, 0.2313406616449356, -0.04388236626982689, 0.14347027242183685, 0.058259863406419754, -0.20673072338104248, -0.1384201943874359, -0.12618115544319153, -0.1299692839384079, -0.19289587438106537, 0.1254051774740219, 0.22139135003089905, -0.006240402814000845, 0.1415155977010727, 0.22915643453598022, 0.09297957271337509, -0.001781970844604075, 0.01893792860209942, 0.038105886429548264, -0.07839994132518768, 0.04785452038049698, -0.0322209969162941, 0.10056191682815552, 0.03208131343126297, -0.14964869618415833, -0.04599481821060181, 0.11992455273866653, 0.06968814134597778, 0.04500751197338104, 0.04141262173652649, 0.0632011741399765, 0.052747514098882675, -0.04300001636147499, 0.13575972616672516, 0.6505892276763916, 0.40613847970962524, 0.49304690957069397, -0.8958542346954346, -0.6519941091537476, 0.10215936601161957, 0.22512060403823853, -0.09148790687322617, 0.39829856157302856, 0.19589656591415405, -1.000478744506836, 0.33272188901901245, -0.06626065075397491, -0.6867667436599731, 0.20246607065200806, -0.2522885501384735, 0.008865339681506157, -0.28282979130744934, 0.2273608148097992, -0.2837359607219696, 0.06235874444246292, 0.23828379809856415, -0.07590563595294952, -0.12243974208831787, -0.15945665538311005, 0.09462948888540268, -0.21346938610076904, 0.07844270765781403, 0.0807148739695549, -0.06913062930107117, 0.18670928478240967, -0.1196441575884819, -0.07721079885959625, -0.1294635832309723, 0.002566652139648795, 0.03448866307735443, -0.1674438863992691, -0.12568016350269318, 0.35937440395355225, -0.11428198218345642, -0.30532306432724, 0.09187449514865875, -0.1874578446149826, 0.10872235894203186, -0.015298683196306229, 0.16299402713775635, 0.09957803040742874, 0.2798721194267273, -0.18992742896080017, 0.1839461624622345, -0.04850216954946518, -0.1257867068052292, 0.015724705532193184, -0.10331301391124725, -0.1195824071764946, -0.11048556864261627, 0.18075759708881378, -0.2567829191684723, 0.01819191500544548, -0.23614688217639923, 0.06941033899784088, 0.08623732626438141, -0.07754772901535034, 0.2094138264656067, -0.07986021041870117, -0.07144685089588165, -0.1373189240694046, 0.0461348295211792, 0.26274120807647705, 0.15320943295955658, 0.2269691377878189, 0.03046400099992752, -0.18726928532123566, -0.24201856553554535, 0.09916488081216812, -0.3051794767379761, 0.06644288450479507, 0.07379608601331711, 0.19890931248664856, -0.2984803020954132, 0.20620325207710266, -0.09725052863359451, -0.10054352134466171, 0.053166311234235764, -0.001687404583208263, -0.19569949805736542, -0.056404370814561844, -0.1137939915060997, 0.2579326629638672, 0.3146073818206787, 0.12243866920471191, 0.15646390616893768, -0.2633603513240814, -0.032538510859012604, -0.21719907224178314, -0.19800278544425964, -0.36905398964881897, 0.21067926287651062, 0.06840316206216812, 0.2808941900730133, -0.19728049635887146, 0.023196976631879807, 0.07194499671459198, 0.10607609897851944, 0.045315250754356384, 0.1866179257631302, -0.18275903165340424, 0.17723211646080017, 0.08026760071516037, 0.12468726933002472, -0.4906660318374634, 0.047822460532188416, -0.20206335186958313, -0.13012392818927765, -0.13376353681087494, 0.1304248869419098, -0.08116176724433899, -0.31864503026008606, 0.27263158559799194, 0.14990580081939697, -0.31986004114151, 0.017122026532888412, 0.1407010853290558, -0.05299289524555206, 0.040513649582862854, 0.04153388738632202, -0.036583490669727325, -0.07784956693649292, -0.08149848133325577, 0.2424720823764801, -0.08689948916435242, 0.25353479385375977, 0.015264305286109447, -0.11843045800924301, -0.03892955183982849, 0.12455529719591141, 0.06887923181056976, 0.25737670063972473, -0.04778615012764931, 0.1598423272371292, -0.19654759764671326, -0.0720105916261673, -0.1482205092906952, 0.056017693132162094, 0.07452080398797989, 0.05136335268616676, 0.02285972610116005, -0.04237756505608559, 0.4362207353115082, -0.025592269375920296, -0.14470776915550232, -0.2198905199766159, 0.06822195649147034, -0.37970080971717834, -0.1017816960811615, -0.10207265615463257, 0.20242297649383545, 0.13487721979618073, -0.25885847210884094, 0.027396628633141518, -0.07720688730478287, 0.2901041805744171, 0.12907525897026062, -0.017003443092107773, -0.21039417386054993, 0.13901138305664062, -0.13633543252944946, 0.14794546365737915, -0.16948743164539337, -0.1660645753145218, 0.3088047206401825, -0.24686311185359955, 0.10609563440084457, -0.2196459025144577, 0.23463183641433716, 0.06717448681592941, -0.10062380880117416, 0.19715648889541626, -0.19505758583545685, -0.19194158911705017, -0.0938878208398819, 0.11712834984064102, 0.12192370742559433, -0.21603205800056458, 0.2251894176006317, 0.18388435244560242, -0.14025765657424927, -0.015787899494171143, -0.19554507732391357, 0.09462982416152954, 0.1249191164970398, -0.1238350197672844, -0.12656989693641663, 0.13616156578063965, -0.16284403204917908, -0.042809903621673584, 0.11752555519342422, -0.13762260973453522, 0.11775887757539749, -0.05109051987528801, -0.24284766614437103, 0.08582974970340729, 0.26731735467910767, 0.30750924348831177, -0.10160132497549057, 0.2437361627817154, -0.2611779272556305, -0.10299528390169144, 0.12128845602273941, 0.24143041670322418, 0.3090246617794037, 0.16437330842018127, -0.20902606844902039, 0.04108592867851257, -0.17731933295726776, 0.1273318976163864, 0.24602961540222168, 0.16402742266654968, -0.1918635219335556, -0.12571901082992554, -0.2505108714103699, 0.123836450278759, -0.029319388791918755, -0.24463993310928345, -0.23791460692882538, 0.08540138602256775, 0.14291197061538696, 0.03134988993406296, 0.08267677575349808, 0.1719205230474472, -0.19750361144542694, -0.04901029169559479, 0.02352239564061165, 0.2623017132282257, 0.28199902176856995, -0.2047453075647354, -0.4040166735649109, -0.2985362708568573, -0.17105241119861603, -0.1326218992471695, 0.304527223110199, -0.05713377892971039, -0.0567699559032917, 0.32728391885757446, -0.06948813796043396, -0.2758251428604126, 0.18819105625152588, -0.05239035561680794, -0.2206854224205017, -0.037680670619010925, -0.3018004298210144, 0.0013785386690869927, 0.1825169026851654, 0.17630407214164734, 0.0013727037003263831, 0.30194127559661865, -0.04082898050546646, 0.027038080617785454, -0.20151029527187347, -0.12062616646289825, -0.11715897172689438, -0.22552412748336792, 0.272468626499176, -0.07715172320604324, -0.18516750633716583, 0.056915801018476486, -0.317024827003479, 0.12604402005672455, 0.23023582994937897, -0.07170305401086807, 0.1294669359922409, 0.06901324540376663, -0.15084971487522125, -0.0005118726403452456, -0.03641915321350098, 0.0364367701113224, 0.03143616393208504, -0.004466817248612642, -0.009248013608157635, -0.00838090293109417, -0.06136506795883179, 0.22775231301784515, 0.06920044124126434, -0.01888939179480076, 0.0803614929318428, -0.14154136180877686, -0.10301504284143448, 0.014463149942457676, -0.05591694638133049, -0.0904708281159401, 0.21172916889190674, -0.06883522868156433, 0.11629806458950043, -0.4613184928894043, 0.08385394513607025, 0.2907074987888336, -0.2162577360868454, 0.03189432993531227, 0.06997866928577423, -0.336928129196167, -0.05015873163938522, -0.05181024596095085, -0.9856621623039246, -0.15429408848285675, -0.10039248317480087, -0.23474906384944916, 0.14584758877754211, 0.17052409052848816, -0.007142802234739065, 0.012196185067296028, 0.1268574446439743, -0.11719384789466858, 0.022225426509976387, -0.16164197027683258, -0.05693293362855911, 0.20384903252124786, 0.043094292283058167, 0.28365594148635864, 0.14909981191158295, 0.1978781521320343, -0.4256565570831299, 0.1160508468747139, -0.058052364736795425, -0.7517055869102478, 0.14997251331806183, 0.20417024195194244, 0.2292327880859375, 0.17051739990711212, 0.06160558760166168, -0.1289171278476715, 0.08885252475738525, 0.11781896650791168, -0.2730403542518616, -0.1616152822971344, -0.09422975778579712, 0.17538407444953918, 0.08876394480466843, -0.25563034415245056, -0.03515038266777992, -0.005496442783623934, 0.4020804762840271, 0.16332972049713135, -0.2081432044506073, -0.300269216299057, 0.17989696562290192, -0.21290725469589233, 0.3740207850933075, 0.09849639981985092, 0.3748799264431, -0.16461315751075745, -0.10948849469423294, 0.24280939996242523, 0.1371101289987564, 0.023086469620466232, -0.39624571800231934, 0.3548198342323303, 0.20713721215724945, -0.44496867060661316, 0.35451436042785645, -0.012193136848509312, 0.0693478211760521, 0.25272002816200256, -0.11061030626296997, -0.5301746129989624, 0.030032075941562653, 0.21557621657848358, -0.1370783895254135, -0.054814305156469345, 0.23043997585773468, 0.23975887894630432, 0.037096161395311356, -0.14801421761512756, -0.30410414934158325, -0.605514407157898, 0.23442088067531586, -0.5263636112213135, -0.39189955592155457, 0.22899377346038818, 0.39982104301452637, 0.8978272080421448, -0.23384273052215576, 0.31121835112571716, -0.14669077098369598, -0.31266123056411743, -0.12537899613380432, 0.2426859587430954, 0.07134170085191727, -0.001994070131331682, -0.2251667082309723, 0.06794348359107971, 0.2883210778236389, -0.0065031093545258045, -0.051998816430568695, -0.24180087447166443, -0.35970795154571533, 0.07504437118768692, -0.34861141443252563, 0.3513255715370178, -0.014132270589470863, -0.25434577465057373, 0.6554470062255859, 0.003920312039554119, 0.012821007519960403, -0.4168287515640259, -0.11707961559295654, 0.00685611367225647, -0.10295238345861435, -0.27172160148620605, -0.23638199269771576, -0.7286888360977173, 0.054540056735277176, 0.4355640113353729, -0.3492566645145416, -0.15422119200229645, 0.22244447469711304, 0.3668360710144043, 0.26634395122528076, -0.50188148021698, 0.3999279737472534, 0.34839582443237305, 0.08979863673448563, 0.35036298632621765, 0.030649684369564056, 0.31720632314682007, 0.2453756332397461, -0.03890596702694893, -0.5189746022224426, -0.40759435296058655, 0.33993858098983765, -0.20488455891609192, -0.04199167713522911, 0.08862321078777313, 0.06280090659856796, -0.08029159903526306, -0.10863370448350906, -0.09060725569725037, 0.005649396684020758, 0.14011427760124207, -0.05024110898375511, 0.1334455907344818, 0.09415740519762039, 0.011375192552804947, -0.08736320585012436, 0.24156123399734497, 0.09975427389144897, 0.04711364954710007, -0.15631690621376038, -0.03104366548359394, -0.0029035171028226614, -0.005625595338642597, -0.023592188954353333, -0.08945394307374954, 0.3067004978656769, 0.010280158370733261, -0.08354230225086212, -0.084760382771492, 0.08665312081575394, 0.015149458311498165, 0.21789470314979553, -0.23933447897434235, -0.007051008753478527, 0.13989271223545074, -0.1189797967672348, 0.0036433464847505093, 0.08920557796955109, -0.06633657962083817, 0.1322830468416214, -0.2511075437068939, -0.010315538384020329, -0.05738203227519989, -0.1461833119392395, -0.3105711340904236, -0.04082521051168442, -0.031478822231292725, 0.03388046473264694, 0.054488614201545715, 0.3486020267009735, 0.2531838119029999, 0.08500964194536209, -0.11113858222961426, -0.17823386192321777, 0.0624396912753582, 0.2344600409269333, 0.036779411137104034, 0.14494870603084564, -0.21906918287277222, 0.088828444480896, 0.044416557997465134, 0.04681340977549553, -0.021335292607545853, 0.17828859388828278, -0.09772302210330963, 0.10121890902519226, 0.01498320885002613, 0.36274319887161255, 0.07951715588569641, -0.06327115744352341, 0.02244446985423565, 0.1941455900669098, 0.015304455533623695, -0.25136250257492065, -0.07017292082309723, 0.15856115520000458, -0.11553556472063065, 0.1120719239115715, -0.0008063295390456915, 0.03490079939365387, 0.1571744680404663, 0.1625605970621109, -0.05451294779777527, 0.07799427956342697, 0.11297475546598434, -0.1958221048116684, 0.049556754529476166, -0.2523011863231659, 0.032873909920454025, -0.028500016778707504, 0.04249395802617073, 0.17139366269111633, 0.2022717446088791, 0.08120887726545334, -0.17802301049232483, -0.03346610814332962, 0.05036354437470436, -0.2457887828350067, -0.22307847440242767, -0.06389886885881424, 0.2731812298297882, -0.2528425455093384, 0.03239050135016441, -0.002840003464370966, 0.10246136784553528, 0.14164188504219055, -0.06731592863798141, 0.21268750727176666, 0.012557177804410458, -0.0608564056456089, 0.11409527063369751, 0.08227210491895676, -0.304055780172348, -0.05751822888851166, -0.028033699840307236, 0.1323552280664444, -0.2182886004447937, -0.13408876955509186, 0.279864639043808, 0.2874763309955597, 0.02808348461985588, -0.21941009163856506, -0.10865715146064758, 0.041383761912584305, 0.23311583697795868, 0.15161767601966858, 0.011518726125359535, -0.2628719210624695, 0.0016088654519990087, 0.12449393421411514, -0.2115066796541214, 0.3492387533187866, 0.190776064991951, -0.22230137884616852, -0.07248421758413315, -0.039841026067733765, 0.11234027147293091, 0.06321138888597488, -0.13947631418704987, -0.2827247083187103, 0.17712968587875366, 0.0783005878329277, -0.18483097851276398, 0.09848576039075851, 0.16913482546806335, -0.05102194845676422, -0.12409662455320358, -0.015091977082192898, 0.17398349940776825, -0.0215362049639225, 0.06358196586370468, -0.1007452979683876, 0.0009331518085673451, -0.15781298279762268, 0.04862383380532265, -0.06183392554521561, -0.15436838567256927, 0.08603110909461975, -0.17321531474590302, -0.128428116440773, 0.0977836325764656, 0.08084835112094879, 0.1319074183702469, -0.3135368824005127, 0.10393045097589493, 0.13272283971309662, 0.04492461681365967, -0.07339521497488022, 0.06834766268730164, 0.15569117665290833, -0.12673604488372803, -0.016407806426286697, 0.2672838866710663, -0.024532565847039223, -0.10098547488451004, 0.12608817219734192, 0.01980011910200119, 0.05605026334524155, 0.1304752081632614, -0.12711463868618011, 0.030000444501638412, 0.08277935534715652, -0.0668393149971962, 0.130436509847641, 