{"version": "0.5.1", "metadata": {"date": {"year": 2023, "month": 4, "day": 30, "hour": 7, "minute": 34, "second": 58}, "loudness": -13.160341262817383, "gain": 0.8414210414141408, "name": null, "modeled_by": null, "gear_type": null, "gear_make": null, "gear_model": null, "tone_type": null}, "architecture": "WaveNet", "config": {"layers": [{"input_size": 1, "condition_size": 1, "head_size": 8, "channels": 16, "kernel_size": 3, "dilations": [1, 2, 4, 8, 16, 32, 64, 128, 256, 512], "activation": "Tanh", "gated": false, "head_bias": false}, {"input_size": 16, "condition_size": 1, "head_size": 1, "channels": 8, "kernel_size": 3, "dilations": [1, 2, 4, 8, 16, 32, 64, 128, 256, 512], "activation": "Tanh", "gated": false, "head_bias": true}], "head": null, "head_scale": 0.02}, "weights": [0.0009147814707830548, 0.2809738516807556, -0.7946691513061523, -0.840738832950592, -0.47045332193374634, 0.35370874404907227, 0.011797607876360416, 0.8819458484649658, -0.1516086459159851, 0.13584069907665253, -0.4438624083995819, 0.027725962921977043, -0.9302010536193848, -0.7733591794967651, -0.45466092228889465, 0.19636808335781097, 0.052819766104221344, 0.05091988667845726, -0.26924535632133484, -0.010386894457042217, 0.07608075439929962, 0.026902517303824425, -0.0963820144534111, 0.07565055042505264, 0.069464311003685, -0.04900248721241951, 0.09864095598459244, -0.04009687900543213, -0.14755147695541382, -0.05980641767382622, 0.04665479436516762, 0.17664554715156555, -0.07315405458211899, -0.17710913717746735, -0.026853779330849648, -0.12830960750579834, 0.06320656090974808, 0.18823546171188354, 0.09520084410905838, -0.02569355070590973, -0.0107031911611557, -0.06012720242142677, 0.16529524326324463, -0.09686609357595444, -0.09921078383922577, -0.19135838747024536, 0.03537788242101669, 0.06438948214054108, 0.045054975897073746, -0.1304970681667328, -0.06258852779865265, 0.13194850087165833, -0.008612615056335926, -0.013612132519483566, 0.1882433146238327, -0.14875559508800507, -0.0037415463011711836, -0.015098515897989273, -0.15608681738376617, -0.09680509567260742, 0.16512764990329742, 0.08459525555372238, -0.09425050020217896, -0.10253573954105377, -0.0486377514898777, -0.07485630363225937, 0.18426765501499176, -0.1511043757200241, -0.029385864734649658, 0.26393088698387146, 0.08911403268575668, 0.07739093154668808, -0.07217264175415039, 0.32180285453796387, 0.257943719625473, -0.0008684659842401743, 0.2216823846101761, -0.0020984492730349302, -0.12293007969856262, -0.2874828279018402, -0.2575731873512268, 0.2704241871833801, 0.14541324973106384, -0.1372789889574051, -0.089432492852211, -0.2276117503643036, -0.155950129032135, 0.06389377266168594, 0.21317079663276672, 0.0016123445238918066, -0.1110941544175148, -0.09459492564201355, 0.006062155123800039, 0.20150363445281982, 0.04798585921525955, 0.024553431198000908, -0.07255379855632782, 0.24832113087177277, 0.05883454531431198, -0.09196855872869492, 0.33814212679862976, 0.23006215691566467, -0.18921062350273132, 0.16527259349822998, -0.006545839831233025, -0.13287387788295746, 0.08149709552526474, 0.010707341134548187, -0.14266502857208252, -0.16118298470973969, -0.15998125076293945, 0.2552748918533325, -0.17660491168498993, 0.17299261689186096, -0.031481873244047165, -0.16294057667255402, 0.036450691521167755, -0.06747808307409286, 0.044747255742549896, -0.04965903237462044, 0.12896566092967987, 0.03944128751754761, -0.15297749638557434, 0.14213445782661438, -0.10075079649686813, -0.1591275930404663, 0.04845096170902252, -0.11751445382833481, 0.021498162299394608, -0.20834068953990936, 0.056693755090236664, -0.012929350137710571, -0.08815960586071014, -0.03575345128774643, 0.18584395945072174, -0.08966589719057083, 0.09348570555448532, -0.04545624181628227, 0.1602764129638672, 0.03552328795194626, 0.18884560465812683, -0.010660522617399693, 0.17637458443641663, -0.08206214010715485, -0.038595691323280334, -0.015283646993339062, 0.040303297340869904, -0.02138451114296913, -0.044760312885046005, -0.19449181854724884, -0.06368481367826462, -0.09111601859331131, -0.11120900511741638, 0.15567348897457123, 0.11334609985351562, -0.21201597154140472, 0.1720183938741684, -0.18268169462680817, 0.02132849022746086, -0.18276280164718628, 0.006010030396282673, -0.21116112172603607, -0.06047683581709862, -0.14998681843280792, -0.24761050939559937, -0.0011148832272738218, -0.02565329521894455, 0.29243767261505127, -0.12547583878040314, 0.026077711954712868, 0.36680927872657776, -0.05414416640996933, 0.157671257853508, 0.2824671268463135, -0.1366615891456604, 0.0667557418346405, -0.2510848641395569, -0.05628059431910515, 0.004565894603729248, -0.04013872519135475, -0.004150832537561655, -0.06776861846446991, -0.13645145297050476, 0.03679988533258438, 0.05240991711616516, 0.24675576388835907, -0.08201409131288528, -0.038372740149497986, -0.32162460684776306, 0.10395176708698273, 0.14081496000289917, 0.3285403549671173, -0.11403830349445343, -0.05433788523077965, 0.03349878638982773, -0.05329333245754242, -0.04566335305571556, 0.2890545725822449, -0.07963625341653824, 0.03280753269791603, 0.24546101689338684, 0.09523329138755798, -0.08067704737186432, 0.12909185886383057, -0.08808236569166183, 0.0983278751373291, -0.26818162202835083, 0.16266408562660217, 0.14750802516937256, -0.08781670778989792, -0.1772419661283493, 0.16432376205921173, 0.0022543910890817642, -0.1186099499464035, -0.21346308290958405, 0.027418149635195732, -0.0248116385191679, -0.2880961298942566, 0.1257506161928177, -0.03009750321507454, -0.21767152845859528, 0.1583516150712967, 0.14779333770275116, 0.20727521181106567, -0.1462971419095993, -0.028338879346847534, -0.04951731488108635, 0.021506937220692635, 0.012967133894562721, 0.1932985484600067, -0.006848760414868593, 0.03192026913166046, -0.15859898924827576, 0.1724611520767212, 0.2133004367351532, 0.09626521915197372, 0.040226228535175323, -0.20587529242038727, -0.2682497501373291, 0.06306185573339462, 0.15050901472568512, 0.06844264268875122, -0.005960924085229635, 0.04121808335185051, -0.13941286504268646, -0.13261784613132477, 0.18887437880039215, -0.33249202370643616, 0.01153697818517685, 0.06468484550714493, -0.28295961022377014, 0.03330923616886139, 0.21209028363227844, 0.15089565515518188, -0.12334804981946945, -0.1772625744342804, -0.2685067355632782, 0.17817102372646332, -0.056877508759498596, -0.1891566514968872, 0.02879844419658184, 0.1366804540157318, 0.15370112657546997, -0.012798399664461613, -0.003734102239832282, 0.037881623953580856, -0.1640886813402176, -0.014110539108514786, 0.20988866686820984, -0.07612220197916031, -0.11462727189064026, -0.1730184555053711, -0.019523389637470245, 0.07539906352758408, 0.1632499247789383, -0.15175341069698334, 0.18751798570156097, -0.17726026475429535, 0.10707637667655945, 0.09681585431098938, 0.14707793295383453, -0.1770947128534317, -0.12215092778205872, 0.009209458716213703, 0.11681617796421051, 0.14513276517391205, 0.04548938572406769, -0.07217298448085785, -0.07460499554872513, 0.14266379177570343, -0.18132804334163666, 0.024893369525671005, 0.12739352881908417, -0.12683668732643127, -0.09027449786663055, -0.0032801537308841944, -0.023590611293911934, -0.16155803203582764, 0.14682935178279877, -0.16151802241802216, -0.1173921450972557, -0.10396726429462433, 0.026144200935959816, 0.04825970157980919, -0.08499269187450409, 0.02615923434495926, 0.07219875603914261, -0.1143561601638794, 0.13279135525226593, -0.00915045477449894, 0.04698632284998894, -0.10725769400596619, 0.037947311997413635, 0.1200578585267067, -0.028797496110200882, 0.08388758450746536, 0.09864861518144608, -0.07681574672460556, 0.05437783896923065, -0.1768386960029602, 0.0874396413564682, 0.020596710965037346, 0.012617549858987331, -0.08550028502941132, 0.06253474205732346, -0.042602937668561935, 0.167395681142807, 0.029534347355365753, 0.27011579275131226, -0.12084678560495377, -0.09843294322490692, -0.30765390396118164, 0.20320913195610046, 0.07915415614843369, 0.07351434975862503, -0.02361365035176277, 0.10413360595703125, 0.2326439917087555, -0.03247147053480148, 0.01995055377483368, 0.13731242716312408, -0.134108766913414, 0.10634376108646393, 0.2519892752170563, -0.1705036610364914, 0.11883596330881119, 0.24332775175571442, 0.002810170641168952, -0.09501782059669495, -0.15448005497455597, 0.019045250490307808, 0.10368449985980988, 0.04133833944797516, 0.047520652413368225, 0.02944132871925831, 0.19380918145179749, -0.015444742515683174, 0.09828276187181473, -0.25425365567207336, -0.01003884244710207, -0.13258405029773712, -0.29308342933654785, -0.15756745636463165, 0.07849545776844025, -0.06762069463729858, 0.10025303065776825, 0.08772660791873932, 0.012312245555222034, -0.06628881394863129, 0.0023320349864661694, -0.027266690507531166, 0.11889121681451797, -0.16695497930049896, 0.08336839079856873, -0.09681181609630585, -0.04626967012882233, 0.010078866966068745, 0.11075516045093536, 0.10545744001865387, 0.23913639783859253, 0.15527541935443878, -0.022487400099635124, -0.08364935964345932, 0.09536419808864594, 0.02331777848303318, 0.21278443932533264, 0.16047897934913635, 0.09089253097772598, -0.20362339913845062, 0.025304069742560387, -0.02071748487651348, -0.18590401113033295, -0.12322046607732773, -0.11541120707988739, -0.2571996748447418, 0.0613628514111042, 0.07397565990686417, 0.11326099187135696, -0.06532762199640274, 0.11989356577396393, 0.047941435128450394, 0.06575636565685272, -0.14825648069381714, 0.14196835458278656, 0.15436793863773346, -0.13012202084064484, 0.11205440759658813, 0.003682465525344014, -0.03540794551372528, 0.06035498157143593, -0.18755878508090973, -0.004822799004614353, 0.10926814377307892, -0.08960908651351929, -0.07278686761856079, -0.03798763081431389, 0.05938144773244858, -0.05846621096134186, -0.03751164674758911, -0.02065703272819519, -0.07873892784118652, -0.06567832082509995, 0.11321522295475006, 0.05084047466516495, 0.10359614342451096, -0.18939128518104553, 0.04892980679869652, -0.11112650483846664, 0.013528487645089626, 0.0027895935345441103, -0.1172335147857666, -0.04249197244644165, 0.15556496381759644, 0.030692754313349724, -0.17467983067035675, -0.09217126667499542, 0.007646293845027685, -0.21674270927906036, 0.08740373700857162, -0.15249547362327576, -0.2441871464252472, -0.1204037219285965, -0.042080603539943695, 0.004385080654174089, -0.10753881186246872, 0.1176334097981453, 0.02659079059958458, -0.016056077554821968, 0.41594448685646057, 0.12468819320201874, 0.02387223392724991, 0.44815459847450256, 0.35994356870651245, -0.09768985956907272, -0.4904055893421173, -0.11459916085004807, 0.17445898056030273, -0.3310736119747162, -0.35325396060943604, 0.12546248733997345, -0.5385475158691406, -0.2924470007419586, 0.19826523959636688, 0.2932680547237396, 0.28322774171829224, -0.09544637799263, 0.03348158672451973, 0.03972693905234337, 0.04166760295629501, 0.35676437616348267, 0.30144861340522766, -0.025380125269293785, -0.3058738708496094, -0.24602818489074707, 0.2185014933347702, 0.22699905931949615, 0.09166999906301498, -0.10176920890808105, -0.4794289767742157, -0.16329166293144226, 0.07331176102161407, -0.2725851237773895, -0.14522653818130493, 0.14030125737190247, -0.41142988204956055, -0.12511394917964935, 0.2554608881473541, -0.3211720585823059, -0.2339344024658203, 0.12156948447227478, -0.4256378412246704, -0.21713513135910034, 0.23663239181041718, 0.3232579231262207, 0.3727899193763733, -0.18130065500736237, -0.3916221261024475, 0.14281673729419708, 0.39271384477615356, -0.2552923560142517, -0.015574770048260689, 0.2854163348674774, 0.4760103225708008, -0.03265909478068352, -0.06264134496450424, 0.33090758323669434, -0.07276059687137604, -0.12539827823638916, 0.3582055866718292, -0.07501859962940216, -0.2313147485256195, -0.31875643134117126, 0.09036912769079208, 0.1432270109653473, 0.23754124343395233, 0.017799945548176765, -0.09354383498430252, -0.3984121084213257, 0.20119735598564148, 0.16964033246040344, 0.41902628540992737, -0.17841298878192902, -0.16245537996292114, -0.48056256771087646, 0.03942592442035675, 0.1211918443441391, 0.5374585390090942, -0.16589897871017456, -0.19518963992595673, 0.0520835742354393, -0.06587023288011551, -0.031075693666934967, 0.29975998401641846, -0.23218020796775818, -0.2909404933452606, 0.4077398478984833, -0.15513569116592407, -0.2798188626766205, 0.34576845169067383, -0.09518031775951385, -0.26394447684288025, -0.3694508969783783, 0.11563258618116379, 0.14841006696224213, 0.16225560009479523, 0.017981089651584625, -0.19051280617713928, 0.12395671010017395, -0.16500169038772583, 0.0018493380630388856, -0.24286210536956787, -0.017109865322709084, 0.28592586517333984, -0.20584873855113983, 0.14778360724449158, 0.13176606595516205, -0.14834792912006378, 0.08072105795145035, 0.2272350788116455, 0.13742223381996155, -0.2545749247074127, -0.22023138403892517, -0.1256123036146164, 0.2456551045179367, 0.0017883197870105505, 0.249252051115036, -0.15187181532382965, -0.1685493290424347, -0.043194904923439026, 0.15470215678215027, 0.22628699243068695, 0.20935361087322235, -0.13962231576442719, -0.21212905645370483, -0.12878109514713287, 0.2340470254421234, 0.08601124584674835, -0.22378021478652954, 0.2274065911769867, 0.23739497363567352, -0.1520560383796692, 0.0008526456658728421, 0.013569213449954987, -0.07744358479976654, 0.10887743532657623, 0.06940135359764099, -0.08668268471956253, 0.16556189954280853, 0.2503158450126648, 0.2592988610267639, -0.12447105348110199, -0.243494912981987, 0.07640062272548676, 0.025797681882977486, 0.19357390701770782, 0.2199592888355255, -0.30947205424308777, 0.1879444271326065, -0.0408492386341095, 0.30744996666908264, -0.18816295266151428, -0.23044227063655853, 0.08204752951860428, 0.07085589319467545, -0.2385244071483612, 0.11583691835403442, 0.010300518944859505, 0.10958782583475113, -0.2533295452594757, 0.05487988144159317, -0.1568400263786316, -0.27840620279312134, -0.12689660489559174, 0.1129680648446083, -0.13001610338687897, 0.19051095843315125, -0.09457387030124664, 0.20747767388820648, 0.05923759192228317, 0.17879284918308258, -0.24575506150722504, 0.19349446892738342, -0.1489568054676056, 0.03812180459499359, -0.111093670129776, -0.03196287155151367, 0.25904303789138794, 0.036896586418151855, -0.30634528398513794, 0.1715221256017685, 0.026057440787553787, -0.13892687857151031, 0.2266424596309662, -0.05292070657014847, -0.11937329918146133, 0.14879298210144043, -0.11830800026655197, 0.06918546557426453, -0.2691490054130554, 0.15611569583415985, -0.081180140376091, 0.04086238890886307, 0.17839783430099487, -0.052993908524513245, -0.13272123038768768, 0.19462475180625916, -0.004813682287931442, 0.1672426015138626, -0.1655210554599762, 0.041048564016819, 0.1258232444524765, -0.1108848974108696, 0.18883822858333588, -0.06210124492645264, -0.18493260443210602, -0.13330867886543274, -0.015265905298292637, 0.19936080276966095, -0.02711695060133934, 0.12656089663505554, -0.019748002290725708, -0.10998443514108658, 0.05775129795074463, -0.06028992682695389, 0.04177488386631012, 0.13404421508312225, -0.13299036026000977, 0.059878796339035034, -0.06646157801151276, 0.19957059621810913, -0.07059117406606674, 0.015148956328630447, -0.09433693438768387, -0.023089393973350525, 0.006842311006039381, 0.047042593359947205, 0.056771598756313324, 0.043650031089782715, 0.049561113119125366, 0.03734000027179718, 0.1737937331199646, -0.15004318952560425, 0.05140480026602745, 0.02865477278828621, 0.0027161280158907175, 0.04000234603881836, -0.04515388235449791, -0.02329902909696102, 0.10665716975927353, -0.012375925667583942, -0.0740569680929184, 0.031570836901664734, 0.10184445232152939, 0.08492171764373779, -0.12774263322353363, -0.15233108401298523, 0.14794674515724182, -0.24507787823677063, 0.0162538830190897, 0.06809311360120773, -0.19811926782131195, 0.04260396212339401, -0.07139413803815842, 0.1626625955104828, -0.08298856019973755, -0.07695995271205902, 0.02497619017958641, 0.05762804299592972, -0.04277405887842178, 0.23337942361831665, -0.0005645918427035213, -0.11563276499509811, -0.21561656892299652, -0.1063762679696083, 0.2410954236984253, 0.0748104676604271, 0.003759724786505103, -0.034608639776706696, -0.03420346602797508, 0.11729016900062561, 0.18015393614768982, -0.08017417043447495, -0.009801709093153477, -0.020809581503272057, -0.2223891168832779, 0.015446982346475124, 0.1802191436290741, -0.2541840970516205, 0.07056132704019547, -0.02561517432332039, -0.15791483223438263, 0.10784944146871567, 0.022974563762545586, 0.13015271723270416, -0.10887812077999115, 0.03435384854674339, -0.025000279769301414, -0.20978668332099915, 0.17090971767902374, -0.16119354963302612, -0.2725847661495209, 0.07340805232524872, 0.19012892246246338, 0.1292969435453415, 0.003189950482919812, 0.19732992351055145, 0.2668032944202423, -0.14057095348834991, 0.04952569305896759, 0.11650008708238602, -0.19099347293376923, -0.06432358175516129, -0.054277777671813965, 0.20029659569263458, 0.053379375487565994, 0.13348300755023956, -0.0674876794219017, 0.033790938556194305, -0.23121657967567444, -0.03430420905351639, 0.046954214572906494, 0.21216616034507751, -0.24211323261260986, 0.08510349690914154, -0.08674547076225281, -0.011669894680380821, 0.033384423702955246, 0.2845298647880554, -0.19279474020004272, 0.01434316486120224, 0.1571802794933319, -0.13839048147201538, 0.1543406844139099, 0.24692972004413605, 0.026786431670188904, -0.018334006890654564, 0.3141416013240814, -0.15277516841888428, 0.2090245932340622, 0.022548357024788857, -0.20088274776935577, 0.040612343698740005, -0.12928567826747894, 0.11624985933303833, -0.10493509471416473, -0.29142722487449646, -0.014343872666358948, -0.37814298272132874, 0.04091385379433632, 0.16694727540016174, -0.013282653875648975, 0.030303459614515305, 0.16025546193122864, 0.537807822227478, -0.1494557410478592, -0.069575235247612, 0.0065046194940805435, -0.17071610689163208, 0.025483477860689163, -0.04524007812142372, 0.36190858483314514, -0.3083183467388153, 0.7359940409660339, -0.717669665813446, -0.0736941546201706, 0.9659481048583984, 1.0128560066223145, -0.5340097546577454, 0.17265744507312775, -0.044316165149211884, -0.29333049058914185, -0.49719667434692383, 0.3363422453403473, -0.6577025055885315, 0.13078583776950836, 0.4861449599266052, -0.03545233979821205, 0.09964361786842346, -0.025169555097818375, 0.08691608160734177, 0.5440095067024231, -0.016718557104468346, 0.06357826292514801, 0.11468330025672913, 0.003490814007818699, -0.03776929900050163, -0.27242323756217957, -0.06172925606369972, 0.273045152425766, -0.07134707272052765, 0.37159115076065063, -0.1399671733379364, -0.04830588400363922, -0.039775535464286804, -0.303845077753067, 0.16004589200019836, -0.029970629140734673, -0.12374688684940338, -0.19873562455177307, 0.14148187637329102, -0.12165608257055283, 0.2128099799156189, -0.012032548896968365, 0.13633985817432404, 0.31805527210235596, -0.007147327996790409, 0.033510949462652206, 0.38828039169311523, 0.025033488869667053, 0.126390740275383, 0.15694808959960938, 0.2433716505765915, -0.08021257072687149, 0.011156432330608368, 0.2030750960111618, -0.05031653121113777, 0.03831029310822487, -0.22726626694202423, 0.20475247502326965, -0.3622928857803345, 0.19139869511127472, 0.20690642297267914, 0.10052254050970078, -0.043009474873542786, 0.19874264299869537, -0.24242915213108063, -0.06412229686975479, -0.2978399097919464, 0.013192285783588886, -0.018616672605276108, -0.06429639458656311, 0.03494644537568092, -0.22046244144439697, 0.37388330698013306, 0.03245438635349274, 0.0671432763338089, -0.06405790895223618, 0.2062854915857315, -0.06489812582731247, -0.20651733875274658, -0.11697214841842651, -0.19646687805652618, -0.17574180662631989, 0.1985573023557663, 0.07159598171710968, 0.16426822543144226, 0.10133592039346695, -0.0936637595295906, 0.044650912284851074, 0.3186909854412079, -0.07100959867238998, 0.17453564703464508, 0.11351537704467773, 0.17398831248283386, -0.1247393786907196, 0.16170771420001984, -0.21400737762451172, -0.09806525707244873, 0.07597959041595459, -0.02467009425163269, 0.3081901967525482, 0.31438034772872925, 0.19608278572559357, 0.1209070160984993, 0.2189062535762787, -0.010001137852668762, -0.26316291093826294, -0.1079682782292366, -0.049243707209825516, -0.20697824656963348, 0.1495613306760788, 0.030727799981832504, -0.13513053953647614, 0.0955761969089508, 0.030033482238650322, 0.27598780393600464, -0.1334744393825531, -0.23263727128505707, -0.11731341481208801, 0.16779384016990662, 0.06548359990119934, -0.4048950672149658, -0.43130794167518616, 0.26629534363746643, 0.3011431396007538, -0.19168393313884735, -0.03108488768339157, -0.008796382695436478, 0.14897827804088593, 0.1751594990491867, 0.32454514503479004, -0.28243488073349, -0.24835741519927979, 0.38198381662368774, 0.37629571557044983, -0.0009686523117125034, 0.17991673946380615, -0.34205567836761475, 0.4127165973186493, -0.4418827295303345, 0.02032119408249855, -0.15928904712200165, -0.17886877059936523, 0.10189429670572281, -0.37448957562446594, 0.2581639289855957, -0.32958924770355225, -0.12095736712217331, -0.36229661107063293, -0.0259004607796669, -0.13418929278850555, -0.3887873888015747, -0.3135499060153961, -0.30390051007270813, 0.6246152520179749, 0.04891253635287285, 0.03837144002318382, 0.039465613663196564, -0.3500666618347168, 0.4784978926181793, -0.263248085975647, -0.014048249460756779, 0.11725252866744995, -0.4042608439922333, -0.33413857221603394, -0.1068202331662178, 0.03610949590802193, -0.2660263180732727, 0.05063466727733612, 0.43326351046562195, 0.31944385170936584, 0.12550637125968933, -0.10416645556688309, 0.18420153856277466, -0.2222827672958374, -0.07394225150346756, -0.037802327424287796, 0.46602538228034973, -0.33013853430747986, 0.3341034948825836, -0.3091506361961365, -0.2916911840438843, -0.041259393095970154, -0.2189396470785141, -0.10601181536912918, -0.3102012872695923, 0.0336313396692276, 0.042651090770959854, -0.09542645514011383, 0.30602845549583435, -0.17579980194568634, 0.4814433753490448, 0.14605242013931274, -0.03444826602935791, 0.41216692328453064, -0.1552393138408661, 0.054860834032297134, 0.28166282176971436, 0.3663773834705353, -0.13495492935180664, 0.11544875800609589, -0.224328875541687, 0.32387909293174744, -0.5587852001190186, 0.16266684234142303, 0.024198174476623535, -0.08685310184955597, -0.14185316860675812, 0.11989353597164154, -0.23992587625980377, 0.03332090377807617, 0.12951359152793884, 0.3079037368297577, -0.5115618705749512, -0.15564972162246704, 0.2625652551651001, 0.12864618003368378, 0.15844935178756714, -0.5299752950668335, 0.4339584708213806, -0.15367570519447327, -0.13225311040878296, 0.11774812638759613, -0.1863769143819809, -0.22315099835395813, 0.0798325389623642, -0.24797777831554413, 0.26907405257225037, -0.4685707986354828, 0.04926987364888191, 0.0869741290807724, -0.14327777922153473, -0.12432362139225006, -0.3402884602546692, 0.3944292962551117, 0.10715609043836594, -0.2627140283584595, 0.10709680616855621, -0.5049533843994141, 0.4292217195034027, -0.14095501601696014, 0.25391775369644165, -0.02120094746351242, -0.05655966326594353, 0.10427729785442352, 0.008788621053099632, 0.16387218236923218, 0.21993304789066315, -0.2405148148536682, 0.08881159126758575, -0.05017034336924553, -0.0837743952870369, 0.10838921368122101, 0.20307254791259766, -0.18789517879486084, -0.1033916249871254, 0.3911154270172119, 0.06979185342788696, 0.36803141236305237, -0.18148501217365265, 0.09168098121881485, 0.39828041195869446, 0.24766570329666138, 0.24070362746715546, -0.04730011522769928, -0.12597356736660004, -0.0018254616297781467, -0.3500867784023285, 0.3896295130252838, 0.08481230586767197, 0.2690306305885315, -0.006764192134141922, 0.16895096004009247, -0.07676322013139725, 0.3060198724269867, -0.2052876055240631, -0.2341577261686325, -0.036688368767499924, 0.3711056411266327, -0.009068668819963932, 0.17425939440727234, -0.19648154079914093, 0.19124901294708252, -0.21270780265331268, 0.04555879905819893, 0.23227401077747345, 0.13269484043121338, -0.22279663383960724, 0.029210159555077553, -0.14515025913715363, -0.09088915586471558, 0.23814383149147034, -0.041334427893161774, 0.10422133654356003, -0.116934634745121, -0.09292517602443695, 0.046683311462402344, -0.04223296418786049, -0.009459436871111393, -0.0944935530424118, 0.04046986997127533, -0.08786711096763611, 0.04914611205458641, 0.10528301447629929, -0.08396683633327484, 0.039740633219480515, -0.11247283965349197, -0.07208029180765152, 0.1262756586074829, 0.0064590489491820335, -0.006683033891022205, -0.1035025417804718, -0.026741493493318558, 0.06727181375026703, -0.05425611138343811, -0.15533491969108582, 0.024551106616854668, -0.09764941781759262, -0.12199348211288452, -0.08336042612791061, 0.00314350426197052, -0.13945741951465607, -0.10001704841852188, 0.02290239930152893, -0.2629501223564148, -0.015270967036485672, -0.25102657079696655, -0.09997452795505524, 0.0778832957148552, -0.04468507692217827, -0.23465806245803833, -0.15822789072990417, -0.11791086941957474, 0.1563311070203781, -0.03388053551316261, -0.0774524062871933, -0.025402596220374107, 0.15636582672595978, 0.09708185493946075, -0.20894354581832886, -0.22759699821472168, 0.1936265379190445, 0.1019967794418335, -0.09383133798837662, 0.241911381483078, -0.24202145636081696, 0.289150595664978, -0.00584622286260128, -0.017331944778561592, -0.25058144330978394, 0.1669711023569107, -0.18097026646137238, 0.014947489835321903, -0.15342265367507935, 0.10709128528833389, -0.2648853659629822, -0.013061732985079288, 0.28751277923583984, 0.15676631033420563, -0.10092981904745102, 0.018662450835108757, -0.1853385865688324, 0.07122254371643066, 0.29184773564338684, 0.36332276463508606, 0.1855933964252472, 0.13860280811786652, -0.16429390013217926, 0.09575631469488144, -0.05848446115851402, 0.0942983403801918, -0.07901936769485474, -0.4745818078517914, -0.08414799720048904, -0.01492278277873993, 0.11448421329259872, -0.07418253272771835, 0.1010652631521225, 0.09489740431308746, -0.12049464881420135, 0.18235500156879425, -0.07167106121778488, 0.25027522444725037, -0.3018639385700226, -0.18599243462085724, -0.14055970311164856, -0.020624935626983643, 0.10702825337648392, 0.061952121555805206, -0.12740685045719147, 0.054596420377492905, -0.0018201912753283978, -0.16043813526630402, 0.13359539210796356, -0.08241414278745651, 0.0064106713980436325, 0.171904057264328, -0.057809315621852875, 0.136789932847023, -0.08292306959629059, 0.2098594307899475, 0.2011493444442749, 0.1181223914027214, -0.3578832745552063, -0.19579589366912842, -0.12471825629472733, 0.07546498626470566, 0.08241943269968033, 0.14541111886501312, -0.08831247687339783, -0.17051288485527039, 0.13415604829788208, 0.2806362509727478, -0.06818052381277084, -0.05454716086387634, -0.23838546872138977, -0.03185064345598221, 0.09505752474069595, 0.1471329629421234, 0.13917522132396698, -0.0657849907875061, -0.37085530161857605, 0.279774934053421, 0.1517525017261505, -0.05153418332338333, -0.012616828083992004, 0.01606842875480652, 0.07314252108335495, 0.028017260134220123, -0.12599854171276093, 0.28963738679885864, 0.1827944815158844, -0.16915656626224518, -0.2898799777030945, -0.029743237420916557, 0.025251923128962517, 0.1078692153096199, 0.12038221955299377, -0.09719584882259369, -0.1504860669374466, -0.1456143856048584, 0.30751094222068787, 0.14568324387073517, 0.008863489143550396, 0.09267811477184296, -0.04779163748025894, -0.0059322165325284, 0.010968374088406563, 0.0212200079113245, -0.061538055539131165, -0.08895239233970642, 0.09510568529367447, -0.009922153316438198, -0.18813076615333557, -0.024395233020186424, -0.008489218540489674, -0.006229017395526171, -0.06117868423461914, 0.08222849667072296, 0.295555055141449, 0.12166468054056168, 0.18378421664237976, -0.017538858577609062, -0.05242792144417763, 0.0570896714925766, 0.16324448585510254, -0.04619584605097771, 0.16572874784469604, 0.11855081468820572, 0.04513174667954445, -0.19671574234962463, -0.05098861828446388, -0.13318805396556854, -0.14979439973831177, -0.10539256036281586, -0.009482969529926777, 0.17346340417861938, 0.11911675333976746, -0.044591981917619705, 0.07132383435964584, -0.1987476497888565, -0.03273719921708107, -0.07096769660711288, 0.2258426994085312, 0.11010170727968216, -0.022196607664227486, 0.0061626131646335125, 0.03790086507797241, -0.06587134301662445, -0.3109920620918274, -0.14946249127388, 0.18412677943706512, 0.1225656121969223, -0.021721012890338898, 0.03686843067407608, -0.24769078195095062, 0.23536226153373718, -0.1162186861038208, 0.18502382934093475, -0.2728607654571533, -0.11851593106985092, -0.0725679099559784, 0.44734519720077515, 0.06487542390823364, 0.23335036635398865, 0.0374905951321125, -0.024298954755067825, -0.3462108075618744, 0.015014635398983955, 0.10858085006475449, 0.2918432652950287, -0.15044352412223816, 0.0178762786090374, -0.15787629783153534, 0.35246869921684265, 0.24403388798236847, -0.32870399951934814, -0.6766471862792969, 0.1664457470178604, 0.13363997638225555, -0.06123830005526543, 0.04550284519791603, 0.04650716483592987, -0.20446404814720154, -0.19097328186035156, 0.049773816019296646, 0.23652726411819458, -0.018143652006983757, 0.08344975858926773, 0.10006103664636612, 0.18513095378875732, -0.28960293531417847, -0.0968538150191307, 0.05192131549119949, -0.020916622132062912, 0.027293626219034195, 0.06378091126680374, -0.1509139984846115, 0.04806803911924362, -0.21300524473190308, -0.31039512157440186, -0.1147773340344429, -0.12594056129455566, 0.19358095526695251, -0.10495471954345703, 0.052816733717918396, 0.14703117311000824, -0.08118149638175964, 0.08328676223754883, 0.23871444165706635, -0.19846606254577637, 0.21323081851005554, 0.08445493876934052, 0.10650082677602768, -0.06594464182853699, -0.07719757407903671, -0.3293215334415436, -0.43656760454177856, 0.04131639748811722, 0.12126302719116211, 0.10074947774410248, 0.19726161658763885, -0.07803264260292053, 0.13749192655086517, -0.05032818019390106, 0.17136165499687195, -0.06061907485127449, -0.07084717601537704, -0.11226429790258408, 0.08852966129779816, -0.07917694747447968, 0.12206318229436874, -0.17172124981880188, 0.04165574908256531, -0.020861605182290077, 0.13523122668266296, -0.0942588523030281, -0.06317213922739029, 0.04228346794843674, -0.038160890340805054, 0.17508481442928314, -0.08074171096086502, 0.11724455654621124, 0.11959461867809296, 0.10796963423490524, 0.2341742366552353, 0.192287877202034, 0.125275120139122, -0.1264931857585907, 0.19410239160060883, 0.01632344350218773, 0.09956972301006317, -0.1485007107257843, 0.1985960751771927, 0.0496070459485054, -0.1360866129398346, -0.10998155921697617, -0.01716523990035057, -0.17156292498111725, 0.06407691538333893, 0.07434368133544922, 0.05049316957592964, -0.18437425792217255, 0.22144514322280884, 0.07143928855657578, 0.01366396714001894, 0.13994529843330383, 0.15578994154930115, 0.020188938826322556, 0.024379508569836617, -0.004431567620486021, 0.11319319903850555, -0.039758969098329544, 0.22555331885814667, -0.0009129850659519434, 0.08765270560979843, 0.22879688441753387, -0.18037623167037964, -0.030887337401509285, 0.15836283564567566, -0.029084356501698494, -0.11348868161439896, -0.2198576182126999, 0.06547548621892929, -0.002026692032814026, 0.041464731097221375, -0.035776928067207336, 0.029413172975182533, -0.005975893698632717, 0.02289476990699768, -0.34642335772514343, -0.07912613451480865, 0.30302533507347107, 0.12972334027290344, 0.0525149405002594, -0.21961753070354462, -0.08868178725242615, -0.145044207572937, -0.09882379323244095, 0.2920600473880768, -0.04025394842028618, -0.22927908599376678, -0.12404897063970566, 0.007655136752873659, 0.4017374813556671, 0.0986904427409172, -0.10964624583721161, -0.23658712208271027, -0.2566205859184265, -0.22406624257564545, 0.30430781841278076, 0.20481504499912262, 0.01714356429874897, -0.3710009455680847, -0.16485944390296936, -0.23289760947227478, 0.1397014558315277, 0.0035701757296919823, -0.177758127450943, -0.35127943754196167, 0.12887676060199738, 0.3224960267543793, 0.42532747983932495, -0.3535332977771759, -0.05787913128733635, 0.10211500525474548, -0.14904901385307312, -0.07258179783821106, 0.24422064423561096, 0.032862622290849686, -0.0507565476000309, -0.28248751163482666, 0.135706827044487, 0.15101119875907898, 0.05690649896860123, -0.2092922031879425, -0.09618678689002991, -0.10144225507974625, 0.19498881697654724, 0.15712976455688477, 0.12210294604301453, 0.04499397799372673, 0.03772367537021637, -0.11964584141969681, 0.016079289838671684, 0.17001475393772125, -0.003347096499055624, -0.07598142325878143, -0.07362569123506546, 0.11286348849534988, 0.07624100148677826, 0.11473918706178665, 0.0015177675522863865, -0.06700294464826584, -0.3598443269729614, 0.19999563694000244, -0.015603870153427124, -0.04222605749964714, 0.051613226532936096, -0.08906187862157822, -0.13135671615600586, -0.3402320146560669, 0.04968225210905075, 0.11826114356517792, -0.12662248313426971, 0.03433176502585411, -0.21038705110549927, 0.17578326165676117, -0.15584330260753632, 0.2873362898826599, -0.04039788246154785, 0.013554471544921398, 0.0036359995137900114, -0.18112249672412872, 0.006156714633107185, 0.01697048544883728, -0.019022902473807335, 0.00765301613137126, -0.17826269567012787, 0.024477703496813774, 0.04314195364713669, -0.017098017036914825, -0.00792220700532198, -0.038745008409023285, 0.28909140825271606, 0.24728357791900635, -0.21716970205307007, 0.04656021669507027, -0.11476235836744308, 0.17433108389377594, 0.37208712100982666, 0.16682738065719604, 0.267947256565094, 0.3380071520805359, 0.22214168310165405, -0.04317130520939827, -0.3018657863140106, 0.09262008965015411, -0.1631731241941452, -0.12223964929580688, -0.149977907538414, -0.11311773210763931, -0.3007436990737915, 0.1554960161447525, -0.09397833049297333, 0.2320190668106079, -0.08233170956373215, 0.2226690649986267, 0.013746477663516998, 0.1306261122226715, -0.1352599859237671, 0.24648608267307281, 0.12416445463895798, 0.14134244620800018, -0.16454175114631653, 0.1066831648349762, -0.056925807148218155, 0.01930754818022251, -0.3249916136264801, -0.17301106452941895, 0.126522958278656, -0.054104339331388474, -0.14401693642139435, -0.03015916608273983, 0.024341000244021416, 0.0076095606200397015, -0.16487468779087067, 0.06108187884092331, -0.019580993801355362, 0.14275431632995605, -0.17636017501354218, -0.08652979135513306, -0.05721641331911087, -0.05394105613231659, -0.014730460941791534, -0.10113848000764847, 0.16302894055843353, -0.2208344042301178, -0.11844805628061295, -0.28293749690055847, -0.07761533558368683, -0.17818902432918549, -0.21371807157993317, 0.06570468842983246, 0.3126695454120636, -0.016621636226773262, 0.04239637032151222, 0.10928172618150711, 0.3171912729740143, 0.013254884630441666, 0.42579254508018494, 0.1404377669095993, -0.029525022953748703, -0.16368097066879272, 0.27361369132995605, -0.22113002836704254, -0.11507400870323181, 0.0005724981310777366, 0.08419355005025864, -0.3081902861595154, -0.057201504707336426, 0.05819693207740784, 0.32235026359558105, -0.11904609203338623, 0.04380735382437706, -0.1321863979101181, -0.12316521257162094, 0.02922207862138748, -0.20207473635673523, 0.10200607031583786, 0.007149496581405401, -0.17614628374576569, -0.017365388572216034, -0.019344300031661987, 0.09476596117019653, -0.020115358754992485, 0.1581047773361206, 0.11119762808084488, -0.07325374335050583, -0.16669169068336487, -0.14272484183311462, -0.24581973254680634, 0.04450558125972748, 0.14918100833892822, 0.14428138732910156, 0.07758815586566925, 0.11485528200864792, -0.02224547602236271, 0.0677185133099556, 0.07115354388952255, -0.07143668830394745, -0.05076392740011215, 0.18848684430122375, 0.012855865992605686, 0.029023880138993263, -0.1838085949420929, 0.11378591507673264, 0.05495830625295639, 0.14999233186244965, 0.01121507864445448, 0.14372394979000092, -0.20491184294223785, -0.08258649706840515, -0.3228716254234314, -0.005383525043725967, -0.14315380156040192, 0.009588097222149372, -0.0035116756334900856, -0.050005845725536346, -0.09913969784975052, 0.23973268270492554, 0.10510727018117905, 0.05593430623412132, -0.06113899126648903, 0.33848172426223755, 0.20446380972862244, -0.027761556208133698, -0.021926378831267357, 0.1922013759613037, 0.05508367344737053, -0.091176338493824, -0.1527586728334427, 0.13808703422546387, 0.08513043820858002, -0.016292329877614975, 0.1567278802394867, -0.10335390269756317, 0.0923420712351799, -0.004815398249775171, 0.00837723445147276, 0.1526051163673401, 0.005666556768119335, -0.02061511017382145, -0.184123232960701, -0.10980706661939621, -0.20468556880950928, 0.10932885110378265, -0.13911063969135284, -0.15225820243358612, -0.08142411708831787, 0.03804784268140793, 0.10171040147542953, 0.09473172575235367, -0.13169169425964355, 0.14917460083961487, -0.11694644391536713, 0.10010576993227005, 0.008346707560122013, -0.06650083512067795, -0.031599752604961395, 0.16442734003067017, -0.20190462470054626, 0.0075863259844481945, -0.25646743178367615, 0.17588235437870026, 0.009106614626944065, 0.05839740112423897, 0.011491874232888222, -0.00879840087145567, -0.10354317724704742, 0.1666644662618637, -0.42114588618278503, 0.47962361574172974, -0.0011612990638241172, -0.1297103613615036, -0.03518248349428177, 0.16396547853946686, -0.13360926508903503, 0.05431138351559639, 0.0020350818522274494, 0.27433282136917114, -0.040093254297971725, -0.07287119328975677, -0.14330296218395233, 0.1659664660692215, -0.07174787670373917, 0.1486922800540924, 0.07448340207338333, 0.09060221910476685, -0.008049056865274906, 0.04446424916386604, 0.09511177241802216, 0.06468412280082703, 0.062241021543741226, -0.09487585723400116, 0.07663986831903458, 0.1017158105969429, -0.004369915463030338, -0.15739786624908447, 0.013703551143407822, -0.07145792245864868, 0.1375199258327484, 0.011828313581645489, 0.17175088822841644, -0.18034061789512634, 0.09174762666225433, -0.046623699367046356, 0.03336568921804428, 0.016134433448314667, 0.23251213133335114, -0.044044118374586105, 0.11562080681324005, -0.09750980138778687, 0.17894990742206573, -0.1217292919754982, 0.07350576668977737, -0.0908687636256218, 0.005926236510276794, -0.027488570660352707, 0.02442319504916668, -0.0956205204129219, 0.056122131645679474, 0.18784116208553314, -0.17100456357002258, -0.06209225580096245, 0.053316231817007065, -0.13556741178035736, 0.024798376485705376, -0.2228114902973175, 0.17746056616306305, -0.07028838247060776, 0.04967460781335831, 0.12981551885604858, -0.17649051547050476, 0.0573001503944397, -0.24051505327224731, 0.12528057396411896, 0.3270929455757141, -0.032839301973581314, -0.14043305814266205, -0.26638683676719666, -0.12720352411270142, -0.20306573808193207, -0.0420694462954998, -0.23833897709846497, 0.10634269565343857, -0.21030136942863464, 0.18281348049640656, 0.08207560330629349, 0.21946990489959717, 0.022151341661810875, 0.055362556129693985, -0.08950759470462799, 0.18065184354782104, 0.10797547549009323, 0.044098157435655594, -0.22185510396957397, -0.2116122990846634, -0.3768545687198639, -0.09096021950244904, 0.029607878997921944, 0.27567556500434875, -0.07423247396945953, 0.10905391722917557, -0.014626603573560715, 0.2157098948955536, -0.05935177952051163, -0.036738522350788116, -0.13301222026348114, 0.062396783381700516, 0.15289685130119324, -0.12615692615509033, -0.04126116633415222, 0.17846447229385376, -0.22943852841854095, 0.06558030098676682, -0.18489134311676025, 0.21222878992557526, -0.1855517327785492, -0.03726065903902054, -0.03495566174387932, 0.27962014079093933, 0.2249273955821991, 0.11512639373540878, 0.036526985466480255, 0.12489361315965652, -0.015745727345347404, 0.023159317672252655, 0.19900274276733398, 0.15581513941287994, 0.0982210785150528, 0.26018667221069336, 0.15493926405906677, -0.12203523516654968, -0.374387264251709, 0.04958156496286392, 0.022811895236372948, 0.006678628735244274, -0.38042062520980835, -0.007171483710408211, -0.4011373519897461, -0.0963134765625, -0.07553008198738098, 0.07002701610326767, -0.1329478621482849, -0.2997514307498932, 0.10190402716398239, 0.13705550134181976, 0.14016316831111908, 0.38254404067993164, -0.1291094422340393, 0.008888092823326588, -0.03626617044210434, 0.26991862058639526, -0.057586669921875, -0.058162521570920944, 0.04370879754424095, 0.07268967479467392, 0.20786532759666443, -0.18564915657043457, -0.01812518760561943, -0.025637401267886162, -0.09090503305196762, 0.06961102783679962, 0.055219266563653946, 0.2853759825229645, 0.09818053245544434, 0.1293645203113556, -0.06518903374671936, 0.04312177374958992, -0.19181396067142487, 0.18105868995189667, 0.07458788901567459, 0.19750675559043884, -0.07048780471086502, -0.3023315370082855, 0.10917116701602936, 0.11182523518800735, 0.13420458137989044, 0.04644818603992462, 0.19708514213562012, -0.3274468779563904, -0.3085317611694336, 0.06078600138425827, 0.22000853717327118, -0.5865034461021423, 0.05062146484851837, -0.6566466689109802, -0.26038771867752075, -0.5360612869262695, 0.9680695533752441, -0.8109052181243896, -0.5003005862236023, -1.0705382823944092, 0.12425509840250015, -0.6700717210769653, 0.5221726298332214, -0.7113878130912781, -0.07342272251844406, -0.1858927458524704, 0.25251302123069763, 0.09771031141281128, 0.3959677517414093, 0.050047654658555984, -0.08287323266267776, -0.18860262632369995, 0.2318764477968216, -0.1017235741019249, 0.11375701427459717, 0.016165301203727722, 0.12398801743984222, 0.10626299679279327, 0.1357274055480957, -0.13387839496135712, -0.05996635556221008, -0.2559635043144226, -0.01597459428012371, -0.007612140849232674, -0.0038149505853652954, -0.1596284806728363, -0.07788005471229553, -0.28530651330947876, 0.11307308077812195, -0.2345120757818222, 0.26985445618629456, 0.32713207602500916, 0.16889473795890808, -0.22228896617889404, -0.08520933240652084, 0.12581582367420197, -0.046483006328344345, -0.23994660377502441, 0.2688826620578766, 0.042740773409605026, 0.04810190573334694, 0.20549342036247253, -0.15422140061855316, 0.047656573355197906, -0.18543483316898346, 0.08894828706979752, -0.111014224588871, -0.09004703909158707, 0.09777864068746567, -0.12032274901866913, 0.1413702368736267, 0.2039458304643631, 0.09772735834121704, 0.2366228997707367, -0.1953231692314148, -0.1419302374124527, 0.3934636414051056, -0.1493852138519287, -0.08558536320924759, -0.3173110783100128, -0.07177647948265076, -0.169193834066391, 0.20828630030155182, 0.36191633343696594, 0.2997739911079407, -0.10779277980327606, -0.23248045146465302, -0.16539713740348816, 0.16734431684017181, -0.09900982677936554, -0.18328319489955902, -0.07602518051862717, 0.332864910364151, -0.042484432458877563, -0.13566292822360992, 0.1975601762533188, 0.020484359934926033, -0.15024347603321075, -0.0013281544670462608, 0.38202112913131714, -0.04471055790781975, -0.14247368276119232, -0.19347752630710602, -0.1873588263988495, -0.008077689446508884, -0.04515722393989563, -0.24974429607391357, -0.09315703809261322, -0.03973351791501045, -0.01962459273636341, 0.002132008783519268, 0.03934082016348839, 0.12615536153316498, 0.29523712396621704, -0.13543245196342468, -0.22225233912467957, -0.16795292496681213, -0.019597968086600304, 0.23203158378601074, 0.06711262464523315, 0.06079645827412605, 0.029329411685466766, 0.1969708502292633, -0.40450936555862427, 0.0570252351462841, 0.2849244475364685, -0.1265784353017807, -0.31374698877334595, 0.26759636402130127, 0.07278697192668915, -0.22473064064979553, 0.28222420811653137, 0.3186566233634949, 0.006689421832561493, 0.06071412190794945, 0.356704443693161, -0.044722847640514374, 0.013309689238667488, -0.05637892335653305, 0.07896167039871216, -0.22725224494934082, -0.05155031755566597, 0.10072869062423706, 0.144516259431839, 0.09685156494379044, 0.30850207805633545, -0.34473446011543274, 0.03277358412742615, -0.12366671860218048, 0.11539733409881592, 0.25888729095458984, 0.17011773586273193, -0.05252210050821304, 0.09044162929058075, -0.10421934723854065, -0.11011239141225815, -0.436935156583786, -0.20219291746616364, 0.019992131739854813, -0.01132943481206894, 0.019255375489592552, 0.0954202190041542, 0.12873126566410065, -0.1266305297613144, -0.1268252581357956, 0.169646754860878, -0.1845272034406662, 0.37006205320358276, -0.2171759456396103, 0.2187623381614685, -0.044571470469236374, -0.020063800737261772, 0.2874627113342285, -0.15972302854061127, 0.2655658721923828, -0.12417461723089218, -0.08027882874011993, -0.14634853601455688, 0.1494361162185669, 0.41987019777297974, 0.12652547657489777, 0.12331875413656235, 0.08246472477912903, -0.12290739268064499, -0.17307128012180328, -0.07800033688545227, -0.011478939093649387, 0.03379996493458748, -0.10946618020534515, -0.0015932213282212615, 0.06685508787631989, -0.11759583652019501, 0.20035018026828766, 0.4750540256500244, -0.2701023817062378, 0.08521018922328949, 0.026100361719727516, 0.11341959983110428, -0.03337722644209862, 0.2789897918701172, 0.0422477126121521, 0.13244228065013885, -0.15634049475193024, -0.05427292734384537, -0.2605610489845276, -0.06634074449539185, -0.03558963164687157, 0.2200780212879181, -0.10477907210588455, 0.15169955790042877, 0.17547667026519775, -0.24528621137142181, -0.02897859737277031, -0.21476925909519196, 0.09806786477565765, -0.14689426124095917, 0.02607996203005314, -0.2900032103061676, -0.21668927371501923, 0.4770205318927765, 0.06329933553934097, -0.25894224643707275, -0.08151646703481674, 0.06349188089370728, -0.205709770321846, 0.00452809501439333, -0.24009720981121063, -0.6003615260124207, -0.106424979865551, -0.0735645443201065, -0.23971709609031677, -0.026400048285722733, 0.034747377038002014, 0.09107036888599396, -0.14634688198566437, 0.08921054005622864, -0.44709905982017517, 0.24408631026744843, 0.11713533103466034, -0.013403281569480896, 0.20340177416801453, 0.38844138383865356, -0.07245541363954544, 0.05022519454360008, 0.0939909890294075, 0.22297832369804382, 0.15678174793720245, 0.16911141574382782, 0.006833591032773256, 0.11436697840690613, 0.1329093873500824, -0.10725968331098557, -0.12391015887260437, -0.03828110918402672, 0.13027113676071167, 0.0020776207093149424, -0.11523869633674622, 0.11764484643936157, -0.08533424884080887, 0.13559596240520477, 0.17297564446926117, 0.0720326378941536, 0.28115078806877136, 0.22132012248039246, 0.17183628678321838, -0.2877158522605896, -0.09056546539068222, 0.06106313318014145, -0.20444320142269135, -0.05263279005885124, -0.274197518825531, 0.1800866276025772, 0.05735782906413078, -0.26036110520362854, 0.21174682676792145, -0.13357193768024445, -0.2052229791879654, 0.10101013630628586, -0.3121125102043152, -0.2428135871887207, -0.05702505633234978, 0.15160536766052246, 0.2096899300813675, 0.02394649013876915, -0.21383097767829895, -0.07661397755146027, 0.30881786346435547, 0.1373818814754486, 0.1602790802717209, 0.0742429569363594, 0.21448914706707, -0.2826314866542816, -0.02793223224580288, -0.16533631086349487, -0.06680171191692352, -0.3069468140602112, -0.008564887568354607, 0.041204266250133514, 0.09461192786693573, -0.010422537103295326, -0.12171008437871933, -0.07108760625123978, 0.16510610282421112, 0.04749804735183716, -0.12624582648277283, -0.02197878062725067, -0.1752827912569046, -0.11664535850286484, 0.08180050551891327, 0.006791433319449425, -0.11488567292690277, -0.04624451324343681, 0.13146105408668518, 0.12382270395755768, 0.08576329052448273, 0.055478986352682114, -0.05975639447569847, 0.047363534569740295, -0.08554600924253464, -0.10561634600162506, 0.04685015231370926, 0.09215765446424484, -0.0958579033613205, 0.026370419189333916, -0.09438857436180115, -0.13829046487808228, 0.09461802989244461, 0.08771800994873047, -0.12774129211902618, -0.32015305757522583, -0.06642443686723709, 0.17371127009391785, -0.10880423337221146, 0.040069688111543655, 0.25679171085357666, 0.03550680726766586, 0.06505896896123886, -0.22767239809036255, 0.2162480652332306, 0.09804002940654755, -0.24794095754623413, -0.04438256099820137, -0.19250783324241638, 0.11416246742010117, -0.021258654072880745, 0.04639803245663643, 0.1606304794549942, -0.07040584832429886, 0.137253999710083, -0.11244259774684906, 0.14238637685775757, 0.11250624060630798, 0.08782096207141876, 0.020340723916888237, 0.08579913526773453, -0.007995062507689, -0.02232569269835949, -0.038400065153837204, -0.1630396544933319, -0.16340979933738708, -0.11938488483428955, -0.09043234586715698, 0.18845263123512268, -0.05040475353598595, 0.10167012363672256, -0.027832726016640663, -0.2863124907016754, -0.05694485083222389, 0.022094126790761948, -0.0931561142206192, -0.1979120671749115, 0.2002420276403427, 0.09111358970403671, 0.025565052404999733, 0.15902695059776306, 0.04532581940293312, -0.032865751534700394, -0.20933043956756592, -0.0723545253276825, 0.1693170964717865, -0.11503979563713074, 0.24858929216861725, 0.11931393295526505, -0.007201420143246651, -0.05810308828949928, -0.13351507484912872, -0.12079894542694092, 0.025178756564855576, 0.06003259867429733, 0.11254008859395981, -0.01249298732727766, 0.06469404697418213, 0.02578902058303356, -0.09024331718683243, 0.01795867830514908, 0.0980176031589508, 0.015019512735307217, -0.08332076668739319, 0.21746450662612915, 0.047161124646663666, -0.0098956860601902, -0.23353484272956848, 0.08401595056056976, 0.12215262651443481, -0.03113974817097187, -0.06743184477090836, 0.1520482897758484, 0.08408933877944946, 0.048393283039331436, 0.010290085338056087, 0.11367060989141464, 0.13691149652004242, -0.018630821257829666, -0.05690908059477806, 0.13865548372268677, -0.1267140954732895, 0.13746152818202972, -0.0033023699652403593, -0.09477794170379639, 0.10388282686471939, 0.10474492609500885, -0.13282963633537292, -0.02942119725048542, 0.06956438720226288, -0.15547789633274078, -0.26088446378707886, -0.04637421295046806, 0.04053056240081787, 0.1418987661600113, -0.0780409500002861, 0.12789547443389893, 0.054457634687423706, 0.015446470119059086, -0.04597979038953781, 0.19414649903774261, -0.10628670454025269, -0.13274702429771423, -0.22431166470050812, -0.08791076391935349, 0.16156968474388123, -0.15609142184257507, -0.08342651277780533, 0.2735556364059448, -0.05297154560685158, 0.0382087267935276, 0.1348041445016861, 0.14822176098823547, 0.20746594667434692, -0.19785089790821075, 0.12380951642990112, -0.023019684478640556, -0.029845673590898514, -0.01123671792447567, -0.031098129227757454, -0.15314987301826477, -0.08652075380086899, 0.035090405493974686, 0.3419301509857178, 0.17006929218769073, 0.01639517955482006, -0.22384776175022125, -0.019051510840654373, -0.0907680094242096, 0.12193632125854492, 0.07544111460447311, 0.0554051399230957, -0.05891546979546547, -0.10697216540575027, -0.22545605897903442, -0.16044770181179047, 0.12975573539733887, 0.11233890801668167, -0.07567723840475082, 0.08397860080003738, 0.023421185091137886, 0.05608261376619339, 0.15424604713916779, 0.18262848258018494, 0.015342414379119873, 0.22358600795269012, 0.0067343576811254025, 0.011390820145606995, 0.0812637209892273, -0.016731062904000282, 0.014756778255105019, -0.1819419264793396, -0.03302818164229393, 0.1400042325258255, 0.1431581825017929, -0.0721639096736908, -0.1820312738418579, 0.15966753661632538, 0.03226746618747711, -0.17128531634807587, 0.012450683861970901, -0.02862612158060074, 0.05906601622700691, 0.07863559573888779, 0.32121479511260986, -0.6574180126190186, -0.21477825939655304, -0.011264475993812084, -0.08127513527870178, 0.0585252121090889, -0.060387011617422104, -0.12881985306739807, -0.16248463094234467, -0.14855065941810608, 0.19428665935993195, 0.23392046988010406, -0.1721639484167099, 0.16902713477611542, -0.05855986848473549, -0.18177610635757446, 0.23350469768047333, 0.1490955352783203, 0.22644443809986115, 0.03391391038894653, -0.17112745344638824, -0.1524396389722824, 0.14513172209262848, -0.038438815623521805, -0.05077739059925079, -0.335784912109375, -0.5022016167640686, 0.12932007014751434, -0.03833870589733124, -0.14917157590389252, -0.18691465258598328, 0.22969815135002136, -0.047391146421432495, -0.2188747525215149, 0.26157504320144653, 0.13413292169570923, -0.024388978257775307, -0.19664402306079865, 0.028459392488002777, -0.08271918445825577, -0.017691101878881454, 0.22067493200302124, -0.04404767230153084, 0.011264589615166187, 0.034725189208984375, -0.09524097293615341, -0.20690032839775085, 0.08372653275728226, -0.03244675323367119, 0.09529857337474823, -0.10982245206832886, -0.06183411553502083, 0.026490887627005577, -0.09542305022478104, -0.03377717733383179, 0.11241249740123749, 0.0553627647459507, 0.18895123898983002, 0.016343962401151657, -0.033757295459508896, -0.09792418032884598, 0.01723150536417961, 0.1739279180765152, -0.0275841373950243, -0.23867642879486084, 0.09623503684997559, 0.06805774569511414, -0.03434532508254051, 0.1652054637670517, 0.04632258042693138, -0.12753143906593323, -0.22927504777908325, 0.011575990356504917, 0.18208706378936768, 0.0981975868344307, -0.15491706132888794, 0.08408055454492569, 0.06290950626134872, 0.023923931643366814, -0.08790452033281326, 0.07428921014070511, -0.07111973315477371, -0.23053719103336334, -0.0198492631316185, -0.10278239846229553, 0.08431576937437057, 0.006928525865077972, -0.062269728630781174, -0.1337195634841919, -0.0027135370764881372, -0.01936306618154049, -0.10087074339389801, 0.022786451503634453, -0.12252955883741379, 0.045865464955568314, -0.01109390240162611, 0.43209749460220337, -0.04108995199203491, 0.01438945159316063, 0.04322594031691551, 0.18523544073104858, -0.03824900835752487, -0.13026893138885498, -0.2411101758480072, -0.07687883824110031, -0.012030831538140774, 0.046445582062006, 0.13423390686511993, -0.03479816019535065, -0.3333020806312561, -0.20814654231071472, -0.026834413409233093, 0.25653403997421265, -0.07313939183950424, 0.246900275349617, -0.06796049326658249, -0.2679286301136017, 0.01974041759967804, 0.038885243237018585, 0.0640835389494896, -0.151628777384758, -0.2555226683616638, 0.014157189056277275, -0.07391632348299026, 0.17769794166088104, -0.11631231755018234, -0.0877043753862381, 0.1642524152994156, -0.2175426185131073, 0.00801760796457529, 0.2131720930337906, 0.25962838530540466, -0.09940314292907715, -0.17216819524765015, 0.039514582604169846, 0.1269516497850418, -0.17159351706504822, 0.10651473701000214, -0.009339672513306141, -0.2527543306350708, -0.16109760105609894, 0.05540880933403969, -0.03391169756650925, 0.12680089473724365, 0.3920747935771942, -0.39123955368995667, -0.06822814047336578, 0.36039984226226807, 0.0029476038180291653, 0.08637075871229172, -0.24504171311855316, -0.05186286196112633, -0.03719840571284294, -0.0016280589625239372, 0.05158893018960953, -0.09015627205371857, -0.15240204334259033, 0.2245311439037323, 0.03636319935321808, 0.032560739666223526, -0.05181976780295372, 0.2032364010810852, 0.26159659028053284, -0.13261403143405914, 0.16221269965171814, -0.11415162682533264, -0.03294462338089943, -0.1977681964635849, 0.0013186541618779302, 0.08099913597106934, 0.11940690875053406, 0.019137630239129066, 0.10766181349754333, -0.04480766877532005, -0.10739994049072266, 0.04689040407538414, 0.01656777411699295, -0.0616467259824276, -0.023126104846596718, -0.15873409807682037, -0.09079509973526001, 0.06896704435348511, -0.17933157086372375, -0.2921130657196045, -0.09290187060832977, 0.3473448157310486, -0.030152706429362297, 0.14638382196426392, -0.08368609100580215, -0.040688034147024155, -0.07437018305063248, -0.26938503980636597, -0.15585961937904358, -0.3587052524089813, 0.054221417754888535, 0.1287745088338852, -0.1389167606830597, -0.002366993809118867, -0.36795592308044434, 0.023768944665789604, -0.03766155615448952, -0.2845318019390106, -0.08963779360055923, -0.25984734296798706, -0.13374237716197968, 0.16676296293735504, 0.14503690600395203, 0.009618140757083893, 0.08950095623731613, -0.12268133461475372, 0.1699988692998886, 0.21797703206539154, 0.055564261972904205, 0.003151325508952141, -0.11089249700307846, 0.28987136483192444, 0.20707274973392487, -0.2760145664215088, -0.08310176432132721, -0.07240614295005798, -0.3487531542778015, 0.07959993183612823, 0.0154487956315279, 0.14178454875946045, 0.19503790140151978, 0.06358199566602707, -0.07859037071466446, 0.14450152218341827, 0.16337645053863525, 0.0647638812661171, 0.0819716826081276, 0.08188401162624359, 0.04465384781360626, 0.2862270474433899, 0.17880815267562866, 0.1189383715391159, 0.028067616745829582, 0.05588875338435173, 0.06768970191478729, 0.08651696890592575, 0.07100559771060944, 0.16183412075042725, -0.10557428002357483, -0.055660590529441833, -0.08284609019756317, 0.07409288734197617, 0.21871714293956757, 0.006717010401189327, -0.2989250123500824, -0.015205549076199532, -0.25456884503364563, 0.08852063864469528, -0.1160406768321991, -0.2892773151397705, -0.07478530704975128, -0.1142749935388565, 0.18119603395462036, -0.2971057891845703, -0.20593319833278656, -0.11564675718545914, 0.04800000786781311, 0.16279007494449615, 0.26171162724494934, 0.20176339149475098, 0.21509312093257904, 0.031494129449129105, 0.10115722566843033, 0.12586796283721924, 0.11618261784315109, -0.05953916907310486, 0.011858773417770863, 0.25293993949890137, -0.11035220324993134, 0.16478584706783295, -0.08763615041971207, 0.21759268641471863, -0.05372801795601845, -0.17703549563884735, -0.10052375495433807, 0.03997950628399849, 0.2650376260280609, 0.28694355487823486, -0.026978787034749985, 0.12956030666828156, 0.17760828137397766, 0.06999145448207855, -0.11008802801370621, 0.16240866482257843, -0.07936498522758484, 0.3058890402317047, 0.1085631251335144, -0.1778886318206787, 0.05161205679178238, -0.011252639815211296, 0.17814987897872925, 0.07516010105609894, 0.23913560807704926, 0.1471264362335205, -0.2846008539199829, -0.006936376448720694, 0.25466814637184143, -0.09093096107244492, 0.10544808954000473, 0.07390689849853516, -0.19950850307941437, 0.028515420854091644, -0.06236870586872101, 0.0002570776850916445, 0.2414022833108902, 0.004976207390427589, -0.13909567892551422, -0.22979705035686493, -0.11710303276777267, 0.22460238635540009, -0.03877349942922592, -0.10837648808956146, 0.10894141346216202, 0.25851473212242126, -0.15991568565368652, -0.29902270436286926, 0.09500592947006226, 0.12495044618844986, -0.3281588852405548, -0.1810220628976822, -0.14754371345043182, 0.1829589307308197, 0.10553667694330215, -0.04869372770190239, 0.06791647523641586, 0.030214954167604446, -0.003741326741874218, 0.11660527437925339, -0.016950460150837898, -0.08481046557426453, 0.19125336408615112, -0.2554647922515869, 0.022955860942602158, -0.06325426697731018, 0.06513455510139465, 0.03932067006826401, 0.021717753261327744, -0.04962393268942833, -0.1613037884235382, -0.11622553318738937, -0.11222618073225021, 0.048676084727048874, 0.19434526562690735, 0.13302592933177948, -0.022077029570937157, -0.07723544538021088, -0.1879432648420334, 0.06376344710588455, -0.051586661487817764, -0.22493906319141388, -0.02038453333079815, -0.07248152047395706, -0.13802988827228546, -0.13030977547168732, -0.032512132078409195, 0.21562880277633667, -0.06862995773553848, -0.15104982256889343, 0.2408638447523117, -0.03956839069724083, -0.27685749530792236, -0.14308416843414307, -0.10786858946084976, 0.17520613968372345, -0.1028912216424942, -0.19127120077610016, 0.19129176437854767, 0.08867087960243225, -0.04844265431165695, -0.18450409173965454, -0.13096509873867035, -0.061393581330776215, 0.3053942918777466, 0.13301415741443634, -0.09876693040132523, -0.13776414096355438, 0.027896873652935028, -0.025158314034342766, -0.025730937719345093, 0.1833285689353943, -0.01765904575586319, -0.09848294407129288, 0.1177712008357048, 0.07263094186782837, -0.03868653625249863, -0.2197454869747162, 0.004018469247967005, 0.1573183834552765, -0.07747603952884674, 0.16358835995197296, -0.16526587307453156, -0.2176516354084015, -0.22372418642044067, -0.10623465478420258, 0.12696769833564758, -0.11385971307754517, -0.0007590475142933428, -0.07487696409225464, -0.07444395124912262, -0.060422077775001526, 0.2092379480600357, 0.21694712340831757, -0.019128257408738136, -0.08265640586614609, -0.10289306938648224, 0.13205599784851074, -0.08219894021749496, 0.2330315113067627, -0.029782652854919434, 0.16325263679027557, 0.11325272917747498, -0.021422112360596657, 0.10171480476856232, 0.13114504516124725, -0.2139529436826706, -0.024938208982348442, -0.11683401465415955, 0.13428708910942078, -0.06404004991054535, 0.05887773633003235, 0.12587106227874756, 0.12271419912576675, -0.15539488196372986, -0.14571838080883026, 0.16240902245044708, 0.025538131594657898, -0.24473993480205536, -0.11160524934530258, -0.12824402749538422, 0.0372910276055336, -0.07559570670127869, 0.08559750020503998, 0.0790216475725174, -0.07455818355083466, 0.033174242824316025, 0.045737240463495255, 0.12392079830169678, -0.01891792006790638, -0.14753451943397522, 0.003273224690929055, 0.05453413352370262, -0.06507124751806259, 0.09117395430803299, -0.007070096209645271, -0.1147482842206955, 0.05130695551633835, -0.18440651893615723, -0.025618497282266617, 0.1508663147687912, -0.008360376581549644, -0.2231086790561676, -0.2711848020553589, 0.05822606384754181, 0.24944256246089935, -0.20551949739456177, 0.1340561956167221, 0.19299623370170593, 0.17010678350925446, 0.07764715701341629, -0.19762516021728516, 0.03770255297422409, -0.025536589324474335, -0.12441632896661758, -0.21281872689723969, -0.02474508062005043, 0.14298827946186066, 0.10154057294130325, 0.26324331760406494, 0.24255773425102234, -0.1346476525068283, 0.09204629808664322, 0.27872082591056824, -0.0010734368115663528, 0.044306300580501556, -0.0255020372569561, -0.22491700947284698, -0.21790020167827606, -0.09347037971019745, -0.050509948283433914, -0.06444793194532394, -0.1284789741039276, -0.13788044452667236, -0.24214684963226318, -0.062443867325782776, -0.24890293180942535, -0.06629841774702072, -0.29321348667144775, 0.08157548308372498, -0.2840697169303894, -0.11685089021921158, 0.11046493798494339, -0.08535131067037582, 0.022935910150408745, 0.06069665029644966, -0.1943528950214386, -0.10487718135118484, 0.03176127001643181, 0.12687043845653534, 0.05709264054894447, -0.30842602252960205, -0.21825966238975525, -0.40838101506233215, -0.13592460751533508, -0.06566819548606873, -0.08029362559318542, -0.03404974937438965, -0.07961694151163101, 0.005062276963144541, -0.0009700902737677097, -0.06716246157884598, -0.002442381577566266, -0.014562617056071758, 0.04062271490693092, 0.016602203249931335, 0.08540917187929153, 0.12258963286876678, 0.03862753137946129, -0.09570551663637161, -0.04445217549800873, 0.43288755416870117, -0.1694680154323578, 0.04967702925205231, 0.23714227974414825, -0.09620210528373718, -0.04649687930941582, 0.2568668723106384, 0.004790352191776037, 0.08751034736633301, 0.071863554418087, 0.2258043885231018, -0.026018964126706123, -0.1902010291814804, -0.04878276214003563, -0.03643833100795746, 0.1901395171880722, 0.1508575975894928, 0.03209472447633743, -0.02812296897172928, -0.08997585624456406, -0.06781043857336044, 0.11209842562675476, -0.21137773990631104, -0.08885800093412399, -0.019471341744065285, -0.1341848224401474, -0.16569021344184875, 0.22476346790790558, -0.011020433157682419, 0.021511640399694443, -0.1528511345386505, -0.07110702246427536, 0.3149539828300476, -0.26020151376724243, -0.15056736767292023, 0.03856583312153816, 0.08881774544715881, -0.0025639673694968224, -0.10105882585048676, 0.12733440101146698, 0.053285397589206696, -0.00814699288457632, 9.155941370408982e-05, 0.10471327602863312, 0.018343660980463028, 0.010300246067345142, -0.1696082502603531, 0.2101287692785263, 0.025112096220254898, -0.0224287286400795, -0.10531243681907654, -0.05469442531466484, -0.25593259930610657, 0.048091959208250046, 0.03612165525555611, -0.17912086844444275, 0.036631301045417786, 0.022569913417100906, 0.00945017859339714, -0.34057027101516724, -0.6534788608551025, 0.9043444991111755, 0.26364871859550476, -0.4034925401210785, 0.14562273025512695, -0.2447192370891571, -0.030168427154421806, 0.7577481865882874, -1.1331799030303955, 0.9527437686920166, 0.7751439213752747, -0.0813608393073082, -0.4799697995185852, 0.12157384306192398, -0.6840463280677795, 0.14736734330654144, -0.001085598603822291, 0.2948002815246582, -0.27323776483535767, 0.18877272307872772, 0.2699843645095825, 0.15116137266159058, -0.044036734849214554, 0.1939270794391632, -0.08041559159755707, 0.34129035472869873, 0.22419719398021698, -0.17833325266838074, 0.07386467605829239, 0.02773248590528965, -0.1868850737810135, 0.20397818088531494, -0.08771999180316925, 0.0621308758854866, 0.07632763683795929, 0.1756560057401657, 0.16240470111370087, 0.013979838229715824, -0.044810932129621506, -0.3353799283504486, 0.12528420984745026, 0.12131006270647049, 0.029736313968896866, 0.052305568009614944, 0.365493506193161, 0.06712353229522705, -0.012974057346582413, 0.0558946467936039, -0.1726066768169403, 0.06576111167669296, -0.12841796875, 0.1993977576494217, -0.013183511793613434, -0.08523504436016083, -0.07266426086425781, -0.22836877405643463, 0.22398382425308228, -0.24672280251979828, 0.14370834827423096, 0.14943888783454895, -0.2732454240322113, 0.05833566561341286, 0.02930486388504505, 0.42232996225357056, 0.0009684243123047054, 0.20396490395069122, 0.09252803772687912, -0.2229490727186203, 0.12638823688030243, -0.35775938630104065, 0.29624688625335693, 0.334588885307312, -0.11450636386871338, 0.33831655979156494, 0.17817695438861847, 0.10635442286729813, 0.3218950629234314, 0.10446672886610031, -0.12439267337322235, -0.13628844916820526, -0.09567852318286896, -0.021342437714338303, -0.053832653909921646, 0.25891798734664917, -0.3604186475276947, 0.05784798786044121, -0.5956399440765381, 0.27620360255241394, 0.03925369679927826, -0.6604846715927124, 0.21044225990772247, -0.1440388262271881, -0.5289337038993835, 0.21956956386566162, 0.19757993519306183, -0.2890736758708954, -0.0010089997667819262, 0.043676018714904785, -0.12501072883605957, 0.13975416123867035, -0.06043007969856262, 0.2613898515701294, 0.04273489490151405, -0.0909837931394577, -0.1381385773420334, -0.11528933793306351, 0.058175522834062576, -0.009013055823743343, 0.020886851474642754, 0.1831228882074356, 0.05432060733437538, 0.2305728942155838, 0.09153033792972565, -0.09713486582040787, 0.1631857454776764, 0.04717167839407921, -0.06758654862642288, 0.021573463454842567, 0.035238102078437805, -0.1676957607269287, 0.23164819180965424, 0.20224492251873016, -0.26145443320274353, 0.25126132369041443, 0.14919929206371307, 0.23903822898864746, 0.13183504343032837, 0.17826656997203827, 0.060564737766981125, -0.2759898602962494, -0.05249857157468796, 0.2192644625902176, -0.22909793257713318, -0.04881813004612923, -0.11607419699430466, 0.39935049414634705, 0.1630687564611435, -0.03309623524546623, 0.1548262983560562, 0.05394037067890167, -0.035995129495859146, -0.10917465388774872, -0.042431607842445374, -0.23973554372787476, 0.14441435039043427, -0.10238017141819, 0.09154687821865082, 0.15507814288139343, 0.10610591620206833, -0.1330002099275589, 0.09823350608348846, -0.15382197499275208, 0.15841902792453766, -0.2646012306213379, 0.2803818881511688, -0.4054933190345764, -0.1664912849664688, 0.051215287297964096, -0.039714518934488297, 0.25937938690185547, -0.1487044095993042, -0.15236589312553406, 0.18074043095111847, -0.13432884216308594, 0.09904245287179947, -0.19934096932411194, -0.3078857958316803, -0.0515100471675396, -0.06182284653186798, 0.40465953946113586, -0.11455196142196655, -0.028091656044125557, 0.09698117524385452, 0.1669859141111374, 0.2654317021369934, 0.1904413402080536, -0.13274188339710236, -0.15763939917087555, -0.19702699780464172, 0.3846733570098877, -0.11785702407360077, 0.15528857707977295, -0.06246260553598404, 0.1935603767633438, 0.15719282627105713, -0.5116435289382935, 0.07502516359090805, -0.029555991291999817, -0.34060099720954895, 0.04629593342542648, 0.21338985860347748, -0.11603260785341263, 0.040898144245147705, -0.0830516666173935, 0.024656355381011963, 0.14866523444652557, 0.10063767433166504, 0.3214974105358124, -0.0275943111628294, -0.14688393473625183, -0.15330451726913452, -0.3366311192512512, 0.2464173585176468, -0.23468558490276337, -0.39596235752105713, 0.018222350627183914, 0.20429816842079163, -0.31899765133857727, -0.37756192684173584, -0.13172760605812073, -0.07710560411214828, 0.36230525374412537, -0.0950162410736084, -0.08142437040805817, -0.20889155566692352, 0.23563723266124725, 0.05480983108282089, -0.24896813929080963, 0.04748412221670151, -0.04667303338646889, -0.013579214923083782, 0.021578246727585793, -0.16773609817028046, -0.1664467751979828, 0.10079028457403183, -0.13707616925239563, -0.030958468094468117, 0.10713977366685867, -0.16104575991630554, 0.14084026217460632, -0.1338391900062561, -0.015498570166528225, 0.18937647342681885, 0.016333753243088722, -0.18457826972007751, -0.08867181092500687, 0.1492953598499298, -0.18123739957809448, 0.09563028812408447, -0.04206736758351326, 0.23531825840473175, 0.036456406116485596, -0.005960760172456503, -0.13917101919651031, 0.17804209887981415, 0.1335926502943039, -0.008939646184444427, 0.24364112317562103, 0.15682196617126465, 0.041255854070186615, 0.18110927939414978, -0.06080171838402748, 0.06091246381402016, 0.06677144765853882, -0.2403912991285324, -0.2945076525211334, -0.23063093423843384, -0.049149997532367706, -0.33282360434532166, -0.08285994827747345, -0.05169409513473511, 0.08811304718255997, -0.41886013746261597, -0.1980232447385788, 0.06069488450884819, 0.024220425635576248, 0.3374980390071869, -0.2994188666343689, -0.31512030959129333, -0.2757278382778168, 0.05610157921910286, -0.007083837874233723, 0.1253174990415573, 0.24456317722797394, 0.3442232012748718, -0.26528578996658325, 0.09185075014829636, 0.47179821133613586, 0.01827729120850563, -0.22117175161838531, -0.027294708415865898, 0.05990276113152504, 0.053755324333906174, 0.15756845474243164, 0.2737026512622833, 0.03502896428108215, -0.268189400434494, 0.07300832867622375, -0.08276909589767456, 0.1692722588777542, 0.007422903552651405, -0.028002547100186348, 0.1556745320558548, 0.13626760244369507, -0.0473383329808712, -0.12593846023082733, -0.04637942463159561, 0.06846356391906738, 0.132386714220047, -0.1090884655714035, -0.27957096695899963, -0.3691941201686859, 0.13845716416835785, 0.10930200666189194, 0.1869950294494629, 0.3423624038696289, 0.06406675279140472, -0.11683382838964462, -0.41608473658561707, 0.19234086573123932, -0.007231749594211578, 0.059894099831581116, -0.0655723363161087, -0.2098669409751892, 0.09535197168588638, -0.02644631266593933, -0.047698065638542175, -0.010214405134320259, -0.07197234034538269, -0.09679446369409561, 0.030936349183321, -0.12917767465114594, -0.11326205730438232, -0.06017915904521942, 0.11273647099733353, -0.004359621554613113, 0.16316407918930054, 0.1410391628742218, -0.19746774435043335, -0.03508354350924492, 0.024943482130765915, -0.045161500573158264, -0.11297938227653503, -0.20021559298038483, 0.006405459716916084, 0.027544524520635605, 0.13107019662857056, -0.21759426593780518, -0.1563732922077179, -0.23502357304096222, 0.09731319546699524, -0.05751033499836922, -0.025967318564653397, 0.07875256985425949, -0.04177634418010712, 0.05514078214764595, 0.3528263568878174, 0.2340528964996338, 0.23232710361480713, -0.44410595297813416, 0.24840612709522247, -0.12722744047641754, -0.26326531171798706, -0.27708548307418823, 0.10595899820327759, 0.2307044416666031, 0.18167436122894287, 0.040194351226091385, 0.059948377311229706, -0.14200825989246368, 0.19328074157238007, 0.060732536017894745, -0.2527751624584198, 0.0702611654996872, 0.3308170437812805, -0.16729994118213654, 0.17012111842632294, 0.11313117295503616, 0.39350825548171997, 0.12404719740152359, -0.39799660444259644, 0.23627620935440063, 0.0931275486946106, -0.13546302914619446, -0.27925220131874084, 0.12281519174575806, 0.014720285311341286, -0.13925427198410034, 0.09004949778318405, 0.1844540238380432, 0.17054109275341034, 0.09100640565156937, -0.311023473739624, -0.16272000968456268, -0.1960274577140808, 0.17291392385959625, 0.12662740051746368, 0.04507642239332199, -0.28122538328170776, -0.07727625221014023, 0.12211556732654572, -0.07399669289588928, -0.11628731340169907, -0.14209794998168945, -0.009881999343633652, 0.13998845219612122, 0.014901495538651943, 0.02393459342420101, -0.19878537952899933, -0.18035714328289032, 0.13016529381275177, 0.13361568748950958, 0.1599293053150177, -0.22474725544452667, -0.09783414006233215, -0.06315546482801437, 0.3424350321292877, 0.019640708342194557, 0.14662186801433563, -0.11396685987710953, 0.03925209119915962, -0.0014185869367793202, -0.11742717772722244, 0.09681491553783417, 0.2055632472038269, -0.264900803565979, -0.1674821823835373, -0.13490071892738342, 0.025208672508597374, -0.08696296066045761, -0.0032490931916981936, 0.02433622255921364, 0.0038162358105182648, 0.08548517525196075, -0.20791928470134735, 0.23717467486858368, -0.01548710186034441, -0.2414064258337021, -0.145034521818161, -0.027639027684926987, 0.17281195521354675, 0.05966397374868393, 0.21629978716373444, 0.0874665156006813, -0.12452896684408188, 0.10032341629266739, -0.025983672589063644, 0.273544579744339, 0.1140320897102356, 0.09566142410039902, -0.06701748818159103, 0.14819568395614624, -0.020687034353613853, 0.06277623027563095, 0.09144432097673416, 0.0011615661205723882, -0.10185633599758148, -0.008639893494546413, 0.10680919140577316, 0.018533878028392792, 0.022421734407544136, -0.0910940170288086, -0.1502104550600052, 0.19360490143299103, 0.07892566919326782, 0.20425869524478912, -0.21531488001346588, -0.14161252975463867, -0.25382959842681885, 0.06577309221029282, 0.09301508963108063, 0.15475428104400635, 0.16739007830619812, 0.0352398157119751, 0.14505723118782043, 0.1471681445837021, 0.17830762267112732, 0.026919297873973846, 0.2060716152191162, 0.023625198751688004, 0.30918437242507935, 0.11728472262620926, -0.13651205599308014, -0.06722348183393478, -0.09339570999145508, -0.1175389364361763, -0.009249170310795307, 0.16248105466365814, 0.12159779667854309, 0.10891818255186081, -0.055022720247507095, -0.16156929731369019, 0.23044191300868988, 0.03338710218667984, 0.13609713315963745, -0.04581649228930473, 0.06502354145050049, -0.07773846387863159, 0.1323653608560562, -0.043437231332063675, -0.07787244021892548, 0.22349779307842255, -0.1914466768503189, -0.201188862323761, 0.02362358756363392, -0.010996399447321892, 0.11472830921411514, 0.025082198902964592, -0.24331700801849365, 0.0338338278234005, 0.053532738238573074, -0.11928566545248032, -0.07323821634054184, -0.22378121316432953, 0.1462506651878357, 0.0007855686126276851, -0.18945153057575226, -0.10129086673259735, -0.08249863982200623, 0.036132119596004486, -0.0011526691960170865, -0.02854384481906891, -0.068817138671875, -0.09931076318025589, -0.12325498461723328, -0.06856946647167206, -0.0016065794043242931, -0.14648199081420898, -0.27196192741394043, -0.1078161746263504, 0.07722634077072144, -0.06432463228702545, 0.2535080015659332, 0.2561730146408081, 0.049776915460824966, -0.10287101566791534, -0.01627463847398758, -0.059071943163871765, -0.10337775945663452, -0.10503559559583664, -0.03195538371801376, -0.018362298607826233, -0.10864447802305222, -0.11280800402164459, 0.1472228616476059, 0.10305626690387726, 0.11539182811975479, -0.03831468150019646, -0.10850443691015244, 0.20739588141441345, -0.057127103209495544, -0.011373667977750301, -0.038194313645362854, -0.09387671202421188, -0.03479686751961708, -0.00753626087680459, -0.016760652884840965, 0.060377225279808044, 0.2008928507566452, -0.148127943277359, -0.08032933622598648, -0.2977007329463959, 0.10832627862691879, -0.05276182293891907, -0.029828878119587898, -0.007290809880942106, 0.12078400701284409, -0.1824379414319992, -0.064506895840168, -0.119382843375206, 0.10861532390117645, 0.10430485755205154, 0.13851210474967957, 0.025114918127655983, 0.038416020572185516, -0.0647667795419693, -0.069548599421978, -0.034956205636262894, 0.05149604752659798, -0.262837678194046, -0.13422097265720367, -0.107143834233284, -0.050540853291749954, 0.13575202226638794, -0.044275108724832535, -0.02428450435400009, -0.09060409665107727, -0.041669927537441254, -0.02503967098891735, 0.3738798499107361, -0.25147178769111633, 0.11607086658477783, 0.08253008127212524, -0.13624343276023865, -0.22914551198482513, -0.3026439845561981, -0.1839812844991684, 0.07784232497215271, -0.02016897313296795, 0.31666988134384155, -0.5428946018218994, -0.027283882722258568, 0.1784139722585678, -0.15851615369319916, -0.15397235751152039, -0.3403485417366028, 0.25614550709724426, -0.36648011207580566, -0.040658336132764816, 0.19709506630897522, 0.12542849779129028, -0.18463963270187378, 0.24567295610904694, 0.13838054239749908, 0.2698345482349396, 0.3268539011478424, 0.07757427543401718, -0.06644255667924881, -0.19709689915180206, -0.3127865195274353, -0.08663161844015121, -0.009751496836543083, -0.12676268815994263, 0.11488945037126541, 0.023400967940688133, 0.04782950133085251, -0.2570325434207916, 0.4373719394207001, -0.14900369942188263, -0.19510255753993988, -0.02882620319724083, -0.06636127829551697, 0.06336431205272675, -0.1637178659439087, -0.16071560978889465, 0.10177303105592728, 0.2686682641506195, 0.07131275534629822, 0.061455003917217255, -0.030726714059710503, -0.21970690786838531, -0.08086318522691727, -0.19472193717956543, 0.22103333473205566, -0.006870341021567583, -0.2221909910440445, 0.045195192098617554, 0.16994881629943848, -0.23676688969135284, -0.26352041959762573, 0.0029341422487050295, 0.1404094249010086, -0.1542041003704071, -0.23036856949329376, -0.33394676446914673, 0.2466169148683548, -0.1600738912820816, 0.2952624559402466, -0.036849841475486755, -0.12827342748641968, -0.0917796790599823, 0.10530311614274979, -0.23664169013500214, 0.08254975825548172, -0.13046365976333618, -0.3072160482406616, -0.22505876421928406, -0.25588661432266235, 0.2676975131034851, -0.0004500890208873898, -0.10818462818861008, 0.2252770960330963, 0.26950564980506897, -0.12637652456760406, -0.2001713067293167, 0.1766088902950287, 0.020154280588030815, -0.06581021845340729, -0.27004754543304443, -0.14045646786689758, 0.2398507446050644, -0.07606744766235352, 0.17628216743469238, -0.08420542627573013, 0.12494516372680664, -0.10276157408952713, 0.2901971638202667, -0.11259878426790237, -0.13332676887512207, 0.16616111993789673, -0.04144085571169853, -0.04878607764840126, -0.04293615743517876, -0.02931610681116581, 0.0820266529917717, -0.21240465342998505, -0.0001156114085461013, 0.12186998128890991, -0.259128600358963, -0.11962634325027466, -0.16197720170021057, 0.1032780259847641, 0.0013111046282574534, 0.07064381241798401, -0.07733212411403656, -0.18599852919578552, -0.02129657380282879, 0.08094967901706696, 0.09943809360265732, 0.19609417021274567, 0.15545932948589325, -0.11325854808092117, -0.1252603828907013, 0.10955571383237839, 0.19601216912269592, 0.07217010110616684, -0.3807808458805084, 0.17498311400413513, -0.11866654455661774, -0.31807780265808105, -0.18007220327854156, 0.10261964052915573, 0.20669905841350555, -0.0669771358370781, 0.06984937191009521, 0.12755373120307922, 0.0919671580195427, -0.042925916612148285, -0.1048487201333046, 0.019074056297540665, 0.2635447382926941, -0.10054925084114075, 0.060748372226953506, -0.20836825668811798, 0.015865910798311234, 0.08672764152288437, -0.10210219770669937, 0.3924046754837036, 0.05005086585879326, 0.024712977930903435, -0.31235837936401367, -0.1413394808769226, -0.01900702901184559, 0.4102098047733307, 0.10399513691663742, 0.20346006751060486, -0.08502180874347687, -0.046862952411174774, -0.1346307396888733, 0.25681447982788086, 0.3409983515739441, 0.22899670898914337, -0.03693625330924988, -0.04943760856986046, -0.14092451333999634, 0.29777175188064575, -0.1349610686302185, -0.13256847858428955, -0.24974177777767181, -0.19745980203151703, -0.05362324416637421, 0.31876975297927856, -0.03537823632359505, -0.03122630901634693, -0.09339860081672668, 0.10608753561973572, 0.08292300254106522, 0.18015635013580322, -0.1398676186800003, 0.0021821437403559685, 0.219636932015419, -0.000331241637468338, 0.025906618684530258, 0.07838577032089233, 0.191287100315094, 0.08805812150239944, 0.0056390236131846905, 0.010369124822318554, -0.15447138249874115, 0.10875385999679565, -0.02538496069610119, -0.054672177881002426, -0.09226450324058533, -0.09931796789169312, 0.03415708243846893, 0.10165818780660629, 0.19569940865039825, 0.057344693690538406, -0.006408252287656069, -0.03402230888605118, -0.11729785799980164, 0.024709902703762054, 0.06184494122862816, 0.1626289039850235, 0.2637239396572113, 0.3412829041481018, 0.3002031147480011, -0.10638585686683655, -0.06952537596225739, -0.09196864813566208, 0.17011266946792603, -0.03908264636993408, 0.03869622200727463, -0.02314688265323639, -0.06997974961996078, 0.041056059300899506, -0.035590168088674545, 0.1227763369679451, 0.1576218158006668, -0.08694292604923248, 0.0013138193171471357, 0.16217349469661713, 0.1338062733411789, 0.2075546532869339, 0.0873938500881195, 0.28784433007240295, 0.08314520865678787, 0.014333201572299004, -0.0401904433965683, 0.07794223725795746, 0.028772251680493355, -0.05725373327732086, -0.055126700550317764, 0.02345906011760235, 0.14321449398994446, -0.03150535002350807, 0.09826955199241638, 0.03723834082484245, -0.018597302958369255, 0.07433817535638809, -0.10890017449855804, 0.02256038598716259, -0.03150533139705658, 0.053028691560029984, -0.23593302071094513, -0.05748658999800682, 0.0317101888358593, -0.06761953234672546, -0.22284235060214996, 0.036199621856212616, 0.0479375459253788, -0.027067797258496284, -0.059345003217458725, -0.12211782485246658, -0.04657725617289543, -0.14884234964847565, -0.07174879312515259, 0.09634068608283997, -0.14867503941059113, -0.047026656568050385, -0.03915376961231232, -0.03037002682685852, -0.09856974333524704, 0.19189999997615814, 0.18767149746418, 0.1546860635280609, -0.11585963517427444, 0.01975308544933796, 0.18765844404697418, -0.09356831014156342, -0.05831556394696236, 0.08673657476902008, 0.1297973394393921, -0.10067658126354218, 0.15576499700546265, 0.08686014264822006, 0.09005731344223022, -0.16856898367404938, -0.07372263073921204, -0.09580963104963303, 0.16239206492900848, -0.051989540457725525, 0.026650765910744667, -0.009513232856988907, -0.1042126938700676, 0.06789329648017883, -0.032857462763786316, -0.022122355177998543, -0.15084998309612274, 0.3054870665073395, 0.14547108113765717, -0.1795385628938675, -0.24104465544223785, -0.18602846562862396, -0.09058330208063126, 0.1296430081129074, 0.49930620193481445, 0.008797599002718925, -0.09576719254255295, -0.09056924283504486, -0.0444549135863781, -0.11952933669090271, 0.13141831755638123, -0.27415940165519714, -0.023286432027816772, 0.034872956573963165, -0.2418326735496521, 0.07302337884902954, 0.21583722531795502, -0.30524131655693054, -0.04029862955212593, 0.1814912110567093, -0.10456768423318863, 0.16203847527503967, 0.1547420471906662, -0.2377709597349167, -0.15299353003501892, 0.0012801414122805, 0.24356327950954437, -0.01255727931857109, 0.054825205355882645, -0.008623934350907803, 0.2843569815158844, 0.1341436505317688, -0.07244939357042313, 0.18034382164478302, 0.08344361931085587, -0.1498149335384369, 0.03437374159693718, 0.02328033559024334, 0.17413602769374847, 0.10649969428777695, 0.02511623688042164, 0.14187079668045044, 0.032343458384275436, 0.22761274874210358, -0.07667775452136993, -0.019767120480537415, -0.15646953880786896, 0.15965843200683594, -0.06645280122756958, 0.23730476200580597, -0.001809562905691564, 0.08184487372636795, -0.276702880859375, 0.1453571319580078, 0.04053202271461487, 0.022201120853424072, 0.06930989772081375, -0.19052238762378693, 0.08843544125556946, 0.10558522492647171, -0.15778832137584686, -0.4044090807437897, -0.046337924897670746, 0.10226069390773773, -0.04006166756153107, 0.10955946892499924, 0.09187217056751251, -0.06006915867328644, 0.11727939546108246, 0.2183150053024292, -0.13882718980312347, 0.17722046375274658, 0.06247992813587189, -0.17462004721164703, -0.059516310691833496, 0.006583372130990028, -0.06958713382482529, -0.058988165110349655, -0.006021162029355764, -0.0969109907746315, 0.04766491800546646, 0.14948999881744385, 0.023770514875650406, 0.21819567680358887, 0.02883685939013958, 0.06537565588951111, 0.22204139828681946, -0.1007501557469368, -0.04758019000291824, 0.26100465655326843, -0.11335199326276779, 0.017942165955901146, -0.055065132677555084, -0.020438136532902718, 0.0796927884221077, -0.1674492359161377, -0.014558124355971813, -0.06745357066392899, 0.3402998149394989, -0.07423876225948334, -0.04780825600028038, -0.13583670556545258, -0.092684306204319, -0.22932058572769165, -0.028579333797097206, 0.1419324427843094, -0.07773963361978531, -0.06765495240688324, 0.02037445828318596, -0.16108179092407227, 0.20103175938129425, 0.0852092057466507, 0.15791377425193787, -0.06391864269971848, -0.031148843467235565, 0.04280979931354523, 0.28415024280548096, 0.033789172768592834, -0.010836875066161156, -0.14929494261741638, -0.015158364549279213, -0.1753798872232437, -0.10144344717264175, -0.25477835536003113, 0.012954422272741795, -0.19212697446346283, 0.011942676268517971, 0.1603555828332901, -0.26378870010375977, 0.1257193237543106, 0.11160678416490555, -0.13633611798286438, -0.12235590815544128, 0.0333394780755043, 0.1777326613664627, -0.21843673288822174, 0.04833865165710449, 0.1869472861289978, 0.07167242467403412, 0.12188640981912613, -0.1320781409740448, 0.006478664465248585, -0.09825336933135986, -0.23804418742656708, -0.0950745940208435, -0.1441453993320465, -0.1976662427186966, -0.02675515040755272, 0.07674569636583328, 0.23217850923538208, -0.43911877274513245, -0.14469169080257416, 0.1498824506998062, 0.09169710427522659, -0.11177505552768707, -0.4169526994228363, -0.12605999410152435, 0.18878738582134247, -0.33786246180534363, 0.3341933786869049, 0.006433818954974413, -0.04374237358570099, -0.07618408650159836, -0.16193169355392456, -0.40877074003219604, 0.06423137336969376, 0.14147968590259552, -0.136898010969162, -0.27222952246665955, -0.28422969579696655, 0.04632747545838356, -0.3643396496772766, -0.2113603949546814, 0.18493105471134186, 0.03273547440767288, 0.06513715535402298, -0.01089728344231844, 0.40743115544319153, 0.19199199974536896, -0.024658797308802605, -0.22653232514858246, -0.02563502825796604, 0.31721994280815125, 0.17068642377853394, 0.020302079617977142, 0.07380522787570953, -0.002110215602442622, 0.1247711032629013, 0.08497371524572372, -0.39025864005088806, -0.18883466720581055, 0.13189944624900818, 0.2919786870479584, 0.18789295852184296, -0.06244230642914772, -0.0027977966237813234, 0.07672154158353806, -0.11178344488143921, -0.24064819514751434, 1.1019210815429688, 0.2269282042980194, 0.5991592407226562, -1.012831211090088, -0.5639293193817139, -0.2377796322107315, 0.3080769181251526, -0.13350842893123627, 0.3619155287742615, 0.21733807027339935, -0.9476016163825989, 0.5808066129684448, -0.08194253593683243, -0.42797785997390747, 0.06819882243871689, -0.3207426965236664, -0.05604671314358711, 0.02239767648279667, 0.20910108089447021, -0.4187958538532257, 0.4972880482673645, 0.3291846811771393, -0.09988503903150558, -0.19459626078605652, -0.18846654891967773, 0.000746492762118578, -0.30507612228393555, -0.049920033663511276, 0.008160492405295372, -0.1545548290014267, 0.09708376228809357, -0.01007630955427885, -0.22388701140880585, 0.03997572883963585, 0.2054065763950348, 0.030011311173439026, -0.07775937020778656, -0.03494451195001602, 0.2990378737449646, -0.15733425319194794, -0.18659572303295135, 0.10443297773599625, 0.09645332396030426, 0.19208262860774994, -0.024218877777457237, -0.12142808735370636, 0.11230110377073288, 0.2057790458202362, -0.36411285400390625, -0.15293695032596588, 0.10750231146812439, -0.5361016392707825, 0.2899671792984009, -0.023634828627109528, -0.17661349475383759, 0.18889500200748444, 0.3653123080730438, -0.21449705958366394, 0.23960661888122559, -0.44900551438331604, 0.07122139632701874, -0.09626248478889465, 0.1821623295545578, 0.27896425127983093, -0.22815175354480743, -0.1259748488664627, 0.20356741547584534, 0.15096242725849152, 0.2253168672323227, 0.19478631019592285, 0.2149435430765152, 0.184382364153862, -0.13932155072689056, -0.25686153769493103, 0.09272027015686035, -0.18665216863155365, 0.2564900517463684, 0.12924650311470032, 0.0034006754867732525, -0.027358364313840866, -0.021869048476219177, -0.17260828614234924, -0.3449719250202179, 0.09756221622228622, 0.14526326954364777, -0.11182375997304916, 0.03978456184267998, -0.1964959055185318, 0.1607370227575302, 0.1895912140607834, 0.017142288386821747, -0.04109092801809311, -0.14722755551338196, -0.09472954273223877, -0.11200740933418274, -0.29528748989105225, -0.45467618107795715, 0.12180821597576141, -0.049194447696208954, 0.538219690322876, -0.3944930136203766, 0.13409774005413055, -0.012005328200757504, -0.02083931677043438, 0.1167856752872467, -0.011384861543774605, -0.22332753241062164, 0.17680002748966217, 0.2041996717453003, 0.0716879591345787, -0.10494005680084229, -0.09040109068155289, -0.09021994471549988, -0.2566926181316376, 0.08063753694295883, 0.082484669983387, -0.09129662066698074, -0.28470832109451294, 0.32884255051612854, 0.20454296469688416, -0.2754749655723572, -0.01723490096628666, 0.3628196120262146, 0.3178916871547699, 0.07968993484973907, 0.08557677268981934, 0.18213051557540894, 0.13686317205429077, 0.1063007041811943, -0.5858463048934937, -0.23948542773723602, 0.26405593752861023, -0.31606802344322205, -0.26908987760543823, -0.07672508805990219, 0.3746272325515747, -0.8367106318473816, 0.07414942234754562, 0.15560057759284973, 0.4842813014984131, 0.05913819372653961, 0.09652987122535706, 0.26987409591674805, 0.13522028923034668, -0.26412397623062134, 0.17641238868236542, -0.16636376082897186, 0.07257739454507828, 0.09572040289640427, 0.14132511615753174, -0.23770208656787872, -0.18217256665229797, -0.09652163833379745, 0.07974691689014435, 0.0665244534611702, -0.1614513248205185, 0.18589429557323456, 0.17217090725898743, 0.046873632818460464, -0.22060294449329376, 0.0046951258555054665, 0.06384430825710297, 0.473260760307312, 0.014900223352015018, -0.1039002388715744, 0.0270528644323349, -0.1697417050600052, 0.14381830394268036, -0.27214035391807556, -0.13518112897872925, 0.16010864078998566, -0.1373014897108078, 0.36456918716430664, -0.20719416439533234, 0.1673419326543808, 0.2769011855125427, -0.30583837628364563, 0.26163241267204285, -0.2624424397945404, -0.11247683316469193, -0.061216115951538086, 0.140206441283226, -0.033464740961790085, -0.2849591374397278, 0.2444678694009781, 0.15225936472415924, -0.0582430474460125, 0.021593676880002022, -0.09928605705499649, 0.1383475363254547, 0.1344776302576065, -0.3435412347316742, -0.0849151685833931, -0.04083925485610962, -0.3253887891769409, -0.23987315595149994, 0.3858032524585724, 0.008731012232601643, -0.11472299695014954, -0.005920758470892906, -0.019930576905608177, 0.08420024067163467, 0.024302706122398376, 0.01738291233778, -0.20215685665607452, 0.3181658387184143, -0.2193899303674698, -0.1801019161939621, 0.05108049139380455, 0.18374356627464294, 0.27553531527519226, -0.03260268270969391, -0.014432517811655998, 0.11363153904676437, -0.35921022295951843, -0.023702148348093033, 0.41454169154167175, 0.046136122196912766, -0.45455506443977356, -0.50235915184021, -0.015515947714447975, -0.2793389558792114, -0.03431461378931999, -0.29387369751930237, -0.2988773584365845, 0.1712803989648819, 0.12405913323163986, 0.01886964961886406, 0.2888038158416748, 0.22631973028182983, -0.11030478775501251, -0.09111623466014862, 0.17123658955097198, 0.2884565591812134, 0.15743857622146606, -0.35391926765441895, -0.22366970777511597, -0.3810293674468994, -0.03418724611401558, -0.1563575267791748, 0.4236685633659363, 0.029372207820415497, 0.030698779970407486, 0.24756461381912231, -0.46424800157546997, -0.3134281039237976, 0.17837581038475037, 0.08855491876602173, -0.4148309528827667, 0.11325906217098236, -0.07996714115142822, 0.06859621405601501, 0.004629128612577915, 0.16425785422325134, -0.022472793236374855, 0.041704390197992325, 0.004786768928170204, 0.30291974544525146, -0.36229467391967773, -0.16151075065135956, -0.1602753847837448, -0.022183643653988838, 0.04363161325454712, -0.1487015187740326, -0.2293062061071396, 0.049476947635412216, -0.5150080919265747, -0.07410401105880737, 0.05116000026464462, -0.26488715410232544, 0.038455963134765625, -0.37150511145591736, -0.14470961689949036, 0.12383303046226501, 0.2669447958469391, 0.19326110184192657, -0.14112971723079681, -0.15785562992095947, 0.3370959460735321, 0.11275311559438705, -0.326778382062912, 0.3493785858154297, -0.04357857629656792, 0.0274546779692173, -0.0043837144039571285, -0.1775979995727539, -0.18274638056755066, -0.28546762466430664, -0.20511791110038757, 0.027384033426642418, 0.24038775265216827, 0.08701717108488083, -0.005482026841491461, -0.2866368293762207, 0.3161660134792328, 0.39749082922935486, -0.15998128056526184, 0.17217643558979034, -0.0809670016169548, -0.16846849024295807, -0.12639577686786652, -0.018272364512085915, -0.1708492487668991, 0.047233160585165024, 0.09147647023200989, -0.045537590980529785, 0.3314894735813141, 0.02865256741642952, 0.06441263854503632, -0.06204010918736458, 0.08891969174146652, 0.49398964643478394, 0.18853209912776947, -0.24754470586776733, -0.23277266323566437, 0.15344062447547913, -0.02463638409972191, -0.04821668192744255, 0.20274627208709717, 0.008127988316118717, -0.2545948624610901, 0.12221091985702515, 0.06980322301387787, -0.030754119157791138, 0.027949871495366096, 0.1981075555086136, 0.2531301975250244, 0.28893977403640747, -0.06330832093954086, -0.24635803699493408, 0.13713817298412323, -0.18780522048473358, 0.014397433958947659, -0.4443262219429016, 0.09021671116352081, 0.09826824814081192, -0.015161692164838314, 0.16799820959568024, -0.0038548195734620094, -0.07370884716510773, 0.10191918164491653, 0.024866504594683647, -0.24743808805942535, -0.1683751493692398, -0.2613910436630249, -0.07741043716669083, 0.49021440744400024, -0.22311721742153168, 0.04874880239367485, -0.687908947467804, -0.0017700021853670478, -0.0988069623708725, 0.03069416806101799, 0.1595485359430313, -0.33918827772140503, -0.13471733033657074, 0.036496102809906006, -0.20380030572414398, -0.9631831049919128, 0.003150391625240445, 0.04223591089248657, 0.3350341022014618, 0.22021399438381195, -0.3031468391418457, 0.21335430443286896, -0.037767454981803894, 0.07533564418554306, -0.3876190781593323, 0.010319765657186508, -0.2755242586135864, -0.5034671425819397, -0.2929779291152954, -0.10909626632928848, -0.3551165759563446, -0.15367372334003448, -0.012938879430294037, -0.14773975312709808, -0.078079953789711, 0.21583686769008636, -0.05094141885638237, 0.3110591173171997, -0.00822642631828785, 0.03393327817320824, 0.07081402093172073, 0.02654050663113594, -0.15018273890018463, 0.17811332643032074, -0.03530609980225563, 0.12246879190206528, 0.13238169252872467, -0.23390917479991913, -0.030570708215236664, 0.07990578562021255, -0.14919310808181763, -0.17207388579845428, -0.02751692198216915, -0.03063405305147171, 0.009529785253107548, -0.028715619817376137, 0.07945309579372406, 0.08729113638401031, 0.05817648768424988, -0.23628801107406616, -0.15705309808254242, -0.1489853858947754, -0.10999332368373871, -0.013859177939593792, -0.06706252694129944, 0.04238870367407799, 0.30848219990730286, -0.1082642450928688, 0.012711701914668083, -0.2552773654460907, -0.11233261972665787, -0.012981926091015339, 0.5507246255874634, 0.06051093712449074, 0.05609307810664177, 0.06325136870145798, 0.05973067507147789, -0.03320758044719696, 0.015817254781723022, 0.001999826868996024, -0.02077736333012581, 0.4428219497203827, 0.10650505870580673, -0.08284060657024384, 0.05839650332927704, 0.002976247575134039, 0.1797158271074295, -0.17981331050395966, 0.09598948806524277, 0.043683260679244995, -0.18589986860752106, 0.06964951753616333, -0.05607474595308304, 0.04726436734199524, -0.035686105489730835, -0.07162905484437943, 0.2022249400615692, 0.05142410472035408, -0.07474421709775925, -0.2888137996196747, 0.0729832723736763, 0.17242646217346191, 0.2038078010082245, 0.05819685757160187, 0.1084018424153328, -0.03378397598862648, 0.04272744804620743, -0.11016474664211273, -0.11290273070335388, 0.11690784990787506, -0.026877256110310555, 0.036596015095710754, -0.10197972506284714, 0.0026022165548056364, 0.2986716330051422, 0.11857512593269348, -0.29479771852493286, -0.09006186574697495, -0.048069894313812256, -0.09508217126131058, 0.5081661939620972, 0.01505946833640337, 0.02875099517405033, -0.036685846745967865, -0.02370874397456646, 0.0649900734424591, 0.06886641681194305, -0.061683978885412216, -0.14375852048397064, 0.3402976393699646, -0.0829012468457222, -0.022066712379455566, 0.029729535803198814, 0.09892116487026215, 0.2717368006706238, -0.04746604338288307, 0.04556519165635109, -0.17375975847244263, 0.2227349579334259, 0.05347217619419098, 0.0717226043343544, 0.029009295627474785, -0.08266443014144897, 0.403163880109787, -0.09461352974176407, 0.22298718988895416, 0.12286809086799622, 0.5868075489997864, 0.04058070108294487, -0.11697062104940414, -0.21822135150432587, 0.10485931485891342, -0.05274691432714462, 0.042723048478364944, -0.06098285689949989, 0.28248539566993713, -0.03901991620659828, -0.06915175914764404, 0.07582391798496246, 0.10065747797489166, 0.159663587808609, 0.06573034822940826, -0.29311150312423706, 0.21941109001636505, 0.324319452047348, 0.3101974427700043, 0.09215466678142548, 0.011474376544356346, -0.35807421803474426, -0.05092158913612366, -0.06627624481916428, -0.23317226767539978, -0.11709854006767273, -0.1947896033525467, 0.03717188164591789, 0.04894714057445526, 0.13131994009017944, -0.23580510914325714, -0.07392450422048569, 0.03199173882603645, -0.1364172250032425, -0.021282291039824486, -0.23394814133644104, 0.0714128389954567, 0.11537661403417587, -0.2689681053161621, 0.15091145038604736, -0.1164916381239891, 0.054947301745414734, 0.06834594905376434, -0.022932378575205803, 0.33508017659187317, -0.21217501163482666, -0.11793475598096848, 0.22514723241329193, 0.22921617329120636, -0.01726045086979866, -0.22013606131076813, -0.13282988965511322, 0.05109743773937225, -0.20004886388778687, -0.0008616605191491544, 0.11425329744815826, 0.3042573928833008, -0.07910029590129852, -0.16354268789291382, -0.02077311836183071, 0.06405724585056305, -0.05760962516069412, 0.145485058426857, -0.23847803473472595, 0.0689651146531105, 0.04790212959051132, 0.21220405399799347, -0.04119057580828667, 0.3114751875400543, -0.3148920238018036, 0.009295560419559479, -0.3124099671840668, 0.029019024223089218, -0.09744178503751755, -0.01094460766762495, -0.1701483130455017, -0.14520438015460968, 0.020793238654732704, -0.2621104121208191, -0.11055514216423035, 0.15296268463134766, 0.19512642920017242, -0.028251565992832184, -0.08935507386922836, 0.20312565565109253, 0.018191063776612282, -0.08927912265062332, -0.13013571500778198, -0.10484826564788818, -0.007968044839799404, 0.006424774881452322, -0.018082929775118828, -0.4632723927497864, -0.6536864638328552, -0.30499282479286194, -0.6759164929389954, 0.18253320455551147, 0.014899401925504208, 0.39911317825317383, 0.04714492708444595, -0.0858110561966896, 0.7362367510795593, -0.03223150968551636, -0.15632523596286774, -0.4350022077560425, 0.13808459043502808, 0.05530581250786781, -0.616882860660553, -0.05570628494024277, -0.009609228931367397, 0.3506474196910858, 0.013989322818815708, 0.10443838685750961, -0.35178714990615845, 0.11046656966209412, 0.10272788256406784, 0.7103850841522217, -0.08139825612306595, -0.04122618958353996, 0.11800874024629593, -0.1270519644021988, 