{"version": "0.5.4", "metadata": {"date": {"year": 2026, "month": 5, "day": 31, "hour": 12, "minute": 23, "second": 0}, "loudness": -16.89586639404297, "gain": 1.0}, "architecture": "LSTM", "config": {"input_size": 1, "hidden_size": 16, "num_layers": 2}, "weights": [-0.24091041088104248, 0.1377677619457245, 0.053846776485443115, 0.05149519443511963, -0.010551303625106812, -0.09115314483642578, -0.21653157472610474, 0.134628027677536, -0.1399245262145996, 0.20548436045646667, -0.2334519624710083, -0.2291245460510254, -0.1783188283443451, 0.17638424038887024, -0.16897189617156982, 0.08684593439102173, -0.0020585060119628906, -0.24881374835968018, -0.037543803453445435, 0.01821860671043396, -0.012066096067428589, 0.07474657893180847, 0.17531052231788635, 0.012058854103088379, 0.01121288537979126, -0.08836477994918823, 0.1288098692893982, 0.03158256411552429, 0.20702672004699707, 0.13561707735061646, 0.22959285974502563, -0.23354622721672058, 0.1352863311767578, -0.07285821437835693, -0.18948590755462646, -0.05854281783103943, 0.01545339822769165, 0.1801450550556183, 0.10290524363517761, 0.08755514025688171, 0.24317944049835205, 0.19569909572601318, -0.04476875066757202, 0.02126935124397278, -0.09584638476371765, 0.20390191674232483, -0.0058415234088897705, -0.01834806799888611, -0.0008687674999237061, 0.22849324345588684, -0.0016336441040039062, -0.21630632877349854, 0.04648923873901367, 0.1624402105808258, -0.006655395030975342, 0.13911709189414978, -0.10785993933677673, 0.02935844659805298, 0.01846286654472351, -0.05060422420501709, 0.11578354239463806, -0.09134101867675781, 0.09560400247573853, 0.012975066900253296, 0.1462707817554474, -0.19446569681167603, 0.019531160593032837, 0.09897550940513611, 0.0016228556632995605, 0.11027926206588745, 0.1735767424106598, -0.2323128879070282, 0.17703208327293396, 0.04964953660964966, -0.10747987031936646, -0.19480189681053162, -0.06549140810966492, 0.20065483450889587, -0.20291119813919067, 0.05833175778388977, -0.07150691747665405, -0.004679292440414429, 0.17726200819015503, -0.10259974002838135, 0.014290571212768555, -0.2480071485042572, -0.028216898441314697, 0.15118885040283203, 0.02382412552833557, -0.20126211643218994, 0.011866211891174316, -0.22895941138267517, -0.07994619011878967, -0.0974261462688446, 0.18643325567245483, -0.23672881722450256, 0.03438842296600342, -0.04035830497741699, 0.09302592277526855, 0.08910471200942993, -0.22749575972557068, -0.1355411410331726, -0.21884167194366455, 0.19535407423973083, -0.15239322185516357, 0.18655574321746826, 0.03558802604675293, -0.21184119582176208, -0.21348491311073303, -0.10432863235473633, 0.05838361382484436, -0.11922618746757507, -0.11343768239021301, 0.20932844281196594, 0.06262877583503723, -0.1355375051498413, 0.16879528760910034, 0.17034021019935608, -0.08688369393348694, 0.049000322818756104, -0.1740969717502594, 0.13301903009414673, -0.18305271863937378, 0.19724786281585693, 0.09170922636985779, 0.0031360089778900146, 0.20673078298568726, 0.12476766109466553, 0.13221561908721924, 0.2068289816379547, 0.11820003390312195, 0.06887620687484741, 0.05934488773345947, 0.060648441314697266, -0.05327102541923523, -0.2139979898929596, 0.17563465237617493, -0.1990872621536255, -0.2150723934173584, -0.21103698015213013, -0.22516143321990967, 0.20669758319854736, -0.15371853113174438, -0.1384379267692566, 0.12615087628364563, -0.14862781763076782, -0.21927767992019653, -0.03731691837310791, -0.08798262476921082, -0.11562249064445496, 0.23547717928886414, -0.07105165719985962, -0.10464799404144287, -0.06865495443344116, 0.10481837391853333, -0.0871882438659668, -0.05404350161552429, 0.010187536478042603, -0.07559043169021606, -0.0929405689239502, -0.047006964683532715, 0.11401408910751343, 0.01853194832801819, -0.09623852372169495, -0.189590185880661, -0.16705521941184998, -0.09132015705108643, -0.21269354224205017, -0.08249515295028687, 0.1584167778491974, 0.07534933090209961, 0.20832455158233643, -0.21260827779769897, 0.029238641262054443, -0.24981430172920227, 0.002672046422958374, -0.03830483555793762, 0.0037353336811065674, -0.1534222960472107, -0.1495654582977295, -0.16429221630096436, -0.0858905017375946, 0.21079590916633606, 0.20398566126823425, 0.042213618755340576, 0.23943355679512024, 0.21375247836112976, 0.09785935282707214, 0.04317307472229004, -0.02244594693183899, 0.022957026958465576, 0.04388707876205444, 0.15135547518730164, -0.035917192697525024, 0.1319306492805481, 0.09385597705841064, 0.21595340967178345, 0.18170130252838135, -0.032626211643218994, -0.18291503190994263, -0.08232343196868896, 0.038439542055130005, -0.09243282675743103, -0.1750284731388092, -0.15616005659103394, 0.15000185370445251, 0.07169157266616821, 0.028409510850906372, -0.20960086584091187, -0.16436168551445007, -0.1472245454788208, -0.13188034296035767, -0.07012620568275452, 0.0357365608215332, 0.05969032645225525, 0.06311288475990295, 0.06390982866287231, 0.18323472142219543, 0.08790260553359985, -0.0048767030239105225, 0.13392391800880432, -0.1952284574508667, -0.025342881679534912, 0.08034873008728027, 0.2076117992401123, 0.10781270265579224, -0.22655904293060303, -0.1601530909538269, 0.2184739112854004, -0.12076205015182495, 0.06279447674751282, 0.15114054083824158, 0.19091027975082397, -0.13281849026679993, 0.09578588604927063, 0.2008490264415741, 0.20616987347602844, -0.19373968243598938, 0.13548880815505981, -0.18730440735816956, -0.19868910312652588, 0.10458171367645264, 0.03723272681236267, -0.0712195634841919, -0.14746367931365967, -0.2451571524143219, 0.10094401240348816, 0.09627404808998108, -0.22595256567001343, 0.09862270951271057, 0.16149663925170898, 0.11088547110557556, 0.11525270342826843, -0.13088423013687134, 0.008577167987823486, -0.1921195685863495, -0.13188371062278748, 0.12367740273475647, -0.16428273916244507, -0.07474210858345032, -0.037848472595214844, 0.21925339102745056, -0.2287074327468872, 0.059585750102996826, -0.10014227032661438, -0.13377156853675842, -0.08064866065979004, 0.027710676193237305, -0.11320632696151733, -0.13311070203781128, 0.04739609360694885, 0.14296016097068787, -0.012595266103744507, -0.22040298581123352, 0.05598297715187073, 0.11661842465400696, -0.16644662618637085, 0.21536317467689514, -0.2476658821105957, -0.03267192840576172, 0.06789442896842957, 0.053157657384872437, -0.03258448839187622, -0.07922452688217163, -0.030942142009735107, -0.09095227718353271, -0.1109846830368042, -0.08435264229774475, 0.09471625089645386, 0.10303264856338501, 0.16028407216072083, -0.16359004378318787, -0.21578550338745117, -0.12589257955551147, -0.03423193097114563, -0.14625605940818787, 0.09714064002037048, 0.1624831259250641, -0.14642977714538574, -0.006150245666503906, 0.08443981409072876, -0.02132558822631836, -0.09691500663757324, 0.21738630533218384, 0.03637215495109558, -0.19959023594856262, -0.14513817429542542, -0.12613171339035034, 0.08360874652862549, 0.003993034362792969, 0.15758341550827026, 0.18070301413536072, 0.0010693669319152832, -0.24378302693367004, 0.21361976861953735, -0.08717277646064758, 0.18841254711151123, 0.17082715034484863, 0.032804280519485474, -0.22072374820709229, -0.17625898122787476, -0.1616741418838501, -0.026153743267059326, 0.23532819747924805, 0.22043392062187195, -0.18342459201812744, 0.1735360324382782, 0.06076565384864807, -0.2019706666469574, -0.17011097073554993, -0.2318616509437561, 0.20636868476867676, -0.1638181507587433, -0.10182079672813416, 0.08846518397331238, -0.18540063500404358, 0.10992082953453064, 0.0693814754486084, 0.14479973912239075, -0.007257640361785889, 0.06792443990707397, 0.011260569095611572, -0.15532302856445312, 0.19081416726112366, -0.061652421951293945, -0.20945724844932556, -0.22339096665382385, 0.18739578127861023, -0.024874985218048096, 0.1643323004245758, -0.0031029582023620605, 0.17460361123085022, -0.23120972514152527, -0.15298888087272644, 0.039134472608566284, -0.07868382334709167, 0.20011556148529053, -0.07808303833007812, 0.14265528321266174, -0.03484600782394409, -0.007555454969406128, -0.2314963936805725, 0.19185546040534973, -0.09135141968727112, -0.18185606598854065, -0.012968719005584717, 0.10978686809539795, -0.048714637756347656, -0.1157403290271759, 0.14587432146072388, -0.1366879642009735, -0.18067288398742676, -0.13497236371040344, -0.22872406244277954, -0.17803597450256348, -0.17262688279151917, -0.02694341540336609, 0.2336779236793518, 0.14105874300003052, -0.1356917917728424, -0.02617412805557251, 0.13544005155563354, -0.23600107431411743, 0.0612015426158905, -0.135829359292984, -0.24312442541122437, -0.08187872171401978, 0.21536186337471008, 0.039040595293045044, -0.24378690123558044, -0.20746925473213196, -0.06448999047279358, 0.018709510564804077, 0.040154844522476196, 0.13081616163253784, 0.17444556951522827, 0.1789850890636444, -0.17718791961669922, -0.03674447536468506, -0.07247576117515564, 0.0390009880065918, -0.157678484916687, 0.2101048231124878, 0.0003535151481628418, -0.10918682813644409, 0.1562395691871643, 0.18455886840820312, -0.18321222066879272, -0.039742082357406616, 0.11754074692726135, 0.0635872483253479, 0.21107131242752075, -0.10024634003639221, 0.1251615285873413, 0.21345999836921692, 0.05725395679473877, 0.14352062344551086, -0.019068032503128052, -0.055284708738327026, -0.06967270374298096, -0.1399904191493988, 0.02851930260658264, -0.013300657272338867, 0.2433936595916748, -0.08465999364852905, -0.026297658681869507, -0.06501445174217224, -0.019853413105010986, 0.07694447040557861, 0.06591978669166565, -0.08409366011619568, 0.08761745691299438, 0.00048866868019104, 0.021162837743759155, -0.22076359391212463, -0.23838675022125244, 0.16539186239242554, 0.14515280723571777, 0.029707133769989014, -0.2000197470188141, -0.12779533863067627, 0.17187413573265076, -0.12149345874786377, 0.041888296604156494, 0.10499930381774902, -0.09227326512336731, -0.14234119653701782, -0.16818967461585999, 0.12344309687614441, -0.2250663936138153, 0.06413459777832031, -0.03466463088989258, -0.18953466415405273, 0.10542252659797668, 0.20133525133132935, -0.11832144856452942, 0.06825095415115356, 0.1398065984249115, -0.17701652646064758, -0.199387788772583, 0.10650071501731873, 0.12786686420440674, -0.10030558705329895, -0.2384626269340515, 0.22714343667030334, -0.06407976150512695, -0.050449877977371216, 0.23956388235092163, 0.17729243636131287, 0.18405672907829285, 0.08386486768722534, -0.1226053535938263, 0.21326428651809692, -0.22634047269821167, 0.018990755081176758, 0.1128355860710144, 0.0686039924621582, -0.11438974738121033, 0.11068770289421082, 0.14927160739898682, 0.17824095487594604, -0.06685036420822144, 0.2258598804473877, 0.07461002469062805, 0.06549352407455444, 0.06483739614486694, -0.18008169531822205, 0.04632231593132019, 0.05619919300079346, 0.10220041871070862, -0.055423200130462646, 0.23110556602478027, 0.2000061273574829, -0.017034173011779785, 0.18024149537086487, 0.12789320945739746, 6.636977195739746e-05, -0.06610721349716187, 0.09521093964576721, -0.24642354249954224, 0.23748153448104858, 0.11665433645248413, 0.24103301763534546, -0.18914350867271423, 0.09053340554237366, -0.14685872197151184, -0.23509138822555542, 0.049290239810943604, -0.2435334026813507, 0.09496033191680908, 0.11180970072746277, -0.06543615460395813, -0.1714608073234558, 0.23330006003379822, -0.03544524312019348, 0.07050284743309021, -0.10249128937721252, 0.1816883683204651, -0.006008237600326538, 0.12417125701904297, 0.09180593490600586, -0.021468013525009155, -0.011826485395431519, -0.16874146461486816, -0.03782522678375244, -0.13643556833267212, 0.04073667526245117, -0.1440393030643463, 0.11050787568092346, 0.12214389443397522, 0.04135692119598389, 0.07838615775108337, -0.06162518262863159, 0.12887927889823914, -0.15890789031982422, -0.16473868489265442, 0.11824116110801697, 0.012561708688735962, 0.06185552477836609, -0.12024635076522827, 0.11280915141105652, 0.10592946410179138, 0.03678131103515625, 0.23959669470787048, -0.05411675572395325, -0.02092239260673523, -0.062411338090896606, -0.22545164823532104, 0.021307677030563354, -0.04014390707015991, 0.11860927939414978, 0.08922821283340454, -0.21692392230033875, -0.11254295706748962, 0.16574326157569885, -0.1391352117061615, 0.03166431188583374, -0.12731531262397766, 0.05056115984916687, 0.06332015991210938, -0.009388536214828491, 0.016020148992538452, -0.09249445796012878, 0.042476773262023926, 0.15057939291000366, -0.04249531030654907, -0.011166989803314209, 0.018704116344451904, 0.017724573612213135, -0.10456705093383789, -0.03855517506599426, -0.23041272163391113, 0.05574309825897217, 0.05597415566444397, 0.08730313181877136, -0.24544063210487366, -0.17554661631584167, -0.0919596254825592, 0.024061203002929688, 0.17410120368003845, 0.12017032504081726, 0.16947898268699646, -0.0026626884937286377, -0.09527593851089478, -0.211201012134552, -0.14748719334602356, -0.11794790625572205, 0.20627304911613464, -0.09929889440536499, -0.1259807050228119, -0.13712748885154724, 0.04112279415130615, 0.06881114840507507, -0.08253180980682373, 0.041325658559799194, -0.15264499187469482, -0.15426945686340332, 0.025315701961517334, 0.1741909384727478, -0.08668729662895203, 0.19572147727012634, -0.19402724504470825, 0.18180203437805176, -0.054919302463531494, 0.1762145459651947, 0.16038018465042114, 0.21013635396957397, 0.18972042202949524, 0.0024144649505615234, 0.13650116324424744, -0.1614985466003418, 0.20921674370765686, -0.19788804650306702, 0.04318314790725708, -0.09275880455970764, 0.06193959712982178, -0.1790136992931366, 0.12287545204162598, 0.1837957203388214, -0.11332279443740845, 0.12556356191635132, -0.06990969181060791, 0.1698542833328247, 0.17437788844108582, 0.14551657438278198, -0.21813416481018066, 0.21638751029968262, -0.23894429206848145, 0.07175043225288391, 0.24095407128334045, -0.09346258640289307, 0.03634074330329895, 0.02975335717201233, 0.06696122884750366, -0.16916492581367493, -0.13889071345329285, -0.1339758336544037, 0.17741772532463074, 0.22227123379707336, 0.05852636694908142, -0.03956043720245361, -0.22768616676330566, 0.12563201785087585, -0.2419842779636383, -0.1299629807472229, -0.15411028265953064, -0.045668333768844604, -0.21570011973381042, -0.15395104885101318, -0.07918214797973633, -0.12425830960273743, 0.12972494959831238, 0.08406710624694824, -0.1625482141971588, 0.07956352829933167, 0.23964223265647888, 0.1775040328502655, 0.20218634605407715, 0.14754831790924072, -0.20535150170326233, 0.15367159247398376, -0.035217493772506714, 0.11856168508529663, -0.24513131380081177, 0.0028117597103118896, 0.14531341195106506, -0.15151837468147278, 0.16281378269195557, -0.1860000193119049, 0.034578412771224976, 0.22924178838729858, 0.09600800275802612, 0.17638376355171204, 0.15401309728622437, 0.007108181715011597, 0.09089767932891846, 0.2233845591545105, -0.16568505764007568, -0.21038365364074707, -0.14831918478012085, -0.17546916007995605, 0.16245248913764954, 0.19422125816345215, -0.027039527893066406, 0.01639130711555481, -0.09760889410972595, -0.027460843324661255, -0.05257520079612732, 0.04257851839065552, 0.05351635813713074, -0.16832685470581055, 0.046172648668289185, -0.031104296445846558, -0.05669504404067993, 0.13791263103485107, 0.0508190393447876, -0.03301292657852173, -0.08795550465583801, -0.1535053551197052, -0.017473429441452026, 0.1184869110584259, -0.1164255142211914, -0.08069071173667908, -0.18018776178359985, 0.10027465224266052, -0.05271744728088379, 0.06194865703582764, 0.17775794863700867, 0.13705793023109436, 0.18436333537101746, -0.13173270225524902, 0.14882993698120117, -0.2154306173324585, 0.11672130227088928, -0.08649009466171265, 0.2039584517478943, 0.005809307098388672, 0.026717394590377808, -0.15213075280189514, -0.09586706757545471, 0.03525543212890625, -0.02838820219039917, 0.11944842338562012, -0.02434411644935608, 0.03647404909133911, 0.08805325627326965, -0.2353380024433136, -0.21570667624473572, -0.16881924867630005, -0.24036309123039246, 0.1709897518157959, -0.12141203880310059, 0.14936009049415588, -0.19803792238235474, 0.0421658456325531, -0.2305026650428772, 0.176275372505188, -0.10211190581321716, 0.01916363835334778, -0.16860312223434448, 0.03138288855552673, 0.15275490283966064, -0.18244829773902893, 0.08519276976585388, 0.2024884819984436, -0.009405434131622314, 0.1972612738609314, -0.09994006156921387, 0.08636391162872314, 0.09036633372306824, 0.0694136917591095, -0.0023221373558044434, -0.17670410871505737, -0.10499498248100281, -0.22195520997047424, 0.024452030658721924, -0.08954492211341858, 0.10267451405525208, -0.22744813561439514, -0.22936487197875977, 0.09748801589012146, -0.08174505829811096, 0.058976203203201294, 0.21494314074516296, 0.05059292912483215, -0.11494201421737671, -0.003601670265197754, -0.1602516770362854, -0.0013447701930999756, 0.059905797243118286, -0.026286333799362183, -0.004603445529937744, -0.18628644943237305, 0.22007212042808533, -0.1406329870223999, -0.24338263273239136, 0.13690975308418274, -0.0007379651069641113, -0.20472216606140137, -0.055180519819259644, -0.2133154571056366, -0.1111379861831665, 0.1561029851436615, -0.14445346593856812, 0.22686102986335754, 0.09409409761428833, 0.10469162464141846, -0.11102360486984253, 0.22115203738212585, -0.24009594321250916, -0.1760803759098053, 0.10279902815818787, -0.051053643226623535, -0.1595993936061859, -0.06075727939605713, -0.07428181171417236, 0.059717774391174316, 0.13252627849578857, 0.15674614906311035, -0.039583027362823486, -0.1989736258983612, -0.08215129375457764, 0.03816834092140198, -0.06005948781967163, -0.032999187707901, 0.17308738827705383, 0.09346967935562134, 0.11805757880210876, -0.15402930974960327, -0.06230917572975159, -0.12024211883544922, 0.18700796365737915, 0.16335496306419373, -0.23686721920967102, 0.23276296257972717, 0.2356220781803131, 0.19090962409973145, 0.020681232213974, 0.06238454580307007, -0.1845988929271698, -0.011175334453582764, -0.23638156056404114, 0.1486416757106781, -0.21031010150909424, -0.06777000427246094, 0.08772256970405579, 0.23524460196495056, -0.22591722011566162, -0.0372256338596344, -0.09501782059669495, -0.05995678901672363, 0.21053916215896606, 0.030166298151016235, -0.008992046117782593, 0.13348305225372314, 0.03055703639984131, -0.05103692412376404, -0.22312849760055542, -0.20361512899398804, 0.03158882260322571, 0.12077987194061279, -0.028827518224716187, 0.21409475803375244, 0.23514172434806824, -0.05471271276473999, 0.025280386209487915, -0.01732507348060608, 0.1493026316165924, -0.20096516609191895, -0.04047048091888428, -0.14696064591407776, -0.24923354387283325, -0.003041297197341919, -0.03429862856864929, 0.17576536536216736, -0.011590570211410522, 0.011067807674407959, -0.08610531687736511, -0.10174509882926941, -0.09496721625328064, -0.03400567173957825, -0.22614425420761108, 0.14693212509155273, -0.2192915380001068, -0.09957832098007202, 0.08993455767631531, 0.2233179807662964, -0.06091862916946411, 0.15375247597694397, -0.13408973813056946, -0.0033999383449554443, 0.01575523614883423, 0.08490651845932007, 0.013024747371673584, -0.17869067192077637, -0.00581669807434082, -0.06148597598075867, 0.13258779048919678, -0.001036226749420166, 0.18439581990242004, 0.1662856638431549, -0.14941588044166565, 0.16349437832832336, -0.12730196118354797, -0.06871902942657471, -0.23175334930419922, -0.14454734325408936, 0.07895424962043762, 0.21684491634368896, -0.1318509876728058, 0.2238095998764038, 0.0341755747795105, 0.03464633226394653, 0.17968153953552246, -0.14247995615005493, 0.028582125902175903, 0.014146983623504639, 0.18468967080116272, 0.19352459907531738, -0.061988621950149536, 0.2167806625366211, -0.21621185541152954, 0.028166979551315308, -0.17442291975021362, -0.14894238114356995, 0.13839146494865417, 0.18768391013145447, 0.13137203454971313, -0.11959215998649597, 0.24666738510131836, 0.08574452996253967, 0.0036905407905578613, 0.2162812352180481, -0.1691317856311798, -0.24790498614311218, 0.10069069266319275, 0.12325680255889893, -0.15586093068122864, -0.0768427848815918, 0.07200771570205688, -0.2271677553653717, 0.006150186061859131, -0.2009146809577942, -0.020170480012893677, 0.02042725682258606, 0.15473031997680664, -0.04568246006965637, 0.22003018856048584, -0.07690581679344177, 0.08494189381599426, 0.2452206015586853, 0.0831807553768158, -0.2150495946407318, 0.12207108736038208, -0.020334482192993164, -0.14893442392349243, 0.17722171545028687, 0.11845773458480835, -0.014693766832351685, 0.0012659132480621338, 0.2416554093360901, 0.24469172954559326, -0.01874259114265442, -0.17971375584602356, 0.11451646685600281, -0.047151654958724976, -0.17950788140296936, -0.18867170810699463, 0.2141585350036621, -0.15503627061843872, -0.053878188133239746, -0.0675915777683258, 0.18044337630271912, 0.013114690780639648, -0.21128299832344055, 0.0050612688064575195, -0.04758328199386597, -0.12504082918167114, -0.17490917444229126, -0.012664884328842163, 0.1773909628391266, 0.14318206906318665, 0.03682655096054077, -0.2051013708114624, -0.1822318434715271, -0.060501277446746826, -0.1716667115688324, -0.22113585472106934, -0.12669289112091064, 0.15042677521705627, 0.12419378757476807, 0.15661707520484924, -0.0030354857444763184, 0.10041344165802002, 0.07656970620155334, -0.10266223549842834, -0.1146828830242157, -0.15973994135856628, 0.07926914095878601, -0.08321261405944824, -0.022403627634048462, -0.023186057806015015, -0.20046862959861755, -0.06789210438728333, -0.11802548170089722, -0.04211053252220154, 0.10439947247505188, -0.09128338098526001, -0.1455625593662262, -0.037790894508361816, 0.20776590704917908, -0.1420363485813141, -0.09130385518074036, -0.23969236016273499, -0.06824415922164917, 0.13813430070877075, -0.02911117672920227, -0.14187783002853394, 0.17524170875549316, -0.002950727939605713, 0.04756343364715576, 0.11903291940689087, 0.1823902428150177, 0.12595432996749878, -0.1612173616886139, -0.16438508033752441, 0.09069982171058655, -0.003784775733947754, 0.02997535467147827, -0.1417878270149231, 0.13958197832107544, -0.13018348813056946, 0.22952145338058472, -0.17193648219108582, -0.1835954487323761, -0.12504670023918152, 0.040937989950180054, 0.13062864542007446, 0.039574116468429565, -0.16627740859985352, 0.1643180549144745, -0.02541455626487732, 0.20250973105430603, 0.17755547165870667, 0.20522812008857727, -0.23087486624717712, 0.19726476073265076, 0.023218870162963867, -0.03631755709648132, -0.013522148132324219, -0.010853618383407593, -0.009145468473434448, 0.14231058955192566, 0.18800750374794006, 0.02481675148010254, 0.22508785128593445, -0.13349103927612305, -0.12493088841438293, -0.2405109405517578, 0.1355157494544983, -0.2260843813419342, 0.046395331621170044, 0.061082541942596436, 0.053745657205581665, -0.1290990710258484, -0.1618703007698059, -0.02947196364402771, -0.12079715728759766, 0.18892574310302734, 0.011451691389083862, 0.0727260410785675, -0.06860801577568054, 0.028880774974822998, 0.11123287677764893, -0.1871109902858734, -0.06475052237510681, -0.052037179470062256, 0.1096823513507843, 0.2283935844898224, 0.05259042978286743, -0.04466161131858826, -0.12672823667526245, -0.026972532272338867, 0.0837506353855133, 0.06112682819366455, 0.1916137933731079, -0.2363305389881134, 0.05514821410179138, -0.14917919039726257, -0.18724358081817627, -0.018472522497177124, -0.2279682159423828, 0.1588917076587677, 0.10064136981964111, -0.1975245177745819, -0.1277514398097992, -0.1505163013935089, 0.15380093455314636, -0.16190865635871887, 0.16579172015190125, 0.05048641562461853, 0.2062009572982788, -0.20833739638328552, 0.16086223721504211, -0.15312033891677856, 0.13117027282714844, 0.18662768602371216, -0.12841498851776123, -4.004176139831543, -4.252979278564453, -3.8797998428344727, -4.35014533996582, -4.0970048904418945, -4.329771041870117, -3.946552276611328, -3.712745189666748, -3.7382125854492188, -4.1550374031066895, -3.726983070373535, -4.1222453117370605, -4.008843421936035, -3.827430486679077, -4.0736846923828125, -4.199436187744141, 3.629917621612549, 4.242243766784668, 3.8147308826446533, 4.2009358406066895, 4.192374229431152, 3.88622784614563, 4.113953590393066, 4.092477798461914, 3.984133720397949, 4.051418304443359, 4.0298871994018555, 3.964486598968506, 3.9680142402648926, 4.263073444366455, 4.273425102233887, 3.912111282348633, 0.26087063550949097, 0.023414582014083862, -0.2673090100288391, 0.4409051835536957, 0.20081710815429688, -0.09096065163612366, 0.20851656794548035, 0.3808442950248718, 0.25325068831443787, -0.2955659031867981, -0.2581491768360138, 0.10381883382797241, -0.32386377453804016, -0.07386335730552673, 0.39197033643722534, 0.3359900712966919, -0.01666852831840515, 0.3113129436969757, 0.01623302698135376, -0.41465261578559875, 0.002618253231048584, 0.014351695775985718, 0.19948649406433105, -0.258976548910141, 0.025908321142196655, -0.17190787196159363, 0.3465452790260315, 0.0694432258605957, 0.32038336992263794, 0.14299002289772034, -0.00897267460823059, -0.3551660180091858, 0.09851833432912827, -0.027943316847085953, -0.11863154172897339, 0.12130668759346008, 0.052110061049461365, -0.028575148433446884, 0.11027033627033234, 0.21457239985466003, 0.19074802100658417, -0.16435953974723816, -0.21917381882667542, 0.048509687185287476, -0.10426980257034302, -0.06951482594013214, 0.20376281440258026, 0.130241259932518, 0.1959713250398636, -0.049554742872714996, -0.22923530638217926, 0.3170526623725891, 0.10285412520170212, -0.054849665611982346, 0.1969701647758484, 0.5359988808631897, 0.38558515906333923, -0.37434324622154236, -0.3770734667778015, 0.09182216972112656, -0.18287938833236694, -0.13373833894729614, 0.45818066596984863, 0.31074821949005127, -0.15542897582054138, -0.21112200617790222, -0.04259994626045227, 0.15088316798210144, -0.1227017343044281, 0.022936463356018066, -0.1736113727092743, 0.06331217288970947, -0.1835055947303772, 0.014426887035369873, -0.06892818212509155, -0.12911421060562134, -0.19923755526542664, 0.07078582048416138, -0.20964419841766357, -0.19899797439575195, 0.1565139889717102, -0.18453651666641235, 0.21484851837158203, -0.11224651336669922, -0.1092466413974762, -0.23659348487854004, 0.053551048040390015, -0.005285888910293579, 0.046240776777267456, 0.14933174848556519, 0.1393827199935913, -0.21460476517677307, -0.21515467762947083, -0.06380993127822876, -0.16050702333450317, 0.022209644317626953, -0.09927999973297119, -0.22810539603233337, 0.18340468406677246, -0.14833778142929077, -0.03876161575317383, -0.05456429719924927, -0.009219944477081299, 0.21312370896339417, 0.018972665071487427, 0.009424418210983276, 0.2226521074771881, 0.07293576002120972, -0.22100457549095154, -0.20160603523254395, 0.0543861985206604, 0.09136193990707397, 0.2450321912765503, -0.1741442084312439, -0.0557023286819458, 0.1580662727355957, -0.016656100749969482, -0.13142067193984985, -0.2274254560470581, 0.02920299768447876, 0.06296500563621521, -0.04493308067321777, 0.03490939736366272, -0.05124959349632263, 0.22365915775299072, 0.21532779932022095, 0.17417669296264648, 0.19976913928985596, 0.04244282841682434, 0.20982661843299866, -0.19217199087142944, -0.06432205438613892, 0.1446228325366974, 0.2280569076538086, 0.12154549360275269, -0.08121952414512634, 0.17814499139785767, -0.04862973093986511, 0.003208458423614502, 0.10534951090812683, 0.2324422001838684, -0.20002663135528564, -0.038723915815353394, 0.16385170817375183, -0.10898512601852417, -0.08376675844192505, -0.22643142938613892, -0.06562617421150208, -0.04090309143066406, 0.21282392740249634, -0.19505831599235535, 0.17238950729370117, 0.0008682012557983398, -0.04450565576553345, 0.006018280982971191, 0.13781821727752686, 0.1509988009929657, 0.22427812218666077, -0.11661815643310547, 0.07298615574836731, -0.11648142337799072, -0.022087007761001587, -0.14499476552009583, -0.1543312668800354, -0.06041252613067627, 0.14780202507972717, -0.13848912715911865, -0.013815551996231079, 0.14296793937683105, 0.12668657302856445, 0.14228665828704834, 0.2194421887397766, 0.18190735578536987, 0.21579501032829285, 0.1649811863899231, 0.0874895453453064, 0.03345024585723877, -0.11082231998443604, 0.0079498291015625, -0.10154223442077637, 0.16366592049598694, -0.21407538652420044, -0.04398566484451294, -0.19581851363182068, -0.09677261114120483, 0.05202716588973999, 0.10434985160827637, 0.18517491221427917, 0.04531577229499817, 0.03969389200210571, -0.1004161536693573, -0.1761065125465393, -0.15868833661079407, -0.16407737135887146, -0.2372426986694336, -0.057260602712631226, 0.0229777991771698, -0.031563013792037964, -0.17937684059143066, -0.0049142539501190186, -0.22792690992355347, -0.09752857685089111, 0.07024767994880676, 0.07040417194366455, -0.03235790133476257, -0.025861501693725586, 0.058025240898132324, 0.09358254075050354, 0.07410356402397156, -0.10119640827178955, 0.20836764574050903, -0.22141629457473755, 0.1247548758983612, -0.020362287759780884, 0.16644075512886047, -0.013203173875808716, -0.16917291283607483, -0.07339531183242798, -0.17293697595596313, -0.1993013322353363, -0.06331458687782288, 0.003086775541305542, -0.19236457347869873, 0.013801991939544678, 0.05738013982772827, -0.1767776608467102, -0.18820536136627197, 0.22870513796806335, 0.04774734377861023, -0.154442697763443, 0.0854857861995697, -0.0482390820980072, 0.07902011275291443, 0.18092212080955505, -0.046824127435684204, -0.03995943069458008, 0.03615230321884155, -0.10096350312232971, -0.13652577996253967, -0.1341085135936737, 0.20045703649520874, -0.05772346258163452, -0.22564679384231567, -0.06942307949066162, -0.09738284349441528, 0.157787024974823, 0.0494459867477417, -0.14242851734161377, 0.10352566838264465, 0.014145076274871826, -0.04852411150932312, 0.08415237069129944, -0.07429066300392151, 0.12037360668182373, 0.07667094469070435, 0.182134747505188, -0.04017302393913269, -0.2248568832874298, 0.24948036670684814, -0.013518184423446655, -0.047507911920547485, 0.08225938677787781, -0.15079465508460999, -0.167781800031662, 0.12616929411888123, -0.1919715404510498, -0.014341980218887329, 0.07962319254875183, -0.12769338488578796, -0.038536250591278076, 0.1888040006160736, -0.1325095295906067, 0.16197046637535095, 0.072762131690979, 0.24671712517738342, -0.1828211545944214, -0.0857153832912445, 0.12253499031066895, -0.0001270771026611328, 0.21980389952659607, -0.19036442041397095, 0.24765929579734802, 0.1613273024559021, -0.23065561056137085, 0.07543173432350159, -0.23958954215049744, -0.2475810945034027, -0.21959465742111206, 0.06510999798774719, 0.16392812132835388, 0.0694669783115387, 0.16517487168312073, -0.21589228510856628, -0.18823584914207458, 0.23843568563461304, 0.09937620162963867, -0.08009842038154602, 0.06541106104850769, -0.04549074172973633, 0.060318946838378906, -0.24048134684562683, -0.11252978444099426, -0.22403889894485474, -0.1840423047542572, -0.19797807931900024, 0.033434510231018066, 0.24329957365989685, 0.1576259732246399, 0.1421748697757721, 0.2100381851196289, -0.04151958227157593, -0.07476672530174255, 0.04224178194999695, 0.06167450547218323, -0.22091299295425415, 0.24966919422149658, -0.22974172234535217, 0.09810066223144531, -0.22859546542167664, 0.07225015759468079, 0.15313687920570374, -0.16634714603424072, 0.2247982919216156, -0.11401307582855225, 0.10149946808815002, -0.09106805920600891, -0.004462212324142456, -0.12308481335639954, -0.2225324511528015, 0.13603678345680237, -0.2394566833972931, -0.05635315179824829, 0.20426934957504272, -0.01851952075958252, 0.06138911843299866, -0.12406882643699646, 0.06793266534805298, -0.12684869766235352, -0.015799522399902344, -0.23818761110305786, 0.1604834496974945, 0.0814577043056488, 0.0723825991153717, -0.24858635663986206, 0.1671891212463379, 0.07815426588058472, 0.00014102458953857422, -0.23374983668327332, -0.06550747156143188, -0.010097473859786987, -0.18051093816757202, -0.12367910146713257, 0.14576447010040283, -0.17200013995170593, -0.24419516324996948, 0.03979721665382385, -0.220252126455307, 0.20905885100364685, 0.1061629056930542, 0.013196557760238647, 0.19391492009162903, -0.09728759527206421, 0.08844709396362305, -0.005025774240493774, 0.2007668912410736, 0.20361053943634033, 0.10814797878265381, 0.2478925585746765, -0.24960264563560486, 0.013042032718658447, -0.10078594088554382, 0.17847704887390137, 0.21482321619987488, 0.0029000043869018555, -0.09973832964897156, 0.0478937029838562, 0.2140810489654541, 0.17499420046806335, 0.18580752611160278, 0.18356695771217346, 0.048763126134872437, -0.10324648022651672, 0.03606140613555908, 0.10018718242645264, -0.17912235856056213, -0.06363159418106079, 0.05717575550079346, 0.12509137392044067, -0.004295051097869873, -0.190189391374588, -0.0476318895816803, 0.2057320773601532, -0.003241211175918579, 0.08633896708488464, -0.08114069700241089, 0.14477530121803284, -0.1159810721874237, 0.09773379564285278, 0.13885453343391418, -0.059920698404312134, 0.017220377922058105, 0.2068820297718048, 0.1387237012386322, 0.013923585414886475, 0.24779638648033142, -0.11172357201576233, 0.14025002717971802, -0.1739920973777771, 0.017857462167739868, 0.00619390606880188, -0.2291986048221588, 0.06918501853942871, 0.20362931489944458, 0.10141846537590027, -0.14286458492279053, -0.031893134117126465, -0.17652571201324463, -0.15572506189346313, -0.033276259899139404, 0.23570328950881958, 0.01759493350982666, 0.015848428010940552, -0.18902289867401123, -0.08185690641403198, 0.05459451675415039, 0.01983875036239624, 0.20506232976913452, 0.04856404662132263, 0.24726587533950806, -0.1560036540031433, -0.043307751417160034, -0.04610762000083923, -0.12691840529441833, 0.1424417495727539, 0.11937683820724487, -0.23431101441383362, -0.04586896300315857, -0.1775835156440735, -0.18243393301963806, -0.037293463945388794, 0.21458056569099426, -0.10529449582099915, 0.1123717725276947, 0.09010857343673706, -0.24601450562477112, 0.06844127178192139, 0.16281571984291077, 0.11529809236526489, 0.10696497559547424, -0.16086402535438538, -0.051679015159606934, -0.21897608041763306, -0.2417469024658203, 0.06843161582946777, 0.12930208444595337, 0.05847010016441345, -0.17213451862335205, -0.19885626435279846, -0.07227325439453125, -0.021339088678359985, 0.11740615963935852, 0.014659911394119263, -0.2402135133743286, -0.00292167067527771, -0.11339926719665527, 0.1203639805316925, -0.05339530110359192, 0.15944424271583557, 0.21567067503929138, 0.20490002632141113, 0.20850563049316406, -0.019348204135894775, -0.1362999975681305, 0.11616414785385132, -0.019240081310272217, -0.07909700274467468, -0.03240865468978882, 0.031050533056259155, 0.09572044014930725, 0.08408617973327637, 0.0812818706035614, 0.19169551134109497, -0.2061426341533661, -0.24036335945129395, 0.11278215050697327, -0.05290406942367554, 0.17472484707832336, 0.11641725897789001, -0.19427475333213806, 0.211103618144989, -0.24612268805503845, 0.12863874435424805, -0.24572455883026123, -0.0719636082649231, 0.19791576266288757, -0.03568205237388611, -0.22025129199028015, -0.04895487427711487, 0.23068636655807495, -0.0534936785697937, 0.14974719285964966, -0.040314316749572754, -0.1963765025138855, -0.19405433535575867, -0.20666512846946716, -0.2412503957748413, -0.13590878248214722, 0.1988281011581421, 0.07505542039871216, -0.10282519459724426, 0.20477378368377686, 0.17299702763557434, -0.17234033346176147, 0.12860381603240967, -0.002149254083633423, 0.10925042629241943, -0.13885533809661865, 0.06214421987533569, 0.046793997287750244, 0.11532607674598694, 0.16729015111923218, 0.026771128177642822, -0.025904834270477295, -0.24099266529083252, -0.07216709852218628, 0.045742154121398926, 0.0970618724822998, -0.0413191020488739, -0.1881701648235321, -0.01040998101234436, -0.013945996761322021, -0.1730497181415558, 0.007810533046722412, 0.1979534924030304, 0.23425763845443726, 0.16390937566757202, -0.14514315128326416, 0.029547035694122314, -0.09122753143310547, 0.11452308297157288, -0.14541444182395935, 0.022142767906188965, -0.23338574171066284, 0.23180514574050903, -0.07782840728759766, -0.21153807640075684, 0.08165094256401062, 0.0998910665512085, 0.13437101244926453, -0.090472012758255, 0.12924233078956604, -0.11264172196388245, 0.04889759421348572, -0.20706942677497864, -0.11977949738502502, -0.13274753093719482, 0.019297033548355103, -0.1513749063014984, -0.21805402636528015, -0.02253246307373047, 0.2053113579750061, -0.062071532011032104, -0.06819093227386475, -0.2381686568260193, -0.09212163090705872, -0.20350712537765503, -0.16696518659591675, 0.04773819446563721, 0.09713658690452576, 0.09117653965950012, -0.18852201104164124, 0.026584982872009277, -0.10645806789398193, -0.1588042676448822, -0.06373918056488037, 0.20612552762031555, -0.1375303864479065, -0.21963417530059814, 0.08120042085647583, 0.23588275909423828, 0.07394197583198547, -0.13908973336219788, -0.1211918294429779, 0.2339666187763214, -0.1734848916530609, -0.10966023802757263, -0.07164809107780457, -0.23428666591644287, 0.21108174324035645, -0.0313589870929718, 0.19030466675758362, -0.2180802822113037, 0.21787208318710327, 0.0657021701335907, -0.054654330015182495, -0.1021718978881836, 0.09179219603538513, -0.11195391416549683, -0.1605435609817505, -0.037190020084381104, 0.15075162053108215, 0.0662091076374054, 0.19793415069580078, -0.2492002248764038, -0.14199298620224, -0.114775151014328, 0.13836035132408142, -0.10040545463562012, 0.037746161222457886, 0.032308995723724365, -0.2345806062221527, -0.2042059600353241, 0.13512635231018066, 0.06030052900314331, 0.16174644231796265, 0.09777408838272095, -0.07106795907020569, 0.103038489818573, -0.06397619843482971, 0.042378783226013184, -0.019389241933822632, 0.09585180878639221, 0.08087003231048584, -0.03317400813102722, 0.024586915969848633, 0.21197986602783203, -0.2464601993560791, 0.13160529732704163, 0.1456049084663391, -0.1979559063911438, -0.02917429804801941, 0.18781980872154236, 0.19994860887527466, 0.2044139802455902, -0.13337016105651855, -0.23665142059326172, -0.03950968384742737, -0.08966872096061707, 0.1608067750930786, -0.01830214262008667, 0.13999775052070618, -0.22778522968292236, -0.02924513816833496, 0.14363327622413635, 0.05378836393356323, -0.2097400426864624, -0.2173401415348053, -0.23514926433563232, 0.04471921920776367, -0.1762218475341797, 0.23258614540100098, 0.16702142357826233, 0.0025673210620880127, 0.13533133268356323, -0.19000127911567688, -0.14940598607063293, -0.16193124651908875, -0.11162567138671875, 0.07141059637069702, -0.13775697350502014, -0.07438722252845764, 0.1362767219543457, 0.12924408912658691, 0.0596579909324646, -0.1814039647579193, 0.14354297518730164, 0.13209369778633118, 0.13181665539741516, 0.17104172706604004, 0.2477138638496399, -0.09904780983924866, 0.06700879335403442, 0.12917852401733398, 0.06333991885185242, 0.00997626781463623, -0.21219703555107117, -0.011683672666549683, 0.07217222452163696, 0.18157273530960083, 0.052828580141067505, 0.13893672823905945, -0.1511472463607788, -0.058579981327056885, 0.06500411033630371, -0.21589159965515137, -0.20828834176063538, -0.10372766852378845, -0.07547977566719055, 0.02044963836669922, -0.04428872466087341, 0.0287514328956604, 0.1969124972820282, -0.2411852777004242, 0.22886160016059875, 0.24048250913619995, 0.2343102991580963, 0.23078382015228271, -0.09985530376434326, 0.09011989831924438, 0.057872503995895386, -0.1124676764011383, -0.17742493748664856, -0.24047508835792542, -0.049426376819610596, -0.20450055599212646, -0.10711333155632019, 0.08485990762710571, 0.21260285377502441, 0.026193082332611084, 0.1586267352104187, -0.020530670881271362, 0.20174705982208252, 0.0715496838092804, 0.13210579752922058, -0.21465957164764404, -0.027937591075897217, -0.2471674680709839, 0.15473231673240662, 0.12742868065834045, 0.0955025851726532, -0.047101497650146484, -0.12623333930969238, 0.13159936666488647, 0.22767233848571777, -0.11779013276100159, 0.23157820105552673, 0.22577723860740662, -0.18876510858535767, -0.14806902408599854, 0.10250672698020935, 0.025972962379455566, -0.13284581899642944, 0.09819820523262024, 0.10350346565246582, 0.03863885998725891, -0.21583285927772522, 0.1525110900402069, 0.22173860669136047, -0.14738142490386963, 0.19555628299713135, 0.15777522325515747, 0.0749453604221344, -0.03130409121513367, 0.18909728527069092, -0.109913170337677, -0.10454994440078735, 0.2350366711616516, 0.11303460597991943, -0.13703319430351257, -0.2325853705406189, -0.15751081705093384, -0.09386876225471497, -0.21414422988891602, -0.13719195127487183, 0.22548535466194153, 0.17142605781555176, -0.06462591886520386, -0.10682797431945801, 0.11659500002861023, 0.03961107134819031, 0.13435474038124084, 0.12395882606506348, -0.23453208804130554, 0.19472914934158325, 0.23673444986343384, 0.020676642656326294, 0.051583945751190186, -0.2327205240726471, -0.13363167643547058, 0.01433408260345459, 0.1393938958644867, 0.09109649062156677, -0.19468307495117188, -0.12909913063049316, -0.20142337679862976, -0.009073197841644287, 0.17523548007011414, 0.07779473066329956, 0.03300997614860535, -0.23248296976089478, -0.2070222795009613, -0.179794043302536, 0.15473812818527222, -0.17201706767082214, 0.2129668891429901, -0.10486307740211487, -0.03870207071304321, 0.2283373475074768, 0.1042337715625763, 0.06639102101325989, -0.15902692079544067, -0.13422447443008423, -0.07132536172866821, -0.1632653772830963, 0.04547780752182007, -0.19260990619659424, 0.09613114595413208, -0.06686988472938538, 0.13696447014808655, -0.06072017550468445, -0.20069509744644165, 0.1347823441028595, -0.23535045981407166, 0.19324073195457458, 0.2076711654663086, 0.16380184888839722, -0.2253749668598175, -0.15671086311340332, 0.2459004521369934, -0.14738807082176208, 0.13597697019577026, -0.14367210865020752, 0.01806163787841797, 0.18314170837402344, 0.028911292552947998, 0.2047356367111206, 0.0965014398097992, -0.08383321762084961, 0.1705194115638733, 0.06553813815116882, -0.07812538743019104, 0.063799649477005, 0.03262588381767273, 0.05631759762763977, -0.2018345296382904, 0.1572878062725067, -0.005449146032333374, 0.07102176547050476, -0.1451273262500763, 0.23605334758758545, -0.10075962543487549, -0.15138879418373108, -0.12519991397857666, 0.010573327541351318, -0.16674238443374634, 0.15843775868415833, 0.18244943022727966, 0.038833945989608765, 0.013417690992355347, 0.022167682647705078, 0.07131212949752808, 0.04115059971809387, -0.040296465158462524, -0.1773967444896698, -0.20827162265777588, 0.02402663230895996, 0.12161406874656677, -0.24990186095237732, -0.06142610311508179, -0.09067767858505249, 0.2089470624923706, 0.030300885438919067, 0.11030280590057373, 0.11947125196456909, 0.09179794788360596, 0.22834321856498718, -0.030734717845916748, -0.010266393423080444, 0.187702476978302, 0.220116525888443, -0.08962401747703552, -0.12834489345550537, 0.03941938281059265, -0.18516242504119873, 0.14059138298034668, -0.14384490251541138, 0.047724395990371704, 0.12675270438194275, 0.20851412415504456, 0.05460056662559509, -0.04581305384635925, 0.05949056148529053, 0.24418902397155762, -0.046286970376968384, 0.21824011206626892, 0.07152125239372253, -0.23462173342704773, 0.09849902987480164, -0.13120293617248535, 0.2194066345691681, 0.24425527453422546, 0.13825076818466187, -0.005888581275939941, -0.13637545704841614, 0.08449393510818481, 0.032838672399520874, -0.021043211221694946, -0.07878321409225464, 0.11039265990257263, -0.09213480353355408, 0.007634758949279785, -0.04449543356895447, 0.24651363492012024, -0.2254493534564972, -0.13172081112861633, 0.051585108041763306, -0.11631372570991516, 0.24610954523086548, -0.13772130012512207, 0.20232313871383667, -0.10488846898078918, -0.030370354652404785, -0.20119673013687134, -0.1313420832157135, -0.18092116713523865, 0.007664352655410767, -0.06888279318809509, -0.12687945365905762, -0.12642040848731995, -0.048611074686050415, 0.01877593994140625, -0.16136416792869568, -0.14371556043624878, 0.021522998809814453, -0.06677648425102234, 0.0090809166431427, 0.12952524423599243, 0.20644262433052063, -0.24393510818481445, -0.08462890982627869, -0.03702610731124878, -0.08882087469100952, 0.09285420179367065, 0.14723730087280273, -0.031023114919662476, -0.21837756037712097, 0.10360357165336609, -0.17697876691818237, 0.08653908967971802, 0.0083790123462677, -0.0659557580947876, 0.16349086165428162, -0.08555954694747925, -0.13619214296340942, 0.16891971230506897, 0.18675976991653442, 0.058462172746658325, -0.21186399459838867, -0.06747373938560486, 0.22697758674621582, -0.11336851119995117, 0.05153721570968628, 0.006754368543624878, 0.031291961669921875, -0.09575626254081726, 0.07819706201553345, -0.1234164834022522, 0.08080238103866577, -0.1908552050590515, 0.1810949742794037, 0.11565765738487244, 0.1763085424900055, -0.1831103265285492, -0.06604421138763428, -0.2485683560371399, -0.052213966846466064, -0.21599850058555603, 0.05965682864189148, 0.09843918681144714, 0.055117785930633545, -0.06620171666145325, -0.017930567264556885, 0.07307925820350647, -0.12115782499313354, 0.24678725004196167, -0.061079055070877075, -0.18012863397598267, 0.07158073782920837, 0.06058260798454285, 0.21551111340522766, 0.008978992700576782, 0.09638354182243347, 0.14334645867347717, 0.01436913013458252, -0.17077630758285522, 0.10957798361778259, -0.11739182472229004, 0.08421444892883301, 0.1851469874382019, 0.035878777503967285, 0.06832230091094971, 0.1704731285572052, 0.1117371916770935, -0.1508083939552307, 0.2252081334590912, -0.223272442817688, 0.14816966652870178, 0.06786727905273438, -0.1411275863647461, 0.2094460129737854, -0.13002952933311462, 0.002977907657623291, -0.04393082857131958, -0.16536319255828857, -0.19231241941452026, 0.043171435594558716, -0.09080547094345093, 0.0373588502407074, -0.20141634345054626, -0.1154090166091919, 0.19948658347129822, -0.1400359570980072, -0.1325666308403015, -0.028186500072479248, 0.10800710320472717, 0.14515405893325806, 0.05298808217048645, 0.13236844539642334, 0.04355102777481079, 0.12138417363166809, 0.10564789175987244, 0.18495434522628784, -0.030709445476531982, -0.18572595715522766, -0.11144113540649414, 0.06070837378501892, 0.10530757904052734, -0.1167650818824768, 0.06681060791015625, -0.03435403108596802, -0.06883934140205383, -0.08843713998794556, 0.13671979308128357, -0.11471319198608398, 0.23768219351768494, -0.12462025880813599, -0.21341058611869812, 0.21364805102348328, -0.0281122624874115, -0.2414344847202301, 0.21193253993988037, 0.1372060477733612, 0.12289309501647949, -0.02220425009727478, -0.16809606552124023, -0.058998554944992065, -0.23485958576202393, 0.05498430132865906, -0.10836243629455566, 0.21177449822425842, -0.11179983615875244, -0.13366782665252686, 0.12025207281112671, -0.2021121382713318, -0.20279014110565186, -0.07620483636856079, -0.16053789854049683, 0.024891585111618042, 0.0031671524047851562, -0.147910475730896, -0.044310927391052246, -0.09080138802528381, -0.004978865385055542, -0.23384958505630493, -0.23903977870941162, -0.21160846948623657, -0.10405102372169495, -0.19346845149993896, -0.10008436441421509, -0.16558268666267395, -0.22528794407844543, -0.1702759861946106, 0.007710576057434082, 0.086493581533432, 0.08587056398391724, 0.1960151493549347, -0.11509177088737488, 0.2251107394695282, -0.0718461275100708, 0.17098546028137207, 0.13631612062454224, -0.13438811898231506, -0.19120940566062927, -0.16460230946540833, -0.016435205936431885, -0.21049857139587402, 0.1651173233985901, -0.09646877646446228, 0.06744557619094849, -0.004675000905990601, -0.155055969953537, -0.03708261251449585, -0.010355621576309204, -0.12358039617538452, 0.018392503261566162, -0.049693793058395386, 0.15290990471839905, 0.1415276825428009, 0.2407955825328827, 0.11842182278633118, -0.11363241076469421, -0.21455895900726318, -0.2317240834236145, 0.025705575942993164, 0.08806657791137695, -0.21705785393714905, -0.112383633852005, 0.12438994646072388, 0.06470915675163269, 0.13203772902488708, -0.12482288479804993, -0.16014114022254944, 0.09375864267349243, 0.13290807604789734, -0.09099102020263672, -0.017788469791412354, -0.17023664712905884, -0.2059023678302765, -0.0671352744102478, -0.21917223930358887, -0.06987223029136658, -0.14776325225830078, -0.21525070071220398, -0.16468074917793274, -0.10658031702041626, 0.027638107538223267, 0.18521985411643982, 0.03136447072029114, -0.10998678207397461, 0.1934407651424408, -0.09381508827209473, 0.03975886106491089, 0.002665311098098755, -0.09873741865158081, 0.10998141765594482, -0.12786850333213806, 0.04055264592170715, 0.08832058310508728, 0.07806777954101562, 0.17573362588882446, -0.14013522863388062, -0.2007867395877838, -0.20828860998153687, -0.054330974817276, -0.0442085862159729, 0.20726686716079712, 0.15374010801315308, 0.1378484070301056, 0.1574307680130005, -0.028172463178634644, -0.10632568597793579, 0.05139034986495972, -0.15084141492843628, 0.026186317205429077, -0.011934936046600342, 0.17692771553993225, -0.2146044373512268, -0.10627856850624084, 0.12744006514549255, 0.16140010952949524, 0.020222991704940796, 0.10057982802391052, 0.16746282577514648, -0.047709375619888306, -0.16369357705116272, -0.10115271806716919, -0.09056445956230164, 0.23364311456680298, -0.0021914243698120117, 0.12029007077217102, 0.19576850533485413, -0.12359145283699036, 0.005425870418548584, -0.14691689610481262, -0.11400249600410461, 0.0396675169467926, -0.020174235105514526, 0.22427737712860107, 0.057680994272232056, -0.18475356698036194, -0.13266217708587646, -0.11702468991279602, 0.18536895513534546, 0.02198156714439392, 0.1925066113471985, -0.10557317733764648, -0.15466061234474182, -0.1447669267654419, 0.03170230984687805, 0.037573039531707764, -0.018040448427200317, -0.15055108070373535, -0.08409959077835083, -0.22135522961616516, 0.07608094811439514, -0.1739104688167572, 0.18838605284690857, 0.14462456107139587, 0.07992219924926758, -0.0029074549674987793, -0.003227144479751587, 0.23212462663650513, -0.14799454808235168, -0.18214020133018494, 0.18503010272979736, 0.1538991928100586, -0.020383328199386597, -0.13081440329551697, -0.1634577214717865, -0.1365806758403778, 0.152002215385437, 0.1209256649017334, -0.19749924540519714, 0.22991099953651428, -0.013237148523330688, -0.07290700078010559, -0.04367890954017639, 0.13195595145225525, -0.15662291646003723, 0.23835480213165283, -0.09381258487701416, 0.2463085651397705, 0.1888217031955719, -0.042176902294158936, 0.008251547813415527, -0.2134091854095459, 0.07352620363235474, 0.15828558802604675, 0.15925556421279907, 0.203098863363266, 0.24796181917190552, -0.07857799530029297, -0.1141715943813324, -0.08437740802764893, -0.13804763555526733, -0.15117362141609192, 0.24527117609977722, 0.10520514845848083, -0.20427897572517395, 0.17182010412216187, -0.0881396234035492, 0.043000876903533936, 0.1397942304611206, -0.19978183507919312, 0.02822643518447876, 0.11034807562828064, 0.15877249836921692, -0.23930886387825012, -0.18079915642738342, -0.05518901348114014, 0.028580069541931152, -0.11078548431396484, -0.17313003540039062, -0.06726434826850891, 0.04056990146636963, 0.06383326649665833, -0.0886712372303009, 0.2065487504005432, 0.020687997341156006, -0.05036702752113342, 0.13701581954956055, -0.07976698875427246, -0.043658673763275146, 0.18477123975753784, -0.0556674599647522, 0.048386454582214355, -0.2307952642440796, -0.03176933526992798, -0.12920448184013367, 0.1510392427444458, -0.10702341794967651, 0.05943801999092102, -0.10534709692001343, 0.031173646450042725, -0.07365837693214417, 0.20039764046669006, -0.15865886211395264, -0.22683760523796082, -0.1375349760055542, -0.19228100776672363, 0.12049338221549988, -0.16980409622192383, 0.08388090133666992, 0.21497654914855957, 0.06005042791366577, 0.11778479814529419, -0.14548972249031067, 0.093709796667099, -0.24614590406417847, -0.0942453145980835, 0.18794885277748108, 0.05930393934249878, -0.22403353452682495, -0.10647234320640564, 0.07382485270500183, 0.11480963230133057, 0.05498051643371582, -0.12647747993469238, 0.06784486770629883, 0.06968200206756592, 0.14083543419837952, -0.1000717282295227, -0.24814581871032715, -0.052870988845825195, 0.11941665410995483, 0.0721149742603302, -0.08607730269432068, -0.23182520270347595, 0.020696967840194702, 0.14833560585975647, 0.07327836751937866, -0.07599344849586487, -0.1776672601699829, 0.23795440793037415, 0.09182685613632202, -0.13928726315498352, -0.05724683403968811, -0.13662877678871155, 0.025533050298690796, 0.119208425283432, -0.12644201517105103, -0.028376996517181396, 0.08348831534385681, 0.12095534801483154, -0.10249659419059753, 0.23066717386245728, 0.06031724810600281, 0.022487670183181763, -0.12576264142990112, -0.24841010570526123, 0.08834734559059143, -0.04292935132980347, 0.11577761173248291, -0.16997498273849487, -0.0044866204261779785, 0.21916404366493225, 0.23711806535720825, 0.17937111854553223, 0.15564140677452087, 0.02589547634124756, 0.08551952242851257, -0.009487926959991455, -0.01919296383857727, 0.058354705572128296, -0.23811140656471252, -0.2405768632888794, 0.15177863836288452, -0.1843879222869873, 0.11681300401687622, 0.1479381024837494, -0.033463507890701294, -0.1998034417629242, 0.1304900050163269, 0.22431358695030212, 0.1695665419101715, -0.13438230752944946, -0.18642321228981018, -0.20300182700157166, -0.21622592210769653, -0.22069692611694336, 0.19615545868873596, 0.2284485399723053, -0.06459340453147888, -0.12431681156158447, 0.0646573007106781, 0.20952224731445312, 0.14191460609436035, -0.2347571849822998, -0.11039936542510986, 0.23311573266983032, 0.19533708691596985, -0.2426709234714508, -0.025243133306503296, 0.19412103295326233, -0.13483604788780212, 0.060530275106430054, 0.1712740957736969, -0.03908216953277588, 0.08564186096191406, -0.0705154538154602, -0.12365403771400452, 0.05037766695022583, 0.06341466307640076, 0.015831828117370605, -0.1980237066745758, -0.08166360855102539, -0.0625881552696228, -0.195987731218338, -0.13855180144309998, -0.1577233374118805, 0.15343725681304932, -0.16181957721710205, -0.08464592695236206, 0.11467370390892029, -0.21483775973320007, -0.0026265978813171387, -0.06504124402999878, -0.14943215250968933, -0.06892278790473938, -0.2449372410774231, 0.20371493697166443, 0.19254371523857117, 0.2403310239315033, -0.2190592885017395, -0.12557551264762878, -0.1464511752128601, -0.03206855058670044, 0.08622047305107117, 0.097231924533844, -0.04520821571350098, -0.10799703001976013, 0.19155210256576538, 0.058012574911117554, -0.030903756618499756, 0.10443764925003052, -0.23145994544029236, -0.14385107159614563, -0.11693784594535828, 0.24504852294921875, -0.036037057638168335, -0.07051652669906616, 0.14455130696296692, 0.2335416078567505, -0.04590505361557007, -0.041362464427948, -0.07708758115768433, 0.09867081046104431, 0.06148692965507507, -0.18727636337280273, -0.07099062204360962, 0.06637123227119446, -0.14371350407600403, 0.24656766653060913, -0.08388984203338623, 0.07335466146469116, -0.015957146883010864, 0.1644757091999054, -0.2377447783946991, -0.10086798667907715, -0.013066977262496948, -0.07833623886108398, 0.10851004719734192, 0.015924513339996338, 0.19636878371238708, 0.14070644974708557, 0.04371383786201477, 0.10655787587165833, 0.007662713527679443, 0.21375060081481934, 0.09019091725349426, -0.028180301189422607, -0.2156449556350708, 0.004691332578659058, 0.09594053030014038, 0.22545939683914185, -0.1995190680027008, 0.20765376091003418, -0.0899377167224884, -0.03669658303260803, -0.040806859731674194, 0.03178185224533081, 0.051718831062316895, 0.02367168664932251, -0.22517696022987366, 0.1973017454147339, 0.1801043152809143, -0.21052807569503784, -0.050329357385635376, 0.0789094865322113, 0.2037581205368042, -0.04782295227050781, -0.06301954388618469, 0.1754857897758484, 0.2166236937046051, -0.23778167366981506, 0.07113584876060486, -0.1178271472454071, 0.08780840039253235, -0.06976383924484253, -0.05276775360107422, 0.23181602358818054, 0.22885844111442566, -0.23741009831428528, 0.22522804141044617, 0.14301475882530212, -0.23141387104988098, -0.1339574158191681, 0.1862819790840149, -0.05789676308631897, -0.1798005998134613, -0.06887060403823853, 0.20975196361541748, -0.18059483170509338, 0.08928802609443665, -0.07559731602668762, 0.04221048951148987, -0.2395487129688263, -0.12419342994689941, -0.17911294102668762, -0.06468349695205688, 0.10661041736602783, -0.03634414076805115, 0.02831175923347473, 0.07312026619911194, -0.13563886284828186, 0.1406196653842926, 0.2229125201702118, 0.019497692584991455, -0.14055117964744568, 0.08515742421150208, -0.15863576531410217, -0.063719242811203, 0.24087929725646973, -0.06490448117256165, 0.06876891851425171, -0.012817591428756714, 0.06893020868301392, -0.20492228865623474, -0.08856865763664246, -0.24062874913215637, -0.012530118227005005, 0.06826964020729065, -0.025775015354156494, 0.09546047449111938, -0.06363853812217712, -0.11701527237892151, -0.004806339740753174, 0.2002599537372589, -0.049772053956985474, 0.047160059213638306, 0.18290582299232483, -0.19822341203689575, 0.038553476333618164, -0.22614440321922302, -0.1449967920780182, -0.2210332751274109, -0.24048107862472534, -0.04334518313407898, -0.24427556991577148, -0.1686306893825531, 0.18162810802459717, 0.15385878086090088, -0.05652874708175659, 0.22844526171684265, 0.1394641101360321, -0.23491692543029785, 0.18985694646835327, -0.1350427269935608, -0.041679561138153076, -0.0963437557220459, -0.09664461016654968, 0.001352548599243164, 0.24674609303474426, 0.2341919243335724, 0.06018158793449402, 0.22503811120986938, 0.013339430093765259, -0.09763750433921814, -0.09411045908927917, 0.02219623327255249, -0.112923264503479, 0.1374146044254303, 0.08239084482192993, 0.020948022603988647, -0.1190117597579956, -0.058359891176223755, 0.14566150307655334, 0.031505972146987915, -0.11281973123550415, 0.21606343984603882, 0.03593236207962036, 0.24268826842308044, -0.13574674725532532, 0.07207965850830078, 0.16484329104423523, 0.09023624658584595, -0.04630172252655029, -0.10565486550331116, 0.1296311318874359, 0.07531905174255371, 0.18691644072532654, -0.17652788758277893, -0.014211058616638184, 0.19324392080307007, -0.15668535232543945, 0.11871647834777832, 0.23266223073005676, -0.020797789096832275, 0.20690301060676575, 0.18555322289466858, 0.15475887060165405, -0.23347026109695435, -0.13274013996124268, 0.0882556140422821, 0.15099525451660156, -0.07551833987236023, -0.15864700078964233, -0.025558412075042725, 0.11237034201622009, -0.1974467933177948, 0.07027673721313477, -0.1990373134613037, -0.10276424884796143, 0.23339906334877014, 0.22880113124847412, 0.1551399827003479, -0.2290974259376526, 0.2023443579673767, -0.23443171381950378, 0.1953434944152832, 0.16890114545822144, 0.10075032711029053, 0.09388542175292969, 0.061146169900894165, 0.027804523706436157, 0.220800518989563, 0.1659235954284668, 0.07891663908958435, -0.03246316313743591, 0.14374008774757385, -0.14872226119041443, 0.18959084153175354, 0.1803721785545349, -0.0962756872177124, 0.1674846112728119, 0.007804244756698608, -0.027035683393478394, 0.1407572627067566, 0.12408754229545593, -0.023707717657089233, 0.18966376781463623, -0.07370257377624512, -0.1982893943786621, 0.2151564061641693, -0.0634647011756897, 0.10910153388977051, 0.16635280847549438, -0.04327836632728577, -0.21733123064041138, 0.21639153361320496, -0.08062174916267395, 0.16054224967956543, -0.12530913949012756, -0.06512370705604553, 0.1354312002658844, -0.2138635218143463, -0.16781798005104065, -0.21937796473503113, -0.18288570642471313, -0.24872112274169922, 0.08928215503692627, 0.07495027780532837, -0.11980247497558594, -0.17578715085983276, -0.13522624969482422, -0.23938125371932983, 0.023969322443008423, 0.24183490872383118, -0.19500666856765747, 0.21193206310272217, -0.171260803937912, -0.20248669385910034, 0.2285251021385193, 0.0493694543838501, -0.20094531774520874, 0.23246616125106812, 0.12321215867996216, -0.005158573389053345, -0.16842365264892578, -0.0694238543510437, -0.00048553943634033203, 0.1421819031238556, -0.20419371128082275, 0.12327226996421814, -0.005465865135192871, -0.1419612467288971, 0.13030803203582764, -0.19080737233161926, 0.20454683899879456, -0.14443987607955933, -0.1915242075920105, -0.02340880036354065, 0.0657247006893158, 0.02894178032875061, -0.13337883353233337, -0.10666561126708984, -0.0035799145698547363, -0.16897204518318176, -0.06795480847358704, 0.19881397485733032, 0.23521825671195984, -0.040851056575775146, -0.2403927743434906, -0.1893463134765625, 0.15183952450752258, 0.007272660732269287, 0.1200554370880127, -0.0035524964332580566, -0.22806888818740845, -0.017593979835510254, 0.03508728742599487, 0.16720613837242126, -0.19580182433128357, 0.16240322589874268, 0.03227350115776062, 0.030606955289840698, 0.18580496311187744, 0.15006700158119202, 0.033632755279541016, 0.013733506202697754, -0.16012215614318848, 0.1786021590232849, 0.05185261368751526, -0.06793197989463806, 0.23977652192115784, -0.19040241837501526, -0.013930141925811768, 0.11161285638809204, 0.08573263883590698, 0.10472571849822998, -0.23126539587974548, -0.20942416787147522, 0.03730553388595581, -0.19115668535232544, 0.013964325189590454, 0.09150347113609314, -0.0528942346572876, -0.16063424944877625, -0.045496225357055664, -0.16724207997322083, -0.08575385808944702, 0.22692152857780457, 0.06635916233062744, -0.24052292108535767, -0.13576674461364746, -0.023728132247924805, -0.1402818262577057, -0.03934967517852783, -0.1690889298915863, -0.023673683404922485, -0.21541056036949158, 0.18646568059921265, -0.026581764221191406, -0.2433333694934845, -0.2497807741165161, -0.06566497683525085, -0.03998762369155884, 0.10091379284858704, -0.031164109706878662, 0.10788100957870483, 0.06967988610267639, -0.09669703245162964, 0.12273275852203369, 0.23648223280906677, 0.1731317937374115, 0.040716707706451416, -0.20271608233451843, -0.1489259898662567, 0.21067208051681519, -0.22682368755340576, -0.20529159903526306, -0.14222481846809387, -0.06998610496520996, 0.11873486638069153, 0.11675196886062622, -0.2262761890888214, 0.01898491382598877, 0.21475490927696228, -0.19243761897087097, 0.2470562756061554, 0.010245978832244873, 0.10371130704879761, 0.201356440782547, -0.1040239930152893, 0.19928044080734253, 0.2092464566230774, 0.19603615999221802, -0.15156599879264832, 0.14315393567085266, 0.1451520025730133, -0.21962425112724304, -0.2187611162662506, -0.2149409055709839, -0.05957171320915222, -0.04664415121078491, 0.022227317094802856, 0.036702483892440796, -0.2453482449054718, 0.1015407145023346, 0.21621862053871155, -0.022742658853530884, -0.16062599420547485, 0.13171613216400146, -0.0373673141002655, 0.12514805793762207, -0.1913169026374817, 0.10596215724945068, 0.12752500176429749, -0.1859467625617981, 0.10994789004325867, -0.09838005900382996, 0.047718703746795654, 0.15054813027381897, 0.012850373983383179, 0.10956621170043945, -0.02822783589363098, -0.12486028671264648, -0.12235891819000244, -0.021603882312774658, 0.1702437400817871, -0.012049198150634766, -0.20582768321037292, 0.09559157490730286, -0.06537237763404846, 0.21370026469230652, 0.09032529592514038, 0.1443156898021698, -0.06286108493804932, -0.2144513726234436, -0.2379205822944641, 0.121673583984375, 0.10497453808784485, 0.14962810277938843, -0.04340475797653198, 0.15747979283332825, 0.04934626817703247, -0.24535894393920898, -0.12218767404556274, -0.11753392219543457, -0.023663640022277832, 0.038910239934921265, 0.04132363200187683, -0.16509106755256653, 0.173446387052536, 0.20834699273109436, 0.010833382606506348, 0.13735917210578918, 0.05981072783470154, -0.19782909750938416, -0.13144761323928833, 0.22304818034172058, 0.15153047442436218, -0.17184489965438843, 0.04655170440673828, 0.21556437015533447, -0.2452019453048706, 0.16774699091911316, -0.15754783153533936, -0.1674613654613495, -0.006516963243484497, -0.24972939491271973, 0.0324421226978302, -0.13619056344032288, 0.03996431827545166, -0.08406481146812439, 0.19138872623443604, -0.14891982078552246, 0.23694807291030884, 0.18519243597984314, -0.09546324610710144, 0.23045793175697327, 0.018744319677352905, 0.17016726732254028, -0.173016756772995, 0.04781833291053772, -0.1738399863243103, 0.025999337434768677, -0.09519705176353455, 0.16351866722106934, 0.11246243119239807, 0.0093059241771698, -0.09970253705978394, 0.19573703408241272, -0.09100452065467834, -0.08559417724609375, 0.23506271839141846, -0.17145055532455444, 0.07122012972831726, -0.0031705498695373535, -0.20339256525039673, 0.054968178272247314, 0.19549095630645752, -0.1384366750717163, 0.005284011363983154, 0.014422237873077393, -0.0011185109615325928, -0.08845430612564087, -0.01965215802192688, -0.16746941208839417, -0.04931443929672241, 0.11978328227996826, -0.20104742050170898, 0.005983024835586548, -0.16420680284500122, 0.20026114583015442, -0.23990517854690552, -0.008640527725219727, -0.012450635433197021, -0.10704880952835083, 0.19966396689414978, 0.20934858918190002, -0.16008242964744568, -0.20347198843955994, -0.08095371723175049, -0.1592535376548767, 0.060907214879989624, 0.05292341113090515, 0.009109288454055786, -0.18090811371803284, 0.016347736120224, -0.056100934743881226, 0.1233009397983551, -0.038971394300460815, -0.08374965190887451, -0.24050548672676086, -0.10140171647071838, -0.179490327835083, -0.23394793272018433, 0.07162269949913025, 0.16128134727478027, -0.2250347137451172, -0.0638282299041748, 0.07744747400283813, -0.1643224060535431, 0.05267325043678284, -0.017531871795654297, -0.12410640716552734, 0.20876353979110718, 0.0542391836643219, -0.04899179935455322, 0.10203656554222107, 0.04549095034599304, 0.21284079551696777, 0.23416689038276672, -0.013525962829589844, 0.05396127700805664, 0.08040261268615723, -0.21095257997512817, -0.016105979681015015, -0.23141947388648987, -0.010073840618133545, -0.04109537601470947, -0.21252477169036865, -0.03158608078956604, -0.15878057479858398, -0.08442723751068115, 0.009175360202789307, -0.13750874996185303, 0.13722717761993408, -0.13781625032424927, 0.11482083797454834, 0.20863837003707886, -0.2199859619140625, -0.07190573215484619, -0.02434295415878296, -0.05028840899467468, -0.1551966369152069, -0.22024580836296082, -0.08967927098274231, 0.1909078061580658, -0.022652864456176758, -0.1855534017086029, 0.1897311508655548, 0.23927366733551025, -0.04634252190589905, 0.12763097882270813, 0.21412768959999084, 0.08086368441581726, -0.11325174570083618, -0.13031139969825745, -0.14869511127471924, 0.17032590508460999, -0.020771414041519165, -0.0028527379035949707, 0.1419159471988678, 0.0027830898761749268, 0.18281510472297668, -0.2491779923439026, -0.1290845274925232, 0.2153521478176117, -0.17248788475990295, 0.058223873376846313, -0.14742881059646606, 0.11908045411109924, -0.1944669485092163, -0.1865713894367218, 0.027155309915542603, -0.18172690272331238, 0.19301950931549072, -0.09872555732727051, -0.01692482829093933, -0.23346498608589172, 0.01758509874343872, 0.13553693890571594, 0.056893497705459595, -0.07157847285270691, -0.04933318495750427, -0.03940838575363159, -0.021798402070999146, 0.1072472631931305, -0.14135634899139404, -0.2102881669998169, 0.0921703577041626, 0.06851065158843994, 0.13851085305213928, -0.07138308882713318, 0.13157624006271362, -0.19133898615837097, 0.13163378834724426, 0.01365700364112854, -0.048515528440475464, 0.026991456747055054, 0.16563162207603455, -0.24312952160835266, -0.07079949975013733, -0.17043966054916382, 0.1451934576034546, 0.046125173568725586, 0.03337165713310242, 0.24590599536895752, 0.18537527322769165, -0.08683907985687256, 0.23721513152122498, 0.13408830761909485, 0.0805618166923523, 0.1177331805229187, -0.05409306287765503, 0.16408085823059082, -0.2362496554851532, -0.14584073424339294, -0.10423991084098816, 0.07282981276512146, 0.029456347227096558, -0.17880526185035706, 0.2377881407737732, 0.1244368851184845, 0.12425297498703003, -0.0863393247127533, 0.1378503441810608, -0.24483633041381836, 0.1542932093143463, 0.15616947412490845, 0.11925071477890015, -0.06074628233909607, -0.052781134843826294, -0.16905814409255981, -0.19964084029197693, -0.17685988545417786, 0.2083548605442047, 0.012619972229003906, 0.025494247674942017, -0.19510072469711304, -0.005789607763290405, 0.14723819494247437, -0.09860122203826904, 0.11429369449615479, -0.08764705061912537, -0.1269579827785492, 0.15508216619491577, -0.17835402488708496, -0.16829317808151245, -0.020702749490737915, -0.12981632351875305, -0.20429721474647522, -0.03351426124572754, -0.0828840434551239, 0.2209855318069458, 0.18529605865478516, 0.1194414496421814, 0.2305217683315277, -0.06311339139938354, -0.09716936945915222, -0.06954905390739441, -0.19598060846328735, -0.03489643335342407, 0.09506338834762573, -0.05423194169998169, -0.18165093660354614, -0.17577776312828064, 0.07460549473762512, -0.002082318067550659, -0.1620226502418518, -0.08643454313278198, -0.0918755829334259, 0.17841985821723938, 0.06516432762145996, 0.09705376625061035, 0.11367028951644897, -0.13325273990631104, 0.16293436288833618, 0.13117623329162598, -0.06315460801124573, 0.23115384578704834, 0.2431197464466095, 0.1530773639678955, -0.07708585262298584, 0.09639197587966919, 0.022040247917175293, 0.12513470649719238, 0.054376959800720215, -0.12971967458724976, 0.0954551100730896, -0.17483952641487122, -0.20836013555526733, 0.0015553534030914307, -0.03736376762390137, -0.16177093982696533, -0.05691906809806824, -0.08121833205223083, 0.1007932722568512, 0.05870234966278076, -0.1383625566959381, -0.14881789684295654, 0.0309944748878479, -0.12170761823654175, -0.2326257824897766, -0.23970216512680054, 0.07378414273262024, -0.17896556854248047, -0.24133530259132385, -0.042107343673706055, -0.13083410263061523, -4.085061073303223, -4.173659801483154, -3.923741340637207, -3.7258951663970947, -3.9005603790283203, -3.7930917739868164, -4.107923984527588, -3.9025139808654785, -4.084070205688477, -4.254762649536133, -3.8716073036193848, -4.392126560211182, -4.028034210205078, -4.0006585121154785, -3.568676471710205, -4.230352878570557, 3.8387017250061035, 3.893681526184082, 4.375425338745117, 4.27485990524292, 3.5749731063842773, 3.5819525718688965, 3.9915242195129395, 3.823798656463623, 3.8740129470825195, 4.215465545654297, 3.862586498260498, 3.9395813941955566, 4.469432830810547, 4.013456344604492, 4.118744850158691, 3.9914298057556152, -0.2105734646320343, 0.08799690008163452, -0.3560294806957245, 0.0016664564609527588, 0.3687189817428589, 0.13988015055656433, -0.1083303689956665, 0.10559764504432678, 0.10166123509407043, -0.24017789959907532, -0.1804477870464325, 0.08854681253433228, 0.0009856224060058594, 0.13779494166374207, 0.0068625807762146, -0.16929113864898682, 0.0343339741230011, -0.01037520170211792, -0.39475899934768677, -0.09528711438179016, -0.33732905983924866, -0.15827646851539612, -0.1771899163722992, -0.2036183774471283, 0.023917287588119507, 0.3458780348300934, 0.03026038408279419, 0.3565298914909363, 0.1344785988330841, -0.20233598351478577, 0.43165484070777893, -0.36148566007614136, -0.0860631912946701, 0.035014066845178604, -0.12287452071905136, -0.00904307421296835, 0.08298321813344955, 0.03570124879479408, -0.013776292093098164, 0.05356152355670929, 0.07056255638599396, -0.15960559248924255, -0.05704046040773392, 0.08603939414024353, -0.08196070045232773, 0.07053219527006149, 0.0983654335141182, -0.09290578216314316, -0.16506800055503845, 0.06926234066486359, -0.30416616797447205, -0.020193861797451973, 0.20461955666542053, 0.07637283205986023, -0.03008412942290306, 0.12074550986289978, 0.13781677186489105, -0.27149489521980286, -0.1119430735707283, 0.15057146549224854, -0.16656136512756348, 0.15459153056144714, 0.16667896509170532, -0.20522060990333557, -0.1798311471939087, -0.010990500450134277, 0.1340242326259613, -0.14609003067016602, 0.154982328414917, 0.07457301020622253, -0.08259746432304382, -0.13863497972488403, 0.1443917453289032, -0.014869213104248047, -0.06184247136116028, 0.18477442860603333, -0.20753997564315796, -0.09847325086593628, -0.1441347301006317, 0.1862475872039795, 0.12363258004188538], "sample_rate": 48000.0}