{"version": "0.7.0", "architecture": "WaveNet", "config": {"layers": [{"input_size": 3, "condition_size": 3, "head": {"out_channels": 1, "kernel_size": 1, "bias": true}, "channels": 16, "kernel_sizes": [3, 3, 3, 3, 3, 3, 3, 3, 3], "dilations": [1, 2, 4, 8, 16, 32, 64, 128, 256], "activation": [{"type": "Tanh"}, {"type": "Tanh"}, {"type": "Tanh"}, {"type": "Tanh"}, {"type": "Tanh"}, {"type": "Tanh"}, {"type": "Tanh"}, {"type": "Tanh"}, {"type": "Tanh"}], "bottleneck": 16, "head1x1": {"active": false, "out_channels": 1, "groups": 1}, "layer1x1": {"active": true, "groups": 1}, "groups_input": 1, "groups_input_mixin": 1, "conv_pre_film": {"active": false, "shift": true, "groups": 1}, "conv_post_film": {"active": true, "shift": true, "groups": 1}, "input_mixin_pre_film": {"active": false, "shift": true, "groups": 1}, "input_mixin_post_film": {"active": false, "shift": true, "groups": 1}, "activation_pre_film": {"active": false, "shift": true, "groups": 1}, "activation_post_film": {"active": true, "shift": true, "groups": 1}, "layer1x1_post_film": {"active": false, "shift": true, "groups": 1}, "head1x1_post_film": {"active": false, "shift": true, "groups": 1}, "gating_mode": ["none", "none", "none", "none", "none", "none", "none", "none", "none"], "secondary_activation": [null, null, null, null, null, null, null, null, null], "slimmable": null}], "head": null, "head_scale": 1.0, "in_channels": 3}, "weights": [-0.07569991052150726, 0.5748558044433594, -0.35151103138923645, -0.7080625891685486, -0.2379480004310608, 0.1389763504266739, -0.18004505336284637, 0.558476984500885, -0.12060292065143585, 0.41076985001564026, -0.1018071249127388, -0.010379623621702194, -0.6987002491950989, -0.41867178678512573, -0.10914947837591171, 0.2427457571029663, 0.1527538001537323, 0.187971293926239, -0.7464837431907654, -0.39105093479156494, 0.17244082689285278, 0.7229353189468384, -0.19065387547016144, 0.4742792844772339, -0.048633210361003876, -0.12320069968700409, 0.3322191834449768, -0.917737603187561, -0.3410997986793518, -0.04306010529398918, -0.3085234761238098, 0.6669979691505432, -0.3887324631214142, -0.5036367774009705, -0.3723416030406952, -0.5176681280136108, -0.6988534331321716, 0.44155335426330566, 0.12124807387590408, 0.615952730178833, 0.053422123193740845, -0.19748735427856445, 0.006524510215967894, -0.3837486207485199, -0.3111668527126312, -0.5547237992286682, 0.28366371989250183, 0.21309404075145721, 0.5084343552589417, 0.46476393938064575, 0.4951580762863159, 0.21819891035556793, -0.2254074215888977, -0.3955015540122986, 0.5338515043258667, 0.2633945345878601, 0.306483656167984, -0.3705027103424072, -0.14546729624271393, -0.009000829420983791, 0.03191395103931427, -0.18459449708461761, -0.588484525680542, 0.07905994355678558, 0.1877005398273468, 0.16955406963825226, 0.03068697825074196, -0.30790799856185913, -0.3768184781074524, -0.14374332129955292, -0.2319183051586151, 0.022720253095030785, 0.04816333204507828, 0.06722795218229294, 0.05454546958208084, 0.12670063972473145, -0.21714474260807037, -0.6573581099510193, 0.7693606615066528, 0.4924173653125763, 0.30254727602005005, 0.1008538231253624, -0.01183257531374693, -0.34739410877227783, 0.30537858605384827, 0.10004886239767075, 0.02004612237215042, -0.14791929721832275, 0.14159181714057922, 0.06372817605733871, -0.07871706038713455, -0.06562401354312897, -0.04118267819285393, 0.25089213252067566, -0.04681892693042755, -0.05740116164088249, 0.09228916466236115, 0.04958834499120712, -0.18642525374889374, 0.3375084102153778, 0.6264904737472534, -0.0486442968249321, -0.022902583703398705, 0.016265589743852615, -0.20251277089118958, -0.304280549287796, -0.4962669014930725, 0.0019302169093862176, 0.25890493392944336, 0.32978400588035583, -0.13221241533756256, -0.09349082410335541, -0.28286316990852356, 0.2041735053062439, 0.5095577239990234, 0.3468843996524811, -0.18283885717391968, -0.40771105885505676, -0.4678875803947449, 0.21649408340454102, 0.10144338011741638, 0.07822424173355103, -0.08237972110509872, 0.4666506350040436, 0.297806978225708, -0.18668799102306366, 0.0362645648419857, 0.011585996486246586, -0.16749954223632812, 0.002321525476872921, 0.11413242667913437, -0.008140245452523232, 0.07688675820827484, 0.21290498971939087, 0.03911655396223068, -0.3404806852340698, -0.3884906470775604, 0.07315856963396072, 0.039884354919195175, 0.098042793571949, 0.142307847738266, 0.22339047491550446, 0.3087710440158844, -0.07169614732265472, 0.3298215866088867, 0.4280984401702881, 0.6072105169296265, -0.4563266336917877, -0.21805591881275177, 0.022982493042945862, -0.16175982356071472, -0.09176226705312729, 0.03084302693605423, 0.45544153451919556, 0.18220707774162292, -0.1919289231300354, 0.29203900694847107, 0.3228611946105957, 0.6180310845375061, -0.5903549194335938, -0.7854441404342651, -1.0285824537277222, -0.5546582341194153, -0.25869059562683105, 0.0847531408071518, -0.6774386167526245, -1.1651369333267212, -1.0856499671936035, -1.669832468032837, -1.4512616395950317, -1.264234185218811, 0.0014365252573043108, 0.4628101885318756, 0.6423678398132324, 0.1393289566040039, 0.43922775983810425, 0.37589675188064575, 0.6334735155105591, 0.9957581162452698, 0.9295049905776978, -0.3873699903488159, -0.2627984583377838, -0.027435388416051865, 1.0540660619735718, 0.7265235185623169, 0.4819575548171997, 0.5194131135940552, 0.522316575050354, 0.4323258697986603, -0.4389576315879822, -0.24262194335460663, -0.14587312936782837, -0.11485709995031357, -0.01853444240987301, -0.06231022998690605, -0.1720108538866043, -0.3076128363609314, 0.08098427206277847, -0.09870294481515884, -0.08556260913610458, -0.026561496779322624, 0.13116513192653656, 0.07334607094526291, -0.05552336946129799, -0.05535341799259186, -0.025771787390112877, -0.03926033526659012, 0.06273236125707626, 0.10754223167896271, -0.008932431228458881, -0.10404255241155624, -0.2646172344684601, 0.029991181567311287, 0.002543374663218856, 0.2128540575504303, 0.022160165011882782, -0.1454729586839676, -0.13825255632400513, 0.07088067382574081, -0.10866235941648483, -0.18849341571331024, 0.15354906022548676, -0.028945831581950188, -0.20174507796764374, -0.19625456631183624, 0.10752848535776138, -0.13756300508975983, -0.007474991027265787, -0.0818898156285286, -0.16360872983932495, -0.0467630960047245, 0.13091111183166504, 0.18476079404354095, 0.14989441633224487, 0.12319615483283997, -0.04659417271614075, 0.11186244338750839, -0.11192094534635544, -0.1784319132566452, -0.00030881367274560034, -0.17425541579723358, -0.30720141530036926, -0.224176824092865, 0.26080477237701416, -1.012539029121399, 0.4311990737915039, 0.17635366320610046, -0.572037398815155, 0.18468321859836578, -0.24184443056583405, 0.94032883644104, -0.376462459564209, 0.24257171154022217, -0.8511090874671936, 0.23763947188854218, -0.09881296008825302, 0.5153699517250061, -0.09001032263040543, 0.2297753095626831, -1.1479359865188599, 0.5264298915863037, 0.17009130120277405, 0.9890754818916321, -0.025700602680444717, 0.26870253682136536, -0.09226714819669724, 0.2486550211906433, 0.23431938886642456, -0.7610691785812378, 0.4409177601337433, -0.20935635268688202, -0.6524649262428284, -0.13918788731098175, -0.05663584917783737, -0.7374534010887146, -0.07435014098882675, 0.38607242703437805, -0.9061590433120728, 0.3903481364250183, -0.23257727921009064, 1.091232180595398, -0.6363241672515869, -0.2995092570781708, -0.07527084648609161, -0.17805276811122894, 0.36238428950309753, -0.7484300136566162, 0.44868004322052, 0.12805037200450897, 0.13145995140075684, 0.05388084053993225, 0.0547390878200531, 0.09758612513542175, 0.08783554285764694, 0.09774822741746902, 0.0653391033411026, 0.2729943096637726, -0.15576322376728058, -0.06910912692546844, -0.2482115626335144, -0.17763610184192657, -0.0021472524385899305, -0.06735269725322723, 0.1339033991098404, 0.06701130419969559, -0.08879462629556656, 0.003372704843059182, 0.07920697331428528, 0.12443254888057709, -0.033527277410030365, -0.18357552587985992, -0.12477510422468185, 0.0350012443959713, -0.06578778475522995, 0.05162583291530609, -0.020627250894904137, -0.07884059846401215, 0.04133220389485359, 0.23255577683448792, 0.17609405517578125, 0.21007290482521057, -0.03466574475169182, -0.1389426290988922, 0.002146054059267044, 0.1668359339237213, 0.24682198464870453, 0.24354442954063416, 0.042556341737508774, -0.0010961515363305807, -0.2332528829574585, -0.1782822459936142, -0.18768176436424255, 0.0784248411655426, 0.13343973457813263, -0.005277628544718027, 0.18523134291172028, 0.5297037363052368, 0.6727687120437622, 0.44231128692626953, 0.17771098017692566, 0.309329628944397, -0.3473830223083496, 0.4667741656303406, 0.5420637130737305, 0.15037855505943298, 0.007040583062916994, -0.37279847264289856, 0.10683754086494446, -0.15577466785907745, 0.18310920894145966, -0.4594566822052002, 0.19838741421699524, -0.12074059993028641, 0.3632826507091522, 0.028795503079891205, 0.3397582471370697, -0.35872361063957214, -0.1541510373353958, -0.5288087725639343, 0.23475025594234467, -0.007809371221810579, 0.008571187034249306, -0.0687750056385994, 0.0938420295715332, 0.31186434626579285, -0.24140359461307526, 0.43504196405410767, 0.5749893188476562, 0.17786172032356262, -0.12527057528495789, -0.098441481590271, -0.24274203181266785, 0.09446500241756439, 0.3667641282081604, -0.06891805678606033, -0.15156877040863037, -0.27735477685928345, 0.2202441394329071, -0.10133565962314606, -0.10905774682760239, -0.09527016431093216, 0.11514386534690857, 0.4479711651802063, 0.200790137052536, 0.17549851536750793, 0.23166564106941223, 0.20033816993236542, -0.05248396471142769, -0.49894678592681885, -0.16273950040340424, 0.10796543210744858, -0.004622454289346933, -0.003334286157041788, -0.07396332174539566, 0.11505822092294693, 0.1841816008090973, 0.02059018239378929, -0.28917574882507324, -0.22227296233177185, 0.12880147993564606, 0.20514622330665588, 0.061078667640686035, -0.21808210015296936, -0.3033749759197235, -0.1722363978624344, -0.1125662550330162, 0.4231937527656555, 0.19071409106254578, -0.07971500605344772, 0.022127138450741768, -0.12010519206523895, -0.11972661316394806, -0.24177470803260803, -0.1738187074661255, 0.07566314190626144, -0.005505697801709175, 0.10425645858049393, -0.06408310681581497, -0.10337222367525101, 0.07222104072570801, 0.025954529643058777, -0.19848592579364777, -0.01738821528851986, 0.12752054631710052, 0.3501947820186615, 0.01415593083947897, -0.05952978506684303, -0.1385374516248703, -0.09167944639921188, 0.0663931667804718, -0.19195957481861115, 0.025891125202178955, -0.035151686519384384, -0.08260860294103622, -0.04461709409952164, -0.30698835849761963, -0.4560357928276062, -0.010226596146821976, 0.03705775737762451, -0.17797213792800903, -0.08312594145536423, 0.07579068839550018, 0.3014379143714905, -0.012288681231439114, -0.2579847276210785, -0.10632983595132828, -0.012787753716111183, 0.07103274762630463, 0.11412980407476425, -0.17891700565814972, -0.12996189296245575, -0.37868866324424744, 0.23879273235797882, 0.2295268476009369, 0.24018052220344543, -0.010148557834327221, -0.07269925624132156, -0.028874436393380165, -0.11113669723272324, -0.16920611262321472, -0.4167655110359192, 0.010008898563683033, -0.11313822865486145, -0.23951475322246552, 0.11625856161117554, -0.01528017595410347, -0.10218020528554916, -0.061318449676036835, -0.286737859249115, -0.2630469799041748, 0.12691666185855865, 0.34563061594963074, 0.5457208752632141, -0.1369398683309555, 0.04743695259094238, -0.131219744682312, -0.10901863127946854, -0.06911279261112213, -0.26699599623680115, 0.11431965976953506, -0.22162295877933502, -0.27716097235679626, -0.3163059651851654, 0.411957710981369, -0.08777910470962524, 0.08651138842105865, -0.06185183301568031, -0.22360406816005707, -0.3148382008075714, -0.20147614181041718, 0.10234059393405914, 0.14169883728027344, 0.3327256143093109, -0.19243991374969482, 0.08781766891479492, -0.10353757441043854, -0.04669913649559021, 0.014042469672858715, 0.46947070956230164, 0.07937362045049667, -0.13964442908763885, -0.047262389212846756, 0.2561127245426178, 0.20811018347740173, 0.18370796740055084, -0.08208803832530975, 0.06335223466157913, 0.37245702743530273, -0.1548721343278885, 0.008149600587785244, -0.11426753550767899, -0.1457287073135376, -0.2916387617588043, 0.06720710545778275, 0.0013401976320892572, 0.034438975155353546, 0.015547767281532288, -0.1047409251332283, -0.034140244126319885, -0.20007778704166412, 0.12474386394023895, 0.024351507425308228, 0.11041952669620514, -0.04831092432141304, -0.029022857546806335, -0.014094317331910133, 0.04823027551174164, -0.13621847331523895, 7.093227031873539e-05, -0.0242793969810009, 0.23484592139720917, -0.13745376467704773, -0.2390701025724411, -0.003578722942620516, -0.1695403754711151, -0.04730410501360893, -0.015939153730869293, 0.07563378661870956, 0.05729030445218086, -0.04820522665977478, -0.20006926357746124, -0.02912476472556591, 0.04518761858344078, -0.01846187748014927, 0.040068499743938446, 0.04533663019537926, -0.3852096498012543, -0.1438109278678894, 0.05148802697658539, 0.29503506422042847, -0.10744849592447281, -0.2574736475944519, 0.09856689721345901, -0.12402574717998505, 0.02146925963461399, -0.18538951873779297, -0.11782724410295486, 0.05486898496747017, 0.007506519556045532, -0.045363910496234894, -0.10885178297758102, -0.12628570199012756, -0.055934734642505646, 0.14217321574687958, -0.2401706427335739, 0.03063196875154972, 0.0260749664157629, 0.1603628545999527, 0.24431024491786957, -0.009349999018013477, 0.15368297696113586, 0.11926176398992538, -0.007427467033267021, -0.22005701065063477, -0.10594556480646133, 0.1749587506055832, -0.1338857263326645, -0.27509868144989014, -0.05138985067605972, 0.16964368522167206, -0.36142879724502563, -0.1727072298526764, -0.1450389176607132, -0.043527036905288696, -0.04486282169818878, -0.08166566491127014, 0.20244020223617554, 0.09368418902158737, 0.13849250972270966, -0.033876996487379074, -0.027766603976488113, -0.13721159100532532, -0.052156753838062286, 0.14139020442962646, 0.11290889233350754, -0.22786398231983185, -0.16112028062343597, 0.163859024643898, 0.40854671597480774, 0.21001498401165009, -0.12359293550252914, -0.0832308828830719, -0.1092594787478447, 0.16657549142837524, -0.2786737084388733, -0.07126981765031815, -0.04463082179427147, -0.34117749333381653, -0.23025330901145935, -0.00014991313219070435, -0.07303933799266815, -0.11935103684663773, 0.14253218472003937, -0.16306033730506897, 0.030126525089144707, 0.10272829234600067, 0.2370169758796692, 0.04564346373081207, 0.13095082342624664, 0.029792940244078636, -0.05569039657711983, 0.15710589289665222, -0.04561895877122879, -0.1596464365720749, 0.0015456000110134482, -0.06146731972694397, 0.14855855703353882, 0.07836910337209702, -0.03316820412874222, -0.035135094076395035, 0.10147780179977417, 0.049785878509283066, 0.04125337302684784, -0.05286140367388725, -0.01815679296851158, -0.019433949142694473, 0.004281942266970873, -0.0703124850988388, -0.10575772076845169, 0.03554635867476463, -0.11906228214502335, 0.02892995811998844, 0.13147978484630585, 0.09811130166053772, -0.10998296737670898, -0.01022456306964159, -0.22272060811519623, 0.10520679503679276, -0.13054965436458588, -0.056241970509290695, 0.03569440543651581, 0.014616982080042362, 0.20132793486118317, -0.1028100773692131, -0.08165057003498077, -0.024114027619361877, 0.035896334797143936, 0.17954489588737488, -0.021475883200764656, 0.06320878863334656, 0.0032652432564646006, 0.009715283289551735, 0.0954718142747879, -0.2232486456632614, -0.09450472146272659, 0.1731816679239273, -0.011785799637436867, 0.1196674183011055, -0.03692629188299179, 0.14256833493709564, -0.10976360738277435, -0.036024633795022964, -0.20621730387210846, -0.15363384783267975, -0.20010130107402802, 0.5001856088638306, 0.28510940074920654, -0.06070980429649353, -0.13511911034584045, -0.24810777604579926, -0.15755218267440796, -0.11480148136615753, -0.007577723357826471, 0.18194851279258728, 0.26596859097480774, 0.29581257700920105, 0.013400314375758171, -0.20913074910640717, -0.03328860178589821, 0.033319540321826935, 0.4535807967185974, 0.22620892524719238, 0.05716633424162865, 0.021312296390533447, -0.07436991482973099, -0.059998769313097, 0.07365992665290833, -0.1326955407857895, -0.01606314815580845, 0.23019397258758545, 0.13128985464572906, 0.05025757849216461, -0.3063811957836151, -0.12599921226501465, -0.3664496839046478, 0.1334656924009323, 0.15723103284835815, 0.17705030739307404, -0.12405163049697876, 0.030922766774892807, -0.20713737607002258, -0.1430681049823761, -0.18349234759807587, 0.004228691570460796, 0.2742263972759247, 0.0889386385679245, 0.13042393326759338, -0.028665369376540184, 0.03709571063518524, -0.03917532041668892, 0.1388387233018875, -0.12807224690914154, -0.0655168667435646, 0.2537819445133209, 0.05021410435438156, 0.057754479348659515, 0.182996466755867, -0.0792103037238121, 0.10846121609210968, -0.24076101183891296, -0.133327454328537, 0.05407841503620148, 0.08815750479698181, 0.08675207942724228, -0.052347466349601746, 0.06219947710633278, -0.06323354691267014, -0.12746943533420563, 0.3689110279083252, 0.035084318369627, -0.06822364032268524, -0.15653812885284424, 0.03636883944272995, -0.09956672042608261, 0.09197206050157547, 0.13530851900577545, 0.10465363413095474, 0.09022778272628784, 0.08024962246417999, 0.016191301867365837, 0.02559257484972477, 0.06470707803964615, 0.15910136699676514, 0.17911551892757416, 0.04845060408115387, 0.053837426006793976, 0.053739096969366074, 0.19483624398708344, -0.011214107275009155, -0.27086031436920166, -0.0814342126250267, 0.03490239009261131, -0.1320013552904129, 0.12585002183914185, 0.04634282365441322, -0.012510181404650211, 0.043684814125299454, 0.16775290668010712, 0.1274450421333313, 0.1533275693655014, 0.34880518913269043, -0.5035921335220337, -0.5943225622177124, 0.39856600761413574, 0.2180931121110916, -0.041199248284101486, 0.44744181632995605, 0.16408665478229523, 0.6424627900123596, -0.5389919877052307, -0.2822766900062561, -0.19697758555412292, 0.22556695342063904, 0.05471472442150116, 0.04178009182214737, -0.25223731994628906, -0.4496314525604248, -0.8453055620193481, 0.26691359281539917, 0.03526123985648155, 0.15910334885120392, -0.3289029002189636, -0.0743449330329895, -0.21491648256778717, -0.1863272488117218, -0.27698686718940735, -0.47975674271583557, 0.15604661405086517, 0.1888313889503479, 0.09602030366659164, 0.47435441613197327, -0.06600328534841537, 0.04050058498978615, 0.07628113031387329, -0.1468045562505722, -0.180692657828331, 0.3953404426574707, 0.2955199182033539, 0.6792408227920532, -0.2378518283367157, -0.028562426567077637, -0.010922056622803211, 0.07506046444177628, -0.26523953676223755, -0.2577693462371826, 0.2238399237394333, -0.4230939745903015, 0.034235965460538864, -0.3540731370449066, 0.06814262270927429, 0.550035834312439, -0.08097044378519058, -0.11537390202283859, -0.06048132851719856, 0.12471990287303925, -0.07324827462434769, 0.11337543278932571, -0.0045756869949400425, 0.028871998190879822, 0.006597868166863918, 0.09425182640552521, -0.13832059502601624, 0.3522045910358429, 0.007260220590978861, -0.7207415103912354, 0.2714853584766388, 0.07153750956058502, -0.33090633153915405, -0.3749983608722687, -0.30094972252845764, -0.0631740465760231, 0.40450727939605713, -0.028108133003115654, 0.20480701327323914, 0.11284448206424713, -0.6997330188751221, 0.32615700364112854, 0.5476688742637634, -0.07319910824298859, 0.1350361555814743, 0.0746941864490509, 0.4687546491622925, -0.3622373044490814, -0.33185651898384094, 0.20858930051326752, -0.5497924089431763, -0.09229038655757904, -0.2018456757068634, 0.3394111394882202, -0.5855002403259277, 0.618073046207428, 0.5632543563842773, 0.1899491846561432, -0.07154024392366409, 0.4394259452819824, -0.08212372660636902, -0.05577479675412178, -0.2006409466266632, -0.06587522476911545, 0.12483445554971695, 0.04938581585884094, -0.03598881885409355, -0.7380763292312622, 0.0760321393609047, -0.05015867203474045, 0.09158217161893845, 0.4442414343357086, 0.581522524356842, -0.4489692747592926, -0.08307018876075745, 0.0637136697769165, -0.2655726373195648, -0.16543062031269073, -0.09360820800065994, 0.1710040122270584, -0.050522029399871826, 0.16618219017982483, 0.09965936094522476, -0.2972971796989441, 0.1501057893037796, -0.11872515082359314, 0.22134551405906677, 0.1160176619887352, 0.19013698399066925, -0.14753574132919312, 0.17568311095237732, -0.1928434669971466, -0.02445414289832115, 0.08854853361845016, 0.4279884696006775, 0.1449003368616104, 0.1726856380701065, 0.21773087978363037, 0.05364762246608734, 0.019487693905830383, 0.06042243540287018, -0.13994066417217255, -0.18459026515483856, -0.06221923977136612, -0.45441511273384094, 0.3327668011188507, -0.06776246428489685, -0.015973243862390518, -0.036772388964891434, 0.17850010097026825, -0.09126894921064377, -0.8688550591468811, -0.15587428212165833, 0.42450839281082153, -0.08427651226520538, -0.05756886675953865, -0.11105060577392578, -0.0029475565534085035, 0.21538464725017548, 0.05929821357131004, -0.5987562537193298, 0.1082170158624649, -0.29996466636657715, 0.3631727993488312, 0.20222784578800201, 0.3291900157928467, -0.2256479412317276, -0.675584077835083, 0.22413375973701477, 0.19415785372257233, -0.15623624622821808, 0.4426012337207794, -0.22186455130577087, 0.09322187304496765, -0.2093673199415207, 0.030575202777981758, -0.2781951427459717, 0.002295055892318487, -0.24277865886688232, -0.017519511282444, 0.0023159696720540524, -0.43632403016090393, -0.15244673192501068, 0.1743050515651703, -0.14572401344776154, -0.22598186135292053, 0.17419753968715668, -0.14672240614891052, -0.22476516664028168, 0.42183345556259155, 0.10671783238649368, 0.18252778053283691, -0.1510355919599533, -0.26160454750061035, -0.2623887360095978, -0.6259678602218628, -0.02372446097433567, 0.2620246112346649, -0.04428187012672424, -0.34287241101264954, 0.2073952853679657, 0.5321707129478455, -0.24343006312847137, 0.23825395107269287, 0.2197260707616806, 0.11306614428758621, 0.18502144515514374, 0.12449710816144943, -0.0027703349478542805, -0.14477725327014923, 0.08690515905618668, 0.17763200402259827, 0.2495143711566925, -0.17682409286499023, -0.006833365187048912, -0.45655491948127747, -0.2089795619249344, 0.10744717717170715, -0.08510900288820267, -0.22741009294986725, -0.2588960528373718, -0.36638322472572327, 0.013456149026751518, -0.03931206464767456, 0.2965807616710663, 0.05237312987446785, 0.4708773195743561, 0.019688649103045464, -0.17513929307460785, 0.23277230560779572, 0.4280998408794403, 0.204734206199646, 0.03689679130911827, 0.15118198096752167, -0.11046436429023743, 0.5763516426086426, -0.1934574991464615, 0.14826148748397827, 0.03324678912758827, -0.18309354782104492, 0.014701907522976398, -0.25756382942199707, -0.204314723610878, 0.15202826261520386, -0.21052677929401398, -0.07651420682668686, 0.10891555994749069, -0.5835050344467163, 0.0069784666411578655, 0.14856800436973572, 0.1297728270292282, 0.31325045228004456, -0.14282967150211334, -0.11327924579381943, 0.2812455892562866, -0.10699564963579178, -0.23758508265018463, -0.24116702377796173, 0.9346235990524292, -0.008830107748508453, -0.13129834830760956, -0.03206060081720352, 0.0009579844190739095, 0.21036912500858307, 0.03914058208465576, 0.24567891657352448, 0.088372141122818, 0.25987833738327026, -0.23753713071346283, -0.19122181832790375, 0.11651307344436646, -0.10451927036046982, 0.013140103779733181, -0.13934984803199768, -0.17607085406780243, -0.4758978486061096, 0.17548516392707825, -0.11599894613027573, -0.37195295095443726, -0.17946985363960266, 0.10514236241579056, 0.1253913789987564, 0.022101864218711853, -0.3958241939544678, 0.4265941381454468, 0.01042944472283125, -0.2419598400592804, 0.17645232379436493, 0.2487672120332718, -0.20072022080421448, 0.18566495180130005, 0.32706958055496216, 0.1942349076271057, 0.2773207128047943, -0.11447254568338394, -0.07527772337198257, 0.1987832635641098, -0.07290870696306229, 0.29439181089401245, -0.4095444977283478, -0.3394061326980591, -0.17434632778167725, -0.3130011260509491, 0.24476297199726105, 0.4219764471054077, 0.1330244541168213, -0.0742662325501442, 0.36845535039901733, -0.10476527363061905, 0.24868158996105194, -0.287768691778183, -0.337529718875885, -0.005905855912715197, 0.06730477511882782, 0.01753733493387699, -0.28192299604415894, -0.33324557542800903, 0.04176676645874977, -0.32264772057533264, 0.21481159329414368, 0.5127598643302917, 0.08248446136713028, 0.470471054315567, 0.1286407858133316, -0.1733282059431076, 0.17951269447803497, -0.1420067548751831, -0.8166074752807617, 0.07746225595474243, 0.01169190090149641, 0.20566622912883759, 0.2589002549648285, -0.27995356917381287, -0.09604476392269135, 0.15495024621486664, 0.08764553815126419, 0.24490782618522644, 0.023616090416908264, 0.3780405819416046, -0.09137999266386032, 0.09865979850292206, -0.19218476116657257, -0.5987849235534668, 0.8591254353523254, -0.12508466839790344, -0.3078380227088928, -0.15278173983097076, -0.7046269178390503, 0.026319807395339012, -0.21487411856651306, -0.35670676827430725, 0.12413855642080307, -0.1512492597103119, -0.28470131754875183, -0.4364592432975769, 0.16977804899215698, -0.3188205063343048, -0.32544663548469543, 0.15624308586120605, -0.5584827065467834, 0.0185379758477211, -0.21956665813922882, -0.21117918193340302, 0.05208645761013031, -0.08752347528934479, -0.13605986535549164, 0.13826432824134827, 0.09610634297132492, 0.08913078159093857, -0.11034902185201645, -0.10881473124027252, -0.017636308446526527, 0.014915349893271923, 0.22375966608524323, -0.17093348503112793, -0.06638782471418381, 0.1731913834810257, -0.13486479222774506, -0.1264619529247284, 0.07932701706886292, -0.11471953243017197, 0.031299691647291183, -0.17189370095729828, 0.010933276265859604, -0.16980727016925812, 0.10396336019039154, -0.27554744482040405, -0.7891086935997009, 0.4531656503677368, 0.637203574180603, -0.34815096855163574, -0.1535143107175827, 0.940067708492279, 0.05590030923485756, 1.3194708824157715, -0.7495064735412598, -0.2113620489835739, -0.26850420236587524, 0.4366540312767029, -0.04586699977517128, -1.6242347955703735, 0.043542344123125076, 0.09949111193418503, -0.3544429540634155, -0.31683459877967834, 0.22282907366752625, 1.1918883323669434, -0.15025576949119568, -0.3485119342803955, -0.4452606737613678, -0.036029115319252014, 0.026076391339302063, 0.3354349732398987, -0.1918794810771942, -0.40498021245002747, 0.08594993501901627, -0.21095289289951324, 0.2874501347541809, -0.3689003884792328, -0.3163329064846039, 0.04224631190299988, -0.13874951004981995, 0.5900482535362244, 0.5070064663887024, -0.02953488752245903, -0.06667660176753998, -0.2403678596019745, 0.6661971807479858, 0.4539569020271301, 0.0307240579277277, -0.4838310778141022, 0.3747742772102356, -0.2045017033815384, 1.014119267463684, 0.035687271505594254, 0.5397471189498901, 0.7405965924263, 0.29928913712501526, -0.4876232445240021, -0.3842400908470154, -0.33822646737098694, -0.5479464530944824, 0.1025724709033966, -0.009783357381820679, -0.35573282837867737, -0.3174927234649658, -0.3322272300720215, 0.0968509316444397, -1.062416911125183, -0.4620497226715088, -0.44751331210136414, 0.14847147464752197, 0.30720192193984985, -0.30487480759620667, 0.21139603853225708, 0.3076496720314026, 0.058919522911310196, -0.1652265042066574, -0.004646614659577608, -0.1634230762720108, 0.353846937417984, -0.4337966740131378, 0.24482892453670502, 0.5937235951423645, -0.3574451506137848, 0.5445680022239685, 0.5332245230674744, -0.3568817377090454, 0.002883695065975189, 0.2778429090976715, -0.4004378318786621, 0.24218706786632538, 0.1339309960603714, 0.3357619345188141, -0.42844897508621216, -0.6406016945838928, 0.30583518743515015, 0.17490097880363464, -0.532909095287323, -0.3200646936893463, -0.5079184770584106, -0.5196020007133484, -0.3076651692390442, 0.7551507353782654, 0.006945105269551277, 0.27756181359291077, 0.5210217237472534, 0.2665477395057678, -0.3754577040672302, 0.4098842144012451, 0.1255483329296112, 0.5464189648628235, -0.5005794167518616, 0.5027891397476196, 0.4029136300086975, -0.21835920214653015, 0.10259388387203217, 0.3895958364009857, -0.23473064601421356, -0.2931189239025116, 0.22785991430282593, 0.2624909579753876, 0.551809549331665, 0.3816789388656616, 0.5568689107894897, -0.4443739056587219, 0.4363640248775482, -0.36486175656318665, -0.24448399245738983, -0.16573075950145721, -0.10777910053730011, 0.5086022019386292, 0.34968701004981995, 0.378446102142334, 0.3711518347263336, -0.767062246799469, 0.03577796369791031, 0.06805811077356339, 0.17014718055725098, 0.3836331069469452, -0.24235492944717407, 0.27497732639312744, 0.7114640474319458, 0.2862214148044586, -0.33642834424972534, 0.4541981518268585, 0.4028835594654083, 0.0415707565844059, -0.9635486602783203, 0.5760775208473206, -0.501762866973877, 0.3891395032405853, -0.11120576411485672, 0.30159106850624084, -0.7838628888130188, -0.17802172899246216, 0.12950673699378967, 0.31781744956970215, 0.3829832077026367, 0.45585283637046814, 0.9037907123565674, 0.12692107260227203, -0.4454444348812103, -0.3387477993965149, 0.22013159096240997, 0.4827207624912262, -0.09163878858089447, -0.0061253635212779045, -0.18377774953842163, 0.12862874567508698, 0.32836392521858215, -0.5435532927513123, -0.36047640442848206, 0.3963301181793213, 0.20717167854309082, -0.07812192291021347, 0.2529350519180298, -0.004371383227407932, -0.2901986837387085, -0.5164377093315125, 0.5299078822135925, -0.30554497241973877, 0.25614193081855774, -0.3729933202266693, -0.41885000467300415, -0.14283058047294617, -0.45094969868659973, 0.34750136733055115, 0.09300870448350906, -0.23521211743354797, -0.1623147875070572, -0.012572295032441616, -0.13073000311851501, 0.088950976729393, 0.09961679577827454, -0.2998347878456116, 0.17017176747322083, 0.0021609817631542683, 0.33859753608703613, -0.07336348295211792, -0.05030713975429535, 0.41972827911376953, -0.39792633056640625, 0.0006748833111487329, 0.4234255850315094, -0.2406168431043625, 0.5059432983398438, 0.5240912437438965, 0.43413448333740234, -0.13061244785785675, 0.5884199738502502, -0.09179124981164932, -0.12105716019868851, 0.23692335188388824, 0.15661704540252686, 0.3514617085456848, 0.41119179129600525, -0.3847496807575226, 0.2710924744606018, 0.18677589297294617, 0.32500019669532776, 0.2578502893447876, -0.23812834918498993, -0.39675983786582947, 0.4851876497268677, -0.25073105096817017, 0.3697544038295746, -0.5631235241889954, -0.06719782948493958, 0.050709545612335205, 0.13120917975902557, 0.15384899079799652, 0.294942170381546, 0.08174663037061691, 0.1201312318444252, 1.0664480924606323, -0.18290992081165314, -0.18541556596755981, -0.27443650364875793, 0.7507591247558594, 0.62080979347229, 0.06862270832061768, -0.2810060381889343, -0.33749356865882874, 0.45280689001083374, 0.030227847397327423, 0.7957367897033691, 0.34262222051620483, 0.40432170033454895, 0.34677332639694214, -0.42859306931495667, 0.05457410588860512, -0.10340312868356705, 0.31576448678970337, -0.047589562833309174, 0.09052076190710068, -0.3206232786178589, -0.49098458886146545, 0.2030455619096756, 0.15369564294815063, 0.09327825903892517, 0.3825599253177643, -0.19994525611400604, -0.11179876327514648, 0.0006571354460902512, 0.00508782546967268, 0.48950961232185364, 0.01860235445201397, 0.3612615168094635, 0.15326303243637085, 0.07990699261426926, -0.06020678952336311, -0.15850374102592468, -0.050083890557289124, -0.14007532596588135, -0.16143684089183807, -0.27228084206581116, 0.042168356478214264, 0.08292834460735321, 0.03817379102110863, 0.06744004786014557, 0.12113289535045624, -0.03890899196267128, -0.17851980030536652, -0.08574929088354111, -0.17626535892486572, -0.03869953006505966, 0.07248321175575256, -0.10938912630081177, -0.4022687077522278, 0.07943397760391235, -0.07026122510433197, -0.03427835553884506, -0.263626366853714, 0.24209251999855042, 0.03051792085170746, -0.03085319511592388, -0.045280564576387405, -0.11372953653335571, -0.07937435060739517, -0.029521556571125984, -0.1392759382724762, -0.1394178867340088, 0.13503170013427734, -0.3820694386959076, -0.07492032647132874, 0.22602593898773193, 0.3251744508743286, -0.28793221712112427, -0.34714528918266296, -0.7015652656555176, 0.27590471506118774, -0.21987779438495636, -0.24335962533950806, -0.26611778140068054, 0.14457465708255768, 0.3879043757915497, -0.1368938535451889, 0.3450099229812622, -0.20655769109725952, -0.1656367927789688, 0.003958098590373993, 0.3806407153606415, 0.45633432269096375, 0.2989796996116638, 0.32737410068511963, -0.31159186363220215, -0.02486622892320156, 0.30288243293762207, 0.1255427449941635, 0.38334259390830994, -0.36856701970100403, -0.18180349469184875, -0.2695142328739166, 0.4606989026069641, 0.053741831332445145, 0.05422408878803253, -0.017177829518914223, -0.04271945357322693, 0.2415841817855835, 0.44807299971580505, 0.11270693689584732, -0.028412984684109688, -0.14286382496356964, 0.25653988122940063, 0.5291731357574463, -0.23528622090816498, 0.13433104753494263, 0.13992537558078766, -0.40476712584495544, 0.28968486189842224, 0.030292613431811333, -0.08498108386993408, 0.41965439915657043, -0.003257851814851165, -0.10833293199539185, 0.035898830741643906, 0.8438383936882019, -0.05328400805592537, -0.0442325659096241, -0.10195718705654144, -0.21521559357643127, -0.08514726907014847, 0.1719117909669876, 0.21756063401699066, 0.1115187406539917, 0.08409451693296432, 0.01834966614842415, -0.026754124090075493, -0.5783529877662659, -0.05048477649688721, -0.14187049865722656, 0.3128983974456787, 0.12458603829145432, -0.0002918262907769531, -0.34863516688346863, 0.40713435411453247, 0.06335815042257309, 0.6498395204544067, 0.052254341542720795, 0.24105621874332428, -0.652159571647644, 0.21574009954929352, 0.09891954809427261, -0.17006231844425201, 0.10506845265626907, -0.1467921882867813, 0.10622847080230713, 0.039771102368831635, -0.027787433937191963, 0.0867200493812561, 0.07252279669046402, 0.09636767208576202, 0.44565650820732117, -0.12361270189285278, 0.25308579206466675, 0.14742344617843628, 0.041431110352277756, 0.20574481785297394, -0.30982375144958496, -0.0639200285077095, -0.023946290835738182, 0.11422765254974365, -0.17712587118148804, -0.06372583657503128, 0.33076345920562744, -0.06627558171749115, 0.034370727837085724, 0.08427073806524277, 0.0021380360703915358, 0.2432275116443634, -0.1873501092195511, -0.17315465211868286, 0.01778874546289444, -0.05280314385890961, 0.025951309129595757, -0.04835466668009758, -0.24588367342948914, -0.34993377327919006, -0.02443333901464939, -0.09598782658576965, -0.017237434163689613, -0.12000284343957901, -0.3020709753036499, -0.008148681372404099, 0.05847298353910446, 0.2900941073894501, 0.10886140912771225, -0.09104816615581512, -0.3817061483860016, -0.1537243127822876, 0.1636652946472168, -0.11343399435281754, -0.08358709514141083, 0.049414392560720444, -0.07910694181919098, -0.02836013026535511, -0.27697068452835083, 0.23513349890708923, 0.19664447009563446, -0.03952167555689812, 0.06117546930909157, 0.05161568522453308, 0.14425885677337646, 0.1574796736240387, 0.09706541150808334, -0.001849678228609264, -0.013309339992702007, -0.1439952850341797, -0.049502208828926086, 0.1193317174911499, 0.0025669794995337725, 0.10564744472503662, 0.1538608819246292, -0.2067575603723526, 0.1400364488363266, 0.1312786042690277, 0.17079587280750275, -0.10778719186782837, -0.005404992960393429, -0.3437914252281189, 0.20348146557807922, 0.2805771231651306, -0.4579468369483948, -0.09346046298742294, 0.3502795994281769, 0.11540023237466812, -0.0591973252594471, -0.3010886311531067, -0.4943203926086426, -0.2171587496995926, 0.5517088174819946, -0.16684003174304962, -0.31960344314575195, -0.39836668968200684, -0.2208033800125122, -0.3003675639629364, 0.19704194366931915, 0.24240203201770782, -0.1719348281621933, 0.34629249572753906, -0.04003547877073288, 0.0006667692796327174, 0.07291428744792938, 0.21704959869384766, 0.09217219799757004, -0.24064727127552032, -0.12594683468341827, 0.037100017070770264, -0.5018627643585205, -0.17488214373588562, 0.03797534108161926, -0.15611465275287628, 0.07872287184000015, 0.06841281801462173, 0.45663225650787354, 0.06537134945392609, 0.21500235795974731, -0.5491818189620972, 0.2171228975057602, -0.34730789065361023, 0.0816584900021553, -0.2701031565666199, -0.2418442815542221, -0.2793465852737427, 0.5212419033050537, -0.007875748910009861, -0.3261283040046692, -0.4195529818534851, 0.09804157167673111, 0.15514887869358063, -0.2883615791797638, 0.10178609937429428, 0.5169379115104675, -0.39437776803970337, -0.1385701596736908, 0.023342931643128395, -0.13063177466392517, 0.3362356424331665, 0.10061433166265488, -0.3943730890750885, -0.2656986117362976, -0.17622220516204834, 0.2705214321613312, 0.16570261120796204, 0.38406533002853394, -0.4578884541988373, -0.023928500711917877, 0.29764437675476074, -0.260359525680542, -0.04719253256917, 0.10232631862163544, -0.27028506994247437, -0.0420311875641346, -0.42779451608657837, 0.3523654639720917, -0.07123654335737228, -0.41843652725219727, 0.3174358904361725, -0.06451273709535599, -0.34347379207611084, 0.31525182723999023, -0.01146522257477045, -0.029873067513108253, -0.009566297754645348, -0.08619271963834763, -0.33756908774375916, 0.6064421534538269, 0.0013620591489598155, 0.002161734737455845, -0.08635863661766052, -0.1347949206829071, 0.120964914560318, -0.103775255382061, -0.6224589943885803, 0.2078525424003601, -0.5039575099945068, 0.5794054269790649, -0.1869506537914276, 0.052595917135477066, 0.29019370675086975, 0.19525517523288727, 0.0823923796415329, -0.40052807331085205, 0.33217573165893555, -0.24178573489189148, 0.4566076397895813, -0.4056195318698883, -0.09199649095535278, -0.07445209473371506, -0.28990691900253296, -0.17104358971118927, 0.04217706620693207, 0.19450616836547852, -0.09742923080921173, 0.5440047979354858, -0.23421277105808258, -0.1362568736076355, -0.402496337890625, -0.13795003294944763, -0.1732640415430069, 0.2678982615470886, -0.3500249683856964, -0.05921309441328049, -0.3058130443096161, -0.23918138444423676, -0.052022404968738556, 0.06662321835756302, -0.03760160133242607, -0.05582290142774582, 0.29347479343414307, -0.15470078587532043, -0.09504377841949463, -0.2783471941947937, 0.3168445825576782, -0.10486851632595062, 0.14154182374477386, -0.1826123744249344, -0.17993056774139404, 0.10045550763607025, -0.06075969338417053, 0.04157102480530739, 0.2318958342075348, -0.1483582854270935, 0.12977050244808197, -0.32293304800987244, 0.4282025992870331, 0.25623956322669983, -0.42722201347351074, -0.023962384089827538, -0.15152806043624878, -0.0019285411108285189, -0.17003491520881653, -0.036264315247535706, -0.18565614521503448, 0.1980714499950409, 0.09936768561601639, 0.03699549287557602, 0.0957334116101265, 0.25615808367729187, -0.17744499444961548, -0.17903324961662292, -0.05159229412674904, -0.16220442950725555, -0.1525486707687378, 0.052209604531526566, -0.01571626216173172, -0.001751488191075623, -0.04650985822081566, -0.06736963987350464, 0.5532888174057007, 0.11926903575658798, 0.09309753030538559, 0.19209983944892883, 0.14260466396808624, 0.15866754949092865, 0.10622373968362808, 0.0659099593758583, -0.26220956444740295, 0.1256515085697174, 0.01755944825708866, 0.2881614863872528, -0.10416816920042038, -0.13858002424240112, -0.05731930956244469, 0.09013822674751282, 0.15593959391117096, -0.18615201115608215, 0.02320963889360428, 0.10987092554569244, 0.2860700786113739, 0.13780204951763153, 0.10854945331811905, -0.029568055644631386, 0.42253440618515015, -0.2789595425128937, 0.21083827316761017, 0.028516050428152084, -0.06122687831521034, -0.08374083787202835, -0.14021427929401398, -0.0615101084113121, -0.04772035777568817, -0.04277503117918968, -0.052970532327890396, -0.35714516043663025, 0.10959791392087936, -0.002862487221136689, 0.4876566231250763, -0.04935770854353905, -0.015614667907357216, 0.38739433884620667, 0.20972073078155518, 0.09433386474847794, -0.06434494256973267, -0.30788949131965637, 0.00933658704161644, -0.6482703685760498, -0.14866654574871063, -0.23129262030124664, -0.43743762373924255, 0.01698892004787922, 0.16231295466423035, -0.35802319645881653, 0.03453425318002701, -0.031069613993167877, -0.19770938158035278, 0.08980970084667206, -0.14084669947624207, -0.376571923494339, -0.23840636014938354, 0.18731214106082916, 0.15097738802433014, -0.04587770998477936, -0.09521130472421646, -0.061406005173921585, 0.06228363886475563, 0.15457744896411896, 0.1870676726102829, 0.031519703567028046, -0.15359757840633392, 0.10811984539031982, 0.07152198255062103, 0.04294002056121826, 0.037047065794467926, 0.18755602836608887, -0.016059739515185356, -0.053664352744817734, -0.35166752338409424, -0.19372884929180145, 0.2233341783285141, 0.5750598311424255, 0.12777037918567657, 0.16800305247306824, 0.05753179267048836, -0.006109855603426695, 0.21108299493789673, 0.4350167214870453, 0.18970495462417603, -0.005690260790288448, -0.06137393042445183, 0.031139099970459938, 0.11699870228767395, 0.11844643950462341, 0.10911007225513458, 0.1310897320508957, -0.04072396829724312, -0.1314093917608261, 0.15465913712978363, -0.000208819197723642, 0.08431904017925262, 0.05663695186376572, -0.2421172708272934, 0.08687824755907059, 0.02151690423488617, 0.08335034549236298, -0.08235848695039749, -0.2386031299829483, -0.4075673520565033, 0.0059350961819291115, -0.2769067585468292, -0.47650936245918274, -0.6510262489318848, -0.2200218141078949, -0.1597977727651596, 0.050315964967012405, 1.089136004447937, 0.5020589828491211, -0.13220396637916565, 0.21167446672916412, 0.07318993657827377, 0.06051822006702423, 0.3979918956756592, 0.10567464679479599, 0.24188746511936188, 0.15937796235084534, 0.42321085929870605, 0.07258857041597366, 0.17303666472434998, -0.3994618356227875, -0.12022219598293304, -0.3239133954048157, 0.21820230782032013, -0.3037070333957672, 0.36288514733314514, -0.22448153793811798, -0.21683889627456665, 0.31411224603652954, -0.05068298429250717, -0.010456027463078499, 0.17356593906879425, -0.008374335244297981, 0.0013374086702242494, -0.5015818476676941, -0.11314965039491653, 0.10093843191862106, -0.3358134925365448, 0.23108841478824615, 0.13648635149002075, -0.5175610780715942, 0.0884883776307106, -0.24990752339363098, 0.08350364118814468, 0.1320314109325409, 0.14670062065124512, -0.5016719698905945, -0.04115420579910278, 0.07255073636770248, 0.32473787665367126, 0.6403063535690308, 0.12823013961315155, 0.11277633160352707, 0.13271842896938324, 0.0022640612442046404, -0.1125461608171463, -0.22087079286575317, -0.09880457818508148, 0.035394225269556046, 0.0036149458028376102, -0.11440691351890564, 0.10873521864414215, 0.30009278655052185, 0.2406143993139267, 0.26575276255607605, -0.2570939362049103, -0.17116589844226837, 0.010714678093791008, 0.4027988612651825, -0.1514357179403305, 0.017294112592935562, -0.382581889629364, 0.062486432492733, -0.10971883684396744, 0.15082639455795288, 0.15929938852787018, 0.12651106715202332, 0.02496395632624626, -0.05842190235853195, 0.08145125210285187, -0.029790140688419342, -0.051958080381155014, 0.018838169053196907, -0.030157458037137985, -0.3327476680278778, -0.012321755290031433, -0.29230108857154846, -0.0030566875357180834, 0.11565177887678146, -0.21653519570827484, 0.011854753829538822, 0.05012987554073334, 0.1899220049381256, 0.2379753589630127, 0.020188650116324425, -0.18979178369045258, -0.12647876143455505, 0.179325133562088, -0.14145544171333313, -0.022056924179196358, 0.1429160088300705, -0.07610250264406204, 0.138461634516716, -0.15910761058330536, 0.254828542470932, -0.03537685424089432, -0.15214087069034576, -0.10294751822948456, 0.1967076063156128, -0.021226216107606888, 0.07862260937690735, 0.33441561460494995, -0.010745351202785969, -0.07560314983129501, -0.16051605343818665, 0.21160978078842163, 0.24802522361278534, 0.15389370918273926, -0.1835814118385315, -0.2762489914894104, -0.016123278066515923, -0.029558571055531502, 0.25758612155914307, 0.10446224361658096, -0.1809481829404831, 0.14794929325580597, -0.05378168076276779, 0.03018851950764656, -0.005779681261628866, 0.010536540299654007, 0.27980539202690125, -0.1122717410326004, -0.0037416855338960886, 0.027352238073945045, -0.30268073081970215, -0.11626522243022919, -0.17693179845809937, -0.32329514622688293, -0.04218370467424393, -0.09266833961009979, -0.01382202934473753, 0.2845108211040497, 0.20381715893745422, -0.18573059141635895, -0.10903675109148026, 0.020519593730568886, -0.24994008243083954, 0.19985440373420715, -0.037861619144678116, -0.30787912011146545, -0.33910709619522095, 0.12277919054031372, -0.3877909481525421, 0.7632754445075989, 0.3778116703033447, 0.6867213249206543, 0.04585490748286247, 0.0003312467015348375, 0.5234307050704956, 0.3850173354148865, 0.2538387179374695, -0.41742655634880066, 0.39448413252830505, 0.15504908561706543, 0.8569818139076233, 0.03133750706911087, 0.07832040637731552, 0.14409351348876953, -0.2104099839925766, -0.024148685857653618, -0.0007134470506571233, 0.36649787425994873, 0.07125584781169891, 0.3148060142993927, -0.2814071476459503, -0.11940119415521622, -0.05852913111448288, 0.26592978835105896, 0.010132825933396816, 0.5303463935852051, -0.590781033039093, 0.29835572838783264, -0.025577636435627937, -0.21092265844345093, -0.08980708569288254, 0.014221251010894775, -0.24464106559753418, 0.3254123032093048, 0.19704771041870117, -0.07881247252225876, 0.17341244220733643, -0.6551786661148071, -0.010518907569348812, -0.07630953192710876, 0.3594854176044464, -0.2017919272184372, -0.005745922215282917, -0.18056777119636536, 0.07447147369384766, -0.10970322042703629, 0.5873087644577026, -0.322799950838089, -0.24423126876354218, -0.33991631865501404, -0.1228792741894722, 0.1603582799434662, -0.25415754318237305, 0.020733289420604706, -0.00917582307010889, 0.5008950233459473, 0.15101414918899536, 0.14993645250797272, -0.15682359039783478, 0.2695274353027344, -0.22724592685699463, 0.2847987413406372, -0.10016743093729019, 0.10595177859067917, 0.07379406690597534, -0.07968252897262573, 0.0688144713640213, -0.03766880929470062, -0.07058660686016083, 0.09953100979328156, 0.5316581726074219, 0.0938447117805481, 0.12127046287059784, -0.23525689542293549, 0.399784654378891, 0.3151433765888214, 0.32891303300857544, 0.24779662489891052, -0.19407223165035248, -0.07164452970027924, 0.08899500221014023, 0.22344501316547394, -0.27923980355262756, 0.25994616746902466, -0.07049918174743652, 0.1719079464673996, 0.0672011598944664, -0.08417127281427383, 0.17624497413635254, 0.22825409471988678, 0.04817185178399086, 0.14162899553775787, -0.5197079181671143, -0.8288356065750122, -0.7304354310035706, 0.16814948618412018, 0.16323982179164886, -0.28982871770858765, 0.9493709206581116, -0.4833354651927948, -0.07276608794927597, 0.44187048077583313, 0.09115949273109436, -0.07990057021379471, -0.3659608066082001, -0.45792773365974426, -0.32939064502716064, -0.0008664369233883917, 0.37013280391693115, -0.28206467628479004, -0.3237767517566681, -0.5658470988273621, 0.08620290458202362, 0.2841044068336487, -0.06666270643472672, -0.17105905711650848, 0.6239228844642639, -0.5062874555587769, -0.38536137342453003, -0.5853937864303589, 0.460117369890213, 0.19983042776584625, -0.5521870851516724, 0.21276319026947021, -0.2951750159263611, -0.44163158535957336, 0.29086747765541077, 0.005734164267778397, -0.06882072240114212, -0.18545638024806976, -0.14565904438495636, 0.030352488160133362, 0.2852210998535156, 0.122198186814785, -0.31068769097328186, 0.3487893342971802, -0.5214431881904602, 0.1801884025335312, 0.14267900586128235, -0.2472715675830841, 0.05674247443675995, 0.029325682669878006, 0.10085625946521759, 0.06037406250834465, 0.01644480973482132, -0.060616787523031235, -0.06590045988559723, 0.23896420001983643, -0.36604756116867065, 0.02774711325764656, 0.06341180950403214, -0.054869718849658966, -0.2894841432571411, 0.4779186546802521, 0.030162964016199112, -0.1964365541934967, 0.11008411645889282, 0.3744144141674042, 0.024986060336232185, -0.16741333901882172, -0.16497476398944855, -0.34469160437583923, 0.10935814678668976, -0.30029943585395813, 0.42370152473449707, 0.1683482974767685, -0.5591065883636475, 0.5353098511695862, -0.5816354155540466, 0.05085030943155289, -0.25904959440231323, -0.46975481510162354, -0.08152513951063156, -0.7718024849891663, 0.42134883999824524, -0.35859671235084534, 0.5367054343223572, 0.3166702389717102, 0.5510755181312561, -0.06124398112297058, -0.38354840874671936, -0.5228797793388367, 0.4682992994785309, -0.40566036105155945, -0.1847422868013382, -0.06086726859211922, 0.25683435797691345, -0.3806365132331848, 0.3832260072231293, -0.4366758167743683, 0.38329896330833435, -0.20571587979793549, -0.19978965818881989, -0.1711362898349762, 0.6724327802658081, 0.10659749060869217, -0.566198468208313, 0.38942521810531616, 0.6153783798217773, 0.30278679728507996, 0.8494623899459839, 0.08284768462181091, -0.10668099671602249, 0.5015897154808044, -0.5834765434265137, -0.19410823285579681, -0.16261297464370728, 0.491951584815979, -0.22921429574489594, 0.0745503231883049, 0.08269111812114716, -0.2564797103404999, -0.17051994800567627, 0.44265326857566833, 0.3154493570327759, 0.3545127213001251, 0.005168899893760681, -0.018267512321472168, 0.07331790775060654, -0.12807460129261017, -0.1540510505437851, 0.2766093909740448, -0.33325350284576416, -0.18162547051906586, 0.08681108802556992, 0.052597131580114365, 0.013678669929504395, -0.16708937287330627, -0.09908752888441086, 0.19576500356197357, -0.4236676096916199, -0.25759077072143555, 0.19078382849693298, 0.08252923935651779, 0.26101696491241455, 0.08909778296947479, 0.11745104193687439, 0.23705680668354034, 0.4435497224330902, -0.3393439054489136, 0.41472601890563965, -0.03120172955095768, 0.30921682715415955, -0.09954168647527695, 0.2473190724849701, 0.029924780130386353, 0.13766245543956757, -0.5504783987998962, -0.38810375332832336, 0.1512032002210617, -0.25233039259910583, -0.2198721170425415, 0.19295531511306763, 0.23853856325149536, 0.11116571724414825, 0.2100457400083542, 0.026128333061933517, -0.016535066068172455, 0.15208406746387482, 0.24692974984645844, 0.5873063802719116, -0.43761512637138367, -0.20898422598838806, -0.382292777299881, -0.1035880297422409, 0.3691259026527405, -0.11129578948020935, -0.4166184663772583, 0.36290082335472107, -0.05453072488307953, 0.5637151598930359, 0.3285052180290222, 0.3145648241043091, -0.16111516952514648, -0.5910847187042236, 0.1644316464662552, -0.21262219548225403, -0.041963543742895126, -0.04741266742348671, -0.12375068664550781, -0.20491299033164978, -0.11339745670557022, -0.2018459439277649, -0.18997600674629211, 0.4659508168697357, 0.02162810228765011, -0.09507223218679428, -0.08486410230398178, -0.26877641677856445, 0.38516733050346375, -0.035655222833156586, 0.2269943207502365, 0.18988226354122162, -0.28634318709373474, -0.15382902324199677, -0.4016661047935486, 0.0304916612803936, 0.5166219472885132, 0.007553487550467253, 0.20326225459575653, -0.26179957389831543, -0.223321333527565, 0.20780543982982635, -0.15351925790309906, -0.3004516363143921, 0.4945678412914276, -0.3460485637187958, 0.19332276284694672, -0.2538597583770752, -0.045008786022663116, 0.36615559458732605, -0.2587478756904602, 0.029034875333309174, 0.06268257647752762, -0.004572875332087278, -0.536518931388855, 0.12597912549972534, -0.057027846574783325, 0.4479207694530487, 0.00726105272769928, -0.08039626479148865, 0.19556227326393127, -0.1659480333328247, 0.12150122225284576, 0.07349833101034164, -0.3928616940975189, -0.2567267119884491, -0.03565533086657524, -0.002226809971034527, 0.14574283361434937, 0.2031610757112503, -0.5750038623809814, -0.3362189829349518, -0.15542492270469666, 0.328138142824173, -0.10417486727237701, 0.241852268576622, -0.15696117281913757, 0.4775504171848297, -0.06528948992490768, 0.8273994326591492, 0.04462043568491936, 0.02405049465596676, -0.6297286748886108, 0.06731467694044113, 0.47989609837532043, 0.19098953902721405, -0.11352501064538956, -0.06458717584609985, -0.3076741695404053, -0.22584234178066254, 0.20110465586185455, -0.5981439352035522, 0.04865961894392967, -0.620161771774292, 0.11511112749576569, -0.9057717323303223, -0.3289419114589691, 0.6267909407615662, 0.316359281539917, -0.05305241048336029, -0.6364085078239441, 0.2276349514722824, -0.1665029674768448, 0.012927262112498283, 0.2573472857475281, 0.09805459529161453, 0.10724002867937088, -0.48583510518074036, 0.009844624437391758, -0.2241610735654831, -0.08492845296859741, -0.19858607649803162, 0.21642020344734192, -0.24701166152954102, -0.12546406686306, 0.11365211009979248, -0.46985432505607605, -0.10872269421815872, 0.34907838702201843, -0.3247627317905426, 0.12941798567771912, -0.06985267251729965, -0.13502101600170135, -0.1973496675491333, 0.08046819269657135, 0.20111684501171112, -0.19330090284347534, -0.3396138846874237, -0.11249067634344101, -0.09526354819536209, 0.2354811280965805, -0.08744542300701141, -0.1576019823551178, -0.17835797369480133, 0.6157201528549194, -0.21508745849132538, 0.2603541314601898, 0.07934227585792542, 0.12651115655899048, 0.2611960172653198, -0.11118349432945251, 0.3071865439414978, 0.12674038112163544, 0.10861919075250626, 0.021035101264715195, -0.359173059463501, 0.5905256271362305, -0.06659473478794098, -0.3103339374065399, 0.0666009858250618, -0.07040984183549881, 0.1884574145078659, -0.17980130016803741, -0.03942178934812546, 0.10612116008996964, 0.4837122857570648, -0.24075791239738464, -0.12600897252559662, -0.03761720284819603, -0.435798317193985, 0.3215188980102539, 0.4986754059791565, -0.1272275745868683, 0.35772135853767395, -0.696401834487915, 0.11984062939882278, 0.641141951084137, -0.2608884572982788, -0.014643216505646706, -0.3695353865623474, 0.3586556017398834, 0.20793406665325165, -0.07358774542808533, -0.1926209032535553, -0.2268688976764679, 0.21820706129074097, 0.10918036848306656, 0.49570783972740173, 0.11829622834920883, -0.3240792453289032, 0.08604130893945694, 0.12222977727651596, -0.03832342475652695, 0.12985901534557343, -0.011091121472418308, -0.09692265838384628, -0.25631728768348694, 0.37230923771858215, -0.05741170421242714, -0.11125065386295319, -0.041021618992090225, -0.21189330518245697, 0.1289421170949936, -0.1202278584241867, 0.16386903822422028, -0.2430831789970398, -0.06735417991876602, 0.09409388154745102, 0.20060397684574127, -0.13278912007808685, 0.1715511828660965, 0.07872191071510315, 0.1332414746284485, -0.1741439402103424, 0.151695117354393, -0.04696609824895859, -0.12045034766197205, -0.011098546907305717, 0.2153848111629486, -0.26070788502693176, 0.10346614569425583, -0.0337676964700222, 0.0956496000289917, 0.6157545447349548, 0.10239273309707642, -0.5307565331459045, 0.11083640903234482, 0.42577314376831055, -0.21302570402622223, 0.02471044659614563, 0.10271764546632767, -0.08834362030029297, 0.1680554747581482, -0.37998321652412415, -0.4174318313598633, -0.1724410504102707, -1.2686669826507568, 0.4703664481639862, -0.16586221754550934, 0.5744869112968445, 0.21191692352294922, -0.2576916217803955, 0.6603151559829712, -0.07688936591148376, -0.10451321303844452, 0.4841309189796448, -0.6391957402229309, -0.10859814286231995, 0.13007614016532898, -0.09952977299690247, -0.7112537026405334, 0.0225096233189106, -0.4797363877296448, 0.03652480989694595, -0.2803362309932709, -0.7188981175422668, -0.16264423727989197, 0.05959566310048103, 0.2704690992832184, -0.5447250604629517, 0.19631421566009521, -0.09371042251586914, 0.041737113147974014, -0.5587136149406433, 0.44038277864456177, 0.3441789746284485, 0.5185219645500183, -0.7512819170951843, 0.06034421548247337, 0.27732592821121216, -0.5209474563598633, -0.19611606001853943, -0.3595157265663147, 0.4173329770565033, 0.04790801182389259, 0.0408492274582386, 0.3931635320186615, -0.4320424199104309, 0.03348856046795845, 0.14907044172286987, -0.25529342889785767, 0.13149897754192352, -0.08140295743942261, 0.2527029812335968, 0.49065864086151123, 0.14256805181503296, 0.10187552124261856, -0.3955044150352478, 0.2568337917327881, 0.2132548689842224, -0.7016832232475281, -0.5693854093551636, 0.5631375908851624, -0.07771306484937668, 0.083888940513134, -0.1169118732213974, 0.476813942193985, 0.5334032773971558, 0.22258655726909637, -0.19626975059509277, 0.286081463098526, 0.16805869340896606, 0.08470529317855835, -0.30756449699401855, -0.15476185083389282, -0.6536403298377991, 0.3767690360546112, 0.38613179326057434, 0.3569255471229553, 0.24267049133777618, 0.04467317834496498, 1.057454228401184, -0.07902063429355621, -0.18380559980869293, -0.5349614024162292, -0.013544632121920586, 0.05108831077814102, 0.4424162805080414, -0.47612684965133667, -0.02103685773909092, -0.7774689197540283, -0.7139313817024231, 0.045821357518434525, -0.5101714730262756, 0.621843695640564, -0.5706775188446045, -0.37992385029792786, -0.27369755506515503, -0.47105035185813904, 0.6840402483940125, 0.4575096666812897, -0.1901695430278778, 0.13258294761180878, 0.380562961101532, 0.3074050545692444, -0.09018014371395111, -0.30989986658096313, 0.281152606010437, -0.5918828845024109, -0.26187512278556824, 0.07299130409955978, -0.13029371201992035, -0.2501428425312042, -0.40609461069107056, -0.14322999119758606, 0.0018676926847547293, 0.5025885105133057, -0.15155211091041565, 0.6012361645698547, -0.06912139058113098, -0.20412708818912506, 0.05845646187663078, -0.16964644193649292, -0.16941727697849274, 0.23548026382923126, 0.41896912455558777, 0.4407992660999298, 0.05406565964221954, -0.06861007213592529, 0.35903993248939514, -0.036278676241636276, 0.017159318551421165, 0.29545485973358154, 0.19559919834136963, -0.9132688045501709, 0.08066115528345108, -0.2238372564315796, 0.17667889595031738, -0.2749754786491394, 0.21012966334819794, 0.7595908641815186, -0.4797261953353882, 0.21646343171596527, 0.7011460065841675, 0.10514078289270401, 0.00382457347586751, 0.7330847382545471, 0.5544766783714294, -0.2809673547744751, 0.011996973305940628, -0.06463130563497543, 0.04127440229058266, -0.013914558105170727, 0.6767430305480957, 0.2636852264404297, -0.4560776948928833, 0.03709195926785469, 0.37988677620887756, -0.12672598659992218, 0.014367073774337769, 0.206186443567276, -0.6298990249633789, -0.028981918469071388, -0.24476179480552673, 0.44537073373794556, -0.6517789959907532, 0.05877159908413887, -0.826332688331604, -0.316573828458786, 0.08263393491506577, -0.17943698167800903, 0.5219537019729614, -0.07963510602712631, -0.31527066230773926, 0.08364170789718628, 0.43561580777168274, 0.021271849051117897, 0.46285924315452576, -0.2885309159755707, 0.19759851694107056, 0.2624881863594055, 0.2534632086753845, -0.0047537786886096, 0.20949169993400574, -0.535602331161499, -0.42982298135757446, -0.02769390307366848, 0.02557556703686714, 0.41038259863853455, 0.3675006926059723, 0.29741933941841125, -0.22274506092071533, -0.45074909925460815, -0.5019705295562744, 0.2155683934688568, -0.5418732762336731, -0.5624643564224243, -0.2381146401166916, -0.4247276782989502, -0.09820864349603653, -0.32978135347366333, -0.2583952248096466, 0.46478018164634705, -0.10268758237361908, 0.4709324836730957, -0.03804495185613632, -0.041849225759506226, -0.15103991329669952, -0.4248775541782379, -0.3852200210094452, 0.45305338501930237, -0.18478965759277344, -0.5776168704032898, 0.45337310433387756, 0.11135034263134003, -0.24732007086277008, -0.5484151840209961, -0.45875439047813416, -0.7447830438613892, 0.7231037020683289, 0.3434866666793823, 0.025578919798135757, -0.5747331380844116, -0.15448647737503052, -0.5146253705024719, 0.48592427372932434, -0.24044647812843323, -0.1606569141149521, -0.2374923974275589, 0.15338073670864105, 0.4705051779747009, 0.07543538510799408, -0.013009591028094292, -0.06206100434064865, -0.09067575633525848, -0.4275607764720917, 0.4817875027656555, -0.19278249144554138, 0.3349607586860657, -0.3676801323890686, 0.03279123827815056, 0.2595646381378174, -0.47029638290405273, 0.31132128834724426, -0.4603980779647827, 0.13599027693271637, -0.06008800119161606, 0.27258074283599854, 0.620954692363739, -0.15978217124938965, -0.2667046785354614, 0.054868511855602264, -0.04715559631586075, -0.05384230241179466, -0.1538020819425583, 0.08395131677389145, 0.4139675199985504, -0.14368966221809387, 0.6413165926933289, -0.11944103986024857, 0.18283316493034363, 0.17445620894432068, 0.5402306914329529, -0.08230361342430115, 0.2868509292602539, -0.5494030117988586, 0.07192571461200714, 0.0350445918738842, 0.022414078935980797, 0.026320921257138252, 0.44534534215927124, -0.0831611305475235, 0.29536619782447815, 0.20666877925395966, -0.48917171359062195, -0.07799328118562698, 0.35611841082572937, 0.02169516682624817, 0.22070752084255219, -0.00532863475382328, -0.05523628741502762, -0.20975352823734283, -0.3615840673446655, 0.28725582361221313, -0.07572408765554428, 0.07895445078611374, 0.532683253288269, 0.05948043614625931, -0.004064645152539015, -0.2880018353462219, -0.3910442888736725, -0.40195414423942566, 0.0942496657371521, -0.07325291633605957, 0.18608082830905914, 0.41238725185394287, -0.34879636764526367, 0.4032176733016968, -0.0370745025575161, -0.011147627606987953, -0.23298527300357819, -0.00034327805042266846, 0.04324030503630638, -0.24279257655143738, 0.010987493209540844, 0.06947150081396103, -0.5065889358520508, -0.17176352441310883, 0.21535097062587738, -0.07876768708229065, -0.2708906829357147, -0.10186412930488586, -0.3403088450431824, 0.1877482682466507, 0.2314434051513672, 0.41494497656822205, 0.09661456942558289, 0.1398017555475235, -0.2220732420682907, -0.14634840190410614, 0.11463043838739395, -0.12785978615283966, -0.08496071398258209, 0.20391961932182312, 0.2539495527744293, 0.051815129816532135, -0.06286174803972244, -0.06076230853796005, 0.16685093939304352, -0.11720739305019379, 0.20927511155605316, 0.1261979043483734, -0.01616901345551014, -0.06599139422178268, 0.14495834708213806, -0.1450939178466797, 0.6074989438056946, 0.23029805719852448, -0.13858023285865784, 0.4938129782676697, 0.0786341056227684, -0.08780442178249359, 0.09046798199415207, -0.00954730436205864, -0.07580030709505081, -0.030066844075918198, -0.18941764533519745, 0.0005469016032293439, -0.40381377935409546, -0.08647757768630981, -0.23748774826526642, -0.1268291026353836, -0.1641102135181427, -0.3173528015613556, 0.1011316180229187, -0.07933701574802399, -0.3028548061847687, 0.2875117361545563, 0.30870476365089417, 0.1430221050977707, 0.2345026284456253, -0.057798560708761215, -0.3898749053478241, 0.11728474497795105, 0.012965917587280273, 0.22006163001060486, 0.49050766229629517, -0.006060278974473476, -0.07451540976762772, 0.03910564258694649, -0.2756679058074951, -0.065909743309021, 0.18650497496128082, -0.16138963401317596, 0.09685799479484558, 0.029388340190052986, 0.0594758577644825, -0.18273413181304932, -0.4280078411102295, 0.032482050359249115, 0.48395130038261414, -0.2827726900577545, 0.1488872915506363, 0.6555377840995789, 0.6699590086936951, -0.357107013463974, -0.3792652189731598, -0.211381196975708, -0.30004003643989563, -0.009485224261879921, -0.19813218712806702, 0.059835486114025116, -0.10738120228052139, 0.284309983253479, -0.2803698778152466, 0.5365932583808899, -0.047066278755664825, -0.26172253489494324, -0.07363373041152954, -0.012710550799965858, -0.13626745343208313, 0.12910029292106628, 0.0477188415825367, 0.05427292361855507, 0.031240910291671753, -0.22040417790412903, 0.018421359360218048, -0.32622477412223816, -0.08499153703451157, -0.08335107564926147, -0.21066279709339142, -0.26963961124420166, 0.06427743285894394, 0.08653894811868668, 0.11471958458423615, -0.031387049704790115, -0.1594882756471634, 0.362560510635376, 0.07413032650947571, 0.6247106194496155, -0.19005443155765533, 0.1383482962846756, -0.12447559833526611, -0.3528536260128021, 0.23293215036392212, -0.04769863188266754, -0.10249163210391998, 0.26116451621055603, 0.14904488623142242, 0.12039978802204132, 0.12110073119401932, 0.110855333507061, 0.3246248662471771, -0.06194254383444786, 0.2871288061141968, 0.005067187827080488, 0.06936872750520706, 0.09074478596448898, -0.014118591323494911, 0.15164223313331604, -0.07837148010730743, 0.13064523041248322, 0.3376539945602417, -0.05819319188594818, 0.09167101234197617, -0.08215834200382233, 0.6319712400436401, 0.6072070002555847, -0.004667805507779121, 0.271842360496521, -0.2523624300956726, -0.05370502546429634, -0.07086972147226334, -0.4900859594345093, -0.152696892619133, -0.41236740350723267, -0.053923171013593674, -0.2373393476009369, 0.2127908319234848, 0.12429852038621902, 0.16371898353099823, -0.13662216067314148, -0.15152890980243683, -0.3011038899421692, -0.030187001451849937, 0.054228540509939194, 0.16473986208438873, 0.1293567717075348, -0.46947574615478516, -0.2563958466053009, -0.25902101397514343, 0.0927148163318634, 0.12759894132614136, 0.07501425594091415, 0.26741161942481995, 0.49154481291770935, -0.26478564739227295, 0.28972211480140686, 0.3825201094150543, -0.16967272758483887, -0.18365494906902313, 0.39458343386650085, 0.03406753018498421, -0.15650707483291626, 0.3946213126182556, -0.1794969141483307, 0.29927513003349304, -0.02309838868677616, 0.11742080748081207, -0.564532458782196, -0.25529608130455017, 0.036352578550577164, 0.17797130346298218, 0.03735315054655075, 0.22966457903385162, 0.5837019085884094, 0.6401190757751465, 0.025406137108802795, 0.7089937329292297, -0.0002287211100338027, 0.3841402530670166, 0.5122739672660828, 0.23468148708343506, -0.12003827840089798, 0.3588731288909912, -0.21221770346164703, -0.18119971454143524, 0.26590004563331604, 0.11072665452957153, 0.18850548565387726, 0.1433781534433365, -0.5872983932495117, -0.05550118163228035, 0.1347617208957672, -0.5146480798721313, -0.17737987637519836, 0.28343796730041504, -0.13626457750797272, 0.15009042620658875, 0.2404288947582245, 0.3247021436691284, -0.35210120677948, 0.003617099951952696, 0.5014451742172241, 0.17398880422115326, -0.06641885638237, 0.674074649810791, 0.416720986366272, 0.11100191622972488, -0.032690633088350296, -0.4985315799713135, -0.536690890789032, 0.23007819056510925, -0.03558073192834854, 0.5043381452560425, 0.5313143730163574, -0.33075594902038574, -0.018709994852542877, 0.19031205773353577, -0.275442510843277, 0.04932466521859169, 0.28652501106262207, -0.03091455064713955, 0.007638369221240282, -0.03231552243232727, -0.07364635914564133, 0.3538515269756317, 0.03553219139575958, -0.016260972246527672, 0.09643613547086716, -0.024197280406951904, 0.2584039568901062, 0.23159249126911163, 0.11787614971399307, 0.09801580756902695, -0.20895610749721527, -0.27398037910461426, -0.06200167164206505, 0.21740588545799255, -0.03796908259391785, 0.06026589125394821, 0.3313736915588379, 0.17182527482509613, 0.008146478794515133, 0.12647585570812225, -0.08048500865697861, 0.08511771261692047, -0.21931034326553345, -0.12351951003074646, -0.09941107034683228, -0.08099810034036636, -0.12927687168121338, 0.0028321058489382267, -0.004107590299099684, -0.17841888964176178, -0.16146905720233917, -0.018535472452640533, -0.22391675412654877, -0.11600732803344727, -0.34847405552864075, 0.2469019591808319, -0.18563999235630035, -0.1632106453180313, 0.03598829358816147, -0.013219558633863926, 0.0166633278131485, -0.03292219340801239, -0.05190080776810646, 0.1792537122964859, -0.030814634636044502, 0.2667666971683502, -0.08333585411310196, -0.1279616802930832, -0.008367668837308884, -0.45469796657562256, -0.09853745996952057, -0.22388510406017303, 0.05402452498674393, -0.13578495383262634, -0.09601488709449768, -0.36661195755004883, 0.0027404669672250748, -0.04351801797747612, -0.10755965858697891, -0.05426565185189247, 0.16827480494976044, -0.2534797191619873, 0.05184910073876381, -0.04766664654016495, -0.14315372705459595, -0.00213764444924891, 0.12429334968328476, -0.06652326881885529, -0.2024572491645813, -0.27727198600769043, 0.4313950836658478, 0.13068890571594238, 0.45934566855430603, 0.26280778646469116, 0.06589695811271667, -0.013280478306114674, 0.20256352424621582, 0.28915295004844666, 0.06842942535877228, -0.24645929038524628, -0.0353616364300251, -0.08165224641561508, 0.048905398696660995, 0.26091378927230835, -0.1871977001428604, 0.11059481650590897, -0.06945919990539551, 0.011261483654379845, -0.0021697068586945534, -0.11017439514398575, 0.015444139949977398, -0.15778405964374542, -0.09308163076639175, -0.151810422539711, 0.00983123853802681, -0.1269804686307907, 0.18291936814785004, -0.07472239434719086, 0.5742208957672119, -0.3444739878177643, -0.023485194891691208, 0.1776568740606308, 0.054622285068035126, -0.24018192291259766, 0.5518792867660522, -0.43322324752807617, -0.024979032576084137, -0.28834840655326843, -0.013097676448523998, -0.3433930277824402, 0.5920278429985046, -0.3173488676548004, 0.05361704155802727, 0.2008175551891327, 0.005317614879459143, -0.017790408805012703, -0.02831162139773369, 0.007869222201406956, -0.0057632396928966045, -0.14580422639846802, -0.019235413521528244, 0.05154331400990486, -0.6903893351554871, 0.3155398964881897, -0.26528677344322205, -0.30074068903923035, 0.2394597828388214, 0.1813916116952896, 0.18258914351463318, 0.030595457181334496, 0.05455595627427101, -0.3794414699077606, 0.24878962337970734, 0.07094128429889679, -0.37901583313941956, -0.13279925286769867, 0.0830107033252716, -0.2390216886997223, -0.03445963189005852, -0.046929024159908295, 0.27501532435417175, 0.2282969355583191, -0.5436750650405884, -0.22366565465927124, 0.14324970543384552, 0.046521108597517014, 0.46208518743515015, 0.2053697258234024, -0.17253942787647247, -0.5371099710464478, 0.023487921804189682, 0.09905761480331421, 0.8157079219818115, 0.19443315267562866, 0.2707424461841583, 0.12535826861858368, 0.3744399845600128, 0.06537201255559921, 0.4912261366844177, -0.010959817096590996, -0.14690391719341278, 0.1741715967655182, 0.17117920517921448, 0.17810064554214478, 0.11944122612476349, 0.07872756570577621, -0.08499197661876678, -0.1519320011138916, 0.050149526447057724, 0.27446940541267395, -0.13751809298992157, 0.2341214120388031, 0.38863974809646606, -0.25099655985832214, 0.23321685194969177, -0.21053442358970642, -0.0723092183470726, -0.3231971859931946, 0.11986678838729858, -0.33891770243644714, 0.04357980564236641, -0.23247821629047394, -0.16661398112773895, 0.23439857363700867, -0.11190997064113617, -0.3258912265300751, 0.18369266390800476, -0.07327298820018768, 0.3056146800518036, -0.06336882710456848, -0.378130704164505, 0.5441464185714722, 0.057609979063272476, -0.01868719980120659, -0.16241174936294556, 0.08600011467933655, 0.25281259417533875, -0.18160033226013184, -0.0713680312037468, -0.012968393974006176, 0.49672630429267883, -0.09377925843000412, -0.23974111676216125, -0.23724780976772308, -0.08946425467729568, 0.2288399189710617, -0.018907446414232254, 0.05632650479674339, -0.08803924173116684, -0.2262106090784073, 0.1892538070678711, 0.08155427873134613, -0.18967655301094055, -0.195169135928154, -0.2093915194272995, -0.01650913432240486, 0.008445041254162788, 0.019361909478902817, -0.299785315990448, 0.28038132190704346, -0.12345461547374725, -0.6719728112220764, 0.1173933744430542, 0.016317015513777733, -0.07254410535097122, -0.4252459704875946, 0.049328360706567764, -0.07918624579906464, 0.15107150375843048, -0.27802005410194397, 0.17125442624092102, -0.19752773642539978, -0.37718743085861206, -0.45158055424690247, 0.05806084722280502, 0.007248046807944775, -0.11770591139793396, -0.3089820444583893, -0.2927054762840271, 0.035836316645145416, -0.2505429685115814, 0.34125110507011414, -0.12893997132778168, -0.1566552370786667, 0.07230168581008911, 0.43895912170410156, -0.03600985184311867, 0.16025081276893616, -0.1481136977672577, -0.15099380910396576, 0.14845289289951324, -0.2838127613067627, -0.08710703998804092, 0.061545029282569885, 0.09606889635324478, -0.23566307127475739, 0.004757144022732973, -0.04091069847345352, 0.05205591022968292, 0.2645641267299652, -0.10709600150585175, -0.07360243052244186, -0.1182994693517685, -0.27287596464157104, -0.2223503142595291, -0.1748388260602951, -0.1590183824300766, 0.00414788955822587, 0.41046473383903503, -0.046346548944711685, -0.028656184673309326, -0.21601031720638275, 0.05285992845892906, 0.05942882224917412, -0.04915475472807884, -0.20222444832324982, 0.36232224106788635, 0.06349058449268341, 0.5554331541061401, -0.04675721749663353, -0.5142964720726013, -0.02442634291946888, -0.04732295498251915, 0.2686614990234375, -0.26927274465560913, 0.06157504394650459, 0.04478788748383522, 0.3086075186729431, -0.2985154688358307, 0.23564571142196655, -0.3513326346874237, 0.002450493862852454, 0.4233068823814392, 0.41301611065864563, 0.29171648621559143, 0.13857528567314148, -0.49890682101249695, -0.2837695777416229, 0.2501150369644165, 0.04429090395569801, 0.016965938732028008, 0.1682809740304947, -0.2533990442752838, 0.11398956924676895, -0.16718176007270813, -0.14768852293491364, 0.2529847025871277, 0.1965823769569397, -0.3087942898273468, -0.11930288374423981, -0.06320533901453018, 0.07881305366754532, -0.16447867453098297, 0.22338858246803284, 0.19208475947380066, -0.03759410232305527, 0.16202892363071442, 0.35422444343566895, 0.10958973318338394, -0.27163591980934143, 0.0034107419196516275, -0.4752230942249298, -0.18712641298770905, 0.3577039837837219, 0.1533920019865036, 0.2614799439907074, 0.13194109499454498, -0.3529553711414337, -0.1782202124595642, -0.031927913427352905, 0.15742705762386322, 0.06011800467967987, -0.03499041870236397, -0.16863514482975006, 0.02637138031423092, 0.22612175345420837, 0.006841206457465887, -0.13299673795700073, 0.1660091131925583, -0.13649940490722656, 0.3066263496875763, 0.1700776070356369, 0.21861837804317474, 0.24414579570293427, 0.11368686705827713, 0.028889821842312813, 0.19762085378170013, 0.12417922168970108, 0.0067836749367415905, 0.1291508823633194, 0.07341481745243073, 0.05050954595208168, -0.1284462958574295, 0.10379862785339355, -0.2231484353542328, 0.2962137460708618, 0.0628943145275116, 0.010457010008394718, 0.22293078899383545, -0.2893027365207672, -0.006773213855922222, -0.020224768668413162, -0.16058474779129028, 0.06341853737831116, 0.020690668374300003, 0.0027775419875979424, -0.11486860364675522, 0.19348488748073578, 0.12106658518314362, 0.2544699013233185, -0.01006604079157114, -0.13168640434741974, 0.13881540298461914, 0.1697281450033188, 0.12729571759700775, 0.07704675942659378, 0.2529551386833191, 0.20550081133842468, -0.039326537400484085, -0.14134502410888672, -0.05678639933466911, -0.005930839106440544, 0.045162737369537354, -0.0559382438659668, -0.12127730250358582, 0.2358652800321579, -0.09407304972410202, -0.19517257809638977, -0.20428185164928436, 0.042459193617105484, 0.06764882802963257, 0.23939834535121918, 0.05393752083182335, -0.17144794762134552, -0.2823898494243622, -0.18001912534236908, -0.08092764765024185, 0.2057860642671585, 0.08891036361455917, -0.2944524884223938, -0.039804358035326004, -0.17412835359573364, -0.22192157804965973, -0.14466549456119537, 0.0491451621055603, 0.10617626458406448, -0.15374472737312317, 0.09168242663145065, -0.05788238346576691, -0.3566904366016388, -0.24392908811569214, 0.018386630341410637, -0.33709120750427246, -0.3567502498626709, 0.13370686769485474, 0.3494535982608795, 0.19234958291053772, -0.0030670519918203354, 0.011634820140898228, -0.23993466794490814, 0.14005999267101288, -0.26941967010498047, -0.13182175159454346, 0.054189957678318024, -0.07695858925580978, 0.10828766971826553, -0.035996004939079285, 0.03288666903972626, -0.03577936813235283, 0.18724796175956726, -0.5009893774986267, -0.06487920135259628, -0.6661013960838318, 0.2926458418369293, -0.03823433443903923, -0.567990779876709, 0.036421749740839005, 0.07780416309833527, 0.2930490970611572, -0.11415477842092514, -0.2969556748867035, 0.00017919647507369518, 0.4473458528518677, 0.29708266258239746, 0.032679468393325806, 0.08737065643072128, -0.23440000414848328, 0.23603291809558868, 0.24613834917545319, 0.16865937411785126, -0.2075883448123932, 0.23549290001392365, -0.24456188082695007, 0.33993151783943176, -0.2980889081954956, -0.14024892449378967, 0.0026284963823854923, 0.34602972865104675, 0.1338728815317154, -0.1546754539012909, 0.07014063000679016, 0.22005058825016022, -0.3132627308368683, 0.08641274273395538, 0.4518224596977234, -0.5440042614936829, -0.1398594230413437, 0.02597273699939251, 0.032864853739738464, -0.20899593830108643, 0.14162702858448029, -0.44934552907943726, -0.2686789333820343, 0.012456378899514675, -0.1743556410074234, -0.09754970669746399, 0.26642894744873047, 0.18296626210212708, -0.006592034362256527, 0.057778820395469666, -0.044732943177223206, 0.056433647871017456, 0.051257889717817307, -0.09106568247079849, 0.02927531488239765, -0.06453131884336472, 0.08431023359298706, -0.020549295470118523, 0.09279277175664902, -0.17048250138759613, -0.4617961049079895, -0.08378956466913223, 0.46953460574150085, -0.4293932318687439, -0.4357087016105652, -0.5323020219802856, 0.23392917215824127, -0.4647214114665985, -0.35767292976379395, 0.5766514539718628, 0.21395288407802582, 0.21140849590301514, 0.11493115872144699, -0.00832134298980236, -0.6238766312599182, -0.6570010185241699, -0.5260501503944397, 0.17696455121040344, -0.1566569209098816, 0.5159298777580261, -0.6285018920898438, -0.5276824235916138, 0.4160439670085907, -0.48022353649139404, 0.3744406998157501, 0.075843945145607, -0.644193708896637, 0.7226832509040833, -0.10130713135004044, -0.18117555975914001, -0.39134901762008667, -0.5424218773841858, 0.18464957177639008, -0.5494322776794434, 0.23975451290607452, -0.21795088052749634, 0.16319027543067932, -0.12762896716594696, 0.08960212022066116, -0.04796721041202545, 0.16610783338546753, -0.2865447998046875, -0.4209873080253601, 0.08217839896678925, -0.5378957390785217, -0.4902793765068054, -0.4123842120170593, -0.21702925860881805, -0.014897446148097515, 0.3316788971424103, 0.18837738037109375, 0.15894284844398499, 0.23784418404102325, 0.20081061124801636, -0.39269834756851196, -0.11650557070970535, -0.2576485574245453, -0.0800526812672615, 0.2963617444038391, -0.2715664803981781, -0.1717204749584198, -0.21699844300746918, -0.3069208860397339, 0.1031733974814415, 0.3532599210739136, 0.2621900141239166, -0.02118155173957348, 0.09499981999397278, -0.016809210181236267, -0.4358372390270233, 0.268755167722702, -0.0903826504945755, -0.18805351853370667, -0.14691326022148132, -0.2634901702404022, -0.37870416045188904, 0.07943398505449295, 0.30713722109794617, 0.33691853284835815, -0.37154421210289, 0.14579670131206512, -0.24142615497112274, -0.27572858333587646, -0.24242612719535828, -0.304734468460083, -0.1318933516740799, -0.012626306153833866, 0.013109466060996056, 0.03626739978790283, 0.08732978254556656, 0.1867942214012146, 0.04479469358921051, 0.19445566833019257, -0.285449743270874, 0.028581013903021812, 0.27738869190216064, -0.17574124038219452, -0.24146263301372528, 0.2334129512310028, -0.18726687133312225, -0.011667309328913689, -0.059302013367414474, 0.13933365046977997, 0.20859940350055695, 0.5091848969459534, 0.06227399781346321, -0.35770273208618164, 0.09082509577274323, -0.10230768471956253, 0.4552289843559265, -0.00463829655200243, 0.10211958736181259, -0.11855366080999374, 0.06013677641749382, 0.19181455671787262, -0.020601283758878708, -0.12793199717998505, -0.3227963447570801, -0.4954468309879303, 0.10453063994646072, -0.13575273752212524, -0.03448230028152466, 0.19378021359443665, -0.02466592751443386, 0.338836669921875, 0.27053970098495483, -0.05554930865764618, -0.2038143128156662, 0.15206116437911987, -0.2543802559375763, 0.8322593569755554, -0.10816965997219086, 0.04575737565755844, -0.11145772784948349, 0.2020430713891983, 0.22178874909877777, 0.12284214794635773, -0.3855639696121216, 0.0320921465754509, 0.04787786677479744, -0.14322733879089355, 0.37189897894859314, -0.3307183086872101, -0.20425881445407867, 0.26735374331474304, -0.24863417446613312, -0.3250610828399658, -0.2042461782693863, -0.2053833156824112, -0.2596737742424011, 0.26666319370269775, -0.010934092104434967, -0.15597476065158844, 0.15243355929851532, -0.12198936939239502, 0.21079802513122559, -0.14438770711421967, 0.7108659148216248, 0.04418371617794037, -0.3610946834087372, 0.12683820724487305, 0.1899663656949997, -0.09026746451854706, 0.1436569094657898, -0.22207190096378326, -0.36081844568252563, 0.12235181778669357, 0.29208096861839294, -0.02636604569852352, -0.209649458527565, -0.2319018542766571, -0.1337539404630661, 0.051963161677122116, 0.49340325593948364, 0.3507547676563263, -0.15831860899925232, 0.2332959771156311, 0.35437917709350586, 0.38782811164855957, -0.18982821702957153, 0.04992246255278587, 0.14087870717048645, -0.36624106764793396, 0.34834474325180054, 0.7054254412651062, -0.1402420997619629, -0.009385430254042149, 0.4331001341342926, 0.09385014325380325, -0.032428715378046036, -0.09025423228740692, 0.03925061598420143, 0.2282314896583557, -0.2545923590660095, -0.30427324771881104, -0.16725729405879974, 0.2675403952598572, -0.09279946237802505, 0.09506743401288986, -0.002046229550614953, -0.5114063620567322, 0.16428881883621216, 0.11112485080957413, 0.21145056188106537, 0.06240200623869896, -0.06859071552753448, -0.12557552754878998, -0.04967885836958885, 0.43648847937583923, 0.03331044316291809, 0.5006244778633118, -0.20060154795646667, -0.1452006846666336, -0.07854680716991425, 0.7238020896911621, -0.1261897087097168, -0.4505932629108429, -0.21658003330230713, -0.1389659196138382, -0.4742891788482666, 0.21840813755989075, 0.08048482984304428, -0.25157755613327026, 0.06652357429265976, 0.060817569494247437, -0.26322126388549805, -0.4091256260871887, 0.19655418395996094, -0.08662774413824081, 0.38644522428512573, -0.3722884953022003, -0.18799342215061188, -0.0021091268863528967, -0.07602141797542572, 0.2662993371486664, 0.3550434708595276, 0.10066161304712296, -0.360285222530365, 0.3504217863082886, 0.30476322770118713, -0.11792436242103577, -0.018037991598248482, -0.02986046113073826, 0.22467054426670074, -0.10045482963323593, 0.5107051134109497, 0.03976801037788391, -0.0013812294928357005, -0.09015044569969177, -0.14389771223068237, -0.2489916980266571, -0.13956882059574127, -0.12966832518577576, 0.1486252397298813, 0.19851461052894592, 0.4329967498779297, -0.2395484298467636, 0.051982562988996506, -0.5501279830932617, 0.28327104449272156, 0.06815758347511292, 0.10833000391721725, -0.40238404273986816, -0.28606197237968445, -0.3008730709552765, -0.042131856083869934, 0.22039015591144562, 0.08920043706893921, -0.21036051213741302, -0.145353302359581, 0.012560185976326466, -0.2799499034881592, -0.22963537275791168, 0.1450764387845993, -0.46222740411758423, 0.20859651267528534, 0.17563776671886444, 0.3322755992412567, -0.1513688862323761, 0.051260072737932205, -0.09690678119659424, -0.2502064108848572, 0.16188296675682068, -0.06797302514314651, -0.46465566754341125, -0.6562222242355347, -0.23131953179836273, -0.28219670057296753, 0.0668163001537323, -0.05872296169400215, 0.06270677596330643, -0.043498117476701736, -0.20185883343219757, 0.12458735704421997, -0.2416469007730484, 0.14191117882728577, 0.07258758693933487, 0.0030419027898460627, 0.076096311211586, 0.38377490639686584, 0.2878672480583191, -0.0835786834359169, -0.0013258252292871475, -0.07385673373937607, 0.22633539140224457, 0.10554154962301254, 0.21810175478458405, -0.015495723113417625, -0.2070944458246231, 0.07074486464262009, 0.14488060772418976, 0.2129679024219513, 0.07842524349689484, 0.09896856546401978, 0.12284474819898605, -0.056645236909389496, 0.1410813182592392, 0.1406192034482956, 0.0756634771823883, 0.964497447013855, -0.417453795671463, 0.6001595258712769, 0.5141881704330444, -0.4958258867263794, -0.49474036693573, -0.2728309631347656, -0.4471987187862396, 0.4993414580821991, 0.15752582252025604, 0.07346837967634201, -0.4093291759490967, 0.02437002584338188, 0.687457263469696, -0.2558330297470093, 0.6328745484352112, 0.2133631706237793, -0.759896457195282, -0.055912118405103683, -0.2581000030040741, -0.2739279866218567, 0.07284338772296906, -0.2750680446624756, 0.31162014603614807, 0.23005463182926178, 0.13757328689098358, -0.06401870399713516, 0.6425889730453491, 0.38190051913261414, 0.03133002296090126, 0.5121164321899414, 0.4068564176559448, -0.04920297861099243, 0.5491654276847839, -0.8577408790588379, -0.2678881287574768, 0.7688432335853577, -0.08096940815448761, 0.0748663991689682, 0.00644082622602582, -0.4620674252510071, 0.11868179589509964, 0.6596226692199707, -0.3027735948562622, -0.18127943575382233, -1.0245532989501953, 0.364595890045166, -0.49650782346725464, -0.41375604271888733, 0.37685078382492065, -0.29779258370399475, 0.38906344771385193, -0.2902982532978058, 0.01996607333421707, 0.1160362958908081, 0.18472307920455933, 0.434896320104599, 0.4281434416770935, -0.31629055738449097, 0.2986105978488922, 0.05779864266514778, 0.005302532576024532, 0.07861373573541641, -0.18379953503608704, 0.22970658540725708, -0.664613664150238, -0.5528654456138611, -0.5641142129898071, 0.08510686457157135, -0.37410950660705566, -0.21517665684223175, 0.38356056809425354, -0.1289415806531906, -0.48349452018737793, -0.027656234800815582, -0.4345499873161316, 0.05063209682703018, 0.3608490228652954, 0.18973499536514282, -0.33732351660728455, 0.4955621659755707, 0.4466819763183594, -0.3761160373687744, 0.2540038824081421, 0.16208738088607788, -0.45360568165779114, -0.39200523495674133, -0.5879808664321899, 0.22478215396404266, 0.0969759151339531, 0.1921229064464569, -0.2776596248149872, 0.4427679777145386, -0.09590938687324524, -0.5933579206466675, -0.24617600440979004, 0.3929268419742584, -0.08472496271133423, -0.2795340418815613, -0.506497859954834, -0.7784245610237122, 0.2730276584625244, -0.3006575405597687, 0.6412818431854248, -0.30631518363952637, 0.06370163708925247, -0.5274961590766907, -0.20359522104263306, 0.3221761882305145, -0.5436683297157288, 0.2484615445137024, -0.3873828947544098, 0.06869398057460785, -0.37100303173065186, -0.48364004492759705, -0.6006596684455872, -0.4030887484550476, 0.027671677991747856, -0.4878990948200226, 0.2414243370294571, 0.5853135585784912, 0.7394220232963562, 0.6600690484046936, 0.3595776855945587, -0.2472711056470871, -0.0627095103263855, 0.5988588929176331, 0.02569054812192917, -0.6184382438659668, 0.5289696455001831, -0.4681115746498108, 0.49200236797332764, 0.3557504713535309, -0.48684975504875183, -0.5559583902359009, 0.4078875482082367, 0.49323293566703796, 0.034893061965703964, -0.2992177903652191, 0.9139010906219482, 0.017679568380117416, 0.5837178826332092, 0.5675430297851562, 0.6008238196372986, 0.025907212868332863, 0.23692908883094788, -0.5337150692939758, -0.2770985960960388, -0.06336414813995361, 0.09240007400512695, 0.03319450467824936, -0.19443532824516296, -0.082564577460289, -0.2131326049566269, 0.3732561469078064, -0.23626303672790527, -0.772031843662262, 0.058398425579071045, -0.2176307588815689, -0.6230464577674866, -0.4090496599674225, 0.47833874821662903, -0.6703366041183472, 0.01124788261950016, 0.6638851165771484, 0.011978437192738056, -0.34228742122650146, -0.5472282767295837, 0.10686331987380981, -0.006648659706115723, 0.16725288331508636, 0.2524639070034027, 0.18431909382343292, 0.6668802499771118, -0.31816965341567993, -0.05909347161650658, -0.37464213371276855, 0.3157602548599243, -0.36683472990989685, 0.042279202491045, -0.17260801792144775, 0.3485475182533264, -0.24238036572933197, -0.27341657876968384, 0.04981967806816101, -0.416509211063385, 0.16695605218410492, -0.1492815911769867, 0.20641818642616272, 0.3673844337463379, 0.2594999670982361, -0.1513228565454483, 0.2189704179763794, -0.13835960626602173, -0.5657663345336914, -0.041437603533267975, -0.40144604444503784, -0.4046388566493988, 0.06828650087118149, 0.35647258162498474, -0.2273024171590805, -0.09902464598417282, -0.3233465254306793, 0.08098527044057846, 0.13834954798221588, 0.0018157490994781256, 0.4559212327003479, -0.4376439154148102, -0.10732628405094147, -0.37235456705093384, 0.43401899933815, 0.46960902214050293, 0.5895711183547974, 0.5275747776031494, 0.14807327091693878, -0.3868491053581238, -0.3574080467224121, 0.10255836695432663, -0.46623870730400085, 0.38763293623924255, 0.29039809107780457, 0.2892913818359375, -0.4394385814666748, 0.3869970738887787, -0.07744662463665009, -0.3983475863933563, 0.31429779529571533, -0.11358854919672012, -0.3069806396961212, 0.08451079577207565, -0.36657267808914185, 0.8670085668563843, 0.2831721603870392, 0.2907247245311737, 0.28385820984840393, -0.44674229621887207, -0.2912660539150238, -0.5949063301086426, -0.593082070350647, -0.26881444454193115, 0.32999637722969055, 0.3255905210971832, 0.25187942385673523, -0.22908751666545868, 0.37045592069625854, -0.09679552912712097, -0.14873765408992767, 0.30400487780570984, 0.3891899287700653, -0.36292487382888794, 0.5112048983573914, -0.025889694690704346, 0.22229860723018646, -0.550543487071991, 0.16878682374954224, -0.18455716967582703, 0.007016294170171022, 0.28427186608314514, -0.10318159312009811, -0.08931266516447067, -0.016114147379994392, -0.33879315853118896, -0.22681115567684174, -0.9798890352249146, -0.2832249104976654, -0.13985517621040344, -0.5284557938575745, -0.2513996958732605, -0.31344547867774963, -0.92299485206604, 0.14133600890636444, 0.19555097818374634, 0.059443965554237366, 0.2906566858291626, 0.9906858801841736, 0.6488200426101685, 0.020784279331564903, -0.28094640374183655, 0.8741240501403809, 0.21445325016975403, 0.3650108277797699, 0.19625447690486908, 0.12177302688360214, 0.052822671830654144, 0.8684322834014893, -0.34873872995376587, 0.05134865269064903, -0.38223856687545776, -0.05390867590904236, 0.21362878382205963, -0.19035501778125763, 0.02201477251946926, 0.17158058285713196, -0.5673440098762512, -0.0049416301771998405, 0.25799697637557983, 0.12874001264572144, -0.15829189121723175, -0.3681652843952179, 0.22368285059928894, -0.5670233964920044, -0.10339383035898209, -0.5689420104026794, 0.40300190448760986, 0.31139788031578064, -0.03930278867483139, -0.3323238492012024, -0.5998671650886536, 0.09835129976272583, -0.14339280128479004, 0.18630897998809814, 0.28325116634368896, -0.21104660630226135, -0.30909404158592224, 0.4441693127155304, -0.2409183233976364, 0.059620197862386703, 0.08776290714740753, -0.29283836483955383, 0.19105485081672668, 0.29900890588760376, -0.06472533196210861, -0.6897079944610596, 0.17745891213417053, -0.7108176946640015, -0.3105866014957428, -0.0030320154037326574, 0.39138635993003845, -0.016743460670113564, 0.282488077878952, 0.01326698437333107, -0.485208123922348, 0.15422101318836212, -0.20181120932102203, -0.14112922549247742, 0.062207821756601334, 0.530855119228363, 0.05506618320941925, 0.008810709230601788, 0.18165867030620575, -0.21743923425674438, 0.3071657419204712, -0.08481554687023163, 0.5463377833366394, 1.1095608472824097, 0.6654965281486511, 0.3018765449523926, -0.36185163259506226, -0.347258985042572, 0.2642636299133301, -0.049974050372838974, 0.22184525430202484, 0.3503475487232208, -0.12640951573848724, -0.07841281592845917, -0.2247898131608963, 0.10875575244426727, -0.0666339322924614, -0.006192643661051989, 0.18779221177101135, -0.06549172103404999, -0.23076561093330383, 0.10829121619462967, -0.014299537986516953, 0.046286359429359436, 0.28425833582878113, -0.17724645137786865, -0.16740064322948456, 0.34768664836883545, -0.005420961882919073, 0.12730751931667328, -0.14448529481887817, -0.1955648511648178, -0.1985122561454773, 0.3242383301258087, -0.1621946543455124, 0.02769908681511879, -0.0025098277255892754, -0.09361553937196732, -0.20412108302116394, -0.11985739320516586, -0.17127712070941925, -0.11223846673965454, 0.3123721778392792, 0.10234565287828445, 0.24197612702846527, -0.2359304130077362, 0.16726192831993103, 0.10528476536273956, -0.38790714740753174, 0.07737348228693008, -0.0378120020031929, -0.2683045268058777, 0.06483718752861023, 0.10018999874591827, -0.2368977963924408, -0.09667254984378815, -0.08954337239265442, -0.0006190091953612864, -0.02627917379140854, 0.3258534073829651, -0.12960481643676758, 0.0073520727455616, -0.31039807200431824, -0.11227210611104965, 0.06929290294647217, 0.24550125002861023, 0.00477337883785367, -0.0741087794303894, -0.08718762546777725, 0.11420627683401108, 0.05126830190420151, -0.10599243640899658, -0.15892186760902405, -0.13350215554237366, -0.10120108723640442, -0.019534612074494362, 0.07956721633672714, 0.009341456927359104, 0.007949966937303543, -0.08039913326501846, 0.006152530200779438, -0.09797210991382599, -0.33503761887550354, 0.3949960172176361, 0.1261746883392334, -0.03948218747973442, -0.07570143789052963, -0.23407022655010223, 0.026568865403532982, -0.039858222007751465, -0.028395339846611023, -0.14274932444095612, -0.049403052777051926, -0.015013382770121098, -0.010283603332936764, -0.4609532058238983, 0.07158560305833817, 0.15521591901779175, 0.24115484952926636, 0.0010106905829161406, 0.09155082702636719, 0.08927502483129501, -0.027665914967656136, 0.06629893183708191, -0.027383504435420036, 0.16363373398780823, -0.2205936461687088, -0.0374370776116848, 0.1927061676979065, 0.04671292006969452, 0.4087543785572052, -0.3700335919857025, 0.2600296139717102, -0.1701812446117401, -0.1405121237039566, 0.23709407448768616, -0.0986488088965416, -0.13301368057727814, 0.045623764395713806, -0.1347810924053192, 0.4129267632961273, 0.44854918122291565, -0.22629417479038239, -0.14816732704639435, 0.12367404252290726, 0.11626243591308594, -0.2009105682373047, 0.42420151829719543, -0.24867713451385498, -0.28850242495536804, 0.15808312594890594, -0.5555059313774109, 0.36494317650794983, 0.20185691118240356, 0.10967272520065308, -0.16047631204128265, 0.24263307452201843, 0.35834088921546936, -0.5303006768226624, -0.30334994196891785, 0.24278458952903748, 0.14511264860630035, -0.32415956258773804, 0.3550804853439331, -0.0029639513231813908, 0.07458404451608658, -0.17940694093704224, 0.023456504568457603, -0.31047162413597107, 0.05020901933312416, 0.251079797744751, -0.013823560439050198, 0.08661749213933945, -0.057635657489299774, 0.07692469656467438, 0.20338603854179382, -0.599827229976654, -0.02351556532084942, 0.07482435554265976, -0.060805365443229675, -0.09969215840101242, -0.19576570391654968, 0.21414852142333984, -0.023541226983070374, -0.19443507492542267, 0.25534042716026306, -0.1042255088686943, -0.059128206223249435, 0.435879111289978, -0.2541496157646179, -0.1769866645336151, 0.28594470024108887, -0.09622284024953842, 0.09479270875453949, -0.07366565614938736, -0.27394381165504456, -0.22189386188983917, 0.4886809289455414, -0.03377685695886612, -0.17969900369644165, 0.3598847985267639, 0.06617575883865356, -0.05138596147298813, 0.10326474159955978, -0.08007247745990753, -0.026240898296236992, -0.2358500063419342, 0.020961301401257515, 0.36867496371269226, -0.33557772636413574, 0.21288910508155823, 0.31625983119010925, -0.32199105620384216, -0.10949768126010895, -0.08796028792858124, 0.2092883437871933, 0.3173353374004364, 0.19727462530136108, -0.6044020056724548, -0.23081658780574799, -0.07302593439817429, 0.27652475237846375, 0.02235092595219612, 0.3388011157512665, 0.019727488979697227, 0.18941368162631989, -0.27317532896995544, -0.24235598742961884, -0.1343051642179489, 0.0758872777223587, -0.10877931863069534, 0.00490859430283308, 0.013287452049553394, 0.15957437455654144, -0.44867077469825745, -0.024915121495723724, -0.36365047097206116, 0.15936687588691711, -0.1012413501739502, 0.0996953472495079, 0.09447715431451797, -0.053900279104709625, -0.10418811440467834, 0.2032013237476349, -0.10585986077785492, 0.06508080661296844, 0.08297106623649597, 0.5250677466392517, 0.014222570694983006, 0.0736314207315445, -0.37254300713539124, -0.10201013088226318, -0.24487535655498505, -0.2928963303565979, -0.08901776373386383, -0.23052778840065002, 0.2309301644563675, -0.09699548035860062, 0.10615024715662003, 0.25428149104118347, 0.18470318615436554, 0.31181982159614563, -0.03382878750562668, -0.0550539530813694, -0.24197228252887726, 0.20735107362270355, 0.004437520634382963, 0.06151880696415901, 0.012872927822172642, -0.11606161296367645, -0.13202661275863647, 0.49814918637275696, -0.07771507650613785, 0.24444374442100525, 0.15695007145404816, 0.2947982847690582, -0.08287911862134933, 0.17588138580322266, 0.22815677523612976, -0.37036019563674927, -0.1075996533036232, -0.09154863655567169, -0.028210032731294632, -0.2514902949333191, -0.41349998116493225, 0.05671951174736023, 0.1785978078842163, -0.01042113546282053, 0.0232586357742548, -0.07407360523939133, 0.24034228920936584, 0.24645283818244934, -0.019096123054623604, -0.035423215478658676, -0.33807265758514404, 0.16779085993766785, 0.025608625262975693, 0.09983717650175095, -0.070332370698452, 0.19203706085681915, 0.3012998402118683, 0.06613661348819733, 0.24929176270961761, 0.10339456796646118, 0.2714504301548004, 0.08345001190900803, -0.15249571204185486, -0.2931595742702484, 0.2870349586009979, -0.27708420157432556, 0.452157199382782, -0.15364013612270355, 0.36525818705558777, 0.13339346647262573, 0.009166841395199299, -0.24955736100673676, 0.2435540109872818, 0.014938737265765667, 0.5125656723976135, 0.10943786799907684, -0.4087701439857483, 0.016630036756396294, -0.3238374888896942, 0.08995037525892258, -0.1085439994931221, 0.008227179758250713, 0.13413314521312714, -0.2290068119764328, 0.16858302056789398, 0.22107185423374176, -0.18790192902088165, 0.056872837245464325, 0.2649170160293579, -0.2167658656835556, -0.26388004422187805, 0.16583336889743805, -0.1659153550863266, -0.43999508023262024, -0.0006134756258688867, -0.4961523711681366, -0.16189970076084137, -0.17008832097053528, -0.29127374291419983, -0.06359472125768661, -0.6567246913909912, -0.17676818370819092, -0.11181384325027466, 0.07735743373632431, 0.2879975736141205, -0.1729651242494583, 0.22008982300758362, 0.3491097688674927, 0.05588347837328911, -0.113570936024189, 0.4003046751022339, -0.012797225266695023, 0.05025588348507881, -0.5354325175285339, -0.016720060259103775, 0.11346536874771118, 0.47940364480018616, 0.24106916785240173, -0.4670339822769165, -0.5695761442184448, -0.3147048354148865, 0.08078204840421677, -0.18303042650222778, 0.18275827169418335, 0.03798501193523407, 0.025508102029561996, -0.015307367779314518, 0.0624600313603878, 0.13784243166446686, -0.28690269589424133, -0.08747446537017822, -0.011567757464945316, -0.07556767761707306, -0.02107725851237774, 0.11246459931135178, -0.01898987963795662, -0.15012198686599731, -0.041677430272102356, -0.33014965057373047, -0.031062625348567963, 0.3047228753566742, 0.2115846574306488, -0.03495393693447113, -0.06498492509126663, -0.4463229179382324, 0.04233855381608009, -0.17237137258052826, -0.12260362505912781, 0.26544225215911865, 0.18078476190567017, 0.01999831013381481, 0.06552278995513916, 0.24672065675258636, -0.28976598381996155, -0.08733028173446655, 0.0612354502081871, 0.3557048738002777, -0.23412944376468658, 0.2184014916419983, 0.6395742893218994, -0.2123688906431198, -0.3356649577617645, -0.39975428581237793, 0.1658305823802948, -0.1691310703754425, 0.06441810727119446, -0.012001531198620796, 0.4335874319076538, 0.10101845115423203, 0.05784529447555542, 0.30062657594680786, 0.022326793521642685, -0.24926058948040009, 0.12592767179012299, 0.16979074478149414, 0.039517007768154144, -0.08108337223529816, 0.1742285043001175, -0.06806087493896484, -0.11176276952028275, 0.09760619699954987, 0.23696792125701904, -0.07987680286169052, 0.21205511689186096, -0.021646851673722267, -0.025103097781538963, 0.11424174904823303, 0.12241138517856598, -0.012148602865636349, 0.18321432173252106, -0.06689497828483582, 0.09788694232702255, 0.11528269946575165, 0.1884075403213501, 0.3840963840484619, 0.11542870104312897, -0.3352487087249756, -0.2774502635002136, 0.2991766333580017, 