{"version": "0.5.1", "metadata": {"date": {"year": 2023, "month": 6, "day": 12, "hour": 1, "minute": 10, "second": 4}, "loudness": -14.363414764404297, "gain": 0.5291809139549877, "name": null, "modeled_by": null, "gear_type": null, "gear_make": null, "gear_model": null, "tone_type": null}, "architecture": "WaveNet", "config": {"layers": [{"input_size": 1, "condition_size": 1, "head_size": 8, "channels": 16, "kernel_size": 3, "dilations": [1, 2, 4, 8, 16, 32, 64, 128, 256, 512], "activation": "Tanh", "gated": false, "head_bias": false}, {"input_size": 16, "condition_size": 1, "head_size": 1, "channels": 8, "kernel_size": 3, "dilations": [1, 2, 4, 8, 16, 32, 64, 128, 256, 512], "activation": "Tanh", "gated": false, "head_bias": true}], "head": null, "head_scale": 0.02}, "weights": [0.01017139945179224, 0.6097790598869324, -0.4878593981266022, -0.7682301998138428, -0.29565128684043884, 0.030986903235316277, 0.010965116322040558, 0.7537270188331604, -0.0080951526761055, 0.16998451948165894, -0.108150914311409, -0.202621728181839, -0.9443374276161194, -0.6462948322296143, -0.2880520820617676, 0.035119276493787766, 0.19915834069252014, 0.19585102796554565, -0.004783091135323048, -0.16026930510997772, -0.047237154096364975, 0.17635641992092133, 0.06513496488332748, 0.20074103772640228, -0.07579229772090912, 0.11388859897851944, 0.22767017781734467, -0.19338886439800262, 0.0033243349753320217, 0.056986622512340546, -0.11356788128614426, 0.030451243743300438, -0.17157034575939178, 0.003873269772157073, -0.02710084617137909, -0.0640232115983963, -0.0389774888753891, 0.025917349383234978, -0.03219863399863243, 0.12932203710079193, 0.11443345993757248, 0.018076803535223007, -0.027857625856995583, -0.22676922380924225, -0.18514393270015717, 0.0009378701797686517, 0.18116718530654907, 0.16609427332878113, -0.13143706321716309, 0.0854293555021286, 0.17794311046600342, 0.07169775664806366, 0.1572449654340744, 0.11765134334564209, 0.03816504403948784, 0.01468898169696331, 0.1233447939157486, -0.17114245891571045, -0.00555302994325757, 0.02180296555161476, 0.012841884978115559, 0.046639926731586456, -0.15797388553619385, -0.035574231296777725, -0.013173215091228485, 0.04046652466058731, -0.17145828902721405, 0.1416427493095398, -0.052250396460294724, 0.21413129568099976, -0.2118907868862152, 0.07681168615818024, -0.02090805396437645, 0.010327963158488274, 0.26361823081970215, 0.049633439630270004, -0.0763724148273468, 0.018492113798856735, -0.05963251739740372, 0.017387298867106438, -0.2603425979614258, 0.2067909985780716, 0.03351260721683502, 0.012541092932224274, 0.007710345555096865, 0.07665116339921951, -0.15740855038166046, 0.010334399528801441, -0.060811109840869904, 0.053453557193279266, -0.04289514571428299, 0.17741619050502777, -0.021695032715797424, 0.13735079765319824, -0.2428136020898819, 0.025388898327946663, -0.013760716654360294, -0.07641784846782684, 0.016605958342552185, -0.16333995759487152, 0.02884715236723423, 0.2357436865568161, -0.13899773359298706, -0.14195998013019562, -0.000663254177197814, -0.07975888252258301, -0.21851520240306854, 0.03072904795408249, -0.08561689406633377, -0.16248051822185516, -0.04011945426464081, -0.12020251154899597, 0.04149769991636276, 0.04823404550552368, 0.13428698480129242, -0.15234792232513428, 0.10380597412586212, -0.10994557291269302, 0.04659346491098404, -0.09992363303899765, 0.16418398916721344, 0.03737057372927666, -0.20831376314163208, 0.1863785684108734, -0.1030827984213829, -0.21682168543338776, 0.08163928985595703, -0.11014892905950546, 0.056613754481077194, -0.2545509934425354, 0.05277802422642708, -0.10826730728149414, -0.05951941758394241, -0.0343041755259037, 0.2380855232477188, -0.1324150115251541, 0.07572274655103683, -0.10247207432985306, 0.17815837264060974, 0.0531795509159565, 0.25277239084243774, -0.04295571520924568, 0.1745755970478058, -0.12414781004190445, -0.0028198049403727055, -0.02681000530719757, -0.025378840044140816, 0.1301369071006775, -0.045218225568532944, -0.24866263568401337, -0.01820477470755577, -0.09266895055770874, -0.16451145708560944, 0.19741898775100708, 0.11316850781440735, -0.2719498574733734, 0.2054692506790161, -0.026773467659950256, -0.01602839305996895, 0.015207922086119652, 0.01931033283472061, 0.035551201552152634, -0.1343780755996704, -0.23298943042755127, -0.13000378012657166, 0.13440409302711487, 0.03747689351439476, 0.15467952191829681, -0.2596546709537506, 0.10048208385705948, 0.23333533108234406, -0.1932269036769867, 0.2322162389755249, 0.14994630217552185, -0.26855599880218506, 0.0020252761896699667, -0.09759002923965454, 0.0847318023443222, 0.08564592897891998, -0.11558784544467926, -0.0804980918765068, -0.13890990614891052, -0.002354823052883148, 0.17466917634010315, 0.1471971571445465, 0.12204030156135559, -0.18209239840507507, -0.12758053839206696, -0.20684951543807983, 0.22877457737922668, 0.2043570578098297, 0.18460223078727722, -0.24512600898742676, 0.10678137093782425, -0.008888445794582367, -0.22792953252792358, 0.026710739359259605, 0.15677009522914886, -0.2192773073911667, 0.10548085719347, 0.110209159553051, -0.04235652834177017, -0.008343194611370564, 0.0004681129357777536, -0.2170029878616333, 0.1590317189693451, -0.02118709869682789, 0.1078081727027893, 0.048411089926958084, -0.0430804081261158, 0.008200767450034618, -0.10679420083761215, 0.11567270010709763, -0.059194840490818024, 0.07724858075380325, -0.06792093068361282, -0.08005031198263168, 0.005382481496781111, 0.02375797927379608, -0.0863259881734848, 0.061675768345594406, 0.04635630548000336, 0.07624632120132446, -0.0626489520072937, -0.05596831068396568, 0.03658794239163399, -0.06467655301094055, -0.09693493694067001, -0.06652926653623581, -0.09997374564409256, 0.09210067987442017, 0.08692017942667007, 0.06965986639261246, 0.04687471687793732, 0.11718398332595825, -0.166082963347435, 0.146318718791008, -0.13839009404182434, 0.01058890949934721, -0.03389314189553261, 0.08553362637758255, 0.17903900146484375, -0.13853174448013306, 0.02527947537600994, 0.15500521659851074, -0.231954425573349, 0.13590455055236816, -0.040307894349098206, -0.08979696780443192, 0.006583308335393667, -0.001277394127100706, -0.07777270674705505, 0.14461000263690948, 0.016338547691702843, -0.07624094933271408, -0.051108382642269135, -0.05032855272293091, 0.028434017673134804, -0.010846906341612339, -0.050951506942510605, 0.04718826711177826, 0.04608481004834175, 0.0287155918776989, -0.015729157254099846, 0.08199787884950638, -0.09533028304576874, -0.16967996954917908, 0.08055875450372696, 0.0796544998884201, -0.08456367999315262, -0.029513230547308922, -0.03874295949935913, -0.033710893243551254, -0.032999712973833084, -0.0506894588470459, -0.20267470180988312, 0.19817794859409332, -0.04584558680653572, 0.1106983944773674, 0.0028103250078856945, 0.006970049347728491, -0.17474129796028137, -0.03538155183196068, 0.1506267488002777, 0.1354895383119583, 0.0641290470957756, -0.08149277418851852, -0.06680728495121002, 0.01883334293961525, -0.0395558699965477, -0.20541095733642578, 0.10201557725667953, -0.0029709236696362495, -0.13265497982501984, 0.004637685604393482, -0.1350526213645935, -0.027638064697384834, -0.06893400102853775, 0.019536932930350304, -0.1717803180217743, -0.03319498896598816, -0.008854525163769722, -0.16073378920555115, -0.022243527695536613, 0.07634387165307999, -0.19007045030593872, 0.03744678944349289, 0.15927308797836304, 0.21908313035964966, -0.09860608726739883, -0.21615831553936005, -0.1793876439332962, 0.12156090140342712, -0.15235476195812225, -0.10562911629676819, 0.17809730768203735, -0.16681551933288574, -0.15222391486167908, 0.14236974716186523, 0.08511022478342056, 0.13811442255973816, -0.08947308361530304, -0.1206798106431961, -0.12722505629062653, 0.11512324959039688, 0.22890327870845795, 0.24239800870418549, -0.06253430992364883, 0.020286759361624718, -0.1768805980682373, -0.00305594177916646, -0.04027668386697769, 0.28153541684150696, -0.009509697556495667, -0.17922720313072205, -0.07940007001161575, 0.2018720954656601, 0.05963042378425598, -0.018383780494332314, 0.21068337559700012, -0.1335930973291397, -0.2112177014350891, 0.19951625168323517, -0.017227573320269585, -0.2448352426290512, 0.21192312240600586, -0.021767163649201393, -0.0761115700006485, -0.011393998749554157, -0.005788682959973812, -0.13270312547683716, 0.051344189792871475, -0.03135247156023979, -0.051575999706983566, -0.052289050072431564, 0.06443291902542114, 0.1435679942369461, 0.11531795561313629, -0.10597420483827591, -0.1527358740568161, -0.14055390655994415, -0.1477002650499344, -0.30736279487609863, 0.07110148668289185, 0.0779053345322609, -0.048743557184934616, 0.07619708776473999, -0.1253444105386734, 0.06634805351495743, -0.0038017306942492723, -0.0456044003367424, 0.0010934172896668315, -0.16241231560707092, -0.06377343833446503, 0.051643162965774536, -0.03907912224531174, 0.12123636901378632, -0.04624016210436821, 0.080283023416996, 0.10933836549520493, 0.30027830600738525, -0.013589282520115376, 0.06563205271959305, -0.04038487374782562, 0.02280881255865097, 0.15241210162639618, -0.09814614802598953, 0.06333453208208084, -0.05853244289755821, -0.12427157163619995, -0.027813630178570747, -0.040491070598363876, -0.27182134985923767, -0.12329861521720886, -0.11243966966867447, -0.09052253514528275, 0.05978035926818848, 0.024683784693479538, -0.07531295716762543, 0.175092875957489, 0.22405880689620972, -0.08806435018777847, -0.023104775696992874, 0.0915134996175766, 0.22402851283550262, -0.14226587116718292, 0.17625711858272552, -0.043933261185884476, -0.024367131292819977, 0.11988131701946259, -0.24508941173553467, 0.011174524202942848, 0.16628970205783844, -0.15179596841335297, -0.06577631831169128, -0.09587389975786209, 0.09546050429344177, -0.0847499892115593, 0.12481541931629181, -0.04191070795059204, -0.003298315452411771, -0.1252850592136383, 0.16598309576511383, 0.03661150112748146, 0.15128113329410553, -0.2536923885345459, 0.05188355594873428, -0.15338076651096344, 0.07936619222164154, 0.000399155484046787, -0.05676579475402832, -0.08316083252429962, 0.16725505888462067, 0.05794045701622963, -0.2434501349925995, 0.0012718893121927977, 0.06819455325603485, -0.2731768786907196, 0.10307198762893677, -0.0918784812092781, -0.2983359098434448, -0.10626835376024246, 0.018674377351999283, -0.05929484963417053, -0.09999936074018478, 0.18196800351142883, -0.11325653642416, 0.08995042741298676, 0.04107268527150154, -0.12137818336486816, 0.17778131365776062, 0.21223926544189453, 0.22356310486793518, -0.0009958597365766764, -0.22676444053649902, 0.04406757280230522, 0.0692383348941803, -0.06888016313314438, -0.19575853645801544, 0.03234304487705231, -0.26818522810935974, -0.127876877784729, 0.10684070736169815, 0.002075241645798087, 0.10773565620183945, -0.015427133068442345, 0.04367757588624954, -0.1043434664607048, -0.031780097633600235, 0.09219000488519669, 0.14243850111961365, 0.06957077980041504, -0.009001236408948898, -0.0579158179461956, 0.15796393156051636, -0.01629328727722168, -0.058706894516944885, -0.02501302771270275, -0.19953249394893646, 0.005393313709646463, -0.017893804237246513, -0.19428467750549316, -0.18272891640663147, 0.17285655438899994, -0.15319423377513885, 0.029530517756938934, 0.16104423999786377, -0.056243669241666794, -0.07390914112329483, 0.029326792806386948, -0.15810850262641907, -0.05464530363678932, 0.1410597711801529, -0.1016872301697731, 0.11980216950178146, -0.044882263988256454, -0.19010528922080994, -0.10364148020744324, 0.042342595756053925, 0.37601667642593384, -0.09096717834472656, 0.0901045948266983, -0.1687833070755005, 0.04256167635321617, 0.12446893751621246, -0.32517626881599426, 0.0021909691859036684, 0.07076520472764969, -0.2757418751716614, 0.01491058710962534, -0.02390310727059841, 0.30311140418052673, -0.014919518493115902, -0.08964128792285919, 0.008616640232503414, 0.07737158983945847, -0.036490559577941895, 0.25886788964271545, 0.12709839642047882, -0.025859713554382324, -0.1550900936126709, -0.051414232701063156, 0.07956349104642868, 0.12610334157943726, -0.05694650113582611, -0.1043543890118599, -0.08894239366054535, -0.06763490289449692, 0.02447054721415043, -0.2990798056125641, 0.11721882224082947, 0.17484329640865326, -0.3575264513492584, -0.16209067404270172, -0.0991562008857727, -0.24702520668506622, -0.07926864922046661, -0.08236736059188843, -0.2879926264286041, -0.011042625643312931, -0.06698576360940933, 0.08497966080904007, 0.09427434951066971, 0.0329645574092865, -0.02060520276427269, 0.029929330572485924, -0.0197020024061203, -0.056873682886362076, 0.07942502945661545, 0.08091703057289124, -0.06981319189071655, -0.2629167139530182, 0.20080824196338654, -0.02700785920023918, -0.10348694026470184, 0.04850851371884346, 0.025672879070043564, -0.1627979427576065, 0.15560847520828247, -0.04300669580698013, -0.02237442322075367, -0.1462116837501526, -0.03527767211198807, -0.05994529277086258, -0.0913398489356041, 0.07111833244562149, 0.09749732911586761, -0.08109849691390991, 0.13323289155960083, -0.0738150030374527, 0.1814965009689331, 0.02271338552236557, 0.0781090259552002, -0.15775981545448303, 0.05119053274393082, 0.0031124893575906754, 0.011209581047296524, -0.07324247062206268, -0.06192336603999138, 0.20860359072685242, 0.023205090314149857, -0.25095677375793457, -0.0725405216217041, 0.09836632013320923, -0.1421358436346054, -0.014488126151263714, 0.08824888616800308, -0.08036047965288162, 0.17658215761184692, 0.03433923050761223, -0.07998473942279816, 0.030806472525000572, -0.095435731112957, 0.08991562575101852, 0.09969702363014221, 0.15337777137756348, 0.02509651891887188, 0.05981363728642464, 0.04734751209616661, -0.017181873321533203, -0.06045573577284813, -0.14779579639434814, -0.24944832921028137, 0.21037288010120392, -0.14701934158802032, -0.2061394453048706, 0.1549808531999588, 0.006596676539629698, 0.04900479316711426, -0.10980796068906784, 0.01263195089995861, -0.17724233865737915, 0.17486602067947388, 0.028289632871747017, 0.2000386118888855, 0.05383395031094551, 0.02084469422698021, -0.08039432018995285, 0.23116295039653778, 0.09854459762573242, 0.06158120185136795, 0.04326838627457619, -0.03911370411515236, -0.2682070732116699, 0.04229521378874779, -0.17716899514198303, -0.0034194595646113157, 0.07402105629444122, -0.2257748693227768, -0.16054409742355347, 0.1619841456413269, -0.05433493107557297, -0.10243047773838043, 0.08712990581989288, -0.030836571007966995, -0.17866867780685425, 0.014615724794566631, -0.151978999376297, -0.10871565341949463, 0.11700990796089172, -0.13337109982967377, 0.09304109215736389, -0.01504560373723507, 0.03901929780840874, -0.22684842348098755, 0.24418804049491882, -0.11831006407737732, 0.23863355815410614, -0.21800774335861206, -0.06135433167219162, 0.2107531577348709, -0.16519850492477417, 0.0930396318435669, 0.0281829833984375, -0.23276181519031525, -0.03348874673247337, -0.08902385830879211, 0.24336500465869904, -0.15755411982536316, 0.16023923456668854, -0.04908021539449692, -0.004768510349094868, -0.0233745276927948, -0.009423913434147835, -0.026929713785648346, 0.24571259319782257, -0.1416955590248108, 0.14275230467319489, -0.16049732267856598, 0.23196090757846832, -0.1762210726737976, 0.08976059406995773, -0.13247720897197723, 0.01739949733018875, 0.17441578209400177, -0.01459017675369978, -0.047350481152534485, 0.1275339424610138, -0.003487605368718505, -0.06600820273160934, 0.256488561630249, -0.2014334499835968, -0.05178273841738701, 0.11766935884952545, -0.04588661715388298, 0.10874328762292862, 0.0023219771683216095, -0.22551754117012024, 0.10499511659145355, 0.07951027899980545, -0.08372951298952103, -0.026360565796494484, 0.014771620742976665, 0.14994797110557556, -0.04937433451414108, -0.0674104169011116, 0.08301330357789993, -0.17388810217380524, 0.10715708136558533, 0.0055510797537863255, -0.1219077780842781, 0.13172686100006104, -0.13863341510295868, 0.08941380679607391, -0.15765732526779175, -0.0047437883913517, 0.052253443747758865, 0.22638913989067078, -0.07291363179683685, 0.15723253786563873, -0.08630040287971497, -0.05216790363192558, -0.15955516695976257, -0.03203091397881508, 0.12563474476337433, 0.02596648596227169, -0.05846555903553963, 0.05498184263706207, 0.040187377482652664, 0.1822982132434845, 0.09429292380809784, -0.16411642730236053, 0.04841335490345955, -0.09418710321187973, -0.14954009652137756, 0.10675779730081558, 0.11976058781147003, -0.17980346083641052, 0.16031292080879211, -0.09001817554235458, -0.08408429473638535, 0.1992158144712448, -0.044597286731004715, 0.01817154698073864, -0.027756869792938232, 0.04755533114075661, -0.015937112271785736, -0.005254546646028757, 0.0790281817317009, 0.10424374788999557, -0.12270162999629974, 0.035839904099702835, -0.09007624536752701, -0.0427539236843586, 0.034073058515787125, -0.08848605304956436, 0.09765329957008362, -0.10776128619909286, -0.21542096138000488, -0.03448471426963806, -0.14007696509361267, 0.19466663897037506, 0.10743390768766403, 0.14009696245193481, -0.04657437652349472, 0.15176859498023987, 0.040040723979473114, 0.31764891743659973, -0.05624477565288544, -0.06770119816064835, -0.15122124552726746, 0.12494978308677673, -0.14167208969593048, 0.3321860134601593, 0.0561656653881073, -0.0734778344631195, -0.22449733316898346, 0.11910705268383026, -0.14088620245456696, -0.23267246782779694, 0.05481141805648804, -0.1378151774406433, -0.13429191708564758, 0.07504832744598389, 0.05570336431264877, -0.30212610960006714, 0.14415155351161957, -0.11762312799692154, -0.05840786173939705, -0.12463408708572388, -0.15633633732795715, -0.043801188468933105, 0.004982877988368273, -0.09257646650075912, -0.025468600913882256, -0.10985875129699707, -0.13204890489578247, -0.08470439165830612, 0.01987135037779808, 0.028591465204954147, -0.16039471328258514, -0.03254445642232895, 0.029836691915988922, 0.0410059317946434, -0.0023747545201331377, -0.03375059366226196, -0.17814524471759796, 0.04767055809497833, -0.07412706315517426, 0.01854644902050495, 0.4984230697154999, -0.3548731505870819, 0.6887478232383728, -0.5746166706085205, -0.028029177337884903, 0.8693408370018005, 0.9218925833702087, -0.5292778611183167, 0.1553756445646286, 0.05481608211994171, -0.47271308302879333, -0.40057212114334106, 0.20873679220676422, -0.5991794466972351, 0.182652086019516, 0.4673953652381897, -0.2429925948381424, 0.22577990591526031, -0.061737943440675735, 0.09907820075750351, 0.14195042848587036, -0.15899433195590973, 0.12573741376399994, 0.13610321283340454, -0.04949222877621651, -0.056805383414030075, 0.11482273042201996, 0.1487015336751938, 0.12694014608860016, -0.059357546269893646, 0.17251941561698914, -0.041982173919677734, 0.2331591695547104, -0.12981672585010529, -0.20878678560256958, 0.10951890796422958, 0.13617043197155, -0.0030149458907544613, -0.08316409587860107, -0.36384984850883484, -0.030482374131679535, 0.12353991717100143, -0.16507773101329803, -0.07521244883537292, 0.035003021359443665, -0.011213866993784904, 0.07402939349412918, 0.231232151389122, 0.1614263951778412, 0.43971607089042664, 0.011087773367762566, 0.24333544075489044, -0.25893309712409973, -0.03977704048156738, 0.21179378032684326, -0.43627819418907166, -0.14950214326381683, -0.1469559669494629, 0.25802069902420044, -0.28420987725257874, 0.2106814682483673, 0.35106703639030457, 0.3513910472393036, 0.24982301890850067, 0.19291043281555176, -0.32011666893959045, -0.00323945633135736, -0.17006297409534454, 0.13578404486179352, 0.13764749467372894, -0.006869425997138023, 0.021734798327088356, -0.030342958867549896, -0.01613965816795826, -0.2613907754421234, 0.04355541989207268, 0.03807726874947548, -0.02015644870698452, -0.3654026687145233, -0.19469277560710907, -0.019328173249959946, -0.3269134759902954, -0.16424624621868134, 0.16735801100730896, 0.1445668786764145, 0.1800535023212433, 0.13497202098369598, -0.34827306866645813, 0.13240742683410645, 0.19168809056282043, -0.4892038106918335, 0.19405865669250488, -0.12159568071365356, -0.007271540351212025, -0.2534911036491394, 0.02245263010263443, -0.0808543935418129, -0.08722543716430664, 0.10970703512430191, 0.18453331291675568, 0.22890375554561615, 0.1868792176246643, 0.24085213243961334, 0.015888636931777, 0.13841095566749573, -0.08081153780221939, -0.2482156753540039, -0.08657072484493256, -0.08666004985570908, -0.04050656035542488, 0.006066976580768824, 0.023449618369340897, -0.06628527492284775, -0.3604784905910492, 0.38959845900535583, 0.03813779354095459, 0.11643481254577637, -0.19276967644691467, 0.11899524182081223, 0.27800920605659485, 0.3545128405094147, -0.2536691427230835, -0.3353320360183716, 0.38263967633247375, 0.26313358545303345, -0.5430619120597839, -0.24863319098949432, -0.4815978407859802, 0.2074107676744461, 0.04830649122595787, 0.34386780858039856, -0.23905442655086517, -0.20872047543525696, 0.1758241355419159, 0.30152735114097595, 0.14468182623386383, 0.20922788977622986, -0.14307120442390442, 0.22294972836971283, -0.21423378586769104, 0.1301436424255371, -0.16091251373291016, -0.1114758849143982, 0.06790028512477875, -0.27094724774360657, 0.05074061080813408, -0.26711148023605347, -0.30776140093803406, 0.018698832020163536, -0.09119056910276413, -0.1459810733795166, 0.08521230518817902, -0.24254925549030304, -0.14729784429073334, 0.2784421741962433, 0.14995215833187103, 0.0946265384554863, -0.13605287671089172, 0.18730244040489197, 0.05497676134109497, -0.38883763551712036, -0.08691327273845673, 0.2785814702510834, -0.31516826152801514, -0.09689167141914368, -0.06031030789017677, 0.23175273835659027, 0.09851386398077011, 0.07233857363462448, 0.2544419467449188, 0.29807379841804504, 0.23325103521347046, 0.33998408913612366, 0.1567215770483017, -0.19424697756767273, -0.044787533581256866, 0.09645017981529236, 0.2524111866950989, -0.18465988337993622, 0.049089185893535614, -0.18835467100143433, -0.10123774409294128, 0.11666784435510635, -0.07540762424468994, 0.13122129440307617, -0.10477625578641891, -0.13547784090042114, -0.11979831755161285, -0.02183590456843376, 0.02707238681614399, 0.12173128128051758, 0.2929743826389313, 0.2550375163555145, -0.06550103425979614, -0.0883793756365776, 0.20567788183689117, -0.11093950271606445, -0.22368218004703522, -0.2742730677127838, -0.3142315149307251, -0.20825837552547455, -0.4453742206096649, -0.31693023443222046, -0.13606715202331543, -0.32217904925346375, 0.2851237654685974, -0.33795249462127686, -0.3053274154663086, -0.18342085182666779, -0.09835617244243622, 0.09081584215164185, -0.005243428982794285, 0.11745528131723404, -0.11231710016727448, 0.010135168209671974, 0.3995177149772644, 0.3119698464870453, 0.015730783343315125, -0.09558889269828796, 0.09293127059936523, 0.1724868267774582, -0.27963000535964966, -0.12852734327316284, 0.04416578263044357, -0.024868199601769447, -0.12382578104734421, -0.114164799451828, 0.06444286555051804, -0.049819353967905045, 0.2440047264099121, 0.24886132776737213, 0.19931137561798096, 0.025955669581890106, -0.0675029382109642, 0.04623047634959221, -0.0538812018930912, -0.15059112012386322, -0.10983298718929291, -0.16352133452892303, 0.14226007461547852, -0.05796720087528229, 0.17603033781051636, -0.07264141738414764, -0.06924588978290558, 0.08480951189994812, -0.03033488802611828, 0.2132912129163742, 0.030257590115070343, -0.35792848467826843, 0.1166209876537323, -0.012158751487731934, -0.07159975171089172, 0.1672065258026123, 0.2796419560909271, -0.11341767013072968, -0.03428052365779877, 0.31712719798088074, 0.2966858446598053, 0.10904133319854736, 0.00013031459820922464, -0.10581161826848984, 0.273816853761673, 0.0963885560631752, 0.006370899733155966, -0.15604496002197266, -0.24872007966041565, -0.11753996461629868, -0.24568180739879608, -0.060126811265945435, 0.3095644414424896, 0.05445843189954758, 0.06836986541748047, 0.0734233558177948, -0.07965763658285141, 0.15406173467636108, -0.15701165795326233, -0.06659827381372452, -0.023413093760609627, 0.12036184221506119, -0.04406280815601349, -0.019319724291563034, -0.1472264975309372, 0.06925966590642929, 0.06780911982059479, 0.04014090076088905, 0.09181893616914749, 0.03711124137043953, 0.05770234763622284, 0.14599524438381195, -0.04685894772410393, -0.04783668369054794, 0.0769256204366684, -0.2028132826089859, 0.1408679485321045, 0.07904085516929626, 0.05730229243636131, 0.11281173676252365, -0.19419024884700775, 0.07995385676622391, 0.013175169937312603, -0.17884403467178345, -0.08317619562149048, 0.12883922457695007, 0.03810225799679756, -0.2560696005821228, -0.013199848122894764, -0.21976657211780548, -0.21437445282936096, -0.03965052589774132, 0.004045168869197369, -0.27148380875587463, -0.26543599367141724, 0.12109629064798355, 0.31622129678726196, -0.17670977115631104, -0.11380822211503983, -0.028106987476348877, -0.24995654821395874, -0.04682106152176857, -0.026425085961818695, 0.1281987726688385, -0.22748656570911407, -0.11908035725355148, 0.12019030749797821, -0.13646386563777924, 0.2920849621295929, -0.06220043823122978, -0.032259825617074966, 0.1992015391588211, -0.08746112883090973, -0.11158261448144913, 0.28524544835090637, -0.09229181706905365, 0.09935955703258514, -0.19343210756778717, -0.01719919592142105, 0.2928198277950287, -0.07332815229892731, 0.15661419928073883, -0.35266101360321045, 0.11635767668485641, -0.02599046193063259, 0.013274305500090122, -0.13227729499340057, 0.05692879483103752, -0.3775145709514618, 0.01200625579804182, -0.09012242406606674, -0.32196244597435, -0.12673144042491913, 0.030362548306584358, -0.030350763350725174, -0.11067330837249756, -0.11244306713342667, -0.1315014809370041, -0.23989097774028778, -0.03328054025769234, 0.3623221814632416, -0.02477847784757614, -0.0443568117916584, 0.06301915645599365, -0.058521635830402374, 0.14315496385097504, 0.458028644323349, 0.05843951553106308, -0.15437676012516022, -0.17505879700183868, 0.03748532012104988, 0.07716959714889526, -0.5364285111427307, -0.08887223899364471, 0.12252265214920044, -0.03823886811733246, -0.021776894107460976, 0.2021205723285675, 0.07911292463541031, 0.01068467739969492, 0.14280250668525696, 0.15122413635253906, -0.2713833749294281, -0.11809155344963074, -0.1721775382757187, 0.19353914260864258, -0.30414167046546936, -0.05156100168824196, 0.031890057027339935, -0.09556955099105835, 0.09461372345685959, 0.2836940586566925, -0.12827180325984955, 0.04095383360981941, 0.23188726603984833, -0.4247671365737915, 0.12430614233016968, -0.0724911093711853, -0.15701504051685333, 0.11210060119628906, -0.06648516654968262, 0.10160625725984573, -0.020418765023350716, 0.1290850043296814, 0.30311208963394165, -0.07667213678359985, -0.3586757481098175, 0.42754238843917847, -0.069173164665699, 0.030708270147442818, 0.3253660202026367, 0.06923506408929825, -0.1290019005537033, -0.16090375185012817, -0.08638673275709152, 0.06294688582420349, 0.02446361444890499, -0.1645331233739853, -0.10557999461889267, -0.1421166956424713, 0.14500990509986877, -0.04425114393234253, -0.0868169516324997, 0.0705205649137497, -0.20464864373207092, -0.10256963223218918, -0.01805097796022892, -0.10304584354162216, 0.04805271327495575, -0.02507505752146244, 0.002561254659667611, -0.13969261944293976, -0.0691269040107727, 0.2524951696395874, -0.04057798907160759, 0.34388604760169983, -0.16550035774707794, -0.10740655660629272, -0.33008483052253723, 0.21705278754234314, 0.02983679808676243, 0.5444880723953247, -0.04946509748697281, -0.294592946767807, 0.10992694646120071, 0.16021783649921417, -0.047484420239925385, -0.21029385924339294, 0.10628481954336166, 0.06425265967845917, -0.2217237502336502, 0.01691814325749874, -0.006133078597486019, -0.5622403025627136, 0.11929380893707275, 0.1431552767753601, -0.3394392728805542, -0.06776608526706696, -0.020860442891716957, 0.5051315426826477, -0.23446069657802582, 0.019270392134785652, 0.1687360405921936, -0.3576848804950714, 0.032509222626686096, 0.22493883967399597, 0.1317724585533142, -0.08125009387731552, 0.05366891622543335, 0.3523663878440857, 0.19264209270477295, 0.18503974378108978, 0.0037721283733844757, -0.0790947675704956, 0.1404012143611908, -0.24274271726608276, -0.13618145883083344, 0.6181632876396179, -0.2792174220085144, 0.16685011982917786, 0.015825074166059494, 0.29255256056785583, 0.0708712562918663, -0.2451946884393692, -0.06332847476005554, -0.056093402206897736, -0.055808182805776596, 0.24430696666240692, -0.006533777341246605, -0.3001425266265869, 0.17853212356567383, -0.22441858053207397, -0.04991189017891884, 0.05935883894562721, 0.07353104650974274, 0.0795496255159378, 0.020122213289141655, -0.07629650831222534, -0.04912794008851051, 0.1379619538784027, 0.04385910555720329, 0.30986201763153076, -0.18126054108142853, 0.16335730254650116, 0.005997467786073685, 0.17359329760074615, 0.23376107215881348, 0.011572519317269325, -0.09507980942726135, -0.16759143769741058, -0.07734454423189163, -0.11977267265319824, 0.12106765061616898, 0.019626744091510773, -0.013992435298860073, -0.11686413735151291, -0.05752773955464363, 0.0773552656173706, 0.019773470237851143, -0.0977294072508812, -0.3381483554840088, 0.024921953678131104, -0.006290324032306671, -0.13794833421707153, -0.040989745408296585, 0.02818784862756729, -0.14838285744190216, -0.1852804273366928, -0.02507365122437477, 0.16962766647338867, -0.07687269896268845, -0.022436443716287613, -0.08235052227973938, -0.1423780471086502, 0.041864413768053055, 0.07089550048112869, -0.016034970059990883, -0.17934216558933258, -0.2571973204612732, -0.27155259251594543, -0.0011058930540457368, 0.022704223170876503, -0.07903267443180084, -0.059157807379961014, -0.05449209734797478, -0.027079962193965912, 0.03178567811846733, -0.05196821689605713, 0.20129014551639557, 0.14840516448020935, -0.11608981341123581, -0.08209159970283508, 0.02091759257018566, -0.09424163401126862, 0.2966378331184387, 0.1444619596004486, 0.20084938406944275, -0.2650700807571411, -0.04890402778983116, -0.07826869189739227, 0.10251646488904953, 0.1812794804573059, -0.03939516469836235, -0.21007601916790009, 0.28329724073410034, -0.11967155337333679, -0.044338494539260864, 0.007836148142814636, 0.07671161741018295, -0.10849320143461227, -0.13399332761764526, -0.14332307875156403, -0.08501564711332321, -0.3249302804470062, 0.09965486079454422, -0.17112109065055847, 0.01084617804735899, -0.1358652263879776, -0.070561483502388, -0.1696568727493286, 0.15257114171981812, 0.130564346909523, 0.11355002224445343, 0.23922398686408997, 0.17569395899772644, 0.005151810590177774, -0.06327824294567108, 0.17947369813919067, 0.1888369768857956, 0.024188190698623657, 0.012564773671329021, 0.002390111330896616, 0.1383405476808548, -0.036275479942560196, 0.2544803321361542, 0.14732110500335693, 0.01781463250517845, 0.13090263307094574, -0.053120676428079605, 0.03805948421359062, 0.01863633655011654, 0.14215198159217834, -0.07077543437480927, -0.19291092455387115, -0.17694774270057678, 0.006660306826233864, 0.09556405991315842, 0.07696843892335892, -0.07132047414779663, -0.0018467698246240616, -0.11483779549598694, 0.2212722897529602, -0.0616498701274395, 0.06568146497011185, 0.06360309571027756, 0.08022905141115189, 0.08988948166370392, 0.12243819981813431, -0.09243034571409225, 0.012075510807335377, -0.17239899933338165, -0.1519201248884201, -0.15661095082759857, -0.2515747845172882, 0.0795978456735611, 0.067009836435318, 0.08918067067861557, -0.39216044545173645, 0.02315947413444519, 0.14303600788116455, 0.356945663690567, -0.10459538549184799, -0.0802648663520813, -0.14515002071857452, -0.250161349773407, 0.1777416467666626, -0.05435415357351303, -0.02762233093380928, 0.04830687493085861, 0.017787843942642212, -0.19582213461399078, -0.17880089581012726, 0.2187482714653015, -0.016865013167262077, -0.23069782555103302, -0.16058428585529327, 0.06794224679470062, -0.06812721490859985, 0.1842947006225586, -0.05034046992659569, -0.21093155443668365, -0.1751546412706375, -0.18745510280132294, 0.318574994802475, 0.1814371645450592, 0.28829100728034973, -0.09438639879226685, 0.01608559861779213, -0.32507529854774475, 0.09387324005365372, -0.10846240818500519, -0.1916424036026001, 0.1551138311624527, -0.31034785509109497, 0.1647845208644867, 0.12770824134349823, -0.3035072684288025, -0.008418522775173187, -0.0702836811542511, -0.07771263271570206, 0.08283467590808868, 0.22522002458572388, 0.2002393752336502, -0.1941087245941162, -0.009088311344385147, 0.06463275104761124, 0.15444885194301605, 0.04353448003530502, -0.11538448929786682, -0.1268177479505539, -0.11801794916391373, -0.0180142130702734, 0.02174909971654415, 0.15828880667686462, 0.16909562051296234, -0.039135269820690155, -0.12869317829608917, 0.1633593738079071, -0.0006417147233150899, -0.027676355093717575, -0.18498662114143372, 0.10628815740346909, 0.05552859604358673, 0.16819439828395844, -0.06397870182991028, -0.09489665180444717, -0.20735017955303192, -0.010652660392224789, 0.2053835093975067, -0.01093225460499525, -0.10141458362340927, 0.09936650097370148, -0.07016536593437195, 0.17629128694534302, -0.01641005277633667, 0.09327370673418045, -0.11379455029964447, -0.13346007466316223, 0.10229955613613129, -0.13673242926597595, -0.0054900264367461205, 0.10594137758016586, 0.032899945974349976, -0.049451883882284164, -0.004517063964158297, -0.10589926689863205, -0.1674635112285614, -0.14592531323432922, 0.03489246591925621, 0.06500481814146042, -0.1309722363948822, -0.08729023486375809, -0.011300651356577873, 0.06926171481609344, 0.0404403917491436, 0.10344589501619339, -0.12735433876514435, 0.040812451392412186, 0.04148042947053909, -0.1664000302553177, -0.19194073975086212, 0.14662784337997437, -0.05579617992043495, 0.08947864919900894, -0.09072597324848175, 0.10786490142345428, 0.02482881210744381, -0.08287180960178375, -0.09048951417207718, 0.01207582838833332, 0.12699374556541443, 0.021898452192544937, 0.10456249862909317, -0.12012103945016861, -0.13309139013290405, 0.10790273547172546, 0.20705077052116394, -0.0422927588224411, 0.018936391919851303, -0.04537513479590416, -0.10002270340919495, -0.06486355513334274, 0.09305132180452347, -0.138445183634758, -0.08540843427181244, 0.056764256209135056, 0.05701702460646629, -0.014944667927920818, -0.028996752575039864, 0.01630706526339054, -0.09093882143497467, -0.12077490240335464, -0.08895273506641388, 0.030548976734280586, 0.027369948104023933, 0.010961076244711876, -0.3310379087924957, 0.13603423535823822, -0.07568765431642532, 0.017468243837356567, 0.093584805727005, -0.02104574255645275, 0.01957322284579277, -0.28624632954597473, 0.0013917579781264067, 0.13841255009174347, 0.09672878682613373, 0.12211497128009796, 0.12689347565174103, 0.14507345855236053, -0.18320780992507935, -0.004587346687912941, -0.0030836998485028744, -0.03341576084494591, 0.06156790256500244, -0.10568840801715851, 0.18652307987213135, 0.027559524402022362, -0.06935110688209534, -0.12299782037734985, 0.08243441581726074, 0.11590138077735901, 0.13124556839466095, 0.027513764798641205, 0.0068770828656852245, -0.17586562037467957, -0.008139701560139656, 0.11291497945785522, 0.0416465699672699, -0.18452060222625732, -0.11434473842382431, 0.1347227543592453, 0.10021840035915375, 0.10297068953514099, -0.07460444420576096, 0.046719931066036224, -0.022531932219862938, -0.1499437391757965, 0.05175860598683357, -0.03005492128431797, -0.001367027754895389, -0.020489735528826714, 0.06390064209699631, 0.10511994361877441, 0.027264190837740898, -0.12201429158449173, 0.22949664294719696, -0.0056910733692348, 0.08580857515335083, -0.049802832305431366, -0.15053610503673553, 0.04054760932922363, -0.06425759196281433, -0.05963745340704918, -0.1300351321697235, -0.15363270044326782, 0.05912041291594505, 0.3654426038265228, 0.12243109941482544, 0.16620828211307526, 0.014720654115080833, 0.09951691329479218, 0.18063867092132568, -0.1528642475605011, -0.008113990537822247, 0.080012746155262, -0.0003618526679929346, 0.006453365553170443, 0.07282496243715286, -0.09235233813524246, 0.08069397509098053, 0.04777634143829346, 0.005972495302557945, 0.017195696011185646, -0.1659262627363205, -0.08120973408222198, -0.18184073269367218, 0.014503940008580685, -0.07713258266448975, -0.05725536867976189, 0.03401389718055725, 0.03661087155342102, -0.10708775371313095, 0.17962764203548431, 0.029841061681509018, 0.08359353989362717, 0.12027622759342194, 0.137173593044281, 0.14182226359844208, 0.11946047097444534, 0.04830394685268402, 0.18641456961631775, -0.17873543500900269, -0.1712670773267746, -0.10361487418413162, 0.07650109380483627, 0.19080372154712677, -0.04408298060297966, 0.04409870505332947, -0.24916233122348785, 0.12523001432418823, 0.014307919889688492, -0.1352115422487259, -0.1572140008211136, 0.14886413514614105, -0.219071164727211, -0.0119657376781106, 0.05375990271568298, -0.06218649074435234, 0.18719252943992615, -0.01724577136337757, -0.037833038717508316, -0.06522468477487564, -0.18352608382701874, 0.2309374362230301, 0.12282727658748627, -0.22286073863506317, -0.02302936092019081, -0.16429783403873444, -0.1850210577249527, 0.08218283206224442, -0.14113421738147736, 0.12424485385417938, -0.0495072640478611, -0.07103949785232544, -0.055547695606946945, -0.09104716777801514, 0.11489264667034149, 0.1890478879213333, -0.11283720284700394, 0.15095940232276917, -0.0706956535577774, -0.008708399720489979, -0.03870867192745209, -0.14049790799617767, -0.020394613966345787, -0.12987037003040314, -0.1010369062423706, -0.20273931324481964, 0.005418385379016399, 0.004775849170982838, 0.069790780544281, 0.005523519590497017, 0.2101825326681137, 0.04726686701178551, 0.040870316326618195, 0.026878930628299713, -0.10215763002634048, 0.04319076985120773, 0.0459749698638916, 0.1692858189344406, 0.16883349418640137, 0.06684047728776932, 0.004995601251721382, -0.10036994516849518, -0.02729954570531845, -0.04205487295985222, -0.01969904638826847, 0.10545209050178528, 0.22481408715248108, -0.03617773577570915, 0.031967129558324814, 0.023484818637371063, -0.061501044780015945, -0.002099112141877413, 0.16798892617225647, 0.08980889618396759, 0.004873270634561777, 0.06129346042871475, -0.0667475014925003, -0.1469087302684784, -0.1251782476902008, 0.04420875757932663, -0.21888019144535065, 0.12075044959783554, 0.048792168498039246, 0.1614605337381363, -0.08707291632890701, -0.06525961309671402, 0.19911302626132965, -0.0453173853456974, -0.2081502079963684, -0.11973826587200165, -0.24151712656021118, 0.04203007370233536, 0.09275370836257935, -0.18803997337818146, 0.07656258344650269, -0.07194545120000839, -0.2403317391872406, 0.07715795189142227, 0.1748938411474228, 0.19976387917995453, -0.033065129071474075, 0.041005317121744156, -0.27710357308387756, -0.2525556981563568, 0.14228564500808716, 0.11325228214263916, -0.11406288295984268, 0.2179660201072693, -0.05075356736779213, -0.007638254668563604, -0.08030932396650314, 0.015523592010140419, 0.11403078585863113, 0.12654617428779602, 0.13218390941619873, 0.24391287565231323, 0.019917206838726997, 0.026505203917622566, 0.06911806762218475, -0.057056307792663574, 0.14544837176799774, 0.043014008551836014, 0.100066639482975, -0.012240993790328503, 0.03290698677301407, -0.16248011589050293, -0.2335282266139984, -0.034626495093107224, -0.08600309491157532, 0.1162400022149086, -0.19174709916114807, 0.046084318310022354, 0.046943917870521545, 0.18969377875328064, 0.05641373619437218, 0.027894174680113792, 0.16149643063545227, -0.15126332640647888, -0.18879809975624084, 0.03655263036489487, -0.07998556643724442, -0.13454759120941162, -0.09791085869073868, 0.189363032579422, -0.24378405511379242, 0.013616925105452538, 0.02727566286921501, 0.1701875478029251, -0.08360625058412552, 0.10259407758712769, -0.24684210121631622, 0.06759916245937347, 0.07661053538322449, -0.058783601969480515, -0.053348466753959656, 0.07451383769512177, -0.1699325293302536, 0.07243549823760986, 0.03963590785861015, -0.20119163393974304, -0.0028047242667526007, 0.01711662858724594, 0.08170671761035919, -0.09823407977819443, -0.14017429947853088, 0.18557144701480865, 0.06125988811254501, -0.03637393191456795, -0.09761545807123184, -0.05611756071448326, -0.17824964225292206, 0.013501455076038837, -0.0789434015750885, -0.06425588577985764, -0.18705634772777557, -0.21376551687717438, 0.04471752047538757, 0.2778010964393616, 0.06858882308006287, 0.14360105991363525, -0.3547079265117645, 0.07719476521015167, 0.04491570591926575, -0.08961218595504761, -0.10700954496860504, -0.21600861847400665, -0.10086063295602798, 0.012891584075987339, 0.07860240340232849, -0.19553039968013763, -0.09649355709552765, -0.08758597820997238, 0.07114307582378387, -0.040444619953632355, 0.24343250691890717, 0.0574604831635952, 0.1393185704946518, 0.07855331152677536, -0.018861310556530952, 0.04208003729581833, -0.1345534324645996, 0.1491016000509262, 0.10973821580410004, 0.031824540346860886, -0.07697740197181702, -0.03169503062963486, 0.05934855341911316, 0.07644575834274292, 0.09217386692762375, 0.0864696353673935, 0.08059841394424438, -0.020400896668434143, -0.46126604080200195, 0.20100951194763184, 0.5489283204078674, -0.7055272459983826, 0.2813062369823456, -0.6887551546096802, -0.2687283456325531, -0.6565612554550171, 1.001545786857605, -0.9637150168418884, -0.5822752714157104, -1.107535481452942, 0.197489932179451, -0.6484180092811584, 0.547167181968689, -0.6201106905937195, -0.07527858018875122, -0.06826432794332504, 0.03562812879681587, 0.07991594821214676, 0.33877262473106384, 0.038454048335552216, -0.424584299325943, 0.16780820488929749, -0.32502222061157227, -0.4409964680671692, 0.30262884497642517, -0.2075563669204712, 0.2956417500972748, 0.3821738064289093, -0.11468163132667542, 0.17732208967208862, 0.12149682641029358, -0.10330337285995483, -0.06086074560880661, -0.08039148151874542, -0.21693894267082214, 0.07649035006761551, 0.04631251096725464, -0.13813845813274384, 0.15560826659202576, -0.3388967514038086, 0.12572342157363892, 0.07945876568555832, 0.09686258435249329, 0.013265719637274742, 0.13378509879112244, 0.15545152127742767, -0.1258322298526764, -0.13247337937355042, -0.019938882440328598, -0.10708054900169373, 0.18043449521064758, 0.12819840013980865, -0.09668458253145218, 0.024280250072479248, -0.13985072076320648, 0.09140965342521667, -0.1903507262468338, -0.1165757030248642, 0.16815564036369324, 0.35399240255355835, 0.22303113341331482, 0.13723935186862946, 0.13271458446979523, 0.23801931738853455, -0.1936797946691513, -0.2069619596004486, -0.12781374156475067, 0.07613614946603775, -0.053057506680488586, -0.15827667713165283, -0.01230486761778593, 0.2706087827682495, -0.13755179941654205, 0.5113101601600647, 0.15276974439620972, 0.14204341173171997, 0.18359392881393433, 0.19927433133125305, 0.16016435623168945, 0.048119280487298965, -0.19156141579151154, -0.2028478980064392, 0.07510664314031601, -0.14642493426799774, -0.04679203778505325, 0.13528059422969818, 0.12240583449602127, 0.0447385348379612, -0.14461807906627655, 0.4373977482318878, -0.27267029881477356, -0.006378272082656622, -0.3464219272136688, -0.19465705752372742, -0.5565506815910339, 0.0176185704767704, -0.04091799259185791, -0.171935573220253, 0.12747249007225037, -0.2077862173318863, -0.03430470451712608, -0.022226914763450623, 0.07552869617938995, 0.09329713135957718, 0.09911655634641647, -0.055856525897979736, -0.3041953146457672, 0.05292161926627159, -0.0052467104978859425, -0.03283178061246872, 0.1030692458152771, -0.15179327130317688, 0.07492967694997787, -0.20649251341819763, 0.0038833736907690763, 0.3781050443649292, -0.11658914387226105, -0.350015252828598, 0.3226167559623718, 0.1627928614616394, -0.2822539210319519, 0.35778504610061646, -0.014500569552183151, -0.24245822429656982, -0.09079618006944656, 0.2276468276977539, 0.14378714561462402, 0.11520243436098099, 0.06329754739999771, 0.11710770428180695, 0.0652095153927803, -0.18386924266815186, 0.1457107812166214, 0.0700022354722023, -0.08120058476924896, 0.2529744803905487, -0.1161937415599823, -0.10872630029916763, -0.20145657658576965, -0.24569843709468842, 0.1384875476360321, -0.15020182728767395, 0.10904347896575928, 0.4052862226963043, -0.2948307991027832, -0.14675267040729523, -0.10754023492336273, -0.0346238873898983, -0.057818520814180374, -0.30963921546936035, -0.07734015583992004, 0.020402029156684875, 0.29348134994506836, 0.10165087133646011, 0.1279362440109253, 0.5756005644798279, -0.021749595180153847, 0.49254971742630005, -0.07593700289726257, 0.025502800941467285, -0.14286568760871887, 0.23057201504707336, -0.06285737454891205, -0.029494265094399452, 0.06583612412214279, -0.015980897471308708, -0.06306907534599304, -0.03783664479851723, 0.23604874312877655, 0.3320624530315399, 0.08920454978942871, 0.0679028183221817, 0.012246023863554, -0.17403057217597961, -0.12381789088249207, -0.2568316161632538, -0.17255599796772003, 0.09360343217849731, -0.009479187428951263, -0.035095177590847015, 0.0659259632229805, -0.026168324053287506, 0.3736397624015808, 0.39685025811195374, -0.3325885832309723, -0.016421962529420853, 0.135567769408226, -0.20704348385334015, 0.020987115800380707, 0.08476657420396805, 0.10848226398229599, 0.28807640075683594, -0.31972092390060425, -0.20778919756412506, -0.1820073425769806, -0.0953105166554451, 0.08863873779773712, 0.20319236814975739, -0.25540870428085327, 0.14269718527793884, 0.14332611858844757, -0.02688492275774479, -0.024341601878404617, -0.08134769648313522, -0.02171485126018524, -0.07336096465587616, 0.11627340316772461, -0.2872720956802368, -0.398251473903656, 0.37339484691619873, -0.14046745002269745, 0.01800043322145939, -0.12162960320711136, 0.13160870969295502, -0.1233678013086319, -0.07339482754468918, -0.1062544658780098, -0.10510792583227158, 0.2587224841117859, -0.14786747097969055, -0.0076355780474841595, -0.005378635600209236, 0.15408597886562347, 0.08201257884502411, -0.2342412769794464, 0.1766134351491928, -0.19203126430511475, -0.07254372537136078, 0.03906053304672241, -0.18601638078689575, 0.14969733357429504, 0.22376053035259247, 0.11429281532764435, 0.0027631602715700865, 0.20669345557689667, 0.3266769051551819, 0.17465545237064362, -0.014296310022473335, -0.02914438396692276, 0.3755168616771698, 0.16991165280342102, -0.16307611763477325, -0.17604504525661469, 0.11176078021526337, 0.035696715116500854, -0.08370845019817352, -0.01645219512283802, 0.02894914336502552, -0.1605161726474762, 0.1385568380355835, 0.11722878366708755, 0.2351641207933426, 0.3638955354690552, 0.347583532333374, 0.25759178400039673, -0.157538041472435, -0.20282632112503052, -0.18246866762638092, -0.2521497309207916, 0.07861015945672989, -0.164864182472229, 0.2978205680847168, 0.09536300599575043, -0.16595226526260376, 0.17047128081321716, 0.03298165649175644, -0.24147987365722656, 0.057126015424728394, -0.2465556561946869, -0.19564209878444672, -0.09550102800130844, -0.00874271709471941, 0.029339449480175972, -0.10480576753616333, -0.19245025515556335, 0.026598090305924416, 0.1416044980287552, 0.08821996301412582, 0.06362219154834747, 0.08129698783159256, 0.091182179749012, -0.14909566938877106, 0.07480824738740921, -0.1732930690050125, -0.14507591724395752, -0.06678315997123718, -0.21362021565437317, -0.36987340450286865, -0.05078651383519173, -0.03678824380040169, -0.2772938013076782, -0.05740305781364441, -0.21289540827274323, -0.1886112540960312, -0.06650367379188538, 0.04757086560130119, -0.09641429036855698, -0.13655532896518707, 0.17416441440582275, 0.13725946843624115, -0.1656433492898941, 0.12882015109062195, 0.14725232124328613, -0.05754513666033745, -0.03870943561196327, 0.14174439013004303, -0.0012666687835007906, 0.07266762852668762, 0.12154889106750488, -0.10957590490579605, -0.0761234238743782, 0.16262346506118774, 0.12636005878448486, 0.01832878589630127, 0.14458997547626495, -0.04343227297067642, -0.29075896739959717, -0.035760823637247086, -0.12383829802274704, -0.003767515765503049, 0.04717987775802612, -0.0675065815448761, -0.05714595690369606, -0.0755712240934372, 0.07026499509811401, -0.1517183929681778, 0.060137562453746796, -0.002684806939214468, 0.22824601829051971, 0.10054193437099457, -0.21912315487861633, 0.12795162200927734, -0.033504631370306015, -0.10330484062433243, -0.25925514101982117, 0.1508210450410843, 0.11467357724905014, -0.011541489511728287, 0.15930072963237762, -0.03350774198770523, -0.05096853896975517, 0.1268082857131958, 0.21693003177642822, -0.09181063622236252, -0.23328328132629395, -0.12640713155269623, 0.13633283972740173, -0.18140152096748352, -0.08296164870262146, -0.044245388358831406, 0.1199459508061409, -0.2555854916572571, 0.23652143776416779, -0.011041141115128994, 0.12410647422075272, 0.027954699471592903, 0.06726144999265671, -0.07023238390684128, -0.14234709739685059, -0.1945158839225769, -0.20504847168922424, 0.12410593777894974, 0.20163077116012573, -0.008765795268118382, 0.2684783339500427, -0.041699398308992386, 0.13348567485809326, -0.24880073964595795, -0.5345750451087952, -0.05635344609618187, 0.03720123693346977, 0.014879841357469559, 0.06584124267101288, 0.08170091360807419, -0.10849408805370331, -0.04797165095806122, -0.06340343505144119, 0.06593464314937592, -0.04017861187458038, 0.02877301722764969, -0.1741025596857071, 0.07664453983306885, 0.0791868045926094, -0.23471298813819885, 0.05966717749834061, 0.10755926370620728, -0.21331986784934998, -0.12839831411838531, -0.06588249653577805, 0.07112197577953339, -0.028269050642848015, -0.09666752815246582, -0.24845856428146362, -0.12517040967941284, -0.043670374900102615, -0.16286741197109222, 0.023454435169696808, -0.019307073205709457, 0.26775166392326355, 0.0045841289684176445, -0.01633284240961075, -0.1341976672410965, -0.05462845414876938, -0.11799836158752441, 0.26112353801727295, 0.0851876437664032, 0.20355790853500366, -0.048476047813892365, 0.04425111040472984, 0.09460331499576569, 0.5594815015792847, -0.044529326260089874, -0.19226911664009094, -0.018787814304232597, -0.10147928446531296, -0.019793838262557983, -0.4905776083469391, -0.16957160830497742, 0.23802918195724487, -0.111012764275074, 0.03525164723396301, 0.08655577898025513, -0.08018682897090912, 0.05254323035478592, 0.04043493792414665, -0.02865617163479328, -0.16682711243629456, 0.13170625269412994, -0.10609724372625351, 0.07949351519346237, -0.046091675758361816, 0.058100588619709015, 0.04660840705037117, 0.060786716639995575, 0.17031729221343994, -0.10721717774868011, 0.06975727528333664, 0.3523576259613037, -0.23845048248767853, 0.4016359746456146, 0.11681666970252991, 0.0004318497667554766, -0.023795833811163902, -0.13369284570217133, 0.016562825068831444, -0.20568722486495972, 0.04473773390054703, 0.06576628237962723, 0.2336089313030243, 0.17552518844604492, -0.06483148038387299, -0.2059723436832428, 0.051706068217754364, 0.05330247804522514, 0.31190025806427, 0.212916299700737, 0.11891258507966995, -0.0686471164226532, -0.08017238974571228, -0.18280810117721558, 0.27320289611816406, -0.10780248790979385, -0.003872300498187542, 0.35695162415504456, -0.36340901255607605, 0.005248418543487787, 0.1538933962583542, -0.19863596558570862, 0.012669739313423634, 0.42722123861312866, -0.07251857966184616, 0.09926189482212067, 0.049444202333688736, 0.13576379418373108, 0.1706146001815796, -0.06440143287181854, -0.4058719873428345, -0.06791559606790543, 0.27966853976249695, -0.3856014013290405, -0.0800754725933075, -0.07929093390703201, 0.08207323402166367, 0.10960205644369125, 0.22215606272220612, 0.031747251749038696, -0.0952618196606636, -0.047492630779743195, 0.23291423916816711, -0.10785520076751709, -0.11379935592412949, 0.04491046816110611, -0.004910508170723915, 0.026408378034830093, -0.0159326009452343, 0.027871359139680862, -0.2170446515083313, -0.057875778526067734, 0.0724695697426796, -0.08981846272945404, -0.2097378820180893, 0.06130824238061905, 0.0810152143239975, -0.01742122694849968, 0.193473681807518, 0.04763892665505409, 0.05873088166117668, 0.0869416669011116, -0.15427519381046295, 0.1597367376089096, 0.015164542011916637, 0.03384033963084221, 0.38587823510169983, -0.03672836348414421, -0.12442649155855179, 0.18138772249221802, -0.046365346759557724, -0.15616905689239502, 0.009649202227592468, 0.11953716725111008, -0.0898255929350853, -0.21005044877529144, 0.11643056571483612, 0.10517233610153198, 0.059577882289886475, 0.03347504884004593, 0.17619387805461884, -0.0907331258058548, 0.07213300466537476, -0.09957762807607651, -0.17756158113479614, -0.18318377435207367, -0.18951573967933655, 0.003472931683063507, -0.028089482337236404, 0.16177107393741608, -0.13358436524868011, 0.1811756044626236, 0.11095026135444641, -0.10510377585887909, 0.09949737787246704, -0.16865891218185425, 0.04902725666761398, -0.014118523336946964, -0.15948127210140228, 0.07056916505098343, -0.026647362858057022, -0.21496689319610596, -0.044410184025764465, -0.02427666261792183, 0.20661741495132446, 0.036954037845134735, -0.019244585186243057, 0.15847311913967133, 0.4116223454475403, 0.09546326845884323, -0.0034822828602045774, -0.019118208438158035, 0.025574618950486183, 0.2372957020998001, -0.29178017377853394, 0.14587481319904327, 0.17913535237312317, -0.17760559916496277, -0.0274380911141634, 0.04847140237689018, -0.001137242652475834, 0.11278129369020462, 0.14302664995193481, 0.15994668006896973, -0.009242824278771877, 0.15356701612472534, -0.6312483549118042, -0.1990744024515152, -0.23545297980308533, -0.4453936219215393, -0.01985630951821804, 0.09160192310810089, -0.04125365614891052, 0.12255971878767014, 0.3752012252807617, -0.2606467306613922, -0.03159509599208832, 0.026733379811048508, -0.056863877922296524, 0.043551404029130936, -0.1234118640422821, 0.03857847675681114, 0.04660021886229515, -0.12829247117042542, 0.30865010619163513, 0.04524797946214676, -0.0024059084244072437, 0.03731730952858925, 0.001385822775773704, 0.10421635210514069, 0.19643811881542206, -0.19064193964004517, -0.060596123337745667, -0.2558709979057312, 0.09216389060020447, -0.1273661106824875, 0.2953631281852722, -0.2560536563396454, -0.15030881762504578, 0.17219282686710358, -0.027992593124508858, -0.15533311665058136, -0.1539715826511383, -0.20135009288787842, 0.055612921714782715, -0.21085070073604584, 0.18156342208385468, -0.004046222195029259, -0.23892323672771454, -0.010776408016681671, -0.14650733768939972, 0.006031689699739218, -0.1889505535364151, 0.11630129814147949, 0.2946154475212097, -0.0822308138012886, 0.2334621697664261, 0.04501686990261078, -0.06687229871749878, 0.14084957540035248, 0.03984050825238228, 0.16859616339206696, -0.1617969125509262, 0.09727407246828079, 0.08075087517499924, -0.24585343897342682, -0.18042418360710144, 0.018152747303247452, -0.20544594526290894, -0.1116126999258995, -0.22791656851768494, 0.017199216410517693, 0.0002722322242334485, -0.1786288619041443, -0.024927053600549698, 0.06121964007616043, 0.02646985463798046, 0.027236275374889374, 0.18266117572784424, -0.09655535966157913, -0.004873054567724466, -0.018132854253053665, -0.024046117439866066, 0.0555168092250824, 0.41276606917381287, 0.00019241483823861927, -0.018138449639081955, 0.04586733132600784, 0.19538430869579315, -0.17089225351810455, -0.48191285133361816, -0.22029408812522888, 0.0032505502458661795, 0.22537651658058167, 0.34052520990371704, -0.10792472213506699, 0.030668972060084343, 0.24448145925998688, 0.027935540303587914, -0.20149216055870056, -0.21342967450618744, -0.09012657403945923, -0.34104523062705994, -0.12280037999153137, -0.2611953020095825, -0.18933480978012085, -0.3635273277759552, -0.07752790302038193, 0.4102507531642914, -0.01819780096411705, 0.2314332127571106, -0.1086401715874672, -0.07989106327295303, -0.10616270452737808, 0.30803102254867554, 0.16623961925506592, -0.24864462018013, -0.17502540349960327, -0.05980023369193077, -0.11166258156299591, -0.5649901628494263, -0.15808923542499542, 0.08142927289009094, 0.296931654214859, 0.14419730007648468, 0.10217802226543427, -0.2991555333137512, -0.009164038114249706, 0.20365010201931, 0.24686232209205627, 0.21143817901611328, -0.0814390555024147, -0.20476104319095612, 0.04176082834601402, 0.09483950585126877, 0.19193556904792786, -0.23010016977787018, 0.07467161118984222, 0.5316372513771057, 0.02829013206064701, -0.23743855953216553, 0.39302054047584534, -0.008974588476121426, -0.1345326453447342, 0.37077832221984863, 0.11057497560977936, 0.15608428418636322, -0.325279176235199, 0.2125663459300995, 0.020397808402776718, -0.0007451281999237835, -0.028510192409157753, -0.3983150124549866, -0.0026381509378552437, -0.3366338312625885, 0.06655967235565186, 0.17568331956863403, 0.13715995848178864, 0.006263638846576214, -0.041890572756528854, 0.031099943444132805, -0.20137432217597961, -0.011631282977759838, -0.12347976863384247, 0.05663369596004486, 0.004054677672684193, 0.09302008152008057, 0.07132138311862946, -0.13371379673480988, -0.0029966174624860287, -0.24535955488681793, -0.1055809035897255, -0.1479702591896057, 0.18978406488895416, -0.22157740592956543, -0.008330954238772392, -0.2172514945268631, -0.16521000862121582, 0.0035846298560500145, 0.10620185732841492, -0.220750629901886, 0.07158191502094269, -0.062476273626089096, 0.041385453194379807, -0.1407628357410431, -0.12907058000564575, 0.4887588918209076, -0.12790422141551971, -0.20550009608268738, 0.11479678750038147, -0.09420302510261536, -0.2744273543357849, -0.12493443489074707, -0.06955702602863312, -0.008330035023391247, -0.03352966159582138, -0.10582848638296127, 0.09584034234285355, 0.29438382387161255, 0.02679409645497799, -0.03100900910794735, 0.16526782512664795, 0.07391275465488434, 0.012656421400606632, 0.10024961084127426, 0.09419132769107819, -0.25491636991500854, 0.03510250523686409, 0.14046631753444672, 0.010503898374736309, -0.0841749832034111, 0.09823259711265564, 0.03617781400680542, -0.29766207933425903, -0.03562816604971886, -0.07663436979055405, 0.07410896569490433, -0.1610429733991623, 0.20209822058677673, 0.1590382605791092, -0.02865423448383808, 0.11538025736808777, 0.2591066360473633, -0.02781013771891594, 0.00930860172957182, 0.08548323065042496, 0.060184627771377563, 0.11182285845279694, 0.13875101506710052, 0.06213773414492607, 0.09430893510580063, -0.11725642532110214, 0.1305048018693924, -0.08419997990131378, -0.5328813195228577, 0.009065283462405205, 0.21836867928504944, -0.08257102221250534, 0.10213499516248703, 0.23253223299980164, -0.17369093000888824, -0.002969639375805855, -0.1702069640159607, 0.0747862458229065, -0.23260505497455597, 0.000461079936940223, -0.40175798535346985, -0.03505638241767883, 0.1430283784866333, 0.0831630602478981, -0.11472958326339722, 0.2196667194366455, 0.06723099946975708, -0.012178653851151466, 0.270233154296875, 0.04070855677127838, -0.025858892127871513, -0.17875774204730988, -0.12560999393463135, 0.15266069769859314, -0.027679122984409332, -0.06760790199041367, 0.16908223927021027, -0.20971788465976715, -0.020854517817497253, 0.00782984308898449, -0.030836552381515503, 0.2239578515291214, 0.14304883778095245, 0.10283847898244858, 0.05546165630221367, -0.11959479004144669, -0.0866369903087616, -0.12698641419410706, -0.1658640056848526, -0.14944693446159363, -0.0978594422340393, -0.017717380076646805, 0.13499987125396729, -0.15896160900592804, -0.11387065798044205, 0.1299130767583847, -0.3490467965602875, 0.25922971963882446, 0.018404262140393257, -0.1444462537765503, -0.0814553052186966, 0.05916563421487808, -0.21690304577350616, 0.057474564760923386, -0.14351670444011688, -0.17577892541885376, 0.2353762686252594, -0.1490231156349182, -0.44356775283813477, 0.07600649446249008, -0.023951340466737747, -0.09396205097436905, 0.3389206528663635, 0.02451012283563614, -0.19380749762058258, -0.18201199173927307, -0.05292091891169548, -0.2419402003288269, -0.09049297124147415, 0.15545453131198883, 0.05804926156997681, -0.14597848057746887, -0.013441110961139202, 0.2072727233171463, 0.03931687772274017, -0.10738824307918549, 0.08953043818473816, 0.14827083051204681, 0.014720387756824493, 0.17498435080051422, -0.20895744860172272, -0.11035003513097763, -0.15817037224769592, 0.06310304254293442, 0.1645078808069229, -0.21941843628883362, 0.06477364152669907, -0.12202989310026169, 0.057907797396183014, -0.0727868303656578, 0.26424118876457214, 0.0954301580786705, -0.14018695056438446, 0.09168104082345963, 0.11936779320240021, 0.09535741060972214, 0.13374410569667816, 0.15848876535892487, -0.1861676573753357, 0.22695723176002502, 0.04726202413439751, -0.06282797455787659, -0.183232381939888, 0.06940434873104095, -0.06448280066251755, -0.1875624805688858, 0.034524139016866684, 0.08692611008882523, -0.03377382457256317, 0.17376014590263367, 0.00834636203944683, 0.1684006005525589, -0.003125846618786454, -0.04494680464267731, 0.42446640133857727, 0.20624862611293793, 0.049104440957307816, 0.028128549456596375, -0.08566845208406448, 0.07174928486347198, -0.06831619888544083, 0.030237892642617226, 0.06780119985342026, -0.203957200050354, -0.022791622206568718, -0.06215847283601761, 0.10318345576524734, -0.14858292043209076, -0.044696662575006485, -0.07968781888484955, 0.07744395732879639, 0.00221327506005764, 0.05138440430164337, 0.0317029245197773, -0.06421098858118057, -0.14336517453193665, -0.09719173610210419, 0.12345930188894272, 0.24913521111011505, -0.07519854605197906, -0.10359526425600052, 0.050715260207653046, -0.06787318736314774, -0.041481487452983856, 0.04366552084684372, 0.011098494753241539, -0.10731834918260574, 0.1746399849653244, 0.10556311905384064, -0.15163736045360565, -0.04907132312655449, -0.03773122280836105, 0.07258009165525436, 0.06547637283802032, -0.07887308299541473, 0.03185959532856941, -0.3752729892730713, 0.3981613516807556, 0.20104916393756866, -0.001473926124162972, -0.013685952872037888, 0.05326735973358154, -0.2281913459300995, 0.01970105618238449, 0.0468306764960289, -0.10399267077445984, -0.15361736714839935, -0.06777770817279816, 0.10764148086309433, -0.1639186292886734, -0.1147182360291481, 0.2250979244709015, 0.14835809171199799, -0.2367781698703766, 0.12648478150367737, 0.18834750354290009, 0.011527069844305515, 0.17654699087142944, 0.22062382102012634, -0.03827657550573349, -0.1789562702178955, -0.09054432809352875, -0.13978564739227295, 0.19479262828826904, 0.05378648266196251, -0.15259864926338196, -0.04010988399386406, -0.33948588371276855, 0.14654013514518738, -0.10124608129262924, -0.33711040019989014, -0.09625161439180374, -0.12105540186166763, -0.19032491743564606, 0.10577355325222015, -0.0974915400147438, -0.19156989455223083, 0.05858578160405159, 0.1219891756772995, 0.07901379466056824, -0.22160810232162476, 0.0030561883468180895, -0.2628634572029114, -0.024266744032502174, -0.3513616919517517, 0.3508131802082062, 0.012822923250496387, -0.013951936736702919, 0.21289116144180298, 0.17435194551944733, 0.0367070771753788, 0.11639492958784103, 0.24255229532718658, -0.08819720894098282, 0.23057660460472107, 0.07533014565706253, 0.1679963767528534, 0.11338373273611069, 0.03162425011396408, 0.2092345505952835, -0.19014985859394073, 0.04411819204688072, -0.09110774844884872, 0.12499675899744034, 0.19298595190048218, 0.030930686742067337, -0.13981252908706665, 0.15791122615337372, -0.03117641992866993, -0.017308052629232407, -0.12346122413873672, -0.20791709423065186, -0.40295854210853577, -0.12803415954113007, 0.02031838148832321, -0.07793836295604706, 0.02705192379653454, 0.013011714443564415, 0.6106355786323547, -0.03910268843173981, -0.3203946352005005, 0.21304340660572052, -0.24651631712913513, -0.13817548751831055, 0.1302456557750702, -0.1853429526090622, 0.2522583603858948, -0.11966594308614731, 0.1379365772008896, -0.17015616595745087, 0.052150532603263855, -0.03286761790513992, 0.13210070133209229, 0.02889738418161869, 0.059858012944459915, -0.09578480571508408, 0.14812709391117096, -0.029826967045664787, -0.052342671900987625, 0.010838016867637634, 0.34435439109802246, 0.048304881900548935, 0.13834866881370544, -0.028751704841852188, -0.13616953790187836, 0.06889183074235916, -0.05086662992835045, -0.032125819474458694, -0.24244782328605652, -0.5682493448257446, 0.8585250377655029, 0.1318022459745407, -0.32852500677108765, -0.22229254245758057, -0.3260316252708435, -0.07478813081979752, 0.5367611646652222, -0.5673953890800476, 0.7938927412033081, 0.6006852388381958, 0.08149924129247665, -0.3348555862903595, 0.029177049174904823, -0.543645441532135, 0.18687108159065247, -0.2962086796760559, -0.06701156497001648, -0.31403249502182007, 0.2731046974658966, 0.18919841945171356, 0.1593446582555771, 0.05617139860987663, 0.26529693603515625, 0.14406944811344147, -0.03141939267516136, 0.11506743729114532, -0.2555103600025177, 0.03347378596663475, -0.21218876540660858, 0.03615153953433037, 0.16386829316616058, -0.08509112149477005, -0.005166748072952032, 0.07521577179431915, 0.3042308986186981, 0.0774659514427185, -0.07781117409467697, -0.18901368975639343, -0.05777760595083237, 0.07691088318824768, -0.11515871435403824, -0.334347128868103, 0.09043752402067184, 0.23037271201610565, 0.11194229871034622, 0.040148939937353134, 0.041190046817064285, -0.409426748752594, 0.2215915471315384, -0.29634666442871094, 0.21070998907089233, -0.001819627359509468, -0.10587813705205917, -0.42250871658325195, 0.021095288917422295, -0.012604747898876667, -0.3347146809101105, 0.25169095396995544, 0.14714446663856506, -0.09092937409877777, -0.1521075814962387, 0.16275544464588165, 0.2209026962518692, -0.1409393846988678, 0.29330316185951233, -0.04871951416134834, -0.08489122986793518, 0.041985463351011276, -0.36643606424331665, 0.06406640261411667, 0.2615693211555481, -0.11801505088806152, 0.06880050152540207, 0.11391202360391617, 0.11581069976091385, 0.11707102507352829, 0.22137868404388428, 0.0061113727279007435, 0.1810981035232544, 0.03807908296585083, 0.29780304431915283, -0.014505984261631966, 0.06543855369091034, -0.11885998398065567, 0.16675972938537598, 0.11804139614105225, 0.10918493568897247, -0.055517856031656265, -0.06101514399051666, -0.08271599560976028, -0.21118654310703278, -0.17434924840927124, 0.16251879930496216, -0.3025277554988861, -0.09045963734388351, -0.07792927324771881, 0.1738380640745163, 0.02393139712512493, -0.20585854351520538, 0.07299382239580154, 0.18952606618404388, -0.014411001466214657, -0.20202048122882843, -0.2757149934768677, 0.0720701515674591, 0.03525674715638161, 0.21527540683746338, 0.16915449500083923, 0.1429431140422821, -0.02471545897424221, 0.10072947293519974, 0.04386826977133751, -0.1443810909986496, 0.025358671322464943, 0.2719741463661194, -0.014230015687644482, 0.11600109934806824, -0.18221668899059296, -0.11273924261331558, 0.21597550809383392, -0.13028892874717712, 0.003914185333997011, 0.16097794473171234, 0.06367920339107513, 0.02765640802681446, 0.3958863317966461, 0.17015250027179718, 0.15868978202342987, -0.3860897719860077, -0.09504061937332153, 0.09123113751411438, -0.10519959032535553, 0.015619159676134586, 0.040834713727235794, 0.15145790576934814, 0.08693557232618332, 0.005477458238601685, 0.40322256088256836, 0.1044699177145958, 0.14721080660820007, -0.02690952643752098, 0.032071877270936966, -0.47679537534713745, 0.30869975686073303, -0.2093236744403839, 0.24977679550647736, 0.04678671807050705, -0.2886621952056885, -0.5205233693122864, 0.3301229178905487, -0.23324880003929138, 0.058349017053842545, -0.012227379716932774, 0.21587716042995453, -0.6484734416007996, 0.14967654645442963, 0.2957654595375061, 0.3393569588661194, 0.51747065782547, -0.08230645954608917, -0.09365958720445633, 0.07967245578765869, 0.05219588801264763, 0.16578902304172516, -0.08488418906927109, -0.1911507248878479, -0.2979191541671753, -0.02430623769760132, 0.13743655383586884, -0.34849631786346436, -0.17993217706680298, -0.2581600248813629, 0.25931835174560547, -0.12078637629747391, 0.29188090562820435, -0.22609242796897888, -0.20931868255138397, -0.37601161003112793, 0.34790483117103577, -0.21146491169929504, 0.11126802116632462, -0.05682719126343727, 0.36904290318489075, 0.23051470518112183, -0.414371520280838, 0.058160170912742615, -0.08173929154872894, -0.37349367141723633, 0.03401927277445793, 0.4503135085105896, 0.2953520715236664, 0.13843746483325958, -0.026134412735700607, 0.1691959798336029, -0.15810738503932953, 0.248822420835495, 0.3028435707092285, -0.018711600452661514, -0.1830720752477646, -0.15720078349113464, -0.08913854509592056, 0.23958854377269745, -0.1467389017343521, -0.25856396555900574, 0.10778837651014328, 0.04097834229469299, -0.3979923725128174, -0.14910878241062164, 0.04787367954850197, -0.012475737370550632, 0.09042225778102875, 0.18576057255268097, -0.2889501452445984, -0.1429966539144516, 0.09844385832548141, -0.05588521435856819, -0.014490253292024136, 0.005526782013475895, 0.04284128174185753, 0.17049309611320496, 0.03211833909153938, -0.22173239290714264, -0.2590479254722595, 0.27772781252861023, -0.06353694200515747, -0.15443259477615356, -0.04880234971642494, -0.15639793872833252, 0.30074357986450195, -0.03300527110695839, -0.19156762957572937, 0.12463503330945969, 0.13248543441295624, -0.09648744761943817, 0.003076076041907072, 0.09731628000736237, -0.056698597967624664, -0.08342574536800385, 0.04329712316393852, 0.1907753348350525, -0.030432691797614098, 0.2152879387140274, -0.11012046784162521, -0.2066991776227951, 0.13019265234470367, -0.41176578402519226, 0.29036378860473633, 0.1577332466840744, 0.1667070984840393, 0.04542386904358864, 0.0010898862965404987, -0.029029622673988342, 0.10081062465906143, -0.12016145884990692, 0.024143239483237267, -0.1043793112039566, -0.08559473603963852, -0.052130620926618576, -0.18220697343349457, -0.031329624354839325, -0.08129329234361649, -0.3510022461414337, 0.11215346306562424, 0.3065800666809082, 0.1661992371082306, 0.2070852518081665, -0.37987998127937317, -0.06301131099462509, -0.013364833779633045, 0.3840840458869934, 0.055535294115543365, 0.037139248102903366, 0.09375429898500443, 0.03274374082684517, -0.0789056271314621, 0.25455984473228455, 0.19640320539474487, -0.015130172483623028, -0.23133553564548492, -0.13674694299697876, 0.09137824922800064, 0.1334654539823532, 0.15611514449119568, 0.13273487985134125, -0.05647315829992294, 0.10987037420272827, -0.03833450749516487, 0.13291774690151215, -0.13881267607212067, -0.01922481507062912, 0.021246742457151413, 0.14679856598377228, 0.0946129858493805, 0.02448944002389908, 0.34420403838157654, -0.14411506056785583, 0.06291170418262482, -0.20280888676643372, -0.12666860222816467, -0.24766932427883148, -0.35024717450141907, 0.08081234991550446, -0.0700950026512146, 0.3068166673183441, 0.10226641595363617, 0.017537156119942665, 0.13385924696922302, -0.18214565515518188, -0.03968006372451782, 0.3252468407154083, 0.065912164747715, 0.06514173001050949, 0.15799061954021454, -0.19339768588542938, -0.06670424342155457, 0.08800797909498215, -0.08445306867361069, -0.06981422007083893, 0.18472729623317719, -0.023816214874386787, 0.0380629301071167, -1.1242661476135254, -0.06834093481302261, 0.12232401967048645, -0.25606462359428406, 0.16452021896839142, 0.0855063647031784, -0.2997788190841675, -0.15775690972805023, -0.28359705209732056, 0.04266813397407532, -0.05885491520166397, 0.3234407901763916, -0.3997056186199188, 0.08950093388557434, 0.1805042028427124, -0.10626616328954697, 0.18091492354869843, -0.064704030752182, -0.106570765376091, -0.043329279869794846, -0.2504882216453552, 0.029749546200037003, 0.016813868656754494, 0.45711183547973633, 0.310712605714798, -0.0375504307448864, 0.001783954445272684, 0.14998196065425873, -0.07633614540100098, -0.34555312991142273, -0.031494490802288055, -0.061631523072719574, 0.10671839863061905, -0.1348269283771515, -0.04445682466030121, -0.2040284425020218, -0.09367059171199799, 0.06539928913116455, 0.4209136664867401, 0.14770284295082092, -0.014443215914070606, 0.0458209253847599, 0.10801486670970917, 0.02875567600131035, 0.24886217713356018, -0.1737341433763504, 0.10257072746753693, -0.048573195934295654, 0.0006324624409899116, -0.008186617866158485, 0.184425950050354, -0.04000294581055641, -0.20237410068511963, 0.06916080415248871, -0.36189261078834534, 0.09605816751718521, 0.033849623054265976, 0.24576380848884583, -0.02965623326599598, 0.11587688326835632, 0.006725376937538385, -0.048904385417699814, 0.17075520753860474, 0.132242351770401, 0.09375259280204773, -0.04271163418889046, -0.13873088359832764, -0.21694301068782806, -0.13389433920383453, 0.09481236338615417, -0.054680757224559784, 0.2406732439994812, 0.049619562923908234, 0.08275719732046127, -0.08948014676570892, 0.06636650115251541, -0.20987258851528168, -0.2454940229654312, -0.02041023038327694, 0.027088534086942673, -0.1089547872543335, -0.004474736284464598, -0.08234944194555283, -0.1719456911087036, 0.06217778101563454, -0.00041055280598811805, 0.4035647213459015, -0.07772677391767502, 0.15946856141090393, -0.1283290982246399, 0.14707446098327637, -0.00998937152326107, 0.053259529173374176, -0.0675680860877037, -0.012342116795480251, -0.15429602563381195, 0.0687217265367508, -0.10180797427892685, 0.1682579517364502, -0.0473124235868454, -0.06835728138685226, 0.08193589001893997, -0.10972852259874344, 0.14337590336799622, -0.3255819082260132, -0.07571866363286972, -0.035229943692684174, 0.15029789507389069, 0.21041877567768097, 0.0064961896277964115, 0.22281868755817413, 0.005181714426726103, -0.08319325745105743, -0.017351655289530754, 0.1271340399980545, 0.10404032468795776, -0.0027464875020086765, 0.12508586049079895, -0.05417490750551224, 0.21345633268356323, -0.024364527314901352, 0.09009519964456558, 0.15082737803459167, -0.06980522722005844, -0.012395787052810192, -0.22836628556251526, 0.10815053433179855, 0.25247567892074585, 0.07780230790376663, 0.1373457908630371, 0.08390770107507706, -0.095675528049469, 0.20325328409671783, -0.08034352213144302, 0.10806740075349808, -0.362880140542984, -0.0448090061545372, -0.04283221811056137, 0.21658603847026825, 0.026706229895353317, 0.2506437301635742, -0.03613699972629547, 0.18071416020393372, 0.49632617831230164, 0.09396831691265106, -0.0718841701745987, 0.19635875523090363, -0.18542981147766113, -0.052003487944602966, 0.13071765005588531, -0.2807648181915283, -0.08299988508224487, -0.06566302478313446, 0.08229678124189377, 0.11585377156734467, 0.3763067126274109, -0.09333781152963638, 0.11625737696886063, -0.06934497505426407, 0.059896595776081085, 0.16558104753494263, 0.2006501704454422, 0.018312284722924232, -0.1571274995803833, 0.14440101385116577, -0.024302024394273758, 0.1814729869365692, 0.38965094089508057, 0.08938703685998917, 0.054986320436000824, -0.06370922178030014, -0.12283792346715927, -0.24486491084098816, -0.00796476285904646, 0.03707963973283768, -0.15074583888053894, -0.547174870967865, 0.010309935547411442, -0.013813866302371025, 0.16283850371837616, 0.025066658854484558, 0.12298118323087692, 0.14399239420890808, -0.20778611302375793, -0.18415066599845886, -0.19632041454315186, 0.005043948069214821, -0.017092488706111908, 0.15901465713977814, 0.02714081108570099, -0.20433425903320312, -0.22696997225284576, 0.02808498777449131, 0.05101267993450165, 0.06795848160982132, -0.07382529973983765, 0.06941157579421997, -0.20503947138786316, -0.04090059548616409, -0.05031439661979675, -0.16459080576896667, 0.1329788714647293, 0.08511140942573547, 0.031642407178878784, 0.09087219089269638, -0.12902994453907013, 0.0238032229244709, 0.16145984828472137, -0.14447817206382751, -0.0725390762090683, 0.008579153567552567, 0.10425601899623871, 0.016451654955744743, 0.13411803543567657, -0.15557359158992767, -0.1098995953798294, 0.16987960040569305, 0.18964223563671112, -0.07082214951515198, -0.0387873537838459, -0.06306859850883484, -0.13260085880756378, -0.23584692180156708, 0.06269963085651398, 0.17634110152721405, 0.10389278829097748, 0.019350768998265266, -0.1502389907836914, -0.4724262058734894, -0.14030197262763977, 0.11139314621686935, 0.00951387733221054, 0.13349097967147827, 0.0461733378469944, -0.10993196070194244, 0.0402744822204113, -0.13486327230930328, 0.10071811825037003, 0.036166172474622726, -0.01682811975479126, 0.6135156750679016, -0.11975208669900894, -0.022907709702849388, -0.021194415166974068, -0.11059033870697021, 0.045692168176174164, 0.026151219382882118, -0.036881767213344574, -0.044068120419979095, -0.14491035044193268, -0.02782115526497364, -0.04001015052199364, 0.34221264719963074, 0.07534715533256531, 0.00205623684450984, -0.08103299140930176, -0.17065605521202087, -0.2607690393924713, -0.11123225092887878, 0.009595162235200405, 0.2057802528142929, 0.13291612267494202, -0.059647466987371445, -0.03421419858932495, -0.21486718952655792, 0.022137559950351715, 0.08559170365333557, -0.0670490562915802, -0.09663611650466919, -0.16897989809513092, -0.037437934428453445, -0.06400876492261887, -0.04957989603281021, -0.10722976922988892, 0.11597702652215958, 0.06258716434240341, -0.038535572588443756, -0.1862773299217224, 0.05323188751935959, 0.019420411437749863, 0.1489304155111313, -0.174071803689003, -0.06526059657335281, 0.06780463457107544, 0.28408631682395935, 0.10564703494310379, 0.07457052916288376, 0.05863343924283981, -0.041207775473594666, 0.03131124749779701, -0.1287204623222351, -0.036154620349407196, -0.25577372312545776, 0.019669415429234505, -0.04817963019013405, 0.14350999891757965, 0.18431352078914642, 0.08640819042921066, -0.10130583494901657, -0.06797003746032715, -0.17445728182792664, -0.13937592506408691, -0.11056999862194061, -0.23736000061035156, 0.14307066798210144, 0.036437034606933594, 0.1651356965303421, 0.07703807204961777, -0.0404764749109745, 0.16933828592300415, -0.1477179229259491, 0.18869896233081818, -0.007063236087560654, -0.217246413230896, 0.14874766767024994, 0.08051085472106934, -0.04200461879372597, -0.12200869619846344, 0.06605622172355652, 0.036404285579919815, -0.0009757634252309799, 0.07598140835762024, -0.15825006365776062, 0.08250603079795837, 0.06859070062637329, 0.257988840341568, 0.044503435492515564, 0.09193765372037888, -0.12332944571971893, -0.02629360370337963, 0.22334371507167816, -0.12405626475811005, 0.0020122940186411142, -0.22866925597190857, -0.027943480759859085, -0.1863277554512024, 0.09909749031066895, 0.178253173828125, 0.035258132964372635, -0.08079111576080322, 0.02448318339884281, -0.2613275647163391, -0.155403271317482, -0.21104605495929718, -0.2866741716861725, 0.12730419635772705, 0.010129127651453018, 0.010918228887021542, -0.01700143702328205, -0.32186853885650635, 0.4530507028102875, 0.255187451839447, 0.06087089702486992, -0.023465268313884735, -0.12718479335308075, -0.05815928056836128, -0.053917884826660156, -0.108589768409729, -0.08068247884511948, -0.06658051908016205, -0.002863869769498706, -0.19789086282253265, -0.06775545328855515, 0.08606313169002533, -0.07583747059106827, -0.02593531645834446, 0.06947289407253265, -0.02404661849141121, -0.08594777435064316, -0.10776735097169876, -0.0010912423022091389, -0.20106977224349976, -0.05437423661351204, -0.23800723254680634, 0.21411940455436707, -0.1839408278465271, -0.08590708673000336, 0.02321026101708412, 0.04674818739295006, 0.0918378084897995, -0.023120809346437454, -0.13327883183956146, 0.09141094982624054, 0.09735111147165298, -0.12387055158615112, 0.21857865154743195, 0.027630919590592384, -0.1386241912841797, 0.11433561891317368, 0.12548312544822693, -0.14304141700267792, 0.152652770280838, -0.08109168708324432, 0.06478223204612732, -0.2305680811405182, 0.08574304729700089, 0.3610530495643616, 0.06757475435733795, 0.12694670259952545, 0.03496985137462616, 0.07313931733369827, -0.09571772068738937, -0.06911919265985489, 0.10406672954559326, 0.08439484238624573, 0.023000512272119522, 0.22948819398880005, 0.0011185636976733804, -0.0528421550989151, 0.1400887668132782, 0.12149693816900253, -0.015033138915896416, -0.10212459415197372, -0.058517616242170334, -0.01304053608328104, 0.12206241488456726, 0.04350527375936508, -0.03958960995078087, -0.13317742943763733, -0.054397597908973694, 0.08070878684520721, -0.16736528277397156, -0.020694231614470482, 0.201588436961174, -0.13333441317081451, 0.04963671788573265, -0.008189421147108078, -0.11107809096574783, 0.2993124723434448, -0.1161089688539505, -0.030888479202985764, 0.2596724033355713, -0.09116751700639725, 0.14087094366550446, -0.11946538835763931, -0.15257222950458527, -0.029047144576907158, 0.19711580872535706, -0.09443170577287674, 0.009032151661813259, 0.07959584891796112, 0.007763699162751436, -0.036301176995038986, -0.10743790864944458, 0.22685453295707703, -0.033909160643815994, -0.11808512359857559, -0.05196457356214523, 0.06354106217622757, -0.17527706921100616, 0.10486309975385666, -0.08674818277359009, -0.16762499511241913, 0.1671406775712967, 0.10142669081687927, -0.015293625183403492, -0.111320361495018, -0.25450533628463745, -0.14755962789058685, 0.02433170937001705, 0.02811281569302082, 0.11091157793998718, 0.13144654035568237, -0.041106462478637695, 0.23055396974086761, -0.08852599561214447, -0.15078489482402802, 0.1041598841547966, 0.19746115803718567, -0.07917844504117966, -0.022554589435458183, -0.09904134273529053, -0.12007279694080353, 0.06365374475717545, 0.09938276559114456, -0.0021441872231662273, -0.040959153324365616, -0.09770680963993073, -0.0005195558187551796, -0.12155644595623016, 0.04315415397286415, 0.20193487405776978, -0.04061681404709816, -0.021471861749887466, 0.1419500857591629, -0.16139540076255798, -0.037759702652692795, -0.07459545135498047, 0.03065834753215313, 0.21127799153327942, -0.11573773622512817, 0.019038747996091843, 0.1474008709192276, -0.19838884472846985, 0.08069780468940735, -0.027114685624837875, 0.24115270376205444, 0.08100754767656326, -0.22917436063289642, -0.03821052610874176, 0.20393598079681396, 0.07348344475030899, -0.055085111409425735, -0.0343923419713974, -0.12121875584125519, -0.22662153840065002, -0.23297181725502014, 0.04553317651152611, -0.060019176453351974, -0.10088866949081421, 0.10113364458084106, 0.05047323927283287, -0.2555878460407257, -0.4415941536426544, 0.03103257715702057, 0.0824071392416954, 0.3437144160270691, -0.0586174838244915, 0.017973221838474274, 0.01285235583782196, -0.18593986332416534, -0.001959922257810831, 0.29089686274528503, 0.11176826059818268, -0.05289372056722641, -0.09479808062314987, 0.10477021336555481, 0.17959119379520416, -0.15159755945205688, 0.10026440024375916, 0.11934208124876022, -0.22188927233219147, 0.18838569521903992, -0.057365331798791885, -0.08088503777980804, -0.13530515134334564, -0.1999894231557846, 0.044127143919467926, 0.18244604766368866, 0.30907097458839417, 0.17974385619163513, 0.14118649065494537, -0.005158400163054466, -0.060688283294439316, 0.1683264672756195, 0.017534226179122925, -0.06329426169395447, 0.10694579035043716, -0.28758370876312256, -0.2620384693145752, -0.053035758435726166, -0.291172593832016, -0.20497490465641022, -0.1790037304162979, 0.029138771817088127, 0.04307662323117256, 0.022321749478578568, 0.037509988993406296, -0.05734943225979805, -0.34332701563835144, 0.16487066447734833, -0.3269069492816925, 0.10780902951955795, 0.045648545026779175, 0.17796625196933746, 0.09013534337282181, 0.11213812232017517, -0.21085350215435028, -0.062300968915224075, 0.01768990233540535, 0.12360356003046036, -0.11127562075853348, -0.27959275245666504, -0.29667583107948303, -0.07722499221563339, -0.3160911798477173, 0.08166411519050598, 0.0027250461280345917, 0.17795950174331665, -0.04764421284198761, 0.0900404304265976, -0.09626203775405884, 0.23176637291908264, -0.009928149171173573, -0.28025704622268677, -0.0914396271109581, 0.07088445127010345, 0.22259937226772308, -0.1853301227092743, 0.11163453012704849, -0.043022170662879944, 0.24323363602161407, -0.05488310009241104, 0.25999823212623596, -0.044573768973350525, -0.23621319234371185, 0.003959977999329567, 0.10452191531658173, 0.03450094163417816, 0.1236095204949379, 0.03687256574630737, 0.2218090146780014, 0.06680817157030106, 0.28888699412345886, 0.010639655403792858, -2.6038072974188253e-05, 0.17746905982494354, 0.15450634062290192, 0.4558575451374054, 0.04678595811128616, -0.0867210328578949, -0.09924797713756561, -0.11646179109811783, -0.06296820193529129, -0.1571602076292038, -0.3267284035682678, -0.053868409246206284, -0.09141013026237488, 0.18459296226501465, 0.17623655498027802, 0.13852757215499878, 0.10197370499372482, 0.155970498919487, 0.20831072330474854, 0.022109799087047577, 0.06023814156651497, -0.023519625887274742, -0.08009801059961319, -0.01508766133338213, -0.04908141866326332, 0.004258365835994482, -0.11829686164855957, -0.06876598298549652, 0.23656921088695526, -0.07562890648841858, -0.27870067954063416, 0.1394520401954651, -0.0242005567997694, -0.06587166339159012, 0.1516004502773285, -0.19497522711753845, 0.0033230904955416918, 0.06931863725185394, -0.06176631152629852, 0.03332348167896271, 0.023657022044062614, -0.06702638417482376, -0.06508290767669678, 0.1934172362089157, 0.0222622137516737, -0.02058524265885353, -0.15585803985595703, 0.1904446929693222, -0.07333958894014359, -0.1401429921388626, 0.013959011994302273, -0.02991248480975628, 0.11776753515005112, 0.08364259451627731, 0.10446137934923172, -0.04931040480732918, -0.19121916592121124, -0.18519645929336548, 0.2088516354560852, -0.015655219554901123, 0.10101841390132904, -0.07629901170730591, -0.06660222262144089, -0.11277853697538376, 0.11968198418617249, 0.046138323843479156, -0.13924525678157806, -0.10905257612466812, -0.20972880721092224, -0.050419051200151443, 0.069644995033741, -0.1343129426240921, 0.12160885334014893, 0.08014874905347824, -0.005505341105163097, 0.19149968028068542, -0.1533227413892746, 0.16013817489147186, 0.1627459079027176, 0.05597599223256111, -0.15144382417201996, 0.060635026544332504, 0.12767170369625092, -0.1876189112663269, -0.0767926275730133, -0.027293339371681213, -0.16663402318954468, -0.17666564881801605, -0.24593938887119293, -0.06457763910293579, 0.13718408346176147, 0.25102221965789795, 0.010693839751183987, 0.0601997934281826, 0.04064043611288071, -0.03909337893128395, -0.11918797343969345, 0.05166597664356232, 0.24029739201068878, -0.1939730942249298, -0.014209447428584099, 0.054870571941137314, -0.020226405933499336, -0.2756107449531555, -0.04360264167189598, 0.06810007244348526, -0.04461640119552612, -0.13753896951675415, -0.11266489326953888, 0.1274746060371399, -0.00912013091146946, 0.12995000183582306, -0.20179715752601624, -0.001869059051387012, -0.08205710351467133, 0.07704886049032211, -0.19090253114700317, 0.050630390644073486, 0.15276354551315308, -0.1296650767326355, 0.15862075984477997, 0.21708393096923828, 0.16190968453884125, 0.1545877307653427, 0.0010867068776860833, -0.04898166283965111, 0.05708509683609009, -0.15164221823215485, 0.009371996857225895, -0.10676446557044983, 0.151889830827713, -0.0844566598534584, 0.13975921273231506, 0.013597055338323116, -0.17926278710365295, -0.1971515715122223, 0.19923344254493713, 0.05808085575699806, 0.057475343346595764, -0.00310261151753366, 0.05760098993778229, 0.055759504437446594, 0.007033074740320444, 0.10340477526187897, 1.0268735885620117, 0.17146903276443481, 0.3860892057418823, -0.9692419767379761, -0.49527567625045776, -0.5138497948646545, 0.054132819175720215, -0.00979716144502163, 0.3871587812900543, 0.23341310024261475, -0.9338268041610718, 0.42853912711143494, 0.16329488158226013, -0.7683716416358948, 0.0803271234035492, -0.37724950909614563, 0.00450789975002408, -0.261956125497818, 0.27289241552352905, -0.1771346777677536, -0.11210017651319504, 0.04454803839325905, 0.06466390937566757, -0.0851782038807869, -0.29522639513015747, 0.010614937171339989, -0.03379525616765022, 0.0661788210272789, -0.12228410691022873, -0.1056578978896141, 0.21070431172847748, -0.039973899722099304, -0.006610866170376539, -0.0966041088104248, 0.13558584451675415, -0.16613341867923737, 0.08869192004203796, 0.24278943240642548, 0.281784325838089, -0.3899025022983551, -0.25842663645744324, -0.07303235679864883, -0.25134000182151794, -0.02878677286207676, 0.14619868993759155, -0.013944747857749462, 0.21512927114963531, 0.2722245752811432, -0.039174892008304596, 0.15673713386058807, -0.029282212257385254, -0.25067460536956787, -0.027623595669865608, -0.23259520530700684, -0.2867567837238312, 0.05632704123854637, 0.37461403012275696, 0.023744750767946243, -0.006128737237304449, -0.033264707773923874, 0.14091458916664124, 0.010642004199326038, -0.1583545058965683, 0.18041719496250153, -0.059320785105228424, -0.13014528155326843, -0.22013458609580994, -0.02215283364057541, 0.08333344012498856, -0.10132090002298355, 0.11699497699737549, 0.31078845262527466, -0.09055770933628082, 0.017086658626794815, 0.25388333201408386, -0.13542474806308746, 0.33908265829086304, 0.13003110885620117, -0.0005227033980190754, -0.0051174587570130825, 0.18745079636573792, -0.01284664124250412, -0.01819496974349022, 0.026075664907693863, 0.056918300688266754, -0.1074099913239479, 0.06222366541624069, -0.2905902564525604, 0.20502546429634094, 0.13550613820552826, 0.06593100726604462, 0.08697286248207092, -0.11563438922166824, -0.3169799745082855, -0.06820475310087204, -0.11802714318037033, -0.32938507199287415, 0.29810822010040283, 0.17509612441062927, 0.35313835740089417, -0.1234152689576149, 0.11346576362848282, 0.041370224207639694, -0.07104422897100449, 0.1123289093375206, 0.11709118634462357, -0.3624526262283325, 0.04023677855730057, -0.14818976819515228, 0.15708300471305847, -0.18849460780620575, -0.09699651598930359, -0.08542788773775101, -0.1917760670185089, -0.19959644973278046, -0.09352649003267288, -0.09542303532361984, -0.17950405180454254, 0.12150093913078308, 0.03705795481801033, -0.2201986461877823, 0.236336812376976, 0.13193608820438385, 0.11052146553993225, 0.08675156533718109, 0.04334229975938797, 0.04759446904063225, -0.07420079410076141, -0.010289075784385204, 0.09063003212213516, -0.36775726079940796, -0.005577495321631432, 0.3575938940048218, 0.08986275643110275, -0.29223379492759705, 0.33527466654777527, -0.10654410719871521, 0.1076643243432045, 0.2831849753856659, -0.08735769242048264, -0.41923215985298157, 0.10418561100959778, 0.1297542154788971, 0.024457255378365517, -0.19717614352703094, -0.1405516117811203, -0.4338352680206299, -0.04898669198155403, 0.1257878541946411, 0.1285264641046524, -0.06734011322259903, 0.19792181253433228, -0.24687033891677856, 0.061946842819452286, -0.0596519373357296, -0.09047210216522217, 0.10065183788537979, 0.2297976016998291, -0.050433650612831116, 0.1118142232298851, -0.08024120330810547, 0.1145356073975563, 0.04360715672373772, -0.10914633423089981, -0.17936457693576813, 0.2227950245141983, -0.34943974018096924, 0.10317723453044891, -0.19983883202075958, -0.33264070749282837, -0.024250462651252747, -0.2632371783256531, 0.36375635862350464, -0.32588207721710205, 0.21837694942951202, 0.06838210672140121, -0.06610896438360214, 0.0009082312462851405, -0.35213229060173035, -0.21435819566249847, -0.25909796357154846, 0.05936989188194275, -0.018128976225852966, -0.2789197266101837, 0.13897719979286194, 0.05136403813958168, -0.0626056045293808, -0.006245959550142288, -0.1656108796596527, -0.012729260139167309, 0.14499594271183014, -0.05854997783899307, 0.17121264338493347, 0.12199249118566513, -0.08455755561590195, -0.027348332107067108, -0.18810442090034485, -0.3692958354949951, 0.1937854140996933, 0.16538426280021667, -0.10272086411714554, -0.031865719705820084, 0.19875243306159973, 0.3103587031364441, -0.047535061836242676, 0.254665344953537, -0.20166118443012238, -0.19555436074733734, 0.044793400913476944, 0.268229603767395, 0.20608802139759064, 0.3147040009498596, -0.13088266551494598, 0.04347069188952446, -0.1996181756258011, 0.07366026192903519, 0.08515816181898117, 0.034788601100444794, -0.1458009034395218, -0.19054369628429413, -0.11208462715148926, 0.22376267611980438, -0.08582329005002975, -0.040471695363521576, 0.039284732192754745, 0.022701309993863106, -0.05708876624703407, 0.28176847100257874, -0.06126299500465393, 0.08382780104875565, -0.16190360486507416, 0.18756107985973358, 0.0011717411689460278, 0.17395515739917755, 0.2696967124938965, -0.10076428204774857, -0.2285364866256714, -0.38410714268684387, -0.1179695874452591, -0.05304984003305435, 0.12658542394638062, 0.07061838358640671, 0.12280245125293732, 0.06230757758021355, -0.04598948359489441, -0.09283917397260666, -0.10313672572374344, 0.0033279969356954098, -0.1704157441854477, 0.10121697187423706, -0.3915887773036957, -0.07530974596738815, 0.3446044325828552, 0.055402811616659164, 0.0118205351755023, 0.06777992844581604, 0.027088439092040062, 0.1014980673789978, -0.28412455320358276, -0.2623147964477539, -0.23477445542812347, -0.37714606523513794, 0.3151450753211975, 0.016723286360502243, -0.5126360058784485, 0.030042050406336784, -0.26801422238349915, -0.06352382898330688, 0.16354498267173767, 0.12376614660024643, 0.13810676336288452, 0.12243251502513885, -0.19023019075393677, 0.01656896062195301, 0.03600383549928665, -0.11034375429153442, 0.12855423986911774, 0.02643773704767227, 0.055621836334466934, 0.0634019672870636, -0.0948769822716713, 0.07656671851873398, 0.105768121778965, 0.08132922649383545, 0.010118728503584862, -0.1737217903137207, -0.053274285048246384, -0.06710371375083923, -0.006245083641260862, 0.16867569088935852, -0.24248185753822327, 0.07840879261493683, 0.09084763377904892, 0.027142614126205444, -0.08097416907548904, -0.015513760037720203, -0.10335790365934372, -0.043690916150808334, 0.08328024297952652, -0.04136952757835388, -0.06699185818433762, 0.1786658763885498, -0.23408818244934082, 0.20514319837093353, -0.114393450319767, 0.06625963747501373, 0.18514950573444366, -0.05507771298289299, -0.018238119781017303, -0.007490263320505619, -0.2826353907585144, -0.1637820154428482, -0.08962549269199371, 0.1461353451013565, 0.1598796248435974, 0.2820020914077759, 0.001378093147650361, -0.40887168049812317, -0.05133877694606781, 0.04777694121003151, -0.13491716980934143, -0.10360867530107498, 0.2792174220085144, -0.37913936376571655, -0.053541652858257294, 0.05229390785098076, 0.29388290643692017, -0.21765413880348206, -0.07299979776144028, 0.0917571634054184, 0.4031248092651367, 0.12969698011875153, 0.1781797707080841, 0.19145707786083221, 0.13015182316303253, -0.1583085060119629, -0.004168505314737558, -0.09753116965293884, 0.16803979873657227, 0.05071157217025757, 0.006518934387713671, 0.006867001764476299, -0.08744750916957855, -0.09675291180610657, -0.11539684236049652, -0.053443312644958496, 0.1493953913450241, -0.09325116872787476, 0.1896628737449646, 0.07949374616146088, -0.026769794523715973, 0.08028751611709595, -0.06604725122451782, -0.12004363536834717, -0.05948755145072937, 0.3308977782726288, 0.06203988566994667, -0.01704895868897438, 0.028837213292717934, 0.13044089078903198, -0.012293851003050804, -0.07047972828149796, -0.07607653737068176, 0.03151579201221466, 0.12714315950870514, -0.2372768670320511, 0.002091445727273822, 0.01924227364361286, 0.21321097016334534, -0.13355842232704163, 0.07332704216241837, -0.24120698869228363, -0.07603512704372406, -0.19403524696826935, 0.11024770885705948, -0.08623643219470978, -0.06886712461709976, 0.15206030011177063, 0.24021926522254944, 0.001348334364593029, -0.14479072391986847, 0.04939673840999603, -0.02039584144949913, -0.15599121153354645, 0.173974871635437, -0.22563733160495758, 0.00890389084815979, -0.16194310784339905, 0.08295498043298721, 0.3351595997810364, -0.13089290261268616, -0.24072323739528656, 0.45593440532684326, -0.1405867338180542, 0.2976005971431732, 0.28785574436187744, -0.03991426154971123, -0.17621591687202454, -0.2349216639995575, 0.2115021049976349, 0.10955023765563965, 0.19917377829551697, 0.12974095344543457, 0.594521701335907, 0.29881611466407776, -0.233421191573143, -0.18882712721824646, -0.6061230897903442, -0.064149871468544, 0.048229265958070755, -0.008182103745639324, 0.1571500301361084, -0.021451110020279884, 0.04527343064546585, 0.02735755406320095, 0.19897617399692535, 0.09195186197757721, 0.013284970074892044, 0.4256831407546997, -0.1315038502216339, -0.1317288875579834, 0.008274312131106853, 0.03974991664290428, -0.13164298236370087, 0.04215073585510254, -0.0746259093284607, 0.1399076282978058, -0.055179256945848465, 0.1296132504940033, 0.20766469836235046, -0.16003064811229706, 0.062195271253585815, -0.12607441842556, -0.1274203509092331, -0.05313743278384209, 0.022443629801273346, -0.0036837044171988964, -0.2578486502170563, 0.14863325655460358, 0.13572680950164795, -0.2145928591489792, -0.10352757573127747, -0.2864890694618225, 0.05130442604422569, 0.07840031385421753, 0.023804107680916786, 0.09556420892477036, -0.251591295003891, -0.058011069893836975, 0.18389876186847687, -0.13499727845191956, -0.21352772414684296, -0.07889225333929062, 0.008886069990694523, 0.06813345104455948, 0.26403868198394775, 0.1872914582490921, 0.06551458686590195, 0.31954601407051086, -0.11610885709524155, -0.01621011644601822, 0.16317899525165558, -0.07391662895679474, -0.055813007056713104, -0.18790017068386078, -0.22715607285499573, -0.2177678793668747, 0.015572432428598404, 0.023513145744800568, 0.04876862093806267, -0.13547919690608978, 0.05639787018299103, 0.03117033839225769, -0.15241971611976624, -0.1160041093826294, -0.11463741213083267, 0.19754096865653992, -0.14453721046447754, -0.039082106202840805, 0.17663000524044037, 0.30674847960472107, 0.03965500369668007, 0.0468490794301033, -0.05499672144651413, -0.21547599136829376, -0.1316181719303131, -0.07031618803739548, -0.12462862581014633, -0.33803802728652954, -0.18394197523593903, 0.23682034015655518, 0.46660593152046204, 0.03998483717441559, -0.05527695268392563, 0.10829034447669983, 0.06904256343841553, 0.01908772811293602, -0.017553536221385002, -0.14551682770252228, 0.25465697050094604, -0.4094538390636444, -0.02464459463953972, 0.057361043989658356, -0.4716688394546509, -0.10643205791711807, -0.12856532633304596, 0.48424750566482544, 0.07093793153762817, 0.03607018291950226, -0.006108366418629885, -0.057879019528627396, 0.0029322761110961437, -0.44367602467536926, 0.18676304817199707, 0.15264904499053955, 0.10699884593486786, -0.16845574975013733, 0.06687010079622269, 0.1197686642408371, -0.011877586133778095, 0.15146957337856293, 0.18096929788589478, -0.06973018497228622, -0.28043055534362793, -0.08065420389175415, 0.17918597161769867, -0.014908872544765472, 0.03786325082182884, -0.1499808430671692, 0.028312841430306435, -0.1783566027879715, -0.11871694773435593, -0.11972188204526901, -0.11548366397619247, -0.027639638632535934, 0.21474988758563995, -0.12800468504428864, 0.2029879242181778, -0.043662477284669876, -0.02818244695663452, 0.018452266231179237, -0.07744292169809341, -0.08315876871347427, -0.10047101974487305, -0.0018726098351180553, -0.08614911884069443, 0.08095036447048187, 0.10921751707792282, -0.15089407563209534, -0.07834869623184204, -0.08527351915836334, -0.01192754041403532, -0.11940114200115204, -0.10839947313070297, 0.19786734879016876, 0.060725267976522446, 0.08935373276472092, -0.33026713132858276, 0.036724042147397995, -0.06976645439863205, 0.05742861330509186, -0.057307153940200806, 0.25266438722610474, 0.03669634088873863, 0.031149128451943398, -0.2033630907535553, 0.03593345358967781, -0.12587395310401917, -0.08853945136070251, 0.21674945950508118, 0.11783738434314728, 0.22686485946178436, -0.32944560050964355, 0.14202815294265747, 0.17377980053424835, -0.08982552587985992, 0.1603737622499466, -0.0921764150261879, -0.09312156587839127, 0.22115448117256165, -0.02414824813604355, -0.21775095164775848, 0.02128850482404232, -0.17873020470142365, 0.10351818054914474, 0.008989673107862473, -0.12331539392471313, 0.022334977984428406, 0.10001366585493088, 0.22093565762043, -0.06182323023676872, 0.1743963062763214, 0.18707869946956635, -0.03388681635260582, -0.12644271552562714, 0.049636244773864746, 0.16476526856422424, -0.20734922587871552, 0.06860806047916412, -0.048981741070747375, 0.007012234069406986, -0.19880136847496033, 0.19413098692893982, 0.16074703633785248, 0.13745348155498505, -0.04042862355709076, 