{"version": "0.5.1", "metadata": {"date": {"year": 2023, "month": 6, "day": 12, "hour": 2, "minute": 8, "second": 51}, "loudness": -14.360860824584961, "gain": 0.6657532163178205, "name": null, "modeled_by": null, "gear_type": null, "gear_make": null, "gear_model": null, "tone_type": null}, "architecture": "WaveNet", "config": {"layers": [{"input_size": 1, "condition_size": 1, "head_size": 8, "channels": 16, "kernel_size": 3, "dilations": [1, 2, 4, 8, 16, 32, 64, 128, 256, 512], "activation": "Tanh", "gated": false, "head_bias": false}, {"input_size": 16, "condition_size": 1, "head_size": 1, "channels": 8, "kernel_size": 3, "dilations": [1, 2, 4, 8, 16, 32, 64, 128, 256, 512], "activation": "Tanh", "gated": false, "head_bias": true}], "head": null, "head_scale": 0.02}, "weights": [0.04731222987174988, 0.6388434767723083, -0.514431893825531, -0.8017353415489197, -0.36043065786361694, 0.10323222726583481, 0.019305625930428505, 0.7837424278259277, -0.021945742890238762, 0.19433382153511047, -0.13065508008003235, -0.22439229488372803, -0.9082567095756531, -0.688221275806427, -0.37296420335769653, 0.017395222559571266, 0.1413234919309616, 0.11458784341812134, -0.05717940255999565, -0.1806907206773758, -0.03710249438881874, 0.1777692437171936, 0.08511219173669815, 0.19361646473407745, -0.07410859316587448, 0.1333649754524231, 0.2192283272743225, -0.1925734132528305, 0.02140842005610466, 0.04590678587555885, -0.1184212863445282, 0.013938184827566147, -0.16686633229255676, -0.001420091837644577, 0.026714038103818893, -0.06782654672861099, -0.09153930842876434, 0.00836150161921978, -0.025068514049053192, 0.1271347850561142, 0.11691823601722717, -0.0035742546897381544, -0.03805074095726013, -0.23997654020786285, -0.1771896928548813, -0.0021716339979320765, 0.19663329422473907, 0.15944772958755493, -0.12838497757911682, 0.10492780804634094, 0.17198321223258972, 0.07481451332569122, 0.17487749457359314, 0.10856600850820541, 0.03872552141547203, 0.033403560519218445, 0.11592880636453629, -0.17001846432685852, 0.013968933373689651, 0.012603330425918102, 0.009694182313978672, 0.04205116629600525, -0.15075577795505524, 0.0250394307076931, 0.03660859167575836, -0.014686904847621918, -0.15367916226387024, 0.1534048169851303, -0.022133711725473404, 0.17613326013088226, -0.2256661355495453, 0.05191432684659958, 0.018727118149399757, -0.0022861994802951813, 0.23447436094284058, 0.08857814222574234, -0.08762844651937485, -0.01165339071303606, -0.021744823083281517, 0.01534411683678627, -0.23844748735427856, 0.16682638227939606, 0.07074973732233047, -0.04273783043026924, -0.008589798584580421, 0.09118147939443588, -0.13225288689136505, -0.029094718396663666, -0.04273718595504761, 0.014122634194791317, -0.0012081344611942768, 0.17891386151313782, -0.004603497218340635, 0.09034907072782516, -0.24661947786808014, 0.006133152171969414, 0.03117753006517887, -0.08167841285467148, 0.0024098814465105534, -0.11909852921962738, 0.01651851274073124, 0.2052280306816101, -0.10080382227897644, -0.15536321699619293, -0.028022006154060364, -0.04047439992427826, -0.22549651563167572, -0.000585937756113708, -0.04502846673130989, -0.05935001000761986, -0.16322311758995056, 0.06555786728858948, 0.018376586958765984, 0.0141822574660182, 0.13303904235363007, -0.1670367270708084, 0.10286649316549301, -0.11389317363500595, 0.05986212193965912, -0.09931384027004242, 0.16458187997341156, 0.05202975124120712, -0.20847254991531372, 0.1883716732263565, -0.08771946281194687, -0.21710196137428284, 0.08900988847017288, -0.12023013830184937, 0.06838591396808624, -0.24805571138858795, 0.02308586984872818, -0.13860169053077698, -0.02844233438372612, -0.04923287406563759, 0.23814737796783447, -0.13273392617702484, 0.08542238175868988, -0.10771340876817703, 0.18524831533432007, 0.037190813571214676, 0.2525164484977722, -0.04325571656227112, 0.18664248287677765, -0.13009028136730194, -0.0038745931815356016, -0.010518016293644905, -0.02727155014872551, 0.13506996631622314, -0.030734142288565636, -0.24729515612125397, -0.01682867482304573, -0.07798957824707031, -0.1652425229549408, 0.19967485964298248, 0.12620149552822113, -0.2726609706878662, 0.20942331850528717, -0.010819346643984318, -0.038574084639549255, -0.010370832867920399, 0.020465567708015442, 0.022090863436460495, -0.1635442078113556, -0.2873811721801758, -0.12093684822320938, 0.16226378083229065, 0.08973295241594315, 0.148739293217659, -0.2810419201850891, 0.15377356112003326, 0.2257680892944336, -0.21812064945697784, 0.28744158148765564, 0.14187176525592804, -0.298111230134964, -0.05224957689642906, -0.09836938977241516, 0.10273335129022598, 0.17491169273853302, -0.09237660467624664, -0.14465613663196564, -0.18921002745628357, 0.004871490877121687, 0.19705060124397278, 0.19320909678936005, 0.11496081203222275, -0.21389950811862946, -0.17417162656784058, -0.20052817463874817, 0.2505558431148529, 0.2554442286491394, 0.18365062773227692, -0.2644977867603302, 0.1607590913772583, -0.014266016893088818, -0.2539753317832947, 0.07772742211818695, 0.14866897463798523, -0.24306991696357727, 0.15799738466739655, 0.10336442291736603, -0.06651632487773895, 0.045374419540166855, -0.007363686803728342, -0.2448038011789322, 0.11165646463632584, -0.05939081683754921, 0.11991589516401291, 0.03074391558766365, 0.08777189254760742, -0.024649767205119133, -0.10298926383256912, -0.13321080803871155, 0.042970672249794006, 0.0702977403998375, 0.16509290039539337, -0.1804019957780838, 0.0005111063946969807, 0.26903611421585083, -0.19059807062149048, 0.05958947911858559, 0.28631702065467834, -0.03251482918858528, -0.05876581370830536, -0.2592179775238037, 0.1520233154296875, -0.05918675288558006, 0.10023888945579529, -0.0753040686249733, -0.09362532943487167, -0.1490761637687683, 0.18961739540100098, 0.056416891515254974, 0.239101380109787, -0.013597617857158184, -0.1486307829618454, -0.065697580575943, -0.013246303424239159, -0.003881242359057069, 0.17710073292255402, -0.028778204694390297, 0.17275461554527283, 0.09004130214452744, -0.0946417972445488, 0.14934039115905762, 0.012608061544597149, 0.0334443673491478, -0.044999342411756516, 0.1531224250793457, -0.09734401851892471, -0.009015855379402637, 0.16374064981937408, 0.04164036735892296, 0.02384788542985916, -0.006005663424730301, -0.018391670659184456, -0.09341128915548325, 0.017390239983797073, -0.059610556811094284, -0.018524043262004852, -0.10233257710933685, 0.015421617776155472, -0.0026434361934661865, 0.12631459534168243, 0.10929998010396957, -0.12763303518295288, -0.020711971446871758, 0.11065258085727692, 0.04600164666771889, 0.06231942027807236, 0.001971531193703413, -0.005498346872627735, -0.16322067379951477, -0.05092000961303711, -0.08040986955165863, -0.14153791964054108, 0.2101438343524933, -0.014151003211736679, -0.03624507039785385, -0.025540338829159737, -0.027300164103507996, -0.0509856715798378, -0.02002064697444439, 0.18167029321193695, -0.003282468765974045, 0.040211766958236694, -0.1167786493897438, 0.06408189237117767, 0.04004332795739174, -0.07071950286626816, -0.0606645904481411, 0.13096998631954193, -0.03486328944563866, 0.015468553639948368, 0.034367650747299194, -0.167536199092865, 0.12038933485746384, -0.03910915181040764, -0.01448837947100401, -0.02496289275586605, -0.003067554207518697, 0.06517970561981201, -0.13390982151031494, 0.03857102990150452, 0.09407370537519455, -0.23793068528175354, 0.03819568455219269, 0.08025626838207245, 0.21055296063423157, -0.10774940252304077, -0.14029154181480408, -0.16978058218955994, 0.12805621325969696, -0.0731508731842041, -0.09770868718624115, 0.18567219376564026, -0.08919671177864075, -0.14497490227222443, 0.1541804075241089, 0.020200110971927643, 0.14289826154708862, -0.08465276658535004, -0.11686217039823532, -0.17472435534000397, 0.14879481494426727, 0.1501365453004837, 0.23374515771865845, -0.06845861673355103, 0.08876381069421768, -0.17832081019878387, 0.006103526800870895, -0.11814077943563461, 0.27321329712867737, -0.014392469078302383, -0.10927721858024597, -0.07711544632911682, 0.2053564488887787, 0.13842818140983582, -0.013457212597131729, 0.21800704300403595, -0.05454526096582413, -0.20146380364894867, 0.20682673156261444, 0.06123732775449753, -0.23732852935791016, 0.21957480907440186, 0.054661206901073456, -0.0691809356212616, -0.0022777393460273743, 0.09791645407676697, -0.08098003268241882, 0.13580863177776337, -0.022966556251049042, -0.010873916558921337, -0.0038273781538009644, 0.07170084118843079, 0.122362419962883, 0.09945256263017654, -0.11330599337816238, -0.1338122934103012, -0.12926574051380157, -0.15496057271957397, -0.2882307469844818, 0.08395455777645111, 0.07227819412946701, -0.028249703347682953, 0.09370915591716766, -0.11874093115329742, 0.05950598046183586, -0.002541204681620002, -0.11673381179571152, -0.03578367829322815, -0.13666580617427826, -0.058531299233436584, 0.03277904912829399, -0.05022953078150749, 0.12552616000175476, -0.021303843706846237, 0.09834516048431396, 0.11244069039821625, 0.28244268894195557, -0.02279377542436123, 0.05882574990391731, -0.027874646708369255, 0.026698870584368706, 0.14523109793663025, -0.08284073323011398, 0.07541286200284958, -0.06453261524438858, -0.1038614958524704, -0.01494431309401989, -0.04722673445940018, -0.25387006998062134, -0.1114276796579361, -0.11804449558258057, -0.07010966539382935, 0.07579737901687622, -0.07242831587791443, -0.13100630044937134, 0.06342769414186478, 0.19135594367980957, -0.12310705333948135, -0.03425728902220726, 0.06552617996931076, 0.2161281853914261, -0.09900153428316116, 0.1988862007856369, -0.03879151493310928, -0.06877495348453522, 0.1459982693195343, -0.2384391576051712, -0.033489763736724854, 0.19377237558364868, -0.14458826184272766, -0.10701050609350204, -0.11736967414617538, 0.09736669808626175, -0.032987385988235474, 0.08025792986154556, -0.05108724907040596, 0.012971321120858192, -0.15111766755580902, 0.16048157215118408, 0.08143404126167297, 0.17615650594234467, -0.2399381846189499, 0.01596442423760891, -0.17844648659229279, 0.07465281337499619, 0.047044139355421066, -0.0363348126411438, -0.08573786914348602, 0.12076517939567566, 0.08688514679670334, -0.24018238484859467, -0.04395816847681999, 0.09343867748975754, -0.26523879170417786, 0.05905021354556084, -0.0655883401632309, -0.29259374737739563, -0.1502334326505661, 0.04284663498401642, -0.051210079342126846, -0.1426214724779129, 0.17409339547157288, -0.11915500462055206, 0.017321862280368805, 0.02841431275010109, -0.05735686793923378, 0.1404293328523636, 0.25530165433883667, 0.10157778859138489, 0.0743524357676506, -0.26673898100852966, 0.1526212841272354, -0.003990584053099155, -0.11158188432455063, -0.07609540969133377, -0.04415027052164078, -0.3132856488227844, -0.010550771839916706, 0.031704939901828766, 0.043941106647253036, 0.00206905510276556, 0.06296947598457336, -0.019127368927001953, 0.03662109375, 0.019036687910556793, 0.13227754831314087, 0.027249228209257126, 0.1458810567855835, -0.049076687544584274, 0.04970409721136093, 0.0776979997754097, 0.021060576662421227, -0.164218470454216, 0.0570756159722805, -0.24258984625339508, 0.10403654724359512, -0.09727456420660019, -0.23535369336605072, -0.06804026663303375, 0.09067891538143158, -0.1939266473054886, 0.14712980389595032, 0.08548448234796524, -0.09857813268899918, 0.04398329555988312, -0.047212690114974976, -0.2032940536737442, 0.06323215365409851, 0.06775279343128204, -0.08805028349161148, 0.08857877552509308, -0.025305598974227905, -0.17884087562561035, -0.044966042041778564, 0.14656727015972137, 0.3668699264526367, -0.09196684509515762, 0.0683123841881752, -0.1592828333377838, 0.041251279413700104, 0.14331965148448944, -0.3155366778373718, 0.0017323187785223126, 0.08995275944471359, -0.2707517445087433, 0.014233187772333622, -0.0033334156032651663, 0.30711326003074646, -0.010394684970378876, -0.09863554686307907, -0.065122090280056, 0.1071196049451828, 0.04494970664381981, 0.24732321500778198, 0.12790344655513763, -0.043144725263118744, -0.15555572509765625, -0.04908718168735504, 0.10718175768852234, 0.11231089383363724, -0.057832323014736176, -0.12312213331460953, -0.08328378200531006, -0.0711236223578453, 0.04010750725865364, -0.29045599699020386, 0.11654961109161377, 0.19390973448753357, -0.3458232283592224, -0.16223923861980438, -0.08030563592910767, -0.2379593551158905, -0.08046795427799225, -0.06419048458337784, -0.2811200022697449, -0.011357164941728115, -0.04475900158286095, 0.03156095743179321, 0.010577325709164143, -0.020922236144542694, 0.09025927633047104, 0.07465343922376633, -0.08980114012956619, -0.09596704691648483, 0.07127444446086884, 0.144100159406662, -0.03180669620633125, -0.24840788543224335, 0.14166371524333954, 0.013336250558495522, -0.09550600498914719, -0.015232294797897339, 0.06964244693517685, -0.1540435254573822, 0.0929918885231018, -0.08883699029684067, -0.02866447903215885, -0.07681719958782196, -0.006840255577117205, -0.11030664294958115, -0.18660150468349457, 0.03181201219558716, 0.08615148812532425, -0.02022860012948513, 0.19919104874134064, -0.04828544706106186, 0.11719640344381332, -0.01907137595117092, 0.060575343668460846, -0.09786659479141235, 0.09392447024583817, 0.01876884698867798, -0.05132649466395378, -0.037623628973960876, -0.05823356658220291, 0.14154848456382751, 0.0637567862868309, -0.23875442147254944, -0.13422749936580658, 0.13936510682106018, -0.1342337727546692, -0.07784812152385712, 0.1316782534122467, -0.07164295762777328, 0.10990303009748459, 0.12612710893154144, -0.043287646025419235, -0.14696991443634033, -0.07988354563713074, 0.06260223686695099, 0.14782236516475677, 0.08071122318506241, 0.031490784138441086, 0.029278023168444633, 0.11588934808969498, -0.02302880585193634, -0.031997229903936386, -0.07461139559745789, -0.2566472887992859, 0.23863574862480164, -0.07495050132274628, -0.21475744247436523, 0.18578727543354034, -0.054319437593221664, 0.06856556981801987, -0.12296618521213531, -0.027330655604600906, -0.25940096378326416, 0.2012554109096527, -0.04460718110203743, 0.207027405500412, 0.027193676680326462, 0.08413715660572052, -0.09649726748466492, 0.2595863342285156, 0.024471169337630272, 0.06883655488491058, 0.01812744326889515, 0.026103321462869644, -0.28020018339157104, 0.06581974774599075, -0.10437797755002975, -0.015770800411701202, 0.09902652353048325, -0.15236221253871918, -0.1660904437303543, 0.19006586074829102, 0.018144428730010986, -0.11037618666887283, 0.11517482995986938, 0.03955084830522537, -0.1871730089187622, 0.0442761592566967, -0.05810888484120369, -0.07833247631788254, 0.1171586662530899, -0.093479223549366, 0.06218893826007843, 0.03332023322582245, 0.025860024616122246, -0.18043461441993713, 0.19118914008140564, -0.10188833624124527, 0.20059306919574738, -0.16311611235141754, -0.048828717321157455, 0.1665206402540207, -0.11010757833719254, 0.10303431749343872, -0.01896154135465622, -0.18203198909759521, -0.04518790915608406, -0.05163678154349327, 0.18986736238002777, -0.08850079029798508, 0.12275759875774384, -0.05575306713581085, -0.015921633690595627, 0.017526881769299507, -0.0644996240735054, -0.025651078671216965, 0.1869976818561554, -0.09961984306573868, 0.13283281028270721, -0.12079950422048569, 0.17559769749641418, -0.16131331026554108, 0.05785617604851723, -0.07609856873750687, 0.025564108043909073, 0.13056500256061554, 0.03915741667151451, -0.03512677922844887, 0.08379367738962173, 0.05149509012699127, -0.054653238505125046, 0.21386301517486572, -0.14638634026050568, -0.04011312872171402, 0.0705285593867302, 0.006008281838148832, 0.08581751585006714, -0.03127019479870796, -0.09791412204504013, 0.08113926649093628, 0.07434316724538803, -0.09665681421756744, -0.050773877650499344, -0.027540691196918488, 0.1398758441209793, -0.026395050808787346, -0.028405686840415, 0.09423137456178665, -0.1482941210269928, 0.15017084777355194, 0.016240060329437256, -0.10389814525842667, 0.17056423425674438, -0.13055835664272308, 0.0630125105381012, -0.20230351388454437, -0.016254214569926262, 0.0712924376130104, 0.29527783393859863, -0.06587018072605133, 0.13279128074645996, -0.12780621647834778, -0.06355727463960648, -0.1344718337059021, -0.0038600624538958073, 0.13917304575443268, 0.0026073555927723646, -0.09415014833211899, 0.04495403170585632, 0.060699477791786194, 0.2181362509727478, 0.10649041831493378, -0.13733446598052979, 0.09840807318687439, -0.07956567406654358, -0.12450361996889114, 0.1459978073835373, 0.1296146661043167, -0.15508818626403809, 0.20370981097221375, -0.07903186976909637, -0.05925429239869118, 0.23987030982971191, -0.03143516927957535, -0.007381698116660118, -0.13667051494121552, 0.08062537014484406, -0.06323530524969101, 0.01043913047760725, 0.043496981263160706, 0.09719491750001907, -0.10725507140159607, 0.052078697830438614, -0.08162550628185272, -0.057026732712984085, 0.02193717285990715, -0.08042808622121811, 0.08359875530004501, -0.12244236469268799, -0.21455766260623932, -0.053131118416786194, -0.1588948369026184, 0.1875659078359604, 0.11748068779706955, 0.15420635044574738, -0.06627283245325089, 0.2189699411392212, 0.034446850419044495, 0.3092377185821533, -0.04120204597711563, -0.05424237251281738, -0.151608407497406, 0.09291992336511612, -0.1650795340538025, 0.3238510489463806, 0.07461734116077423, -0.06073498725891113, -0.2211579978466034, 0.10032246261835098, -0.15340977907180786, -0.23026593029499054, 0.04111127555370331, -0.15478460490703583, -0.12477327138185501, 0.058738477528095245, 0.04133007302880287, -0.2955717444419861, 0.13012246787548065, -0.13268211483955383, -0.05081000551581383, -0.1416798084974289, -0.1699400544166565, 0.022176697850227356, 0.07329276949167252, 0.008540792390704155, -0.04004419967532158, -0.09619762748479843, -0.1136040911078453, -0.12254710495471954, 0.04522014409303665, -0.000213812745641917, -0.16646963357925415, -0.06022997200489044, 0.020075559616088867, 0.014722107909619808, -0.0279945507645607, 0.0020479876548051834, -0.09396743029356003, 0.1036299392580986, -0.07612556964159012, -0.043828465044498444, 0.4974994659423828, -0.39027804136276245, 0.6880092620849609, -0.5516664981842041, 0.06644272059202194, 0.8392241597175598, 0.9151158332824707, -0.5417120456695557, 0.19940252602100372, 0.12804126739501953, -0.4901895225048065, -0.3404180109500885, 0.18093547224998474, -0.6540427803993225, 0.17215168476104736, 0.4807800352573395, 0.005959671922028065, 0.31172803044319153, 0.031191563233733177, 0.15840306878089905, 0.2146841287612915, 0.06169988587498665, 0.16420352458953857, 0.005288973450660706, 0.08842241019010544, -0.018924890086054802, 0.02538023516535759, -0.0961591899394989, 0.10953331738710403, -0.15451307594776154, 0.2732989490032196, 0.04690346121788025, 0.24690937995910645, -0.08072292059659958, -0.25697460770606995, 0.11617111414670944, 0.2949155569076538, 0.05399620905518532, -0.08037069439888, -0.30595093965530396, -0.08378133177757263, 0.21893541514873505, -0.19034384191036224, -0.06877603381872177, -0.07287701964378357, 0.026365676894783974, 0.14439594745635986, 0.288161963224411, 0.11091519892215729, 0.43276557326316833, 0.00330406054854393, 0.17631620168685913, -0.08405132591724396, 0.021726438775658607, 0.11982207745313644, -0.29385942220687866, -0.12466993182897568, 0.0011933902278542519, 0.23914878070354462, -0.5121752619743347, 0.17573779821395874, 0.2326487898826599, 0.46648311614990234, 0.2751913070678711, 0.11171878129243851, -0.13154597580432892, -0.04752837121486664, -0.18497830629348755, -0.03669460862874985, 0.06882891803979874, -0.010493998415768147, 0.0337827242910862, -0.14406681060791016, 0.014172375202178955, -0.11786873638629913, 0.019522445276379585, 0.1130419373512268, 0.1532844454050064, -0.21246154606342316, -0.12195581197738647, 0.13652344048023224, -0.24539704620838165, -0.25891366600990295, 0.2815735340118408, 0.4221450686454773, 0.13575944304466248, 0.04315364733338356, -0.4392360746860504, 0.028609491884708405, 0.15318165719509125, -0.5189808011054993, 0.07963256537914276, -0.14053183794021606, 0.16317345201969147, -0.18143659830093384, 0.06895828992128372, -0.14067839086055756, 0.024290593340992928, 0.07456113398075104, 0.129913330078125, 0.2568131685256958, 0.1429184228181839, 0.24354222416877747, 0.034556686878204346, 0.08802904188632965, -0.04968265816569328, -0.20672602951526642, -0.1259308159351349, -0.09834001958370209, 0.029317261651158333, 0.05863301083445549, 0.10081244260072708, -0.13486507534980774, -0.17479880154132843, 0.39287275075912476, 0.06617946177721024, -0.422052800655365, -0.28246548771858215, 0.14814125001430511, 0.2535938620567322, 0.31855249404907227, -0.3888726234436035, -0.31264328956604004, 0.34160250425338745, 0.4017214775085449, -0.3970361649990082, -0.21944159269332886, -0.46822166442871094, 0.24635398387908936, 0.006788959726691246, 0.3278932571411133, -0.20364762842655182, -0.25218871235847473, 0.1320471465587616, 0.2841130793094635, 0.09673964232206345, 0.18537575006484985, -0.19970488548278809, 0.16309818625450134, -0.17430241405963898, 0.09320438653230667, -0.13766910135746002, -0.16752153635025024, 0.04574625939130783, -0.2463020533323288, 0.11191371828317642, -0.30407747626304626, -0.30015620589256287, -0.0006577023304998875, -0.046716608107089996, -0.17841090261936188, 0.09242179244756699, -0.28426334261894226, -0.10474461317062378, 0.3378291726112366, 0.044431690126657486, 0.0956779420375824, -0.17620958387851715, 0.269165962934494, 0.08835334330797195, -0.39664727449417114, -0.11349204182624817, 0.29998084902763367, -0.32778626680374146, -0.40636929869651794, -0.07853861153125763, 0.259006142616272, 0.05702250823378563, 0.0711471438407898, 0.19589465856552124, 0.31843796372413635, 0.22728073596954346, 0.3555225729942322, 0.1637488603591919, -0.21394234895706177, -0.03951912000775337, 0.005927865393459797, 0.2783997356891632, -0.18905889987945557, 0.025444189086556435, -0.17014311254024506, -0.09018292278051376, 0.10921023041009903, -0.008691787719726562, 0.12856410443782806, -0.07837548106908798, -0.10803118348121643, -0.1090092882514, -0.0046404520981013775, 0.027068857103586197, 0.14853985607624054, 0.25555503368377686, 0.1854061633348465, -0.0790768563747406, -0.045830950140953064, 0.20050054788589478, 0.291980117559433, -0.22778959572315216, -0.2652376890182495, -0.22145740687847137, -0.15250593423843384, -0.4349287748336792, -0.27897217869758606, -0.04214724898338318, -0.23986101150512695, 0.20727238059043884, -0.33575695753097534, -0.3760616183280945, -0.10804472118616104, -0.06284204125404358, 0.12474510818719864, 0.04582924768328667, 0.01165112666785717, -0.08079452067613602, 0.029572317376732826, 0.27544644474983215, 0.33196964859962463, -0.014824473299086094, -0.12341207265853882, 0.12342030555009842, 0.2080085724592209, -0.277579665184021, -0.1080956682562828, 0.07525622099637985, -0.039780862629413605, -0.1225249320268631, -0.12458581477403641, 0.09114480018615723, -0.16942481696605682, 0.21137598156929016, 0.2209775596857071, 0.1948457956314087, 0.01966034434735775, -0.05566933751106262, 0.1303117871284485, -0.035758841782808304, -0.13444818556308746, -0.11914356052875519, -0.1235409751534462, 0.136074036359787, -0.0863209143280983, 0.12448536604642868, -0.0562959723174572, -0.07021068781614304, 0.09170886129140854, -0.04821491986513138, 0.17796730995178223, 0.15334932506084442, -0.27644971013069153, 0.06398309022188187, -0.04107692465186119, 0.013087219558656216, 0.19404679536819458, 0.116110660135746, -0.14288519322872162, -0.09058372676372528, 0.17682690918445587, 0.006803158670663834, 0.22315575182437897, -0.0840902104973793, -0.17840217053890228, 0.2355707287788391, 0.06433302164077759, 0.28099021315574646, 0.047662943601608276, -0.2177780717611313, -0.1382933109998703, -0.039473794400691986, 0.1022598147392273, 0.08567427843809128, -0.09895896911621094, -0.11312200129032135, 0.04520759359002113, -0.05326829478144646, 0.14431695640087128, -0.12619559466838837, -0.022732917219400406, -0.026850072667002678, 0.13280677795410156, -0.07880481332540512, -0.04270412400364876, -0.17107783257961273, 0.0592302568256855, 0.007159391883760691, -0.0005123791634105146, 0.04361269250512123, 0.017432231456041336, 0.03709863871335983, 0.06465498358011246, -0.11307039856910706, -0.07951348274946213, 0.05113551393151283, -0.189984530210495, 0.06176106259226799, 0.11501176655292511, 0.16689926385879517, -0.00986646767705679, -0.13970039784908295, 0.10367317497730255, 0.04725539684295654, -0.12994319200515747, -0.07093099504709244, 0.16289842128753662, 0.014341630041599274, -0.28066447377204895, -0.006875588558614254, -0.25937914848327637, -0.11262829601764679, 0.004564328584820032, -0.04323912784457207, -0.27690503001213074, -0.2958677411079407, 0.19223926961421967, 0.31970861554145813, -0.18380896747112274, -0.15585970878601074, -0.05133027955889702, -0.26365381479263306, -0.10124056786298752, -0.019721901044249535, 0.03367558866739273, -0.20370684564113617, -0.058230768889188766, 0.10796374827623367, -0.0844840407371521, 0.21240925788879395, 0.06659850478172302, 0.11042522639036179, 0.27655309438705444, -0.029408462345600128, -0.07134147733449936, 0.26480457186698914, -0.08784051239490509, 0.09592694789171219, -0.18012270331382751, -0.023661121726036072, -0.040397994220256805, -0.027183063328266144, 0.08974405378103256, -0.22282908856868744, 0.05446632206439972, 0.0159933939576149, -0.044866807758808136, -0.04515594244003296, 0.12280724197626114, -0.22543303668498993, 0.0024592720437794924, -0.0669589564204216, -0.08397648483514786, -0.2026534527540207, 0.02849750593304634, -0.0892445296049118, -0.11148564517498016, -0.11653025448322296, 0.2584854066371918, -0.15581831336021423, 0.17674130201339722, 0.2796030044555664, 0.01797211542725563, -0.010300159454345703, -0.1607801616191864, -0.03514692187309265, 0.047957710921764374, 0.3252910375595093, 0.1496371030807495, -0.13247419893741608, -0.06454717367887497, 0.07685282081365585, 0.1313295066356659, -0.2881644070148468, -0.16330599784851074, 0.11480501294136047, -0.09020991623401642, -0.028615135699510574, 0.1575978398323059, 0.01178048737347126, 0.08556026965379715, 0.22405663132667542, -0.05352024361491203, -0.1264762133359909, -0.08684833347797394, -0.003165008733049035, 0.13863462209701538, -0.2071988731622696, 0.05597054213285446, 0.14214497804641724, -0.11743160337209702, 0.07593201100826263, 0.3144132196903229, -0.20245084166526794, -0.0010417877929285169, 0.05253596976399422, -0.2279898077249527, 0.11536508798599243, -0.08417627215385437, -0.16922181844711304, 0.12533022463321686, -0.0190929863601923, -0.0006192450528033078, -0.0032232555095106363, 0.17610782384872437, 0.22977353632450104, 0.14432761073112488, -0.3646397888660431, 0.4272701144218445, -0.038961030542850494, 0.029663851484656334, 0.31416136026382446, 0.015924017876386642, -0.1741659939289093, -0.15858495235443115, -0.0442860946059227, 0.0782853364944458, 0.035174060612916946, -0.17156778275966644, -0.11308404803276062, -0.020263951271772385, 0.1388770490884781, -0.07571399956941605, -0.05823001265525818, 0.06989812105894089, -0.18259645998477936, -0.13147439062595367, -0.03422361984848976, -0.1640583723783493, 0.0683756023645401, -0.06712332367897034, -0.10631978511810303, 0.0042452323250472546, -0.23992322385311127, 0.11094385385513306, 0.18838845193386078, 0.063778817653656, -0.03570867329835892, -0.07513272017240524, -0.3025302290916443, 0.06564807891845703, 0.05333562567830086, 0.47047296166419983, -0.08989226073026657, -0.22455744445323944, 0.16295967996120453, 0.1407070755958557, -0.06340044736862183, -0.036534156650304794, 0.0969577506184578, 0.013642325066030025, -0.19790053367614746, 0.07115524262189865, -0.020925959572196007, -0.5641019344329834, 0.03699230030179024, 0.15937452018260956, -0.3292802572250366, -0.09791053086519241, -0.02909645065665245, 0.6162768006324768, -0.2119462639093399, 0.015042360872030258, 0.10931464284658432, -0.4163028597831726, -0.004088058602064848, 0.1498151272535324, 0.03207692503929138, -0.08154433220624924, 0.14748220145702362, 0.285293310880661, 0.20859688520431519, 0.20161545276641846, 0.10615407675504684, -0.03459108993411064, 0.2695281505584717, -0.1813637763261795, -0.1583729386329651, 0.3462439775466919, -0.3770903944969177, 0.18275056779384613, -0.1687379777431488, 0.036265335977077484, -0.010813746601343155, -0.31961914896965027, -0.045089561492204666, -0.19572237133979797, -0.15862800180912018, 0.3465876877307892, -0.031617503613233566, -0.11041746288537979, 0.17118801176548004, -0.21497885882854462, -0.0923541709780693, 0.058076485991477966, 0.06516120582818985, -0.003968516364693642, 0.06515100598335266, -0.0986824557185173, -0.16175690293312073, 0.05545210465788841, -0.0879739299416542, 0.3297405242919922, -0.24600638449192047, 0.31457167863845825, 0.012000941671431065, 0.10517553985118866, 0.16748102009296417, 0.1637543886899948, 0.027421053498983383, -0.12562835216522217, -0.052797842770814896, -0.1643134206533432, 0.06493061035871506, 0.11465922743082047, 0.06757766008377075, 0.048625774681568146, -0.06514902412891388, 0.08923514187335968, 0.08220198005437851, -0.13940533995628357, -0.3153461813926697, 0.05139569565653801, 0.10416185855865479, -0.15280616283416748, 0.03059600479900837, 0.14415690302848816, -0.1223573312163353, -0.14732402563095093, 0.025434371083974838, -0.0747017040848732, 0.016082996502518654, 0.0014498647069558501, -0.035431988537311554, -0.1202043816447258, -0.004734449088573456, 0.1288558542728424, 0.04124991223216057, -0.1292932629585266, -0.07884223759174347, -0.03654148429632187, -0.05337350815534592, 0.01516912691295147, -0.048308562487363815, -0.08667086809873581, -0.0064860135316848755, 0.008866416290402412, 0.13616310060024261, -0.0006357835372909904, 0.17676933109760284, -0.1496436595916748, -0.30918365716934204, -0.2905139923095703, 0.08435836434364319, -0.08731112629175186, 0.24267399311065674, 0.2619337737560272, 0.18478770554065704, -0.2246851921081543, 0.037487972527742386, -0.09496705234050751, 0.03645744547247887, 0.07560347765684128, -0.077562116086483, -0.13040286302566528, 0.15767081081867218, -0.11450104415416718, -0.021451683714985847, -0.041294749826192856, 0.016870485618710518, -0.13825193047523499, -0.12033211439847946, -0.18547290563583374, -0.12459076941013336, -0.17555193603038788, 0.0849892646074295, -0.08695530891418457, -0.1299145668745041, -0.14911256730556488, -0.05871785804629326, 0.15785682201385498, 0.25045520067214966, 0.11183682829141617, 0.11374324560165405, 0.2396090030670166, 0.06440743058919907, 0.08507002890110016, 0.08064471930265427, 0.119167260825634, 0.11315038800239563, 0.005410592071712017, 0.04094430059194565, 0.012049908749759197, 0.24001309275627136, 0.0821181982755661, 0.30385640263557434, 0.22532956302165985, 0.09549129754304886, -0.01709088496863842, -0.1934863179922104, 0.17487724125385284, 0.033179715275764465, 0.14921478927135468, -0.050501853227615356, -0.16502484679222107, -0.2562159597873688, -0.12876556813716888, 0.10404349118471146, 0.04071728512644768, -0.06665165722370148, 0.03062904253602028, 0.040308110415935516, 0.23461593687534332, -0.08885682374238968, 0.04849230498075485, 0.055135130882263184, -0.00033611629623919725, 0.0430363230407238, 0.1868869513273239, -0.14625869691371918, 0.007230347953736782, -0.12144377082586288, -0.15208669006824493, -0.12273652851581573, -0.18304044008255005, -0.032500866800546646, 0.029147092252969742, -0.0004260377900209278, -0.20148997008800507, 0.02718833088874817, 0.08490315824747086, 0.16327044367790222, -0.17570799589157104, -0.09605700522661209, -0.11714264750480652, -0.06133216992020607, 0.1913355141878128, -0.09833871573209763, -0.044457580894231796, 0.019629409536719322, -0.08210031688213348, -0.2533489465713501, -0.15324512124061584, 0.22325333952903748, -0.10006994009017944, -0.16562286019325256, -0.01474066823720932, -0.04954449459910393, 0.1661635935306549, 0.1844518780708313, -0.05156782269477844, -0.12029778957366943, -0.07819238305091858, -0.049890317022800446, 0.25369560718536377, 0.2466530054807663, 0.24858003854751587, -0.0950760468840599, -0.03567640110850334, -0.21299026906490326, 0.10913652926683426, -0.17013244330883026, -0.1377599984407425, 0.1408846080303192, -0.14677083492279053, 0.09676533192396164, 0.13227428495883942, -0.18023242056369781, 0.06716915965080261, 0.014375220984220505, -0.05953245609998703, 0.2258559912443161, 0.04381151124835014, -0.05966884270310402, 0.05901908874511719, -0.13120637834072113, 0.214483380317688, 0.15428486466407776, 0.032912980765104294, -0.056356653571128845, -0.20094944536685944, 0.2873464822769165, 0.13423530757427216, -0.13472583889961243, 0.07474685460329056, 0.15615111589431763, -0.03799796104431152, -0.2125011533498764, 0.2100590616464615, 0.01688014715909958, 0.03512730821967125, -0.1990472376346588, 0.10253522545099258, 0.14625781774520874, 0.04135643318295479, 0.16790471971035004, -0.2259186953306198, -0.2381303608417511, -0.01307308953255415, 0.24200227856636047, 0.03539417311549187, -0.13846948742866516, -0.10826866328716278, -0.16238605976104736, 0.16799087822437286, -0.07509126514196396, 0.12611395120620728, -0.15930145978927612, -0.1326567828655243, 0.14555542171001434, -0.0938890352845192, 0.00866422988474369, 0.02093682624399662, 0.06778865307569504, -0.24826331436634064, -0.037826698273420334, -0.12218424677848816, -0.3651832938194275, -0.019144801422953606, 0.05038170516490936, -0.12961319088935852, -0.13021191954612732, -0.07322904467582703, -0.01735839992761612, 0.04906320199370384, 0.028840720653533936, 0.09424212574958801, -0.1706240326166153, -0.07183302193880081, 0.16194678843021393, -0.03949546441435814, -0.016172850504517555, 0.17131316661834717, -0.04901239648461342, 0.11020297557115555, -0.1147153228521347, 0.06895638257265091, -0.06851474195718765, -0.03643978759646416, -0.10710132867097855, -0.08120453357696533, 0.1488860845565796, 0.28553348779678345, 0.2639509439468384, -0.09403707832098007, -0.09943004697561264, 0.0832170844078064, 0.1974804550409317, 0.01991250365972519, 0.16154354810714722, -0.04341088607907295, -0.06190165504813194, -0.017609138041734695, 0.07845400273799896, -0.14314955472946167, -0.16342124342918396, 0.00523798493668437, 0.04525933787226677, -0.04407278448343277, -0.031894583255052567, -0.011596505530178547, -0.08391547948122025, -0.1858728528022766, -0.10178310424089432, 0.0354284793138504, -0.05942704528570175, -0.04689956456422806, -0.1372140794992447, 0.04682148993015289, -0.12835828959941864, 0.015556196682155132, -0.06002403050661087, -0.11411003023386002, 0.03549382463097572, -0.29008013010025024, 0.11982837319374084, 0.1694171279668808, -0.033438991755247116, 0.07156810164451599, -0.11133173853158951, 0.07477174699306488, -0.2875573933124542, -0.027230560779571533, 0.027242500334978104, -0.12004275619983673, 0.10035697370767593, -0.0809176117181778, 0.1426391899585724, -0.012815688736736774, -0.10767121613025665, -0.40914204716682434, 0.12799300253391266, 0.1436198651790619, 0.08233220130205154, -0.058664895594120026, -0.06711338460445404, -0.0569927953183651, -0.08934757858514786, 0.12560461461544037, 0.025228351354599, -0.2580268383026123, -0.12020643800497055, 0.12081839144229889, 0.18150894343852997, 0.1478661745786667, -0.15534964203834534, 0.09291695058345795, 0.0041201673448085785, -0.2830064594745636, 0.024645723402500153, 0.03407628834247589, -0.12052544206380844, -0.11950738728046417, 0.05504048615694046, 0.013609384186565876, -0.02681683376431465, -0.07833514362573624, -0.017187755554914474, 0.03156285360455513, -0.10978466272354126, 0.16174088418483734, 0.02170475386083126, 0.09220723807811737, -0.10963790863752365, -0.06575395166873932, -0.02817542478442192, -0.038726307451725006, 0.21615278720855713, 0.31003114581108093, 0.053091686218976974, 0.10951888561248779, -0.03271454945206642, 0.010784520767629147, 0.15311859548091888, -0.12440855801105499, 0.013725046068429947, 0.12333676964044571, 0.054525766521692276, -0.08961588144302368, 0.2634410560131073, -0.004932315554469824, 0.12829603254795074, 0.10433422029018402, 0.05126926302909851, 0.00977140199393034, -0.30168047547340393, -0.1170169785618782, -0.1219693273305893, 0.03330806642770767, -0.03148334473371506, -0.016086693853139877, 0.1419685035943985, 0.06632108241319656, -0.1670377105474472, 0.11401057243347168, -0.024145498871803284, 0.016704069450497627, 0.04627536982297897, 0.1197301521897316, 0.1557224690914154, 0.053532928228378296, -0.004861839581280947, 0.2346191555261612, -0.19165267050266266, -0.3358655869960785, -0.08051508665084839, 0.19062234461307526, 0.11246921867132187, -0.26442456245422363, -0.036494120955467224, -0.2718660831451416, 0.16978394985198975, 0.03932759165763855, -0.11846804618835449, -0.11773272603750229, 0.08518536388874054, -0.14481228590011597, -0.014318525791168213, 0.03205789625644684, -0.09600258618593216, 0.17032551765441895, -0.019701026380062103, -0.07750429958105087, -0.0425407811999321, -0.13891449570655823, 0.23974540829658508, 0.11365307867527008, -0.14993132650852203, -0.009650113061070442, -0.18329954147338867, -0.1696358472108841, 0.09477376192808151, -0.17617104947566986, 0.12680327892303467, -0.02554929070174694, -0.11416980624198914, -0.05590885132551193, -0.11766819655895233, 0.06933893263339996, 0.05619821697473526, -0.14913861453533173, 0.1600465625524521, -0.0928778126835823, -0.017311355099081993, -0.0437675379216671, -0.1477317065000534, -0.041610416024923325, -0.1798013299703598, -0.0952569916844368, -0.24960210919380188, 0.07155364006757736, 0.003148905700072646, 0.06734920293092728, 0.11880150437355042, 0.14300769567489624, 0.13182111084461212, -0.0565791130065918, -0.011474133469164371, 0.03490492329001427, -0.3676024079322815, 0.2749978303909302, 0.24196423590183258, 0.04168674349784851, -0.031238948926329613, -0.07931408286094666, -0.0983118787407875, -0.030902385711669922, -0.04785490781068802, -0.08686479926109314, 0.20105822384357452, 0.21650278568267822, -0.12428852915763855, 0.0038329397793859243, -0.051020197570323944, 0.09692174196243286, -0.12737886607646942, 0.14854374527931213, 0.08987703174352646, -0.03729706257581711, -0.026855621486902237, 0.16685228049755096, -0.12265124171972275, -0.1395518183708191, 0.11700408160686493, -0.3117455840110779, 0.05772215500473976, -0.01625385321676731, 0.14851535856723785, -0.031032400205731392, -0.10283156484365463, 0.19891200959682465, -0.039551742374897, -0.0496220625936985, -0.13732393085956573, -0.16781187057495117, 0.14281205832958221, -0.018722502514719963, -0.3078535497188568, 0.2618967592716217, -0.24492783844470978, -0.16756533086299896, -0.1530354917049408, -0.1174217015504837, 0.02298552729189396, -0.1523328423500061, 0.027647852897644043, -0.1097884252667427, -0.5472788214683533, 0.17654769122600555, -0.04944658279418945, -0.039491206407547, 0.3654060661792755, 0.050390008836984634, -0.04092557728290558, -0.09343954175710678, -0.010701781138777733, 0.02056424506008625, 0.2095312774181366, 0.13738350570201874, 0.18972328305244446, 0.02314262092113495, 0.010238244198262691, 0.37977102398872375, -0.3169260323047638, 0.15022218227386475, 0.07085301727056503, 0.05575046315789223, -0.06654602289199829, 0.11246217787265778, -0.0009880389552563429, -0.15467053651809692, 0.00538535276427865, -0.13651354610919952, 0.07275055348873138, -0.15660794079303741, 0.08537294715642929, 0.060911454260349274, 0.14076095819473267, 0.0947778970003128, 0.03552984818816185, 0.17222705483436584, -0.16737136244773865, -0.07417300343513489, 0.09554969519376755, -0.10382076352834702, -0.14514322578907013, 0.0594932846724987, 0.12856917083263397, -0.05168236419558525, 0.20631955564022064, -0.13924160599708557, 0.09419302642345428, -0.053542569279670715, 0.18334630131721497, -0.1624763160943985, 0.14101998507976532, -0.04415222257375717, -0.14011375606060028, 0.01292288489639759, -0.03092806041240692, -0.005639851093292236, 0.06882316619157791, 0.03593544661998749, -0.1762579083442688, -0.03020855225622654, -0.08507318049669266, 0.006129804532974958, -0.07490931451320648, -0.14887091517448425, 0.11247032880783081, 0.02597234770655632, 0.03620096668601036, -0.10163699090480804, -0.0385872945189476, -0.1492289900779724, -0.017003120854496956, -0.09119187295436859, 0.023937426507472992, -0.13691675662994385, -0.20085300505161285, 0.1745556741952896, 0.27676743268966675, 0.04410575330257416, -0.04225409775972366, -0.32734423875808716, 0.04224249720573425, -0.047415681183338165, -0.08476308733224869, -0.11862742155790329, -0.09417930990457535, -0.0430794395506382, 0.03812950477004051, 0.20003728568553925, -0.08473297208547592, -0.20368719100952148, -0.08235499262809753, 0.09488891810178757, -0.04166490584611893, 0.1988612562417984, 0.29575449228286743, 0.1615656316280365, 0.13037316501140594, -0.020532377064228058, 0.04643137753009796, -0.04334117844700813, 0.08835998922586441, 0.10090713202953339, 0.1360018253326416, -0.05847396329045296, -0.03584279865026474, 0.08207569271326065, 0.09129933267831802, 0.1432858556509018, 0.10950012505054474, 0.1301143616437912, -0.025627724826335907, -0.5435582995414734, 0.2245740443468094, 0.5654614567756653, -0.7102729678153992, 0.2878962457180023, -0.7165506482124329, -0.25649023056030273, -0.5389615893363953, 1.2078877687454224, -0.9292502999305725, -0.7416712641716003, -1.0431829690933228, 0.23893572390079498, -0.7357460856437683, 0.4607830047607422, -0.6587387919425964, -0.022651834413409233, -0.06299086660146713, 0.10068227350711823, 0.14838829636573792, 0.36281073093414307, 0.20240232348442078, 0.12028466165065765, 0.02226298302412033, -0.36257725954055786, -0.26095980405807495, 0.2353190779685974, -0.28906378149986267, 0.2057102769613266, 0.07342784106731415, 0.00627434067428112, 0.06474056839942932, 0.06473910808563232, -0.07430896162986755, 0.004350862465798855, -0.10427094995975494, -0.27366676926612854, 0.117739737033844, 0.22902768850326538, -0.1620473712682724, 0.12759418785572052, -0.3231077492237091, 0.1536887288093567, 0.1837913691997528, 0.03600579500198364, 0.04066435620188713, 0.06887881457805634, 0.0335177443921566, -0.01112991664558649, -0.2455282062292099, 0.07053358107805252, 0.054427918046712875, 0.07521886378526688, 0.2867375314235687, 0.3931018114089966, -0.09819839894771576, 0.05475625395774841, -0.13634829223155975, -0.16554534435272217, -0.5196170210838318, 0.16084608435630798, 0.23840440809726715, 0.1581137627363205, 0.003134006168693304, 0.09814243018627167, 0.16851314902305603, -0.3841398358345032, -0.21621859073638916, -0.21200989186763763, -0.01634656824171543, -0.11109111458063126, -0.06451930105686188, -0.11932039260864258, 0.296913206577301, -0.04043123126029968, 0.5330631136894226, 0.04242091253399849, 0.3290368914604187, 0.13028737902641296, 0.08435308188199997, 0.24900758266448975, 0.08230043202638626, -0.15107367932796478, -0.2897084951400757, 0.12929722666740417, -0.10487859696149826, -0.011762021109461784, 0.26894518733024597, 0.13237224519252777, -0.07673975080251694, -0.1162714809179306, 0.3980821669101715, -0.2198774218559265, 0.19598351418972015, -0.14915865659713745, -0.3070529103279114, -0.44722679257392883, 0.009297999553382397, -0.20502899587154388, -0.15116064250469208, 0.0721403956413269, -0.0728018656373024, -0.03351140394806862, 0.04548397287726402, 0.11831119656562805, 0.13192225992679596, 0.03784548118710518, -0.038886118680238724, -0.26255491375923157, -0.10904889553785324, -0.06628192216157913, -0.06362967193126678, 0.07597681879997253, -0.20093299448490143, 0.016229750588536263, -0.21179938316345215, -0.01774459518492222, 0.10353489965200424, -0.41593286395072937, -0.3884209394454956, 0.18074314296245575, 0.10843489319086075, -0.24458441138267517, 0.2708626985549927, 0.02684221975505352, -0.024156885221600533, -0.024361025542020798, 0.18194927275180817, 0.17071948945522308, 0.0964784100651741, -0.01777605153620243, 0.2079283595085144, 0.1422165483236313, -0.11523538827896118, -0.08486906439065933, 0.10443782806396484, -0.05616515502333641, 0.23758713901042938, -0.17294840514659882, -0.08991581201553345, -0.1950960010290146, -0.10644993931055069, 0.04851885885000229, -0.07063549011945724, 0.17488880455493927, 0.18100769817829132, -0.037831369787454605, -0.18166609108448029, -0.21449264883995056, 0.41746431589126587, 0.3582480549812317, -0.19035258889198303, 0.08777429908514023, -0.5238237380981445, 0.5886386036872864, -0.3570435047149658, 0.0049253907054662704, 0.19525030255317688, -0.24276459217071533, 0.3536684513092041, -0.16267651319503784, -0.005372623447328806, -0.22411251068115234, 0.2411922812461853, -0.01359405368566513, -0.18463562428951263, -0.10072080045938492, -0.060549698770046234, -0.04213295504450798, 0.06134858727455139, 0.19325239956378937, 0.4441072344779968, 0.09755287319421768, 0.29820576310157776, 0.10616200417280197, -0.09697617590427399, -0.17157012224197388, -0.20252548158168793, -0.13067860901355743, 0.02743256464600563, -0.0608193501830101, -0.21394169330596924, -0.2529450058937073, -0.08332514017820358, 0.2919580042362213, 0.5455676913261414, -0.3698275089263916, -0.06615157425403595, 0.21563585102558136, -0.21532674133777618, 0.08768659830093384, 0.09107377380132675, 0.2545291781425476, 0.3087197542190552, -0.3753560781478882, -0.1982744038105011, -0.27300626039505005, -0.09209033101797104, -0.010695130564272404, 0.2284136861562729, -0.23403705656528473, 0.15461498498916626, 0.19905610382556915, -0.056632187217473984, -0.013737164437770844, -0.11195696145296097, -0.06015357747673988, 0.06351391226053238, 0.0900346040725708, -0.2037327140569687, -0.36251240968704224, 0.305031418800354, -0.047511905431747437, 0.046836063265800476, -0.11237750947475433, 0.09882811456918716, -0.1903567761182785, 0.04617420211434364, -0.24428381025791168, -0.20961934328079224, 0.15055164694786072, -0.08430620282888412, 0.08251038193702698, -0.0032206899486482143, 0.12479014694690704, 0.0927230566740036, -0.18046951293945312, 0.19227179884910583, -0.09969571232795715, -0.014353024773299694, 0.12031432241201401, -0.08632178604602814, 0.10753143578767776, 0.19429326057434082, 0.021164294332265854, -0.010482237674295902, 0.1098790392279625, 0.3831563889980316, 0.275137722492218, -0.19930361211299896, -0.034611474722623825, 0.3006267845630646, 0.19930602610111237, -0.1882392019033432, -0.015776121988892555, 0.09825114160776138, 0.2692439556121826, 0.025165697559714317, -0.1217988133430481, 0.17173375189304352, -0.07509361952543259, 0.11728166788816452, 0.06445198506116867, 0.268269807100296, 0.3431837856769562, 0.14912261068820953, 0.41428250074386597, 0.03759513422846794, -0.19579024612903595, 0.058858901262283325, -0.1772870421409607, 0.4649946689605713, -0.10910681635141373, 0.23542088270187378, 0.169886514544487, -0.3878238797187805, 0.23707692325115204, -0.2547171711921692, -0.17735034227371216, 0.29200029373168945, -0.2592923641204834, -0.0042673214338719845, -0.08315686136484146, -0.01525184977799654, 0.08424882590770721, -0.059300996363162994, -0.1537371724843979, 0.004758059978485107, 0.1319020539522171, 0.049888089299201965, -0.0717574954032898, 0.05055125057697296, 0.11872734874486923, -0.1958215981721878, 0.02971421368420124, -0.2221028208732605, -0.08240275084972382, -0.1435021162033081, -0.22345218062400818, -0.27733588218688965, -0.09929440915584564, -0.19633138179779053, -0.2862226366996765, -0.07810508459806442, -0.1636023074388504, -0.17112861573696136, 0.0162131916731596, 0.06174745410680771, -0.07924804091453552, -0.09263117611408234, 0.16673137247562408, 0.05782032757997513, -0.2026766538619995, 0.19795003533363342, 0.1347983181476593, -0.07255731523036957, -0.08261515200138092, 0.06626707315444946, 0.04411618784070015, 0.09408777207136154, 0.16250605881214142, -0.12132012844085693, -0.007688017562031746, 0.21527571976184845, 0.2721470892429352, 0.1178140789270401, 0.18524722754955292, -0.02174125425517559, -0.26046696305274963, -0.03244972229003906, -0.12156945466995239, -0.02698688954114914, 0.08643718808889389, -0.0325123630464077, -0.066733218729496, -0.12007524818181992, 0.09744372963905334, -0.18301229178905487, 0.030341843143105507, -0.0374763123691082, 0.3178154528141022, 0.17262962460517883, -0.2980826199054718, 0.08668383955955505, -0.07006171345710754, 0.09980548918247223, -0.048606988042593, -0.03384685516357422, 0.10412795096635818, -0.09303639829158783, 0.09811075776815414, -0.07542812079191208, 0.04791437089443207, 0.10179436951875687, 0.12642905116081238, -0.07352481782436371, -0.21003685891628265, -0.06386863440275192, 0.008183460682630539, -0.15578553080558777, -0.0373973622918129, -0.09800030291080475, 0.10242486000061035, -0.24636892974376678, 0.2323785126209259, -0.17909380793571472, 0.17673741281032562, -0.006569273769855499, 0.026109399273991585, -0.04789074510335922, -0.08590281009674072, -0.002923911903053522, -0.14833538234233856, 0.06794256716966629, 0.26212990283966064, 0.0024742393288761377, 0.3090512156486511, -0.044460780918598175, 0.13739091157913208, -0.14181368052959442, -0.45974552631378174, 0.025491738691926003, 0.05764499306678772, -0.02273005247116089, 0.039949290454387665, 0.07051341235637665, -0.07158856093883514, -0.035906482487916946, -0.07803172618150711, 0.18801657855510712, 0.02449384517967701, 0.17258138954639435, -0.0670405700802803, 0.14002645015716553, 0.05363138020038605, -0.4583960771560669, -0.04719001427292824, 0.20791934430599213, -0.06594711542129517, -0.08970373123884201, 0.22233742475509644, -0.17040330171585083, -0.05975192412734032, -0.12043963372707367, 0.0007414927240461111, 0.10150221735239029, -0.14031203091144562, -0.023502495139837265, 0.05193795636296272, 0.009262531995773315, 0.3337673842906952, -0.04470662400126457, -0.018265580758452415, -0.17472679913043976, -0.1620786339044571, -0.1124475970864296, 0.2397834062576294, 0.08450773358345032, 0.4236961305141449, -0.04951895773410797, 0.14873076975345612, -0.07024125009775162, 0.6456789970397949, 0.27082589268684387, -0.06070847064256668, 0.08840349316596985, -0.1534721702337265, -0.034194789826869965, -0.39090654253959656, 0.01792891137301922, 0.17961148917675018, -0.14829158782958984, 0.09457279741764069, 0.025193016976118088, -0.12002265453338623, 0.091404490172863, 0.04809899255633354, -0.08109721541404724, -0.1490926295518875, 0.17170801758766174, -0.018437471240758896, 0.38556990027427673, 0.08108125627040863, -0.07815869897603989, 0.1092432364821434, 0.29209041595458984, 0.002497015055269003, -0.06879063695669174, 0.25371870398521423, 0.21187278628349304, -0.1423206329345703, 0.27686455845832825, -0.025058606639504433, -0.037492379546165466, 0.1642899364233017, -0.23156078159809113, -0.01924130879342556, -0.27714094519615173, -0.019525213167071342, 0.05166957899928093, 0.37723690271377563, 0.2607295513153076, -0.13320709764957428, -0.20659875869750977, 0.054960232228040695, 0.08789613842964172, 0.14437901973724365, 0.06666211038827896, -0.04553602263331413, -0.17486228048801422, -0.13923379778862, -0.06927231699228287, 0.1639384776353836, 0.0455351248383522, 0.056898027658462524, 0.3737933039665222, -0.4319213032722473, -0.026375290006399155, 0.14608299732208252, -0.12674248218536377, -0.030386032536625862, 0.35919275879859924, -0.10403263568878174, 0.15778736770153046, -0.15769454836845398, 0.0870436355471611, 0.2555675804615021, 0.11437719315290451, -0.2946293354034424, -0.05998566374182701, 0.05784075707197189, -0.3334154188632965, -0.023621996864676476, -0.009882842190563679, 0.10464457422494888, 0.19456827640533447, 0.150571808218956, 0.07614181190729141, -0.05295184999704361, -0.04358319193124771, 0.3937922418117523, -0.07770046591758728, -0.07224130630493164, 0.013505256734788418, 0.06741555780172348, 0.006401778198778629, 0.00435396796092391, -0.003730428172275424, -0.1928764432668686, -0.04375962167978287, 0.12490692734718323, -0.11682939529418945, -0.22621461749076843, 0.013324067927896976, 0.19851809740066528, -0.05243664234876633, 0.11958159506320953, 0.036956511437892914, 0.06201685592532158, 0.12268068641424179, -0.18149064481258392, 0.29243004322052, -0.012768808752298355, -0.017767224460840225, 0.3949069082736969, -0.07764503359794617, -0.1409441977739334, 0.25004613399505615, 0.017460955306887627, -0.14517059922218323, 0.021632201969623566, 0.11693398654460907, -0.05153502896428108, -0.21353472769260406, 0.001392428413964808, 0.06265588104724884, -0.08666599541902542, 0.008728417567908764, 0.09755192697048187, -0.033525414764881134, -0.06408260762691498, -0.11640524119138718, -0.16963456571102142, -0.18068844079971313, -0.20410636067390442, -0.03964410722255707, -0.1245170310139656, 0.0022644605487585068, -0.22837670147418976, 0.19792795181274414, 0.10212067514657974, -0.12776081264019012, 0.15032607316970825, -0.1454504132270813, -0.0014348539989441633, -0.05710414797067642, -0.0714077353477478, -0.08674222230911255, -0.06380591541528702, -0.11149352043867111, -0.06994806975126266, -0.01522686518728733, 0.11427739262580872, -0.013922139070928097, 0.13002076745033264, 0.1734411120414734, 0.38748520612716675, 0.2701875865459442, -0.04266064614057541, -0.004940439946949482, -0.13677693903446198, 0.16149726510047913, -0.3300282955169678, 0.2467975616455078, 0.11444354802370071, -0.17279314994812012, -0.020253948867321014, -0.023820633068680763, -0.0035833490546792746, 0.12968847155570984, 0.13767112791538239, 0.14794422686100006, 0.05750677362084389, 0.20905715227127075, -0.3349635601043701, 0.13395343720912933, -0.18790945410728455, -0.26164159178733826, -0.0332995243370533, -0.09120838344097137, 0.08262275904417038, 0.058533549308776855, 0.10202488303184509, -0.17133624851703644, -0.07413624227046967, 0.008888296782970428, 0.11571985483169556, 0.013517913408577442, -0.12089882791042328, 0.05137841776013374, -0.15973132848739624, -0.04736585170030594, 0.2577641010284424, 0.06368051469326019, -0.0031599143985658884, 0.1485491693019867, 0.26075243949890137, 0.11446243524551392, 0.14556355774402618, -0.1551475077867508, 0.06518177688121796, -0.043288785964250565, 0.2590653598308563, 0.04147610440850258, 0.17609910666942596, -0.038207173347473145, -0.11599615961313248, 0.24627549946308136, 0.14730563759803772, -0.004279694985598326, -0.06835940480232239, -0.20629218220710754, -0.011596054770052433, -0.1483825147151947, 0.11292096972465515, -0.01707177236676216, -0.16577541828155518, -0.05847376585006714, -0.10678884387016296, -0.09560436010360718, -0.23281222581863403, 0.21074333786964417, -0.027989983558654785, -0.1713775247335434, 0.0762949138879776, 0.3548073470592499, -0.039193637669086456, 0.20663036406040192, 0.3748890161514282, 0.034106187522411346, -0.21877188980579376, 0.24029847979545593, 0.22590197622776031, -0.33580589294433594, -0.10757821053266525, -0.08545049279928207, -0.1267494410276413, -0.1684434562921524, -0.23710590600967407, 0.012767758220434189, -0.03583131730556488, 0.0082109235227108, -0.05882886424660683, -0.0030874190852046013, 0.144209086894989, 0.04615487530827522, 0.12262403964996338, 0.031194398179650307, -0.05318518728017807, -0.132583349943161, -0.2326512187719345, -0.06345808506011963, 0.06552427262067795, 0.00035175838274881244, 0.05901883542537689, -0.029772302135825157, -0.004884908441454172, -0.07304050028324127, 0.0019472099374979734, -0.3228033781051636, -0.1354956179857254, 0.18611888587474823, 0.14494013786315918, -0.2494114339351654, 0.1682816594839096, 0.05422239378094673, 0.0419892854988575, -0.24955390393733978, -0.0046597751788794994, -0.0415312834084034, -0.06714218854904175, -0.2005915492773056, -0.06969214975833893, -0.2430434674024582, -0.0881345346570015, 0.07740796357393265, 0.18760433793067932, 0.06346569955348969, 0.12702058255672455, 0.04158785566687584, -0.07450132817029953, 0.005166634917259216, 0.38684478402137756, 0.12593577802181244, -0.21694383025169373, -0.05904531478881836, 0.08186259865760803, -0.15052251517772675, -0.2995526194572449, -0.10446295887231827, -0.07939419895410538, 0.2766288220882416, 0.06242610141634941, -0.07420576363801956, -0.2414284348487854, -0.002549625001847744, 0.3544970452785492, -0.021354161202907562, 0.0801897794008255, -0.06778748333454132, -0.010775305330753326, 0.035753872245550156, 0.05065770819783211, 0.2887099087238312, -0.3151414394378662, 0.08272948861122131, 0.4527524411678314, 0.022488778457045555, -0.1686122864484787, 0.34694766998291016, -0.06818808615207672, 0.07723143696784973, 0.2039039582014084, 0.04208444431424141, 0.25058043003082275, -0.13013599812984467, 0.039325274527072906, -0.05135858431458473, 0.12753993272781372, -0.023683879524469376, -0.3079206049442291, -0.15646584331989288, -0.3300066292285919, -0.04364009201526642, 0.12735684216022491, 0.09671219438314438, -0.05974883586168289, -0.12375573813915253, 0.022114042192697525, -0.21201175451278687, 0.026710612699389458, -0.14050400257110596, 0.04453236982226372, 0.06440781056880951, 0.05875241383910179, 0.0870634987950325, -0.05417928472161293, 0.03393033891916275, -0.40609875321388245, 0.017018431797623634, -0.13409587740898132, 0.1711721420288086, -0.1404675543308258, -0.001551154418848455, 0.0847272127866745, -0.20959267020225525, 0.021793171763420105, 0.03536117076873779, -0.019772032275795937, 0.10783218592405319, -0.15928751230239868, -0.021245302632451057, -0.13424640893936157, -0.20898514986038208, 0.4467703104019165, -0.22824659943580627, -0.18181569874286652, 0.0993739515542984, -0.10676014423370361, -0.2817499339580536, -0.10311201214790344, -0.06447379291057587, 0.06896041333675385, -0.05029013752937317, -0.13639159500598907, 0.05930691212415695, 0.2721501886844635, -0.1004176065325737, 0.03043491020798683, 0.08965189009904861, 0.15882286429405212, -0.018738647922873497, 0.09168478101491928, 0.15553903579711914, -0.041386138647794724, 0.0669720247387886, 0.14601844549179077, 0.02306150645017624, -0.09526630491018295, 0.07372484356164932, -0.07529661059379578, -0.16906099021434784, -0.0800752192735672, -0.06400550156831741, 0.05348898470401764, -0.20075547695159912, 0.20225821435451508, 0.04539881646633148, -0.04630172997713089, 0.1254536211490631, 0.2250775545835495, -0.008846702985465527, -0.10069172829389572, 0.10507582873106003, 0.06968706846237183, 0.07564200460910797, 0.12745144963264465, 0.10526195168495178, 0.19795043766498566, -0.1545688956975937, 0.18124333024024963, 0.021307064220309258, -0.4537985622882843, 0.1210126280784607, 0.16436271369457245, -0.08975081145763397, 0.06862702965736389, 0.19441376626491547, -0.17192764580249786, 0.016105307266116142, -0.15685169398784637, 0.1065329760313034, -0.226925790309906, 0.046355873346328735, -0.0942627489566803, 0.12476764619350433, 0.037164557725191116, 0.07270128279924393, -0.03596024215221405, 0.11352668702602386, 0.036455295979976654, -0.061942923814058304, 0.15359771251678467, 0.06149281561374664, 0.12558460235595703, -0.16186825931072235, -0.22479011118412018, 0.07059451192617416, 0.20637407898902893, -0.09229158610105515, 0.09019514173269272, -0.16250546276569366, -0.02256360650062561, 0.019972678273916245, 0.03958818316459656, 0.3100661337375641, 0.077279232442379, 0.031210480257868767, 0.08948756754398346, -0.1048937663435936, -0.08313416689634323, -0.2817821204662323, -0.12860019505023956, -0.3034610152244568, -0.047415077686309814, 0.11438041180372238, 0.0524863637983799, -0.12443092465400696, -0.020596444606781006, 0.20471075177192688, -0.4368460476398468, 0.09881499409675598, -0.004814611282199621, -0.13055531680583954, -0.13879624009132385, -0.06297378987073898, -0.17133159935474396, 0.058296363800764084, -0.1840277761220932, -0.2805956304073334, 0.19567492604255676, 0.04426930844783783, -0.432910680770874, -0.1377197951078415, 0.21086888015270233, -0.22970278561115265, 0.28375086188316345, -0.09240394830703735, 0.026430277153849602, -0.16354268789291382, -0.08846063166856766, -0.22998227179050446, -0.04559885337948799, 0.2795882821083069, 0.20690612494945526, -0.04180749133229256, 0.011400035582482815, 0.2019045054912567, 0.19125308096408844, -0.09920825064182281, 0.03011222928762436, 0.07601166516542435, -0.018994934856891632, -0.06779750436544418, -0.07407090812921524, -0.1384776532649994, -0.18659816682338715, 0.014104261994361877, 0.21742399036884308, -0.21918147802352905, 0.07103850692510605, 0.006968830246478319, 0.11125365644693375, 0.03001623973250389, 0.02451261132955551, 0.3437441289424896, -0.11944055557250977, 0.2908792495727539, 0.15919440984725952, 0.2427746206521988, 0.12569917738437653, 0.13497613370418549, -0.054129648953676224, 0.2235259860754013, 0.15646378695964813, -0.02437445893883705, 0.011345867067575455, -0.07362183183431625, -0.07552504539489746, 0.3531249463558197, 0.13178734481334686, 0.23837654292583466, -0.014527498744428158, -0.0527012012898922, -0.0974106416106224, 0.1206902414560318, 0.04245695471763611, -0.013155397959053516, 0.12646909058094025, 0.07380204647779465, -0.07036621868610382, -0.1705438494682312, -0.26941072940826416, 0.02817988023161888, -0.13607852160930634, -0.024628320708870888, -0.020724641159176826, -0.13613756000995636, 0.014341731555759907, -0.13841500878334045, -0.06876932084560394, -0.17370982468128204, -0.11974505335092545, 0.04678995907306671, 0.18126113712787628, 0.014835677109658718, 0.046888306736946106, -0.1307966262102127, -0.03655226528644562, 0.028330545872449875, 0.023461714386940002, 0.1808885782957077, 0.07351890206336975, 0.027084186673164368, 0.13143856823444366, -0.059833724051713943, -0.28725916147232056, -0.041992392390966415, -0.06229327619075775, 0.016979217529296875, -0.019559897482395172, 0.05122939124703407, 0.030231956392526627, -0.1156991496682167, -0.06566829979419708, -0.18793152272701263, -0.07783526927232742, 0.035415228456258774, -0.004250178579241037, 0.04789687693119049, -0.08061730861663818, 0.3843117654323578, 0.07698357105255127, 0.039909545332193375, -0.12085538357496262, -0.14725294709205627, -0.1351783573627472, 0.055984120815992355, 0.018504492938518524, -0.041914138942956924, -0.5028068423271179, 0.014395155012607574, 0.11048553138971329, -0.1722726672887802, -0.14777635037899017, 0.27932605147361755, -0.02948080562055111, -0.14781206846237183, 0.10508240759372711, 0.2138131558895111, 0.09167370200157166, 0.2313562035560608, 0.2261156439781189, 0.08309576660394669, -0.15350055694580078, -0.16669242084026337, 0.003197222948074341, 0.11570310592651367, 0.046816788613796234, -0.2583978474140167, 0.06629763543605804, -0.3355581760406494, 0.2005675733089447, -0.06296063959598541, -0.3148181736469269, -0.010918140411376953, -0.07927438616752625, -0.3215397298336029, 0.020173853263258934, -0.014466851949691772, -0.34725141525268555, 0.04042264446616173, 0.12400832027196884, 0.0329904742538929, 0.05057666450738907, -0.18668422102928162, -0.014762029983103275, -0.05120484530925751, -0.26261308789253235, 0.07488302886486053, -0.02219865843653679, 0.0005342884105630219, 0.02776649035513401, 0.10955189913511276, -0.16761663556098938, 0.09993377327919006, 0.139587864279747, -0.14514625072479248, 0.16093634068965912, 0.0800819844007492, 0.37785738706588745, 0.3859124779701233, 0.045912835747003555, 0.2800142467021942, -0.15203051269054413, 0.024927476420998573, -0.13159802556037903, 0.04341122880578041, 0.08154269307851791, 0.07810001820325851, -0.08019901067018509, 0.1176258847117424, -0.29359057545661926, 0.13999642431735992, -0.09399627894163132, -0.16963310539722443, -0.5762248039245605, -0.09717386215925217, -0.041408516466617584, -0.1994638592004776, 0.04155081510543823, -0.11988475918769836, 0.6865129470825195, -0.027925217524170876, -0.3027452528476715, 0.23758669197559357, -0.17040659487247467, -0.18095649778842926, 0.051909126341342926, -0.11831798404455185, 0.22956693172454834, -0.06939844787120819, 0.08964522182941437, -0.2927432656288147, 0.25577592849731445, -0.05783428996801376, 0.2463291883468628, 0.06656178086996078, 0.03562299162149429, 0.01065135095268488, 0.15016382932662964, 0.02168617956340313, -0.12953631579875946, -0.06707602739334106, 0.2372502237558365, 0.04671185463666916, 0.1079520434141159, 0.0006954622222110629, -0.2834278643131256, 0.15306618809700012, -0.012346352450549603, 0.01877155713737011, -0.27247893810272217, -0.5508508682250977, 0.8082978129386902, 0.27129629254341125, -0.36970382928848267, -0.1897810697555542, -0.29280710220336914, 0.11457329243421555, 0.6233813166618347, -0.5494680404663086, 0.9288493394851685, 0.6859129071235657, 0.030579926446080208, -0.2761279344558716, 0.10582421720027924, -0.6133440136909485, 0.18229439854621887, -0.20878338813781738, -0.11017335951328278, -0.3499908447265625, 0.3072053790092468, 0.295510858297348, 0.13839790225028992, 0.05723832547664642, 0.35264426469802856, 0.17922712862491608, 0.04281154274940491, 0.13476654887199402, -0.233224555850029, 0.10321318358182907, -0.2548077702522278, -0.08760449290275574, 0.14489907026290894, -0.061437517404556274, -0.04096264764666557, 0.23136651515960693, 0.33090832829475403, 0.2702697217464447, 0.10461297631263733, -0.4582096338272095, -0.11505366861820221, -0.054512009024620056, -0.1218675822019577, -0.2684054374694824, 0.051556266844272614, 0.3270597457885742, 0.040597155690193176, -0.1758003532886505, 0.08104849606752396, -0.1994471400976181, 0.13026344776153564, -0.22197763621807098, 0.0030313164461404085, -0.009788311086595058, 0.05980656296014786, -0.39989838004112244, -0.2190977782011032, -0.04872455820441246, -0.09153986722230911, 0.03510842099785805, 0.0761871412396431, -0.08890792727470398, 0.09517830610275269, 0.09736315160989761, 0.24197855591773987, 0.10569525510072708, 0.10921633988618851, -0.03219860419631004, -0.17243051528930664, 0.010083741508424282, -0.3908316493034363, 0.1679558902978897, 0.1591329276561737, -0.13507749140262604, 0.15161669254302979, 0.1305924504995346, 0.0794658437371254, 0.10591070353984833, 0.22233271598815918, -0.0933145061135292, 0.2699820399284363, 0.00468210456892848, 0.18637612462043762, 0.09363336861133575, -0.04195978119969368, -0.07537456601858139, 0.09280205518007278, -0.17672216892242432, 0.15507975220680237, -0.01904836669564247, -0.2884186804294586, -0.044756751507520676, -0.32230037450790405, -0.31262388825416565, 0.2449350506067276, -0.11861291527748108, -0.014860845170915127, 0.08843522518873215, 0.17683131992816925, 0.0337538979947567, -0.2917281687259674, -0.08462609350681305, 0.22901873290538788, 0.09326466172933578, -0.2465994656085968, -0.27194538712501526, 0.22309666872024536, 0.11447860300540924, 0.06814891844987869, 0.11589875817298889, 0.229522705078125, -0.04344375804066658, 0.005498318467289209, -0.06626024842262268, -0.25246497988700867, -0.014106499031186104, 0.3551287353038788, -0.15252944827079773, 0.013988813385367393, -0.04623039439320564, -0.121028371155262, 0.17168769240379333, -0.23433203995227814, -0.15145979821681976, 0.03449248522520065, 0.1133769154548645, 0.02717093750834465, 0.3912840187549591, 0.24601343274116516, 0.20906969904899597, -0.1643017679452896, -0.07356259226799011, 0.13068634271621704, -0.09418933093547821, 0.19509416818618774, -0.058211587369441986, 0.14517205953598022, 0.09342296421527863, 0.390768438577652, 0.3041229844093323, 0.16362705826759338, 0.22229823470115662, -0.12476702779531479, -0.13333295285701752, -0.442055881023407, 0.19266612827777863, -0.13139708340168, 0.13440723717212677, 0.02839783951640129, -0.16100908815860748, -0.7969833016395569, 0.24381738901138306, -0.09367088973522186, 0.16455134749412537, 0.11118762195110321, 0.20902134478092194, -0.16663706302642822, 0.24222156405448914, 0.226505309343338, 0.25814002752304077, 0.3787071704864502, 0.0023388871923089027, -0.07966221123933792, 0.1958923041820526, -0.012876319698989391, 0.13727416098117828, -0.3146609961986542, -0.24967215955257416, -0.1317903995513916, -0.12853384017944336, 0.034941665828228, -0.356968492269516, -0.10085776448249817, -0.23612681031227112, 0.3509845435619354, -0.12366582453250885, 0.2806209921836853, -0.26908665895462036, -0.2826613783836365, -0.3354387581348419, 0.340033620595932, -0.18983347713947296, 0.1417727917432785, 0.03899887949228287, 0.3473566174507141, 0.1959766447544098, -0.40683120489120483, 0.07644721865653992, -0.0664738193154335, -0.29681968688964844, 0.008458692580461502, 0.3568953275680542, 0.28393539786338806, 0.07225155085325241, -0.18955332040786743, 0.17903198301792145, -0.07799072563648224, 0.20899994671344757, 0.2892441749572754, -0.02430422604084015, -0.12094194442033768, -0.11061333119869232, -0.17083758115768433, 0.18439815938472748, -0.19768591225147247, -0.2935965657234192, 0.03308500349521637, 0.10454030334949493, -0.3886173963546753, -0.14138366281986237, -0.09224734455347061, 0.01967518776655197, 0.1755109280347824, 0.10966222733259201, -0.32275742292404175, -0.19727441668510437, 0.18386833369731903, -0.15007200837135315, 0.0014138913247734308, 0.04443627595901489, -0.008230048231780529, 0.046389345079660416, 0.07777085900306702, -0.11291033774614334, -0.25553441047668457, 0.310233473777771, -0.15803609788417816, -0.07137250900268555, -0.039974212646484375, -0.16565226018428802, 0.23385387659072876, -0.01931186020374298, -0.07665639370679855, 0.06340917944908142, 0.2740824818611145, -0.02327330783009529, 0.051264628767967224, 0.19944201409816742, -0.10138380527496338, 0.032126281410455704, 0.18788295984268188, 0.22869746387004852, 0.03912913054227829, 0.08836319297552109, -0.13729342818260193, -0.11354187875986099, 0.2286711186170578, -0.4078311026096344, 0.1644638329744339, 0.2055545598268509, 0.12701480090618134, 0.11693552136421204, -0.13407179713249207, 0.008570138365030289, 0.1275341808795929, -0.20602606236934662, 0.12264604866504669, -0.35591331124305725, -0.17390459775924683, -0.029377000406384468, -0.1961287558078766, -0.18920254707336426, -0.17343837022781372, -0.14350943267345428, 0.2569047212600708, 0.4507163166999817, 0.008430099114775658, 0.2946777939796448, -0.276119202375412, -0.23074467480182648, -0.008102516643702984, 0.20888641476631165, 0.06287021934986115, 0.0491742268204689, 0.16000299155712128, 0.11296951770782471, -0.06803122907876968, 0.20019112527370453, 0.14829884469509125, -0.07619797438383102, -0.22837594151496887, -0.15512172877788544, 0.08794210851192474, 0.10819853097200394, 0.14488555490970612, 0.01753947138786316, 0.03462713584303856, -0.07633765041828156, 0.11776944249868393, -0.05604659393429756, 0.06068004295229912, 0.06583613157272339, -0.06716703623533249, -0.13978168368339539, -0.2184983789920807, 0.09417164325714111, -0.3129066824913025, 0.12702476978302002, 0.032294921576976776, -0.15565037727355957, -0.07207944244146347, -0.117153100669384, -0.24946551024913788, 0.0006052677636034787, -0.02839459478855133, 0.19457729160785675, 0.13938947021961212, -0.06159687414765358, -0.06171760708093643, -0.2374546229839325, 0.10457157343626022, 0.37095779180526733, 0.018668239936232567, -0.15033458173274994, 0.00312741007655859, -0.053363826125860214, -0.022331055253744125, 0.1844484508037567, -0.12580713629722595, -0.11080998182296753, -0.020080192014575005, -0.028623640537261963, -0.051191359758377075, -0.7670637965202332, 0.05652352049946785, 0.06492521613836288, -0.169821634888649, 0.1285405457019806, -0.045172516256570816, -0.22838324308395386, -0.20226417481899261, -0.068299800157547, 0.009026000276207924, -0.20094837248325348, 0.20120355486869812, -0.09691435098648071, 0.3276742398738861, 0.2259777933359146, -0.040364835411310196, 0.2754195034503937, -0.14890900254249573, -0.2343064546585083, -0.32218489050865173, -0.3669072389602661, -0.03395095467567444, 0.17565235495567322, 0.41404056549072266, 0.16548322141170502, 0.030362294986844063, 0.015425722114741802, 0.2856674790382385, -0.17943958938121796, -0.29528725147247314, 0.017290804535150528, 0.04471361264586449, 0.2194327563047409, -0.05093066394329071, -0.0912686139345169, -0.13206161558628082, -0.01973114348948002, 0.0929030179977417, 0.2690642178058624, 0.1547655165195465, -0.016371741890907288, 0.2895154356956482, 0.15976646542549133, -0.017621750012040138, 0.23233842849731445, -0.0558079369366169, 0.48868924379348755, 0.09871771186590195, -0.18047527968883514, 0.12037871778011322, 0.16736431419849396, -0.0849376693367958, 0.009920600801706314, 0.23768919706344604, -0.28835514187812805, 0.03560915216803551, 0.13082975149154663, 0.16870766878128052, 0.3391006886959076, 0.038417838513851166, 0.055491190403699875, -0.04384240508079529, 0.0032626630272716284, -0.0029124629218131304, 0.10230596363544464, -0.10103990137577057, -0.09300098568201065, 0.1346970945596695, -0.1984027624130249, 0.06614931672811508, -0.06360534578561783, 0.3248193562030792, -0.09229566156864166, 0.08958285301923752, -0.11476568877696991, 0.07502040266990662, -0.16953259706497192, -0.2622542083263397, 0.029483435675501823, -0.01256254967302084, 0.2584414482116699, -0.18477512896060944, 0.023204665631055832, -0.17350806295871735, 0.08916226774454117, -0.009460669942200184, 0.3204527497291565, -0.11777017265558243, 0.19858892261981964, 0.012193950824439526, 0.11268620193004608, -0.0709710344672203, -0.030125685036182404, -0.25642502307891846, 0.14190778136253357, -0.02511829324066639, 0.02780381590127945, -0.10073120146989822, 0.1328887790441513, -0.07485129684209824, -0.10570625215768814, 0.12363415211439133, -0.1436109095811844, 0.09161189943552017, -0.33001232147216797, -0.049535296857357025, 0.03519151359796524, 0.08371671289205551, -0.028242258355021477, 0.0796654224395752, 0.2693471312522888, 0.004831608384847641, -0.14267094433307648, 0.037918057292699814, 0.07606516033411026, 0.0025286769960075617, 0.18259397149085999, -0.0391153059899807, 0.019122697412967682, 0.24137787520885468, -0.12829941511154175, 0.14166009426116943, 0.13623592257499695, -0.04921819269657135, -0.028406066820025444, -0.24069099128246307, 0.08120299130678177, 0.14610762894153595, 0.09442547708749771, -0.010019730776548386, 0.16730637848377228, -0.055819038301706314, 0.24422281980514526, -0.26809990406036377, -0.20449496805667877, -0.3739880621433258, -0.08657325804233551, -0.046459559351205826, 0.24773526191711426, 0.04129115492105484, 0.30760347843170166, -0.026293251663446426, 0.3810749053955078, 0.5398182272911072, 0.04424101114273071, -0.0647718757390976, 0.19774937629699707, -0.18951383233070374, -0.002058835234493017, 0.12093902379274368, -0.21532627940177917, -0.042810626327991486, -0.0027787056751549244, 0.0868174135684967, 0.16069622337818146, 0.2344345599412918, -0.10589778423309326, 0.05747140198945999, 0.14766329526901245, 0.033841975033283234, 0.16489028930664062, 0.19398613274097443, 0.024328049272298813, 0.0032474228646606207, 0.2853012979030609, -0.18912851810455322, 0.17737172544002533, -0.00033388842712156475, 0.22100813686847687, 0.057015080004930496, -0.17922256886959076, -0.1112922877073288, -0.17481721937656403, 0.03888228163123131, 0.03400985896587372, -0.06063712760806084, -0.27480489015579224, -0.0410429909825325, 0.016731305047869682, 0.09251901507377625, -0.013544045388698578, 0.2079814076423645, 0.23216235637664795, -0.17650818824768066, -0.21734954416751862, -0.13036689162254333, -0.02067444659769535, 0.002787085948511958, 0.0873570591211319, -0.0620545893907547, -0.030607471242547035, -0.3208298087120056, 0.048519331961870193, -0.05544699355959892, -0.013656387105584145, -0.06360737234354019, -0.040137309581041336, -0.09127095341682434, 0.05580165982246399, -0.04803968593478203, -0.11860121786594391, 0.05552520975470543, -0.15598857402801514, -0.1830439269542694, 0.1909300982952118, -0.0552564300596714, 0.24773728847503662, 0.0663241520524025, -0.17747056484222412, 0.17359137535095215, 0.08137668669223785, 0.22526796162128448, 0.26690658926963806, 0.10300884395837784, -0.42482346296310425, 0.17878174781799316, -0.43718600273132324, 0.13310734927654266, -0.05486827343702316, -0.09505955129861832, -0.06656982749700546, -0.31417617201805115, -0.1193133220076561, -0.029836665838956833, -0.002971248934045434, 0.08337133377790451, 0.08536218106746674, -0.2515895664691925, -0.19484460353851318, -0.13910382986068726, 0.3124634623527527, -0.2689425051212311, 0.2763833999633789, 0.048521801829338074, -0.045668333768844604, 0.004278491251170635, -0.10639120638370514, 0.1595885008573532, 0.1299167275428772, 0.29537340998649597, 0.11610271781682968, -0.17717419564723969, 0.025251932442188263, -0.14472807943820953, -0.14959682524204254, 0.14507833123207092, -0.16436748206615448, 0.15673348307609558, -0.019934967160224915, -0.09404538571834564, 0.005668342113494873, 0.2750822901725769, -0.0008658457663841546, 0.054000381380319595, 0.023017501458525658, -0.17934618890285492, -0.1327887773513794, -0.010807395912706852, 0.02091294527053833, 0.21699555218219757, 0.34992554783821106, 0.23478566110134125, -0.04767975956201553, -0.1641218364238739, 0.02512921765446663, 0.03238467499613762, 0.08999599516391754, -0.15796512365341187, 0.014216348528862, -0.05640486627817154, 0.036531154066324234, -0.08679445087909698, -0.1995793730020523, -0.06290309131145477, 0.10477248579263687, -0.046767476946115494, -0.05881829187273979, -0.03638596087694168, 0.17943936586380005, 0.14806868135929108, 0.07260040938854218, -0.013799716718494892, 0.06448018550872803, 0.0912804827094078, 0.24425335228443146, 0.015829874202609062, 0.17519204318523407, 0.031836312264204025, 0.1939103752374649, 0.07998630404472351, -0.14573945105075836, 0.02627907693386078, -0.17029079794883728, -0.01954585313796997, -0.0774901956319809, 0.0518299825489521, 0.2128184288740158, 0.10564427077770233, 0.05790816247463226, -0.07225985825061798, -0.21504120528697968, -0.06578432768583298, 0.07653237879276276, -0.05217897519469261, -0.02022179402410984, -0.14093416929244995, 0.18500731885433197, -0.22611166536808014, 0.23762881755828857, 0.22484776377677917, 0.07676955312490463, 0.25809112191200256, -0.02076105587184429, 0.038630161434412, -0.028719861060380936, 0.10683035850524902, -0.026237763464450836, -0.07549425959587097, -0.003068795893341303, -0.01099215354770422, -0.27070683240890503, -0.13222485780715942, -0.14213357865810394, 0.10055753588676453, 0.08546295762062073, -0.1929648071527481, -0.3536979854106903, -0.2081875503063202, -0.21276406943798065, 0.07505327463150024, 0.0246491227298975, 0.015078151598572731, 0.25399866700172424, -0.0597560778260231, -0.06004267930984497, -0.09962707757949829, -0.14572575688362122, 0.19560159742832184, -0.0024157455191016197, -0.0109433364123106, 0.07978922128677368, -0.1918795108795166, -0.007841304875910282, -0.09629075229167938, -0.0653349980711937, 0.13943463563919067, -0.08360212296247482, -0.27002426981925964, 0.0831422209739685, 0.013983123004436493, 0.3155214786529541, 0.1694001853466034, 0.1499478816986084, -0.04564094915986061, -0.06841977685689926, -0.11456025391817093, -0.10347755998373032, -0.13233913481235504, 0.048620328307151794, 0.2709273099899292, -0.08101745694875717, -0.24731943011283875, -0.06976675987243652, 0.20058462023735046, -0.14589667320251465, -0.026043985038995743, -0.004622988402843475, 0.05749440938234329, -0.03136543929576874, -0.07031593471765518, -0.08467806875705719, -0.12363352626562119, -0.09167063981294632, 0.3335277736186981, 0.19323799014091492, -0.0647263154387474, -0.034262049943208694, 0.09531240165233612, 0.13384464383125305, -0.04443345218896866, -0.1222134679555893, -0.17737258970737457, 0.09443863481283188, -0.014455705881118774, -0.1596599519252777, 0.28007441759109497, 0.06862062215805054, -0.20418360829353333, 0.0033748005516827106, 0.21720202267169952, -0.031087495386600494, -0.03050573728978634, -0.04868284985423088, 0.008706950582563877, -0.17027421295642853, 0.0709509551525116, 0.353458046913147, 0.007321001496165991, 0.24633562564849854, 0.0917571559548378, 0.0005937269888818264, 0.1299804449081421, -0.20905360579490662, -0.11433404684066772, 0.2956092357635498, -0.007271220441907644, 0.2296796441078186, 0.14517492055892944, 0.017829129472374916, -0.004034234676510096, 0.21809986233711243, -0.05012499913573265, -0.0888381078839302, -0.04994172602891922, -0.10608985275030136, 0.28131961822509766, -0.36265066266059875, 0.08355925232172012, -0.04035076126456261, 0.12472709268331528, 0.15764017403125763, -0.15860198438167572, -0.02200404927134514, -0.005830834154039621, -0.058610085397958755, -0.016777511686086655, -0.13713465631008148, -0.002344244858250022, 0.31314611434936523, 0.14302392303943634, -0.03322409838438034, 0.20299172401428223, 0.03436511009931564, 0.19553440809249878, 0.006767469923943281, -0.1226593554019928, 0.13141168653964996, 0.29273074865341187, -0.14493128657341003, 0.05696782097220421, 0.2674938440322876, 0.08093217015266418, -0.2024383395910263, 0.17530062794685364, 0.11496242135763168, -0.1167541965842247, -0.1684930920600891, -0.014991093426942825, 0.07468805462121964, -0.20064423978328705, 0.09748972207307816, 0.24792444705963135, -0.12752291560173035, 0.038460202515125275, 0.022511035203933716, -0.1362616866827011, -0.17930711805820465, -0.27295348048210144, -0.22287608683109283, 0.035449039191007614, 0.07380436360836029, 0.10254175215959549, 0.16240769624710083, 0.09318279474973679, 0.2023315131664276, -0.19322121143341064, -0.044911373406648636, 0.04534260183572769, 0.1394364982843399, -0.07991507649421692, 0.14662721753120422, 0.004621855914592743, -0.03096490353345871, -0.010006824508309364, -0.06917381286621094, -0.04105331003665924, -0.10709691047668457, 0.04610295221209526, 0.15999732911586761, -0.07817265391349792, -0.12250103056430817, 0.19225932657718658, -0.07473279535770416, 0.02137591876089573, 0.2426781952381134, -0.1313474327325821, -0.0031340322457253933, -0.06928198784589767, 0.062339816242456436, 0.13263745605945587, -0.22264248132705688, 0.01747831143438816, 0.15049481391906738, -0.11028707772493362, 0.12861177325248718, -0.06179085746407509, 0.3156379461288452, 0.13443182408809662, -0.11571834981441498, 0.05626976862549782, 0.06700174510478973, 0.09336286783218384, 0.09991148114204407, -0.12155704945325851, -0.16900606453418732, -0.10361325740814209, -0.03027789480984211, 0.03776636719703674, -0.066549152135849, -0.15171508491039276, 0.053617238998413086, -0.09829417616128922, -0.19505739212036133, -0.3029829263687134, 0.009301843121647835, -0.0031435603741556406, 0.3753517270088196, 0.1869734227657318, 0.13867753744125366, -0.05495510622859001, -0.17586888372898102, 0.09770993888378143, 0.28386467695236206, 0.060104064643383026, -0.030070140957832336, 0.06597012281417847, 0.3196958899497986, 0.06895604729652405, -0.44767293334007263, 0.09368652105331421, 0.10151795297861099, -0.29886695742607117, 0.1665796935558319, -0.13664138317108154, -0.044847048819065094, -0.17998772859573364, -0.09988923370838165, -0.04033029079437256, 0.19508863985538483, 0.3970295488834381, 0.08071836829185486, 0.09565361589193344, -0.07495875656604767, -0.16223159432411194, -0.03542620316147804, 0.005131365265697241, 0.005191120319068432, 0.1812364012002945, -0.0944661870598793, 0.2778986990451813, -0.010422536171972752, 0.03873803839087486, 0.03079945035278797, 0.08966982364654541, 0.016389260068535805, -0.05126755312085152, 0.14933468401432037, 0.006619123741984367, -0.13176576793193817, -0.1609591394662857, 0.0004399185418151319, -0.04410446435213089, -0.07501811534166336, -0.06289757788181305, 0.025234034284949303, -0.30074766278266907, 0.179970845580101, -0.6559758186340332, 0.10654126852750778, 0.20463992655277252, -0.10146261751651764, 0.10702073574066162, -0.15154066681861877, 0.021083107218146324, 0.046707794070243835, -0.15469962358474731, 0.10565140843391418, -0.06106998026371002, 0.013064978644251823, 0.04355969280004501, -0.08168494701385498, 0.047648508101701736, 0.12877221405506134, -0.0551205575466156, -0.1305810958147049, 0.0016730462666600943, 0.3003385663032532, -0.16280899941921234, -0.19717036187648773, 0.10127650201320648, 0.22326084971427917, 0.1683170199394226, -0.17169509828090668, 0.20188921689987183, 0.022816931828856468, -0.1861376166343689, 0.37104329466819763, 0.09585142880678177, 0.06937665492296219, 0.15810775756835938, -0.08378186076879501, 0.2140907347202301, 0.1746269315481186, 0.22628925740718842, 0.09631500393152237, 0.022158430889248848, 0.02486305870115757, 0.0198660995811224, 0.02161720022559166, 0.3676453232765198, -0.013265750370919704, -0.07974041998386383, -0.3074239492416382, -0.2041652351617813, -0.16805694997310638, 0.06034350395202637, 0.08632030338048935, -0.09632185101509094, 0.1663701832294464, 0.09011290222406387, 0.13456496596336365, 0.3274344205856323, 0.1298213005065918, 0.09424875676631927, -0.0853981226682663, -0.0010886878008022904, -0.034047577530145645, -0.04478438198566437, -0.04080415517091751, 0.20967547595500946, 0.08957396447658539, 0.0013125214027240872, 0.064707450568676, 0.07655774801969528, 0.08594533801078796, 0.14443756639957428, 0.2257140725851059, -0.14223642647266388, -0.02820657379925251, 0.19435136020183563, -0.22631707787513733, 0.03156869485974312, 0.18118423223495483, -0.06511210650205612, 0.08517208695411682, 0.08827688544988632, -0.10389059782028198, -0.1433250904083252, 0.13573819398880005, 0.02452792413532734, 0.03168197721242905, -0.15924708545207977, 0.25796473026275635, -0.060582466423511505, -0.15711407363414764, -0.06547589600086212, -0.1545504331588745, 0.16919364035129547, 0.08669403195381165, 0.1197245642542839, -0.004414523020386696, -0.22844065725803375, -0.14314532279968262, 0.03853347525000572, -0.0779431164264679, -0.07576700299978256, -0.19218626618385315, -0.10503093898296356, -0.032803431153297424, 0.19828051328659058, 0.21588686108589172, -0.042137086391448975, -0.11409913003444672, -0.2338680624961853, -0.03513457626104355, 0.07300767302513123, -0.1591765135526657, 0.11438371986150742, 0.12832467257976532, 0.06474015861749649, 0.15170134603977203, -0.19881613552570343, -0.038862280547618866, 0.1900477409362793, 0.10781818628311157, -0.1973017007112503, 0.11291370540857315, 0.0457027293741703, -0.43798205256462097, -0.019787872210144997, -0.03581969439983368, -0.44788044691085815, -0.34452396631240845, -0.11915891617536545, -0.04660581424832344, 0.20237275958061218, 0.09382583945989609, 0.036894720047712326, -0.12564313411712646, -0.16076667606830597, 0.06042146310210228, -0.08650504797697067, 0.0008537898538634181, -0.09174173325300217, 6.521658360725269e-05, 0.007374497130513191, 0.03245021775364876, 0.029054904356598854, -0.15872886776924133, 0.11007943749427795, 0.29037678241729736, -0.25394734740257263, -0.0801188051700592, -0.17208264768123627, 0.12390188872814178, -0.1613198220729828, -0.032507751137018204, -0.15073981881141663, -0.14638365805149078, -0.1754852831363678, -0.19269633293151855, -0.26329097151756287, 0.021073294803500175, 0.19709277153015137, -0.281281054019928, 0.20103231072425842, 0.21486394107341766, 0.2009178102016449, -0.23016071319580078, -0.07100547105073929, 0.11923046410083771, -0.057739537209272385, -0.11686021089553833, 0.1396201252937317, 0.027910472825169563, 0.042954858392477036, -0.08372946083545685, 0.21718023717403412, 0.019578740000724792, -0.012165505439043045, -0.05147458240389824, 0.10469122976064682, 0.2391861528158188, -0.002874350408092141, 0.007883723825216293, 0.05955471470952034, 0.001417501363903284, 0.005791019648313522, 0.023085156455636024, 0.9618626236915588, 0.2455313354730606, 0.45374804735183716, -1.0008372068405151, -0.5212945342063904, -0.08708979934453964, 0.19532637298107147, 0.025186872109770775, 0.385780394077301, 0.13303391635417938, -0.9772835969924927, 0.688589870929718, -0.00548686645925045, -0.770240068435669, 0.14225178956985474, -0.31466928124427795, -0.0944930836558342, -0.3049555718898773, 0.1640690565109253, -0.13471464812755585, -0.06411197036504745, 0.20958055555820465, -0.0013133916072547436, -0.26632651686668396, -0.35478487610816956, 0.1034933403134346, 0.029067281633615494, 0.0469474159181118, 0.015418445691466331, 0.021540861576795578, 0.20676150918006897, 0.043762803077697754, -0.11229237914085388, -0.14763931930065155, 0.22422584891319275, -0.07749506086111069, -0.05922431871294975, 0.10254254937171936, 0.0054050832986831665, -0.5223089456558228, -0.2195897251367569, -0.2568337023258209, -0.27449944615364075, -0.05416559427976608, 0.08549044281244278, -0.09226274490356445, 0.026595711708068848, 0.48873308300971985, -0.013620035722851753, 0.1790405809879303, 0.031893134117126465, -0.03344646468758583, 0.022888505831360817, -0.2428763508796692, -0.2554987072944641, 0.09469825774431229, 0.235441192984581, -0.19814527034759521, -0.33647453784942627, -0.16529390215873718, -0.20964835584163666, -0.10029678791761398, -0.16532175242900848, 0.12468093633651733, -0.1460079848766327, -0.163510262966156, -0.1439662128686905, 0.34846609830856323, 0.07946142554283142, 0.13719859719276428, 0.35718443989753723, 0.43848717212677, -0.2958603501319885, -0.12904532253742218, 0.2074279487133026, -0.13547763228416443, 0.06860978901386261, 0.045182257890701294, 0.11866271495819092, -0.04541884735226631, 0.23277515172958374, 0.030912349000573158, 0.007853694260120392, 0.036964450031518936, 0.003895111847668886, -0.035836976021528244, 0.03416695073246956, -0.1836479753255844, 0.17532698810100555, 0.09732836484909058, 0.06240352615714073, 0.10204988718032837, -0.2177126407623291, -0.23437319695949554, -0.13408802449703217, -0.12149132788181305, -0.2555537521839142, 0.24509809911251068, 0.20396257936954498, 0.3139529526233673, -0.15806099772453308, 0.2733938694000244, -0.01512910332530737, -0.0960642546415329, 0.1083473488688469, 0.11586268246173859, -0.22807787358760834, 0.12570232152938843, -0.09199634939432144, 0.04092348366975784, -0.23034468293190002, 0.029254943132400513, 0.022233499214053154, -0.24915620684623718, -0.1424807459115982, 0.012342487461864948, 0.010494849644601345, -0.198166623711586, 0.10424944013357162, 0.42309072613716125, -0.2884625792503357, 0.004268671851605177, 0.06673821806907654, 0.1238984540104866, -0.11139892041683197, -0.020507361739873886, 0.08027386665344238, -0.16987623274326324, -0.313879132270813, 0.2159271240234375, -0.2250363528728485, -0.007176233921200037, 0.277843177318573, 0.015260454267263412, -0.2152673900127411, 0.25637486577033997, 0.05939411371946335, 0.062308937311172485, 0.20674605667591095, -0.0813857913017273, -0.1199755072593689, 0.29286542534828186, 0.15295088291168213, -0.14812800288200378, -0.2771027088165283, 0.026114199310541153, -0.3355685770511627, -0.01428366918116808, 0.1537722498178482, -0.05425594747066498, 0.023275721818208694, 0.04121233522891998, -0.13389047980308533, 0.06725046783685684, -0.16519267857074738, 0.0031823161989450455, 0.1951560378074646, 0.2460172325372696, 0.02342701144516468, 0.3155902624130249, 0.014898637309670448, 0.06912023574113846, 0.037258636206388474, -0.08810209482908249, -0.2559538781642914, 0.084854356944561, -0.3235233426094055, -0.0228120144456625, -0.21387580037117004, -0.4393826425075531, -0.020931264385581017, -0.24758650362491608, 0.18547503650188446, -0.31030702590942383, 0.19202888011932373, 0.18494588136672974, 0.014766325242817402, 0.09469378739595413, -0.25869593024253845, -0.2250022441148758, -0.1672552525997162, 0.00013719200796913356, 0.037083856761455536, -0.08143702894449234, 0.16175051033496857, 0.08540253341197968, -0.0891498550772667, 0.02107533998787403, -0.08943448215723038, 0.19433751702308655, 0.11544323712587357, -0.016327526420354843, 0.2694985866546631, -0.0009406915633007884, 0.08497898280620575, -0.2457410991191864, -0.07240422070026398, -0.2680054306983948, -0.08276595175266266, 0.20802438259124756, -0.27002355456352234, 0.1925627589225769, 0.17834779620170593, 0.28281429409980774, -0.08475468307733536, 0.03611122816801071, -0.3043379485607147, 0.05993509292602539, 0.048856548964977264, 0.35780808329582214, 0.21677358448505402, 0.3703698515892029, -0.22504012286663055, 0.03821159526705742, -0.2546636164188385, 0.13435976207256317, 0.18618863821029663, 0.16165047883987427, -0.23858648538589478, -0.20916132628917694, -0.10091035813093185, 0.1779814213514328, 0.006187626160681248, -0.05100226402282715, -0.04673311486840248, 0.12940315902233124, -0.04287225008010864, 0.2823084592819214, -0.09898465871810913, 0.03512553125619888, -0.03047567419707775, 0.003584407502785325, -0.014141987077891827, 0.2017003297805786, 0.09435863792896271, -0.07138097286224365, -0.048077721148729324, -0.11694115400314331, -0.047854285687208176, -0.04643373563885689, 0.2180352509021759, -0.022638585418462753, 0.18782533705234528, 0.08282521367073059, -0.08052840828895569, -0.12765519320964813, 0.09614646434783936, 0.03118247352540493, -0.06152936443686485, 0.019645724445581436, -0.30374875664711, -0.05229231342673302, 0.044426605105400085, -0.04847535863518715, -0.072859987616539, 0.03631284087896347, 0.16669106483459473, 0.25133049488067627, -0.14621149003505707, 0.04775054380297661, -0.23694036900997162, -0.3538855016231537, 0.4784882068634033, 0.14872026443481445, -0.4108060896396637, 0.23997683823108673, -0.3405393064022064, -0.04963456466794014, 0.1800808161497116, 0.015678565949201584, 0.040602415800094604, 0.2466314733028412, -0.1796397715806961, 0.027369869872927666, -0.021812904626131058, -0.016342760995030403, 0.04383869096636772, 0.062242429703474045, 0.04014211893081665, 0.00604302529245615, -0.042970363050699234, 0.07706133276224136, 0.09552052617073059, 0.00666813924908638, -0.01631470024585724, -0.22897730767726898, -0.0005681220791302621, -0.0013743139570578933, 0.06877406686544418, -0.11332916468381882, -0.12167668342590332, -0.052163369953632355, 0.2876119613647461, -0.2593379318714142, -0.1359325498342514, 0.08614698797464371, -0.358910471200943, -0.04475753381848335, 0.32726117968559265, -0.016978753730654716, -0.06141645088791847, 0.23766840994358063, -0.054500967264175415, 0.10831743478775024, -0.12567052245140076, 0.06267431378364563, 0.019150584936141968, 0.004758871626108885, -0.05631345510482788, -0.03160538151860237, -0.29995453357696533, -0.2602759003639221, 0.002683270489796996, 0.03207114711403847, -0.04957183450460434, 0.15584798157215118, -0.04836713895201683, -0.10069889575242996, 0.03931768238544464, 0.13324864208698273, -0.36543136835098267, 0.0015557559672743082, 0.39431044459342957, -0.24050919711589813, -0.060531411319971085, 0.10665931552648544, 0.13386119902133942, -0.08329074084758759, -0.008933025412261486, 0.023168358951807022, 0.2800207734107971, -0.06711269170045853, 0.15493866801261902, 0.10833541303873062, 0.08581987023353577, -0.19228631258010864, -0.04747859388589859, -0.01762104406952858, 0.1261850893497467, 0.029343584552407265, -0.09146220237016678, -0.07426299154758453, -0.05003152787685394, -0.19583311676979065, -0.07604190707206726, -0.20541468262672424, 0.017688442021608353, 0.0168588999658823, 0.19586849212646484, 0.08440183103084564, -0.15709517896175385, 0.05225813761353493, -0.12320389598608017, -0.20191143453121185, -0.1418856531381607, 0.2797188460826874, 0.19720359146595, -0.0012075102422386408, 0.04056153446435928, -0.11237785965204239, 0.09823369234800339, 0.14875289797782898, 0.3635433316230774, -0.09504576027393341, 0.06796126067638397, -0.0802672728896141, 0.10337981581687927, -0.05687173455953598, 0.1605757474899292, -0.24613890051841736, 0.04344729334115982, -0.08219458162784576, -0.09275158494710922, -0.24549046158790588, 0.06380074471235275, -0.07000633329153061, -0.1361050009727478, 0.14559486508369446, 0.12571698427200317, 0.018384190276265144, -0.1354060173034668, 0.057460784912109375, -0.07832984626293182, -0.09167743474245071, -0.029655994847416878, -0.2925333082675934, 0.0873170793056488, 0.15455223619937897, -0.03839985281229019, 0.23519128561019897, -0.3078988194465637, 0.11730567365884781, -0.3048762381076813, -0.007009527646005154, 0.17408624291419983, -0.06856411695480347, -0.16994976997375488, -0.21045133471488953, -0.12001118063926697, 0.0539964996278286, -0.04226750135421753, -0.013623923063278198, 0.16048768162727356, 0.3215295672416687, -0.05341712012887001, -0.07740049809217453, -0.08706562966108322, -0.2362535148859024, -0.197976216673851, -0.2684062123298645, -0.38748568296432495, 0.20693646371364594, 0.0979132354259491, 0.07429437339305878, -0.021291866898536682, 0.04390455037355423, -0.21844397485256195, 0.15436744689941406, 0.22484450042247772, -0.23649168014526367, -0.14925843477249146, -0.13765019178390503, 0.07348717749118805, -0.019338812679052353, -0.01601477339863777, 0.10927942395210266, 0.1292000263929367, -0.04118913412094116, -0.08346965909004211, 0.273382306098938, -0.13145728409290314, -0.22915837168693542, 0.03779659420251846, -0.07950950413942337, 0.10586591064929962, 0.17977333068847656, 0.030062882229685783, -0.3506307899951935, 0.029443109408020973, -0.07844428718090057, 0.09776793420314789, -0.16987140476703644, -0.27664414048194885, 0.21027366816997528, -0.0448576994240284, -0.009394342079758644, 0.18362277746200562, -0.07582742720842361, -0.3696995973587036, -0.0987120121717453, -0.1410060077905655, -0.12968356907367706, 0.13087594509124756, 0.1450333297252655, 0.03235017880797386, -0.31966540217399597, 0.1772080510854721, -0.040057677775621414, 0.2150566726922989, -0.06648462265729904, 0.06525589525699615, 0.15766696631908417, 0.02230064384639263, -0.04812430217862129, 0.027589090168476105, 0.26444530487060547, 0.2589118480682373, 0.21692155301570892, -0.014919986948370934, 0.09361298382282257, 0.03352801129221916, -0.1781431883573532, -0.03215578570961952, -0.03684529662132263, 0.0006198780029080808, -0.1515398770570755, 0.04064028710126877, 0.1022397056221962, -0.23996278643608093, -0.04407221078872681, 0.1747671514749527, 0.32461437582969666, 0.030473357066512108, -0.030027568340301514, 0.18403735756874084, -0.14938026666641235, -0.1267576664686203, 0.12875603139400482, -0.12301885336637497, 0.23734065890312195, 0.288248211145401, 0.05429835617542267, -0.06682009994983673, -0.01260406244546175, 0.1382909119129181, 0.09936961531639099, 0.006470006890594959, 0.14860887825489044, 0.21110239624977112, -0.051076434552669525, -0.2404906004667282, -0.23953695595264435, -0.3261428475379944, -0.2601240277290344, 0.23029324412345886, 0.330989807844162, 0.04938802868127823, -0.03356928005814552, -0.03733120486140251, 0.0969746932387352, -0.07397447526454926, 0.0312674380838871, -0.2015870213508606, 0.013729523867368698, -0.17903368175029755, -0.43787047266960144, -0.033404529094696045, 0.20370133221149445, 0.03218786045908928, 0.10170058906078339, 0.17419122159481049, 0.00045626473729498684, -0.05502011254429817, -0.1884186565876007, 0.11565540730953217, 0.14604471623897552, 0.05922771245241165, 0.16222824156284332, -0.15747812390327454, -0.040016163140535355, -0.17401176691055298, -0.006075723562389612, -0.09072613716125488, -0.18275992572307587, -0.016160273924469948, -0.04135088622570038, -0.0565313883125782, -0.0034276465885341167, -0.10055544227361679, 0.06506139785051346, -0.05381912365555763, -0.01077494490891695, -0.060434598475694656, -0.057148925960063934, -0.07345855236053467, -0.13820472359657288, 0.0012009816709905863, -0.009501146152615547, -0.21749058365821838, 0.09748651087284088, -0.004188066814094782, 0.018620816990733147, 0.014982138760387897, -0.2896418571472168, 0.12543384730815887, 0.01301611214876175, 0.05483996868133545, -0.24414701759815216, -0.014435592107474804, 0.04098579287528992, 0.013421682640910149, 0.12385998666286469, 0.24285399913787842, 0.09394767135381699, 0.01565757766366005, -0.13568881154060364, 0.04012921825051308, -0.1849260777235031, -0.12017722427845001, 0.18134024739265442, 0.16050267219543457, 0.24375057220458984, -0.24584825336933136, 0.23643264174461365, 0.11045179516077042, -0.0720745399594307, 0.15677514672279358, -0.0633188784122467, -0.133771151304245, 0.26255232095718384, -0.08758976310491562, -0.18215875327587128, -0.2597734332084656, -0.15645942091941833, 0.03810999542474747, -0.0378405936062336, -0.04606931284070015, -0.019285352900624275, 0.08419773727655411, 0.24770626425743103, -0.07666690647602081, 0.1820739358663559, 0.14008350670337677, 0.00585796358063817, 0.015181474387645721, 0.0759836807847023, 0.019568508490920067, -0.07412183284759521, 0.056142911314964294, 0.10362644493579865, -0.08332487940788269, -0.08929912745952606, 0.0680168867111206, 0.10865192860364914, 0.16365203261375427, -0.10938507318496704, -0.0258579570800066, 0.11025926470756531, 0.026402678340673447, 