{"version": "0.5.1", "metadata": {"date": {"year": 2023, "month": 5, "day": 1, "hour": 6, "minute": 37, "second": 1}, "loudness": -12.89995002746582, "gain": 0.8326281010403042, "name": null, "modeled_by": null, "gear_type": null, "gear_make": null, "gear_model": null, "tone_type": null}, "architecture": "WaveNet", "config": {"layers": [{"input_size": 1, "condition_size": 1, "head_size": 8, "channels": 16, "kernel_size": 3, "dilations": [1, 2, 4, 8, 16, 32, 64, 128, 256, 512], "activation": "Tanh", "gated": false, "head_bias": false}, {"input_size": 16, "condition_size": 1, "head_size": 1, "channels": 8, "kernel_size": 3, "dilations": [1, 2, 4, 8, 16, 32, 64, 128, 256, 512], "activation": "Tanh", "gated": false, "head_bias": true}], "head": null, "head_scale": 0.02}, "weights": [-0.020485730841755867, 0.46516162157058716, -0.7997143864631653, -0.7849306464195251, -0.3156099021434784, 0.23249489068984985, -0.1071401983499527, 0.8834627866744995, -0.11975066363811493, 0.2493520975112915, -0.384672611951828, -0.28305870294570923, -1.0088239908218384, -0.6268765330314636, -0.5757114291191101, -0.0692487433552742, 0.07331643253564835, 0.13440781831741333, -0.01857350394129753, -0.07301578670740128, 0.11834847182035446, 0.04781927540898323, -0.0235811285674572, 0.03873942047357559, 0.04528537020087242, 0.022788451984524727, 0.061203181743621826, -0.06867557018995285, -0.08122295141220093, -0.0985349640250206, 0.013230165466666222, 0.12245048582553864, -0.021509787067770958, -0.1295190155506134, -0.08216336369514465, -0.18215832114219666, -0.014464113861322403, 0.11788325756788254, 0.13679976761341095, 0.005358804948627949, 0.011821743100881577, -0.13890717923641205, 0.0758085548877716, -0.13210177421569824, -0.03017018921673298, -0.12140199542045593, 0.09444786608219147, 0.008895955048501492, -0.0023844630923122168, -0.0004994779592379928, 0.030828319489955902, 0.2065599262714386, 0.06380277872085571, -0.05206089839339256, 0.16171616315841675, -0.07711073011159897, -0.04187644645571709, -0.04637964442372322, -0.09168295562267303, -0.14104072749614716, 0.13336622714996338, -0.07554901391267776, -0.2602756917476654, 0.009353752247989178, -0.022892866283655167, -0.05724223330616951, -0.22033166885375977, 0.17613919079303741, 0.017338689416646957, 0.12533746659755707, -0.24750074744224548, 0.024397289380431175, 0.07260449230670929, -0.019550813362002373, 0.2029757797718048, 0.14464671909809113, -0.11272052675485611, -0.04728591442108154, 0.02790181338787079, 0.04848196730017662, -0.19825056195259094, 0.12725317478179932, -0.09584652632474899, -0.15589749813079834, -0.05897166207432747, 0.11309199780225754, -0.10174912959337234, -0.08479428291320801, -0.09718962758779526, -0.03175939992070198, 0.040064647793769836, 0.20740088820457458, 0.023072998970746994, 0.039585407823324203, -0.28241264820098877, -0.02231387048959732, 0.08500390499830246, -0.12643012404441833, -0.05116712674498558, -0.08507263660430908, -0.0016679924447089434, 0.17504143714904785, -0.04416985064744949, -0.1741221398115158, -0.06226566433906555, 0.013953677378594875, -0.2556304335594177, -0.035740628838539124, 0.002094143070280552, -0.1627068817615509, -0.017395559698343277, 0.08588314801454544, 0.08272773027420044, -0.059954896569252014, 0.11870402097702026, -0.1623735874891281, 0.2684475779533386, -0.10236846655607224, 0.055469974875450134, -0.27916425466537476, 0.16482676565647125, 0.043915703892707825, -0.38253912329673767, 0.1785620003938675, -0.0900740846991539, -0.3862687647342682, 0.07980652153491974, -0.11638990789651871, 0.24091336131095886, -0.24452516436576843, 0.07257027924060822, -0.21968920528888702, 0.07139748334884644, -0.04169776663184166, 0.4149668514728546, -0.12715905904769897, 0.0833311527967453, -0.2722975015640259, 0.2017531394958496, 0.04156775772571564, 0.4258984923362732, -0.04737120866775513, 0.18161523342132568, -0.30894872546195984, -0.0017159145791083574, -0.011445491574704647, -0.20276369154453278, 0.1335124522447586, -0.03859659284353256, -0.42325982451438904, -0.024996580556035042, -0.08552483469247818, -0.33655408024787903, 0.19179727137088776, 0.12207911908626556, -0.45262426137924194, 0.20896147191524506, 0.09165602922439575, -0.22876262664794922, 0.0938655287027359, -0.16572581231594086, -0.03271697834134102, -0.09557925909757614, -0.12624606490135193, -0.04173380509018898, 0.027853000909090042, -0.056876879185438156, 0.07956122606992722, -0.1560383439064026, -0.0008127600885927677, 0.15204352140426636, -0.08471742272377014, 0.12320474535226822, 0.06960375607013702, -0.1656159907579422, 0.08991285413503647, -0.02564110979437828, -0.024702992290258408, 0.07371964305639267, -0.14211004972457886, -0.03677506744861603, -0.04000687599182129, 0.07991498708724976, 0.0680200383067131, 0.04515582695603371, 0.03464380279183388, -0.10951169580221176, -0.02694268897175789, -0.12719963490962982, 0.13489332795143127, 0.11642482876777649, 0.1085958257317543, -0.14090579748153687, -0.0020432141609489918, -0.0865904912352562, -0.12188077718019485, -0.07331237941980362, 0.07426159083843231, -0.11208349466323853, 0.005401736591011286, 0.028534285724163055, 0.06485152244567871, -0.10733436048030853, -0.07608158141374588, -0.11625936627388, -0.06476379930973053, -0.13264942169189453, 0.09124486893415451, 0.043246470391750336, 0.007587808184325695, 0.02659560739994049, -0.24428658187389374, 0.0034478867892175913, 0.03902946412563324, 0.2188967764377594, 0.039336759597063065, -0.17785055935382843, 0.14836379885673523, 0.13035671412944794, -0.1921979784965515, 0.20561528205871582, 0.1496780663728714, -0.025657732039690018, -0.1991725116968155, -0.15089605748653412, 0.12648555636405945, 0.13627420365810394, 0.010237655602395535, -0.0777972936630249, -0.24408046901226044, -0.010748113505542278, 0.1964193880558014, 0.21932056546211243, 0.13943608105182648, 0.01535889320075512, -0.28963446617126465, 0.058695290237665176, -0.026077335700392723, 0.1550842523574829, 0.052984680980443954, -0.03181775286793709, 0.3421793580055237, -0.02783864550292492, -0.06987075507640839, 0.2965307831764221, -0.12545554339885712, 0.029530735686421394, 0.0979318842291832, 0.01822039484977722, -0.0949232205748558, 0.15105131268501282, 0.031190600246191025, 0.04116883501410484, 0.1885315179824829, -0.12601250410079956, -0.2227197140455246, -0.04493632912635803, 0.01491217128932476, -0.03684493899345398, -0.08780530840158463, 0.017805323004722595, 0.037010010331869125, 0.060633525252342224, 0.0022458459716290236, 0.09637471288442612, -0.06280548125505447, -0.1487160325050354, 0.08792457729578018, 0.1158439889550209, -0.06300606578588486, -0.01757930964231491, -0.06352479010820389, -0.050054650753736496, -0.03255730867385864, -0.02091078646481037, -0.15776875615119934, 0.24869658052921295, -0.0777289867401123, 0.09103197604417801, -0.005073764827102423, 0.0324663408100605, -0.15476877987384796, -0.00983034074306488, 0.11709645390510559, 0.11483192443847656, 0.04809568449854851, -0.05538571625947952, -0.05133857578039169, 0.027342988178133965, 0.0034496227744966745, -0.1797262579202652, 0.12131200730800629, 0.02894933708012104, -0.11143381148576736, 0.012401401996612549, -0.10277920961380005, -0.004719633609056473, -0.05995095893740654, 0.052670642733573914, -0.15479224920272827, -0.015709422528743744, 0.18720002472400665, -0.07744207233190536, 0.12858127057552338, 0.12576216459274292, -0.24065439403057098, 0.030629783868789673, 0.1223239153623581, 0.23098434507846832, -0.16235272586345673, -0.18597330152988434, -0.20374524593353271, 0.19421865046024323, -0.12066386640071869, -0.12605224549770355, 0.2424376755952835, -0.1290748566389084, -0.17146848142147064, 0.20895753800868988, 0.06406461447477341, 0.16908219456672668, -0.14248161017894745, -0.11443126201629639, -0.10603953152894974, 0.28793632984161377, 0.19875472784042358, 0.263931542634964, -0.12977184355258942, 0.047903046011924744, -0.19585688412189484, 0.0835372805595398, -0.07682114839553833, 0.2980839014053345, -0.08431580662727356, -0.15798205137252808, -0.10810081660747528, 0.27224820852279663, 0.09932854771614075, -0.041692785918712616, 0.2805406451225281, -0.10263889282941818, -0.23104290664196014, 0.2655448913574219, 0.014831682667136192, -0.2629895508289337, 0.2780205011367798, 0.009818525053560734, -0.10161474347114563, 0.06379344314336777, 0.1682664006948471, -0.10679817199707031, 0.29639357328414917, 0.08641579747200012, -0.05608491227030754, -0.055827829986810684, -0.07272948324680328, 0.1449619084596634, 0.13484422862529755, 0.03732598200440407, -0.16353686153888702, -0.15762262046337128, -0.006708930712193251, -0.31221094727516174, 0.051155850291252136, 0.21821549534797668, -0.05273464322090149, 0.059026774019002914, -0.2549329102039337, 0.10338257253170013, 0.041880905628204346, 0.03588806092739105, -0.10333976149559021, -0.1862594187259674, -0.2055433839559555, 0.05772430822253227, -0.018637288361787796, 0.24605868756771088, -0.08484768122434616, 0.04029032588005066, -0.014774175360798836, 0.32978785037994385, 0.023554181680083275, 0.19608521461486816, -0.07136543840169907, -0.018474722281098366, 0.28201690316200256, -0.1320885866880417, 0.023052237927913666, 0.08353415131568909, -0.12850786745548248, -0.047414813190698624, 0.09729903936386108, -0.27891090512275696, -0.1449783444404602, 0.030733622610569, -0.10493466258049011, 0.04065031185746193, 0.2316315472126007, -0.12847164273262024, 0.1714312732219696, 0.07294612377882004, -0.06675873696804047, -0.11204202473163605, 0.1268356591463089, 0.06899721175432205, -0.10502459853887558, 0.13856452703475952, 0.09582914412021637, -0.05740305781364441, 0.082209013402462, -0.09635105729103088, -0.02845899946987629, 0.13298232853412628, -0.0044540055096149445, -0.10184378176927567, -0.05663293972611427, -0.041344016790390015, -0.040478382259607315, 0.0690842941403389, 0.17799681425094604, 0.05665913224220276, -0.08867712318897247, 0.021001771092414856, 0.07441110908985138, 0.10178717970848083, -0.10939160734415054, 0.014989571645855904, -0.11450111120939255, -0.05501430854201317, 0.03875849395990372, -0.09761592000722885, 0.049694985151290894, 0.12670576572418213, 0.027787992730736732, -0.09644921123981476, -0.03856665641069412, 0.030399750918149948, -0.1250860095024109, 0.06499367952346802, -0.1294175237417221, -0.15109315514564514, -0.14412946999073029, -0.021353086456656456, 0.08756814897060394, -0.13406215608119965, 0.21623937785625458, 0.001887063612230122, 0.06975764781236649, 0.12378960847854614, -0.14416009187698364, 0.16801828145980835, 0.09497435390949249, 0.19210128486156464, 0.029498528689146042, -0.1190023273229599, 0.06619946658611298, 0.04988233372569084, 0.04564997926354408, -0.17125320434570312, 0.0011810287833213806, -0.16027052700519562, -0.11387640237808228, 0.07144352793693542, -0.10375896841287613, 0.07758456468582153, 0.015866776928305626, 0.07679756730794907, -0.07012436538934708, 0.01041127648204565, -0.021579407155513763, 0.11659220606088638, 0.09786012023687363, 0.10574913024902344, -0.023505982011556625, 0.14751918613910675, -0.13340142369270325, -0.0851069986820221, 0.00016735729877837002, -0.09449008107185364, 0.03006157837808132, -0.04474566876888275, -0.06729712337255478, -0.15647180378437042, 0.14323605597019196, -0.037810128182172775, 0.057484809309244156, 0.13319915533065796, 0.059113457798957825, -0.04614535719156265, 0.0011685643112286925, -0.048581693321466446, -0.03474624827504158, 0.11997176706790924, 0.003183636348694563, 0.12588796019554138, 0.05283689498901367, -0.027457335963845253, -0.22368136048316956, 0.19954025745391846, 0.24934586882591248, 0.1494302749633789, -0.003896019421517849, -0.052692998200654984, -0.20590408146381378, 0.22395890951156616, -0.20168213546276093, -0.24427032470703125, 0.1659288853406906, -0.15481428802013397, -0.23363889753818512, 0.06501266360282898, 0.1946275383234024, 0.22407333552837372, -0.17956691980361938, -0.00565257528796792, -0.15932001173496246, 0.09962483495473862, 0.13691051304340363, 0.3719030022621155, -0.12401381134986877, -0.026809271425008774, -0.2647211253643036, 0.22167059779167175, -0.0022328479681164026, 0.17749688029289246, -0.2100965529680252, 0.022277137264609337, -0.30972176790237427, 0.12819720804691315, -0.17138671875, -0.1293787807226181, 0.27048319578170776, -0.23389117419719696, -0.40621641278266907, -0.0016533264424651861, -0.12140630185604095, -0.3205370306968689, 0.01627735234797001, -0.17103439569473267, -0.26433148980140686, 0.03329141438007355, -0.010578435845673084, -0.288884699344635, -0.01822839118540287, -0.06166568025946617, 0.1922019124031067, -0.2403716892004013, 0.07903941720724106, -0.2426672726869583, 0.23038987815380096, -0.2087426781654358, 0.056209370493888855, 0.051497265696525574, -0.16347503662109375, 0.21945278346538544, -0.10592439770698547, -0.10663195699453354, 0.1541835069656372, -0.002379312878474593, 0.07762526720762253, -0.3252834975719452, 0.008490054868161678, -0.15258902311325073, 0.218706876039505, -0.22974355518817902, 0.20891979336738586, -0.22349978983402252, 0.06876839697360992, 0.02811650186777115, 0.24311678111553192, 0.0036503581795841455, 0.15465620160102844, -0.22863301634788513, 0.003156363032758236, -0.08825137466192245, 0.30435335636138916, -0.15078333020210266, -0.21269112825393677, 0.2536308467388153, 0.03808586671948433, -0.11271651089191437, 0.0724184587597847, -0.22417743504047394, -0.03496416285634041, 0.17798998951911926, -0.1665322184562683, -0.05007175728678703, 0.25200071930885315, 0.017903437837958336, -0.06742040812969208, 0.12627136707305908, -0.16892601549625397, -0.1581762582063675, 0.020541245117783546, 0.10978880524635315, 0.29451966285705566, 0.036117590963840485, -0.04549102485179901, -0.1026577353477478, -0.03752364218235016, 0.055693525820970535, -0.29433396458625793, -0.2662756145000458, 0.31796446442604065, -0.29018592834472656, -0.22772352397441864, 0.25696152448654175, 0.15118643641471863, 0.06930763274431229, -0.20701058208942413, -0.18491175770759583, -0.21187815070152283, 0.3372192084789276, 0.1755107194185257, 0.21546754240989685, -0.059176210314035416, -0.11347644776105881, -0.08711843937635422, 0.35785195231437683, 0.23425160348415375, 0.06918875128030777, -0.07442834228277206, -0.1909702718257904, -0.2876167595386505, 0.158970907330513, -0.3174450993537903, -0.025217561051249504, 0.1782602071762085, -0.37130194902420044, -0.1743990033864975, 0.27365076541900635, -0.19746717810630798, -0.11498919874429703, 0.19778405129909515, -0.18433509767055511, -0.2034377157688141, 0.12754693627357483, -0.23461973667144775, -0.20913739502429962, 0.21401174366474152, -0.12440638244152069, 0.04244440421462059, 0.07178464531898499, 0.06059909239411354, -0.11382423341274261, 0.10709217935800552, -0.12847644090652466, 0.14277894794940948, -0.08171680569648743, -0.079765684902668, 0.10345296561717987, -0.022986622527241707, 0.06308142840862274, -0.08521389961242676, -0.09908565878868103, -0.018676437437534332, 0.007526353932917118, 0.11046861112117767, -0.15810100734233856, 0.02265726588666439, -0.046413835138082504, 0.011201086454093456, 0.07977867126464844, -0.14922389388084412, -0.04750682786107063, 0.13408686220645905, -0.01630556583404541, 0.15639854967594147, -0.06791286915540695, 0.08900397270917892, -0.18506161868572235, -0.0006476540584117174, 0.006204796489328146, -0.01282832957804203, 0.06730703264474869, 0.131948783993721, -0.06345617026090622, 0.02173718996345997, 0.13734640181064606, -0.08329948782920837, 0.15119510889053345, -0.06074342876672745, -0.0680118277668953, 0.010710146278142929, 0.09130185097455978, 0.0206159520894289, -0.07510590553283691, -0.14223816990852356, -0.12283268570899963, 0.0648636445403099, -0.17804759740829468, 0.04444419965147972, -0.13370707631111145, 0.20452898740768433, -0.12179520726203918, 0.09477879106998444, 0.033558666706085205, -0.24136137962341309, 0.2606441378593445, -0.05019935220479965, -0.19394826889038086, 0.28377801179885864, -0.19150882959365845, 0.17041368782520294, -0.3122829794883728, 0.05593274161219597, -0.12342006713151932, 0.328945130109787, -0.16174212098121643, 0.22998008131980896, -0.24366149306297302, 0.004351215902715921, -0.2650732100009918, 0.08699240535497665, 0.06276290863752365, 0.104892797768116, -0.21040873229503632, 0.1171928346157074, -0.04479975253343582, 0.34309232234954834, 0.0400431826710701, -0.24098488688468933, 0.21002520620822906, -0.15421096980571747, -0.21967044472694397, 0.25903674960136414, 0.06255488097667694, -0.25093668699264526, 0.3110262155532837, -0.1471412479877472, -0.16098371148109436, 0.3534086048603058, -0.0974116399884224, -0.10469329357147217, 0.1729704588651657, 0.15024060010910034, -0.08481249958276749, -0.16746503114700317, 0.09125446528196335, -0.1553165167570114, -0.06641105562448502, 0.021201414987444878, 0.16311092674732208, -0.08933422714471817, 0.0580473355948925, 0.1724167913198471, 0.04427017271518707, -0.09200504422187805, 0.03723384812474251, -0.09596292674541473, -0.1298200935125351, -0.04367709159851074, 0.1533365249633789, 0.12283720076084137, 0.10720276087522507, 0.05220206454396248, -6.54086543363519e-05, 0.06341157108545303, -0.006880543660372496, -0.08210905641317368, 0.06726047396659851, 0.04398968070745468, -0.13042594492435455, 0.09562627971172333, 0.11604922264814377, -0.07944867014884949, 0.009860542602837086, 0.07214124500751495, -0.12818734347820282, 0.021402632817626, 0.013355178758502007, -0.12497194111347198, 0.1251850724220276, 0.02190469205379486, 0.07147404551506042, -0.04619188606739044, 0.09121423214673996, -0.10206209123134613, 0.19849181175231934, -0.18537724018096924, -0.13739600777626038, 0.2218904197216034, 0.04450717940926552, -0.018306640908122063, 0.0124050322920084, -0.020808549597859383, -0.23633915185928345, -0.1540059894323349, -0.03827190026640892, 0.04721624776721001, -0.04571519419550896, 0.011187724769115448, 0.0494571290910244, 0.03903654217720032, -0.196207657456398, -0.0037263864651322365, -0.1111065149307251, 0.010967571288347244, -0.04445497691631317, -0.013961736112833023, 0.3774563670158386, -0.45110636949539185, 0.697376012802124, -0.6840807795524597, 0.07743638753890991, 0.8640987277030945, 0.8568659424781799, -0.5161865949630737, 0.19203908741474152, 0.08297675848007202, -0.56561678647995, -0.2559906542301178, 0.0973559319972992, -0.7390149235725403, 0.23643480241298676, 0.45295313000679016, -0.11474785208702087, 0.22297222912311554, -0.03560854494571686, 0.19162185490131378, 0.14989222586154938, -0.052602700889110565, 0.15400099754333496, -0.11627649515867233, -0.11832692474126816, -0.04394146054983139, -0.04441135749220848, 0.08000289648771286, 0.05856284126639366, 0.07957520335912704, 0.19487112760543823, 0.005329417530447245, -0.022293642163276672, -0.01389410998672247, -0.4583578407764435, 0.2443505823612213, 0.4115148186683655, -0.21278613805770874, -0.3864849805831909, -0.011243668384850025, -0.10691370815038681, -0.10974082350730896, -0.4718065559864044, -0.004789876285940409, -0.3038777709007263, -0.1234486773610115, -0.022707883268594742, 0.2057904154062271, 0.018674449995160103, 0.3108619153499603, -0.08410743623971939, 0.2409246265888214, -0.3942646384239197, -0.27463164925575256, 0.11175108700990677, -0.16316437721252441, -0.07848912477493286, -0.17149381339550018, 0.24028709530830383, 0.02481011487543583, 0.23919546604156494, 0.39364978671073914, 0.09364807605743408, -0.20268602669239044, -0.038882989436388016, -0.3352524936199188, -0.06574258953332901, -0.392225980758667, 0.027210956439375877, 0.2148624062538147, 0.045569684356451035, 0.15420886874198914, 0.036743879318237305, 0.15002965927124023, -0.09912706911563873, -0.30195292830467224, 0.06480880826711655, -0.0030961097218096256, -0.4912993609905243, 0.01501192431896925, 0.014352383092045784, -0.13431808352470398, -0.21660646796226501, 0.09435062110424042, -0.20465387403964996, 0.1193566769361496, 0.17537328600883484, 0.041015032678842545, 0.0855737179517746, 0.1624716818332672, -0.08311615139245987, 0.04416605085134506, 0.11152619868516922, 0.11112121492624283, -0.1938687413930893, -0.054821375757455826, -0.033148881047964096, 0.0037735523656010628, 0.11933591216802597, 0.0746941789984703, 0.2648319900035858, 0.1507699191570282, 0.17293773591518402, 0.04945136606693268, 0.10765966773033142, -0.09050251543521881, -0.14391174912452698, -0.029287489131093025, -0.004524832125753164, -0.09001266956329346, 0.1934281587600708, 0.010004675015807152, 0.034485213458538055, 0.057341307401657104, 0.2771890163421631, 0.22802545130252838, 0.058666691184043884, -0.3397572934627533, 0.006847795099020004, -0.09579183161258698, -0.009726397693157196, -0.26359257102012634, -0.198309525847435, 0.2706345319747925, 0.15627352893352509, -0.022909700870513916, 0.17041142284870148, -0.1302499622106552, 0.06183489039540291, 0.05368322506546974, 0.4252890646457672, -0.19263219833374023, -0.22684866189956665, 0.1692928522825241, 0.33784785866737366, 0.04768117517232895, 0.1141791045665741, -0.14684994518756866, 0.31008172035217285, -0.1378651261329651, 0.21256114542484283, -0.11757571995258331, -0.10702452063560486, 0.11487167328596115, -0.0012398069957271218, -0.12511491775512695, -0.2741255462169647, -0.33121469616889954, 0.07776252180337906, 0.02603178098797798, -0.1247958242893219, 0.13824757933616638, -0.07583221048116684, -0.05798621103167534, 0.06584003567695618, -0.02234300598502159, -0.02212182991206646, -0.18992865085601807, -0.058046530932188034, 0.017647119238972664, -0.09573308378458023, -0.026522280648350716, 0.325529545545578, -0.23226197063922882, -0.12245390564203262, -0.03467598557472229, 0.2017240822315216, -0.1315024495124817, 0.020983662456274033, 0.16441085934638977, 0.13562226295471191, 0.13574795424938202, 0.255963534116745, 0.18154442310333252, -0.010600530542433262, 0.08094364404678345, 0.053223300725221634, 0.17328466475009918, -0.3248237669467926, 0.05704423412680626, -0.08563859760761261, -0.17530223727226257, 0.03036772459745407, -0.008082280866801739, 0.07675529271364212, -0.1319494992494583, -0.26683509349823, -0.12505409121513367, -0.1811511069536209, 0.10940991342067719, -0.044785432517528534, 0.14079172909259796, -0.06165793165564537, -0.20611649751663208, 0.03961276635527611, -0.03505320847034454, 0.2592114806175232, -0.0892476886510849, -0.10898373275995255, -0.09826193004846573, 0.03811199963092804, -0.16834065318107605, -0.18698717653751373, -0.10334929823875427, -0.2399163693189621, 0.10133127868175507, -0.3533235192298889, -0.10374393314123154, -0.0046625928953289986, -0.04094000533223152, -0.021816082298755646, 0.03403420373797417, 0.025564435869455338, -0.0872250571846962, -0.013906015083193779, -0.1138167530298233, 0.22173815965652466, 0.03567853569984436, -0.23574483394622803, 0.2577095627784729, 0.12678134441375732, -0.14833737909793854, 0.04804351180791855, 0.11266008764505386, 0.027195274829864502, -0.285603404045105, -0.07679551094770432, 0.16881448030471802, -0.11370879411697388, 0.3271979093551636, 0.33712702989578247, 0.1338309645652771, 0.003990123514086008, 0.01796426624059677, 0.03635239973664284, -0.1030452772974968, -0.09751181304454803, -0.14825044572353363, -0.17527291178703308, 0.2682531177997589, -0.042072784155607224, 0.3014395534992218, 0.022891007363796234, -0.12614861130714417, 0.009355349466204643, -0.1254410594701767, 0.17550128698349, 0.12550853192806244, -0.3233042061328888, 0.10895054042339325, 0.07039039582014084, -0.2133846879005432, 0.2151641696691513, 0.35045933723449707, -0.2931288480758667, -0.13641074299812317, -0.057467132806777954, 0.09942485392093658, 0.21240036189556122, -0.028361722826957703, -0.06682920455932617, 0.027190878987312317, 0.009337027557194233, 0.20271843671798706, -0.15072204172611237, -0.17320474982261658, -0.16083981096744537, -0.3333568572998047, -0.01419676374644041, 0.29208654165267944, -0.3422621786594391, -0.20262545347213745, 0.013884657062590122, -0.23717713356018066, 0.08604590594768524, -0.10657555609941483, -0.09876126796007156, 0.07389287650585175, 0.14829067885875702, 0.07975412905216217, 0.09420430660247803, -0.042318958789110184, 0.05955209583044052, -0.00010150638991035521, 0.01847819611430168, 0.0058776699006557465, 0.15805397927761078, -0.04234718158841133, 0.22086113691329956, -0.12033160775899887, 0.23897914588451385, 0.1862555593252182, 0.028951304033398628, -0.04661443457007408, 0.09663506597280502, -0.4875384569168091, 0.1896582394838333, -0.06938833743333817, -0.1022895947098732, -0.0646040290594101, 0.0971912145614624, -0.10876292735338211, 0.18815827369689941, 0.051068227738142014, 0.345694899559021, 0.013545850291848183, -0.09279892593622208, -0.23792707920074463, 0.07576926052570343, -0.15017551183700562, 0.16009007394313812, -0.13246497511863708, 0.06519103795289993, -0.11294689774513245, -0.08419666439294815, -0.24694940447807312, 0.12638725340366364, -0.018838630989193916, 0.00201965868473053, -0.3122294247150421, -0.01581650972366333, 0.050213202834129333, -0.21826530992984772, 0.004465913400053978, -0.03604791313409805, -0.1417413204908371, -0.023158187046647072, -0.15973588824272156, -0.03882911056280136, -0.3375920355319977, 0.05899893119931221, -0.43193355202674866, 0.3123675286769867, 0.10943888872861862, -0.38398170471191406, -0.20711445808410645, 0.03745923563838005, -0.043736547231674194, 0.20006346702575684, -0.02972833625972271, -0.034685179591178894, 0.23100146651268005, -0.14500753581523895, -0.15959452092647552, 0.09355016052722931, -0.1776312291622162, 0.03651663288474083, -0.040386591106653214, 0.04784088209271431, -0.11687930673360825, -0.03453556448221207, -0.0816219374537468, -0.03234567120671272, -0.07263708114624023, 0.05530586466193199, -0.1882866621017456, 0.03437000513076782, 0.13756276667118073, 0.18953122198581696, -0.037675466388463974, -0.10084206610918045, -0.13529638946056366, 0.08367867022752762, 0.10425879061222076, 0.19892306625843048, -0.21199803054332733, 0.023110220208764076, -0.17637915909290314, 0.06138601154088974, 0.029155194759368896, -0.18948879837989807, 0.23533271253108978, -0.12617667019367218, -0.20849499106407166, 0.12326431274414062, -0.13398592174053192, 0.05355405434966087, 0.1712779551744461, -0.09998313337564468, -0.19235575199127197, -0.15324212610721588, -0.13357143104076385, 0.1397418975830078, -0.19061900675296783, 0.02386162057518959, -0.15910449624061584, -0.1850927472114563, 0.26475030183792114, 0.15827812254428864, -0.13035839796066284, 0.007535506505519152, -0.22113683819770813, 0.017418058589100838, 0.17337532341480255, -0.0476643443107605, -0.0368998683989048, 0.11382157355546951, -0.09155961126089096, -0.022919166833162308, -0.10839056223630905, 0.2804413139820099, 0.11833366006612778, 0.15935398638248444, -0.23253507912158966, -0.06855498999357224, -0.17474216222763062, 0.14406923949718475, 0.15027496218681335, 0.08353868126869202, -0.23354516923427582, -0.031180517747998238, -0.1402229219675064, 0.20560970902442932, -0.051263559609651566, -0.03305128589272499, -0.3307996094226837, 0.06917630136013031, 0.25359946489334106, -0.18579569458961487, 0.14317528903484344, 0.13037267327308655, -0.152751162648201, -0.049492884427309036, -0.041725121438503265, 0.025812378153204918, 0.10333255678415298, 0.01814761385321617, -0.3074917793273926, 0.20870476961135864, -0.09368664026260376, 0.08326452225446701, 0.2611065208911896, -0.09599544107913971, -0.1776999831199646, 0.036642689257860184, -0.22617781162261963, 0.05188378319144249, -0.02785336598753929, 0.3267098665237427, -0.1535678207874298, -0.2601373791694641, 0.23484797775745392, 0.14516662061214447, -0.1588786095380783, -0.11762388050556183, -0.17122066020965576, -0.12807825207710266, -0.18656106293201447, 0.15857742726802826, 0.09417711943387985, 0.2697834372520447, 0.014333243481814861, 0.06292713433504105, -0.3315829038619995, -0.021597281098365784, 0.0940374955534935, 0.4638432264328003, -0.03142721205949783, 0.14203806221485138, -0.09937983006238937, -0.2880729138851166, 0.0017711155815050006, 0.3891225755214691, 0.02014234848320484, 0.053765859454870224, 0.39864784479141235, 0.18450766801834106, 0.11419006437063217, 0.5122749209403992, 0.1618141531944275, -0.17017197608947754, 0.4640878140926361, 0.11569385975599289, -0.033236630260944366, 0.4860835075378418, -0.1691153198480606, 0.25031691789627075, 0.07380671054124832, -0.28203192353248596, 0.09186170995235443, -0.015877703204751015, 0.21181869506835938, -0.07961486279964447, 0.15764129161834717, 0.14572402834892273, -0.08064831048250198, -0.009266252629458904, -0.15986652672290802, -0.050147708505392075, -0.05841474607586861, -0.06671702116727829, 0.11498471349477768, 0.02824542112648487, -0.06433884799480438, -0.1446000337600708, -0.2105463594198227, 0.22383588552474976, -0.09018991142511368, 0.1146795004606247, -0.18646785616874695, 0.039339322596788406, -0.07772306352853775, 0.22936193645000458, 0.16180017590522766, 0.15401610732078552, -0.05276523530483246, -0.09411922842264175, -0.12195239961147308, -0.007719371002167463, 0.1075572520494461, 0.20273303985595703, -0.16983076930046082, -0.045558348298072815, 0.021906090900301933, -0.02532956935465336, 0.14112146198749542, -0.1539279967546463, -0.26604920625686646, 0.028187688440084457, -0.05781644955277443, -0.22865279018878937, -0.03194912523031235, 0.1393938660621643, -0.5572301149368286, 0.06844621151685715, 0.09068399667739868, -0.325985312461853, 0.14090286195278168, 0.13655588030815125, 0.15499724447727203, -0.41597166657447815, -0.1899082213640213, 0.12208609282970428, -0.04882871359586716, -0.20417021214962006, 0.15725639462471008, -0.12105054408311844, -0.18642349541187286, 0.015371628105640411, 0.14293670654296875, -0.20503030717372894, -0.004126929212361574, -0.021153433248400688, 0.26170048117637634, -0.18344981968402863, 0.15667074918746948, 0.30299660563468933, 0.09942208230495453, -0.1784057468175888, 0.1795637309551239, -0.3714931905269623, 0.1820930540561676, 0.18839707970619202, 0.3925963044166565, 0.01114050392061472, 0.1051727831363678, -0.27021172642707825, -0.06624231487512589, 0.0673728957772255, 0.3636178970336914, 0.07538500428199768, -0.007230823393911123, 0.1467946320772171, 0.1199842169880867, 0.07811148464679718, 0.31121209263801575, 0.004120439291000366, -0.022571327164769173, -0.08057571202516556, 0.2626288831233978, -0.08029764145612717, 0.44606685638427734, -0.07327602058649063, -0.22598886489868164, -0.03736976534128189, -0.11397696286439896, 0.09532933682203293, 0.20542651414871216, -0.15179353952407837, 0.13598878681659698, 0.15817220509052277, -0.06801434606313705, 0.015121914446353912, -0.21435989439487457, 0.06679315119981766, 0.27630266547203064, -0.03688324615359306, 0.054612964391708374, -0.11290905624628067, 0.034390226006507874, -0.12716399133205414, 0.13767731189727783, 0.23075556755065918, 0.15160907804965973, 0.12445779889822006, -0.03973210230469704, 0.11198242008686066, -0.0797591581940651, 0.27769720554351807, 0.044884342700242996, 0.03387574851512909, -0.17604035139083862, -0.10274152457714081, 0.037874482572078705, 0.14117422699928284, 0.04803875461220741, 0.10349593311548233, -0.234517902135849, 0.02936652861535549, 0.13037632405757904, -0.03171239048242569, 0.09152297675609589, 0.09919355809688568, 0.03369251638650894, 0.16836819052696228, 0.05445733666419983, 0.04492945224046707, -0.05010520666837692, -0.05861775204539299, -0.1235848143696785, -0.08344058692455292, 0.17655833065509796, 0.07711732387542725, 0.08837074786424637, -0.1274828463792801, 0.02078213356435299, 0.21488791704177856, 0.09778174012899399, 0.03534265235066414, 0.04629761725664139, -0.07750056684017181, -0.06118118390440941, 0.06609859317541122, -0.04404161125421524, -0.11233526468276978, -0.14911076426506042, -0.012660185806453228, -0.14309632778167725, -0.2128773033618927, 0.15510150790214539, -0.015129057690501213, -0.04877028614282608, 0.0301484614610672, -0.08265987783670425, 0.10479313880205154, 0.03431013599038124, 0.017695888876914978, -0.05403999239206314, -0.013437519781291485, -0.1616710126399994, 0.17388558387756348, 0.16323889791965485, 0.14565186202526093, -0.07521732151508331, 0.04660164937376976, -0.19141210615634918, 0.026872573420405388, 0.011930984444916248, -0.14950668811798096, 0.08019890636205673, -0.09604846686124802, -0.06615044921636581, 0.022806556895375252, -0.06443476676940918, 0.08771993219852448, -0.10053250193595886, 0.2037963569164276, -0.12966325879096985, -0.06899881362915039, 0.02890218049287796, -0.06515160202980042, -0.16953828930854797, 0.04145566001534462, -0.012241617776453495, -0.08532106131315231, -0.03614329919219017, -0.039721615612506866, 0.04299202561378479, -0.10964589565992355, 0.05839334428310394, 0.09766319394111633, 0.17026178538799286, 0.17914395034313202, 0.05472443625330925, 0.37097468972206116, 0.35396671295166016, 0.3437642753124237, 0.10036581754684448, 0.0868019163608551, 0.023638663813471794, -0.12651243805885315, -0.15288063883781433, -0.23329925537109375, -0.09500125050544739, -0.26518815755844116, -0.03148322179913521, -0.1312664896249771, -0.18024617433547974, 0.07286413013935089, 0.03149508312344551, 0.11814472824335098, -0.10442176461219788, -0.059660691767930984, 0.007478838786482811, -0.055209625512361526, -0.250200092792511, -0.034434009343385696, 0.05076086148619652, -0.09905209392309189, 0.09223400056362152, -0.0935651883482933, -0.20479963719844818, -0.26401859521865845, -0.37725427746772766, -0.3482665419578552, -0.11366778612136841, 0.010579557158052921, -0.039733756333589554, 0.07231798022985458, 0.004912124946713448, -0.46218183636665344, -0.09442076832056046, 0.1809626668691635, 0.14683020114898682, -0.10387996584177017, -0.021484697237610817, -0.4135284423828125, 0.049135852605104446, -0.08735767006874084, 0.09204026311635971, 0.14067572355270386, -0.3460191786289215, -0.05247040465474129, -0.10361283272504807, -0.11022480577230453, -0.01303786039352417, -0.12672391533851624, 0.1544574350118637, 0.03701525926589966, 0.09036526083946228, 0.24386338889598846, -0.20558124780654907, 0.07925822585821152, 0.24424031376838684, 0.10598202049732208, 0.1368766576051712, -0.015685874968767166, -0.26727864146232605, -0.03575585037469864, 0.12488401681184769, 0.05804443359375, 0.008321892470121384, -0.017336614429950714, 0.15256904065608978, 0.05553460493683815, -0.07813914865255356, 0.027126207947731018, -0.07285337895154953, -0.13837499916553497, 0.14893418550491333, 0.11887304484844208, -0.14187955856323242, -0.5812094211578369, 0.13523967564105988, 0.1932367980480194, -0.01681000553071499, 0.17942172288894653, -0.3476712107658386, 0.008435867726802826, 0.07372794300317764, -0.1011493131518364, -0.1974615454673767, -0.052725255489349365, -0.11682894080877304, -0.021831655874848366, 0.18411323428153992, -0.0033236381132155657, -0.20935490727424622, -0.013209461234509945, -0.13574092090129852, -0.1702057272195816, -0.0526575893163681, -0.2999650835990906, 0.1119864284992218, -0.059763189405202866, 0.09914816170930862, -0.002043173648416996, 0.21614974737167358, 0.17519468069076538, 0.040281835943460464, 0.0366060771048069, 0.11217228323221207, -0.08958946168422699, 0.07444752752780914, 0.1478504091501236, -0.07448859512805939, -0.23930437862873077, -0.12337397038936615, 0.04763530567288399, 0.030165966600179672, -0.09640625864267349, 0.09377153217792511, 0.07470233738422394, -0.10396906733512878, 0.15845629572868347, 0.19112955033779144, 0.19413596391677856, 0.05792895331978798, 0.11303509026765823, 0.09028612077236176, -0.0477348193526268, 0.32731691002845764, -0.3819105923175812, -0.11220303177833557, -0.06276886910200119, -0.3007461726665497, 0.05988341197371483, -0.22540181875228882, 0.03352369740605354, 0.0557924285531044, -0.14284083247184753, -0.08556348085403442, -0.2345941960811615, 0.10293129086494446, 0.07188151031732559, -0.07053067535161972, 0.04693155735731125, -0.09475915133953094, 0.05932185798883438, 0.09255819767713547, -0.053159646689891815, 0.03878094255924225, 0.18136121332645416, 0.02138495445251465, -0.18148353695869446, -0.1693497896194458, 0.08168493211269379, 0.18955431878566742, 0.3592933714389801, 0.0901329442858696, 0.03022008016705513, -0.3017839193344116, -0.1398095339536667, -0.11778263747692108, 0.2933667004108429, 0.04007858410477638, -0.1734653115272522, -0.263318806886673, -0.16032516956329346, -0.14957718551158905, -0.15374714136123657, -0.08730986714363098, -0.23575320839881897, -0.26450690627098083, 0.038776759058237076, 0.06125618517398834, -0.02035428024828434, -0.15703970193862915, -0.2415371984243393, 0.07195581495761871, -0.2163114845752716, -0.29334330558776855, 0.12424769252538681, -0.05765214562416077, -0.06618331372737885, -0.01634901762008667, -0.28285127878189087, 0.1473783254623413, 0.11474677920341492, -0.15465691685676575, 0.010863164439797401, 0.11176447570323944, -0.12827527523040771, 4.4746619096258655e-05, 0.15734127163887024, 0.10840786248445511, 0.1811932772397995, -0.037219543009996414, -0.01982145570218563, 0.00664439145475626, -0.15082678198814392, 0.2160913199186325, -0.059208862483501434, -0.1289389282464981, -0.23308637738227844, -0.08873260766267776, -0.2540453374385834, 0.14795738458633423, -0.08440101891756058, 0.15862739086151123, 0.03188362717628479, -0.049337953329086304, -0.04973074048757553, -0.012619275599718094, 0.13839492201805115, 0.30302029848098755, -0.06846931576728821, 0.011424216441810131, -0.016986452043056488, -0.07545530050992966, 0.07441028207540512, -0.02557351626455784, -0.03220503404736519, -0.015418468043208122, 0.0038401614874601364, -0.023321129381656647, -0.08141838759183884, -0.003136137966066599, 0.1643063724040985, 0.029155660420656204, 0.12691044807434082, 0.1400758922100067, 0.10875581949949265, -0.09449726343154907, -0.21270817518234253, -0.17967849969863892, 0.30398130416870117, 0.07060285657644272, 0.12689822912216187, -0.2837734818458557, 0.14168407022953033, -0.10110465437173843, 0.036934614181518555, 0.2590661644935608, 0.008436959236860275, 0.06987079977989197, 0.2062801867723465, -0.003777912585064769, 0.17017479240894318, -0.10740741342306137, 0.022908780723810196, -0.004920237697660923, -0.026475807651877403, 0.21122975647449493, -0.018686270341277122, -0.06778986006975174, -0.0518488883972168, -0.015494992956519127, 0.12942759692668915, 0.17942237854003906, -0.22271943092346191, 0.06911510229110718, -0.09624568372964859, 0.08599388599395752, 0.009908527135848999, -0.13554370403289795, -0.018831687048077583, -0.06744872033596039, -0.08028548955917358, 0.05822698771953583, 0.14324986934661865, -0.0424552783370018, 0.102286696434021, 0.028076471760869026, 0.10702506452798843, -0.32050803303718567, -0.12086936831474304, -0.1769161820411682, -0.32038232684135437, 0.09378044307231903, -0.2784513533115387, -0.3785390555858612, 0.04229250177741051, -0.08963312953710556, 0.04742291569709778, -0.11439264565706253, 0.08979854732751846, 0.2353551983833313, 0.007712859194725752, 0.1646280288696289, 0.30419304966926575, -0.1777651309967041, 0.0284988135099411, 0.11774496734142303, -0.013251833617687225, 0.030427521094679832, -0.13977396488189697, -0.007168862968683243, 0.041330672800540924, 0.17577408254146576, 0.10736629366874695, 0.024364622309803963, 0.011390632949769497, -0.009474868886172771, -0.023140260949730873, -0.15494614839553833, -0.14645953476428986, -0.05949443206191063, -0.09701184183359146, 0.15829236805438995, -0.061600007116794586, 0.04804443567991257, -0.02945898286998272, 0.22966542840003967, 0.19277231395244598, -0.03487700596451759, 0.08968101441860199, 0.0776592418551445, 0.01424525398761034, 0.057429924607276917, 0.25796768069267273, -0.21049590408802032, -0.024202395230531693, 0.17932452261447906, -0.2081933617591858, 0.44903072714805603, 0.5463285446166992, -0.33396783471107483, 0.11599071323871613, 0.12352115660905838, 0.07146555185317993, 0.08610635250806808, 0.16217970848083496, 0.13473115861415863, 0.16013698279857635, 0.16435299813747406, -0.20903274416923523, 0.07306736707687378, 0.2567456066608429, -0.14134801924228668, 0.06599482148885727, 0.09226711839437485, 0.07222156226634979, -0.2173006534576416, -0.26021093130111694, 0.2074618637561798, 0.034875039011240005, 0.062286242842674255, -0.3428937792778015, -0.017898643389344215, -0.351278156042099, -0.06969421356916428, -0.16487723588943481, -0.07262524217367172, -0.1534426212310791, -0.11092682927846909, 0.052182357758283615, 0.19725802540779114, 0.03445093706250191, 0.2143315076828003, -0.20063428580760956, -0.058186281472444534, 0.1645294725894928, -0.07448987662792206, -0.019912762567400932, 0.008401413448154926, -0.053426455706357956, -0.07918676733970642, 0.08539287745952606, -0.12036372721195221, 0.0011817424092441797, -0.06467126309871674, -0.25483939051628113, 0.1952742636203766, 0.3459320366382599, -0.013048050925135612, 0.12487692385911942, 0.020087536424398422, -0.02419438771903515, 0.37546902894973755, -0.169999897480011, 0.3037496507167816, 0.16513408720493317, 0.12478596717119217, -0.2870217263698578, 0.00022962092771194875, 0.17059911787509918, 0.05938238278031349, 0.11866235733032227, 0.06578341126441956, 0.05056547373533249, -0.19851882755756378, -0.41580528020858765, 0.2939489185810089, 0.4174700677394867, -0.4772121012210846, 0.28417259454727173, -0.8304025530815125, -0.19532567262649536, -0.32672226428985596, 0.8376305103302002, -0.8489211201667786, -0.671252429485321, -0.9422301054000854, 0.18444876372814178, -0.99192875623703, 0.34019041061401367, -0.6550887823104858, -0.029489710927009583, -0.27400729060173035, 0.08692463487386703, 0.40219932794570923, 0.22041915357112885, 0.1251324862241745, -0.14026810228824615, -0.1479089856147766, 0.10193504393100739, 0.25092682242393494, 0.02185327373445034, 0.2140965312719345, 0.2645150423049927, -0.1740035116672516, 0.029971081763505936, -0.026212748140096664, -0.14644555747509003, -0.1719832420349121, -0.29677048325538635, -0.1304764300584793, -0.4500424265861511, 0.4019151031970978, -0.26478326320648193, -0.14415864646434784, 0.17109352350234985, -0.15803904831409454, 0.14334693551063538, 0.17349457740783691, 0.12854811549186707, 0.1803334355354309, 0.010607482865452766, 0.34636661410331726, -0.0769951194524765, -0.09339221566915512, -0.16425175964832306, 0.15887172520160675, -0.037176523357629776, 0.34955522418022156, -0.1512739509344101, 0.0706007331609726, 0.13710205256938934, -0.02385208010673523, -0.24040429294109344, -0.35831350088119507, 0.030472632497549057, 0.4131697714328766, 0.005783483851701021, 0.26332980394363403, 0.13293997943401337, -0.06905898451805115, -0.133938729763031, -0.24206474423408508, -0.17968711256980896, 0.011852128431200981, -0.06461204588413239, -0.06786340475082397, -0.24105751514434814, 0.3841095268726349, 0.1876976191997528, 0.3971467614173889, 0.28385257720947266, -0.3493907153606415, 0.548281729221344, 0.1700982302427292, -0.09437792003154755, 0.03138338774442673, -0.10890720784664154, -0.18939682841300964, 0.15941092371940613, -0.10950957238674164, -0.0802166759967804, 0.20827743411064148, 0.02876567281782627, 0.00027514592511579394, -0.011320489458739758, 0.05616401508450508, -0.1201942041516304, -0.14272698760032654, -0.04275776073336601, -0.15536217391490936, -0.25128933787345886, -0.04239150509238243, -0.36955130100250244, -0.17186179757118225, -0.02996392548084259, -0.20645928382873535, -0.1277712732553482, -0.010257136076688766, -0.01327279768884182, 0.15960615873336792, 0.05406714603304863, -0.23951680958271027, -0.19164487719535828, -0.05589810758829117, -0.10980875045061111, 0.056858330965042114, 0.4384889304637909, -0.3610866963863373, 0.405689537525177, -0.13182342052459717, 0.315449059009552, 0.16638441383838654, -0.1831035017967224, -0.2807397246360779, 0.13072046637535095, 0.1558007150888443, -0.10479443520307541, 0.20047561824321747, 0.2758568227291107, -0.01036424096673727, 0.020289402455091476, 0.3947800099849701, 0.10956946015357971, 0.04956396669149399, 0.17906692624092102, 0.1586170345544815, 0.25881290435791016, -0.25488170981407166, -0.024500805884599686, -0.010527292266488075, -0.06457929313182831, 0.2961779832839966, -0.17089465260505676, -0.0001953551545739174, -0.12836487591266632, 0.032073356211185455, 0.1009644940495491, 0.0975087508559227, 0.09805449098348618, 0.05496295168995857, -0.1267356276512146, -0.21446964144706726, -0.14244656264781952, -0.12352553009986877, 0.043776482343673706, -0.17224182188510895, 0.014152683317661285, 0.01446603424847126, 0.14405855536460876, 0.08321214467287064, -0.060644205659627914, -0.06878434121608734, 0.08024735748767853, 0.24423058331012726, -0.10992112755775452, -0.04769850894808769, -0.02697439305484295, 0.019622711464762688, 0.1487448364496231, -0.316732257604599, 0.0037543356884270906, -0.02316715009510517, -0.3346218764781952, -0.10596007853746414, 0.2571609914302826, 0.28332895040512085, 0.13203687965869904, 0.04146363586187363, 0.09077364951372147, -0.062090642750263214, -0.01588314399123192, -0.15180431306362152, -0.14594103395938873, 0.12191364169120789, 0.0023582165595144033, -0.02572007104754448, 0.044278036803007126, -0.024989580735564232, 0.23048949241638184, 0.24389368295669556, -0.3041617274284363, 0.24005289375782013, 0.10824136435985565, -0.09928631037473679, 0.10007408261299133, 0.008231721818447113, 0.14483654499053955, 0.2363433837890625, -0.36357563734054565, -0.29522547125816345, -0.38892966508865356, -0.034297697246074677, 0.005697755608707666, 0.17380711436271667, -0.1628427356481552, 0.2277359813451767, 0.2821953594684601, 0.10779428482055664, 0.03732365369796753, 0.022926798090338707, 0.0024515388067811728, -0.09127714484930038, -0.15000241994857788, -0.05801846832036972, -0.3100052773952484, 0.28047695755958557, -0.09538508951663971, 0.09469132870435715, -0.2833196520805359, 0.049693040549755096, 0.30576270818710327, -0.22737754881381989, -0.3933883011341095, -0.1730581521987915, 0.26264435052871704, -0.0647335946559906, 0.0552302785217762, 0.0723297968506813, 0.35798901319503784, 0.11748558282852173, -0.08932428807020187, 0.500421404838562, -0.20132198929786682, 0.12237292528152466, 0.14247190952301025, 0.017190344631671906, 0.3754483461380005, 0.23237161338329315, -0.04729679971933365, -0.03804751858115196, 0.1398083120584488, 0.052600178867578506, -0.0017096014926210046, -0.11830095946788788, -0.16289351880550385, 0.2113686203956604, 0.06009712070226669, -0.17693325877189636, -0.14165377616882324, -0.152310311794281, 0.11070599406957626, -0.13333851099014282, -0.19590327143669128, 0.2008589655160904, -0.04427587240934372, -0.05178132280707359, -0.0911119133234024, 0.13344143331050873, 0.20377157628536224, 0.1120733916759491, 0.21680612862110138, -0.11534570157527924, -0.33799299597740173, -0.29311126470565796, -0.5101258754730225, 0.14729920029640198, -0.11352285742759705, 0.1954897791147232, 0.020420990884304047, -0.3470826745033264, 0.38835781812667847, 0.4260249137878418, -0.34611400961875916, 0.6594740748405457, -0.31962794065475464, -0.2990754544734955, -0.2911703288555145, -0.03118571825325489, -0.16898439824581146, 0.057555343955755234, -0.10919239372015, 0.1177619993686676, 0.21173623204231262, 0.28026625514030457, 0.06056566163897514, 0.2759513854980469, -0.07421599328517914, -0.14257554709911346, -0.20216843485832214, -0.4227387309074402, 0.033861372619867325, 0.08449724316596985, 0.021138740703463554, -0.10180726647377014, 0.11280348151922226, -0.07074275612831116, -0.010953914374113083, -0.011621215380728245, -0.10705266147851944, -0.014512746594846249, 0.05325494334101677, -0.0241378303617239, 0.03317665308713913, -0.13015541434288025, 0.2617514133453369, 0.17581450939178467, 0.07596808671951294, 0.5021095871925354, 0.2321738451719284, -0.10390923917293549, -0.07998111844062805, 0.05789509788155556, 0.1676541417837143, 0.17807050049304962, 0.08928593248128891, -0.12101610004901886, -0.22829009592533112, 0.17579416930675507, -0.06883113086223602, 0.11857930570840836, -0.011212673969566822, -0.10377669334411621, -0.3565640449523926, -0.06860221177339554, -0.012517733499407768, -0.24954721331596375, 0.09175754338502884, -0.136398583650589, -0.11145078390836716, -0.11249405890703201, 0.021318472921848297, -0.21766138076782227, 0.10214463621377945, 0.004457182716578245, 0.15391311049461365, 0.06257475167512894, -0.16858047246932983, -0.06404005736112595, -0.2576272487640381, -0.2696845829486847, -0.216506689786911, -0.07925005257129669, 0.09633447974920273, -0.2951047420501709, 0.3808656632900238, -0.07594265788793564, -0.08305881917476654, 0.2574908435344696, 0.11748138815164566, -0.11644214391708374, 0.047256775200366974, -0.007698104251176119, 0.1982964128255844, -0.12497732788324356, -0.017947427928447723, 0.04831415042281151, 0.034873198717832565, -0.07438284903764725, -0.07401386648416519, -0.12010481208562851, 0.12737376987934113, 0.13557013869285583, -0.26902085542678833, -0.017816128209233284, -0.09460882097482681, 0.18342535197734833, -0.1262490302324295, 0.21939384937286377, -0.04684785008430481, 0.03628493845462799, -0.04480374976992607, 0.1499612182378769, -0.028037142008543015, -0.11994330585002899, 0.13146115839481354, -0.09671483188867569, -0.19504040479660034, 0.24261002242565155, -0.023380085825920105, -0.15398935973644257, 0.12432283163070679, -0.07953699678182602, 0.06691212207078934, -0.06724517047405243, 0.04635393247008324, 0.2369880974292755, 0.003695218823850155, -0.024724017828702927, 0.2217448651790619, -0.09897051006555557, -0.05681358650326729, 0.22892682254314423, -0.24152922630310059, -0.09931307286024094, 0.2600693702697754, -0.16036103665828705, 0.15891936421394348, -0.008247453719377518, -0.08241868019104004, -0.032645780593156815, -0.10359673947095871, -0.050388820469379425, 0.08792359381914139, 0.06149355694651604, 0.09166409075260162, -0.0068131317384541035, 0.21385164558887482, 0.025413572788238525, -0.005503463558852673, -0.11827600747346878, 0.27331045269966125, 0.018539277836680412, 0.02735479362308979, -0.2554723918437958, -0.06184929236769676, -0.026356136426329613, 0.2745114266872406, -0.08217065036296844, -0.036715079098939896, -0.10404752194881439, -0.0062230434268713, -0.08743035048246384, -0.07819246500730515, 0.11247673630714417, 0.1904706358909607, -0.1335131824016571, 0.052879270166158676, 0.10675688087940216, -0.14244574308395386, 0.09718620777130127, -0.0018948791548609734, 0.09524109214544296, -0.08894603699445724, -0.3363334536552429, 0.07132575660943985, 0.1948157250881195, -0.05744335800409317, -0.3409864902496338, 0.16180452704429626, -0.08601070195436478, -0.3221246004104614, 0.08499858528375626, 0.0541267953813076, 0.10201794654130936, -0.0030770546291023493, -0.19096575677394867, -0.6546057462692261, 0.2465076595544815, 0.4467763900756836, 0.7345797419548035, 0.6085736751556396, 0.8756331205368042, 0.27374258637428284, 0.3682498633861542, -0.10904159396886826, 0.07583344727754593, 0.3979600965976715, 0.0817234069108963, 0.2879769504070282, -0.0035841683857142925, -0.1778518706560135, -0.6474972367286682, 0.1978665590286255, -0.12300487607717514, 0.09147346764802933, -0.2802359163761139, -0.10792869329452515, -0.38722676038742065, 0.0577731728553772, 0.08879337459802628, -0.9575939178466797, -0.17298820614814758, -0.012124859727919102, -0.34316617250442505, -0.050460416823625565, 0.21701964735984802, -0.26354455947875977, 0.024433128535747528, -0.003306466154754162, 0.505740225315094, 0.5939508676528931, -0.36322343349456787, -0.057301245629787445, -0.38259315490722656, 0.008698049001395702, -0.08928640186786652, 0.040640939027071, -0.15071313083171844, 0.3059307038784027, 0.04465688019990921, -0.07888570427894592, 0.2396138310432434, -0.11491015553474426, -0.060825128108263016, 0.183307945728302, -0.16537503898143768, -0.01454324834048748, -0.022880293428897858, -0.04166826978325844, 0.0548776313662529, 0.03772393986582756, 0.12056514620780945, -0.23926948010921478, -0.018770013004541397, 0.03848414123058319, 0.03915375471115112, -0.3023781180381775, 0.08582963049411774, -0.1426876187324524, 0.04247337207198143, 0.10391881316900253, 0.12557795643806458, -0.10579408705234528, 0.030642438679933548, -0.15462006628513336, 0.0911126658320427, 0.031704023480415344, 0.009262530133128166, 0.3057126998901367, -0.18821430206298828, -0.16125141084194183, 0.1994205117225647, 0.0015210439451038837, -0.11972815543413162, 0.029666593298316002, 0.09560220688581467, 0.015533008612692356, -0.2374953180551529, 0.08800207823514938, 0.17028985917568207, -0.0942230373620987, -0.20614813268184662, -0.16421076655387878, -0.06967715173959732, -0.19656871259212494, 0.006662019062787294, 0.1890420913696289, 0.002086728811264038, -0.15672989189624786, 0.07910691946744919, -0.11995644867420197, -0.1175515279173851, -0.13565479218959808, -0.06178953871130943, 0.08245789259672165, -0.07896651327610016, 0.1120801568031311, 0.07187390327453613, -0.19387316703796387, 0.10240291804075241, -0.17719823122024536, 0.2561280131340027, 0.13088275492191315, -0.04658358544111252, -0.4078133702278137, 0.03486267104744911, 0.0740160122513771, 0.18837331235408783, -0.09016118943691254, -0.055523231625556946, -0.2875789701938629, -0.04575985670089722, -0.1530989557504654, 0.18699659407138824, 0.0365678146481514, 0.05513710528612137, 0.24508944153785706, -0.07095681130886078, 0.025366751477122307, 0.09197480231523514, -0.07551311701536179, -0.2038726508617401, 0.10187344998121262, -0.06468140333890915, 0.1983342319726944, -0.062482405453920364, 0.03134816139936447, 0.28907856345176697, -0.046148017048835754, -0.10160238295793533, -0.04855278506875038, -0.18989698588848114, -0.002788904355838895, 0.05644715577363968, -0.20221877098083496, -0.038650188595056534, 0.2293623983860016, -0.22590695321559906, 0.0014227783540263772, 0.05521703138947487, 0.0701892152428627, 0.05040761083364487, -0.0351862758398056, -0.03417070582509041, 0.03194823116064072, -0.32266417145729065, 0.15319561958312988, -0.08190423250198364, 0.03746189922094345, -0.12909221649169922, -0.10681097209453583, 0.0753231793642044, 0.23489868640899658, -0.13797129690647125, -0.02692079171538353, -0.023641670122742653, 0.13978447020053864, -0.10343465954065323, 0.3058614432811737, -0.06406043469905853, 0.006457389798015356, -0.09121334552764893, -0.05976581946015358, -0.07718029618263245, -0.20386889576911926, -0.09272803366184235, -0.06769935041666031, -0.23903237283229828, 0.1247442439198494, 0.0995405986905098, -0.19956526160240173, 0.10880951583385468, -0.2952139377593994, 0.07213548570871353, -0.08886989206075668, 0.03380628302693367, -0.11059154570102692, -0.10336120426654816, 0.17213106155395508, 0.358322411775589, -0.16245725750923157, -0.07233875244855881, 0.19592779874801636, -0.013005385175347328, -0.23063582181930542, 0.317157506942749, -0.19513823091983795, -0.17109160125255585, -0.05671408027410507, -0.10269530117511749, -0.11848603934049606, -0.008745367638766766, -0.02806907892227173, 0.19418013095855713, 0.11823208630084991, 0.304341197013855, -0.0580880343914032, -0.0696156844496727, -0.08050091564655304, 0.11968845129013062, 0.01792200095951557, 0.1413469910621643, -0.18252384662628174, 0.07488200813531876, -0.23293279111385345, -0.056333307176828384, -0.030102107673883438, 0.00899236649274826, -0.056009333580732346, -0.020608950406312943, -0.30489450693130493, -0.1431041955947876, 0.04504226893186569, -0.16568686068058014, -0.05451066419482231, 0.19230249524116516, 0.032262083142995834, -0.07037457823753357, 0.1585494875907898, -0.1531257927417755, -0.04963238909840584, -0.21184125542640686, 0.07686147838830948, -0.3056693375110626, -0.240965336561203, 0.017725100740790367, -0.23321880400180817, 0.056711431592702866, 0.0013017542660236359, 0.0463816337287426, 0.18181852996349335, 0.09191922843456268, -0.21935418248176575, 0.29074573516845703, -0.16063804924488068, -0.05490655079483986, 0.1848297268152237, 0.05209080129861832, -0.009604380466043949, 0.006517318543046713, 0.11538182944059372, 0.05568316951394081, -0.2163877636194229, 0.022265102714300156, -0.03917691111564636, 0.024518338963389397, 0.004930951166898012, 0.05544739589095116, -0.29528486728668213, -0.0635182112455368, 0.10133745521306992, 0.08870217949151993, 0.11059458553791046, 0.02840096317231655, -0.1354903131723404, 0.0837659016251564, -0.11931487917900085, 0.18751010298728943, -0.20071572065353394, -0.03320995718240738, 0.019583214074373245, -0.21098218858242035, -0.324027955532074, 0.23864121735095978, -0.10842687636613846, -0.12351219356060028, 0.20091335475444794, 0.0018910698127001524, 0.23567192256450653, -0.13592426478862762, -0.02468946948647499, 0.2622387111186981, -0.10849228501319885, 0.021891865879297256, -0.0783722847700119, 0.07803458720445633, -0.17096734046936035, 0.06513267755508423, 0.3748529255390167, 0.014629409648478031, -0.026397794485092163, 0.15720458328723907, -0.020099569112062454, -0.09678390622138977, 0.21092380583286285, -0.11745022237300873, 0.04611893743276596, -0.007376383524388075, 0.09107095748186111, -0.03519415482878685, 0.04932030662894249, 0.06276121735572815, -0.17386668920516968, 0.08984477818012238, -0.21723829209804535, 0.051076989620923996, -0.32495200634002686, 0.00011299753532512113, -0.19081634283065796, -0.09812307357788086, 0.03824157640337944, 0.12611214816570282, -0.24216145277023315, 0.10730595886707306, 0.026132358238101006, 0.17569677531719208, -0.13801176846027374, -0.12316559255123138, 0.230049267411232, -0.16943572461605072, -0.07133499532938004, 0.12177430838346481, -0.15131555497646332, -0.06129564717411995, 0.02698604390025139, -0.11255498230457306, -0.05290371552109718, -0.09537570178508759, -0.037912268191576004, 0.09533946216106415, -0.142991840839386, -0.15983019769191742, 0.012042725458741188, -0.08133384585380554, -0.04482787102460861, 0.09105490893125534, -0.07761075347661972, 0.04328891634941101, 0.1682528555393219, -0.11603200435638428, 0.1291852742433548, 0.18802772462368011, 0.22661586105823517, 0.10836300253868103, 0.1340356320142746, -0.043107081204652786, 0.16607502102851868, -0.05938589200377464, 0.3839312791824341, -0.25504693388938904, 0.2694413661956787, 0.0660456195473671, -0.06514152139425278, 0.0006366324960254133, 0.3063628077507019, 0.01965027116239071, 0.13178636133670807, 0.02400897443294525, 0.11273936927318573, -0.08659184724092484, 0.23071599006652832, 0.09598509967327118, 0.12686927616596222, -0.21654769778251648, 0.14794769883155823, -0.05160021781921387, -0.320395827293396, 0.04445947706699371, 0.153992161154747, -0.15034037828445435, -0.10170399397611618, 0.16381894052028656, -0.30862268805503845, -0.0972672700881958, -0.0623699314892292, 0.2430688738822937, 0.06906279921531677, -0.16005782783031464, -0.18868881464004517, -0.03278384730219841, 0.05734661966562271, -0.2687267065048218, 0.13005796074867249, -0.005939592141658068, -0.28603607416152954, -0.04307997226715088, 0.15030482411384583, -0.19226573407649994, 0.08801762759685516, -0.22689926624298096, -0.19590447843074799, -0.020056303590536118, 0.11654632538557053, 0.13858743011951447, 0.0959867388010025, -0.12136434018611908, 0.18769727647304535, 0.05014422908425331, -0.017519230023026466, -0.03884432464838028, 0.3203737139701843, 0.09831265360116959, 0.14809392392635345, -0.02725180797278881, -0.15345273911952972, -0.0002861196990124881, -0.13408087193965912, -0.13793641328811646, 0.15076732635498047, -0.07080782949924469, -0.0019637481309473515, -0.31188008189201355, -0.12207899242639542, -0.049174245446920395, -0.2717583477497101, -0.04800930991768837, 0.020752916112542152, -0.19760297238826752, -0.11499292403459549, -0.037800248712301254, -0.30092519521713257, 0.05633966997265816, -0.009825077839195728, 0.08289656788110733, 0.17061632871627808, -0.15227468311786652, -0.08904342353343964, -0.3211175799369812, 0.018460432067513466, -0.33363527059555054, 0.12490974366664886, 0.1957005113363266, -0.1479082703590393, -0.08731129765510559, 0.21515123546123505, -0.21615594625473022, 0.08568008989095688, -0.24880950152873993, -0.42762091755867004, -0.10247402638196945, -0.008384925313293934, 0.09344571083784103, -0.011796599254012108, -0.18771420419216156, 0.08125170320272446, -0.018378259614109993, 0.007198902778327465, 0.06382071226835251, -0.1920541673898697, -0.0583462156355381, -0.021694477647542953, -0.05776626616716385, 0.06269962340593338, -0.24545888602733612, 0.09338308870792389, -0.2068386822938919, 0.09681287407875061, -0.07271362096071243, 0.19178803265094757, -0.022447559982538223, 0.07058580219745636, -0.0771891176700592, -0.15920044481754303, 0.19612392783164978, 0.1342194378376007, 0.00974932499229908, 0.0028274112846702337, 0.2943391501903534, -0.033309388905763626, 0.16479532420635223, 0.16139695048332214, 0.27076229453086853, -0.15936461091041565, -0.010030390694737434, 0.0606461800634861, 0.004869440570473671, 0.16396979987621307, -0.033736251294612885, -0.030234141275286674, 0.23493993282318115, -0.26548242568969727, 0.008899806067347527, 0.22977428138256073, -0.12441321462392807, -0.08960610628128052, -0.1073593944311142, 0.0038989295717328787, 0.11452789604663849, -0.1795388162136078, 0.12751224637031555, 0.11440576612949371, -0.13893790543079376, 0.09755329042673111, -0.13229554891586304, 0.24731074273586273, -0.0879271924495697, 0.036393310874700546, -0.029177222400903702, 0.2641336917877197, -0.09812813997268677, 0.05602755397558212, -0.13310004770755768, 0.03660326451063156, -0.04738485813140869, 0.1594371497631073, 0.1350349336862564, 0.11062822490930557, -0.14924152195453644, -0.059523094445466995, -0.2444964200258255, -0.14579153060913086, 0.06348171085119247, 0.04232906550168991, -0.06327535957098007, -0.04531965032219887, 0.18326199054718018, 0.0038406795356422663, -0.06542927026748657, -0.1639069765806198, 0.11583330482244492, -0.020724181085824966, -0.3034825921058655, -0.05001335218548775, 0.004911240190267563, -0.01813489943742752, 0.04177424684166908, 0.17498619854450226, 0.030040012672543526, 0.05461392551660538, 0.09363912791013718, -0.019524838775396347, -0.16330870985984802, 0.017974335700273514, -0.03362509235739708, -0.008267354220151901, 0.08347222954034805, -0.028771189972758293, -0.0385441817343235, -0.13469092547893524, 0.07684031128883362, 0.26916569471359253, -0.17162355780601501, 0.05109446868300438, 0.18985402584075928, 0.05412861704826355, 0.027205798774957657, 0.1693689376115799, 0.03448779508471489, 0.18392355740070343, -0.002756079426035285, 0.13995209336280823, 0.1648627668619156, 0.2044539898633957, 0.03970060497522354, -0.0735897347331047, -0.23122777044773102, 0.11327004432678223, -0.0005095464293844998, 0.14544086158275604, -0.11967955529689789, -0.09407167136669159, -0.17807342112064362, -0.08210988342761993, -0.21430277824401855, -0.38486385345458984, 0.009734902530908585, -0.004601857624948025, -0.07433357834815979, -0.06111123412847519, 0.23662006855010986, 0.10283176600933075, -0.0446411669254303, 0.04305434599518776, 0.12196757644414902, -0.045877061784267426, 0.03946453705430031, 0.14347603917121887, 0.13002289831638336, -0.09078233689069748, 0.11121445894241333, 0.06836402416229248, -0.061712972819805145, 0.1159602701663971, 0.22531841695308685, 0.11535463482141495, 0.19387605786323547, 0.16778960824012756, 0.1210731491446495, -0.059882525354623795, 0.05941212922334671, -0.03171506151556969, -0.07770510762929916, 0.02449721470475197, -0.014954613521695137, -0.09938634932041168, 0.06701163947582245, -0.15486404299736023, -0.058370161801576614, -0.07465113699436188, -0.12319068610668182, -0.14059650897979736, 0.01262896042317152, -0.03508686274290085, 0.005610308144241571, -0.12181496620178223, -0.24603985249996185, -0.038735680282115936, 0.0023112082853913307, -0.17756132781505585, 0.1320803016424179, -0.22872023284435272, 0.031639546155929565, 0.17068739235401154, -0.2294352799654007, 0.11192990094423294, -0.13003088533878326, 0.10937727987766266, -0.3004472553730011, -0.346214234828949, -0.037478335201740265, -0.04525057226419449, 0.013165557757019997, 0.026675501838326454, -0.6456515192985535, 0.05712342634797096, -0.01826552115380764, -0.010713708586990833, -0.08670882880687714, 0.03799067437648773, 0.010937219485640526, 0.022746462374925613, -0.08810905367136002, -0.10691184550523758, 0.023539001122117043, 0.03176698833703995, -0.103536456823349, -0.3037971556186676, -0.4735257625579834, 0.7774452567100525, 0.17221595346927643, -0.37701237201690674, 0.062095046043395996, -0.26121506094932556, 0.5253698825836182, 0.6791545152664185, -0.5901172161102295, 0.8419161438941956, 0.7735123038291931, -0.10612007975578308, -0.3772757649421692, 0.21904408931732178, -0.7247738242149353, 0.08089324831962585, -0.0018911032238975167, -0.08867143839597702, -0.48068758845329285, 0.08639277517795563, 0.2527587413787842, 0.06441552937030792, 0.18334342539310455, 0.2132009118795395, 0.20333082973957062, 0.030281390994787216, -0.00126708357129246, -0.10248167812824249, -0.06576496362686157, -0.3774943947792053, 0.15463051199913025, 0.4365024268627167, -0.04188811033964157, -0.03157659247517586, 0.248111754655838, 0.1681564450263977, 0.03242100775241852, 0.04942796751856804, -0.480987548828125, -0.2573118507862091, -0.05036468058824539, 0.10304442048072815, -0.09138638526201248, 0.053646303713321686, 0.16192223131656647, 0.3161323368549347, -0.14800234138965607, 0.0026167682372033596, -0.5340177416801453, 0.3567938506603241, 0.01968163065612316, -0.09730170667171478, -0.3213716745376587, 0.2346019595861435, -0.6158617734909058, -0.4855138957500458, -0.047740865498781204, 0.10173258930444717, 0.38754305243492126, 0.4992729723453522, 0.16269147396087646, -0.12030500173568726, 0.026965243741869926, 0.26222947239875793, -0.2716919779777527, 0.09721369296312332, 0.029702845960855484, 0.05202246457338333, 0.48204120993614197, -0.3133141100406647, 0.1915043443441391, 0.17779982089996338, 0.13259370625019073, 0.09082596749067307, 0.32589471340179443, 0.13899701833724976, 0.25375670194625854, 0.033108048141002655, 0.015373650006949902, 0.14250889420509338, -0.1014864444732666, 0.13630126416683197, 0.050948433578014374, 0.23106615245342255, -0.15794998407363892, 0.1487254649400711, -0.006495327223092318, 0.24571533501148224, -0.20268283784389496, -0.13935908675193787, 0.1848379522562027, -0.2307235449552536, -0.19594945013523102, 0.38732534646987915, -0.3209283947944641, 0.10856370627880096, -0.14442363381385803, 0.10167025774717331, 0.08706009387969971, -0.20175445079803467, -0.27548009157180786, 0.3582116365432739, -0.02032664604485035, -0.33412444591522217, -0.27733808755874634, 0.12779051065444946, 0.22724929451942444, 0.13252387940883636, 0.382697731256485, 0.366844117641449, -0.05238604545593262, 0.03468387946486473, 0.3522423803806305, -0.4568083584308624, -0.06457897275686264, 0.39012858271598816, 0.005371272563934326, -0.12291286885738373, -0.020357543602585793, -0.09329505264759064, 0.3232884705066681, 0.03262028470635414, -0.19557179510593414, 0.0957178920507431, -0.153874471783638, 0.023939691483974457, 0.24072176218032837, 0.23989364504814148, 0.2767614424228668, -0.1241455227136612, 0.04847374185919762, 0.2350606620311737, -0.05623950809240341, -0.04812012240290642, 0.06184825301170349, 0.15000557899475098, 0.1893656700849533, 0.1621723771095276, 0.16700296103954315, -0.02336197905242443, 0.11640574038028717, 0.003951887134462595, 0.010251586325466633, -0.23927155137062073, 0.300013929605484, -0.29776573181152344, 0.005066074430942535, 0.3026006519794464, 0.043299105018377304, -0.3559178411960602, -0.03813649341464043, -0.15951049327850342, 0.20585158467292786, -0.37808647751808167, 0.08346203714609146, -0.2897223234176636, -0.29324403405189514, 0.02316008321940899, 0.0671306625008583, 0.35274139046669006, -0.10487100481987, -0.13240334391593933, 0.2503567039966583, 0.13514591753482819, 0.25498077273368835, -0.11306270211935043, -0.1765410602092743, 0.08894442766904831, -0.08821649104356766, 0.08889946341514587, -0.12291935831308365, -0.037816740572452545, -0.027109239250421524, 0.340261846780777, -0.17874737083911896, 0.3560088872909546, 0.015142891556024551, -0.3740909695625305, -0.34293970465660095, 0.26319897174835205, -0.17534711956977844, 0.041355159133672714, -0.04497670382261276, 0.17152416706085205, 0.09481973201036453, -0.32892724871635437, 0.1090245470404625, -0.022584103047847748, -0.3779125213623047, 0.040969107300043106, 0.28455179929733276, 0.38301026821136475, 0.8046167492866516, -0.5996083617210388, 0.07122241705656052, 0.08004117012023926, 0.29634442925453186, 0.18568946421146393, -0.40694841742515564, 0.17559781670570374, -0.1304706484079361, -0.24737676978111267, 0.25672367215156555, -0.34932368993759155, -0.5889614820480347, 0.3046722710132599, -0.042716387659311295, -0.4480989873409271, -0.23348014056682587, -0.06425788998603821, -0.16403484344482422, 0.13839656114578247, 0.2002958208322525, -0.2910066843032837, 0.03150004521012306, 0.238697811961174, 0.16433276236057281, -0.11317657679319382, 0.023336533457040787, 0.11934813112020493, 0.11820629239082336, -0.2245520055294037, 0.10276929289102554, -0.3716648519039154, 0.14234420657157898, -0.147739440202713, -0.35022738575935364, -0.09408785402774811, -0.061390116810798645, 0.16978204250335693, 0.0016983227105811238, -0.053489070385694504, 0.06641396135091782, 0.0744510143995285, -0.2247757613658905, 0.03720689192414284, 0.1412675529718399, -0.30411890149116516, 0.18270058929920197, 0.321108877658844, 0.12661516666412354, 0.031255900859832764, 0.1277577430009842, -0.07907161861658096, -0.38351380825042725, 0.2275974601507187, -0.40250763297080994, -0.14145205914974213, 0.0758688822388649, 0.22362954914569855, 0.3036077320575714, 0.005910325329750776, 0.13636822998523712, 0.3343592584133148, -0.3333788812160492, 0.029785320162773132, 0.06464055180549622, -0.1757836937904358, -0.0009849934140220284, -0.2216867357492447, -0.12045014649629593, 0.04518762230873108, -0.3799455463886261, 0.10033169388771057, 0.09349580109119415, 0.2281123697757721, 0.23455505073070526, -0.15162208676338196, -0.00811950583010912, -0.10179223865270615, 0.09853377193212509, -0.16310884058475494, 0.16898247599601746, 0.051175110042095184, 0.26716113090515137, -0.17569765448570251, 0.18786725401878357, 0.16178320348262787, 0.10184518992900848, -0.2170572280883789, 0.049543946981430054, -0.10889899730682373, 0.27052319049835205, -0.009297026321291924, -0.14643844962120056, 0.02587210014462471, 0.029167169705033302, 0.15699608623981476, -0.05063627287745476, -0.19928006827831268, 0.05559777095913887, -0.3729306757450104, 0.18701815605163574, 0.3130292296409607, -0.2963316738605499, 0.10860427469015121, 0.08985072374343872, 0.24863336980342865, 0.11560885608196259, -0.035165514796972275, -0.18268825113773346, 0.03295379877090454, -0.010951726697385311, -0.07010020315647125, 0.3272729516029358, 0.21031706035137177, -0.04654010385274887, -0.23213879764080048, -0.2590672969818115, 0.09318667650222778, 0.2036028653383255, 0.12870067358016968, -0.08644004911184311, -0.2102331519126892, -0.09817978739738464, 0.07263409346342087, 0.14696668088436127, -0.06757117062807083, -0.15903428196907043, -0.15278393030166626, 0.07330302149057388, -0.26601555943489075, -0.04407322779297829, -0.026400865986943245, 0.03980325907468796, -0.26586729288101196, 0.09907136857509613, 0.0001911058643599972, -0.36242884397506714, -0.21505451202392578, -0.1895834058523178, 0.2121046930551529, -0.03962382674217224, -0.09916488081216812, 0.33550041913986206, -0.18925915658473969, 0.15419654548168182, -0.18181675672531128, 0.5388402938842773, -0.056540679186582565, 0.2000986486673355, -0.21624308824539185, -0.1184714287519455, 0.02099059894680977, 0.4637361466884613, -0.0189195666462183, 0.04436168074607849, 0.2723914384841919, 0.21581695973873138, 0.29586222767829895, 0.019879741594195366, -0.1300111711025238, -0.10593957453966141, -0.18609920144081116, 0.035569097846746445, 0.049067407846450806, 0.05827110633254051, -0.010391000658273697, -0.008825994096696377, 0.06191115826368332, 0.05828264728188515, 0.12077991664409637, 0.17798897624015808, 0.07247903198003769, 0.019048893824219704, -0.04240906611084938, -0.022656776010990143, -0.024642884731292725, 0.08956924825906754, -0.31526902318000793, -0.2744896113872528, -0.2034510374069214, -0.053187981247901917, 0.02517044171690941, -0.37645044922828674, 0.06901980191469193, -0.21484920382499695, 0.11316294968128204, 0.10069897770881653, -0.07531992346048355, -0.2184945046901703, -0.1490556001663208, -0.3470763564109802, -0.08330455422401428, -0.0806555524468422, -0.07920780032873154, 0.3122023344039917, -0.037249065935611725, -0.18119996786117554, 0.11230911314487457, -0.0979425385594368, 0.0673515796661377, 0.1808335781097412, 0.31395941972732544, -0.20671989023685455, 0.060707736760377884, -0.10753102600574493, 0.08592409640550613, -0.178771510720253, -0.15357564389705658, 0.18451786041259766, 0.136093407869339, 0.09754937887191772, -0.2034052610397339, -0.0965547040104866, -0.09365344792604446, 0.1976739466190338, 0.022036036476492882, 0.03082709200680256, -0.15610308945178986, -0.02709849365055561, -0.08576880395412445, 0.2185187041759491, 0.05237831175327301, 0.0620647631585598, -0.19900920987129211, -0.02889101207256317, -0.274185448884964, -0.021347807720303535, -0.001377144712023437, 0.10064945369958878, -0.17087529599666595, -0.013598388992249966, 0.05945497378706932, -0.19593316316604614, 0.029887745156884193, -0.25690725445747375, 0.1017228290438652, -0.15595337748527527, -0.01569044589996338, 0.2571145296096802, 0.15392521023750305, 0.16749435663223267, -0.0184613186866045, -0.28180694580078125, -0.18148364126682281, -0.062238723039627075, 0.17645476758480072, -0.12049432843923569, -0.5484273433685303, 0.23182536661624908, -0.06374373286962509, 0.3150444030761719, -0.04418247565627098, 0.05013081431388855, -0.08730742335319519, -0.09184037894010544, -0.08935131877660751, 0.018599461764097214, 0.15554136037826538, -0.04583857208490372, 0.12627610564231873, 0.0025060242041945457, 0.018469760194420815, 0.30314838886260986, 0.06530854851007462, -0.16383424401283264, -0.10376379638910294, -0.2383275330066681, 0.0584120899438858, 0.28026139736175537, -0.04492993652820587, 0.11500613391399384, 0.013030514121055603, -0.010107633657753468, 0.09696374088525772, 0.2714114189147949, 0.07200272381305695, 0.14368101954460144, -0.14872482419013977, 0.161426842212677, 0.07793068140745163, -0.22716903686523438, -0.2646864056587219, 0.03014681115746498, 0.02299089916050434, -0.13407689332962036, 0.10867056995630264, 0.117715023458004, 0.03620172291994095, 0.07060209661722183, -0.09002973884344101, 0.7578254342079163, -0.19085262715816498, 0.11182913184165955, 0.04984719306230545, -0.21953436732292175, 0.03406147658824921, -0.33558735251426697, -0.16552959382534027, 0.11720894277095795, 0.20981517434120178, -0.0642094537615776, -0.04892045259475708, -0.0773765966296196, -0.1086760014295578, 0.08441782742738724, -0.10084731876850128, -0.025882748886942863, -0.010661148466169834, 0.004897142294794321, -0.0495436005294323, -0.21653854846954346, -0.021602291613817215, 0.26341894268989563, 0.007309408858418465, -0.0410187765955925, -0.08011385798454285, -0.01485881395637989, 0.20340417325496674, 0.19504986703395844, -0.0031056341249495745, 0.02433275617659092, -0.10308559238910675, -0.062269847840070724, -0.18652072548866272, 0.03314719721674919, -0.03141637146472931, -0.22738222777843475, -0.03169625625014305, -0.08444032818078995, 0.031686313450336456, -0.1857805997133255, -0.0614490807056427, 0.10758940875530243, -0.3859083354473114, -0.15963268280029297, -0.14162170886993408, 0.11294712126255035, 0.06254681199789047, -0.051201097667217255, 0.7237274050712585, -0.2457084059715271, -0.23914164304733276, 0.524528443813324, 0.01192372478544712, -0.2191213220357895, 0.05292005464434624, -0.06121647730469704, 0.18760119378566742, -0.2107619196176529, -0.18844519555568695, 0.011569587513804436, -0.30417153239250183, 0.0420941598713398, -0.09699483960866928, 0.16854926943778992, 0.033378828316926956, 0.24769966304302216, -0.3224090039730072, -0.02661789208650589, -0.29291531443595886, 0.21801035106182098, -0.19325339794158936, 0.15390552580356598, -0.09001075476408005, -0.08510662615299225, -0.13135196268558502, 0.16868022084236145, -0.12941551208496094, 0.18321166932582855, 0.04925733804702759, 0.16127783060073853, -0.08275841176509857, 0.08437321335077286, -0.09309298545122147, -0.16170597076416016, 0.09656354784965515, -0.03835523873567581, 0.0944177508354187, -0.10776210576295853, -0.1460384875535965, 0.11110904812812805, -0.013756057247519493, -0.01896139420568943, 0.22005361318588257, -0.13067662715911865, -0.09389669448137283, -0.5231060981750488, 0.14989131689071655, 0.07083238661289215, 0.26656362414360046, 0.5683294534683228, 0.35114261507987976, 0.2101990431547165, -0.11645019054412842, -0.3968702256679535, -0.0966503843665123, 0.11437498033046722, -0.016299529001116753, -0.1257414072751999, 0.11299802362918854, 0.016618020832538605, -0.13016816973686218, -0.2064051479101181, -0.049873534590005875, 0.05340885743498802, 0.03236408904194832, -0.09219434857368469, -0.15445557236671448, -0.042381323873996735, 0.035818442702293396, -0.09809856116771698, 0.1205606609582901, -0.05567852035164833, 0.028228769078850746, -0.15937942266464233, 0.08039785176515579, -0.18945282697677612, -0.1296478807926178, -0.13544350862503052, 0.20047803223133087, -0.14616669714450836, -0.051222413778305054, -0.04704574868083, -0.10033766180276871, -0.06356530636548996, -0.1270374059677124, 0.34023216366767883, 0.05285127833485603, 0.06227437034249306, 0.2285389006137848, -0.14001835882663727, 0.002442956203594804, -0.0698641985654831, -0.28865084052085876, 0.003990087192505598, -0.15801382064819336, 0.08731373399496078, 0.05473151057958603, -0.25248539447784424, -0.05155804753303528, -0.12333081662654877, -0.06002706661820412, 0.003933500032871962, -0.17917047441005707, 0.12048225849866867, 0.12177373468875885, -0.11140809953212738, -0.16039444506168365, 0.0795978382229805, 0.06383658200502396, -0.18120913207530975, -0.14701633155345917, -0.164118692278862, 0.00300747063010931, 0.07424096763134003, 0.15158554911613464, 0.04323111101984978, -0.12125730514526367, -0.158744215965271, -0.05869806930422783, 0.234476238489151, -0.1137259379029274, -0.09859009832143784, -0.4637877345085144, -0.09545678645372391, -0.11858408898115158, 0.12374124675989151, 0.16924823820590973, 0.06322812288999557, -0.06044663116335869, 0.17682002484798431, -0.10085182636976242, -0.23566965758800507, -0.11057616025209427, -0.18735875189304352, 0.17358924448490143, -0.014725263230502605, -0.012793171219527721, 0.20352762937545776, -0.028062915429472923, 0.2515186667442322, 0.07807602733373642, 0.5864149928092957, -0.26419273018836975, 0.1055837869644165, 0.34119728207588196, -0.06532859802246094, -0.03721907362341881, -0.29149147868156433, -0.2921736538410187, 0.11340484768152237, -0.22680269181728363, -0.1020553931593895, 0.0037191398441791534, -0.03956111893057823, 0.055643707513809204, 0.07914434373378754, 0.04000692069530487, -0.09330793470144272, -0.04763011634349823, -0.1534619927406311, -0.21250587701797485, -0.027159694582223892, 0.09466820955276489, -0.01078601460903883, -0.12809506058692932, 0.03822323679924011, 0.056165169924497604, 0.016975170001387596, 0.1977800875902176, -0.011732746846973896, -0.020739467814564705, 0.3813314735889435, -0.029057156294584274, 0.057576198130846024, 0.2184165120124817, 0.09201817214488983, -0.07109661400318146, -0.030513450503349304, 0.24054554104804993, -0.08718440681695938, 0.0844748392701149, 0.011413254775106907, 0.019181694835424423, 0.08405929058790207, -0.09754995256662369, 0.29419249296188354, 0.14446914196014404, 0.16843098402023315, -0.0011145984753966331, -0.11914359778165817, -0.07169323414564133, 0.22648870944976807, 0.09997909516096115, -0.05702974647283554, -0.020024126395583153, 0.19146592915058136, -0.2187357246875763, 0.0054008751176297665, -0.00787828303873539, 0.058435987681150436, 0.18495981395244598, -0.08796217292547226, 0.04707329720258713, -0.07761150598526001, 0.0020924967247992754, -0.15411968529224396, 0.15223950147628784, -0.18575501441955566, -0.07800117135047913, 0.09233440458774567, 0.11438201367855072, 0.037560559809207916, 0.1652286797761917, -0.21996134519577026, -0.005939536262303591, 0.09893117845058441, -0.021943258121609688, 0.29370877146720886, -0.07179180532693863, -0.18625472486019135, -0.2175046056509018, 0.10329414904117584, 0.09571582823991776, -0.05143377184867859, -0.16855385899543762, 0.002486503217369318, 0.18335102498531342, -0.1431068778038025, -0.005425558891147375, 0.052217356860637665, 0.03226359933614731, 0.029402809217572212, -0.13861046731472015, 0.26811131834983826, 0.04723312333226204, -0.3101225197315216, 0.19211716949939728, -0.2696356773376465, 0.1584952473640442, 0.28459417819976807, -0.1886254996061325, 0.5373765230178833, 0.22182615101337433, 0.41073083877563477, -0.08295677602291107, 0.11795613914728165, -0.14245590567588806, -0.0642874464392662, -0.12216049432754517, -0.0091008972376585, 0.23002059757709503, -0.1767372488975525, 0.13699038326740265, 0.029342390596866608, 0.07679130136966705, 0.03970469906926155, 0.07595373690128326, 0.007431325502693653, -0.009719903580844402, -0.06618978083133698, 0.3315321207046509, -0.007346311118453741, 0.13735520839691162, -0.045459020882844925, -0.11513012647628784, -0.15437227487564087, 0.029193568974733353, -0.3365492820739746, -0.034652166068553925, -0.18314506113529205, 0.04343179985880852, -0.2098996341228485, 0.15030153095722198, 0.031245140358805656, -0.15952655673027039, 0.1474819779396057, -0.06989423930644989, 0.2087988704442978, -0.045856866985559464, -0.12120489776134491, 0.12946079671382904, -0.21682751178741455, 0.12932658195495605, 0.03875616192817688, -0.2582983374595642, -0.03575466200709343, -0.05058589205145836, 0.06306528300046921, 0.14300736784934998, -0.10012300312519073, 0.19275598227977753, 0.061261020600795746, -0.15914639830589294, 0.22631101310253143, -0.3176177442073822, -0.19381293654441833, 0.17205283045768738, -0.11902238428592682, -0.0641431137919426, 0.2645851671695709, 0.14768272638320923, -0.08985166996717453, -0.31503671407699585, 0.007235994096845388, 0.0204803217202425, 0.20967692136764526, -0.010263653472065926, -0.10666525363922119, -0.17877590656280518, -0.21254034340381622, 0.1070399209856987, 0.3109746277332306, 0.16325978934764862, -0.17467272281646729, -0.2361954003572464, -0.024029450491070747, -0.1994379758834839, 0.04486003518104553, 0.23659664392471313, 0.11677893251180649, -0.3459360599517822, 0.3032611906528473, -0.032541681081056595, -0.16674688458442688, -0.2392076849937439, -0.12276136130094528, 0.19831053912639618, -0.037283822894096375, -0.030589817091822624, 0.45775020122528076, 0.08229193836450577, -0.07703195512294769, -0.11683032661676407, -0.07405822724103928, -0.3614497780799866, -0.40320274233818054, 0.20602861046791077, 0.006237700581550598, -0.43875473737716675, 0.08131682127714157, -0.0027364485431462526, -0.32657796144485474, -0.014596786350011826, 0.13816902041435242, 0.05995204672217369, -0.07950560003519058, -0.05199241265654564, -0.10154826194047928, -0.0029116482473909855, 0.026017937809228897, -0.11519110947847366, -0.03382537513971329, 0.03037361614406109, 0.07282315194606781, 0.10439480096101761, 0.14578098058700562, -0.10187728703022003, -0.2597671449184418, 0.08230669796466827, 0.04392656311392784, 0.04203798994421959, -0.12151320278644562, -0.10903682559728622, 0.05734149366617203, -0.12892751395702362, 0.07396101951599121, 0.11408770829439163, 0.02836347185075283, -0.13786116242408752, 0.2625832259654999, 0.01780671998858452, -0.01842247135937214, -0.099449522793293, -0.007046673912554979, 0.0766020268201828, -0.028375398367643356, 0.007924765348434448, 0.08297324180603027, -0.029270820319652557, -0.11502348631620407, 0.299993097782135, -0.04274355247616768, 0.18997561931610107, 0.019470090046525, -0.3206675052642822, -0.022566482424736023, 0.3659156262874603, 0.1581782102584839, 0.24594880640506744, 0.03331460431218147, 0.15096645057201385, 0.019779924303293228, 0.00800306536257267, 0.09781931340694427, 0.1513359546661377, -0.055951375514268875, -0.17399808764457703, 0.0674978569149971, 0.2558266520500183, 0.015101089142262936, 0.12202443927526474, -0.19155389070510864, -0.10637878626585007, -0.03699994087219238, 0.15214793384075165, 0.05174724757671356, -0.03860003501176834, -0.11791336536407471, 0.0207875594496727, -0.13348476588726044, 0.2940994203090668, 0.048060089349746704, 0.016194067895412445, -0.11824493855237961, -0.033515166491270065, -0.11565129458904266, 0.1178659051656723, -0.13355034589767456, -0.19886073470115662, 0.2604556977748871, -0.022613290697336197, -0.0025213363114744425, -0.06071440875530243, 0.01087258756160736, 0.07371141016483307, -0.09661225229501724, -0.11246128380298615, 0.045513447374105453, 0.2009420543909073, -0.05786195024847984, 0.31419262290000916, 0.008802897296845913, 0.03179536014795303, 0.14916013181209564, 0.03455949202179909, -0.013403620570898056, 0.004854537080973387, 0.5463970899581909, -0.02049858309328556, -0.032608434557914734, -0.13837450742721558, 0.054063454270362854, -0.1276600956916809, -0.2281518429517746, 0.12436003983020782, -0.0764356479048729, 0.14004230499267578, -0.1281282603740692, -0.04318566992878914, -0.20929868519306183, -0.039907924830913544, 0.05922519043087959, 0.22204020619392395, -0.1125817820429802, 0.06851926445960999, -0.14767278730869293, 0.09817325323820114, 0.0543162077665329, 0.2718948721885681, 0.08077650517225266, 0.022564580664038658, -0.20145823061466217, -0.13552676141262054, 0.06146857887506485, 0.11836380511522293, 0.022189205512404442, 0.16057316958904266, 0.15161405503749847, -0.06704214215278625, 0.017823845148086548, -0.3170856237411499, -0.017357120290398598, 0.07517636567354202, -0.2682771384716034, -0.04570094123482704, 0.2239031046628952, -0.07187604904174805, 0.09283720701932907, -0.033663343638181686, 0.004438441246747971, 0.21111591160297394, -0.19087949395179749, -0.019101949408650398, 0.18559318780899048, -0.006100011523813009, -0.01607990637421608, -0.11537155508995056, 0.037015631794929504, 0.10017517954111099, -0.16857454180717468, -0.11374334990978241, 0.2628205120563507, 0.11348564177751541, 0.019355984404683113, -0.2012936919927597, -0.24257446825504303, -0.0019165676785632968, -0.06522737443447113, 0.18962955474853516, 0.01525400672107935, -0.15452119708061218, -0.2542421817779541, -0.1374073028564453, 0.20453178882598877, -0.06401889771223068, 0.13519057631492615, -0.2702757716178894, 0.07482314109802246, -0.2724754512310028, -0.09783101081848145, -0.038755565881729126, 0.0483313649892807, -0.06927809864282608, -0.04383738338947296, 0.12287052720785141, -0.032259389758110046, 0.04727737605571747, -0.05275125429034233, 0.1974705159664154, -0.12193366140127182, -0.10809794813394547, 0.308579683303833, 0.11311428248882294, -0.26834970712661743, 0.08516210317611694, -0.028001094236969948, 0.03532625362277031, 0.11348266154527664, -0.12036673724651337, -0.22729752957820892, 0.2167753279209137, 0.18827879428863525, 0.014623226597905159, 0.09972823411226273, -0.07238419353961945, 0.025162603706121445, -0.09658851474523544, 0.12453119456768036, 0.7602537274360657, 0.4257717430591583, 0.4690087139606476, -0.8215686082839966, -0.7371264696121216, -0.053214214742183685, 0.2667752802371979, 0.15626999735832214, 0.24764028191566467, 0.29523852467536926, -0.6701774597167969, 0.41073355078697205, 0.10820430517196655, -0.8936202526092529, -0.09071941673755646, -0.3704775869846344, -0.1713634431362152, -0.08768079429864883, 0.2569616734981537, -0.1712997853755951, -0.04717925935983658, 0.07578978687524796, 0.05028439313173294, -0.1520480513572693, -0.41908103227615356, 0.10838867723941803, -0.2220454216003418, -0.08612918108701706, -0.021903226152062416, -0.15122656524181366, 0.16423799097537994, -0.0968746691942215, -0.08209521323442459, -0.3300299346446991, 0.16605165600776672, -0.05421266332268715, -0.056115079671144485, -0.5237916707992554, 0.36628180742263794, 0.3369850516319275, -0.21364052593708038, 0.04042690619826317, -0.07841771095991135, 0.02154453471302986, 0.18744809925556183, -0.11911787837743759, 0.08179954439401627, 0.20154468715190887, -0.03124537318944931, 0.24023137986660004, 0.08435698598623276, -0.29642921686172485, 0.1129554882645607, 0.06356915086507797, -0.28332382440567017, 0.03315264731645584, 0.2306150645017624, -0.2951475977897644, -0.2349463254213333, -0.15588748455047607, -0.0944489985704422, 0.1156960055232048, 0.04935633763670921, 0.3879977762699127, -0.19378896057605743, 0.05145964398980141, -0.05984531342983246, 0.2233165204524994, 0.33685600757598877, 0.17276407778263092, 0.12381751090288162, -0.0016677870880812407, -0.14905089139938354, -0.2740369141101837, -0.0877418965101242, -0.2970888614654541, 0.07453472167253494, 0.11128149926662445, -0.08270416408777237, -0.23227296769618988, 0.14058026671409607, -0.18947330117225647, -0.20416657626628876, 0.223119854927063, -0.024024074897170067, 0.035032398998737335, -0.05208216980099678, -0.20819029211997986, 0.3682795464992523, 0.07351866364479065, 0.20010505616664886, 0.23892831802368164, -0.2156183272600174, -0.22159481048583984, -0.0641150176525116, -0.0985448807477951, -0.032853204756975174, 0.12133098393678665, 0.13158771395683289, 0.13950413465499878, -0.07875140756368637, 0.21625487506389618, -0.16093890368938446, 0.0017565935850143433, 0.23986703157424927, 0.060536786913871765, -0.23502378165721893, 0.24496467411518097, 0.03966643288731575, -0.07963944971561432, -0.2091478854417801, 0.06940032541751862, -0.20281419157981873, -0.17011721432209015, -0.24206872284412384, -0.06379258632659912, -0.10119546949863434, -0.31795546412467957, 0.23354682326316833, 0.15810976922512054, -0.34139254689216614, -0.21832014620304108, 0.017162855714559555, -0.15671499073505402, 0.015580017119646072, -0.03063952550292015, -0.01509940717369318, -0.25091251730918884, -0.3020600378513336, 0.17911340296268463, 0.006151948589831591, 0.14432647824287415, 0.2004326432943344, -0.20267631113529205, -0.19041401147842407, 0.22545881569385529, -0.01783858798444271, -0.11611571162939072, 0.22342270612716675, 0.051043618470430374, -0.023176968097686768, -0.07509905099868774, 0.4483633041381836, -0.036446936428546906, -0.13767723739147186, 0.08135514706373215, -0.031472526490688324, 0.02547171153128147, 0.25099557638168335, 0.22713716328144073, -0.10677017271518707, -0.33457258343696594, 0.07273109257221222, -0.02501027286052704, 0.026267796754837036, 0.04834592342376709, 0.0504021979868412, 0.34765011072158813, 0.12728430330753326, 0.10460343956947327, -0.08587650954723358, 0.16069141030311584, 0.20382370054721832, -0.20560726523399353, -0.12465649843215942, 0.05831129476428032, -0.05241674184799194, 0.074544258415699, -0.24933481216430664, -0.3389297425746918, -0.023185335099697113, -0.4009458124637604, 0.18461677432060242, -0.16346341371536255, 0.11059466004371643, -0.019192855805158615, -0.29141056537628174, 0.2955598831176758, -0.3400355875492096, -0.20492011308670044, -0.15013112127780914, 0.14216527342796326, 0.02930964156985283, -0.3514263927936554, 0.09328032284975052, -0.02239075116813183, -0.2550433278083801, -0.21919706463813782, -0.19764718413352966, 0.2923333942890167, -0.005684331525117159, -0.1844034492969513, 0.014981136657297611, 0.17774461209774017, -0.11617431789636612, -0.20406538248062134, -0.1581159234046936, -0.19807341694831848, 0.16315124928951263, -0.0895473062992096, -0.28732937574386597, -0.20867004990577698, 0.23017705976963043, 0.07136369496583939, -0.12284024059772491, 0.19782496988773346, -0.23901602625846863, -0.18604975938796997, 0.12188200652599335, 0.32357174158096313, 0.2408277541399002, 0.3654569685459137, -0.24674813449382782, 0.46260368824005127, -0.16460919380187988, -0.145191952586174, 0.0789414644241333, 0.12503497302532196, -0.11913134902715683, -0.004850033670663834, -0.2084648609161377, 0.08201627433300018, -0.09265217185020447, -0.09608341753482819, -0.20995520055294037, 0.2694179117679596, -0.080818310379982, 0.32455548644065857, -0.061268098652362823, 0.11072707921266556, -0.08763572573661804, -0.373158723115921, -0.11425798386335373, 0.2992204427719116, 0.05809854343533516, -0.27816882729530334, -0.28012287616729736, -0.098080113530159, -0.2678539454936981, -0.0814681202173233, 0.3305198848247528, -0.15362770855426788, 0.1019827127456665, 0.14455386996269226, -0.10763699561357498, -0.14434580504894257, -0.14177213609218597, 0.26752397418022156, -0.012225642800331116, -0.08192956447601318, -0.31117725372314453, 0.1449325531721115, 0.1584935486316681, -0.08893433213233948, 0.03637906536459923, 0.11597054451704025, -0.20929887890815735, 0.18187560141086578, -0.11155730485916138, -0.31977182626724243, -0.15506619215011597, -0.13468362390995026, 0.1452021598815918, -0.03463189676403999, -0.30069500207901, -0.24305298924446106, -0.39960283041000366, -0.25192245841026306, -0.02727535553276539, -0.1059299111366272, 0.14213375747203827, -0.10021495819091797, -0.18405237793922424, 0.08272755146026611, 0.06372341513633728, 0.08285391330718994, -0.03954550251364708, 0.040301937609910965, 0.0888984352350235, 0.17655083537101746, -0.25109046697616577, 0.3096957802772522, 0.03056085854768753, 0.11372116953134537, -0.13456808030605316, -0.19526325166225433, -0.137305349111557, 0.08533034473657608, 0.06840159744024277, 0.01604379154741764, -0.13734523952007294, 0.35144901275634766, -0.005411973223090172, 0.07387050241231918, 0.4941360354423523, 0.2697030305862427, -0.2136274129152298, 0.0441390797495842, 0.03654706850647926, -0.11310388147830963, -0.1368575245141983, -0.11965691298246384, -0.07406415790319443, 0.015529281459748745, -0.028494123369455338, 0.1692333072423935, 0.09179616719484329, -0.03346492722630501, -0.033636849373579025, -0.04773757979273796, 0.2549670338630676, -0.009634416550397873, 0.06992145627737045, -0.07901282608509064, -0.12465092539787292, -0.09473858773708344, -0.12272844463586807, 0.15691207349300385, 0.37262386083602905, 0.27390557527542114, -0.3139117658138275, 0.09671565890312195, -0.22849953174591064, -0.038565050810575485, 0.16246047616004944, 0.1818777471780777, -0.059209633618593216, 0.0888400748372078, 0.10732130706310272, -0.3490005135536194, -0.06809988617897034, -0.28969523310661316, 0.16251175105571747, -0.1011885479092598, -0.020069533959031105, 0.11666104942560196, 0.021609341725707054, -0.08898352831602097, 0.16929440200328827, -0.004825740586966276, -0.0824899822473526, -0.061244916170835495, -0.31422027945518494, -0.20100514590740204, 0.04853544384241104, -0.03940701484680176, 0.0850764662027359, 0.0747380182147026, 0.12131699919700623, 0.06737620383501053, 0.04601636156439781, 0.05834053456783295, 0.0046791438944637775, -0.1783122569322586, -0.07133258134126663, 0.08438323438167572, 0.14055299758911133, -0.19542907178401947, 0.10428030043840408, -0.23545464873313904, -0.09745548665523529, 0.02318744920194149, 0.24734891951084137, 0.013247393071651459, 0.10572785884141922, -0.17247244715690613, 0.03377867117524147, -0.25392964482307434, 0.25189584493637085, -0.1692950427532196, -0.07575448602437973, -0.06063712015748024, 0.007779921405017376, -0.29060736298561096, 0.1605888456106186, 0.016527043655514717, -0.16523875296115875, 0.14081744849681854, 0.10432623326778412, 0.08403890579938889, -0.2069498896598816, -0.05190320685505867, -0.015246827155351639, -0.19356797635555267, 0.019940873607993126, 0.021990442648530006, 0.15911240875720978, 0.015401817858219147, 0.40346601605415344, -0.0680825412273407, -0.19281651079654694, 0.13000726699829102, -0.06997402012348175, -0.09139084815979004, 0.1797092854976654, -0.07768072187900543, -0.21588557958602905, -0.37388306856155396, -0.25727903842926025, -0.011537384241819382, -0.002779125003144145, 0.25613918900489807, 0.1506572812795639, 0.17613615095615387, 0.03275446593761444, -0.4871481657028198, -0.12649348378181458, -0.019905203953385353, 0.037058889865875244, -0.06756974756717682, -0.29913586378097534, -0.020000653341412544, -0.2075667828321457, 0.2160888910293579, 0.045051515102386475, 0.1284223347902298, -0.036240145564079285, -0.12167491763830185, 0.1478174775838852, 0.2961083650588989, -0.044882386922836304, 0.14471961557865143, 0.013829541392624378, 0.04332377016544342, 0.008774248883128166, 0.06661399453878403, 0.03653004765510559, 0.013715874403715134, 0.14059841632843018, -0.018568741157650948, -0.1683276742696762, 0.14248856902122498, -0.025781363248825073, -0.053101662546396255, 0.008255544118583202, -0.14850351214408875, -0.2661047875881195, -0.1998814195394516, 0.015237424522638321, -0.08933863788843155, 0.05705828219652176, -0.089010089635849, -0.2065398097038269, 0.05840037763118744, 0.10725831240415573, 0.1786319613456726, 0.15233896672725677, -0.06550867855548859, 0.03509753569960594, 0.254586786031723, -0.010317026637494564, -0.2399715632200241, -0.06939351558685303, -0.006963782478123903, -0.05146205052733421, -0.2054736614227295, 0.03711479902267456, -0.007128366734832525, -0.007693577092140913, -0.2695063650608063, 0.018336081877350807, 0.14307425916194916, 0.09385599941015244, 0.1428959220647812, -0.11619991064071655, -0.13915342092514038, -0.10361374914646149, -0.08107978105545044, 0.03857393190264702, 0.17081141471862793, -0.1336284726858139, 0.09147676825523376, 0.11420537531375885, -0.2758416533470154, 0.0228552408516407, -0.07432860136032104, 0.13765624165534973, 0.008731630630791187, -0.09409157931804657, 0.09223731607198715, -0.03933141753077507, 0.40654492378234863, 0.1485162377357483, 0.24171403050422668, -0.2149309366941452, 0.2507929503917694, 0.588420033454895, 1.239502191543579, 0.11894767731428146, -0.007361758034676313, 0.41935497522354126, -0.014280591160058975, -0.17024369537830353, -0.40986037254333496, -0.03426595404744148, 0.06396667659282684, 0.028203347697854042, -0.19595696032047272, 0.4485945403575897, -0.31850358843803406, 0.020705731585621834, -0.1718985140323639, 0.1164751797914505, 0.21211981773376465, -0.10891757905483246, 0.1810181438922882, 0.07940389215946198, 0.1672435998916626, 0.11970723420381546, 0.1439812332391739, 0.17198996245861053, 0.2607582211494446, -0.15781457722187042, 0.5408603549003601, -0.6026985049247742, -0.028197672218084335, -0.19295263290405273, 0.22525037825107574, -0.04188269004225731, 0.05190115049481392, 0.28663167357444763, -0.18477725982666016, -0.056613583117723465, -0.28671228885650635, 0.030257578939199448, 0.12696465849876404, 0.06883544474840164, 0.1817723661661148, -0.10658709704875946, 0.013262168504297733, -0.15783150494098663, -0.15927135944366455, 0.19874541461467743, 0.120054692029953, 0.14505638182163239, -0.020891709253191948, -0.24306271970272064, -0.09342730045318604, -0.037438325583934784, -0.061661794781684875, -0.09358775615692139, -0.030001161620020866, -0.025457439944148064, -0.052816491574048996, -0.18888433277606964, -0.01109470333904028, 0.014692526310682297, 0.025581074878573418, -0.09105062484741211, -0.06661209464073181, 0.015928328037261963, -0.05722135305404663, -0.018946094438433647, -0.09041497111320496, 0.057380691170692444, 0.06967896968126297, 0.023960325866937637, -0.29468199610710144, 0.2210102528333664, -0.04632215574383736, -0.14920517802238464, 0.12353689968585968, 0.12900786101818085, -0.2857586145401001, 0.09906834363937378, -0.08499941974878311, -0.017456619068980217, -0.09320416301488876, 0.031045086681842804, 0.10463133454322815, 0.09688249975442886, 0.25053009390830994, -0.11349506676197052, 0.2728358805179596, 0.16449299454689026, -0.14559157192707062, -0.10328540205955505, -0.1488589495420456, 0.24279887974262238, -0.052349984645843506, 0.021572405472397804, -0.3259919285774231, -0.2049354910850525, -0.10729184001684189, -0.0439404733479023, -0.045502521097660065, -0.07397854328155518, 0.05137955769896507, 0.07817038893699646, 0.12190920859575272, -0.2538796663284302, 0.18994596600532532, 0.1665540635585785, -0.1073882132768631, -0.011857280507683754, 0.10281436145305634, 0.13233867287635803, 0.02565346285700798, 0.09334659576416016, 0.05582614615559578, -0.14918957650661469, -0.13354060053825378, 0.33899518847465515, 0.202647402882576, 0.1550171822309494, -0.20168966054916382, -0.13116998970508575, -0.014843078330159187, 