{"version":"0.7.0","architecture":"SlimmableContainer","config":{"submodels":[{"max_value":0.5,"model":{"version":"0.7.0","metadata":{"date":{"year":2026,"month":5,"day":15,"hour":18,"minute":28,"second":40},"loudness":-17.134756088256836,"gain":0.812857675559261},"architecture":"WaveNet","config":{"layers":[{"input_size":1,"condition_size":1,"head":{"out_channels":1,"kernel_size":16,"bias":true},"channels":3,"kernel_sizes":[6,6,6,6,6,6,6,6,6,6,6,6,6,6,15,15,6,6,6,6,6,6,6],"dilations":[1,3,7,17,41,101,239,1,3,7,17,41,101,239,1,13,1,3,7,17,41,101,239],"activation":[{"type":"LeakyReLU","negative_slope":0.01},{"type":"LeakyReLU","negative_slope":0.01},{"type":"LeakyReLU","negative_slope":0.01},{"type":"LeakyReLU","negative_slope":0.01},{"type":"LeakyReLU","negative_slope":0.01},{"type":"LeakyReLU","negative_slope":0.01},{"type":"LeakyReLU","negative_slope":0.01},{"type":"LeakyReLU","negative_slope":0.01},{"type":"LeakyReLU","negative_slope":0.01},{"type":"LeakyReLU","negative_slope":0.01},{"type":"LeakyReLU","negative_slope":0.01},{"type":"LeakyReLU","negative_slope":0.01},{"type":"LeakyReLU","negative_slope":0.01},{"type":"LeakyReLU","negative_slope":0.01},{"type":"LeakyReLU","negative_slope":0.01},{"type":"LeakyReLU","negative_slope":0.01},{"type":"LeakyReLU","negative_slope":0.01},{"type":"LeakyReLU","negative_slope":0.01},{"type":"LeakyReLU","negative_slope":0.01},{"type":"LeakyReLU","negative_slope":0.01},{"type":"LeakyReLU","negative_slope":0.01},{"type":"LeakyReLU","negative_slope":0.01},{"type":"LeakyReLU","negative_slope":0.01}],"bottleneck":3,"head1x1":{"active":false,"out_channels":1,"groups":1},"layer1x1":{"active":true,"groups":1},"groups_input":1,"groups_input_mixin":1,"conv_pre_film":{"active":false,"shift":true,"groups":1},"conv_post_film":{"active":false,"shift":true,"groups":1},"input_mixin_pre_film":{"active":false,"shift":true,"groups":1},"input_mixin_post_film":{"active":false,"shift":true,"groups":1},"activation_pre_film":{"active":false,"shift":true,"groups":1},"activation_post_film":{"active":false,"shift":true,"groups":1},"layer1x1_post_film":{"active":false,"shift":true,"groups":1},"head1x1_post_film":{"active":false,"shift":true,"groups":1},"gating_mode":["none","none","none","none","none","none","none","none","none","none","none","none","none","none","none","none","none","none","none","none","none","none","none"],"secondary_activation":[null,null,null,null,null,null,null,null,null,null,null,null,null,null,null,null,null,null,null,null,null,null,null],"slimmable":null}],"head":null,"head_scale":0.009029358194803798},"weights":[4.616820812225342,-1.164541244506836,5.461977005004883,0.36662086844444275,0.019072936847805977,-0.08994220942258835,0.3199695348739624,-0.4766518473625183,-0.4752206802368164,-0.0837886855006218,-0.09762376546859741,-0.05355900898575783,-0.4011084735393524,0.11160027235746384,0.4095394015312195,0.19602525234222412,0.16778463125228882,-0.12580113112926483,0.45964470505714417,-0.3332045376300812,-0.7020190954208374,0.012570030055940151,-0.06941121816635132,-0.12351641803979874,1.0724637508392334,-0.521602213382721,-0.7094190716743469,-0.06994131207466125,-0.06651805341243744,-0.004615875892341137,-0.6603882312774658,0.5330891609191895,0.9092304110527039,0.28869643807411194,-0.11941748112440109,-0.1239723488688469,0.8444029092788696,-0.43458807468414307,-1.0408436059951782,0.5148404240608215,0.23379071056842804,0.010184930637478828,0.7484180927276611,-0.6755701303482056,-1.2431868314743042,-0.3376453220844269,-0.1777334064245224,-0.14210936427116394,-0.7497758865356445,0.5646725296974182,0.9498303532600403,0.3229770362377167,0.36545976996421814,-0.15462572872638702,0.6776578426361084,-0.7099635601043701,-1.094702959060669,-0.9512847065925598,0.1272774636745453,0.541095495223999,-0.3153637945652008,-0.08997438102960587,-0.7575767040252686,2.0965771675109863,-0.8789595365524292,-0.9528290033340454,-0.6715428829193115,0.12377119809389114,0.2778383493423462,0.3483843207359314,-0.7837868928909302,-0.3156748116016388,0.2679116725921631,0.6122156381607056,-0.31666433811187744,-0.08669187873601913,-0.04186961054801941,0.01715775579214096,0.05191974714398384,-0.017071262001991272,-0.6992323398590088,-0.16168205440044403,-0.06972281634807587,0.15261748433113098,0.15078327059745789,0.13426868617534637,0.24909357726573944,0.3017157316207886,0.20274542272090912,0.36241215467453003,0.05992017313838005,0.11292482167482376,0.0034638962242752314,-0.06617792695760727,-0.05399477481842041,-0.14826600253582,-0.5237839221954346,-0.18234066665172577,0.7108796238899231,0.24950237572193146,0.1534036546945572,0.4518393874168396,0.27152562141418457,0.19659404456615448,0.20903943479061127,-0.05869706720113754,-0.04739246517419815,-0.18666057288646698,-0.22049516439437866,-0.1442447453737259,0.03318019211292267,-0.15691567957401276,-0.15015210211277008,-0.31525397300720215,-0.34744569659233093,-0.5795962810516357,1.1896767616271973,-0.09712496399879456,-0.10988996922969818,0.14602741599082947,0.201718270778656,0.19555994868278503,-0.08538705855607986,-0.004274487029761076,0.004231071099638939,0.07193448394536972,0.009312140755355358,-0.18747088313102722,0.45969948172569275,0.12821559607982635,0.44962015748023987,-0.032519083470106125,-2.3790159225463867,-0.9853833317756653,2.4491043090820312,-0.615917980670929,-0.19299909472465515,1.3735764026641846,-0.06014218553900719,0.03451402112841606,0.4070339500904083,-0.6029204726219177,-0.3399425148963928,0.4209426939487457,-0.07483825087547302,0.8831125497817993,0.07069811224937439,-0.1323968470096588,0.02098957821726799,-0.11164700239896774,0.016284894198179245,-0.06219058856368065,-0.4863875210285187,-0.268356055021286,-0.12341125309467316,-0.02728765271604061,-0.29025906324386597,-0.18351680040359497,-0.010234405286610126,0.1880195438861847,0.03566437587141991,0.13253043591976166,0.061449091881513596,-0.003773740027099848,-0.3806823790073395,0.09534674137830734,-0.14919111132621765,-0.18284034729003906,-0.047446805983781815,-0.10071267187595367,1.1382598876953125,0.22272248566150665,0.3033404052257538,0.04021456465125084,0.08382336050271988,0.3112167716026306,0.09420578926801682,-0.2989943027496338,-0.2304183840751648,-0.09976311028003693,-0.20683500170707703,-0.31912028789520264,0.0365193672478199,0.02692072093486786,-0.18852312862873077,-0.1804983764886856,-0.11565021425485611,-0.11601719260215759,-0.6201561093330383,-0.04568532109260559,0.31500646471977234,-0.2448747158050537,-0.10940062254667282,-0.07611764222383499,-0.05921412631869316,-0.09672632813453674,0.06260596960783005,0.17672431468963623,-0.056951623409986496,-0.08354349434375763,0.2835316061973572,-0.18581904470920563,-0.05294524505734444,-0.19242072105407715,-0.18508823215961456,1.3764981031417847,-0.22489438951015472,0.463948518037796,0.7520467042922974,-0.00706761097535491,0.33227860927581787,-0.8055452108383179,-0.0599091500043869,0.4443223774433136,0.2435910999774933,-0.309438556432724,0.49516069889068604,0.5753730535507202,0.2041734755039215,0.07373204827308655,0.02581367827951908,-0.009718523360788822,-0.07660306245088577,0.10492552816867828,0.018857821822166443,0.06790010631084442,0.10326883941888809,-0.03094404935836792,-0.15824416279792786,0.019990725442767143,-0.4641653299331665,-0.08389918506145477,0.08178865909576416,-0.00397837907075882,-0.06538272649049759,-0.2132667899131775,0.38490551710128784,-0.028270667418837547,-0.13686007261276245,-0.14445839822292328,-0.072146475315094,-0.10725799947977066,0.1890743374824524,0.039201099425554276,-0.17396143078804016,-0.23686712980270386,-0.21737810969352722,-0.198733389377594,0.051197368651628494,0.13563121855258942,0.1436237394809723,0.08023056387901306,-0.05023543909192085,0.09680289030075073,0.2857731282711029,0.04495896026492119,0.0159170962870121,0.015564867295324802,0.07697591185569763,0.026966800913214684,-0.2150244116783142,0.11581314355134964,0.06892360001802444,0.12591229379177094,0.2249169647693634,0.25971519947052,-0.28949350118637085,0.04687231034040451,0.07644360512495041,0.14952802658081055,0.13483913242816925,0.27811601758003235,-0.8461610674858093,-0.30762219429016113,-0.06424271315336227,0.1738825887441635,0.7188001871109009,0.6696018576622009,-2.2888925075531006,-0.003061003051698208,-1.035431146621704,-0.34776756167411804,-0.2695600390434265,0.6949086785316467,-0.3041713833808899,-0.6668738722801208,0.5096974968910217,-1.1815977096557617,0.5440906286239624,0.07734806090593338,0.41023901104927063,-0.2564840018749237,-0.2782149612903595,-0.2511667013168335,-0.3798598349094391,-0.2521808445453644,-0.1698114573955536,0.23809431493282318,0.14487327635288239,-0.2503594160079956,0.15045270323753357,0.03474334627389908,-0.32683077454566956,0.36541256308555603,0.5230456590652466,0.5345037579536438,0.39576202630996704,0.5547681450843811,0.011579976417124271,-0.10809275507926941,-0.15548212826251984,-0.13291096687316895,-0.15514500439167023,-0.15355941653251648,0.007383233401924372,-0.13805663585662842,-0.21474653482437134,-0.24194328486919403,-0.15633365511894226,-0.18666969239711761,0.04971741884946823,0.07673247903585434,0.10305342078208923,0.02614801563322544,0.12477792054414749,0.12168153375387192,-0.290579617023468,-0.03966260701417923,0.12190395593643188,0.14118178188800812,0.038259461522102356,0.0595281757414341,0.3587360382080078,0.017301879823207855,0.2674672603607178,0.3255760073661804,0.11378782987594604,0.18319857120513916,-0.40394726395606995,0.03362106531858444,-0.030434520915150642,0.0005028897430747747,0.048495229333639145,0.11944045126438141,-0.4240908622741699,-0.27687978744506836,-0.6439780592918396,0.27616003155708313,-0.009087827987968922,0.0721045508980751,-0.8677248954772949,-0.5333223938941956,0.4064891040325165,-0.6926010251045227,0.648705244064331,-0.22468142211437225,0.1407334953546524,0.8334242105484009,1.3568047285079956,0.2031150758266449,-0.6204034090042114,0.06406716257333755,-0.27081358432769775,0.0722741112112999,0.037918269634246826,0.026408856734633446,-0.0009773700730875134,-0.017124054953455925,-0.2744899392127991,0.04080631956458092,0.025420647114515305,0.011071442626416683,-0.003941766917705536,-0.02027694322168827,-0.7403141260147095,-0.059622589498758316,-0.02591547742486,-0.024483775720000267,-0.0027556491550058126,-0.0065548475831747055,-0.3351418972015381,-0.06358014047145844,-0.07512633502483368,-0.06651034206151962,0.026545440778136253,-0.20486997067928314,0.33893927931785583,-0.03216676414012909,-0.04681816324591637,-0.04006585478782654,0.017463011667132378,-0.08445092290639877,0.21449469029903412,0.04799581319093704,0.06082926690578461,0.0547688752412796,-0.02156493254005909,0.17527607083320618,0.140264630317688,-0.03655918315052986,-0.050182782113552094,0.02058243192732334,-0.01282081101089716,-0.05123584717512131,0.3591141700744629,0.014654584228992462,0.0030456928070634604,0.04512433335185051,-0.023738835006952286,0.16730454564094543,-0.026608819141983986,0.039210110902786255,0.06343970447778702,-0.004307319410145283,0.02982708252966404,0.22007150948047638,-0.32048070430755615,0.22841468453407288,-0.07916952669620514,0.23758184909820557,-0.2506692111492157,0.6191585659980774,-0.5180044174194336,0.14911533892154694,-0.1865418255329132,-0.3573446273803711,0.7668832540512085,-0.7484419345855713,0.24175286293029785,0.2999114394187927,0.4643961489200592,0.08276434987783432,-0.11189698427915573,0.46123671531677246,0.18310435116291046,0.14971637725830078,0.15018871426582336,0.1635756492614746,0.153692364692688,0.1859540194272995,-0.39434194564819336,0.10517659783363342,0.10661647468805313,0.10394362360239029,0.10168448835611343,0.09130053967237473,0.049461670219898224,-0.09117119014263153,-0.09007105231285095,-0.10195410251617432,-0.08724646270275116,-0.11735166609287262,0.5041178464889526,0.08055301755666733,0.047025490552186966,0.028939343988895416,-0.017353206872940063,-0.03476186841726303,-0.14334827661514282,0.04649554193019867,0.038493890315294266,0.04581671580672264,-0.0014362629735842347,0.04547317326068878,0.44996708631515503,-0.05764574930071831,-0.023894431069493294,0.005809714552015066,0.025063946843147278,0.08966714888811111,-0.43159326910972595,0.010069174692034721,0.06276281923055649,0.11581447720527649,0.13516494631767273,0.3349485993385315,0.419691264629364,0.04782089591026306,0.07671917229890823,0.0892951637506485,0.07076754420995712,0.13704945147037506,-0.08950667083263397,0.01637166179716587,-0.028851723298430443,-0.08180621266365051,-0.1145583987236023,-0.26651906967163086,0.22876693308353424,0.12348292768001556,0.20408311486244202,-0.06051814556121826,-1.9210749864578247,0.22472819685935974,-1.2923308610916138,0.5306735038757324,-0.4727437198162079,0.2380026876926422,0.08189254254102707,-0.23968146741390228,-0.5093449950218201,-0.3013836443424225,0.21330995857715607,0.021179480478167534,0.1470661163330078,-0.0985196903347969,0.0375448539853096,-0.05764777213335037,-0.09470944851636887,0.009775140322744846,-0.06278113275766373,0.13912992179393768,0.0469922199845314,-0.19898055493831635,-0.14691276848316193,-0.19636426866054535,-0.040506359189748764,0.1974722295999527,0.33225008845329285,0.018053559586405754,0.019079139456152916,0.047378554940223694,-0.20450811088085175,0.44128119945526123,0.05486812815070152,0.1827123612165451,-0.11581790447235107,-0.5404172539710999,0.09798266738653183,-0.05616717413067818,-0.287695050239563,0.2559913396835327,0.3933217227458954,0.26981139183044434,0.13991880416870117,0.07930339127779007,0.22559808194637299,0.2460583597421646,0.146746426820755,-0.5798516273498535,0.18124571442604065,-0.10064130276441574,0.1632089465856552,0.21314972639083862,0.14643873274326324,0.17387355864048004,0.11795572936534882,-0.1483490765094757,-0.10847315937280655,-0.04610896855592728,-0.001600495190359652,0.16561244428157806,0.08980358392000198,0.20493750274181366,0.15521574020385742,-0.41692256927490234,-0.2432987540960312,0.07403160631656647,-0.08554667234420776,0.17089992761611938,0.1767958551645279,0.09794625639915466,-0.39803481101989746,0.18179000914096832,1.6939395666122437,0.2300574779510498,-1.1757880449295044,0.4659578204154968,0.002592838602140546,0.3860267698764801,-0.5965248346328735,-0.10871647298336029,-0.3792736232280731,0.3632355332374573,-0.15473109483718872,-0.3461135923862457,-0.32242172956466675,0.4914109408855438,0.3097914755344391,-0.09962327778339386,-0.13586565852165222,0.18464727699756622,0.12703551352024078,-0.13497695326805115,-0.18871915340423584,-0.08739811182022095,0.149753600358963,0.14380799233913422,0.12476304173469543,0.07263191789388657,0.022836994379758835,0.19289883971214294,0.32764628529548645,0.015349628403782845,0.27739807963371277,-0.1663748174905777,-0.1700989007949829,0.22911566495895386,0.20974454283714294,0.04650765657424927,0.23257295787334442,-0.11399364471435547,0.27041563391685486,-0.057014450430870056,0.029142573475837708,-0.10053440928459167,0.08399482816457748,-0.09797606617212296,0.3666205108165741,-0.34097516536712646,-0.33045899868011475,-0.17235125601291656,-0.2112751603126526,0.06827230751514435,0.5319126844406128,-0.009111486375331879,-0.03314172849059105,-0.06708782911300659,-0.05476804077625275,-0.39150384068489075,-0.3669222295284271,-0.007246894761919975,0.10032496601343155,0.08878438174724579,-0.09533070772886276,-0.05290771648287773,-0.19148606061935425,-0.015737812966108322,0.15506164729595184,0.19294826686382294,0.048812150955200195,-0.019227106124162674,-0.18703338503837585,0.04514990374445915,-0.08790703117847443,-0.7086769938468933,0.38670575618743896,0.002015062840655446,0.03094741702079773,-0.004535806365311146,0.3698982894420624,0.8921435475349426,0.39614149928092957,-0.7165691256523132,-0.37744277715682983,0.2913888692855835,0.11023175716400146,0.5811877846717834,0.23263953626155853,-0.3566019535064697,0.6788243055343628,-0.07037494331598282,-0.08277104049921036,-0.04990636929869652,-0.06405448913574219,0.039996903389692307,-0.33100426197052,-0.03850041329860687,-0.03290678933262825,-0.008091137744486332,-0.00988607108592987,0.056754689663648605,-0.6919777989387512,0.0375453345477581,0.11525415629148483,0.0879683569073677,0.14420033991336823,0.1225714161992073,-0.5562152862548828,-0.17833420634269714,-0.11603100597858429,-0.11757627874612808,0.12968644499778748,0.4868236780166626,0.24205711483955383,-0.10275992751121521,0.051798224449157715,-0.030755743384361267,0.032667290419340134,0.05875718221068382,0.002261083573102951,0.14517201483249664,0.22329483926296234,0.21726387739181519,-0.10891535878181458,-0.08327668905258179,-0.4890916645526886,0.07440922409296036,0.1042829155921936,0.06093403324484825,-0.01721581071615219,-0.11530239880084991,-0.5197111964225769,0.03813416510820389,0.07910057157278061,0.02562408708035946,-0.0069591631181538105,-0.22174833714962006,0.15711812674999237,-0.02401684783399105,-0.05160859227180481,-0.04643882066011429,0.0019761554431170225,-0.01739821583032608,-0.20978696644306183,0.07128597795963287,-0.07399053871631622,0.11979960650205612,0.6121516823768616,-0.1769443154335022,1.296970248222351,0.1599273383617401,-0.01201639138162136,0.858884334564209,0.5214737057685852,0.1882258653640747,-0.4170171022415161,0.8571702241897583,-0.13711416721343994,0.22292108833789825,-0.28697097301483154,-0.020606184378266335,0.41497182846069336,-0.3111537992954254,-0.2626356780529022,-0.21206511557102203,-0.3193172216415405,-0.4537402093410492,0.15131621062755585,-0.16493292152881622,0.025006955489516258,-0.055725306272506714,0.03683588281273842,-0.155373677611351,0.477268248796463,0.12419948726892471,0.1612577885389328,-0.039224013686180115,0.16844061017036438,-0.022831685841083527,0.49936044216156006,-0.062031254172325134,-0.03994837775826454,-0.08902831375598907,-0.07371558994054794,0.03620945289731026,0.2875269651412964,0.04198065400123596,0.08924161642789841,0.04331135377287865,0.08818348497152328,0.21885499358177185,0.03550659120082855,0.15695469081401825,0.2021719366312027,0.226840078830719,0.2885735034942627,0.298916220664978,-0.8608876466751099,0.038910768926143646,0.057006873190402985,0.09587500244379044,0.06564751267433167,0.07214179635047913,0.32185474038124084,0.011106442660093307,-0.012051512487232685,0.028538649901747704,0.030590835958719254,0.04571106657385826,-0.4926769733428955,-0.03775941953063011,-0.09989341348409653,-0.11231517046689987,-0.06672568619251251,-0.03675230219960213,0.28960853815078735,0.20341618359088898,0.1881025731563568,-1.3261500597000122,-0.47912296652793884,-1.1972298622131348,0.1515335589647293,0.1392780840396881,-1.01748788356781,-0.6896027326583862,-0.5527540445327759,0.26134178042411804,0.7878649830818176,-0.4855557382106781,-0.07657770812511444,-0.87776780128479,0.6762427091598511,0.2066233903169632,0.22131064534187317,0.03246556222438812,-0.0015238780761137605,-0.01374649815261364,-0.03627081587910652,-0.036508709192276,0.36439046263694763,0.014584880322217941,-0.012353193014860153,-0.03274230286478996,-0.041323281824588776,-0.05663236230611801,-0.19544276595115662,-0.0947054922580719,-0.06769049912691116,-0.06844533979892731,-0.06578648090362549,-0.05352671816945076,0.46167105436325073,-0.01774543523788452,0.10399117320775986,0.13018612563610077,0.15964581072330475,0.20939528942108154,-0.04807146266102791,0.07375694811344147,0.17299701273441315,0.21657626330852509,0.2140262871980667,0.31356799602508545,-0.28393957018852234,0.21846188604831696,0.17152716219425201,0.16726012527942657,0.11836296319961548,0.15905673801898956,-0.3432924151420593,0.004120195284485817,0.0034317830577492714,0.020646948367357254,-0.015384586527943611,0.030391715466976166,-0.044951122254133224,-0.04750281199812889,-0.0006675833137705922,0.06102269887924194,-0.006875548977404833,0.025865454226732254,-0.8074396848678589,-0.043656542897224426,-0.029939953237771988,0.021734243258833885,-0.0033354731276631355,0.14319756627082825,-0.39696353673934937,-0.5550181865692139,0.11214946955442429,0.3676616847515106,-0.5703677535057068,-0.9708686470985413,-0.8212705254554749,-0.38947123289108276,0.2745321989059448,0.10737090557813644,0.466205358505249,0.7300170063972473,0.5982726216316223,-0.4075285494327545,0.14920960366725922,0.4614362120628357,-0.10306615382432938,-0.43491265177726746,0.3761478066444397,0.026165684685111046,0.0018252211157232523,0.011282624676823616,0.020618008449673653,0.014515096321702003,-0.32654353976249695,0.08234214037656784,0.03995651379227638,0.0729939341545105,0.06987372785806656,0.22510015964508057,0.4693364202976227,0.03175113722681999,0.033089570701122284,0.04989934340119362,0.09226728230714798,0.2731904983520508,-0.3716255724430084,0.06506430357694626,0.042319171130657196,0.04658930376172066,0.10202488303184509,0.08323831856250763,0.055929575115442276,0.209512397646904,0.12397009134292603,0.12806576490402222,0.15223607420921326,0.21075132489204407,0.7905654907226562,0.09949247539043427,0.05136245861649513,0.00548087852075696,0.11224880814552307,0.09863156825304031,0.14193402230739594,0.02987116016447544,-0.00805392861366272,0.005913659930229187,-0.06430807709693909,-0.053208380937576294,0.5242661237716675,0.0678989589214325,0.02542959339916706,0.03984608128666878,0.028018152341246605,-0.12649855017662048,0.6880419850349426,0.07630595564842224,0.08753881603479385,0.11158152669668198,0.06318215280771255,-0.042531974613666534,0.08075931668281555,0.1895337700843811,0.13435307145118713,0.19794626533985138,-0.766562819480896,0.4375339150428772,0.1617685854434967,-0.5215526819229126,-0.1323097050189972,-0.434151828289032,0.05506553128361702,-0.5483768582344055,-0.5941075682640076,0.43091633915901184,-0.3262755870819092,-0.15268465876579285,0.22821176052093506,0.5886002779006958,0.16530980169773102,0.07841967791318893,-0.09188536554574966,0.0860653892159462,0.09109087288379669,0.08335261791944504,0.9748252630233765,0.2147570699453354,-0.22123095393180847,0.2354743480682373,0.2739099860191345,0.22250695526599884,-0.33943605422973633,0.05490737035870552,0.06368584930896759,0.07471899688243866,0.144780233502388,0.010213478468358517,0.35950973629951477,0.056368857622146606,0.007509746588766575,0.07581139355897903,0.0314243882894516,0.05242239683866501,1.1565707921981812,0.1598094403743744,0.022188907489180565,0.2018641084432602,0.09442893415689468,0.13074049353599548,-0.45009517669677734,0.05661066621541977,0.029550379142165184,0.02829751931130886,0.07664274424314499,-0.012885098345577717,0.5480233430862427,-0.17058618366718292,-0.2705664336681366,-0.0630941390991211,0.013978542760014534,0.016639895737171173,-0.2453606128692627,-0.37626397609710693,-0.6148579716682434,-0.09328266978263855,0.11464439332485199,0.06820184737443924,-0.18523827195167542,0.20134375989437103,0.19602170586585999,0.19851908087730408,0.1883915364742279,0.07384875416755676,-0.21968743205070496,0.29999351501464844,-0.28744494915008545,-0.07263648509979248,0.27556511759757996,-0.3094754219055176,-0.6243521571159363,0.743694007396698,-1.2695318460464478,0.0051468368619680405,0.03255044296383858,-0.4808397889137268,0.5997868776321411,0.7293641567230225,-0.555616021156311,0.1489846259355545,-0.27606308460235596,-0.6093043088912964,-0.3190418481826782,-0.02327614650130272,-0.011408349499106407,0.04990570619702339,0.025907782837748528,-0.07715658843517303,-0.013655134476721287,-0.06512147933244705,-0.06428378075361252,0.10390131920576096,-0.07269655913114548,0.12100976705551147,0.11611399799585342,0.1936531960964203,-0.19151975214481354,0.12113403528928757,0.014735836535692215,-0.007736095227301121,0.13918615877628326,-0.1040949746966362,0.12695296108722687,-0.1918029636144638,0.07780991494655609,0.07991421222686768,-0.0803227499127388,0.35991066694259644,0.11961391568183899,-0.2749849259853363,-0.32673507928848267,0.02111867628991604,-0.1938835084438324,-0.04883383959531784,0.03254750743508339,-0.04887251928448677,-0.029926683753728867,-0.04006839916110039,-0.01974225416779518,0.05140335112810135,-0.04489096999168396,-0.08515745401382446,0.16606861352920532,0.15649372339248657,0.4659717381000519,0.12143346667289734,-0.34634214639663696,-0.4420686364173889,-0.07922528684139252,-0.1340644508600235,-0.03799619898200035,-0.19140781462192535,-0.10190782696008682,-0.12645044922828674,-0.21015103161334991,-0.09158331900835037,-0.46645358204841614,-0.25861606001853943,-0.3338639736175537,-0.24917703866958618,-0.04208455607295036,-0.15393561124801636,-0.31962716579437256,-0.12482615560293198,-0.06478174775838852,-0.13702411949634552,-0.003052196931093931,-0.07997465878725052,-0.06447181850671768,0.003969641402363777,-0.14910776913166046,0.3287101984024048,-0.24780988693237305,-0.20630942285060883,1.0592268705368042,0.8163532018661499,-0.1031239777803421,0.05007769167423248,0.03243645653128624,0.14372685551643372,-0.049476731568574905,0.23327313363552094,-0.03790996968746185,0.19181400537490845,0.12703482806682587,-0.1208135336637497,0.3972589075565338,-0.11210308223962784,-0.056573156267404556,-0.2891353368759155,-0.43628883361816406,0.04947974160313606,0.3062671720981598,-0.04559805616736412,0.006098740268498659,0.009678456000983715,0.0065552471205592155,-0.0046020932495594025,0.15189146995544434,0.1599058210849762,0.11253119260072708,0.33254361152648926,0.017920734360814095,0.20920442044734955,0.4839042127132416,0.2169131636619568,0.04240800067782402,-0.027715595439076424,0.060913391411304474,-0.058489348739385605,-0.03277759626507759,0.01810123771429062,0.06480669230222702,0.007542467676103115,0.09547221660614014,0.14990215003490448,0.011667554266750813,-0.05273003503680229,-0.4971512258052826,-0.5111711025238037,0.1808256357908249,-0.3260546028614044,-0.08395671844482422,-0.014723767526447773,-0.08876289427280426,-0.019672777503728867,0.01971534825861454,-0.11471717804670334,-0.10564153641462326,-0.08174480497837067,-0.024987701326608658,-0.12617012858390808,0.01924601010978222,0.15045282244682312,0.19542646408081055,0.4112490117549896,0.2939756512641907,-0.12650670111179352,-0.007671029772609472,0.7510239481925964,0.5628533363342285,2.658249616622925,-0.19203956425189972,-0.43903446197509766,-1.448667287826538,0.5814729928970337,0.4307675361633301,1.0608218908309937,0.022818421944975853,0.4196641743183136,0.7045158743858337,-0.9174697995185852,1.1400916576385498,0.6161038279533386,-0.6338939070701599,-0.6317667961120605,0.010335254482924938,-0.03351493552327156,-0.04940161108970642,-0.13075321912765503,-0.06469687074422836,-0.10377059876918793,-0.057308129966259,-0.24140067398548126,0.019519682973623276,0.028840193524956703,-0.009039505384862423,-0.12939684092998505,-0.09254588931798935,-0.1482350379228592,-0.2667304575443268,0.012699943035840988,-0.11096755415201187,-0.13113902509212494,-0.11537918448448181,-0.03199360519647598,0.09404642134904861,-0.09042520076036453,-0.2571413218975067,0.032375384122133255,-0.03707657381892204,-0.07016968727111816,-0.14743264019489288,-0.0009026219486258924,-0.10316456854343414,-0.3172299563884735,-0.012901797890663147,-0.02094506472349167,-0.012451309710741043,-0.051027849316596985,-0.024698380380868912,-0.042350348085165024,-0.037974052131175995,-0.26627394556999207,-0.016681592911481857,-0.01578224077820778,0.018265919759869576,-0.007633200380951166,-0.029004326090216637,0.0034813813399523497,0.003834105096757412,-0.09782613813877106,-0.056995801627635956,-0.0676954984664917,-0.08852462470531464,-0.06464537233114243,-0.06900347024202347,-0.07323088496923447,-0.0493755005300045,-0.016840647906064987,-0.007463918067514896,-0.08277226984500885,-0.02477937936782837,0.04465346783399582,-0.02888602204620838,0.2663567066192627,-0.1689242422580719,-0.13100384175777435,-0.10541949421167374,-0.10062792897224426,-0.14015048742294312,-0.02970067784190178,-0.11910473555326462,-0.06542476266622543,-0.0563114695250988,-0.1299828439950943,0.07042904943227768,-0.09790557622909546,-0.11687692999839783,-0.12733492255210876,0.25632691383361816,-0.03183533251285553,-0.022986412048339844,-0.030368436127901077,-0.016393467783927917,-0.026527071371674538,-0.03123510256409645,-0.02406974881887436,-0.043303124606609344,-0.03011486493051052,-0.0450509637594223,-0.040682751685380936,-0.045191314071416855,-0.07983620464801788,-0.019537968561053276,0.06898710131645203,-0.015218470245599747,0.037116553634405136,-0.01750248111784458,-0.03923263028264046,0.009439084678888321,-0.007064507342875004,0.0411570705473423,0.10573167353868484,0.10482606291770935,0.02317753992974758,0.032913342118263245,0.09089880436658859,0.10577090084552765,0.11483357846736908,0.8438989520072937,-0.04428389295935631,0.001071952865459025,-0.016559889540076256,0.0660751685500145,0.14894922077655792,0.14959780871868134,0.020507873967289925,0.19259054958820343,0.10984819382429123,0.03710673376917839,0.06908564269542694,0.03833676874637604,-0.1124177873134613,0.179136261343956,0.5299619436264038,-0.06406883895397186,-0.043621376156806946,-0.048825886100530624,-0.07984650135040283,-0.07650034874677658,-0.05807062238454819,-0.03863274306058884,-0.038588713854551315,0.005789758171886206,-0.006535645108669996,0.02743370085954666,0.02736750803887844,0.004052757751196623,-0.02809183858335018,0.20632021129131317,-0.4066818654537201,0.6462947130203247,0.51859450340271,0.12536567449569702,0.1619105339050293,-0.2633177638053894,0.48715490102767944,-0.660900890827179,-0.17167356610298157,0.35561603307724,-0.17257465422153473,-0.09552577883005142,-0.046329397708177567,0.010552207939326763,0.04237980768084526,0.1768125295639038,-0.726246178150177,-0.00957898236811161,-0.17771334946155548,0.2517207860946655,-0.19289997220039368,-0.19127415120601654,-0.0723293349146843,0.07569089531898499,0.02452794834971428,-0.21242883801460266,0.3264354169368744,0.3098946213722229,-0.018807340413331985,-0.3398217558860779,-0.1333528310060501,0.21310998499393463,0.2478175014257431,-0.0905412957072258,0.07733039557933807,-0.3863424062728882,0.015119385905563831,-0.04235855117440224,0.1902007907629013,-0.07743395864963531,0.13231393694877625,-0.26958510279655457,0.10578698664903641,-0.04749320074915886,-0.1468300074338913,0.052862975746393204,-0.16458287835121155,0.3814522922039032,-0.06502491235733032,0.0506521575152874,0.002761644311249256,-0.12452968209981918,0.23007266223430634,0.8272762298583984,0.00031158659840002656,-0.05248698219656944,0.26708272099494934,0.08505275100469589,0.3326264023780823,-0.28588753938674927,-0.11080214381217957,-0.01356577593833208,-0.4013797640800476,-0.1439567655324936,-0.39422816038131714,0.2553890347480774,-0.12605424225330353,0.030677905306220055,-0.07599323242902756,0.1569368839263916,-0.18355198204517365,0.28048157691955566,-0.17348028719425201,-0.6792579293251038,0.14200827479362488,-0.35782864689826965,-0.2668868899345398,-0.6210081577301025,0.5613099336624146,0.20468036830425262,0.2755187451839447,0.017900973558425903,-0.3034226596355438,-0.11793576180934906,-0.6711571216583252,-0.977367639541626,0.6311572790145874,0.3143470585346222,-0.13435618579387665,0.537467896938324,-0.02650396153330803,-0.06270603090524673,-0.06181561201810837,0.014506202191114426,-0.2127508670091629,0.18717029690742493,0.00722870510071516,0.010909836739301682,0.0752868726849556,-0.12628932297229767,0.33554038405418396,-0.48037371039390564,-0.026378577575087547,0.004454357083886862,-0.0002750407438725233,-0.010044551454484463,0.03334098309278488,-0.47035178542137146,-0.09916568547487259,-0.299749493598938,-0.3094199597835541,0.07513333857059479,0.10364637523889542,0.029840046539902687,0.0032866843976080418,-0.13720005750656128,-0.31564465165138245,-0.2280300110578537,-0.0838005542755127,0.0970182791352272,0.07137563824653625,-0.24017556011676788,-0.029715361073613167,0.11024385690689087,-0.012726237066090107,0.04468628391623497,-0.023528944700956345,0.0050835688598454,0.003229561261832714,-0.13933826982975006,-0.017732152715325356,0.07856177538633347,-0.03868751600384712,0.002697827760130167,-0.1296130120754242,0.10138226300477982,0.07155437767505646,0.15480861067771912,0.012339435517787933,-0.017599670216441154,-0.011702817864716053,-0.048570603132247925,-0.14294302463531494,-0.4643096327781677,-0.9355749487876892,-0.1891276091337204,-0.32616499066352844,0.3273926079273224,0.2740709185600281,-0.3223179280757904,-0.42702269554138184,-0.6889991164207458,-0.3217010498046875,0.6994612216949463,-0.393158882856369,-0.25127655267715454,0.6318964958190918,-0.05544796958565712,0.8535230755805969,0.26667192578315735,-0.8819423317909241,-0.21121229231357574,-0.1584501713514328,0.09863898158073425,-0.010372371412813663,-0.006355833727866411,0.07542259991168976,0.011857236735522747,-0.02102281153202057,0.09746251255273819,0.3228774666786194,-0.04818953573703766,0.010909358970820904,-0.2666420340538025,-0.06478412449359894,0.01718883030116558,-0.3256846070289612,-0.10468152910470963,-0.06920710951089859,-0.2008579522371292,-0.03346515819430351,-0.08408307284116745,-0.16999879479408264,0.10686849057674408,0.08241155743598938,0.3762281537055969,-0.03546857088804245,-0.14999881386756897,-0.2693508267402649,-0.22131620347499847,-0.22730332612991333,-0.059865836054086685,-0.206523135304451,-0.4695165455341339,-0.5324810147285461,-0.24068661034107208,-0.3208261728286743,-0.13653258979320526,-0.009169578552246094,0.01899651065468788,0.00017582025611773133,0.02801337093114853,0.06371891498565674,0.026729239150881767,0.0028008371591567993,-0.009711116552352905,0.010574009269475937,0.027967052534222603,-0.09592314809560776,-0.051607418805360794,0.014677096158266068,0.005552875809371471,0.03911101073026657,0.021311819553375244,0.11903779953718185,0.8411378264427185,-0.39870527386665344,0.5230327248573303,0.2958694398403168,0.1890619695186615,-0.8719435930252075,-0.23483121395111084,0.5929004549980164,-0.6613466739654541,-0.0917566791176796,0.38183507323265076,-0.5196322798728943,0.2814320921897888,0.17420880496501923,0.0066703311167657375,0.7822831273078918,0.6658939123153687,-1.0257751941680908,-0.9256038665771484,0.10460275411605835,0.0948098823428154,0.08010197430849075,0.09491144120693207,0.03945336863398552,0.47854146361351013,-0.011878186836838722,-0.09466066211462021,-0.05031224712729454,-0.08256107568740845,-0.09505611658096313,-0.5560066103935242,0.024087343364953995,0.029934469610452652,0.02891690656542778,0.006120988633483648,0.023328492417931557,-1.6511452198028564,-0.10596568137407303,-0.08838488906621933,-0.10273826867341995,-0.12148202210664749,-0.10048319399356842,0.46828874945640564,0.015536263585090637,0.014807858504354954,-0.03375941514968872,0.03290771692991257,-0.020007461309432983,-0.9313611388206482,-0.035138651728630066,-0.05601886659860611,-0.07067190110683441,-0.03598076105117798,-0.12103063613176346,-0.748668909072876,-0.2704373300075531,-0.3000524640083313,-0.23413099348545074,-0.3134818971157074,-0.3823859989643097,0.40189582109451294,-0.3673313558101654,-0.33340102434158325,-0.2868419289588928,-0.3978954255580902,-0.30805426836013794,-0.308509886264801,-0.12737983465194702,-0.13878899812698364,-0.16331429779529572,-0.1803494691848755,-0.1486366093158722,0.2660488486289978,0.28820499777793884,-0.1364898383617401,0.2396567463874817,-0.09939275681972504,0.01195688359439373,-0.6274961233139038,0.7257099747657776,0.2860657572746277,-0.5995458960533142,-0.35066819190979004,0.6345073580741882,-0.22989735007286072,-0.46774381399154663,-0.3981722295284271,-0.7210542559623718,0.13918855786323547,-0.5512633323669434,0.24625732004642487,-0.1478118747472763,-0.07067931443452835,-0.12681782245635986,-0.10844932496547699,-0.09695767611265182,0.967804491519928,0.0017849326832219958,-0.02457040548324585,-0.25065505504608154,-0.20495125651359558,-0.13966180384159088,-0.28294163942337036,-0.13785278797149658,-0.05304119363427162,-0.14210282266139984,-0.11337146908044815,-0.11714974790811539,-0.7848685383796692,0.3203381299972534,0.12359680980443954,0.08803997188806534,0.14423854649066925,0.09248461574316025,0.15686094760894775,-0.23268388211727142,-0.22687414288520813,-0.24776355922222137,-0.220724418759346,-0.16542431712150574,-0.5778791308403015,0.27042731642723083,0.12767495214939117,0.12150414288043976,0.2171734869480133,0.11448819190263748,-0.24934877455234528,0.05187740921974182,-0.16246505081653595,-0.3248879313468933,-0.3830069601535797,-0.27610814571380615,0.27910831570625305,-0.0750712901353836,-0.23060055077075958,-0.40431708097457886,-0.4027307331562042,-0.20404450595378876,-0.06570473313331604,0.012086006812751293,-0.14588961005210876,-0.2817365527153015,-0.27995291352272034,-0.20761480927467346,0.3898122012615204,0.18105384707450867,0.562382161617279,-0.06656507402658463,-0.18960216641426086,0.2949483394622803,-0.38756871223449707,-0.10151729732751846,0.2287386804819107,-0.1694224774837494,-0.46720799803733826,0.5565491318702698,-0.644361138343811,-0.18655051290988922,0.5521433353424072,-0.21246500313282013,0.6072264313697815,-0.059674497693777084,-0.3907482922077179,-0.17772124707698822,-0.0939934179186821,0.037096478044986725,0.22208711504936218,0.22899563610553741,0.16887053847312927,-0.10395547747612,0.03854690119624138,-0.003917858470231295,0.05256872624158859,0.2748527228832245,0.28260737657546997,-0.10813651233911514,-0.11675259470939636,0.02274848148226738,0.09182349592447281,0.03731594607234001,0.11684341728687286,-0.2967851161956787,-0.2659623324871063,-0.20182977616786957,-0.2831573486328125,0.05357002094388008,0.4075899124145508,-0.16842545568943024,-0.03605296090245247,-0.12741869688034058,0.04923766478896141,0.026147235184907913,0.02573629468679428,-0.1643722951412201,-0.18921321630477905,-0.11359744518995285,-0.23244665563106537,0.06618058681488037,-0.658710241317749,0.45754095911979675,0.2605583071708679,0.33206906914711,0.16664151847362518,0.4029659032821655,-0.07709876447916031,0.21701501309871674,-0.14261960983276367,0.3154810070991516,-0.17874747514724731,-0.18280437588691711,0.15828771889209747,0.44876188039779663,0.31331977248191833,0.2733217775821686,0.2442980706691742,0.5069177746772766,0.14237764477729797,0.025743748992681503,-0.1645836979150772,0.06320777535438538,0.008044288493692875,0.2770206332206726,0.023894505575299263,0.2824036478996277,0.0691990926861763,-0.08918173611164093,-0.5803924798965454,-0.06789974123239517,0.3862365484237671,-0.3819769322872162,0.9967476725578308,-1.4768186807632446,0.22282427549362183,0.0010358705185353756,-0.1595788151025772,0.02799377404153347,-0.025566784664988518,-0.10435319691896439,-0.1408272534608841,0.10258374363183975,0.4612319767475128,0.0008200340089388192,-0.07467203587293625,-0.14513444900512695,-0.17952905595302582,0.1886192262172699,-0.5292679667472839,-0.06947381794452667,0.1306329220533371,0.22423604130744934,0.48165619373321533,0.1523388773202896,-0.7185037732124329,-0.048318393528461456,-0.06841854751110077,-0.026179319247603416,-0.06268507987260818,-0.10351084917783737,0.9183130264282227,-0.07451758533716202,-0.11939346790313721,-0.06850754469633102,-0.08269388973712921,-0.2654217481613159,-0.22771432995796204,0.13411672413349152,0.03369247540831566,-0.14092597365379333,-0.24264012277126312,-0.06787347793579102,-0.236854687333107,-0.04509803280234337,-0.12242190539836884,-0.03951439633965492,-0.12523607909679413,0.061828479170799255,-0.32651573419570923,-0.06322452425956726,-0.20297369360923767,-0.07362684607505798,-0.17092663049697876,0.006074788048863411,-0.5259741544723511,-0.15721125900745392,-0.1300729513168335,-0.10944250226020813,0.09514416009187698,0.0765487477183342,0.14157533645629883,0.13198858499526978,-0.0013865050859749317,0.14063213765621185,-0.15097984671592712,0.4775150418281555,-0.3524276912212372,8.606904087341744e-39,-3.7347406671185025e-41,4.069077869020225e-39,-7.048556498926188e-39,1.1377289368191944e-38,6.22104351289306e-39,-8.143588572186637e-39,2.5390799498364236e-39,-1.3309981229665696e-38,1.6902441057208979e-38,1.4170854928239005e-38,-1.193521635176287e-38,0.007670408580452204,0.04544959217309952,-0.01060695480555296,-0.022919045761227608,0.0341033972799778,0.12384409457445145,-0.0910799503326416,0.09204930812120438,0.12122965604066849,-0.17411743104457855,-0.08568603545427322,0.015330826863646507,0.027325330302119255,0.018092019483447075,0.009039725176990032,0.010797317139804363,-0.03347913175821304,-0.0194406695663929,0.0031842731405049562,0.09339955449104309,-0.0820964053273201,0.016350269317626953,0.05767052248120308,0.08431787043809891,0.10092059522867203,-0.262591689825058,-0.24952417612075806,-0.05252603814005852,-0.03722097724676132,-0.020902985706925392,-0.011471439152956009,-0.013346089981496334,-0.010420515201985836,-0.0005894798669032753,0.029965821653604507,-0.029415225610136986,-0.003991168458014727,-0.05516945198178291,-0.010877668857574463,-0.01101028360426426,-0.046288736164569855,0.2081073820590973,0.1991206407546997,0.027519188821315765,0.01366126537322998,0.029383191838860512,0.002422609366476536,-0.004335100296884775,-0.11099499464035034,0.009029358625411987],"sample_rate":48000.0}},{"max_value":1.0,"model":{"version":"0.7.0","metadata":{"date":{"year":2026,"month":5,"day":16,"hour":1,"minute":51,"second":43},"loudness":-16.91440200805664,"gain":0.7947940477314205},"architecture":"WaveNet","config":{"layers":[{"input_size":1,"condition_size":1,"head":{"out_channels":1,"kernel_size":16,"bias":true},"channels":8,"kernel_sizes":[6,6,6,6,6,6,6,6,6,6,6,6,6,6,15,15,6,6,6,6,6,6,6],"dilations":[1,3,7,17,41,101,239,1,3,7,17,41,101,239,1,13,1,3,7,17,41,101,239],"activation":[{"type":"LeakyReLU","negative_slope":0.01},{"type":"LeakyReLU","negative_slope":0.01},{"type":"LeakyReLU","negative_slope":0.01},{"type":"LeakyReLU","negative_slope":0.01},{"type":"LeakyReLU","negative_slope":0.01},{"type":"LeakyReLU","negative_slope":0.01},{"type":"LeakyReLU","negative_slope":0.01},{"type":"LeakyReLU","negative_slope":0.01},{"type":"LeakyReLU","negative_slope":0.01},{"type":"LeakyReLU","negative_slope":0.01},{"type":"LeakyReLU","negative_slope":0.01},{"type":"LeakyReLU","negative_slope":0.01},{"type":"LeakyReLU","negative_slope":0.01},{"type":"LeakyReLU","negative_slope":0.01},{"type":"LeakyReLU","negative_slope":0.01},{"type":"LeakyReLU","negative_slope":0.01},{"type":"LeakyReLU","negative_slope":0.01},{"type":"LeakyReLU","negative_slope":0.01},{"type":"LeakyReLU","negative_slope":0.01},{"type":"LeakyReLU","negative_slope":0.01},{"type":"LeakyReLU","negative_slope":0.01},{"type":"LeakyReLU","negative_slope":0.01},{"type":"LeakyReLU","negative_slope":0.01}],"bottleneck":8,"head1x1":{"active":false,"out_channels":1,"groups":1},"layer1x1":{"active":true,"groups":1},"groups_input":1,"groups_input_mixin":1,"conv_pre_film":{"active":false,"shift":true,"groups":1},"conv_post_film":{"active":false,"shift":true,"groups":1},"input_mixin_pre_film":{"active":false,"shift":true,"groups":1},"input_mixin_post_film":{"active":false,"shift":true,"groups":1},"activation_pre_film":{"active":false,"shift":true,"groups":1},"activation_post_film":{"active":false,"shift":true,"groups":1},"layer1x1_post_film":{"active":false,"shift":true,"groups":1},"head1x1_post_film":{"active":false,"shift":true,"groups":1},"gating_mode":["none","none","none","none","none","none","none","none","none","none","none","none","none","none","none","none","none","none","none","none","none","none","none"],"secondary_activation":[null,null,null,null,null,null,null,null,null,null,null,null,null,null,null,null,null,null,null,null,null,null,null],"slimmable":null}],"head":null,"head_scale":0.009029358194803798},"weights":[0.7119327783584595,2.831381320953369,2.348999261856079,-2.235085964202881,2.294782876968384,2.418498992919922,2.9431843757629395,1.370176076889038,-0.0928720161318779,-0.32428306341171265,-0.01870148628950119,-0.20021434128284454,0.03825901821255684,0.44444209337234497,-0.01584751531481743,-0.20957624912261963,-0.0010471477871760726,-0.447166383266449,0.17007307708263397,0.4876297116279602,-0.12408188730478287,-0.3204188644886017,-0.018683770671486855,-0.3043992519378662,0.14697067439556122,0.5824006199836731,0.15487085282802582,0.1917024850845337,0.07403182983398438,0.3869529366493225,-0.007500255946069956,-0.6175932884216309,-0.04908885434269905,-0.410186231136322,-0.07283440232276917,-0.33212774991989136,0.12750676274299622,0.6759020090103149,-0.061778753995895386,-0.2873738706111908,-0.1637628674507141,-0.24177595973014832,0.14220312237739563,0.46022510528564453,-0.038411322981119156,-0.325305312871933,-0.13670063018798828,-0.3523673117160797,0.1603921800851822,0.7042683959007263,-0.11738643795251846,-0.19809485971927643,-0.023429028689861298,-0.33325839042663574,0.03727281466126442,0.5569956302642822,0.018952317535877228,-0.0537341833114624,0.019618377089500427,-0.09287194907665253,0.034120555967092514,0.14584608376026154,-0.03610654175281525,-0.02986328862607479,0.046164240688085556,-0.13699135184288025,-0.020949235185980797,0.35295942425727844,-0.0450766496360302,-0.15711462497711182,0.016400590538978577,-0.12267161905765533,0.08847533911466599,0.35588201880455017,-0.010925335809588432,0.06255771964788437,-0.09140066802501678,0.19496624171733856,-0.10864832252264023,-0.24986715614795685,-0.04810408502817154,-0.000866156886331737,0.16465897858142853,-0.10907997936010361,0.020786631852388382,0.3161676824092865,-0.0211505014449358,-0.11642840504646301,0.0776858851313591,-0.169077530503273,0.12425769865512848,0.29608291387557983,0.04454781115055084,-0.1782560497522354,0.10549429804086685,-0.25620707869529724,0.04890647903084755,0.3270426094532013,0.04559607803821564,-0.04650681093335152,0.10916251689195633,-0.13809604942798615,-0.001638768590055406,0.2362494021654129,0.11903584748506546,-0.07839502394199371,0.07247807830572128,-0.13487635552883148,0.06634090095758438,0.12501811981201172,0.23170629143714905,-0.20498231053352356,0.1860899180173874,-0.376915842294693,0.23249457776546478,0.43020978569984436,0.23168648779392242,-0.2159547507762909,0.1874636560678482,-0.3566243052482605,0.15323694050312042,0.38388708233833313,-0.31000080704689026,0.23945021629333496,-0.22560839354991913,0.3439248204231262,-0.15230794250965118,-0.36737561225891113,0.32250919938087463,-0.2570909857749939,0.19256459176540375,-0.39696964621543884,0.1978377401828766,0.4005137085914612,0.26720529794692993,-0.24278496205806732,0.239058718085289,-0.4038420617580414,0.15884849429130554,0.3691142797470093,0.3311484456062317,-0.3042173385620117,0.19788335263729095,-0.467327356338501,0.2316640317440033,0.4584137797355652,0.21831150352954865,-0.1402614563703537,0.1372562050819397,-0.24622495472431183,0.12277280539274216,0.2338791936635971,0.001574433990754187,0.014088680036365986,0.041933298110961914,-0.08274583518505096,-0.0037523843348026276,0.19602034986019135,-0.043470706790685654,0.08347451686859131,0.0009915747214108706,-0.1564745306968689,-0.03714432567358017,0.29459983110427856,0.05597733333706856,0.0746050477027893,-0.013331437483429909,-0.07418546080589294,0.029615692794322968,0.2380644828081131,0.03607191890478134,-0.022143416106700897,0.024039635434746742,0.09815143793821335,0.0320877842605114,-0.285339891910553,-0.06181470677256584,-0.11410430073738098,-0.007064101751893759,-0.10773789882659912,-0.04124274104833603,0.24128232896327972,-0.05794554203748703,-0.08478934317827225,-0.024400552734732628,-0.011343281716108322,-0.08368531614542007,0.35809341073036194,-0.11496614664793015,-0.10059444606304169,0.07390252500772476,-0.011858096346259117,-0.08960185945034027,0.37785857915878296,-0.0787934809923172,0.02894943207502365,0.1074744239449501,-0.07690597325563431,-0.06585204601287842,0.15797336399555206,-0.02190314047038555,0.11380425840616226,0.0626857578754425,0.14839030802249908,-0.14871586859226227,-0.27449920773506165,-0.007103134877979755,0.15970362722873688,0.07028385996818542,0.2833573818206787,-0.2827584147453308,-0.40408822894096375,-0.002141948090866208,0.19704140722751617,0.0790310874581337,0.2484591156244278,-0.19196565449237823,-0.4116579592227936,-0.018678860738873482,-0.14912234246730804,-0.09226212650537491,-0.2580595016479492,0.24134422838687897,0.46161070466041565,0.013597757555544376,0.12117013335227966,0.07546012848615646,0.29156261682510376,-0.23491162061691284,-0.4909617304801941,-0.025944354012608528,0.20040731132030487,0.12076760828495026,0.2770805358886719,-0.23373961448669434,-0.4032430350780487,0.016264628618955612,0.2397145926952362,0.07586608827114105,0.3051075339317322,-0.2279885709285736,-0.4473903179168701,-0.06047589331865311,0.10055471956729889,0.03969991207122803,0.17746733129024506,-0.18116381764411926,-0.30608758330345154,-0.01712622493505478,-0.2626512944698334,-0.1063157171010971,-0.3912058472633362,0.2589263916015625,0.46803727746009827,-0.04409703612327576,-0.35244041681289673,5.8280016673961654e-05,-0.36136868596076965,0.34547901153564453,0.6875516176223755,-0.039719708263874054,-0.21809671819210052,-0.07338541001081467,-0.446847528219223,0.36329105496406555,0.5462560057640076,0.05503777414560318,0.16298004984855652,0.11461904644966125,0.36700624227523804,-0.3736708462238312,-0.5662246942520142,-0.034279193729162216,-0.16259127855300903,-0.09747837483882904,-0.34318944811820984,0.30258795619010925,0.6627378463745117,0.0858973041176796,-0.21961845457553864,-0.023708224296569824,-0.4783931076526642,0.2404562532901764,0.6130141615867615,0.029422983527183533,-0.1773543804883957,-0.2043934166431427,-0.38037365674972534,0.3149954080581665,0.5371160507202148,0.06337069720029831,-0.32822030782699585,-0.09372663497924805,-0.28509384393692017,0.30430570244789124,0.510044276714325,0.014146489091217518,0.012372189201414585,0.02010233886539936,0.021722033619880676,0.017101246863603592,0.004683938808739185,0.045785583555698395,0.05855138227343559,0.0733150988817215,0.10943643748760223,0.06448844820261002,0.010610073804855347,0.04142413288354874,0.045755814760923386,0.06292301416397095,0.08373787999153137,0.05188927426934242,0.008694063872098923,-0.03960966318845749,-0.04336745664477348,-0.06255020946264267,-0.08394017070531845,-0.05089908465743065,-0.009959192015230656,0.042111821472644806,0.04793558269739151,0.06410570442676544,0.08971676975488663,0.052427954971790314,0.008458745665848255,0.041260745376348495,0.04747365042567253,0.06579712778329849,0.09091398864984512,0.05328067019581795,0.009523577988147736,0.056162089109420776,0.05317499488592148,0.08652495592832565,0.12014089524745941,0.05926479399204254,0.012947757728397846,0.02481979690492153,0.024827338755130768,0.03659582883119583,0.044788382947444916,0.031193368136882782,0.00758886756375432,-0.018997108563780785,-0.1432597041130066,0.09858962893486023,-0.16905298829078674,0.15193608403205872,0.6309536695480347,0.07486008107662201,-0.32470905780792236,0.13003449141979218,-0.45040804147720337,0.17686955630779266,1.31731379032135,-0.016713503748178482,-0.18607960641384125,0.18247441947460175,-0.31714025139808655,0.2688739001750946,1.3044003248214722,-0.11714110523462296,0.25814247131347656,-0.1571367233991623,0.31604981422424316,-0.30754175782203674,-1.2895067930221558,-0.0120780598372221,-0.26189368963241577,0.2352355271577835,-0.36163729429244995,0.140655979514122,1.3388729095458984,0.023821694776415825,-0.343591570854187,0.17874789237976074,-0.3163778483867645,0.153531014919281,1.2662702798843384,0.10850116610527039,-0.34923428297042847,0.20321698486804962,-0.38950315117836,0.21728160977363586,1.5045326948165894,0.0937877669930458,-0.21043293178081512,0.07111373543739319,-0.22277586162090302,0.19741924107074738,0.9458722472190857,0.02302456647157669,0.3509067893028259,0.27805840969085693,0.4513271152973175,-0.15495829284191132,0.21023841202259064,-0.5116525292396545,0.3919462263584137,1.4483859539031982,0.46171602606773376,0.26183927059173584,0.7631247639656067,-0.6691997647285461,0.6003594994544983,0.0074992710724473,1.274357557296753,-1.832262396812439,0.2528444230556488,-0.17724241316318512,0.13664980232715607,0.08392209559679031,-0.3414158523082733,0.13100796937942505,-0.2552867531776428,0.5995951890945435,0.1744919866323471,0.36386191844940186,0.3990922272205353,-0.1786443591117859,0.5263233184814453,0.2828824520111084,0.1200437918305397,0.36574235558509827,0.1951228231191635,0.3689021170139313,0.11821571737527847,-0.7446046471595764,0.7697756886482239,0.26418086886405945,0.18293659389019012,-0.7962989211082458,0.0077417343854904175,-0.483495831489563,0.06387154757976532,0.7621225118637085,-0.6179304122924805,0.3025986850261688,-0.521547794342041,0.18033725023269653,0.27607718110084534,0.20163020491600037,0.3573206663131714,-0.1695929914712906,0.43220558762550354,-0.25584590435028076,0.42797157168388367,1.1868411302566528,0.15921133756637573,-0.1279350221157074,-0.3101573586463928,-1.0562106370925903,0.6411281228065491,-0.06557630747556686,0.1592911183834076,0.9670719504356384,0.09533818066120148,-0.23969177901744843,0.6435995101928711,-0.22968073189258575,0.32139521837234497,0.15625151991844177,0.6047871708869934,-1.1877222061157227,-0.1605684608221054,-0.14364895224571228,-0.3695283830165863,0.697304368019104,-0.532690167427063,0.09536575525999069,0.2539824843406677,0.058139219880104065,-0.2321004420518875,0.03564649075269699,-0.09112299978733063,-0.33248189091682434,-0.06773743778467178,-0.13436944782733917,0.15253855288028717,-0.05285707861185074,-0.11501457542181015,-0.1296628713607788,-0.32849258184432983,-0.159575954079628,0.6287268400192261,0.06825543940067291,0.10899969935417175,0.08696899563074112,-0.01360352337360382,0.1459791511297226,0.07276536524295807,-0.01886257901787758,-0.11187820881605148,0.03576274961233139,-0.10504534840583801,-0.06334187835454941,0.27051854133605957,-0.0307939313352108,0.13737821578979492,0.03662760555744171,0.1259586364030838,0.16258272528648376,0.10579077154397964,-0.04989033564925194,0.014987384900450706,0.08777111768722534,-0.06287388503551483,0.1202225610613823,0.12285763770341873,0.050215888768434525,-0.01271740160882473,-0.10059695690870285,-0.11002248525619507,-0.09477940946817398,-0.21667230129241943,0.013089722953736782,0.08038953691720963,-0.014267086051404476,-0.0011486089788377285,0.23528002202510834,-0.2338605672121048,0.13122491538524628,-0.06112918257713318,-0.1088622510433197,-0.12743116915225983,-0.004719069693237543,0.23943576216697693,0.010936284437775612,0.11435771733522415,0.10845082998275757,0.043657589703798294,0.03589474782347679,0.6060600876808167,-0.10602625459432602,0.0608801394701004,-0.06882283091545105,0.02372906543314457,-0.1217300295829773,-0.10395152121782303,-0.01204444095492363,0.17149172723293304,-0.07902591675519943,-0.048846177756786346,0.10498359054327011,0.12231939285993576,0.015617568045854568,0.05294150486588478,-0.08519232273101807,0.03795331344008446,-0.06412529945373535,-0.30472180247306824,-0.06465154886245728,-0.0840788260102272,-0.05296110734343529,-0.08246143162250519,-0.051418062299489975,0.19331803917884827,0.11967004835605621,0.1366332620382309,0.12242517620325089,0.04568194970488548,-0.08062421530485153,-0.7526349425315857,-0.004479828756302595,-0.06796997040510178,-0.13534674048423767,0.02192039228975773,-0.06518007814884186,0.21162964403629303,-0.008504614233970642,0.04789306968450546,-0.031117413192987442,0.10371504724025726,0.004078831057995558,0.09339796006679535,0.11075139045715332,-0.10025875270366669,-0.08875233680009842,-0.19102923572063446,-0.10796564817428589,-0.16934597492218018,-0.050430264323949814,-0.052686143666505814,-0.0025532315485179424,-0.1002843976020813,-0.04356076195836067,0.16050472855567932,0.05200088769197464,-0.0209465604275465,-0.057081833481788635,0.046905066817998886,-0.1256672888994217,0.010276141576468945,-0.02810305543243885,0.0593157634139061,0.008548379875719547,-0.09028923511505127,0.10193450003862381,-0.10034996271133423,-0.05997481197118759,-0.06285915523767471,-0.03920368477702141,-0.18389344215393066,-0.15148037672042847,-0.08249329030513763,0.12731881439685822,0.055719975382089615,0.0609976127743721,0.15750494599342346,0.3710137903690338,0.33690381050109863,-0.018678605556488037,-0.13756637275218964,-0.050021491944789886,-0.24755164980888367,-0.015583130531013012,0.13108240067958832,0.005410411860793829,-0.014304039068520069,0.08981291204690933,0.041242536157369614,0.060314055532217026,-0.046636927872896194,-0.031139066442847252,0.0013073851587250829,0.06304717063903809,-0.10035119205713272,-0.12794877588748932,-0.7531774044036865,-0.10183655470609665,0.0416337288916111,-0.09731322526931763,-0.10119666159152985,-0.26501181721687317,-0.24929401278495789,0.06519702076911926,0.06274966895580292,0.06508655101060867,0.0567779466509819,0.022907031700015068,-0.4651086926460266,-0.07997515797615051,0.03409619629383087,0.008978531695902348,-0.02403947152197361,-0.19875027239322662,0.19504804909229279,-0.02268325909972191,-0.07596449553966522,-0.033599287271499634,-0.08998396247625351,-0.11445730924606323,-0.4718244969844818,-0.056808952242136,0.02124916762113571,0.022538479417562485,-0.05705492943525314,-0.05194680392742157,0.030263841152191162,-0.03463658690452576,-0.014401162043213844,0.08365216106176376,0.05137097090482712,-0.23525914549827576,-0.6921852827072144,-0.022163458168506622,0.005934123415499926,-0.0034789699129760265,0.022148320451378822,-0.04800010472536087,-0.022001449018716812,0.016773361712694168,0.10825234651565552,0.22190067172050476,-0.13334789872169495,-0.3436700701713562,0.48100852966308594,0.09588634222745895,0.08285682648420334,0.23010234534740448,-0.03708884119987488,-0.1235787644982338,-0.27509361505508423,0.14579471945762634,0.04507806524634361,0.19835646450519562,0.05656534433364868,0.04941333830356598,-0.18722930550575256,-0.026195745915174484,-0.1192450299859047,-0.15431922674179077,0.035674117505550385,-0.13776767253875732,0.16517983376979828,0.06336552649736404,0.1419733613729477,0.06596586108207703,-0.038715604692697525,-0.01173893827944994,-0.2012997716665268,-0.22766070067882538,-0.19093655049800873,-0.169517382979393,-0.10930772125720978,-0.2582370340824127,-1.3589577674865723,0.18377776443958282,0.05953575670719147,0.16987641155719757,0.168509840965271,-0.15799690783023834,-0.2978036105632782,0.24928809702396393,-0.04064815863966942,0.03663711994886398,-0.07092481851577759,-0.242129385471344,0.006812023930251598,0.1269746571779251,0.013205952942371368,-0.1180560365319252,-0.09298049658536911,-0.27198466658592224,-0.39572128653526306,0.07258410006761551,0.055728767067193985,0.020818375051021576,0.1251169741153717,0.14157333970069885,0.003762264735996723,-0.023364977911114693,-0.08251621574163437,-0.032701458781957626,-0.19732095301151276,-0.08947516977787018,-0.17160578072071075,0.048397015780210495,0.07350879162549973,0.03352059796452522,0.22075337171554565,0.03836013376712799,0.006289500277489424,0.15546159446239471,0.06320305168628693,0.023865725845098495,0.06802287697792053,0.14010216295719147,0.125166118144989,-0.01917601190507412,0.08635810762643814,-0.011885085143148899,-0.0611853264272213,-0.2739222049713135,0.06672250479459763,-0.04900745302438736,-0.007667096797376871,-0.1226409524679184,0.1694440394639969,-0.07260385900735855,0.11193838715553284,-0.15734411776065826,-0.04564449191093445,-0.10240780562162399,-0.11810147762298584,-0.0741572454571724,-0.27238979935646057,0.009574014693498611,-0.01660517044365406,-0.04185336455702782,-0.04741644859313965,-0.10590045899152756,-0.44325777888298035,0.005478442180901766,-0.00984339788556099,0.014371770434081554,-0.05299784243106842,-0.11408333480358124,-0.029761897400021553,-0.008065727539360523,-0.055507391691207886,0.09560701251029968,-0.044395916163921356,0.006789757404476404,-0.15295059978961945,0.0867457464337349,-0.04545620083808899,0.06417667120695114,0.03262178599834442,-0.11683927476406097,-0.03899956867098808,0.0945792943239212,-0.053361676633358,-0.01861875131726265,0.021406827494502068,0.03577260673046112,-0.2629888653755188,-0.026831233873963356,-0.030851341784000397,-0.10552994161844254,-0.026793790981173515,-0.0779079869389534,-0.4570915102958679,-0.007526956964284182,0.022028706967830658,-0.011638464406132698,-0.0033776431810110807,-0.08171673864126205,-0.37721216678619385,-0.1308164894580841,-0.0012143190251663327,-0.04604937508702278,0.05942654609680176,-0.02335490472614765,-0.17124474048614502,0.0984734371304512,0.28625065088272095,0.13143303990364075,0.19016273319721222,0.0834457203745842,0.6175177097320557,0.21515680849552155,0.07577266544103622,0.097756527364254,0.05859343335032463,0.08222470432519913,-0.21886473894119263,0.1044672429561615,0.1323080211877823,0.22800952196121216,0.13923558592796326,0.06685055047273636,0.054271772503852844,-0.004493961110711098,-0.13571150600910187,-0.061287276446819305,-0.22026725113391876,-0.11142650246620178,0.08087193220853806,-0.07048729062080383,0.09605739265680313,0.04988396540284157,0.07367673516273499,0.0847470611333847,-0.14326876401901245,0.046966228634119034,-0.01221560686826706,0.09918671101331711,-0.11270198971033096,-0.3524872958660126,-1.3322561979293823,-0.06091635674238205,0.08502238243818283,0.03499877452850342,0.07738564908504486,0.019938696175813675,0.1604917198419571,0.01184934563934803,-0.11336257308721542,-0.04795682430267334,0.18912526965141296,-0.0949932411313057,0.06658092141151428,-0.06532955169677734,0.07883840799331665,-0.07412121444940567,0.13751447200775146,0.24504446983337402,-0.5586698055267334,-0.01509197149425745,0.08677002787590027,0.006419026292860508,-0.38372182846069336,0.1149505227804184,-0.8273774981498718,-0.9229713082313538,-0.08674123138189316,-0.5096408724784851,-0.42881619930267334,-0.17031341791152954,-0.0316731259226799,0.05168278515338898,-0.21864481270313263,0.13166393339633942,0.3420547842979431,0.2867743968963623,-0.0672326311469078,0.2734224796295166,0.15647456049919128,0.4280909597873688,-0.4373725950717926,-0.3568585515022278,-0.2959916889667511,-0.1450672298669815,-0.20851244032382965,0.5657735466957092,-0.016401123255491257,0.15071815252304077,-0.5139373540878296,-0.2069731056690216,-0.5016700625419617,-0.12194714695215225,-0.13199786841869354,-0.0788404643535614,0.4869844615459442,-0.2897850573062897,0.5561272501945496,0.07131302356719971,0.5731536746025085,0.3965306580066681,0.2001333236694336,0.21185272932052612,-0.19117914140224457,-0.23469673097133636,-0.4086669683456421,-0.15633758902549744,0.1258264183998108,-0.2384999543428421,0.1735844910144806,0.06595689803361893,-0.2844509482383728,-0.15375617146492004,-0.06914005428552628,0.20491871237754822,-0.29781317710876465,-0.11601303517818451,0.046111881732940674,0.10458684712648392,-0.040234751999378204,0.41609323024749756,-0.34070128202438354,-0.11657308042049408,-0.28694581985473633,-0.3389856219291687,-0.3096464276313782,-0.21962778270244598,0.2513021230697632,-0.4061517119407654,0.013539997860789299,0.10168351233005524,0.14781774580478668,0.01429755985736847,0.19498319923877716,0.060775790363550186,-0.2299831658601761,-0.09607129544019699,-0.22694450616836548,-0.4402954578399658,-0.06182031333446503,0.06157534942030907,0.1206216812133789,-0.1858028620481491,-0.18362636864185333,-0.0775572657585144,-0.03721494972705841,0.1694175750017166,0.44671791791915894,-0.06697587668895721,-0.0752067118883133,0.029266605153679848,-0.041165806353092194,-0.12739041447639465,-0.07736621797084808,0.007156831678003073,0.06240006163716316,-0.028500599786639214,0.010978955775499344,0.029829412698745728,-0.46995124220848083,-0.19731543958187103,-0.09143329411745071,-0.17884615063667297,-0.1344701498746872,-0.040578003972768784,0.2402612715959549,0.1401328146457672,0.014329742640256882,0.09104932099580765,-0.031359829008579254,0.10037645697593689,-0.2995610237121582,0.26260799169540405,-0.054278414696455,0.09937526285648346,0.03593979775905609,0.05267050862312317,-0.6779567003250122,-0.12260100245475769,0.06765162944793701,0.08652907609939575,-0.03206073120236397,0.0688135027885437,-0.17532601952552795,0.32554665207862854,0.19264230132102966,0.38818809390068054,0.036451634019613266,0.06962528824806213,0.2159985452890396,0.037089359015226364,-0.027567295357584953,-0.018745917826890945,-0.01179588120430708,-0.049100156873464584,-0.22079026699066162,0.1530945897102356,0.1274106204509735,0.0832316130399704,0.139527827501297,0.11304900795221329,0.14579814672470093,-0.06117847189307213,-0.049396246671676636,-0.05086541175842285,-0.10272815078496933,-0.05969763919711113,-0.08576004952192307,0.18147091567516327,0.1861571967601776,0.1998225301504135,0.16601406037807465,0.182047501206398,0.08502518385648727,0.10533984750509262,0.12396010756492615,0.15636156499385834,0.18860739469528198,0.08305637538433075,0.3277958333492279,-0.1529027223587036,-0.05420229956507683,0.06283342838287354,-0.036192797124385834,-0.10138638317584991,0.09972542524337769,0.0532396025955677,-0.05187568441033363,-0.014789708890020847,-0.04151063412427902,-0.11581481248140335,0.2049199789762497,-0.05317378416657448,-0.07810039818286896,-0.04094793647527695,-0.039170291274785995,-0.05611546337604523,-0.21044449508190155,0.04450345039367676,-0.2074568122625351,-0.23878531157970428,-0.141487717628479,-0.21025221049785614,-0.5023069381713867,-0.014531897380948067,0.016971534118056297,0.009006507694721222,0.04654327407479286,-0.06272826343774796,-0.09573038667440414,0.020496593788266182,-0.05714574456214905,0.04498773068189621,-0.052112579345703125,0.030294891446828842,0.3483160436153412,-0.09810073673725128,0.020824231207370758,-0.01795552670955658,-0.03226751089096069,0.028070803731679916,-0.16646084189414978,-0.11907579749822617,-0.08213964849710464,-0.18865163624286652,-0.2117825597524643,-0.12528368830680847,0.06309796869754791,-0.022869063541293144,-0.05743096023797989,-0.08180705457925797,-0.13452459871768951,-0.02656957320868969,0.7399824857711792,0.0021943063475191593,-0.039958711713552475,-0.05313916876912117,0.009036666713654995,0.057127535343170166,-0.010712266899645329,-0.014696188271045685,0.009915786795318127,0.009709580801427364,-0.00010880884656216949,-0.0025031568948179483,-0.017990563064813614,-0.022785110399127007,-0.09660062938928604,-0.04128657653927803,-0.092109315097332,-0.03722052648663521,0.0347752571105957,-0.09352444112300873,-0.020090386271476746,-0.1594306379556656,-0.10971521586179733,-0.09068887680768967,-0.04251185804605484,0.07417500764131546,-0.03508206456899643,-0.07617349177598953,-0.11987908184528351,-0.24739940464496613,0.2608690559864044,0.0749671682715416,-0.0535428561270237,-0.07033289223909378,0.09270923584699631,-0.017587261274456978,-0.008841619826853275,-0.14682765305042267,-0.10128388553857803,-0.11348475515842438,-0.1623547524213791,0.00023198366397991776,0.18592937290668488,0.057774800807237625,0.024531221017241478,0.1837175190448761,0.17899297177791595,0.21601147949695587,0.681343138217926,0.07920490205287933,-0.07178585976362228,0.027935130521655083,-0.029254410415887833,-0.09027114510536194,0.01832824945449829,-0.018332822248339653,0.04868200421333313,0.15214356780052185,0.026177560910582542,0.11928412318229675,-0.07014290243387222,-0.1349625140428543,-0.016613906249403954,0.08789089322090149,0.005573322996497154,-0.25355497002601624,0.3306010365486145,-0.01900131069123745,0.04386824369430542,0.06353867053985596,0.0019914135336875916,-0.046165831387043,0.09421411156654358,0.02021794766187668,0.07412443310022354,0.017646128311753273,-0.045647237449884415,-0.23992538452148438,0.19907782971858978,-0.0695042535662651,-0.009087227284908295,-0.10837876796722412,-0.0036982411984354258,0.04389544203877449,0.09245403110980988,0.052055470645427704,0.03453846275806427,0.01124638319015503,0.0009726067073643208,-0.2580389380455017,-0.043457940220832825,0.015628887340426445,-0.03563939407467842,-0.06439246237277985,-0.03042522445321083,0.13190101087093353,-0.012424768880009651,0.029848068952560425,-0.06332840770483017,0.026613272726535797,0.028257286176085472,-0.042145296931266785,-0.188768208026886,0.16727295517921448,-0.05202046036720276,-0.08376207947731018,-0.1302773654460907,-0.11933315545320511,-0.2827416956424713,0.15907302498817444,0.07139591127634048,0.10628198832273483,0.11701194941997528,0.1238742470741272,0.09718148410320282,0.18745584785938263,0.17207185924053192,0.2017415463924408,0.16396810114383698,0.15551644563674927,0.07404102385044098,-0.14696639776229858,-0.04250511899590492,-0.07975418120622635,-0.02484438754618168,-0.11019445955753326,-0.1982855647802353,0.03460371866822243,0.1535845696926117,0.118684783577919,0.14677344262599945,0.15507514774799347,0.429539293050766,0.24440434575080872,0.20626284182071686,0.26442742347717285,0.28234708309173584,0.16405488550662994,0.14065225422382355,0.1820111870765686,-0.05222916230559349,-0.15880388021469116,-0.1164788082242012,-0.06180963292717934,-0.12818868458271027,-0.16581574082374573,-0.06788712739944458,-0.07637972384691238,-0.19744251668453217,0.01188047043979168,-0.2604636251926422,-0.0005078368121758103,-0.031054029241204262,-0.005805135238915682,-0.1611756980419159,-0.06669176369905472,-0.07729897648096085,0.10236120969057083,0.10823236405849457,0.02399337664246559,0.038942307233810425,-0.10396763682365417,-0.42581889033317566,0.09781192243099213,0.10318503528833389,0.07603902369737625,0.16596081852912903,0.14551381766796112,0.054956935346126556,-0.056571848690509796,-0.048361536115407944,-0.040806930512189865,-0.09196627140045166,-0.04802057892084122,-0.2528030574321747,0.06346028298139572,0.03714147210121155,0.06637423485517502,0.07110536098480225,0.1472742110490799,0.2975863516330719,0.16801287233829498,0.05967225506901741,0.16101627051830292,0.12648163735866547,0.257359117269516,0.2268669754266739,0.06993623077869415,-0.002636794000864029,-0.004203121177852154,-0.0882914662361145,-0.0807545930147171,0.15956367552280426,-0.0950147807598114,-0.06687953323125839,-0.006800081580877304,-0.03335130214691162,-0.09704271703958511,-0.003332044230774045,-0.04085396230220795,-0.0918232873082161,0.05265078693628311,-0.0074385469779372215,-0.02203034982085228,-0.6331542134284973,0.07944612205028534,-0.026092123240232468,-0.0024148093070834875,-0.02303186058998108,0.03236432746052742,-0.17596198618412018,0.04810098186135292,0.01093867514282465,0.017125584185123444,0.03252176195383072,0.027308490127325058,-0.07142199575901031,0.05931899696588516,-0.053993333131074905,0.06398210674524307,-0.02115517109632492,0.05378420650959015,-0.04520983621478081,0.06526927649974823,0.044128790497779846,0.057887446135282516,0.04216964170336723,-0.04506015405058861,-0.05990292504429817,-0.03196409344673157,0.05945004150271416,0.025231432169675827,0.034022849053144455,0.20658622682094574,0.013639596290886402,-0.01577707938849926,0.010226190090179443,-0.13652746379375458,0.013585376553237438,0.0386543869972229,0.08374140411615372,-0.05566152557730675,-0.02716773748397827,-0.09754158556461334,-0.03532924875617027,-0.025214003399014473,-0.17419584095478058,-0.056978628039360046,0.04574698209762573,0.03700675442814827,0.02362366020679474,0.009433111175894737,-0.08871301263570786,0.08349665999412537,-0.4560452103614807,0.15960581600666046,0.05394911393523216,-0.054914604872465134,-0.828512966632843,-0.4357507526874542,-0.04998880997300148,-1.1293702125549316,-0.01587408222258091,0.7617678642272949,0.44567954540252686,-0.03201141953468323,0.03098042868077755,-0.05063820257782936,-0.02151980809867382,0.041004251688718796,0.46062442660331726,-0.2016928642988205,-0.2842705547809601,-0.3010580539703369,0.04800737276673317,0.18345387279987335,0.05463486537337303,-0.2220526486635208,-0.19843657314777374,0.23075373470783234,0.17828114330768585,-0.15984949469566345,0.6662214994430542,-0.5665733218193054,-0.1505236178636551,-0.21441005170345306,0.053013455122709274,-0.26852795481681824,-0.0360482856631279,0.04753443971276283,0.5439550280570984,-0.42855721712112427,0.05496196448802948,0.2659076750278473,0.17433759570121765,-0.07847949117422104,0.07958681136369705,0.031942810863256454,-0.7956663370132446,0.4229881465435028,0.08491352945566177,-0.10018974542617798,-0.2312321662902832,0.16337575018405914,-0.03399169072508812,0.13397832214832306,0.3148605227470398,-0.12712626159191132,-0.14812541007995605,0.23044127225875854,-0.13914279639720917,0.07851472496986389,-0.26736271381378174,-0.19184283912181854,0.11059877276420593,-0.24142590165138245,-0.044033631682395935,-0.15079809725284576,-0.3501993715763092,0.26175516843795776,0.17305651307106018,0.2262900322675705,0.5414212346076965,-0.505324125289917,-0.2939727306365967,0.08720263838768005,0.4118526577949524,-0.17044368386268616,-0.09485241025686264,-0.09878755360841751,-0.05617435276508331,0.6680532693862915,0.03290934860706329,0.19478876888751984,0.2233000099658966,-0.3303520977497101,0.17972661554813385,0.09116391092538834,-0.05717635899782181,-0.26128047704696655,-0.15449729561805725,-0.04485303908586502,-0.07270576059818268,-0.018680253997445107,0.07168008387088776,-0.2804258167743683,0.01860516518354416,0.12751734256744385,-0.004735738504678011,-0.009701251052320004,-0.022227821871638298,0.003667512908577919,0.1817467361688614,-0.001635385095141828,0.07572992891073227,0.03506132587790489,-0.021924689412117004,0.021000396460294724,0.05770371854305267,0.15226027369499207,0.14166684448719025,0.12915611267089844,0.18302074074745178,0.12372453510761261,-0.16593661904335022,-0.0896412581205368,-0.0792117565870285,-0.10801701992750168,0.012252716347575188,-0.12821096181869507,0.4720568060874939,-0.07375837862491608,0.043504100292921066,-0.020686771720647812,0.06109580770134926,-0.15243229269981384,0.258699893951416,0.05396319180727005,0.0401327908039093,0.06811144202947617,0.13587479293346405,0.007840791717171669,0.36332741379737854,0.07130210846662521,-0.06437023729085922,-0.05404302850365639,-0.10937610268592834,0.10321050137281418,-0.16286584734916687,0.10067954659461975,0.09317311644554138,0.009107531979680061,-0.0006643693777732551,-0.2589784562587738,0.034977953881025314,0.1742658168077469,-0.05787702649831772,-0.01365797221660614,-0.0954599380493164,-0.04706728830933571,0.1927122324705124,-0.16133327782154083,-0.09658144414424896,0.028344888240098953,-0.07669540494680405,-0.09603406488895416,-0.009327591396868229,0.1262439489364624,0.010399270802736282,0.15760716795921326,-0.088509202003479,0.11613461375236511,-0.12989875674247742,-0.047451991587877274,-0.09584581106901169,-0.16060753166675568,-0.03945087268948555,-0.11245109140872955,0.42608752846717834,-0.018437424674630165,0.005483801476657391,0.11878024786710739,0.15523290634155273,-0.06816776841878891,0.12276323139667511,0.07504158467054367,0.14594347774982452,0.09540096670389175,-0.0021797975059598684,-0.021031364798545837,0.5246438980102539,0.016617415472865105,0.0029304695781320333,-0.040959734469652176,-0.04984329268336296,-0.08459137380123138,-0.040550705045461655,0.035096071660518646,0.09090626239776611,0.0759260281920433,0.12198153883218765,-0.13956765830516815,0.07494334131479263,-0.06650705635547638,0.04986729472875595,-0.045963436365127563,-0.048558663576841354,-0.13432922959327698,-0.09707140922546387,-0.06439714133739471,-0.06734675914049149,-0.02277122065424919,-0.13430948555469513,0.0175744891166687,-0.002865395275875926,-0.02495260164141655,-0.10418378561735153,0.025656016543507576,0.04255538061261177,0.045980535447597504,-0.06488043814897537,0.04791475087404251,0.026280006393790245,0.08556146919727325,-0.01913406327366829,-0.12661005556583405,0.02975705824792385,-0.0630904883146286,0.29197028279304504,0.17505115270614624,0.2868778109550476,0.3177415132522583,-0.1979144811630249,0.001502493629232049,-0.23675070703029633,-0.056672196835279465,-0.059542570263147354,-0.13522133231163025,0.13269318640232086,-0.06077173352241516,-0.1635197550058365,-0.08605105429887772,-0.07136932015419006,-0.14370229840278625,-0.08999308943748474,-0.19456946849822998,-0.053442809730768204,-0.09639759361743927,-0.14935094118118286,-0.11996949464082718,0.1781853437423706,-0.04874388128519058,-0.06205551326274872,-0.04856083542108536,-0.05835026875138283,-0.05767553299665451,0.035655807703733444,0.031037943437695503,0.031114060431718826,0.027336260303854942,-0.0077848066575825214,0.013904498890042305,0.1503126621246338,0.043885283172130585,0.027103867381811142,0.05720650032162666,0.01690247841179371,0.04718148708343506,-0.03596426174044609,0.034565795212984085,-0.010194836184382439,-0.03712739050388336,0.010807105340063572,-0.001994900871068239,0.1015680730342865,0.1050829365849495,0.018089627847075462,-0.07717692852020264,0.05284881964325905,-0.052510038018226624,-0.05299792066216469,-0.0605003722012043,-0.05562598258256912,-0.046689894050359726,-0.09321734309196472,-0.08705303817987442,-0.085722416639328,-0.05004192143678665,-0.12667180597782135,-0.10053515434265137,-0.16094012558460236,-0.15713761746883392,0.10275576263666153,0.18997956812381744,0.22314003109931946,0.14581242203712463,0.08165240287780762,0.037040866911411285,0.11918062716722488,-0.014141514897346497,-0.06887444853782654,0.0689079761505127,-0.08272643387317657,-0.08040674775838852,-0.0849459171295166,-0.06070147082209587,0.002884414978325367,0.006169313099235296,-3.7229492590995505e-05,-0.06077668070793152,-0.028222395107150078,0.023102829232811928,0.03855518251657486,0.06142553687095642,-0.061870258301496506,0.037187609821558,-0.1494990736246109,0.06262300163507462,-0.06693319231271744,-0.1427341252565384,0.03618719056248665,-0.044900715351104736,-0.01731961779296398,-0.09335147589445114,0.08562245219945908,-0.04339011758565903,0.23298195004463196,-0.08299736678600311,0.0736573114991188,0.0346590057015419,-0.056788865476846695,0.07365357875823975,0.003647636156529188,0.08144466578960419,-0.08547983318567276,-0.0629178062081337,-0.14633692800998688,0.0361262746155262,0.007872259244322777,-0.0684405267238617,0.06144930422306061,0.059399835765361786,-0.022304952144622803,0.04903672635555267,-0.0021033836528658867,0.07985346764326096,0.014479373581707478,0.01991971768438816,-0.05257141962647438,0.04900845140218735,-0.0060867322608828545,0.02600294165313244,0.21321240067481995,-0.07995224744081497,0.045237090438604355,-0.09798543155193329,-0.05465477332472801,-0.018037674948573112,0.0770820826292038,-0.10254961997270584,-0.046872932463884354,-0.06275956332683563,-0.030295591801404953,-0.06380505114793777,-0.10938739031553268,-0.0058728670701384544,0.027214549481868744,-0.030929209664463997,0.04458403214812279,0.03504600748419762,0.0393979586660862,-0.041069626808166504,-0.07804317772388458,-0.11594977974891663,-0.17672094702720642,-0.16893316805362701,0.03008400835096836,-0.046225789934396744,-0.0411708801984787,-0.03788699209690094,-0.03545374423265457,-0.03929688408970833,0.1563604474067688,-0.08051930367946625,-0.11010446399450302,-0.03722310811281204,-0.05950852483510971,0.08499021828174591,0.019846322014927864,-0.06676272302865982,-0.07564526051282883,-0.12678825855255127,-0.1767987608909607,0.12351599335670471,-0.00975294504314661,-0.07910390943288803,-0.017325319349765778,-0.05599071457982063,-0.035711292177438736,0.010100197046995163,-0.021760134026408195,0.058885492384433746,0.033621516078710556,0.16339051723480225,0.16737136244773865,0.22623521089553833,0.026857871562242508,0.08338134735822678,-0.011617072857916355,0.036516278982162476,0.0208788700401783,0.018407193943858147,0.02696763165295124,0.1551002562046051,0.05066468194127083,0.18927237391471863,0.052061062306165695,0.08931396156549454,0.058774419128894806,0.01800442487001419,0.06915732473134995,0.25846990942955017,0.19236086308956146,0.3080138862133026,-0.22017477452754974,0.05701727420091629,0.05020875856280327,-0.02972591482102871,-0.002748842118307948,0.09894145280122757,-0.23650924861431122,0.053432609885931015,0.18204475939273834,0.16331960260868073,0.14247645437717438,0.19491788744926453,0.043546196073293686,0.10640191286802292,0.09062246978282928,0.10242496430873871,0.03451159968972206,-0.12684643268585205,-0.057838812470436096,-0.03721320256590843,0.01621132157742977,0.002504205796867609,-0.01795087195932865,0.021608522161841393,0.05875885486602783,-0.11291831731796265,-0.10897791385650635,-0.02602524496614933,-0.1386803537607193,-0.21015124022960663,-0.09923093765974045,-0.08136984705924988,-1.0877649401663803e-05,0.04623010382056236,-0.03560946509242058,-0.01269853487610817,-0.11117158085107803,-0.023159336298704147,-0.11192154884338379,-0.2550617456436157,-0.1335035264492035,-0.19411318004131317,0.02648724801838398,-0.145013228058815,-0.1361052691936493,-0.21790418028831482,-0.168185293674469,-0.2705932855606079,0.38831591606140137,-0.025382764637470245,0.023416167125105858,0.06391413509845734,0.006409958470612764,-0.11045375466346741,0.12972310185432434,-0.1574612706899643,-0.12144673615694046,-0.19395995140075684,-0.08112503588199615,-0.18318507075309753,-0.2604796290397644,-0.21269451081752777,0.11574982106685638,0.09279102087020874,-0.15432676672935486,0.08327686041593552,0.18883395195007324,-0.09390325844287872,0.09136604517698288,0.1423128992319107,0.6654813289642334,-0.2971033453941345,0.014004345051944256,-0.039998624473810196,0.12347863614559174,0.13367578387260437,0.35398295521736145,-0.2251562774181366,-0.1294555366039276,-0.02181493677198887,-0.11825205385684967,0.07687199115753174,0.3679518699645996,0.11752217262983322,-0.04517102614045143,-0.08063685148954391,-0.07889508455991745,0.028708966448903084,-0.11605550348758698,0.18159008026123047,0.028767749667167664,-0.250547856092453,0.25582683086395264,-0.4140337109565735,0.42870455980300903,0.22655746340751648,-0.07862630486488342,0.10328999161720276,0.10705084353685379,-0.21323972940444946,0.3095543384552002,0.13676032423973083,-0.1913893073797226,-0.10676177591085434,-0.01269323006272316,0.0928339958190918,-0.34150001406669617,0.14350084960460663,-0.3213759958744049,-0.18026457726955414,0.0011443138355389237,0.05278496444225311,0.02167215757071972,-0.10816539824008942,-0.03393632173538208,-0.17324304580688477,0.2691176235675812,-0.23830635845661163,-0.44898343086242676,-0.16260868310928345,-0.10166055709123611,-0.16554388403892517,-0.07927415519952774,0.09017325937747955,0.08536479622125626,-0.22051633894443512,-0.014474879018962383,-0.28188958764076233,0.07397212088108063,-0.09231112152338028,0.10565421730279922,-0.11835160106420517,-0.07653143256902695,0.08841991424560547,0.1426886022090912,0.1794734001159668,-0.27931493520736694,0.04226956143975258,-0.17625996470451355,0.09143813699483871,0.15302574634552002,-0.2911493182182312,0.003521506441757083,-0.04813610017299652,0.3183215856552124,-0.3113977909088135,0.2531321346759796,0.005460444837808609,-0.07417704164981842,0.04135098680853844,0.05306226387619972,0.047769930213689804,0.04558199644088745,-0.03899524733424187,0.05282130092382431,0.04874425381422043,-0.07805528491735458,-0.00959590170532465,0.011294552125036716,-0.006665521766990423,0.08299436420202255,0.04122427850961685,-0.012388776056468487,0.0925019159913063,0.05731040984392166,0.01123503502458334,0.03948367014527321,0.03229203820228577,-0.062359441071748734,0.04698088765144348,-0.035287659615278244,0.07874467223882675,0.04430091753602028,-0.05191132798790932,0.08762817084789276,-0.044403307139873505,-0.04218268766999245,-0.05344153940677643,0.00040749332401901484,0.05346223711967468,0.09117352217435837,0.061067137867212296,-0.05119873583316803,0.029369300231337547,-0.0824606716632843,0.052170220762491226,0.04879263788461685,0.008870783261954784,0.058598343282938004,0.04143533483147621,-0.011450696736574173,-0.04369787499308586,0.02191092260181904,-0.017105022445321083,-0.012682406231760979,-0.10535170882940292,-0.028731994330883026,0.1486467868089676,0.08224773406982422,0.0730881318449974,0.2053532600402832,0.2784457504749298,-0.2682325541973114,-0.05065901204943657,0.0028886494692415,-0.0800115093588829,-0.024395817890763283,-0.048453450202941895,-0.23877547681331635,0.027978064492344856,0.04902632161974907,0.056335557252168655,0.000874537683557719,-0.08383533358573914,-0.0397869348526001,0.0626717060804367,0.02500089816749096,-0.036769263446331024,-0.08078072220087051,-0.08539161086082458,0.3224151134490967,0.10045361518859863,0.08129334449768066,0.08457730710506439,0.12625129520893097,0.33086347579956055,-0.12577831745147705,-0.031220143660902977,0.10073576122522354,0.15663595497608185,0.15252456068992615,0.201533704996109,-0.08752212673425674,0.129630446434021,0.07204417139291763,0.11271686851978302,0.09829361736774445,0.1507830023765564,-0.23495131731033325,-0.07549572736024857,-0.02920784242451191,-0.01768331043422222,-0.0008144931052811444,-0.1544647365808487,0.08240265399217606,-0.030781077221035957,-0.06799972057342529,0.1673683226108551,0.006452114321291447,-0.02815737947821617,0.009976432658731937,-0.0357886478304863,-0.028228912502527237,0.12194623798131943,-0.20493543148040771,-0.21383458375930786,0.0171163622289896,0.0006087412475608289,0.009386932477355003,0.049290746450424194,-0.08535197377204895,0.05793238803744316,0.14829863607883453,0.06396341323852539,0.004661323968321085,0.0036777486093342304,-0.09072962403297424,-0.0410236231982708,0.05772656202316284,0.014230658300220966,-0.06472086906433105,0.07428278774023056,-0.026188137009739876,-0.01916676200926304,-0.0835728868842125,-0.11983533948659897,-0.08060333132743835,0.036938123404979706,0.020453529432415962,-0.0845213457942009,-0.05533643066883087,0.04471922665834427,-0.051435042172670364,-0.013638116419315338,0.1510363519191742,0.09798368066549301,0.00944838859140873,0.030229605734348297,-0.0156250037252903,-0.10364468395709991,-0.07969155162572861,0.05074629187583923,0.00735703157261014,0.026588154956698418,0.12601323425769806,0.17162756621837616,0.05435100570321083,-0.008475150913000107,-0.06549982726573944,0.035769179463386536,-0.007565391715615988,0.0708608329296112,0.011022382415831089,-0.14543934166431427,-0.17202433943748474,-0.012457424774765968,0.03993279114365578,0.018962658941745758,-0.06053634732961655,-0.05012427270412445,0.01960882544517517,0.05865625664591789,-0.05530726909637451,-0.06393946707248688,-0.06384020298719406,-0.0697552040219307,0.040208615362644196,-0.02518247440457344,0.026360321789979935,-0.017390120774507523,0.1067969799041748,0.0938207283616066,0.1300070881843567,0.11462483555078506,0.0165010504424572,0.09491769969463348,0.12465793639421463,-0.10094048827886581,0.01385577768087387,0.14892077445983887,0.0215256679803133,0.09106326848268509,0.08964451402425766,0.11464914679527283,-0.19040091335773468,-0.07151396572589874,-0.009230283088982105,-0.05506165325641632,-0.004356962163001299,-0.08463405817747116,0.20645371079444885,0.08660273253917694,-0.007357659749686718,0.013206212781369686,-0.008880450390279293,-0.019042806699872017,-0.0267101489007473,0.003249526023864746,-0.006605235394090414,0.0002548231277614832,0.00866407249122858,-0.003905153600499034,-0.037502869963645935,0.01831883005797863,-0.013937673531472683,0.023152027279138565,0.011565051041543484,-0.005095788277685642,-0.00560311833396554,0.01120338961482048,0.016854040324687958,0.020194508135318756,0.013250382617115974,-0.008342822082340717,0.037796709686517715,0.026697417721152306,0.006043219938874245,0.022858355194330215,0.037162162363529205,0.03807297721505165,-0.02796446718275547,0.09062913060188293,0.00418865866959095,-0.02596663124859333,-0.06894709914922714,0.03772600740194321,-0.027086183428764343,0.040244050323963165,0.01285979151725769,-0.008194725960493088,-0.009643972851336002,0.03130101412534714,-0.009755159728229046,-0.03982418403029442,-0.005696147680282593,-0.007355015724897385,0.008396940305829048,-0.007681914139539003,-0.057758111506700516,-0.09033981710672379,-0.020615804940462112,-0.14495153725147247,-0.042011819779872894,-0.043528586626052856,0.11759932339191437,-0.11463229358196259,-0.12088290601968765,-0.12222982943058014,-0.1558508425951004,-0.03363286331295967,0.14112988114356995,-0.0033930472563952208,0.01893332228064537,-0.028557639569044113,-0.05128757283091545,-0.05106527358293533,0.18569990992546082,0.008117930963635445,0.0014141181018203497,0.012752854265272617,-0.01100744865834713,-0.017233313992619514,-0.08679051697254181,0.10937805473804474,0.059103306382894516,0.02748652920126915,0.15601368248462677,0.0030972897075116634,0.1850171536207199,-0.10406025499105453,-0.19673804938793182,-0.21867598593235016,-0.11025602370500565,-0.05195912346243858,0.15226992964744568,-0.06686317920684814,-0.07457666099071503,-0.10383255779743195,-0.02625361457467079,-0.015018352307379246,0.020256629213690758,-0.029700446873903275,-0.08140650391578674,-0.04808127507567406,-0.060497649013996124,-0.030753057450056076,-0.3235054314136505,0.07466558367013931,0.11453533172607422,0.18056920170783997,0.17380711436271667,0.10517725348472595,0.20557494461536407,-0.10221532732248306,-0.014523295685648918,-0.012306883931159973,-0.010453684255480766,-0.024215087294578552,0.08410020917654037,-0.051723916083574295,0.043739400804042816,0.09970569610595703,-0.00433844281360507,-0.10759800672531128,0.163359135389328,-0.042939845472574234,-0.09342733025550842,-0.048201773315668106,-0.0296939704567194,-0.04467819258570671,0.06141190975904465,0.04382367432117462,0.030784208327531815,0.11571869254112244,0.05719565972685814,0.12902697920799255,-0.008729739114642143,-0.026932116597890854,-0.056897956877946854,0.043378669768571854,0.05375148355960846,0.023093145340681076,0.10121787339448929,0.1118447482585907,-0.0835171639919281,0.11900695413351059,0.15919603407382965,0.10605909675359726,0.0596381351351738,-0.09975522011518478,-0.003282025223597884,0.00908327754586935,-0.07067443430423737,-0.02355162240564823,-0.10288131237030029,-0.030485697090625763,-0.07541532814502716,-0.06497360020875931,-0.1344858556985855,-0.20399953424930573,0.012859691865742207,0.02715066447854042,-0.03846866637468338,0.06842070072889328,0.03495703637599945,0.22736401855945587,0.37733685970306396,-0.0922016128897667,-0.06094074621796608,-0.056545089930295944,-0.058486003428697586,-0.0573076494038105,-0.03590204194188118,-0.0686875432729721,-0.04323548823595047,-0.018060509115457535,0.03568440303206444,0.0783255323767662,-0.2383228838443756,-0.03508651629090309,-0.03520277887582779,-0.1528153419494629,-0.10073184967041016,-0.22370126843452454,0.0945507138967514,-0.0797797366976738,-0.12240521609783173,-0.19165098667144775,-0.21492472290992737,-0.19495165348052979,0.1678798943758011,-0.07198373228311539,-0.08722342550754547,-0.14384572207927704,-0.12385684251785278,-0.29027071595191956,0.3390471339225769,0.06975243985652924,-0.01372604165226221,0.058862652629613876,0.04666614532470703,0.14004531502723694,-0.20778565108776093,-0.030164256691932678,-0.016254160553216934,-0.00398262357339263,0.05492663010954857,-0.06976567953824997,-0.1054207980632782,-0.029406387358903885,0.07628322392702103,-0.0036670740228146315,-0.12959818542003632,-0.027141323313117027,0.013004186563193798,0.002357443328946829,-0.13633909821510315,-0.0032774931751191616,0.17241714894771576,-0.13485462963581085,0.3144650161266327,0.013990838080644608,-0.13381248712539673,0.03412682190537453,-0.2299410104751587,-0.015024690888822079,-0.2778780162334442,0.05042492225766182,0.16989223659038544,-0.23323854804039001,-0.05571978911757469,-0.06362808495759964,-0.1315194070339203,0.18370088934898376,-0.18652184307575226,0.06544695794582367,-0.34833917021751404,-0.06914428621530533,-0.152948260307312,-0.04799947887659073,0.05584627017378807,-0.16769807040691376,0.4110938012599945,-0.06451623886823654,-0.23507916927337646,0.05589801073074341,-0.04010845348238945,-0.005598102696239948,0.2484024465084076,0.28344500064849854,0.14618666470050812,0.054923027753829956,-0.19584175944328308,0.19335271418094635,-0.2310691922903061,-0.06009000912308693,0.07970289885997772,0.1443520188331604,0.2601344585418701,0.042787015438079834,0.13087709248065948,0.02321392484009266,-0.0281870998442173,0.04765073210000992,-0.044380929321050644,0.006279878318309784,-0.2275698482990265,-0.10403618216514587,0.12046297639608383,-0.009120572358369827,0.03576546907424927,0.002747074468061328,-0.14133641123771667,-0.02822217345237732,-0.03496316447854042,0.24750038981437683,-0.015598091296851635,-0.07258771359920502,-0.17834411561489105,0.007565233390778303,-0.15069955587387085,-0.12230667471885681,0.17158469557762146,0.13582713901996613,0.28763607144355774,0.2174358367919922,0.12115582078695297,-0.2814505398273468,0.1415044069290161,0.17681805789470673,-0.1647682636976242,-0.10448115319013596,-0.06310996413230896,-0.08964813500642776,-0.10167202353477478,-0.1054028794169426,0.022558141499757767,-0.2549296021461487,-0.14878088235855103,-0.2564670443534851,-0.17150945961475372,-0.18005353212356567,0.3209218680858612,0.11255813390016556,0.03858321160078049,0.1040293425321579,0.08181973546743393,0.09381834417581558,-0.2205623835325241,0.11732921749353409,-0.033681973814964294,0.07364249974489212,0.05001143366098404,0.043113816529512405,0.15743085741996765,0.09857510030269623,-0.014465514570474625,0.03746857866644859,-0.005776220001280308,0.020924808457493782,-0.13314244151115417,-0.05355881527066231,-0.06860474497079849,-0.1140097975730896,-0.05368293821811676,-0.07681188732385635,-0.19856195151805878,-0.04923408478498459,-0.07403577119112015,-0.06324051320552826,-0.07224227488040924,-0.14796088635921478,0.343436062335968,-0.11748652905225754,-0.0767904743552208,-0.09669226408004761,-0.05383256450295448,-0.07614223659038544,-0.0783950537443161,0.11188405752182007,0.008552059531211853,0.013755790889263153,0.039422377943992615,0.07226759940385818,0.06274976581335068,0.11350380629301071,0.03144940361380577,-0.03404099494218826,-0.07317734509706497,-0.00995848048478365,-0.011498400010168552,-0.05525461956858635,-0.026586737483739853,0.007471016608178616,-0.055405907332897186,-0.08751548081636429,0.100201815366745,-0.07473845779895782,-0.03264022246003151,-0.015573817305266857,-0.033160317689180374,-0.018171699717640877,-0.3334863483905792,-0.00665587792173028,-0.0322442352771759,0.01591658405959606,0.011201382614672184,0.07645177096128464,0.3746482729911804,-0.017265262082219124,-0.01840783841907978,-0.0551048144698143,-0.01830783300101757,-0.023901646956801414,-0.08395124226808548,-0.00695309042930603,-0.02118763141334057,-0.04046110436320305,0.0716211199760437,0.010592957958579063,0.11556308716535568,-0.02660069428384304,0.013314330019056797,-0.01066423300653696,-0.07337387651205063,-0.20277780294418335,0.09807205200195312,0.09320775419473648,0.06639275699853897,-0.0019306655740365386,-0.005167725495994091,-0.08239883929491043,0.09834612160921097,0.13154368102550507,0.16701862215995789,0.16901159286499023,0.05657820776104927,0.06066751107573509,-0.155848890542984,0.07303883880376816,0.021743660792708397,0.06647847592830658,0.021833200007677078,0.01942293904721737,0.010494495742022991,0.005658337846398354,-0.000891278381459415,0.07604558765888214,-0.0009500507730990648,0.1295316517353058,-0.17616499960422516,-0.14426618814468384,-0.05598108842968941,-0.08946345746517181,-0.028505964204669,0.0377383679151535,0.10067185759544373,-0.017679600045084953,0.03320769965648651,0.07852783054113388,0.038032058626413345,0.08389530330896378,-0.06631236523389816,0.02558423951268196,-0.06065092235803604,0.0060670580714941025,-0.054213959723711014,-0.044324785470962524,-0.08302274346351624,0.06417928636074066,-0.015736952424049377,0.06963546574115753,-0.05094341188669205,0.05628387629985809,0.03883073851466179,0.0687679648399353,0.05421867221593857,-0.0373334176838398,0.14400546252727509,0.0922490656375885,0.13558949530124664,0.07683625817298889,-0.0033023119904100895,-0.03230232372879982,0.040388073772192,0.027462216094136238,-0.007242885883897543,-0.07282612472772598,-0.047573432326316833,-0.07711020857095718,-0.005036970600485802,0.02458498813211918,0.16131232678890228,-0.05110788717865944,-0.005841297097504139,-0.020770462229847908,-0.011366646736860275,-0.11992110311985016,0.11702344566583633,-0.0077667091973125935,0.07615583389997482,0.026323700323700905,0.07853931188583374,0.17793111503124237,0.09508651494979858,0.03896170109510422,-0.011825144290924072,-0.05352373048663139,0.14675790071487427,-0.057277631014585495,0.05284440517425537,0.06769591569900513,0.02532249316573143,0.044166188687086105,0.06528343260288239,-0.01366912666708231,-0.09146411716938019,-0.04241570830345154,-0.08080342411994934,-0.037647146731615067,-0.11815758049488068,0.049866240471601486,-0.08640534430742264,0.03714047372341156,0.026609720662236214,0.06283994764089584,0.05707612633705139,0.1224345788359642,-0.03761983662843704,-0.0874919593334198,-0.023226607590913773,-0.04097466543316841,-0.029819335788488388,-0.02793479710817337,-0.2729613780975342,-0.08823872357606888,-0.09425035119056702,-0.13428522646427155,-0.0655384361743927,-0.13859152793884277,0.03903818130493164,0.0223481934517622,0.0735718309879303,0.009041896089911461,-0.001269410247914493,-0.034278206527233124,-0.16968555748462677,0.1779395490884781,0.18954138457775116,0.18554013967514038,0.15395487844944,0.17641545832157135,0.29955703020095825,-0.08802539110183716,-0.10096799582242966,-0.10568024963140488,-0.0765785351395607,-0.08296528458595276,-0.38570982217788696,-0.014100182801485062,-0.029198581352829933,0.01592704840004444,-0.06428901851177216,0.051105812191963196,0.035801101475954056,-0.10467608273029327,-0.07855944335460663,-0.0668695792555809,-0.10051184892654419,-0.05245845392346382,0.13814938068389893,-0.00046353324432857335,0.06496908515691757,0.05209492892026901,-0.043530505150556564,0.027938280254602432,0.06689349561929703,-0.00043142595677636564,-0.009081064723432064,-0.04840376228094101,0.018467750400304794,-0.035085391253232956,-0.041822101920843124,-0.051862698048353195,0.04501263052225113,-0.03457232192158699,0.029456976801156998,0.040952570736408234,0.0624510832130909,-0.0035453825257718563,0.003842699807137251,-0.05279160663485527,0.06247004494071007,0.04484157636761665,0.11256272345781326,-0.00010735345858847722,0.006987134460359812,0.04158094525337219,0.005195485893636942,-0.05011866241693497,0.06654006242752075,-0.04349171742796898,-0.01280437596142292,0.06589967757463455,0.002231624908745289,-0.04891707003116608,0.023325640708208084,-0.0239202119410038,-0.012214703485369682,0.04957034811377525,-0.06376456469297409,0.01687368005514145,-0.009373141452670097,0.009669027291238308,0.013698422349989414,-0.05437125638127327,-0.018752845004200935,-0.0807541087269783,-0.1630687266588211,0.04885821044445038,0.07057560235261917,0.09120764583349228,0.05796723812818527,0.0815366879105568,0.031008746474981308,-0.019055543467402458,-0.041885655373334885,-0.10291986167430878,-0.09993968158960342,-0.11771541088819504,-0.05601537600159645,0.02621547318994999,-0.044758643954992294,-0.009958070702850819,-0.01830439642071724,-0.08356789499521255,0.04648728668689728,0.05995582044124603,-0.03211594372987747,0.017381880432367325,0.007922327145934105,-0.09051880985498428,-0.01811479590833187,0.08440819382667542,0.11353782564401627,0.08778935670852661,0.13855686783790588,0.11910029500722885,0.2577773332595825,-0.036727502942085266,-0.06901538372039795,-0.15649409592151642,-0.09434538334608078,0.018485093489289284,-0.07021729648113251,-0.02907835692167282,-0.017302600666880608,0.010801402851939201,-0.035730499774217606,0.08115508407354355,-0.34568291902542114,-0.014905671589076519,-0.008779402822256088,-0.015188095159828663,-0.006341942586004734,-0.018222667276859283,0.06535997986793518,0.14349067211151123,-0.023992717266082764,0.14536166191101074,0.10380616784095764,0.007387659978121519,-0.09272167086601257,0.14667822420597076,0.10717044770717621,0.11310682445764542,0.057516373693943024,0.1543784886598587,-0.14990825951099396,-0.06707119196653366,0.05421149730682373,-0.0943220928311348,0.030336908996105194,-0.04358743503689766,0.05267157405614853,-0.12491780519485474,-0.03013700433075428,-0.06701041758060455,-0.09176257997751236,-0.06288635730743408,-0.029999975115060806,-0.11255834251642227,-0.06096310913562775,0.08565682172775269,-0.0535590685904026,-0.03707413375377655,0.06978027522563934,0.02205897495150566,0.22003641724586487,0.10721013695001602,0.11934010684490204,0.14685900509357452,0.14589127898216248,0.0627153143286705,0.0225999616086483,0.08461026847362518,0.0828402191400528,-0.0114547498524189,-0.0793994590640068,-0.22212271392345428,-0.05806349590420723,-0.20299594104290009,-0.03467134013772011,-0.12808911502361298,0.14740130305290222,-0.1390002965927124,-0.19748182594776154,0.16141313314437866,-0.05786168947815895,-0.3897571563720703,-0.0401313342154026,-0.3158489167690277,0.09647630900144577,-0.09201706945896149,0.01931229792535305,-0.027748683467507362,0.0020846696570515633,0.02841147966682911,