{"version":"0.7.0","architecture":"SlimmableContainer","config":{"submodels":[{"max_value":0.5,"model":{"version":"0.7.0","metadata":{"date":{"year":2026,"month":5,"day":15,"hour":18,"minute":28,"second":40},"loudness":-17.48317527770996,"gain":0.7885322153293549},"architecture":"WaveNet","config":{"layers":[{"input_size":1,"condition_size":1,"head":{"out_channels":1,"kernel_size":16,"bias":true},"channels":3,"kernel_sizes":[6,6,6,6,6,6,6,6,6,6,6,6,6,6,15,15,6,6,6,6,6,6,6],"dilations":[1,3,7,17,41,101,239,1,3,7,17,41,101,239,1,13,1,3,7,17,41,101,239],"activation":[{"type":"LeakyReLU","negative_slope":0.01},{"type":"LeakyReLU","negative_slope":0.01},{"type":"LeakyReLU","negative_slope":0.01},{"type":"LeakyReLU","negative_slope":0.01},{"type":"LeakyReLU","negative_slope":0.01},{"type":"LeakyReLU","negative_slope":0.01},{"type":"LeakyReLU","negative_slope":0.01},{"type":"LeakyReLU","negative_slope":0.01},{"type":"LeakyReLU","negative_slope":0.01},{"type":"LeakyReLU","negative_slope":0.01},{"type":"LeakyReLU","negative_slope":0.01},{"type":"LeakyReLU","negative_slope":0.01},{"type":"LeakyReLU","negative_slope":0.01},{"type":"LeakyReLU","negative_slope":0.01},{"type":"LeakyReLU","negative_slope":0.01},{"type":"LeakyReLU","negative_slope":0.01},{"type":"LeakyReLU","negative_slope":0.01},{"type":"LeakyReLU","negative_slope":0.01},{"type":"LeakyReLU","negative_slope":0.01},{"type":"LeakyReLU","negative_slope":0.01},{"type":"LeakyReLU","negative_slope":0.01},{"type":"LeakyReLU","negative_slope":0.01},{"type":"LeakyReLU","negative_slope":0.01}],"bottleneck":3,"head1x1":{"active":false,"out_channels":1,"groups":1},"layer1x1":{"active":true,"groups":1},"groups_input":1,"groups_input_mixin":1,"conv_pre_film":{"active":false,"shift":true,"groups":1},"conv_post_film":{"active":false,"shift":true,"groups":1},"input_mixin_pre_film":{"active":false,"shift":true,"groups":1},"input_mixin_post_film":{"active":false,"shift":true,"groups":1},"activation_pre_film":{"active":false,"shift":true,"groups":1},"activation_post_film":{"active":false,"shift":true,"groups":1},"layer1x1_post_film":{"active":false,"shift":true,"groups":1},"head1x1_post_film":{"active":false,"shift":true,"groups":1},"gating_mode":["none","none","none","none","none","none","none","none","none","none","none","none","none","none","none","none","none","none","none","none","none","none","none"],"secondary_activation":[null,null,null,null,null,null,null,null,null,null,null,null,null,null,null,null,null,null,null,null,null,null,null],"slimmable":null}],"head":null,"head_scale":0.00794359281822631},"weights":[-4.711356163024902,2.6808316707611084,-5.842444896697998,-0.4142422080039978,-0.2543489933013916,-0.3702949583530426,-0.18247933685779572,0.7407040596008301,0.8247509002685547,0.3060121536254883,0.26244744658470154,0.3164531886577606,0.21948428452014923,-0.7327848672866821,-0.6131277680397034,-0.24212545156478882,-0.30382397770881653,-0.2811563313007355,-0.20316819846630096,0.6889178156852722,0.8041455745697021,0.0898570641875267,0.1472478061914444,0.03453240543603897,-0.11438409984111786,-0.044346507638692856,-0.305678129196167,-0.06031708046793938,-0.128495454788208,-0.036614689975976944,0.09246060997247696,0.01721220649778843,0.2682972848415375,0.09510615468025208,0.15100392699241638,0.037834905087947845,-0.11425619572401047,-0.05068783834576607,-0.31799519062042236,0.7892652153968811,-0.21444188058376312,1.0531604290008545,0.6456483006477356,-1.9764654636383057,-1.2029318809509277,-0.8181998133659363,0.24453753232955933,-1.0376219749450684,-0.723341166973114,1.9417221546173096,0.9697960019111633,0.629767119884491,-0.042245615273714066,1.1335805654525757,0.8163164258003235,-1.9011694192886353,-1.0856146812438965,-0.46919316053390503,-0.23481780290603638,0.7800905108451843,-0.5904456973075867,0.19366873800754547,0.8715959787368774,-1.2226511240005493,0.22825628519058228,0.8295407295227051,-0.8441693186759949,-0.11653266847133636,0.699609100818634,1.414851427078247,0.39091598987579346,-1.0380953550338745,-0.38501060009002686,0.3558000922203064,0.5110151171684265,0.14514805376529694,0.34030747413635254,-0.13203755021095276,0.12417850643396378,-0.04858022183179855,-0.026431256905198097,-0.271704763174057,-0.4204625189304352,-0.2992492914199829,-0.3196859359741211,-0.25835922360420227,-0.29159632325172424,-0.1268690824508667,0.07570960372686386,-0.16151247918605804,-0.20754383504390717,-0.04053414985537529,-0.2614511549472809,0.22488266229629517,-0.012667478062212467,-0.15546193718910217,-0.1732998788356781,0.021193867549300194,-0.08048664033412933,-0.4187413454055786,-0.6771036386489868,-0.6650350093841553,-0.338532030582428,-0.4131341874599457,-0.43375644087791443,-0.12418530881404877,-0.18739452958106995,-0.21892331540584564,-0.3647042214870453,-0.30902746319770813,-0.30002355575561523,-0.3937441408634186,-0.10057245939970016,0.05400890111923218,0.1935867965221405,0.21384800970554352,0.2200077921152115,0.04611940309405327,-0.05813823267817497,0.13515383005142212,-7.69953549024649e-05,0.0786319449543953,-0.5322669148445129,-0.20770372450351715,-0.19504773616790771,-0.04159778356552124,-0.18188445270061493,-0.08601327985525131,0.5892065167427063,-0.1567552387714386,-0.5162214040756226,-0.2124553769826889,0.03153417259454727,0.0001487065601395443,-0.206680566072464,0.027950650081038475,0.597625195980072,0.1868780255317688,0.5799398422241211,1.0443751811981201,-0.06416986137628555,-0.23754893243312836,-0.3121643364429474,-0.29884928464889526,-0.3533024191856384,0.3226102292537689,0.5488525629043579,0.10434126108884811,-0.0013987828278914094,0.038495320826768875,0.0585138313472271,0.6860969662666321,0.6258978247642517,-0.035573575645685196,-0.021664584055542946,0.022843390703201294,0.03693271428346634,-0.29591596126556396,-0.032978884875774384,0.03595975413918495,-0.00046963526983745396,0.06813067197799683,0.10939504951238632,0.3583352565765381,-0.5090339183807373,-0.31479430198669434,-0.05321258306503296,-0.08648700267076492,-0.06162644177675247,-0.07247350364923477,0.10698232054710388,-0.15620975196361542,-0.018776986747980118,-0.2385241985321045,-0.121144600212574,-0.18462350964546204,-0.5206157565116882,-0.2920726239681244,-0.09212423861026764,-0.23700731992721558,-0.13873644173145294,-0.12486940622329712,0.41745373606681824,0.13002075254917145,0.139225035905838,0.1424378752708435,0.09540407359600067,0.44978901743888855,-0.006799672264605761,0.1586419641971588,-0.040438681840896606,0.11602044850587845,0.04603943973779678,0.19073301553726196,0.12017747759819031,0.17512814700603485,0.1138451099395752,0.26176324486732483,0.24995608627796173,0.6274159550666809,-0.5938572883605957,-0.7367717027664185,-0.22333353757858276,0.3509569466114044,-0.08262389898300171,-0.30030083656311035,1.5675052404403687,-0.7063791155815125,0.24318987131118774,0.42049458622932434,-1.2975236177444458,0.5637651085853577,0.7961317896842957,0.755950391292572,-0.8104825019836426,-0.20087674260139465,-0.319864958524704,-0.36742669343948364,-0.13598941266536713,0.1488453596830368,0.07704968005418777,0.060667309910058975,0.12574219703674316,0.2634633779525757,0.2796383202075958,-0.023364104330539703,-0.08097374439239502,-0.0653826966881752,-0.04264845326542854,-0.0006127532105892897,-0.014010254293680191,0.09905638545751572,0.00813521258533001,0.026261961087584496,0.08153615146875381,0.24297690391540527,-0.5162299871444702,-0.10524752736091614,0.06576108932495117,0.2505629062652588,0.25935637950897217,0.2542788088321686,0.6132948994636536,0.14517496526241302,-0.024786226451396942,-0.00493512162938714,-0.016015581786632538,-0.06930799037218094,0.27899888157844543,0.07002885639667511,0.06341338157653809,0.2248573899269104,0.23034076392650604,0.2988070547580719,-0.627993643283844,0.14177359640598297,0.09023116528987885,0.07564583420753479,0.1527145504951477,0.5833934545516968,0.3002720773220062,-0.07971883565187454,-0.021601185202598572,-0.03293018415570259,-0.02074177749454975,-0.043272703886032104,0.17375659942626953,0.01614565961062908,0.03414905071258545,0.024144647642970085,0.10894668102264404,0.44847196340560913,-0.5661205649375916,-0.7677141427993774,0.0887942686676979,0.11295925825834274,0.5299091339111328,1.0067299604415894,0.8702412843704224,-0.33011072874069214,-0.6289122104644775,-0.5273076295852661,-0.05174203962087631,0.2434859722852707,-0.5341928005218506,1.348041296005249,-0.6203482151031494,-0.7520887851715088,-0.14419668912887573,-0.10899848490953445,0.22893734276294708,-0.07892569899559021,-0.05034492909908295,-0.0369272381067276,-0.0803341418504715,-0.2373528927564621,0.419744074344635,0.08072274923324585,0.08166646957397461,0.03513498604297638,0.049607276916503906,-0.035586435347795486,-0.314360111951828,0.06313946098089218,0.057589419186115265,0.04001809284090996,0.044896166771650314,-0.02006218209862709,-0.1587677299976349,-0.05619630590081215,0.05734776332974434,-0.09275098890066147,-0.17736436426639557,-0.12423568964004517,0.06473183631896973,0.11607687175273895,-0.09545338898897171,0.00882529467344284,0.06021570414304733,-0.09161210060119629,-0.04711934179067612,0.043990764766931534,-0.05010521039366722,0.06420048326253891,0.10878278315067291,0.06533630937337875,0.24521006643772125,-0.03883203864097595,0.2889925539493561,0.29427847266197205,0.12237981706857681,0.3323022127151489,0.34977996349334717,0.04348236322402954,-0.006506816484034061,0.11866596341133118,-0.21118739247322083,-0.19696304202079773,-0.03345339745283127,0.029095647856593132,0.018406715244054794,0.0999540388584137,0.08595217764377594,0.08773675560951233,0.0748857855796814,-0.23261448740959167,0.05051068961620331,-0.02033573016524315,0.061188917607069016,0.10694574564695358,0.021199170500040054,-0.564261794090271,-0.10225751996040344,-0.38660016655921936,-0.11732922494411469,0.12296225130558014,0.4975701868534088,0.10769902914762497,-0.12231095880270004,-0.03159891068935394,0.347230464220047,-0.21845978498458862,0.4460751414299011,0.10432398319244385,0.04900451377034187,0.018246930092573166,-0.07711979746818542,0.17013534903526306,0.2476222813129425,-0.0774589478969574,-0.18203270435333252,-0.05281737074255943,0.13144494593143463,-0.005429776385426521,0.3651236891746521,-0.06611008942127228,-0.10695511847734451,-0.03445025533437729,0.04425974190235138,-0.14887116849422455,0.3545707166194916,0.10097348690032959,0.029986931011080742,0.11606457084417343,0.13999980688095093,0.2292003631591797,-0.35272452235221863,-0.13522806763648987,-0.0920138955116272,-0.18377624452114105,-0.07240030914545059,-0.07450367510318756,-0.4514738917350769,-0.059809278696775436,-0.0464554987847805,-0.09944891184568405,-0.08519088476896286,-0.14313775300979614,-0.6150608658790588,0.014896797016263008,0.02306581288576126,0.005209113005548716,0.027683939784765244,-0.005248944275081158,-0.4475727081298828,-0.046442657709121704,-0.07510872185230255,-0.06740798056125641,-0.06637834757566452,-0.017834581434726715,0.318901002407074,-0.020495597273111343,-0.037295226007699966,-0.024310268461704254,-0.033254850655794144,-0.018551329150795937,-0.13215301930904388,-0.13330526649951935,-0.30082154273986816,-0.23284363746643066,0.44289326667785645,-0.06644659489393234,0.4333593547344208,0.10634540766477585,0.33272892236709595,0.1912073791027069,-0.4511764943599701,0.05914560705423355,-0.5525967478752136,0.004291372839361429,0.17464850842952728,0.09248775988817215,-0.1651536077260971,-0.6145324110984802,-0.1436973363161087,0.08577834069728851,0.07731514424085617,0.08048274368047714,0.09461472183465958,0.2089257389307022,0.34292635321617126,-0.01360431220382452,-0.09228305518627167,0.08349286764860153,0.26746276021003723,0.2680879831314087,0.08218155056238174,0.03305460885167122,-0.008379028178751469,0.01798378676176071,0.053550589829683304,0.01371190045028925,-0.1539696604013443,0.00887588132172823,0.013751846738159657,-0.02545129507780075,-0.12369248270988464,-0.1540689766407013,-0.04563894122838974,0.19126014411449432,0.15819582343101501,0.1836189478635788,0.256195604801178,0.3141709268093109,-0.19171929359436035,0.05984137952327728,0.05646771937608719,0.07200431823730469,0.11298645287752151,0.1350659281015396,-0.03122084215283394,0.013467397540807724,-0.0004866204981226474,0.01206149347126484,-0.008429194800555706,0.03762385621666908,0.6157985925674438,0.0024318285286426544,0.02012931928038597,-0.0014211382949724793,-0.006529257167130709,-0.008210777305066586,0.02391565591096878,0.00042086528264917433,0.007276033516973257,-0.003966042771935463,0.0051052747294306755,-0.011658082716166973,0.4421309232711792,-0.1602591872215271,0.04418543726205826,-0.8901480436325073,0.015166407451033592,-0.26816803216934204,-0.4926551580429077,0.25954025983810425,-0.5380302667617798,0.711860716342926,0.12856808304786682,-0.1653284877538681,-0.44677603244781494,-0.07214266061782837,0.052262648940086365,-0.6628558039665222,0.17863595485687256,0.2701958119869232,0.09447929263114929,0.10347073525190353,-0.004654110409319401,0.03767620027065277,-0.21827614307403564,-0.10558541119098663,0.23391024768352509,0.29898491501808167,0.19933967292308807,0.16356277465820312,0.1325322985649109,-0.03280537202954292,0.0976758673787117,0.11772775650024414,0.14772087335586548,0.22627995908260345,-0.07524809241294861,-0.21630564332008362,0.1064402312040329,0.2524859309196472,-0.09494911879301071,0.07381365448236465,-0.15470153093338013,-0.0331132598221302,0.6554605960845947,-0.33547717332839966,-0.13177542388439178,-0.33245834708213806,0.07609784603118896,-0.39775538444519043,-0.9593081474304199,-0.21873417496681213,-0.07024812698364258,-0.22927501797676086,-0.10103347897529602,-0.2705584764480591,0.2661638557910919,0.07813756912946701,0.12417078018188477,0.12365180253982544,-0.2663343548774719,0.10049782693386078,-0.21866492927074432,0.19009369611740112,-0.1547452062368393,0.03940992057323456,0.08575823158025742,0.2803674042224884,-0.404712051153183,-0.058599598705768585,0.005949414800852537,-0.3553672432899475,-0.3954938054084778,0.32239189743995667,0.5252726674079895,-0.03499042987823486,0.01123233325779438,-0.19142979383468628,-0.9130264520645142,0.01814587600529194,-0.12987083196640015,-0.09527081251144409,-0.31291258335113525,0.6654696464538574,-0.5782901644706726,0.6046977043151855,-0.05057867243885994,-0.3623991012573242,-0.8910312652587891,0.48742571473121643,-0.07810476422309875,0.6212467551231384,0.39985647797584534,-0.020201902836561203,-0.0016813949914649129,0.10957301408052444,0.20811015367507935,-0.3937617242336273,-0.7013120055198669,-0.05465025082230568,-0.10411641001701355,-0.1749849021434784,-0.3730752468109131,-0.08185762166976929,0.006248106248676777,-0.005030048079788685,0.008599904365837574,-0.031174426898360252,-0.22200830280780792,0.14280308783054352,-0.3930582106113434,0.03620658069849014,-0.12458246201276779,-0.09251197427511215,0.1395486444234848,0.4673566520214081,0.28679293394088745,-0.1801297962665558,-0.21937192976474762,-0.3323231637477875,0.35300931334495544,0.13811451196670532,0.009959451854228973,-0.021169856190681458,0.34624606370925903,0.24804504215717316,0.06839926540851593,-0.36125677824020386,0.031210826709866524,-0.06943900883197784,0.026110051199793816,0.04356541112065315,-0.027715645730495453,0.014732449315488338,-0.18988081812858582,0.11227663606405258,0.06782108545303345,0.07987775653600693,0.21485668420791626,0.3465747833251953,0.2191985845565796,-0.06511066108942032,-0.2528038024902344,-0.2646048069000244,0.10335462540388107,0.5393248796463013,0.1855735331773758,-0.2192678600549698,-0.18057428300380707,0.0386575348675251,-0.08017745614051819,0.443392813205719,0.9218811392784119,0.35013583302497864,-0.19016341865062714,0.3445645868778229,-0.062408991158008575,0.2426377832889557,0.025917094200849533,0.6463682055473328,-0.18692103028297424,0.2874615788459778,0.3790237605571747,0.006805710960179567,-0.2575635015964508,-0.010842440649867058,-0.04001699760556221,0.14601534605026245,0.07632052153348923,-0.2854991555213928,-0.3670008182525635,-0.08088087290525436,-0.11399924755096436,-0.15146195888519287,-0.10809916257858276,0.21727021038532257,0.09067261219024658,0.0053202989511191845,-0.007355131674557924,-0.04543476924300194,0.0076209441758692265,-0.23610948026180267,-0.017042117193341255,-0.11130886524915695,-0.2867123484611511,-0.08823113888502121,-0.13747645914554596,-0.28001853823661804,0.4953756332397461,0.21516501903533936,0.1231258288025856,-0.06241386756300926,0.04888369143009186,-0.006179750431329012,0.26651063561439514,0.11951255798339844,0.2815192639827728,0.07619727402925491,0.16585887968540192,0.1686909794807434,-0.26066917181015015,-0.05195040628314018,0.00036091351648792624,0.0769573450088501,0.1355547159910202,0.043343279510736465,0.7540037631988525,-0.02220897562801838,0.05157272517681122,0.023609697818756104,-0.009438167326152325,0.08398959785699844,0.46276187896728516,-0.03526005521416664,-0.025407055392861366,-0.05526844412088394,0.011031093075871468,0.21653872728347778,0.4225672483444214,0.00023884976690169424,0.4002334773540497,0.4326825737953186,0.6611771583557129,-0.12679757177829742,-0.2605558931827545,0.23360300064086914,-0.614422619342804,-0.34754836559295654,0.1374426931142807,-0.302912175655365,0.13661853969097137,0.26208293437957764,-0.0888366550207138,0.49417993426322937,0.09382987022399902,0.014788396656513214,-0.41538456082344055,-0.08291157335042953,-0.15089137852191925,0.2472957819700241,0.199749156832695,0.29017511010169983,-0.18392357230186462,0.006059662904590368,0.06314682215452194,0.08284971117973328,0.17264103889465332,-0.005410099867731333,-0.12779222428798676,0.1622859239578247,-0.16547690331935883,0.2243528813123703,0.14621874690055847,-0.02127552218735218,0.005266046617180109,0.06189296394586563,0.19530878961086273,0.04003999009728432,-0.08690415322780609,0.031840406358242035,-0.10051397979259491,0.08996132016181946,0.17621369659900665,0.15369167923927307,0.17320090532302856,0.18782034516334534,-0.09459060430526733,-0.01598421297967434,0.05196428671479225,-0.03523172438144684,-0.031209003180265427,-0.01178682129830122,-0.08590509742498398,-0.1118098720908165,-0.11589395254850388,-0.19674886763095856,-0.30992791056632996,-0.5196194052696228,-0.10086226463317871,-0.07325686514377594,-0.03157057613134384,-0.051622435450553894,-0.13893814384937286,-0.0033134808763861656,0.12403964251279831,0.04357193037867546,0.04255940765142441,0.05097749084234238,0.059960611164569855,0.1281609833240509,-1.3646365404129028,-0.10174951702356339,0.24581947922706604,0.1981239914894104,-0.2173420637845993,-0.7780978083610535,0.1648707389831543,0.34511610865592957,0.3466157913208008,-0.045417096465826035,0.2881128489971161,0.6686007380485535,0.8588224053382874,-0.012731014750897884,0.20505982637405396,-1.061553955078125,0.37519964575767517,0.7077577114105225,0.3981640934944153,-0.019914183765649796,-0.04933549463748932,-0.12996768951416016,-0.05557200312614441,-0.2207128405570984,-0.7777134776115417,-0.12080102413892746,-0.12777844071388245,-0.16649021208286285,-0.13391435146331787,-0.15845538675785065,0.11809338629245758,-0.05878084525465965,-0.048009444028139114,-0.06181589886546135,-0.05367467924952507,-0.04254146292805672,-0.6305768489837646,-0.03263191133737564,-0.13375551998615265,-0.2547520399093628,-0.1338951587677002,-0.4855850338935852,0.42213794589042664,0.09072798490524292,-0.04677702859044075,0.0008490140899084508,-0.02536270022392273,-0.06961704790592194,0.03045952320098877,0.04304065927863121,-0.011994914151728153,0.03356746584177017,0.005091184750199318,0.026772387325763702,-0.5255364775657654,0.05095566436648369,0.09583751857280731,0.23982635140419006,0.18347521126270294,0.2305820882320404,-0.05401230603456497,0.17317050695419312,0.11131230741739273,0.16619865596294403,0.061819083988666534,0.061408672481775284,-0.15159444510936737,0.07792472839355469,0.04519123584032059,0.052883781492710114,0.01491752453148365,0.010947540402412415,0.5967628955841064,-0.8940597772598267,0.5385345220565796,-0.23108401894569397,0.6412686109542847,-0.075831338763237,0.8354631662368774,0.5285257697105408,-0.6897785663604736,0.7659413814544678,-0.5684915781021118,-0.11641505360603333,0.6352229714393616,0.9035245180130005,-0.007338589057326317,0.2714539170265198,-0.6034563183784485,0.6288952231407166,0.42269545793533325,0.019789094105362892,-0.15331991016864777,0.04053402319550514,0.037356723099946976,-0.3053848147392273,-0.1957152634859085,0.07794869691133499,-0.12064799666404724,-0.024410312995314598,-0.10732045769691467,-0.1295967847108841,0.291151762008667,-0.0030543170869350433,0.09287387877702713,-0.012126695364713669,-0.005474621430039406,0.2008308470249176,-0.5304307341575623,-0.11454301327466965,-0.053999509662389755,-0.10028401017189026,-0.16199463605880737,-0.4400387108325958,-0.34992516040802,-0.4869213104248047,-0.21162179112434387,-0.0857577994465828,-0.06967388093471527,0.059128254652023315,0.06817448884248734,0.04823683947324753,0.11076466739177704,0.029250426217913628,0.0359237939119339,-0.011337107978761196,0.04091516509652138,-0.03446061164140701,-0.02572466991841793,-0.11547322571277618,-0.1229223683476448,0.06769389659166336,-0.4815254509449005,-0.12715864181518555,0.010928232222795486,0.015541482716798782,0.0380546934902668,0.054409343749284744,-0.1614886075258255,-0.000348647910868749,0.0054346779361367226,0.058543611317873,0.053771212697029114,-0.0460314005613327,-0.4971995949745178,0.09865400195121765,-0.14521653950214386,0.08403544127941132,-0.1583435833454132,0.041453272104263306,-0.4180169105529785,-0.6651240587234497,0.29553601145744324,-0.5243168473243713,-0.4313175082206726,-0.511506199836731,0.555465042591095,-0.17365148663520813,-0.12785221636295319,-0.4214414656162262,0.2216702699661255,0.38977572321891785,-0.05565674975514412,-0.11504028737545013,-0.13049407303333282,-0.11932282894849777,-0.06447019428014755,0.005871367175132036,-0.10434810817241669,-0.15334738790988922,-0.06242616847157478,-0.014993471093475819,0.018968725576996803,0.014416136778891087,0.11514295637607574,0.08620880544185638,0.09725768864154816,0.1022668406367302,0.060117077082395554,-0.0016975862672552466,-0.34894803166389465,-0.045231226831674576,-0.07812047749757767,-0.04548756033182144,0.008729295805096626,0.1093083843588829,0.828088641166687,-0.07723522931337357,0.17564010620117188,0.2848612666130066,0.2524341642856598,0.2515471577644348,-0.2503761649131775,0.037894077599048615,0.07668926566839218,0.06184559315443039,0.015945367515087128,-0.06099923327565193,0.5552948713302612,0.019403288140892982,-0.1387867033481598,-0.2426762580871582,-0.1393028348684311,-0.06441491097211838,-0.05873371660709381,-0.261117160320282,-0.16980618238449097,-0.145432248711586,-0.19213645160198212,-0.03023889847099781,0.3502872586250305,0.012473836541175842,0.06955139338970184,0.11699407547712326,0.01719934679567814,0.0012177828466519713,0.09608951956033707,0.05572302266955376,0.09212779998779297,0.09815345704555511,-0.2808722257614136,0.6933329105377197,0.08920349180698395,-0.3274906873703003,1.2615501880645752,0.39551591873168945,0.04908745363354683,0.015574276447296143,-0.3608030080795288,-0.5743452906608582,-0.4007917642593384,-0.24723345041275024,-0.2784423530101776,0.878457248210907,0.7294608354568481,0.036290355026721954,0.12021073698997498,0.05298801138997078,0.1205570325255394,-0.03885025903582573,0.09501443803310394,0.22453102469444275,-0.27393385767936707,0.3240385055541992,-0.008067205548286438,-0.30296874046325684,-0.3527829945087433,-0.32189038395881653,0.3020972013473511,0.0007481302018277347,-0.05554995313286781,0.10774373263120651,-0.14504674077033997,-0.02523243986070156,-0.005701086949557066,-0.10588933527469635,0.002816107589751482,-0.12333128601312637,-0.1725769340991974,-0.053501106798648834,-0.1223408430814743,0.07352093607187271,0.1433163434267044,-0.036938685923814774,0.09713612496852875,-0.10395801067352295,-0.04922888055443764,-0.19787031412124634,-0.11911026388406754,-0.20063447952270508,0.04840866103768349,0.19392997026443481,-0.16585838794708252,-0.5560303330421448,-0.31051012873649597,0.23947268724441528,-0.04013485461473465,-0.06047451123595238,0.11740725487470627,-0.16148334741592407,0.07066521793603897,-0.0037187302950769663,0.0011006370186805725,0.16348259150981903,-0.008583281189203262,0.18359655141830444,-0.05955995246767998,0.07117266952991486,0.3725604712963104,0.3066234290599823,0.017504699528217316,-0.1794796884059906,0.2864239513874054,-0.1918613463640213,0.030031738802790642,0.08799868077039719,0.19663816690444946,0.18430902063846588,0.12470410764217377,0.06678116321563721,0.16326935589313507,0.14618508517742157,-0.10330814123153687,-0.1967441290616989,0.023679107427597046,-0.05859893932938576,0.1808800995349884,0.15673115849494934,0.12802329659461975,0.26857858896255493,-0.07983189821243286,0.025705663487315178,-0.22084033489227295,-0.03946014866232872,-0.21883733570575714,-0.4602717161178589,-0.0653749331831932,-0.3919515311717987,1.4124034643173218,1.261339783668518,0.17175517976284027,0.16011251509189606,-0.24447809159755707,0.028073381632566452,-0.05990198627114296,-0.06465889513492584,0.024275297299027443,-0.06506205350160599,-0.0279584601521492,0.04624553024768829,-0.06447042524814606,-0.5304303169250488,0.11460252106189728,-0.7778285145759583,-1.1855294704437256,0.21794845163822174,-0.37280988693237305,0.2027706652879715,-0.14288583397865295,-0.1994508057832718,0.0547434501349926,-0.022242192178964615,0.11739179491996765,0.1446107029914856,0.09007825702428818,0.23432786762714386,0.24377396702766418,0.1269080489873886,0.504284143447876,0.08654914796352386,0.25821033120155334,0.31869906187057495,0.0024457224644720554,0.17285484075546265,0.03154865652322769,-0.037179917097091675,0.06410537660121918,0.20229770243167877,0.03239579126238823,-0.07197576016187668,-0.08909238129854202,-0.11184162646532059,0.6944882869720459,-0.45989638566970825,-0.5897905230522156,0.31435340642929077,-0.3235488533973694,-0.15156498551368713,0.19577819108963013,0.5513680577278137,-0.0042665861546993256,0.058101192116737366,0.2985367476940155,-0.04095819219946861,-0.11742310971021652,0.10059411823749542,0.053911976516246796,-0.4176093637943268,-0.2607237994670868,-0.38167205452919006,-0.7431011199951172,0.6149473190307617,0.2759418785572052,0.89254230260849,-0.6232648491859436,-0.10835599899291992,0.5086783170700073,1.311429738998413,0.09748027473688126,0.0881100594997406,0.10538922250270844,0.06001218408346176,0.0645434632897377,0.07073406875133514,0.06258092820644379,0.03287216275930405,-0.013323742896318436,0.029748864471912384,-0.09798446297645569,-0.0096528809517622,0.008938767947256565,-0.12355343252420425,0.11279357969760895,-0.15029120445251465,-0.1675197333097458,-0.19790120422840118,-0.09232033044099808,-0.09932543337345123,-0.07802671194076538,-0.04389812424778938,-0.050059974193573,0.0012746071442961693,0.04803894832730293,0.11178968101739883,0.1347823441028595,0.037188250571489334,0.1933659166097641,0.31967416405677795,-0.15366561710834503,-0.18455272912979126,-0.21316489577293396,-0.11469230055809021,-0.13159504532814026,-0.13347825407981873,-0.10925976932048798,-0.12137255072593689,-0.08865050971508026,-0.08440704643726349,0.005401711445301771,0.0022135793697088957,-0.04422504082322121,0.06627128273248672,0.33803990483283997,-0.05315539613366127,-0.041771840304136276,-0.02517283894121647,-0.05438985675573349,-0.024506328627467155,-0.0706692487001419,-0.04150211438536644,-0.056425947695970535,-0.08809319138526917,-0.05814127251505852,-0.08175720274448395,0.006432344205677509,0.005428589414805174,-0.07006912678480148,0.19826163351535797,0.1844012439250946,0.05429159849882126,0.06700171530246735,0.1686570942401886,0.033328574150800705,0.11182301491498947,0.1563667356967926,0.12003538012504578,0.09906822443008423,0.08092556893825531,0.11001310497522354,0.034943148493766785,0.0306308064609766,0.0752652958035469,-0.08858099579811096,0.13441477715969086,0.03514091670513153,0.03160019591450691,0.11570969969034195,0.009419295936822891,0.07322204858064651,0.10727526992559433,0.07156415283679962,0.05267755687236786,0.013488011434674263,0.04435092955827713,-0.027270158752799034,-0.019497713074088097,0.0064420923590660095,-0.1675158143043518,-0.03397773951292038,-0.020631976425647736,-0.036461230367422104,-0.030921872705221176,-0.022753531113266945,-0.027162501588463783,-0.037149667739868164,-0.0630442351102829,-0.008680412545800209,-0.034861963242292404,-0.0019943267107009888,-0.05788383260369301,-0.08239913731813431,-0.06155814975500107,0.3730284571647644,0.20346781611442566,0.22919861972332,0.1273149847984314,0.133036807179451,0.14424119889736176,0.10987302660942078,0.13387538492679596,0.10273639112710953,0.09277848154306412,0.08453983813524246,0.041854504495859146,0.11339831352233887,0.09635800868272781,0.0055540455505251884,0.3769039511680603,0.1771993339061737,0.19989027082920074,0.12034601718187332,0.12771515548229218,0.12650831043720245,0.10811538249254227,0.11786462366580963,0.09215587377548218,0.07851898670196533,0.08400507271289825,0.031075293198227882,0.09604743123054504,0.06601034104824066,-0.07695243507623672,-0.6980474591255188,-0.12783394753932953,0.142268568277359,0.2865568995475769,-0.20321102440357208,-0.00019198679365217686,0.07019831240177155,-0.16782048344612122,-0.46522682905197144,-0.2157921940088272,-0.33057981729507446,0.32863131165504456,0.39177238941192627,-0.14962704479694366,0.20261816680431366,-0.16810277104377747,0.05580722168087959,0.45915207266807556,0.31959813833236694,-0.1750245988368988,0.812690794467926,-0.3089388310909271,0.09482280910015106,0.045072805136442184,0.13124628365039825,0.07637899369001389,0.3225666582584381,0.24299290776252747,-0.369121789932251,-0.15174506604671478,0.3225267231464386,-0.021808365359902382,0.18098199367523193,0.16679440438747406,0.3719773292541504,-0.1262974590063095,-0.4600614309310913,-0.14259925484657288,0.47155269980430603,-0.13236092031002045,-0.07156728208065033,-0.06258970499038696,-0.18311041593551636,0.04130277782678604,0.35409441590309143,0.29846420884132385,-0.11271396279335022,-0.22008897364139557,0.10887164622545242,-0.009825964458286762,0.3548402786254883,-0.3566693663597107,0.5178890228271484,0.6799747347831726,-0.22589115798473358,-0.0979849174618721,0.46154704689979553,-0.17806461453437805,0.08932404965162277,-0.2144167572259903,0.23086079955101013,-0.10173605382442474,0.0606907494366169,-0.5175762176513672,-0.646298885345459,0.03150032460689545,0.24094143509864807,-0.14870159327983856,0.06102975457906723,0.37643393874168396,0.25274187326431274,-0.30806732177734375,0.04816895350813866,-1.2828596830368042,0.16460585594177246,-0.19429746270179749,0.22904588282108307,0.03605934605002403,-0.06532665342092514,0.33229491114616394,0.01004793681204319,-0.05110080540180206,0.8974137902259827,-0.5673646330833435,0.023265428841114044,-0.942786455154419,0.6104267239570618,-0.09872723370790482,0.04271860420703888,0.9354923367500305,0.8680539131164551,-0.07305805385112762,-0.20154882967472076,-0.05993729084730148,-0.2294449657201767,-0.13230180740356445,-0.0888383761048317,0.0528089664876461,0.07590516656637192,-0.07988197356462479,-0.017340674996376038,-0.17721538245677948,0.13744178414344788,0.08969811350107193,0.025050269439816475,0.020528024062514305,0.3056831359863281,0.555866539478302,0.15756270289421082,-0.08266766369342804,-0.08637885749340057,-0.15126727521419525,0.07312369346618652,-0.2937910854816437,0.2691730558872223,-0.04599546641111374,0.028845231980085373,-0.12149811536073685,-0.08691012859344482,-0.35407543182373047,-0.2732842266559601,-0.030310388654470444,-0.003965855110436678,-0.022804871201515198,0.06410584598779678,0.2866920232772827,-0.46344077587127686,-0.055288124829530716,0.06181041896343231,0.03191562741994858,0.025784580036997795,-0.009566265158355236,0.10955408215522766,-0.17470848560333252,-0.18308432400226593,-0.1701149195432663,-0.4652561843395233,-0.35560399293899536,0.4344143867492676,-0.2155056893825531,-0.18952910602092743,-0.15597662329673767,-0.4132594168186188,-0.6153042912483215,-1.121941089630127,0.19364440441131592,0.4308130741119385,-0.6752426624298096,0.10646134614944458,-0.16959868371486664,-0.017648953944444656,0.33837470412254333,-0.5614306926727295,0.09925878047943115,-0.0096711041405797,0.023252233862876892,-0.7671089172363281,0.1475771814584732,-0.006190054584294558,0.6761111617088318,0.6063187122344971,0.9217225313186646,0.009629156440496445,0.11247756332159042,0.08156116306781769,-0.14155340194702148,-0.06221417337656021,0.13502691686153412,0.12790507078170776,0.09269678592681885,-0.02227352000772953,0.15758116543293,-0.08595241606235504,0.02157619595527649,0.3296258747577667,0.09126920253038406,-0.015789911150932312,0.20048847794532776,-0.09178059548139572,0.2522987425327301,0.044536881148815155,0.037913087755441666,0.07325033843517303,-0.013642036356031895,0.18176697194576263,-0.31699636578559875,-0.09071872383356094,0.046680476516485214,0.014498749747872353,0.09787995368242264,-0.03230076655745506,-0.015131927095353603,-0.2658805847167969,0.07020885497331619,-0.006104458589106798,0.09009601175785065,-0.018823210150003433,0.0016052336432039738,-0.03172925487160683,0.4662124216556549,0.2581086754798889,0.3047604560852051,0.11902882903814316,0.29994896054267883,-0.42850592732429504,-0.03382999822497368,-0.011692565865814686,-0.21653109788894653,-0.20475690066814423,-0.15960226953029633,0.16738414764404297,-0.010179227218031883,-0.044959139078855515,-0.03230093792080879,-0.25323909521102905,-0.1660478413105011,-0.15439386665821075,0.41462066769599915,-0.02906867116689682,0.05467040091753006,0.05968381091952324,-0.13681358098983765,-0.03697903826832771,0.5757651329040527,0.17289140820503235,0.12431210279464722,0.13020765781402588,-0.13213904201984406,-0.4250207841396332,0.07279317826032639,0.36921077966690063,0.32373061776161194,0.03891298174858093,0.45856142044067383,0.2425980269908905,-0.10305067151784897,-0.1687735915184021,-0.18146394193172455,-0.2026052176952362,-0.23634281754493713,0.6201498508453369,0.13351912796497345,0.18727999925613403,0.18560077250003815,0.2239948958158493,0.26461392641067505,0.0534200482070446,0.12935927510261536,0.15620924532413483,0.1598062366247177,0.20258048176765442,0.2001296430826187,0.3064548671245575,-0.148729607462883,-0.220027893781662,-0.16175700724124908,-0.06340513378381729,-0.09293907135725021,0.4022985100746155,0.1877179741859436,0.23467622697353363,0.18015523254871368,0.188176229596138,0.09426813572645187,-0.29945307970046997,0.17597490549087524,0.2054024636745453,0.16941535472869873,0.18088313937187195,0.15661115944385529,-0.5337578058242798,0.04074560105800629,0.048624131828546524,0.021877888590097427,0.057677049189805984,0.0667596235871315,0.1278247833251953,-0.1782655119895935,-0.16849274933338165,-0.13728375732898712,-0.17743700742721558,-0.2424057424068451,-1.2779392004013062,-0.19663725793361664,-0.17528589069843292,-0.1520000547170639,-0.1903763711452484,-0.2517077922821045,0.40577882528305054,0.1379798799753189,-0.07080833613872528,-0.7055698037147522,-0.568222165107727,-0.14017485082149506,-0.2578478157520294,-1.0720877647399902,-0.31364011764526367,0.12917566299438477,-0.19608186185359955,0.3392181396484375,0.8311697840690613,-0.2968336343765259,0.1728655844926834,-0.8493587374687195,0.2542704939842224,-0.03777690604329109,-0.02526344731450081,0.0074762506410479546,-0.07977711409330368,-0.010301315225660801,-0.0899338573217392,0.004027532879263163,0.1891232132911682,0.1644703894853592,0.13318577408790588,0.08512546122074127,0.09426338970661163,-0.05225449427962303,0.6098230481147766,0.21622532606124878,0.16681763529777527,0.1126449927687645,0.11265023797750473,-0.09405423700809479,-0.596208930015564,-0.014544028788805008,-0.16678734123706818,-0.3482237458229065,-0.3689686954021454,-0.3209717869758606,0.12541469931602478,0.023555077612400055,0.022539356723427773,0.09783147275447845,0.10420838743448257,0.03819181025028229,0.11422765254974365,0.01782403513789177,-0.02404521219432354,0.023315485566854477,0.026216082274913788,-0.04114400967955589,-0.21740972995758057,-0.24415487051010132,-0.1826452612876892,-0.16338038444519043,-0.07338549196720123,-0.06917192041873932,0.170707106590271,0.17680543661117554,0.17345315217971802,0.115892194211483,0.10701921582221985,0.09334951639175415,0.35870063304901123,0.1825009435415268,0.21552032232284546,0.12388496845960617,0.133081316947937,0.11411038041114807,-0.576318085193634,-0.044015072286129,-0.15835295617580414,0.2547687888145447,-0.004152542911469936,0.2154126614332199,-0.11559208482503891,-0.4648214280605316,-0.6207389831542969,-0.15274305641651154,0.37655651569366455,-0.4602709710597992,0.13833482563495636,-0.37112587690353394,0.22121624648571014,1.0492907762527466,-0.12501542270183563,0.04263175651431084,-0.15689149498939514,-0.19968374073505402,-0.14892691373825073,-0.2515043318271637,-0.030763568356633186,0.20060430467128754,0.06271501630544662,-0.059080660343170166,-0.04655201733112335,-0.08140828460454941,-0.00040089545655064285,0.04270327463746071,0.2650984227657318,0.20190154016017914,0.051876962184906006,0.2250259816646576,0.254898339509964,0.03960206359624863,-0.3208191990852356,0.09553360193967819,0.12044719606637955,0.2039204239845276,-0.008624600246548653,-0.2085074782371521,-0.02147228643298149,0.0465686097741127,0.028101321309804916,0.05738052725791931,-0.04527095705270767,-0.1003323495388031,-0.18946333229541779,-0.14442101120948792,-0.06559169292449951,-0.08735767751932144,-0.19115333259105682,-0.10369531065225601,0.13589166104793549,-0.07818127423524857,-0.08748790621757507,0.18827833235263824,-0.060617558658123016,-0.066246896982193,-0.37732937932014465,-0.006150728091597557,-0.02623656392097473,0.08667437732219696,-0.02501726895570755,-0.0034660117235034704,0.716895341873169,0.2655886709690094,0.10103531181812286,0.12144532054662704,-0.13537101447582245,0.031818389892578125,-0.24545122683048248,-0.09944424033164978,0.008155097253620625,0.19449947774410248,-0.02429695427417755,0.00596918910741806,-0.008991209790110588,0.95009845495224,-0.6180413365364075,0.5675623416900635,-0.0667872205376625,0.635042130947113,-0.6394955515861511,-0.03572756424546242,0.4211362898349762,0.3587215840816498,0.007609296124428511,0.11695187538862228,-0.18412594497203827,0.2671358287334442,0.2955957353115082,0.044589828699827194,-0.14459198713302612,-0.15364815294742584,0.12437068670988083,-0.28565263748168945,-0.04775920510292053,0.06700778752565384,0.26060110330581665,-0.017912447452545166,0.07606041431427002,0.021178023889660835,-0.13966237008571625,-0.45252111554145813,-0.2922460734844208,0.14750751852989197,0.11039897799491882,-0.14710234105587006,-0.16083495318889618,-0.02300249971449375,0.16685891151428223,0.1531212329864502,-0.049852192401885986,0.15193061530590057,0.09637866169214249,-0.04995156079530716,-0.21042484045028687,-0.04796933755278587,-0.19238431751728058,-0.034782055765390396,0.09176598489284515,0.1720346063375473,0.11552407592535019,-0.12741485238075256,0.08966705203056335,-0.03194490075111389,-0.02550501562654972,-0.033795930445194244,-0.20065303146839142,-0.004411390982568264,0.09048464894294739,-0.012814165093004704,-0.06241750344634056,0.0020834258757531643,0.0985468327999115,-0.07590959221124649,0.6518061757087708,0.057042982429265976,0.13170845806598663,0.1251065582036972,0.10868197679519653,0.21544191241264343,-0.266604483127594,-0.06953694671392441,-0.04927422106266022,-0.009645446203649044,-0.004741547163575888,0.16753600537776947,-0.034320514649152756,-1.1333601085969689e-38,-7.815906136691993e-39,-1.380766078706144e-38,-1.1939109158896764e-38,2.934771603700144e-39,1.7890465775838192e-38,6.267474136209999e-39,1.8640589251582053e-38,-4.9159413855472135e-39,-3.829524495245433e-40,-1.4375709349440185e-38,7.398603657911456e-40,2.949971894850023e-05,0.003404299495741725,0.013727168552577496,0.014687161892652512,0.004780431278049946,0.0005970595520921052,0.0010264975717291236,0.007471231743693352,-0.00423744460567832,0.022299520671367645,0.0074011762626469135,-0.008951220661401749,0.04486488550901413,0.06012142449617386,0.05716483294963837,0.010388526134192944,-0.010838063433766365,-0.0066847060807049274,0.006443733349442482,0.0007525653345510364,-0.014048079960048199,-0.01877930760383606,0.0034295429941266775,0.014248275198042393,-0.009259101003408432,-0.010253007523715496,0.010779011994600296,0.018567105755209923,-0.037111010402441025,-0.1127796471118927,-0.10788436233997345,-0.04584008827805519,0.006626242306083441,0.002804400632157922,-0.0015126497019082308,-0.004408647306263447,-0.0026142422575503588,0.007829389534890652,-0.005542140919715166,0.0023986785672605038,-0.022254837676882744,-4.483637894736603e-05,-0.02769334241747856,-0.05145793780684471,0.09387743473052979,0.07596997171640396,0.0005582274752669036,-0.003401031717658043,0.06991830468177795,0.007943592965602875],"sample_rate":48000.0}},{"max_value":1.0,"model":{"version":"0.7.0","metadata":{"date":{"year":2026,"month":5,"day":16,"hour":1,"minute":51,"second":44},"loudness":-17.473365783691406,"gain":0.7664671225294867},"architecture":"WaveNet","config":{"layers":[{"input_size":1,"condition_size":1,"head":{"out_channels":1,"kernel_size":16,"bias":true},"channels":8,"kernel_sizes":[6,6,6,6,6,6,6,6,6,6,6,6,6,6,15,15,6,6,6,6,6,6,6],"dilations":[1,3,7,17,41,101,239,1,3,7,17,41,101,239,1,13,1,3,7,17,41,101,239],"activation":[{"type":"LeakyReLU","negative_slope":0.01},{"type":"LeakyReLU","negative_slope":0.01},{"type":"LeakyReLU","negative_slope":0.01},{"type":"LeakyReLU","negative_slope":0.01},{"type":"LeakyReLU","negative_slope":0.01},{"type":"LeakyReLU","negative_slope":0.01},{"type":"LeakyReLU","negative_slope":0.01},{"type":"LeakyReLU","negative_slope":0.01},{"type":"LeakyReLU","negative_slope":0.01},{"type":"LeakyReLU","negative_slope":0.01},{"type":"LeakyReLU","negative_slope":0.01},{"type":"LeakyReLU","negative_slope":0.01},{"type":"LeakyReLU","negative_slope":0.01},{"type":"LeakyReLU","negative_slope":0.01},{"type":"LeakyReLU","negative_slope":0.01},{"type":"LeakyReLU","negative_slope":0.01},{"type":"LeakyReLU","negative_slope":0.01},{"type":"LeakyReLU","negative_slope":0.01},{"type":"LeakyReLU","negative_slope":0.01},{"type":"LeakyReLU","negative_slope":0.01},{"type":"LeakyReLU","negative_slope":0.01},{"type":"LeakyReLU","negative_slope":0.01},{"type":"LeakyReLU","negative_slope":0.01}],"bottleneck":8,"head1x1":{"active":false,"out_channels":1,"groups":1},"layer1x1":{"active":true,"groups":1},"groups_input":1,"groups_input_mixin":1,"conv_pre_film":{"active":false,"shift":true,"groups":1},"conv_post_film":{"active":false,"shift":true,"groups":1},"input_mixin_pre_film":{"active":false,"shift":true,"groups":1},"input_mixin_post_film":{"active":false,"shift":true,"groups":1},"activation_pre_film":{"active":false,"shift":true,"groups":1},"activation_post_film":{"active":false,"shift":true,"groups":1},"layer1x1_post_film":{"active":false,"shift":true,"groups":1},"head1x1_post_film":{"active":false,"shift":true,"groups":1},"gating_mode":["none","none","none","none","none","none","none","none","none","none","none","none","none","none","none","none","none","none","none","none","none","none","none"],"secondary_activation":[null,null,null,null,null,null,null,null,null,null,null,null,null,null,null,null,null,null,null,null,null,null,null],"slimmable":null}],"head":null,"head_scale":0.00794359281822631},"weights":[-1.2761800289154053,2.0049643516540527,-2.2336678504943848,1.395916223526001,-3.504546642303467,2.0203869342803955,-3.1348085403442383,1.521872878074646,-0.07733562588691711,0.056850533932447433,-0.03368769958615303,-0.13975103199481964,0.11914151906967163,0.17013074457645416,0.03028743341565132,-0.07677505910396576,0.030456002801656723,0.1444939374923706,-0.1628844141960144,-0.21066983044147491,-0.10689955204725266,0.057431817054748535,-0.06373821198940277,-0.15092416107654572,0.2099287360906601,0.25441110134124756,0.06343280524015427,-0.07602031528949738,-0.004454008769243956,0.10134357959032059,-0.09085456281900406,-0.13309495151042938,-0.1958644688129425,0.14475037157535553,-0.1674400418996811,-0.15180829167366028,0.19872018694877625,0.33192142844200134,0.06674546003341675,-0.014434992335736752,0.057451698929071426,0.10925614833831787,-0.15311793982982635,-0.16896066069602966,-0.14066888391971588,0.12376301735639572,-0.12343372404575348,-0.15644222497940063,0.23015236854553223,0.24327115714550018,0.020693758502602577,-0.036256350576877594,0.03387102857232094,0.10047650337219238,-0.10255615413188934,-0.10623184591531754,0.07171664386987686,0.017880422994494438,0.08409542590379715,0.049877457320690155,-0.10057606548070908,-0.13124512135982513,-0.11371105909347534,-0.05274396017193794,-0.10678400844335556,-0.03918815776705742,0.15315863490104675,0.2078370749950409,0.1884385496377945,0.024415574967861176,0.16161224246025085,0.06220122426748276,-0.19894440472126007,-0.2317885458469391,-0.09000977873802185,-0.005301580298691988,-0.08910354971885681,-0.045936256647109985,0.10109955817461014,0.14111630618572235,0.2545228600502014,0.07545888423919678,0.1907121241092682,0.08558516949415207,-0.20821285247802734,-0.24754349887371063,-0.10716615617275238,-0.004058158025145531,-0.10202914476394653,-0.07088464498519897,0.1413090080022812,0.17240820825099945,0.216679185628891,0.019757885485887527,0.1672113835811615,0.10122313350439072,-0.2115456759929657,-0.22960764169692993,-0.06765617430210114,-0.01378003042191267,-0.08161414414644241,-0.059412531554698944,0.09447329491376877,0.13208100199699402,0.2066829800605774,0.31355857849121094,0.18623469769954681,0.3077300190925598,-0.5297483801841736,-0.6148744225502014,-0.1660928726196289,-0.3852747082710266,0.013996065594255924,-0.3415941894054413,0.6935189962387085,0.7104055881500244,0.25400984287261963,0.5472217202186584,0.2159086912870407,0.4637967348098755,-0.581255316734314,-0.5329500436782837,-0.17008814215660095,-0.3958919942378998,-0.16794906556606293,-0.42547503113746643,0.5582252144813538,0.6563526391983032,0.10911053419113159,0.36810219287872314,0.1424599587917328,0.26348283886909485,-0.5259904265403748,-0.5869265794754028,-0.026079809293150902,-0.4006183445453644,-0.08906815201044083,-0.41780897974967957,0.6548650860786438,0.5917521119117737,0.19420494139194489,0.26796746253967285,0.06557158380746841,0.40842878818511963,-0.5210332870483398,-0.697860836982727,0.025310494005680084,-0.3246864378452301,-0.28222155570983887,-0.5163987874984741,0.2519470155239105,0.19534236192703247,-0.08686313033103943,-0.1474350392818451,-0.18476422131061554,-0.32027411460876465,0.2259816974401474,0.5348063111305237,0.08999017626047134,0.2879514992237091,0.14385493099689484,0.3998788297176361,-0.35788029432296753,-0.410338819026947,-0.0721939206123352,-0.18749108910560608,-0.036575332283973694,-0.25733044743537903,0.3606254756450653,0.5165172815322876,0.08611033856868744,0.2718653082847595,0.06314092874526978,0.3482692241668701,-0.18672335147857666,-0.5233787298202515,-0.06797364354133606,-0.30011528730392456,-0.1979595422744751,-0.34367918968200684,0.24561771750450134,0.3728237450122833,0.12153394520282745,0.1770201474428177,0.08066106587648392,0.28253376483917236,-0.16535918414592743,-0.48633378744125366,-0.047912437468767166,-0.2903470993041992,-0.1622525304555893,-0.39521855115890503,0.3424328565597534,0.40837231278419495,0.027555247768759727,0.2082347571849823,-0.026875799521803856,0.30706581473350525,-0.3792291283607483,-0.5070385932922363,0.01873232237994671,-0.11857691407203674,0.07361657917499542,-0.4261065423488617,0.3176051676273346,0.32610899209976196,0.022133328020572662,0.11032737046480179,-0.05480321869254112,0.475189208984375,-0.3541177213191986,-0.3802197575569153,-0.0307619571685791,-0.30144163966178894,-0.04250744357705116,-0.6621268391609192,0.4422350823879242,0.44066354632377625,-0.06401130557060242,0.09880457818508148,-0.005700062029063702,0.47984373569488525,-0.3179006576538086,-0.33672648668289185,-0.03581450879573822,-0.09854138642549515,0.06606433540582657,-0.5935100317001343,0.3654636740684509,0.5224695801734924,-0.06385253369808197,0.08309956640005112,-0.04237578809261322,0.47638776898384094,-0.36100950837135315,-0.3340153098106384,0.12269772589206696,-0.1649465709924698,0.014652580954134464,-0.6188980937004089,0.4127931296825409,0.46239879727363586,-0.06315626949071884,0.11868100613355637,-0.05165499821305275,0.4458121359348297,-0.24579846858978271,-0.2926396131515503,0.07982829958200455,-0.04058191180229187,-0.010173587128520012,-0.10655081272125244,0.15137054026126862,0.1480298489332199,-0.14711961150169373,-0.03651176765561104,-0.05123962461948395,0.06694406270980835,-0.22478559613227844,-0.19202756881713867,0.08418247848749161,0.0033356163185089827,-0.02783682942390442,-0.15446102619171143,0.24083256721496582,0.1357104331254959,-0.05130258575081825,-0.015256057493388653,-0.04916374012827873,0.038663797080516815,-0.18563714623451233,-0.14214271306991577,0.11583080887794495,-0.029568267986178398,-0.07375188171863556,-0.18438631296157837,0.2399769276380539,0.13190682232379913,-0.07656829804182053,-0.039382435381412506,-0.03161277621984482,0.12446979433298111,-0.2068941444158554,-0.14221930503845215,0.18721896409988403,-0.06314095854759216,-0.06985677033662796,-0.04640600457787514,0.19349928200244904,0.19517138600349426,-0.04442667216062546,-0.010018201544880867,0.03199438005685806,0.12799130380153656,-0.11383127421140671,-0.05875548720359802,-0.006519812624901533,-0.17997407913208008,-0.13735337555408478,-0.3546048700809479,0.3253598213195801,0.3433898985385895,-0.10051582753658295,0.26553699374198914,0.1621760129928589,0.3874579668045044,-0.32211071252822876,-0.4828510880470276,-0.008116518147289753,-0.3438563346862793,-0.08901029825210571,-0.41992083191871643,0.3810971975326538,0.5143445730209351,-0.09363760054111481,0.2171076089143753,0.0716889351606369,0.2669731378555298,-0.332548052072525,-0.4200138747692108,-0.0756053626537323,-0.177153542637825,-0.11498882621526718,-0.3175202012062073,0.38065704703330994,0.5722363591194153,-0.048402100801467896,0.2095152586698532,0.07733193039894104,0.4297533929347992,-0.37430649995803833,-0.364419162273407,0.04265835881233215,-0.2473078817129135,-0.02870439738035202,-0.3508308231830597,0.39037346839904785,0.3951101303100586,-0.08211693912744522,0.25515323877334595,0.09316370636224747,0.3767028748989105,-0.25301826000213623,-0.3237375319004059,-0.053536221385002136,-0.22245076298713684,-0.09772861003875732,-0.2953164577484131,0.25761890411376953,0.40049341320991516,0.19234265387058258,0.12543343007564545,0.08664345741271973,0.27174270153045654,-0.40524643659591675,-0.4231110215187073,-0.2920643389225006,-0.40208902955055237,-0.3366425335407257,-0.3291550874710083,0.33431926369667053,0.5146850347518921,0.16827355325222015,0.18306201696395874,0.15802127122879028,0.19075758755207062,-0.19765910506248474,-0.31670963764190674,-0.1498366743326187,-0.08943447470664978,-0.13027550280094147,-0.29239344596862793,0.35305413603782654,0.37911951541900635,0.02577408030629158,0.12817680835723877,0.16220462322235107,0.23102807998657227,-0.30577352643013,-0.43914395570755005,-0.17757587134838104,-0.3005610704421997,-0.16360101103782654,-0.17331375181674957,0.36537060141563416,0.4391190707683563,0.14686119556427002,0.12976032495498657,0.20868019759655,0.2911088168621063,-0.2366633415222168,-0.2889057397842407,-0.6878201961517334,-0.45322152972221375,0.37395817041397095,0.2680099308490753,0.6936513185501099,0.18000169098377228,0.06014655902981758,0.5658500790596008,-0.1930111199617386,0.14962932467460632,1.0695862770080566,-0.851355254650116,-0.3681808412075043,-0.30590206384658813,-0.4891863465309143,-0.9442164301872253,-0.2999327480792999,0.043900053948163986,-0.15902791917324066,-0.45686063170433044,0.1649327576160431,0.14100228250026703,-0.44851040840148926,-0.20257984101772308,0.246902197599411,0.4135173261165619,-0.27197331190109253,0.12617477774620056,0.19742926955223083,0.04110470041632652,0.11138872057199478,-0.013564420863986015,-0.23270894587039948,0.6511656641960144,-0.6236768960952759,1.0948665142059326,0.02137184888124466,-0.004608831834048033,0.49589163064956665,0.14497794210910797,0.23813045024871826,-0.13858415186405182,-0.12927351891994476,0.17819462716579437,-0.08001051843166351,-0.380776047706604,-0.36440929770469666,0.02731260657310486,0.01407050434499979,0.43815386295318604,-0.6509236693382263,0.3567986786365509,0.3272954821586609,0.12724262475967407,0.8983789086341858,0.4415537118911743,-0.24140852689743042,-0.04663679376244545,-0.23918665945529938,0.12956519424915314,0.29274848103523254,0.14278551936149597,0.3605870008468628,-0.01681669056415558,-0.7106035351753235,-0.06672315299510956,-0.12818898260593414,0.429458349943161,0.09895872324705124,-0.20550498366355896,0.7576049566268921,-0.14002491533756256,0.21378947794437408,-0.4030982255935669,0.3237493634223938,-0.10689851641654968,-0.44332894682884216,-0.5135510563850403,-0.9282494187355042,-0.1309840828180313,0.21620792150497437,-0.254902720451355,-0.3262381851673126,0.18746376037597656,-0.45603054761886597,0.11529390513896942,-0.004158845171332359,-0.1667289286851883,0.0526433065533638,0.07212425768375397,0.11422412097454071,-0.08227450400590897,-0.44085708260536194,-0.15687578916549683,0.1508627086877823,0.061161547899246216,0.10789190232753754,0.12186705321073532,0.22355583310127258,0.38944482803344727,-0.012206538580358028,-0.004264350980520248,0.07577680051326752,0.0737946629524231,-0.09638607501983643,0.2550005316734314,-0.0998193621635437,-0.1868516504764557,-0.024043185636401176,-0.05826441943645477,-0.1214168518781662,0.1432579755783081,0.06521980464458466,0.049263808876276016,0.054307229816913605,0.03329329192638397,-0.16628652811050415,0.1367345154285431,0.05685596540570259,-0.026887962594628334,0.01418203767389059,-0.13383013010025024,0.0918516218662262,0.09147972613573074,-0.06896887719631195,-0.0008405600674450397,0.016766991466283798,-0.00035490107256919146,-0.05853181332349777,-0.03956751897931099,0.0744476467370987,0.03416910022497177,0.14623978734016418,0.19623510539531708,0.03619449585676193,0.001168615068309009,0.08841177821159363,-0.15094587206840515,0.0385492742061615,-0.14210128784179688,-0.21343186497688293,-0.028265198692679405,-0.04480564594268799,0.07646539807319641,-0.15793870389461517,0.008209232240915298,-0.0753883346915245,0.02084326185286045,0.06513235718011856,0.05639685317873955,0.08667267858982086,0.06504326313734055,-0.21909810602664948,-0.04358554631471634,0.047458261251449585,0.016049249097704887,-0.10917502641677856,-0.049071669578552246,-0.1227581650018692,-0.07904355973005295,0.054132625460624695,-0.05416177585721016,0.1148408055305481,-0.0009857856202870607,-0.20626913011074066,-0.0010560809168964624,0.007687483914196491,0.07153788954019547,-0.08666232228279114,0.04959665238857269,-0.11199978739023209,-0.019697727635502815,0.060759469866752625,-0.05280550569295883,0.07962535321712494,0.12348925322294235,-0.03544441610574722,-0.09714147448539734,0.044231023639440536,-0.0808282122015953,0.056619711220264435,0.0018207757966592908,0.05585544556379318,0.021790215745568275,-0.03469819575548172,-0.05601704493165016,-0.19333839416503906,-0.22746840119361877,-0.6437881588935852,0.04982305318117142,-0.09149952232837677,-0.028131768107414246,-0.0209056343883276,-0.062194667756557465,0.20231038331985474,0.4454343020915985,0.058792226016521454,0.01666220650076866,0.011504760943353176,0.05729378014802933,-0.05672917887568474,0.3677392899990082,-0.12993782758712769,-0.09437519311904907,-0.07860839366912842,-0.22320474684238434,-0.12485786527395248,0.16551893949508667,-0.009314258582890034,-0.0036301794461905956,-0.027947809547185898,0.020975274965167046,-0.24542993307113647,0.1699662208557129,-0.12182528525590897,-0.03749809414148331,0.005048528779298067,-0.2311447262763977,0.018470399081707,0.07567998766899109,0.14014214277267456,0.12790271639823914,0.11330248415470123,-0.015419997274875641,-0.11954652518033981,-0.08934304863214493,0.0869760736823082,0.06791277229785919,0.09559331834316254,0.06308609247207642,-0.020510205999016762,-0.05474911257624626,-0.17539595067501068,-0.05082152783870697,-0.10069593787193298,0.14192380011081696,0.3735009729862213,0.1498374342918396,0.10908719152212143,0.09947901219129562,0.160180002450943,0.01646305061876774,0.04276241734623909,0.10412095487117767,0.18022631108760834,0.11998248845338821,0.16559739410877228,0.06576202064752579,0.22787025570869446,0.27136093378067017,0.1415829360485077,0.022015495225787163,0.021157825365662575,-0.04318341612815857,-0.006740229204297066,-0.14912834763526917,0.12989820539951324,0.045648243278265,-0.05056624859571457,0.14950823783874512,0.0647783949971199,0.17984463274478912,-0.038284026086330414,-0.07392586767673492,0.007127886172384024,-0.14437203109264374,-0.06730349361896515,-0.009785573929548264,-0.2400481253862381,-0.16349747776985168,-0.18364158272743225,-0.01069311797618866,0.07694555073976517,0.06605876237154007,0.24817346036434174,0.10175568610429764,0.07939288020133972,0.12146013230085373,0.08855275064706802,-0.026360685005784035,-0.06759519875049591,-0.13874711096286774,-0.13903766870498657,-0.09202532470226288,-0.04821242392063141,-0.10437425971031189,0.09821848571300507,0.03304644301533699,0.00853405799716711,0.15641431510448456,-0.14651542901992798,-0.19325071573257446,0.054159872233867645,0.0675179585814476,-0.00010288374323863536,0.11200378835201263,0.03653217852115631,0.2606789767742157,0.1282670944929123,0.054495252668857574,0.01142914593219757,0.1393561065196991,0.016144903376698494,-0.08480538427829742,-0.053764160722494125,-0.09068591892719269,-0.10803143680095673,-0.060590192675590515,0.12635932862758636,0.24470610916614532,0.10079709440469742,-0.004142992198467255,-0.04125548526644707,0.08959666639566422,-0.1357974261045456,-0.024666646495461464,-0.08388805389404297,-0.08537454903125763,-0.11127953976392746,-0.13914300501346588,0.11187860369682312,0.31399399042129517,0.04497227817773819,0.09947122633457184,0.02191174030303955,0.06473192572593689,0.1358262300491333,-0.0694870725274086,0.03534651920199394,0.01706130988895893,-0.11002715677022934,-0.3214207887649536,-0.27674341201782227,-0.07725735753774643,0.00690943468362093,-0.0048677013255655766,-0.049544043838977814,0.12185730040073395,-0.008892275393009186,0.0899573490023613,-0.03772319108247757,-0.017876090481877327,0.022814910858869553,-0.01510530337691307,0.05302000045776367,-0.03180084750056267,-0.09659208357334137,-0.08701183646917343,-0.0830964669585228,0.05001051351428032,-0.07329276949167252,0.05362358316779137,-0.016115793958306313,0.07963281869888306,0.09492267668247223,-0.07520561665296555,0.13761362433433533,0.017749041318893433,0.06918470561504364,-0.00029254297260195017,-0.0467926487326622,0.06977874040603638,-0.14332245290279388,-0.10411977767944336,0.11902809143066406,0.04376683756709099,0.07259655743837357,-0.04499632492661476,-0.04332341253757477,-0.16182014346122742,-0.00998638290911913,-0.05313119664788246,-0.021938910707831383,0.09804689884185791,0.016070669516921043,0.16145820915699005,0.2378864288330078,0.3018098473548889,0.24861766397953033,0.2858562469482422,0.12352152168750763,-0.09763491898775101,-0.13544972240924835,-0.14011839032173157,-0.09859830141067505,-0.20322251319885254,0.06570039689540863,0.020372135564684868,-0.15152771770954132,0.037961941212415695,0.14728088676929474,0.028065215796232224,-0.17106175422668457,-0.578246533870697,-0.17583556473255157,-0.11669880896806717,-0.15285253524780273,-0.18848475813865662,-0.0363357737660408,0.4264933466911316,0.07658340036869049,0.11821811646223068,0.0499044694006443,-0.05379391834139824,-0.08274491876363754,-0.32882407307624817,0.0028518997132778168,0.05262507498264313,0.02234083041548729,0.13764691352844238,0.19582797586917877,-0.2424805909395218,0.29622796177864075,0.12424309551715851,0.2415705770254135,0.04065361246466637,-0.11229535937309265,-0.7632876634597778,-0.09368887543678284,-0.17341801524162292,-0.16587631404399872,-0.17625738680362701,-0.11659348011016846,0.046813543885946274,-0.17460577189922333,-0.08462034910917282,-0.11437704414129257,0.029741298407316208,0.04467315226793289,0.03377087786793709,-0.15102806687355042,-0.027837328612804413,-0.16952107846736908,-0.10167667269706726,-0.08354745805263519,-0.011976353824138641,0.11616498231887817,-0.1665649265050888,-0.053400445729494095,-0.10962168127298355,-0.07114254683256149,-0.13725504279136658,0.26844608783721924,0.05691393092274666,0.10259880125522614,-0.0009043136378750205,-0.0768095850944519,0.13398347795009613,-0.15793436765670776,-0.10482072830200195,-0.05818842351436615,-0.1814359426498413,-0.1613248884677887,0.020807189866900444,0.04002157971262932,-0.016704989597201347,0.03150079399347305,0.13720624148845673,0.06147041916847229,0.2729812264442444,-0.16194722056388855,-0.043641213327646255,-0.15067538619041443,0.014538314193487167,-0.17531360685825348,-0.1912524551153183,-0.09834608435630798,-0.18424952030181885,-0.11404618620872498,-0.10022198408842087,-0.168694406747818,-0.2298748940229416,-0.3307984173297882,0.0004473600129131228,-0.1153537929058075,-0.31901291012763977,-0.05360366031527519,-0.1337680220603943,-0.051384348422288895,0.14172789454460144,0.06004903092980385,0.012291585095226765,-0.0469990074634552,-0.05053693428635597,-0.06927500665187836,0.010597952641546726,0.8439237475395203,0.3684622645378113,0.26241135597229004,-0.13832814991474152,0.31942009925842285,0.026687730103731155,-0.12326466292142868,-0.24983981251716614,0.20430085062980652,-0.19543153047561646,-0.23599417507648468,-0.017496420070528984,-0.30578115582466125,0.02741386741399765,0.5449355840682983,0.19867494702339172,-0.36200448870658875,0.18246734142303467,-0.4108463227748871,0.14358434081077576,-0.4927758574485779,-0.47983407974243164,0.005788411479443312,0.16864487528800964,-0.10322859138250351,0.17348724603652954,0.06006088852882385,0.20391178131103516,0.12141992896795273,0.32290247082710266,-0.06179378554224968,-0.04037358984351158,0.11599798500537872,0.37770068645477295,-0.43911808729171753,0.004687907174229622,-0.4585929811000824,-0.2558343708515167,0.2661656141281128,0.17761768400669098,-0.26108482480049133,-0.15027384459972382,-0.04997774958610535,-0.37077099084854126,-0.23265564441680908,-0.12248365581035614,0.10713069885969162,0.16823774576187134,-0.27231451869010925,-0.02213526889681816,-0.26279503107070923,-0.03490559011697769,-0.07796220481395721,-0.44910532236099243,0.18180938065052032,0.14086592197418213,-0.05824531614780426,-0.014476528391242027,0.4266623258590698,-0.004814011976122856,0.1510501652956009,0.176693856716156,-0.12978655099868774,-0.2336011677980423,0.09148887544870377,0.016384704038500786,-0.17010124027729034,-0.16978909075260162,-0.029002297669649124,-0.1862877905368805,0.315568745136261,0.3507692515850067,0.08743473887443542,0.2823850214481354,0.19533367455005646,0.20159783959388733,0.2173147052526474,0.2419193834066391,0.1483875960111618,-0.08542536199092865,-0.04191717132925987,0.15557125210762024,0.13818363845348358,0.06664618849754333,0.1658448427915573,0.3267698884010315,0.1374603509902954,0.07225535809993744,0.053433336317539215,-0.008384760469198227,-0.03458382934331894,-0.29282981157302856,-0.0759551152586937,-0.16062189638614655,-0.11511900275945663,-0.17181335389614105,-0.21406176686286926,0.4620983600616455,-0.08496036380529404,-0.012573426589369774,0.028849627822637558,0.11623670160770416,0.10914385318756104,-0.39767953753471375,0.02641640417277813,-0.11738066375255585,-0.15577900409698486,-0.14824816584587097,-0.2831927239894867,-0.20413661003112793,0.13617423176765442,0.10173400491476059,-0.018164554610848427,-0.08477530628442764,0.053357116878032684,-0.40994417667388916,0.015374824404716492,0.12723708152770996,0.08128293603658676,0.07348020374774933,0.1561177670955658,0.2340284138917923,-0.07508303970098495,-0.08550535887479782,-0.16593462228775024,-0.18565891683101654,-0.09477937966585159,0.04306782782077789,-0.003096923464909196,-0.02168736793100834,0.08606771379709244,0.020919425413012505,-0.05021524056792259,-0.2700513005256653,0.022586436942219734,0.07766591757535934,0.08846444636583328,-0.04614702984690666,0.03276238590478897,0.4649973213672638,0.05536443740129471,0.0531308613717556,0.22415921092033386,0.2095373272895813,0.07923731952905655,-0.20203465223312378,0.023431194946169853,-0.003784248372539878,-0.13889454305171967,-0.09701105207204819,0.12253830581903458,0.3247072696685791,0.0748651921749115,0.12715546786785126,0.11315713077783585,0.1299317330121994,-0.05535213649272919,0.017760610207915306,-0.0840170755982399,-0.0876946970820427,-0.16378813982009888,-0.043228209018707275,0.012344743125140667,0.5738055109977722,-0.004387764725834131,0.05247107893228531,-0.0322430320084095,0.0743987113237381,-0.10024882853031158,0.23518893122673035,0.008072290569543839,0.007693815976381302,0.007544780150055885,0.007344096899032593,0.006994328927248716,0.006552560720592737,0.009512988850474358,0.010808213613927364,0.009307303465902805,0.008829602971673012,0.008154028095304966,0.009264360181987286,0.002712849760428071,0.002159558702260256,0.0019335708348080516,0.00214023282751441,0.004025900270789862,0.006486744619905949,-0.003230811795219779,-0.004451597575098276,-0.00426302058622241,-0.003928195685148239,-0.0034614745527505875,-0.004553893581032753,-8.231809624703601e-05,0.0014250773238018155,0.0010166731663048267,-0.0001292094384552911,0.001158438273705542,0.004226646851748228,-0.007018905133008957,-0.005023288074880838,-0.006079713813960552,-0.0069458819925785065,-0.00812242180109024,-0.007663000375032425,-0.0008660937310196459,-0.0020023277029395103,-0.0026844493113458157,-0.002647655550390482,0.00034228633739985526,0.0024732977617532015,0.007823385298252106,0.007153130602091551,0.008175238035619259,0.008844706229865551,0.009385562501847744,0.008479163981974125,0.06926068663597107,0.02341790683567524,-0.012477208860218525,-0.14993064105510712,0.016947994008660316,0.020199604332447052,-0.04216765984892845,0.004414317663758993,0.09500937163829803,0.013345379382371902,0.08952157199382782,0.04509028419852257,0.0618356429040432,0.05825096368789673,-0.006080161314457655,-0.004297446459531784,-4.559764784062281e-05,-0.12877613306045532,-0.11790023744106293,-0.08154180645942688,-0.01895933412015438,-0.03892025724053383,0.09092243015766144,0.010468077845871449,0.016632510349154472,0.07715211808681488,0.05159636214375496,-0.013438188470900059,0.08150511234998703,-0.1187431737780571,-0.02627304196357727,0.026650073006749153,0.062498386949300766,-0.043569568544626236,0.01992673985660076,-0.013549311086535454,0.0991334617137909,0.07353174686431885,0.08005352318286896,0.060225050896406174,0.021468019112944603,-0.08695446699857712,0.01574607565999031,0.0005660323076881468,-0.036263126879930496,0.007685253396630287,-0.03499137982726097,0.08359388262033463,-0.042416248470544815,-0.10734563320875168,-0.06684166193008423,0.07064810395240784,0.08773145824670792,-0.18543100357055664,-0.2273160219192505,-0.1499776542186737,-0.04218951612710953,-0.19717440009117126,-0.1282140612602234,0.015647009015083313,-0.06475263833999634,-0.07167218625545502,-0.04837662726640701,0.08158127963542938,-0.0706317350268364,-0.6152209639549255,-0.027219107374548912,-0.13493262231349945,0.0008825846598483622,-0.05297333374619484,-0.09815919399261475,0.3042641878128052,0.10445655137300491,0.1490022838115692,0.0936293751001358,0.0075734276324510574,0.07303060591220856,-0.32875367999076843,0.004681880120187998,0.04148948937654495,0.10041841119527817,0.1666339933872223,0.10295922309160233,0.05828831344842911,0.1828811913728714,0.19753822684288025,0.030080948024988174,0.1835021674633026,-0.004819778725504875,-0.3883253037929535,-0.07024240493774414,-0.07675019651651382,-0.21901796758174896,-0.11759277433156967,-0.18098336458206177,0.1192907840013504,0.05647312104701996,0.05185449495911598,0.05974447727203369,0.0701553076505661,-0.10097277164459229,-0.19897790253162384,0.042048174887895584,0.056660328060388565,-0.019454708322882652,-0.00224525248631835,0.025820381939411163,-0.03566695749759674,-0.00627819262444973,0.030946016311645508,0.09858351200819016,0.05468552187085152,-0.04918878898024559,-0.49832189083099365,0.02572241611778736,0.014113668352365494,-0.04051586240530014,-0.0031326531898230314,0.016118431463837624,-0.01820657029747963,0.004556321073323488,0.0449940450489521,0.039870861917734146,0.06807002425193787,-0.09267932921648026,-0.43467843532562256,-0.009055489674210548,-0.0660400539636612,-0.056803226470947266,-0.08142806589603424,0.07085669785737991,0.08413955569267273,0.016037797555327415,-0.040460143238306046,-0.019571706652641296,-0.050036147236824036,-0.06177134811878204,-0.11610391736030579,0.027273721992969513,0.08703978359699249,0.12331615388393402,0.06960411369800568,-0.10727708041667938,0.4107069671154022,-0.07061752676963806,-0.004634551238268614,-0.025618337094783783,-0.02498503588140011,0.04096955060958862,-0.09089898318052292,0.08423507213592529,0.06817815452814102,0.10215477645397186,0.131505087018013,0.10343005508184433,0.01701657846570015,0.026689745485782623,0.02423384226858616,-0.020481547340750694,-0.0599408857524395,0.03501742705702782,0.048654086887836456,0.04166223108768463,0.14019301533699036,0.037143174558877945,0.031326912343502045,0.08227310329675674,-0.10542475432157516,-0.07852468639612198,-0.11837942153215408,-0.08738331496715546,-0.11736753582954407,-0.07282338291406631,0.0732484832406044,0.003648281330242753,-0.07809074968099594,-0.07210937142372131,-0.004356164485216141,0.046074677258729935,-0.03830498829483986,-0.13282324373722076,-0.11121702194213867,-0.11695275455713272,-0.07935912162065506,-0.10631764680147171,0.006776917260140181,0.020974120125174522,-0.016161229461431503,0.0930234044790268,0.051417846232652664,0.041900716722011566,0.010001433081924915,0.04657653719186783,-0.015090872533619404,0.04909779503941536,0.026530036702752113,0.05530998110771179,0.10695421695709229,0.05793328955769539,0.06811507791280746,0.17840705811977386,0.06320428103208542,0.11963552981615067,-0.02382228896021843,0.0158862117677927,-0.06171034276485443,0.07224003970623016,0.003701315261423588,-0.33330777287483215,0.10785631835460663,-0.07425256073474884,-0.014590819366276264,0.009450294077396393,-0.11626993864774704,-0.19141070544719696,0.10381453484296799,-0.10314808040857315,-0.0026757915038615465,-0.13363312184810638,-0.008117228746414185,0.17067231237888336,-0.09094405919313431,-0.0265684574842453,-0.025313708931207657,-0.017555417492985725,-0.0879904106259346,-0.22880549728870392,-0.538441002368927,-0.01493971236050129,-0.06608176976442337,0.003054894506931305,-0.09264121204614639,-0.06676463782787323,-0.3158567547798157,-0.1414058953523636,-0.06972172856330872,-0.07194923609495163,-0.11698481440544128,-0.22301548719406128,0.00018066985649056733,-0.34110909700393677,0.11339076608419418,-0.016389548778533936,-0.04292481020092964,0.1687818467617035,-0.08858876675367355,-0.0318928025662899,-0.3498303294181824,0.3068278133869171,-0.6294492483139038,-0.0007374808192253113,0.03482842445373535,-0.2567993700504303,0.2995830178260803,-0.04183026775717735,0.023700859397649765,-0.19679415225982666,-0.1047237440943718,-0.007505558896809816,0.03650715574622154,0.031609516590833664,0.15929633378982544,0.1774691492319107,-0.052503813058137894,0.3606094419956207,0.18511171638965607,-0.0035828459076583385,-0.10252146422863007,0.010395297780632973,-0.11296477168798447,0.3485393524169922,0.2075604796409607,0.44877728819847107,0.34778115153312683,0.007110971491783857,0.0197902824729681,0.060026295483112335,-0.12116807699203491,0.024732911959290504,0.18609246611595154,-0.45094603300094604,0.08489595353603363,-8.750402048463002e-05,0.046704769134521484,-0.21204890310764313,0.18594364821910858,0.12058354169130325,-0.05590621381998062,0.4878533184528351,0.1425422877073288,0.0021396754309535027,0.051713913679122925,-0.22381865978240967,-0.6173844337463379,-0.00976067129522562,0.517503023147583,-0.03888494521379471,-0.1982429325580597,0.002022347878664732,0.22590552270412445,-0.20918859541416168,-0.043944351375103,-0.04438880458474159,0.3117416501045227,-0.32285386323928833,-0.2120870053768158,-0.0006109148962423205,0.14815644919872284,-0.28448525071144104,0.16410653293132782,0.22626958787441254,0.14185819029808044,-0.3310326039791107,-0.1968061327934265,0.0004657988320104778,0.022997243329882622,0.036323707550764084,0.2753714621067047,-0.08078218996524811,-0.18650881946086884,0.2559577524662018,0.26328277587890625,0.12114709615707397,-0.2849680185317993,0.13064484298229218,-0.17665064334869385,0.36804622411727905,0.27679723501205444,-0.07204249501228333,-0.004710699897259474,-0.02620338834822178,0.12778908014297485,-0.012448026798665524,0.1875986009836197,0.012028208002448082,-0.008937649428844452,-0.006853603292256594,-0.04337092489004135,0.06660296022891998,-0.017528338357806206,-0.053063374012708664,0.0512041300535202,-0.00590394577011466,0.09454591572284698,-0.08758998662233353,0.22328294813632965,-0.051232606172561646,-0.03434166684746742,-0.08289054036140442,0.030838096514344215,0.02738955244421959,-0.25029122829437256,-0.00217626360245049,-0.08017995208501816,-0.019527679309248924,-0.11917813122272491,-0.2076062113046646,0.31336140632629395,0.03749319538474083,0.09837799519300461,0.16156922280788422,0.12751005589962006,0.15980511903762817,-0.09000884741544724,0.11991509050130844,0.099912129342556,0.029856953769922256,0.014854763634502888,0.21933802962303162,0.029981452971696854,0.10109459608793259,0.12939061224460602,0.2334575057029724,0.16553901135921478,0.21617715060710907,-0.35788241028785706,0.06994064152240753,-0.10519086569547653,0.043906498700380325,0.0003287372528575361,-0.02680112235248089,0.23205432295799255,0.10441882163286209,0.013021591119468212,0.05569453537464142,0.1189168319106102,0.14915084838867188,-0.17357641458511353,-0.23621641099452972,-0.24314463138580322,-0.13111025094985962,-0.15415121614933014,-0.12210746854543686,-0.10139810293912888,0.16326364874839783,0.05481196939945221,0.07687067240476608,0.07371243834495544,0.12011874467134476,-0.11162262409925461,0.11133202165365219,0.046202607452869415,-0.0008281465852633119,-0.022028377279639244,0.0022239801473915577,0.23538289964199066,-0.05052955076098442,0.03378594294190407,0.0551736056804657,0.005736587103456259,0.00315734907053411,-0.6694983839988708,-0.09563248604536057,-0.0729629248380661,-0.11185336858034134,0.06032378226518631,-0.13394367694854736,-0.400650292634964,-0.017345760017633438,-0.0634159967303276,-0.0816531702876091,-0.02865687571465969,-0.06932607293128967,-0.39647552371025085,0.06239322945475578,0.003781838808208704,0.08119753003120422,0.014689302071928978,0.19482500851154327,0.0020515737123787403,-0.040535204112529755,-0.028378430753946304,-0.04132549837231636,-0.10073447227478027,-0.1351775974035263,0.08533012866973877,0.12338027358055115,0.07459483295679092,0.16958387196063995,0.04093625396490097,0.16328279674053192,-0.1285470873117447,-0.1460612565279007,-0.1322174072265625,-0.023656362667679787,0.04786379635334015,-0.15431642532348633,0.320456326007843,-0.02499145083129406,0.0011235399870201945,-0.054183874279260635,0.009202376939356327,0.1329619586467743,-0.5196722745895386,0.04503272473812103,-0.04196352884173393,-0.05204262584447861,-0.04812084510922432,-0.10545989125967026,-0.054432060569524765,0.00872951652854681,0.054382529109716415,-0.011244446039199829,0.06610085815191269,-0.002137919655069709,-0.17065034806728363,0.06560537964105606,0.04545852541923523,-0.09062620997428894,-0.18176734447479248,-0.07226858288049698,0.3581719398498535,0.06825543940067291,0.018999725580215454,0.03254092112183571,0.02621707133948803,-0.02743937447667122,0.3832911550998688,0.02810085192322731,-0.015330981463193893,0.07848861813545227,-0.03248627856373787,0.07870348542928696,-0.09940734505653381,0.09881183505058289,0.05433658882975578,0.036579616367816925,0.050632789731025696,-0.003228274639695883,-0.05719761177897453,-0.04005739837884903,0.014696170575916767,0.009537341073155403,-0.014441811479628086,0.12166152894496918,0.029370782896876335,-0.003918646834790707,0.009796352125704288,-0.02139202505350113,-0.029328618198633194,-0.09369619935750961,0.30648815631866455,-0.029978321865200996,-0.023793166503310204,-0.07681471109390259,-0.0155256362631917,0.07097134739160538,-0.023992227390408516,0.02284388430416584,0.02267390862107277,0.08409150689840317,0.06543232500553131,0.03520425409078598,-0.3391804099082947,0.07089724391698837,0.041098013520240784,0.04086806997656822,-0.013212013989686966,0.030336033552885056,0.1481357365846634,-0.03950813040137291,0.09300277382135391,0.07468835264444351,0.014680367894470692,-0.011646848171949387,-0.10428736358880997,0.01868337206542492,0.13456934690475464,0.05893334001302719,0.11812204122543335,0.22360852360725403,0.17536033689975739,0.07351748645305634,0.14159277081489563,0.19403982162475586,0.11067564785480499,-0.02596643753349781,0.15254779160022736,-0.12645269930362701,0.0025621249806135893,-0.03326456621289253,-0.0005209556547924876,-0.006705733016133308,0.041916027665138245,-0.034292787313461304,-0.09774233400821686,-0.06069297716021538,-0.06309770047664642,0.033407896757125854,-0.3162015378475189,-0.005131964571774006,0.028377950191497803,-0.06943394243717194,-0.09257999807596207,-0.047580309212207794,-0.1917499303817749,-0.02115624211728573,0.02923038974404335,0.0178989190608263,0.12994076311588287,-0.03421127796173096,0.2102620154619217,0.022770678624510765,0.011211072094738483,0.006715957075357437,0.006820900831371546,-0.02881227619946003,0.19090113043785095,-0.024802569299936295,0.11855421960353851,0.07448068261146545,0.1198556050658226,0.1583203673362732,0.027107859030365944,-0.0302945114672184,-0.0744708850979805,-0.2216332107782364,-0.1600833684206009,-0.2095467746257782,-0.08581815659999847,0.03863127902150154,0.11866210401058197,0.10186765342950821,0.1314568966627121,0.039721570909023285,-0.1940883845090866,-0.03146863728761673,0.010925575159490108,-0.06625393033027649,-0.14486072957515717,-0.108497254550457,0.2894057631492615,-0.009013976901769638,-0.04939546063542366,0.03703993558883667,-0.02137196622788906,0.10500632971525192,-0.509864330291748,-0.016880745068192482,0.06921293586492538,0.00041498278733342886,0.014634734950959682,-0.05550665408372879,-0.016812145709991455,0.003625256707891822,0.02844221331179142,0.04971619322896004,0.029589971527457237,-0.020780233666300774,-0.08601370453834534,-0.025981349870562553,-0.04457823187112808,0.013809990137815475,0.02373378351330757,-0.11650866270065308,0.23463338613510132,0.059734512120485306,-0.010891539044678211,-0.02108626626431942,-0.03193766996264458,-0.05670453980565071,0.004447854124009609,0.07478153705596924,0.138347789645195,0.03741027042269707,0.08694561570882797,0.006926114670932293,-0.2806881368160248,0.016164936125278473,-0.11311604082584381,0.016659243032336235,0.012859677895903587,0.02516726590692997,-0.0908508375287056,0.057067278772592545,0.06832025945186615,0.01706855371594429,0.158482626080513,0.024813754484057426,-0.0711764246225357,-0.0797695592045784,-0.01733968034386635,-0.03916037827730179,-0.02548408880829811,0.0061266375705599785,0.2210531383752823,0.01437233854085207,-0.060884974896907806,-0.009768904186785221,-0.11052651703357697,-0.11020121723413467,0.032836731523275375,-0.0028064658399671316,-0.11353052407503128,-0.01928255520761013,0.038096554577350616,-0.07455909997224808,0.2626453936100006,-0.08437114953994751,-0.10271790623664856,-0.03225055709481239,-0.011688333004713058,-0.09696809202432632,0.08822523057460785,-0.0497196801006794,-0.019281582906842232,-0.09833727031946182,-0.10124175250530243,0.05978173390030861,0.02558695338666439,-0.13379856944084167,0.016692468896508217,-0.07273915410041809,0.05334940180182457,0.09409938752651215,0.06296246498823166,0.05855615437030792,0.13896328210830688,0.15816394984722137,0.12901435792446136,-0.036461539566516876,-0.06389742344617844,-0.03642088547348976,-0.0981576219201088,-0.1254739910364151,-0.06769990921020508,0.14960381388664246,0.23446902632713318,0.043329887092113495,-0.001115436782129109,-0.05047115683555603,0.04343176260590553,0.056253593415021896,-0.2494557648897171,0.05863446369767189,0.036895133554935455,0.031144049018621445,0.004019949585199356,-0.03920114040374756,-0.01533303502947092,-0.1261703222990036,-0.0008088980684988201,0.011233287863433361,-0.04232582077383995,0.0020562130957841873,0.06898323446512222,-0.06863754987716675,-0.008881773799657822,-0.10234223306179047,-0.01181821245700121,-0.12911787629127502,0.1187354102730751,0.09579367935657501,-0.4401726722717285,-0.03696902468800545,-0.031059471890330315,0.07822877168655396,0.12292328476905823,-0.13014642894268036,-0.029485033825039864,-0.25499752163887024,-0.3502684235572815,0.13845348358154297,0.008627565577626228,-0.23999443650245667,0.2567306458950043,-0.06896063685417175,0.25879934430122375,-0.18756157159805298,-0.2316134124994278,0.19564905762672424,-0.22958923876285553,0.20445124804973602,0.09772232919931412,-0.003304908750578761,0.04209190234541893,-0.040398888289928436,0.4541798532009125,-0.11909652501344681,0.06209457293152809,-0.11525450646877289,-0.08197423070669174,0.31580549478530884,0.11659180372953415,0.3229876458644867,0.14199577271938324,-0.04948108643293381,0.1799563318490982,0.040809664875268936,-0.10125173628330231,0.17930179834365845,0.030968017876148224,0.2532433867454529,0.8812757134437561,-0.35179758071899414,-0.10533658415079117,-0.23452629148960114,-0.11211397498846054,-0.1798865646123886,-0.24294939637184143,-0.1574433147907257,-0.06398610770702362,-0.36661747097969055,0.2164333015680313,0.3688248097896576,-0.3438979387283325,0.12857671082019806,-0.026732245460152626,-0.06770090013742447,0.23834387958049774,0.08790503442287445,0.2881236672401428,-0.0810689628124237,0.05299905687570572,0.08284109085798264,0.20530429482460022,0.06815074384212494,0.3407077491283417,-0.0570858009159565,0.26113414764404297,0.07889720797538757,-0.2164931744337082,-0.3687291145324707,-0.20860017836093903,-0.024206236004829407,-0.2521636486053467,0.1528746336698532,-0.057625021785497665,-0.058145273476839066,0.25014814734458923,-0.0027232130523771048,0.03480172157287598,0.07233785092830658,-0.020117443054914474,-0.2931661605834961,0.3501436710357666,0.17781732976436615,0.002519714878872037,-0.027712978422641754,0.13558600842952728,-0.00947851873934269,-0.017065225169062614,0.03765513375401497,0.02566317282617092,0.01868075132369995,0.19505774974822998,-0.04422047734260559,-0.02148866280913353,-0.0036008998285979033,0.0325741283595562,-0.0648033544421196,0.06358098238706589,-0.06226487085223198,-0.014751498587429523,-0.042132530361413956,0.0028487928211688995,0.054465845227241516,-0.0662536770105362,0.02276974730193615,-0.09575024247169495,0.028072107583284378,-0.08338813483715057,-0.02954714559018612,0.025844719260931015,0.02960027940571308,0.05058359354734421,0.034379150718450546,0.042855776846408844,0.07684110105037689,-0.2016381174325943,0.00023475235502701253,-0.0029003904201090336,-0.014917378313839436,-0.10214731842279434,-0.10025152564048767,0.038459014147520065,0.080368272960186,0.025970332324504852,0.028304368257522583,0.011061953380703926,-0.03469051048159599,-0.1361011266708374,0.027151502668857574,-0.01669212616980076,-0.0029425492975860834,-0.011152028106153011,0.0371643491089344,0.056548040360212326,0.13099849224090576,-0.0330154187977314,-0.015192825347185135,-0.11352939903736115,0.04751930385828018,0.11770661175251007,0.1276330053806305,-0.11465085297822952,-0.12096450477838516,-0.08270226418972015,0.02193508855998516,-0.11737050116062164,0.1175369992852211,0.18881794810295105,0.2096523940563202,0.08163066953420639,0.1211068257689476,0.15249484777450562,-0.017529606819152832,-0.0403137169778347,-0.0037361253052949905,-0.03853470832109451,0.08121924102306366,-0.369617223739624,-0.15095628798007965,-0.13417524099349976,-0.1323506087064743,-0.1806638389825821,-0.20877806842327118,0.11414844542741776,0.06404808163642883,0.050863683223724365,0.005453987047076225,-0.026513835415244102,0.011573733761906624,0.192582905292511,0.024128323420882225,0.11432784795761108,0.17329849302768707,0.09409238398075104,-0.06095210835337639,-0.11375605314970016,-0.014324774034321308,0.09780225157737732,0.1485130935907364,-0.0074476259760558605,-0.03196381404995918,0.05588020384311676,0.028968878090381622,-0.0926608219742775,-0.17509989440441132,-0.038820330053567886,0.08224128186702728,0.07716445624828339,0.07419008016586304,-0.018288135528564453,-0.06922394782304764,0.020703181624412537,0.2406068742275238,0.5272313356399536,-0.008871309459209442,0.010757452808320522,0.07837151736021042,0.0062327212654054165,0.03822924196720123,0.10028307884931564,-0.07470662891864777,-0.10190439224243164,-0.14972060918807983,-0.19388562440872192,-0.03838318958878517,0.23004676401615143,0.023527588695287704,0.019137024879455566,0.07580144703388214,-0.0015274586621671915,-0.15148372948169708,-0.14146688580513,0.05272228270769119,0.018757302314043045,-0.1200539842247963,0.001397092710249126,-0.03397637978196144,-0.09191231429576874,-0.06853803992271423,-0.029490120708942413,-0.1305551677942276,-0.04088618606328964,-0.07038650661706924,0.025456111878156662,-0.008543563075363636,0.025388604030013084,0.04945063591003418,-0.09246362745761871,-0.12342104315757751,-0.027388151735067368,-0.009513774886727333,-0.01122325100004673,-0.06944218277931213,-0.010572505183517933,0.08791834115982056,0.26213663816452026,0.016738010570406914,0.0188429057598114,-0.05331481248140335,0.020460205152630806,-0.03354024142026901,-0.10323339700698853,0.07518211752176285,0.06680843234062195,0.08531835675239563,0.059694740921258926,0.03989403694868088,-0.3032955229282379,-0.028828062117099762,0.015331010334193707,-0.05357152596116066,-0.11390522122383118,-0.07979466766119003,-0.1406140923500061,0.008650833740830421,0.026807792484760284,0.03143467754125595,0.030461400747299194,0.08046746253967285,-0.4123196303844452,-0.05606989935040474,-0.05535964295268059,-0.015657849609851837,0.00247250497341156,-0.016509834676980972,-0.17930683493614197,-0.04552414268255234,-0.0817243680357933,-0.06468039005994797,-0.03645256161689758,0.0201629139482975,-0.17621785402297974,0.026115983724594116,0.05226820334792137,0.007568278815597296,-0.034388188272714615,-0.0496736578643322,0.21448710560798645,0.10852012038230896,0.09794975817203522,0.04323800653219223,0.0017419821815565228,0.03854567930102348,0.021502049639821053,-0.031416602432727814,-0.009703950956463814,0.03003036603331566,-0.054447609931230545,0.2121439278125763,-0.07458672672510147,0.04002230614423752,0.04022728651762009,0.013559608720242977,0.04452063515782356,0.009495651349425316,0.03059333562850952,0.04756404832005501,0.019597576931118965,0.024483835324645042,-0.004032919183373451,0.0997636690735817,0.14462518692016602,0.011544479057192802,0.027828555554151535,0.07118421792984009,0.07827405631542206,-0.03332417830824852,0.2996062636375427,0.056984785944223404,0.023999981582164764,-0.04945569485425949,0.05128674954175949,-0.015129255130887032,-0.2378683239221573,-0.05181058868765831,0.013397851958870888,-0.07669270038604736,-0.049649424850940704,0.032206278294324875,0.28244781494140625,-0.03829871118068695,0.038790881633758545,0.059409718960523605,0.11903949081897736,0.17333288490772247,0.10940561443567276,0.0640704408288002,0.06076660379767418,0.06665051728487015,-0.04292463883757591,0.15345770120620728,0.27899736166000366,0.03272779658436775,0.029662873595952988,0.047172367572784424,-0.03336959704756737,-0.02127525769174099,-0.030005615204572678,-0.04826425760984421,0.015889156609773636,0.045787639915943146,0.08026675134897232,-0.00037653945037163794,-0.08802149444818497,-0.016756396740674973,-0.04270079731941223,-0.015891067683696747,-0.08215434104204178,-0.11350611597299576,0.062243398278951645,0.022292012348771095,0.07270805537700653,0.13148728013038635,0.06961236149072647,0.050371214747428894,-0.10596100986003876,0.019599974155426025,-0.02292841300368309,-0.0436829999089241,-0.013730280101299286,-0.016894547268748283,0.02819806896150112,0.013174454681575298,-0.00011868956789840013,-0.08907809108495712,0.015803979709744453,0.05355255678296089,0.003544764593243599,-0.04907195642590523,0.05634481459856033,0.10488132387399673,0.12303707003593445,-0.1255062371492386,0.1449076235294342,0.041741061955690384,0.014305386692285538,-0.018831968307495117,0.04093608632683754,-0.01249009557068348,-0.2431977242231369,0.0321439765393734,0.016666624695062637,-0.07071785628795624,0.005606059916317463,0.0863928273320198,0.09345366060733795,0.10451789945363998,-0.001672758487984538,0.09067953377962112,0.019495027139782906,0.081581711769104,0.2599031925201416,0.034194428473711014,-0.044220250099897385,-0.05067097023129463,0.05570901930332184,0.05445961281657219,0.18937696516513824,0.02183397300541401,-0.03287259861826897,-0.03871854394674301,-0.018593987450003624,-0.07367011904716492,0.18802018463611603,-0.001522099249996245,0.10865452140569687,0.06092120334506035,0.03365978226065636,0.03061365708708763,0.5435492992401123,-0.03872706741094589,0.1149907112121582,0.12940742075443268,0.013098828494548798,-0.021051941439509392,0.18994255363941193,0.12503238022327423,0.06420593708753586,0.06552445143461227,0.0329275019466877,0.11090452969074249,-0.04257599264383316,0.13859643042087555,0.0635179877281189,0.08078835904598236,0.09185349196195602,0.130893275141716,0.1619718074798584,-0.027133148163557053,-0.06294170022010803,-0.01864560879766941,-0.06061895191669464,-0.08788424730300903,0.005002339370548725,0.12606395781040192,0.048559024930000305,0.03513144701719284,0.02173576131463051,0.13413655757904053,-0.024118367582559586,0.06852269917726517,-0.0022593264002352953,-0.09092145413160324,-0.08355406671762466,-0.1786438673734665,0.1393374651670456,-0.01000065729022026,-0.026320235803723335,0.026777779683470726,0.050430845469236374,0.08718537539243698,-0.03637263923883438,0.03600731119513512,0.08118519186973572,0.01762903667986393,0.04087432846426964,-0.039800338447093964,0.012311549857258797,-0.0016944647068157792,0.08688484132289886,0.008903773501515388,-0.017333129420876503,-0.08345136791467667,-0.07558497786521912,0.04702591523528099,0.005942313466221094,-0.008081774227321148,-0.0034277206286787987,-0.012629288248717785,-0.016823414713144302,0.012457605451345444,-5.0451853894628584e-05,-0.3569374680519104,0.03967537358403206,0.3979012668132782,0.1862746775150299,0.08254982531070709,0.270040363073349,0.05838402733206749,-0.03842567652463913,0.03986377641558647,0.2428291141986847,-0.28866782784461975,0.06382840871810913,0.16687683761119843,0.385602742433548,-0.24173253774642944,-0.11304772645235062,0.09069783240556717,-0.1995224803686142,-0.1369170844554901,-0.11868803203105927,-0.022006306797266006,-0.36514124274253845,-0.22304758429527283,0.0019854384008795023,-0.08607323467731476,-0.07187717407941818,0.04239799827337265,0.16555823385715485,0.1165820062160492,-0.17229942977428436,-0.0359882116317749,-0.24488244950771332,0.005364930257201195,-0.3213462829589844,0.23883047699928284,-0.14255042374134064,-0.19243326783180237,-0.0603284053504467,-0.015623516403138638,0.34817594289779663,-0.4511810541152954,0.21141129732131958,-0.04574568569660187,-0.12716256082057953,0.2539118528366089,-0.20129740238189697,0.021833371371030807,0.09685858339071274,0.007598572876304388,0.15375345945358276,0.20156535506248474,-0.17713680863380432,0.026292424649000168,-0.16310669481754303,-0.05017159506678581,-0.19973452389240265,0.2939302921295166,-0.28248241543769836,0.15759940445423126,0.017522532492876053,-0.09564020484685898,-0.28342124819755554,-0.09078514575958252,0.052564073354005814,-0.14706020057201385,-0.17528238892555237,-0.22555513679981232,-0.09141158312559128,0.19805289804935455,-0.16238459944725037,0.07728234678506851,-0.1675483137369156,0.09011324495077133,0.005761309061199427,-0.07996632158756256,0.02140357904136181,-0.1986808180809021,-0.09917022287845612,0.1506238579750061,0.23902738094329834,0.1790093630552292,-0.2705836892127991,-0.11018761247396469,-0.22549879550933838,0.32405886054039,-0.11443183571100235,0.0803675428032875,0.08747728914022446,0.05296650156378746,0.05887559428811073,0.18893441557884216,0.17060840129852295,-0.030103811994194984,0.02347690984606743,0.011488727293908596,-0.002287117065861821,0.06085212528705597,0.173100084066391,0.12899377942085266,0.06779219955205917,0.05643688514828682,0.04297804832458496,0.07706726342439651,0.30949100852012634,-0.07009056210517883,-0.06453751027584076,-0.035628508776426315,0.0041993833146989346,0.05645699054002762,0.18644948303699493,-0.02168993279337883,-0.06537384539842606,-0.053895819932222366,-0.052734196186065674,-0.12860460579395294,0.02974197082221508,0.111557237803936,0.14034044742584229,0.09855540841817856,0.0357808955013752,0.05223708599805832,0.04661639407277107,-0.017887158319354057,-0.01320531964302063,0.0023401493672281504,0.03205610439181328,0.0911814346909523,0.3569314479827881,0.07870320975780487,0.0011671753600239754,0.019884072244167328,0.014543482102453709,0.0493369922041893,-0.019284306094050407,-0.05296240746974945,-0.06207830086350441,-0.045027170330286026,-0.04302029684185982,-0.17988364398479462,-0.006763552315533161,-0.07833264023065567,-0.031069818884134293,-0.02089635469019413,-0.0977313444018364,0.1640695333480835,-0.20750467479228973,-0.021006722003221512,-0.11145886033773422,-0.06275857239961624,-0.018144793808460236,-0.0484965555369854,0.05345312878489494,0.07885578274726868,0.043622344732284546,-0.004702465143054724,-0.04741080850362778,-0.023674150928854942,0.16557061672210693,0.02576618269085884,0.04820123687386513,0.0014571163337677717,0.09902073442935944,-0.07784305512905121,0.06681054085493088,0.041456837207078934,0.050749629735946655,0.05713069438934326,0.00586705282330513,0.08990466594696045,-0.038857314735651016,-0.0808003842830658,-0.05679295212030411,-0.06795230507850647,-0.030236730352044106,-0.12151824682950974,0.030956411734223366,-0.034142959862947464,-0.06034564971923828,-0.08663737773895264,-0.0037350927013903856,-0.015336969867348671,0.07525360584259033,0.047800272703170776,0.010936833918094635,-0.015260021202266216,0.06076886132359505,-0.009731103666126728,0.11741653829813004,0.027794651687145233,0.006873700767755508,0.045949503779411316,0.0522424690425396,-0.008781041018664837,0.11697699874639511,-0.06757625937461853,-0.040231626480817795,-0.07003287971019745,-0.08329660445451736,-0.049748603254556656,0.06036801263689995,0.09422896057367325,0.08429021388292313,0.09520790725946426,0.09701976180076599,0.02949398197233677,0.038806796073913574,0.0006195371388457716,-0.01045252289623022,-0.003177678445354104,-0.060676198452711105,0.015027444809675217,-0.14011220633983612,-0.09986943751573563,-0.033777520060539246,-0.0929025188088417,-0.04332372173666954,-0.02618664875626564,0.0460236556828022,0.08070798218250275,0.005487432703375816,0.01682700775563717,0.041636623442173004,0.05066365376114845,-0.020402228459715843,0.009725856594741344,-0.018913693726062775,-0.030212925747036934,-0.11303950101137161,-0.00688441377133131,-0.08212102204561234,-0.08387871086597443,0.0033781358506530523,-0.0029663501773029566,-0.018346723169088364,0.0807536318898201,-0.06871816515922546,0.016781818121671677,0.007116631139069796,0.017275184392929077,0.029988428577780724,0.004112240392714739,0.04815048351883888,-0.06004516780376434,-0.011705427430570126,0.050698064267635345,0.08099749684333801,0.11770530045032501,0.13804952800273895,-0.050370506942272186,-0.0017708457307890058,-0.05962521955370903,-0.038573361933231354,-0.061831966042518616,0.11497800052165985,-0.062472447752952576,-0.02035728096961975,-0.0032675277907401323,-0.024009069427847862,0.040367770940065384,-0.10230011492967606,0.028417538851499557,0.023209843784570694,-0.01671081781387329,0.07287521660327911,0.02015179768204689,-0.01651010289788246,-0.0005717048770748079,-0.013442762196063995,-0.04547258839011192,-0.102767713367939,0.031501367688179016,0.008555680513381958,-0.12434675544500351,-0.02380616031587124,0.004551307298243046,0.034589674323797226,0.00010275598469888791,0.04389430209994316,0.05446469783782959,0.11402624845504761,0.05848435312509537,0.0027496516704559326,0.11059413850307465,-0.13069294393062592,0.04075516387820244,0.07228443026542664,0.08292140811681747,0.08356357365846634,0.21514226496219635,0.19110435247421265,0.1375298649072647,0.1517164409160614,0.06808006018400192,0.09243563562631607,0.06090327724814415,-0.15195438265800476,-0.07155606150627136,-0.057436831295490265,-0.05137544125318527,-0.09805750846862793,-0.07653678208589554,0.05018840357661247,-0.09502539038658142,-0.0356646329164505,-0.029366742819547653,-0.04446197301149368,-0.07396771758794785,0.22450217604637146,0.055551331490278244,-0.026583828032016754,-0.067596934735775,-0.06015222147107124,-0.06120782345533371,-0.37868228554725647,0.0019680520053952932,-0.015717966482043266,0.037478987127542496,0.015910839661955833,0.004710726905614138,0.2547594904899597,0.04515797272324562,0.10152452439069748,0.05662225931882858,0.04177797585725784,0.029904963448643684,0.058267828077077866,0.08443588018417358,0.05002862960100174,0.03874518722295761,0.014028329402208328,0.12589499354362488,0.2794691324234009,0.048770830035209656,0.020484400913119316,0.006498448550701141,0.023984238505363464,0.034197524189949036,-0.11738047748804092,0.10457400977611542,0.05690726637840271,0.03387424349784851,0.03669660910964012,0.10498089343309402,-0.08603939414024353,-0.01700880192220211,-0.034628573805093765,-0.0026738515589386225,-0.011275595985352993,0.05779865384101868,-0.008858234621584415,-0.029889430850744247,0.008951196447014809,0.03465574234724045,-0.04703819751739502,-0.007244969252496958,-0.029856644570827484,0.03727218881249428,0.025136811658740044,0.04764017462730408,0.02133418619632721,0.01800544373691082,0.12962442636489868,-0.0231110118329525,-0.017017683014273643,-0.009104914031922817,-0.057087961584329605,-0.02766392193734646,0.0174521766602993,0.08144992589950562,0.05887932330369949,0.0934295579791069,-0.03784521669149399,0.1486358493566513,0.13819767534732819,-0.054043255746364594,-0.0717114731669426,-0.0287178847938776,-0.006677374243736267,-0.015880964696407318,-0.055147331207990646,0.012756106443703175,-0.03908422216773033,-0.0375431552529335,-0.04491554945707321,0.14777341485023499,-0.014723280444741249,-0.13802114129066467,-0.14795032143592834,-0.1693173348903656,-0.17930355668067932,-0.2180858999490738,0.2257392853498459,0.06508726626634598,0.14089711010456085,0.12784013152122498,0.123529352247715,0.21711580455303192,0.02878950722515583,0.025639018043875694,0.014371572062373161,0.013148557394742966,0.00486309127882123,-0.14085730910301208,0.06582534313201904,-0.1343834549188614,-0.050241030752658844,0.010155944153666496,-0.0356670506298542,-0.03154711797833443,0.0464886911213398,0.06670387834310532,0.04809325933456421,-0.0029508289881050587,0.13295380771160126,0.15547530353069305,0.2405502051115036,-0.07417240738868713,-0.07727663964033127,-0.11942653357982635,-0.06438159942626953,-0.09628515690565109,-0.482625812292099,0.10405725985765457,0.06595253199338913,0.02568013034760952,0.08116962760686874,0.11133132874965668,-0.005505174398422241,0.015798397362232208,-0.013791794888675213,0.04239106550812721,0.029564687982201576,-0.039831627160310745,0.0714348554611206,0.14650852978229523,0.15613113343715668,0.09245671331882477,0.03152234107255936,0.15207062661647797,-0.2714114785194397,-0.08362606912851334,-0.1288897842168808,-0.09013912081718445,-0.0485856719315052,-0.23036690056324005,0.014146855100989342,0.010821467265486717,-0.019934380427002907,0.02401389181613922,0.011039805598556995,0.07350517809391022,-0.08003341406583786,0.13541032373905182,0.13898132741451263,0.012107444927096367,0.09291663765907288,0.08765983581542969,-0.04240398481488228,-0.07905463129281998,-0.10934862494468689,-0.029446840286254883,-0.12422671169042587,-0.1316322386264801,-0.06436830013990402,0.1176217570900917,0.03775995224714279,0.09141568839550018,-0.03949465602636337,0.022913744673132896,0.201357901096344,-0.03148651123046875,-0.1479187309741974,-0.0026245706249028444,-0.03205833211541176,0.04903506487607956,0.07543037831783295,0.14303374290466309,0.06282958388328552,0.03251650929450989,